2 10
1 0.0116100935 0.020057844 0.06525095 -0.022295441 0.024174461 -0.056468926 -0.039290924 -0.041466996 -0.0025114121 -0.0030990294
2 0.06602759 0.07079397 0.07091838 0.053271744 0.06677137 -0.017477639 -0.07437543 -0.042718664 0.029785492 0.06417699
