7 10
1 -0.35312313 -0.03122996 -0.27816513 0.09087948 -0.50645286 -0.0897673 -0.22294375 -0.7587797 -0.5633481 0.07133416
0 -0.3445122 -0.0018650999 -0.22603177 0.12540488 -0.49739692 -0.1304649 -0.23110186 -0.7396263 -0.5410897 0.09373701
4 -0.34926507 -0.06643493 -0.23470792 0.15902735 -0.52024484 -0.16469121 -0.27181038 -0.76658237 -0.53486955 0.012938879
2 -0.27768195 -0.07920519 -0.28447652 0.088077135 -0.5554343 -0.12479008 -0.25544488 -0.7365961 -0.5677871 0.08590426
3 -0.3651456 -0.015300158 -0.2076823 0.15377356 -0.4795428 -0.08234843 -0.2280938 -0.78770304 -0.50953966 0.052859753
5 -0.3438755 -0.0972535 -0.28948957 0.13239172 -0.44678745 -0.12879394 -0.21328844 -0.7061605 -0.5227392 0.053864513
6 -0.35164684 -0.09803434 -0.21261454 0.1063206 -0.51866555 -0.18477629 -0.27934706 -0.73199385 -0.6062373 0.0021217214
