7 10
2 -0.4362613 0.083157666 0.7938221 0.31747591 0.17649016 0.19093533 0.27990934 -0.56340545 0.05617092 0.17794602
6 -0.43102616 0.010923073 0.82202154 0.2773404 0.22820523 0.18339394 0.22842257 -0.63535446 0.122434475 0.10208576
5 -0.40429226 -0.0019725647 0.7947081 0.3060538 0.22663051 0.1951596 0.29186794 -0.59509814 0.012365725 0.1502925
1 -0.3585982 0.0998617 0.80974454 0.2999269 0.13731825 0.13315193 0.1233561 -0.61564475 0.13511875 0.16306967
3 -0.23650381 0.08259016 0.8760344 0.23801073 0.10866426 0.17773814 0.011837366 -0.7156036 0.12875606 0.14567478
4 -0.11580123 0.14314559 0.86154705 0.26633158 0.036979277 0.1361495 -0.14727157 -0.76266265 0.20488653 0.073938504
0 -0.10279622 0.14725949 0.889333 0.28623235 0.039487887 0.117985845 -0.14820802 -0.75848377 0.11244506 0.114348345
