7 10
6 0.5560259 0.16488831 -0.028743438 -0.17906433 0.36189103 -0.4707853 -0.46666902 -0.0347228 -0.51397246 -0.55746907
5 0.5232878 0.141156 -0.05451239 -0.09848976 0.3364799 -0.5078295 -0.49653384 -0.01623997 -0.5382322 -0.46221653
2 0.42899117 0.18014349 0.028809749 -0.17882445 0.40192905 -0.4609396 -0.4182198 0.0015452218 -0.522048 -0.51086277
3 0.5251365 0.11893822 -0.055802777 -0.16670297 0.3831356 -0.47569543 -0.48432374 0.03132536 -0.49983987 -0.46282053
4 0.5220858 0.14865729 0.013950574 -0.12562725 0.37901723 -0.5217817 -0.49649906 -0.004055273 -0.49081105 -0.47432372
0 0.50286174 0.1717303 -0.016147377 -0.15847537 0.41239133 -0.5018958 -0.4133078 0.04745688 -0.53898066 -0.5062711
1 0.4710692 0.1520092 -0.06782336 -0.15150656 0.31317744 -0.44883418 -0.43093473 0.011847704 -0.5142838 -0.5078763
