7 10
4 0.5406166 -0.5314054 -0.49578765 -0.123868205 0.3979671 -0.12566131 0.4797686 0.24026148 -0.22868887 0.010898784
3 0.5240684 -0.5817426 -0.48392105 -0.11824486 0.34614816 -0.09276261 0.5208537 0.254209 -0.20960645 0.009654338
2 0.52426887 -0.6458342 -0.52268326 -0.053234506 0.35670158 -0.14411855 0.48243794 0.18912871 -0.09862938 -0.03263982
0 0.5339447 -0.59341264 -0.46774393 -0.06708407 0.31118917 -0.106269315 0.54606926 0.2580078 -0.12144435 -0.040209606
1 0.4624582 -0.53748935 -0.45126328 -0.12958236 0.36179075 -0.15414482 0.50575554 0.21696508 -0.18621302 0.040675793
6 0.5338186 -0.71154696 -0.49911225 -0.106243156 0.37686306 -0.11673198 0.60384136 0.16054836 -0.09767972 0.01985017
5 0.5396799 -0.6865763 -0.5495552 -0.083649956 0.31549785 -0.07002895 0.57727647 0.17652497 -0.058937214 -0.010772359
