7 10
1 0.19957972 0.09620994 0.34593254 0.64293504 -0.11831889 0.22949211 0.23573913 0.7978958 0.20360088 0.082607985
0 0.18745892 0.0842159 0.29589435 0.6230252 -0.17172724 0.27131048 0.2707634 0.80676574 0.18664204 0.055736903
4 0.1942275 0.032186706 0.38727722 0.60482746 -0.0969694 0.20313181 0.31992945 0.79055756 0.21450025 0.053347245
3 0.25010943 0.13537933 0.39464676 0.5562745 -0.18296464 0.23719499 0.17909607 0.8001524 0.19378455 0.12012868
5 0.1629996 0.008573757 0.2889585 0.68770015 -0.1378431 0.19394223 0.36119884 0.800023 0.18822677 -0.02630923
2 0.23662305 0.09540968 0.37894395 0.5941699 -0.18116939 0.21115476 0.20837666 0.7675489 0.19206604 0.08959563
6 0.11715493 0.06650827 0.3571627 0.6979435 -0.074477956 0.29211578 0.37969017 0.77041876 0.10807782 -0.040940996
