7 10
4 -0.24387817 -0.678342 -0.0049075703 0.59103626 0.37337473 -0.05381497 -0.06269111 -0.03596859 0.26362997 -0.6321017
1 -0.21141234 -0.6630393 0.048048742 0.54050076 0.4580811 -0.041873675 -0.13970068 -0.04708932 0.1816854 -0.55270946
2 -0.15657616 -0.68086386 0.029669818 0.48896506 0.52666444 -0.015167255 -0.10053412 -0.021609934 0.26528227 -0.57863426
3 -0.2622229 -0.6391037 0.05504517 0.5634493 0.44688976 -0.01216388 -0.053782452 -0.0647409 0.20135587 -0.5795089
0 -0.20766357 -0.70224506 0.02784334 0.54969275 0.41269746 -0.07173473 -0.11860014 -0.0034789064 0.17709374 -0.5367092
6 -0.27375147 -0.6752376 0.06587799 0.49962312 0.46346718 -0.010118414 -0.04338128 -0.049742423 0.20290741 -0.54291034
5 -0.27183673 -0.68572193 -0.0061727217 0.5842328 0.35427606 -0.03329583 -0.09448764 -0.07469065 0.14203784 -0.53931916
