7 10
0 0.06810585 0.6260858 0.09921236 0.041387495 0.61865413 -0.04003756 0.026097804 0.38625327 0.6669709 -0.2986828
3 0.14431527 0.6194889 0.1706478 0.007630152 0.6161859 -0.08004005 0.02112059 0.34983814 0.6298755 -0.19646017
4 0.102116354 0.5991694 0.1913271 -0.0044914274 0.6097781 -0.037943687 0.023604391 0.3382601 0.66378 -0.24978232
2 0.048624683 0.6420469 0.1508205 0.0706392 0.64700466 -0.11038122 -0.010176526 0.28225574 0.6785904 -0.29932857
5 0.13092004 0.62705255 0.11971497 -0.016187236 0.60730684 -0.08204536 0.06851863 0.35852954 0.67692447 -0.2913984
6 0.14360593 0.6192481 0.18626787 0.04565559 0.62261635 -0.043246754 0.053789604 0.30727875 0.6445858 -0.23431998
1 0.09238343 0.6328841 0.1025676 -0.027717613 0.607088 -0.030702196 0.024544982 0.36947185 0.6659442 -0.2324422
