7 10
5 0.3950028 0.36638248 -0.48942038 0.40610254 -0.32947287 -0.28131554 -0.6377046 0.08744894 -0.20795695 0.3491527
6 0.39835533 0.38971362 -0.45776588 0.40937912 -0.2775146 -0.19002393 -0.6189361 0.13514555 -0.18462321 0.35055512
4 0.39472184 0.37455598 -0.5172992 0.38239652 -0.32807744 -0.28417122 -0.58903056 0.14775017 -0.22858779 0.26779595
3 0.34929496 0.40009764 -0.50958735 0.3408137 -0.3478333 -0.2187468 -0.5898799 0.13534649 -0.2746509 0.34548277
2 0.3822579 0.40275145 -0.5110045 0.37279493 -0.34803873 -0.2655176 -0.584739 0.15686241 -0.2635601 0.31805283
0 0.41194415 0.41471028 -0.47860703 0.37560165 -0.31125432 -0.2027736 -0.56479263 0.10944152 -0.22067112 0.33923566
1 0.4185648 0.42068404 -0.4529043 0.36500925 -0.32612276 -0.28696322 -0.6213723 0.06389771 -0.2767315 0.24168678
