7 10
3 -0.829331 0.12085384 0.21513407 0.3221353 -0.21679172 -0.13579533 -0.10957112 0.4544171 0.26889983 0.45024097
0 -0.7957355 0.087944254 0.20982473 0.30138972 -0.19541954 -0.160864 -0.059963245 0.49995136 0.26889473 0.5332593
2 -0.790965 0.1580711 0.1998467 0.3002671 -0.12993644 -0.12050969 -0.054080755 0.4695816 0.22557828 0.47163644
4 -0.7562892 0.08827742 0.15114145 0.3271499 -0.17433947 -0.15606473 -0.14384604 0.49335444 0.20832719 0.4774254
1 -0.8592828 0.17921518 0.17745337 0.28023317 -0.23095588 -0.17954415 -0.14709494 0.4607869 0.24833992 0.55092466
5 -0.76445675 0.17446524 0.21910208 0.267316 -0.15967615 -0.09451169 -0.09545386 0.5000811 0.22132255 0.53702337
6 -0.7846497 0.11134218 0.16058883 0.3308945 -0.14900959 -0.0897191 -0.11078615 0.49239907 0.20370746 0.49961182
