7 10
1 -0.7738473 -0.54932296 0.042600702 -0.14124134 -0.2022017 -0.37262502 0.4964951 -0.2855651 0.08602366 0.09548212
4 -0.66887474 -0.45777753 0.07764567 -0.20978503 -0.15321137 -0.38747367 0.5398122 -0.20872362 0.08223081 0.1493046
0 -0.66598433 -0.54979974 0.07567279 -0.23297109 -0.23483226 -0.3600555 0.5295397 -0.22081114 0.021183025 0.10999383
3 -0.732264 -0.5889216 0.057773195 -0.2676628 -0.22973664 -0.34209698 0.56393987 -0.19761118 0.02588689 0.085640736
5 -0.7253787 -0.5528839 0.067957014 -0.18712312 -0.23859344 -0.38941073 0.4712218 -0.22569402 0.042591322 0.14414817
2 -0.78814787 -0.49288163 0.09252526 -0.16522105 -0.24138016 -0.42100304 0.4810005 -0.23490714 0.0682982 0.12860195
6 -0.70308775 -0.5052906 0.07964972 -0.24456476 -0.20298538 -0.325936 0.5382406 -0.22389588 0.095005825 0.083894506
