7 10
1 -0.024835536 -0.035868153 -0.23840702 -0.18198903 -0.3028006 -0.55863225 -0.29509985 0.20327911 -0.88055027 0.027465178
0 -0.0060840407 -0.0776911 -0.27169362 -0.24475724 -0.23500004 -0.5642454 -0.2969999 0.16307801 -0.85104024 0.025152199
5 -0.09132574 -0.040073946 -0.19699706 -0.1817557 -0.2570475 -0.6186015 -0.29366368 0.12960608 -0.8726949 -0.026621033
2 -0.015603755 -0.08069121 -0.23652592 -0.21291621 -0.3042502 -0.564693 -0.3146276 0.1472494 -0.90460205 0.05017505
4 -0.032273944 -0.11085528 -0.26823327 -0.18691617 -0.29490274 -0.58533424 -0.3036448 0.19823939 -0.86253995 -0.02480006
3 -0.05392956 -0.061308585 -0.27520669 -0.22656025 -0.33452398 -0.6251746 -0.28480458 0.15313146 -0.85033953 -0.025186889
6 -0.061232198 -0.11027869 -0.21255414 -0.21893506 -0.27796546 -0.5736279 -0.31105027 0.21973097 -0.8639815 -0.013727056
