7 10
0 0.060729183 -0.7199716 0.48878068 -0.066646986 0.110133536 -0.3959628 0.34224877 -0.197386 -0.04662952 0.50981635
1 0.08426449 -0.7786717 0.56693363 -0.047922477 0.18634704 -0.38879624 0.34300944 -0.22843514 -0.015511417 0.51053745
4 0.070964076 -0.7162072 0.51069444 -0.029832214 0.17632052 -0.41966173 0.37809303 -0.21868394 -0.07350537 0.46284124
6 0.10229038 -0.7200434 0.5067168 0.023891477 0.11359043 -0.39868313 0.30290455 -0.25594682 -0.091902815 0.452622
3 0.1256987 -0.7199293 0.5218533 -0.03973658 0.1146783 -0.3954003 0.3303985 -0.23219599 -0.0174444 0.49628496
2 0.09317404 -0.70418566 0.5031254 -0.015402691 0.19662377 -0.40223292 0.33825386 -0.2210173 -0.061286695 0.5248298
5 0.109148584 -0.6889722 0.51034427 0.0036360286 0.2010884 -0.43782955 0.3206115 -0.1626158 -0.079175204 0.550376
