6 10
1 0.1602733 0.37738785 -0.23205538 0.056967676 0.0128891375 -0.08629117 0.60022676 0.41732812 -0.108633325 0.82404107
4 0.22728774 0.40554935 -0.19190826 0.088864185 -0.07375128 -0.036462866 0.61775774 0.4330421 -0.07844722 0.8737354
3 0.20354488 0.30223614 -0.15139826 0.034749318 -0.016648015 -0.013782497 0.5895278 0.44190982 -0.025712997 0.78763175
2 0.21479191 0.28724116 -0.21553582 0.072713666 -0.051692825 -0.060572192 0.59208584 0.4619164 -0.015281068 0.7702936
0 0.16298634 0.34483927 -0.22748314 0.06769318 -0.04292198 -0.005889987 0.60022205 0.43031833 -0.046245396 0.83701473
5 0.17127576 0.34438422 -0.18445389 0.008374411 -0.0122349495 -0.014717327 0.5862638 0.39529562 -0.08694737 0.82674044
