7 10
2 0.21220131 0.28840026 -0.24672975 -0.09267745 -0.12852874 0.06261694 -0.70353395 -0.8141679 -0.110380314 -0.20498349
4 0.24771072 0.34464675 -0.23507428 -0.14900172 -0.17383578 0.08882419 -0.70799977 -0.77105474 -0.032753717 -0.2338359
0 0.32758287 0.3402585 -0.27969503 -0.21402323 -0.09015754 0.109172195 -0.63503546 -0.77763665 -0.074324526 -0.13817589
5 0.23474321 0.34408197 -0.2839306 -0.14435998 -0.15100206 0.12749386 -0.6408425 -0.7457687 -0.09153693 -0.17622618
3 0.2327847 0.29615265 -0.23537293 -0.08099614 -0.16927776 0.03295514 -0.6858232 -0.735091 -0.11802702 -0.2094783
1 0.3186672 0.27973288 -0.2924503 -0.18194741 -0.0864842 0.09861762 -0.68463045 -0.7794402 -0.017849715 -0.2174444
6 0.29260427 0.35562348 -0.313307 -0.17466994 -0.13615271 0.07081706 -0.65845317 -0.7357257 -0.03963169 -0.2261877
