6 10
0 0.5404537 0.12188946 -0.005252322 0.5776883 -0.35768685 0.45612547 0.012519003 -0.44654095 0.08732258 -0.370559
6 0.5872637 0.12314729 -0.11842649 0.59913105 -0.34018776 0.43713063 -0.093506545 -0.4563953 0.0912006 -0.29479587
5 0.5775245 0.11097493 -0.041002445 0.6130134 -0.30488744 0.45776856 -0.021793239 -0.45707938 0.068105526 -0.3747297
3 0.5736084 0.095701575 -0.14406914 0.5799554 -0.31323412 0.47936848 -0.10325328 -0.46140382 0.1383751 -0.3518408
2 0.52421075 0.12280801 -0.16076353 0.5542942 -0.3805514 0.4706059 -0.068758816 -0.41669995 0.11036051 -0.3491956
4 0.59690666 0.071079984 -0.13909395 0.53417027 -0.38369244 0.40205267 -0.09436293 -0.45410833 0.11925529 -0.34617546
