7 10
4 0.3929813 0.734358 -0.004648037 0.39080954 -0.003472329 -0.43410262 -0.15496768 -0.30364546 0.55615103 -0.0015573292
3 0.37235114 0.7283767 0.029763399 0.35510606 -0.0015573091 -0.42241725 -0.16839492 -0.26282907 0.5322318 -0.04586554
0 0.3961753 0.7285995 -0.016977722 0.38086176 -0.05441425 -0.40765405 -0.12430008 -0.2682399 0.5313241 -0.03598235
1 0.33127615 0.7331811 -0.020450858 0.4025246 -0.048491064 -0.38360497 -0.14870654 -0.24761601 0.5074152 0.032064967
2 0.40933114 0.74251217 0.03783866 0.3133134 -0.008847496 -0.41601664 -0.117346086 -0.3103701 0.49251872 0.025837552
5 0.42614606 0.77720124 -0.046249393 0.3316259 -0.08278238 -0.45390028 -0.19690582 -0.33647135 0.5742681 -0.052570432
6 0.36696097 0.730068 -0.00954031 0.38608262 -0.05956343 -0.44663057 -0.19854513 -0.310421 0.5150774 -0.040545404
