7 10
1 0.44367188 0.67434144 0.036647294 0.17024964 -0.04570054 0.18155254 -0.52843595 0.15867707 -0.6825954 0.06686528
2 0.47538453 0.6462924 0.0041904235 0.07039449 -0.00561 0.19903097 -0.5332517 0.104368694 -0.6507508 0.086412154
3 0.45537227 0.65738344 -1.5735046e-05 0.1058017 -0.074747086 0.13620274 -0.54888797 0.13260454 -0.6267458 0.04188159
0 0.4347625 0.6240915 -0.04007601 0.18020874 -0.023870902 0.0994496 -0.5343102 0.17195475 -0.64389116 0.082582235
5 0.46344835 0.6730804 -0.006599485 0.13719569 -0.04857285 0.12707347 -0.53767407 0.13490775 -0.6199494 0.13826632
4 0.47169718 0.6586067 -0.023661356 0.13672261 -0.048398376 0.18543366 -0.48160657 0.17734829 -0.65479624 0.122913085
6 0.42595968 0.653193 -0.0021500892 0.13103141 -0.056164652 0.18171269 -0.51813614 0.17140305 -0.6044083 0.13031344
