6 10
0 0.51360726 -0.33354673 -0.7144355 0.5211257 -0.07367769 -0.32273486 0.07620693 0.19546886 -0.32605663 -0.03169385
2 0.4789537 -0.33996385 -0.74586415 0.5261496 -0.09372302 -0.27055395 0.022831615 0.13879402 -0.35868806 -0.050768074
3 0.5300994 -0.3973059 -0.75799555 0.53439236 -0.14093733 -0.28213322 0.10296906 0.10876833 -0.32714558 0.031467214
4 0.5134078 -0.41006786 -0.7436609 0.48745894 -0.12412134 -0.30396336 0.091863655 0.15540576 -0.3074023 -0.028658833
1 0.51865345 -0.39175168 -0.76664865 0.4914244 -0.055690516 -0.27398038 0.07031541 0.1849806 -0.3466471 0.03294346
5 0.47194952 -0.36127445 -0.7591583 0.49195415 -0.12467745 -0.22960573 0.094753616 0.1153567 -0.30549282 -0.034445062
