7 10
4 -0.38472635 0.4185919 -0.2929716 0.0020795641 -0.3341765 0.46269396 0.008297818 0.7080103 -0.040698327 0.35792038
2 -0.34847882 0.38832325 -0.35978186 -0.021029266 -0.3287581 0.46828163 -0.010612427 0.69296175 -0.09603367 0.40389693
6 -0.39964896 0.46695814 -0.37169224 0.029205319 -0.3461526 0.4279338 -0.050293192 0.6706823 -0.060584456 0.35446215
1 -0.34950304 0.41446102 -0.3119196 -0.014725106 -0.33149993 0.49379164 -0.035279837 0.6858076 -0.012822327 0.35616177
0 -0.37406793 0.44812015 -0.33707818 -0.026106764 -0.3243525 0.46108016 -0.003901272 0.6808116 -0.068672836 0.35244685
3 -0.3582184 0.41546893 -0.3456525 -0.02243728 -0.31989652 0.47769797 0.018735109 0.74772227 -0.09714397 0.38169825
5 -0.30481002 0.4321359 -0.39484113 0.0437756 -0.30674958 0.51198965 0.055999555 0.69692653 -0.04627411 0.43411878
