7 10
6 0.10417348 -0.72310364 0.23844008 -0.16807856 -0.38109568 0.30339924 0.124142945 0.55137914 0.3862542 -0.09717294
5 0.10404629 -0.74746215 0.25340348 -0.24118961 -0.42168242 0.24094887 0.09371973 0.5979986 0.39652172 -0.10785751
4 0.10862474 -0.7279869 0.24956843 -0.2255133 -0.4038684 0.33141044 0.06074777 0.5959816 0.40362072 -0.06644207
3 0.07415655 -0.7412487 0.1877183 -0.23461883 -0.37020543 0.24478942 0.071211524 0.52732235 0.39648795 -0.046276815
1 0.08273783 -0.7725282 0.2047818 -0.2442618 -0.3919619 0.32205042 0.098402835 0.59045774 0.33434916 -0.060938645
2 0.058093816 -0.77287924 0.21147381 -0.19955356 -0.41752526 0.25198403 0.122981474 0.5841412 0.3715004 -0.100610726
0 0.04645306 -0.70987904 0.2321403 -0.20081079 -0.40984166 0.30988124 0.068210416 0.53917915 0.3883962 -0.12036095
