4 10
0 -0.40390995 0.48233342 -0.21487083 -0.038889617 -0.06671794 0.17422615 -0.21017522 0.70833933 -0.44354558 -0.17884576
3 -0.2723651 0.3637409 -0.21039985 -0.05096918 -0.050964676 0.18409163 -0.17989509 0.64007217 -0.38793945 -0.16803415
1 -0.31696707 0.4123629 -0.2111695 -0.04687414 -0.010488212 0.23484068 -0.18474595 0.706661 -0.43636283 -0.11867502
2 -0.40780744 0.50436443 -0.24526572 -0.081006534 -0.114431426 0.20472406 -0.19455327 0.765303 -0.4370338 -0.17997752
