6 10
1 0.75458854 0.013873901 0.49260294 -0.22411415 0.044690374 -0.62309086 -0.028086483 -0.047297496 0.2510001 -0.23671521
3 0.77346325 0.046797115 0.49607384 -0.23665252 0.024959605 -0.6788641 -0.053517457 -0.006438697 0.24047314 -0.23866539
4 0.73451746 0.02366788 0.42987216 -0.25344405 -0.029340543 -0.64411867 -0.06342191 -0.05773985 0.18529147 -0.1897952
0 0.7261712 -0.045356568 0.5188227 -0.24476272 -0.012516373 -0.7073981 -0.08144638 -0.09572279 0.26259694 -0.17646484
2 0.6837969 0.0036591114 0.46565774 -0.1968066 0.056810267 -0.6789538 -0.09984538 -0.040597625 0.25391164 -0.24409352
5 0.6388474 0.006236116 0.496446 -0.17505462 0.035830628 -0.67699623 -0.10311692 -0.05774434 0.255007 -0.23832716
