7 10
4 -0.49131337 -0.3212514 -0.5814045 0.20308772 -0.02211062 0.66326547 0.030119985 -0.25667375 -0.4221389 0.0211722
5 -0.4894488 -0.3623411 -0.5683006 0.19481166 0.06847159 0.6560795 0.06822753 -0.32262868 -0.4411734 0.027613869
6 -0.4526103 -0.36023852 -0.5768973 0.19494733 0.00813576 0.6112609 0.07843266 -0.2576705 -0.437241 -0.018989282
3 -0.4395478 -0.38995263 -0.5275653 0.21089497 0.041953936 0.67526495 2.297919e-05 -0.31295767 -0.44456342 -0.015025441
1 -0.44144145 -0.39758652 -0.5799558 0.19214834 0.056705076 0.65281683 0.04685228 -0.2988533 -0.44236505 0.018587507
2 -0.42669338 -0.36514932 -0.5961864 0.19573212 0.0141431745 0.669857 0.091162235 -0.3141078 -0.39862218 -0.023942137
0 -0.4502867 -0.30117342 -0.6040626 0.17847556 -0.013981968 0.6435479 0.046149015 -0.28751415 -0.47341183 0.04886946
