7 10
2 0.19085467 -0.6431093 0.13906454 -0.40475544 0.26273996 0.240676 -0.7628188 0.038894013 0.17197663 -0.050440684
3 0.21168496 -0.7022844 0.109069824 -0.42319816 0.16715607 0.26689565 -0.76715356 0.08380698 0.21859773 0.010020051
4 0.23054287 -0.6558936 0.11247243 -0.3605425 0.23667759 0.3018673 -0.7029963 0.12692934 0.15769705 -0.05252947
0 0.24537091 -0.69912076 0.15828456 -0.4407317 0.18689138 0.26575357 -0.7142875 0.09296002 0.16946068 -0.052686684
1 0.23517674 -0.6751161 0.12731408 -0.42060208 0.18843238 0.26049265 -0.746112 0.04685157 0.14481421 -0.020897342
5 0.19030263 -0.71836144 0.123724304 -0.42393157 0.23712304 0.27745762 -0.7986496 0.14139046 0.23616098 -0.06734805
6 0.23067826 -0.68227994 0.16812098 -0.3753723 0.2387433 0.31736308 -0.76150125 0.1157647 0.22260539 -0.05772045
