6 10
1 -0.18758734 0.048391335 0.39282116 0.028966252 0.6567728 0.7669658 -0.2786275 -0.36960733 0.100425124 0.09856017
4 -0.23180063 -0.0137434015 0.40743786 -0.048743587 0.65397453 0.6913765 -0.3003527 -0.36512786 0.1713307 0.13279516
3 -0.2526626 0.04084729 0.39944378 0.012232035 0.678141 0.7334748 -0.23077463 -0.40798873 0.08907717 0.10834502
6 -0.26046506 0.08125925 0.3613995 -0.031903047 0.6496244 0.77032614 -0.3073569 -0.42624843 0.16886418 0.057598058
5 -0.20602557 0.06822014 0.41158655 -0.013532576 0.6757108 0.7365607 -0.21988826 -0.33942512 0.1233274 0.07058264
0 -0.17546791 0.0030419081 0.3942493 0.0156696 0.61455345 0.67617416 -0.22906539 -0.37029123 0.13434991 0.14516896
