7 10
0 -0.29588422 0.45645228 -0.008765736 -0.72030807 -0.05488278 -0.6445874 -0.27625102 0.27321687 -0.11886863 -0.03275667
1 -0.32150888 0.42335755 -0.08397383 -0.7241035 -0.06261804 -0.65951216 -0.3039895 0.28109 -0.099963054 0.06171173
4 -0.36097014 0.47149783 -0.030830868 -0.7615945 -0.08857613 -0.6250497 -0.2724292 0.2785256 -0.12421086 0.047975097
3 -0.3538526 0.4547901 -0.034528688 -0.78290045 -0.04039835 -0.6455731 -0.24001989 0.20783958 -0.16984987 -0.03706764
2 -0.3550966 0.44078094 -0.053877823 -0.6953494 -0.0011558896 -0.6221915 -0.28790268 0.25603542 -0.1692807 -0.02912743
5 -0.35945106 0.46838263 -0.082128935 -0.68424815 -0.05404915 -0.6242448 -0.22111717 0.24103785 -0.1577582 0.074514516
6 -0.3272072 0.48962614 -0.017829709 -0.7209682 -0.06669059 -0.5723516 -0.27378628 0.2601845 -0.1896108 0.059642617
