7 10
2 -0.6541383 -0.32146952 0.16247572 0.042397648 -0.7516961 0.35187584 0.1382048 -0.30215865 0.047931403 0.0013139975
1 -0.6851049 -0.34710538 0.16051477 0.0023974979 -0.7303194 0.37417123 0.1498063 -0.26419246 0.022998214 0.03749579
4 -0.67704684 -0.34061185 0.13908799 0.0650881 -0.72707146 0.3678124 0.08272006 -0.31745163 -0.030792257 0.08381707
5 -0.6609108 -0.3342268 0.191806 -0.025398185 -0.7573465 0.34714234 0.1427986 -0.3051267 0.009395911 -0.000983748
6 -0.68344826 -0.27595866 0.16156806 0.036876038 -0.75427437 0.30963087 0.122792095 -0.26658583 0.0028255312 0.025389163
0 -0.68380034 -0.30635166 0.1441023 0.018212413 -0.772942 0.38081676 0.1630247 -0.32397735 0.003332333 0.07163351
3 -0.69834226 -0.3066173 0.11656068 0.026337896 -0.7061019 0.36187664 0.08424643 -0.2954998 0.043238528 0.037438493
