7 10
0 0.50612766 0.08478908 0.057829224 0.47242966 0.05408764 -0.13619892 -0.55893797 -0.4509751 -0.08086555 0.61217976
1 0.47930223 0.16695629 0.059433926 0.48391682 0.06970181 -0.12836005 -0.53660953 -0.4194833 -0.096049204 0.61335695
3 0.4774395 0.16415323 0.042431377 0.5068945 -0.00036550887 -0.14749308 -0.58580106 -0.47298288 -0.10390994 0.5998442
2 0.4573809 0.10783998 0.12804028 0.41856417 0.031208633 -0.16045588 -0.6151359 -0.45378354 -0.120786615 0.60151714
5 0.50391424 0.16976774 0.10964976 0.45533687 0.004545074 -0.11312495 -0.5604982 -0.41044953 -0.15094228 0.58176655
4 0.48842558 0.12676758 0.06620638 0.45345572 -0.0049368623 -0.11155829 -0.5714222 -0.4256459 -0.08693331 0.5917483
6 0.50771827 0.074874386 0.059551783 0.43717965 0.049868178 -0.09149798 -0.5978648 -0.4014806 -0.069041714 0.6261772
