7 10
5 -0.050331015 -0.52338356 -0.13094611 -0.23022671 -0.66941833 0.002650367 -0.7665479 0.056403805 0.36661407 -0.10029637
2 -0.039303448 -0.48734355 -0.12114653 -0.20855322 -0.6371642 0.015874358 -0.6632737 0.014935423 0.33066094 -0.13311934
4 0.026662376 -0.52471846 -0.13793921 -0.20093046 -0.6534134 0.002976069 -0.73743695 0.065184295 0.3414456 -0.15166678
1 -0.028324474 -0.528764 -0.04758048 -0.22472197 -0.66466355 -0.06727249 -0.6923275 0.11090498 0.411318 -0.12205
3 0.0036150021 -0.46766564 -0.15061375 -0.15800823 -0.60298747 0.02466986 -0.7742288 0.038227767 0.31611806 -0.11816514
0 0.038369533 -0.5056306 -0.14867729 -0.1464618 -0.67962646 0.047968604 -0.7470401 -0.020009903 0.40753543 -0.09212163
6 0.047655094 -0.44193834 -0.154806 -0.19997917 -0.56447613 0.017668443 -0.66660506 0.0055637434 0.34184045 -0.056174524
