7 10
3 -0.4970071 -0.16735029 -0.26961967 0.86807746 0.18267491 0.26638153 0.3534235 -0.046340577 0.194805 -0.04255867
2 -0.522466 -0.1392067 -0.3450366 0.8535207 0.17804417 0.30338714 0.41380978 -0.04965938 0.19347233 -0.039003313
1 -0.48203942 -0.108344615 -0.29120624 0.7952303 0.12010646 0.26430652 0.40866026 -0.10156225 0.19004105 -0.09306822
4 -0.44144413 -0.099317096 -0.35783806 0.8828852 0.098559156 0.32422724 0.4068952 -0.030860968 0.17153239 -0.12713575
5 -0.5843806 -0.12917124 -0.38837448 0.8761375 0.1537053 0.30797338 0.41594583 -0.018860452 0.18552293 -0.13677782
0 -0.4594612 -0.16481037 -0.3183075 0.78141636 0.100599274 0.3084359 0.35484108 -0.08100606 0.20281468 -0.12718174
6 -0.41086724 -0.07473166 -0.2731505 0.8237573 0.13730687 0.31063563 0.4005221 -0.039776064 0.14301193 -0.10602515
