7 10
5 -0.29486445 0.019762527 0.15170832 0.47966573 -0.71608424 -0.3528529 -0.314236 -0.097980365 0.0231479 -0.6047992
2 -0.26307306 0.018278887 0.10020686 0.4417034 -0.77011317 -0.35883725 -0.36831003 -0.043158956 -0.03859813 -0.60057896
3 -0.26745406 0.050398525 0.097829305 0.47545198 -0.71288115 -0.33630136 -0.32751927 -0.025759699 -0.019681443 -0.6029524
4 -0.2658399 0.06821526 0.06827494 0.4778842 -0.67718446 -0.36537188 -0.29563263 -0.027052214 -0.03153277 -0.5799678
0 -0.25842652 0.04249351 0.08516916 0.486683 -0.74683106 -0.3368905 -0.34350547 -0.06036683 -0.042147055 -0.57703143
1 -0.24512023 0.0049344236 0.12822253 0.49109167 -0.7147871 -0.32787254 -0.3626458 -0.0045490726 0.02442388 -0.6000495
6 -0.22632107 0.06163071 0.102736 0.48141605 -0.7503856 -0.39780048 -0.3454279 -0.108262144 0.020582736 -0.5547478
