6 10
3 -0.09094102 0.031087922 0.054376133 0.4389367 0.23555313 -0.2508429 0.4454508 0.7409441 -0.1319565 -0.5633191
0 -0.16440459 0.17149445 -0.053230114 0.43723258 0.3170038 -0.24390404 0.40997183 0.7829148 -0.07486429 -0.52881896
4 -0.09526691 0.06318953 0.0015532891 0.43808025 0.23693031 -0.19789712 0.3928534 0.75645083 -0.10316486 -0.56174606
5 -0.14053209 0.13595606 0.01739595 0.45859742 0.26866427 -0.2727257 0.38674212 0.71719795 -0.054923493 -0.53911406
2 -0.0792775 0.0028412007 -0.0010437402 0.46910766 0.21902326 -0.19531569 0.4331395 0.7038539 -0.13877577 -0.5255974
1 -0.10671824 0.17550096 -0.034916263 0.43877238 0.25807855 -0.26669458 0.3458409 0.78815067 -0.13478023 -0.49675387
