6 10
1 -0.20999588 0.01563039 0.13333343 0.25094625 0.33872643 0.16256565 0.24216646 -0.17619807 0.75512403 -0.6675253
2 -0.22422832 -0.018407613 0.11824105 0.22038144 0.35412282 0.21874455 0.18646066 -0.23324037 0.76300675 -0.6323559
5 -0.2297729 0.044691235 0.05814703 0.22975959 0.33319306 0.22527274 0.22551084 -0.1925714 0.806877 -0.61929584
3 -0.21719164 0.029799687 0.094353236 0.19394258 0.32155335 0.21053351 0.23023996 -0.19268814 0.7725182 -0.65720516
0 -0.17926078 0.0026404287 0.1318833 0.20559804 0.31736103 0.12563038 0.22232577 -0.20137362 0.78644687 -0.6728843
4 -0.23106618 -0.026522083 0.12124994 0.2606745 0.34609076 0.16657124 0.20265624 -0.19560546 0.7976418 -0.63022023
