7 10
3 0.01642934 -0.38652128 0.23281214 0.64390695 -0.5600983 0.28881246 -0.14771993 -0.35976717 0.27328327 -0.35775244
1 -0.030665414 -0.42697912 0.2830601 0.6967805 -0.5442526 0.28487188 -0.059564706 -0.3181286 0.34262285 -0.3553034
4 0.006823608 -0.3813768 0.2712796 0.6556051 -0.5239713 0.3010988 -0.074663274 -0.35317954 0.31775117 -0.40488347
5 -0.040351566 -0.37055716 0.24430947 0.6618709 -0.5534447 0.27192223 -0.12595755 -0.33198726 0.3410994 -0.32722124
6 -0.03519686 -0.37874386 0.21901467 0.6752281 -0.49178126 0.30831185 -0.11867713 -0.36738214 0.31318092 -0.3805038
0 0.00014919789 -0.44236913 0.2339539 0.64096 -0.5373354 0.22891748 -0.04313772 -0.38850874 0.31533813 -0.42207542
2 -0.034343522 -0.36161 0.23738939 0.6923836 -0.556131 0.24476732 -0.13293374 -0.32529053 0.28217942 -0.355422
