6 10
2 0.4115407 -0.10137743 0.18201399 -0.024940323 0.40765965 0.4780179 0.48247236 -0.6760386 -0.4051341 0.005795911
1 0.39646685 -0.05602601 0.18787311 -0.019289304 0.38920054 0.49573275 0.5014977 -0.68769336 -0.4393814 -0.058469407
4 0.40139806 -0.024435967 0.13147692 -0.042712275 0.34697345 0.45885673 0.42489433 -0.6211068 -0.43024236 -0.014639414
3 0.37847733 -0.02042385 0.18256415 -0.048765242 0.4169884 0.50226927 0.46605462 -0.5993343 -0.45713276 0.033918258
0 0.39648372 -0.085393414 0.10863154 -0.08115879 0.3478388 0.46952707 0.37719423 -0.6318018 -0.42841092 -0.025171027
5 0.37535158 -0.034720317 0.18794377 -0.06930986 0.3618138 0.394249 0.42707804 -0.57954055 -0.41013682 -0.024000281
