7 10
5 0.4551132 -0.38501474 -0.17043999 -0.43436936 -0.7015494 0.5138336 0.028388053 0.1391405 0.053833622 0.09080608
6 0.5004197 -0.34752467 -0.18277742 -0.43173826 -0.6937238 0.5281422 0.064020224 0.12701288 0.08700075 0.036831096
3 0.5445442 -0.3680812 -0.16895019 -0.47312668 -0.68404216 0.5074543 0.05643485 0.14970128 0.078724846 0.0124605615
4 0.50039977 -0.2973037 -0.15225342 -0.4498782 -0.6955366 0.48410153 0.055529054 0.21106762 0.07925531 0.010737275
0 0.48586357 -0.39007854 -0.11857462 -0.40744603 -0.70766866 0.54448426 0.03178244 0.21074836 0.04830221 0.08213074
1 0.5068057 -0.38203984 -0.19669549 -0.42983735 -0.6735888 0.514378 -0.022472668 0.17806117 0.027381271 0.05314019
2 0.5130654 -0.30759212 -0.18874778 -0.45459154 -0.68640405 0.5630168 -0.027149834 0.19103664 0.071777724 0.06408224
