7 10
1 0.17409189 -0.3670542 0.26777738 0.65597373 -0.15006314 0.40131813 -0.28717843 -0.1625205 -0.6475422 -0.46594402
2 0.14952695 -0.38971475 0.20030774 0.66081643 -0.1252703 0.422811 -0.27245504 -0.08415444 -0.60113794 -0.41985407
0 0.09315208 -0.36046553 0.25371036 0.621071 -0.12242218 0.41080484 -0.2586736 -0.1577875 -0.57992625 -0.42618287
6 0.1059051 -0.39464605 0.18301685 0.61179256 -0.0980774 0.4348736 -0.24987556 -0.09978727 -0.6188991 -0.36747175
3 0.13782609 -0.3262402 0.27392992 0.6007917 -0.120974295 0.39952388 -0.24022487 -0.0890811 -0.6090857 -0.40174443
5 0.19730794 -0.40447122 0.23336746 0.64947563 -0.16046208 0.45654777 -0.3131169 -0.10776424 -0.5353776 -0.4427216
4 0.17875233 -0.3425241 0.27530566 0.62873244 -0.13184811 0.42585617 -0.22624762 -0.16636439 -0.570203 -0.37073225
