7 10
3 -0.33422726 -0.44920272 0.42175967 -0.27522117 0.43250185 -0.59691423 -0.08407179 -0.45815057 -0.119080245 -0.23880725
5 -0.30820277 -0.42581877 0.3991002 -0.3039511 0.47191027 -0.62355834 -0.15044594 -0.4674897 -0.07612568 -0.19557142
6 -0.38025478 -0.46529475 0.39924535 -0.27624145 0.44046476 -0.6156661 -0.15304957 -0.40188345 -0.057180088 -0.2147495
4 -0.3808389 -0.44695082 0.41574034 -0.316302 0.41068864 -0.6272624 -0.11920171 -0.46652815 -0.14806418 -0.20754436
2 -0.2883067 -0.47427887 0.38838953 -0.25734165 0.47433156 -0.63295394 -0.108954825 -0.43996334 -0.10328225 -0.24317724
0 -0.2952183 -0.47667733 0.4496246 -0.33944803 0.4062779 -0.6524084 -0.06571363 -0.39667016 -0.11543445 -0.25002494
1 -0.37970233 -0.45053732 0.35554096 -0.31473216 0.38602114 -0.6502 -0.105819374 -0.44591781 -0.14911798 -0.22589017
