7 10
0 0.21718796 0.10950898 -0.20854682 0.23110959 0.5099838 -0.2932573 -0.7839916 -0.4864572 -0.27660742 0.08282183
6 0.1859397 0.07725948 -0.19531712 0.16977999 0.5430683 -0.304742 -0.7394238 -0.5196523 -0.28316176 0.08052816
1 0.14289911 0.056030307 -0.15161122 0.22939758 0.5502429 -0.31327078 -0.7885384 -0.45835024 -0.22031717 0.086927086
3 0.18854816 0.051690146 -0.21100292 0.17378667 0.56593657 -0.33855465 -0.7417358 -0.53157556 -0.24105287 0.08008579
2 0.19456717 0.11069153 -0.16752708 0.14065905 0.5419032 -0.32965633 -0.7405705 -0.44925863 -0.248482 0.13791992
4 0.13381052 0.01627455 -0.23169516 0.2132646 0.52934027 -0.2964793 -0.67689365 -0.5840666 -0.3212422 0.12402648
5 0.09805441 0.059031222 -0.2102976 0.19210425 0.5886391 -0.31920016 -0.6727315 -0.5753771 -0.32452178 0.088757016
