7 10
5 0.62423486 0.42895862 0.36873746 0.18411092 -0.12674497 0.030881492 -0.23752296 0.36221153 -0.4387941 -0.56616676
3 0.6339361 0.40342677 0.31654492 0.26709804 -0.080457605 -0.05061053 -0.28616375 0.37521234 -0.39477426 -0.52549756
1 0.60181457 0.35059845 0.31793925 0.26629445 -0.14624706 -0.04850282 -0.30669677 0.38206458 -0.38809675 -0.55595297
4 0.6103005 0.40459412 0.3296413 0.28981164 -0.15545006 0.004136909 -0.2934168 0.32083884 -0.36102328 -0.52953213
6 0.5854784 0.39987665 0.2999823 0.22474712 -0.09202882 -0.006029239 -0.3073494 0.34082875 -0.41024455 -0.5346112
0 0.5607036 0.40687478 0.35136637 0.26555216 -0.07195946 -0.03335997 -0.306697 0.38756916 -0.39303133 -0.53033465
2 0.5880901 0.4032494 0.3045327 0.26403496 -0.12929103 -0.010815581 -0.2917213 0.40658608 -0.44413766 -0.5200857
