7 10
0 -0.533368 -0.11899511 0.508546 -0.14047958 0.057566818 -0.13103957 0.37521636 -0.6759569 -0.4598201 -0.13563673
5 -0.4623608 -0.08305653 0.5121191 -0.15202521 0.009746817 -0.15989411 0.3552427 -0.65649575 -0.4186221 -0.040763833
2 -0.50053334 -0.13835074 0.523793 -0.19000134 0.083854005 -0.15544961 0.32782477 -0.6714907 -0.42975307 -0.06633721
1 -0.56640494 -0.17900726 0.52972615 -0.12325819 0.07202616 -0.16390276 0.33037147 -0.6682236 -0.4855461 -0.060032044
3 -0.5661553 -0.16204438 0.4764748 -0.2003938 0.062235225 -0.11397864 0.36809543 -0.6781891 -0.45791703 -0.13085915
4 -0.52887 -0.19815545 0.5112397 -0.20606712 0.11806766 -0.14941528 0.33387104 -0.65060586 -0.4650271 -0.10447961
6 -0.56999475 -0.14342962 0.4573437 -0.18357128 0.070968114 -0.13863279 0.3371831 -0.7163097 -0.4200591 -0.08648834
