7 10
5 0.5436358 -0.020416422 0.20107646 -0.5947349 -0.38691333 -0.28751752 -0.17151916 -0.6458151 0.04967729 0.062789574
1 0.5053032 0.023885049 0.20616446 -0.58115983 -0.39707935 -0.33943346 -0.11863769 -0.6650529 0.062416773 0.057016682
2 0.56506264 -0.054540377 0.20588803 -0.5881857 -0.42114073 -0.27521533 -0.18331897 -0.6230589 0.060344405 0.050528828
0 0.5388322 -0.04919289 0.17901258 -0.6112672 -0.39392802 -0.31163105 -0.11034396 -0.6685214 0.09103039 0.0014201041
3 0.52194804 -0.06685197 0.21183804 -0.54772234 -0.35650456 -0.29489866 -0.1952731 -0.6139654 0.04184128 0.067928284
4 0.58923554 0.025572676 0.16033831 -0.5886318 -0.36730295 -0.293106 -0.1718128 -0.6914487 0.031347364 0.089530505
6 0.46890995 0.023749188 0.1606746 -0.5865596 -0.37093917 -0.31988838 -0.14840324 -0.6409947 0.09555595 0.047924943
