7 10
3 -0.32611516 -0.010763302 -0.0042556976 0.041569777 -0.4927939 -0.16821466 -0.63092774 -0.38191077 0.16172503 -0.655666
4 -0.38403144 -0.025901023 0.0241094 0.060826804 -0.46086815 -0.23738459 -0.6146528 -0.41236004 0.15611103 -0.6494183
5 -0.37027073 -0.010418399 0.025216019 0.003145108 -0.5222465 -0.23430978 -0.6249868 -0.42427897 0.19128649 -0.64546686
0 -0.35624292 -0.055936452 -0.02937433 0.044728942 -0.49946356 -0.19540358 -0.5733112 -0.41438493 0.22942287 -0.6124991
6 -0.36003855 -0.01898894 0.044958103 0.096318044 -0.47954655 -0.22780234 -0.68006366 -0.3598331 0.24851955 -0.6672903
1 -0.35781148 -0.08429519 -0.0057693096 0.09101294 -0.4913843 -0.22048219 -0.58567214 -0.4169253 0.18133447 -0.64267886
2 -0.36186722 -0.07212317 0.054503918 0.044612546 -0.53071284 -0.2347588 -0.6149653 -0.42086518 0.16370653 -0.5968195
