7 10
6 -0.04811203 0.33517295 -0.85593826 -0.06820688 -0.085110016 -0.19009142 -0.6399806 0.04426476 -0.38756523 -0.23304287
1 -0.035430778 0.272335 -0.8494243 -0.009779806 -0.036560673 -0.19989607 -0.67291325 0.024787482 -0.31568906 -0.17083141
3 -0.088396735 0.28542906 -0.8431597 -0.014938227 -0.055103492 -0.13353564 -0.6787425 -0.013779371 -0.26484886 -0.17079379
5 -0.071737625 0.28478232 -0.83502406 -0.028157493 -0.059969146 -0.16261043 -0.6425066 -0.0036666337 -0.3149286 -0.21955281
2 -0.03926766 0.27031368 -0.8215748 0.00041686225 -0.031658247 -0.18340793 -0.67186755 0.041546494 -0.35923386 -0.2283499
0 0.013484371 0.2524459 -0.80915356 -0.05480146 -0.0034131536 -0.20958482 -0.6474565 0.06742508 -0.3454645 -0.21488181
4 -0.017014056 0.34391278 -0.8036799 -0.033419766 -0.111397356 -0.23739979 -0.6543144 -0.0078086928 -0.3311547 -0.19693416
