7 10
5 0.01864768 0.17387217 -0.64361244 0.2576452 -0.4499936 0.30784738 -0.26907682 -0.49224636 -0.05417304 -0.52339125
4 0.08162078 0.20035101 -0.61817676 0.344197 -0.46398225 0.2751835 -0.28457102 -0.49025705 -0.031655297 -0.48868516
6 0.07607442 0.23419304 -0.6524876 0.2749588 -0.49816075 0.30136237 -0.24778971 -0.43086192 -0.08356814 -0.46661466
3 0.09855731 0.20117408 -0.649688 0.3288893 -0.4746261 0.30504516 -0.29615638 -0.45046976 -0.0030984858 -0.49013856
2 0.036178738 0.21581241 -0.6832969 0.29130244 -0.46030435 0.2876101 -0.29717228 -0.45485076 -0.02434603 -0.46453714
1 0.035538174 0.18623124 -0.63589406 0.31817216 -0.42540038 0.2813961 -0.30134937 -0.47331905 -0.007094006 -0.50459707
0 0.048640497 0.2005389 -0.6582365 0.3430526 -0.47051153 0.25942922 -0.22101913 -0.4564931 -0.06814481 -0.41669676
