7 10
4 -0.036367614 0.7001361 -0.3744198 -0.284729 -0.3377641 -0.73760635 -0.19230609 -0.07508683 0.04475488 0.29266202
5 -0.074337766 0.6975878 -0.3789134 -0.22745097 -0.3607618 -0.72077507 -0.23005302 -0.11117043 0.019497463 0.23315784
1 -0.12723117 0.6430448 -0.40193257 -0.31284603 -0.31759143 -0.6800664 -0.17669447 -0.057078768 0.1581185 0.2894312
0 -0.051633712 0.67328995 -0.32405272 -0.22082849 -0.30202037 -0.7047943 -0.19536115 -0.032850392 0.023405807 0.26103652
6 -0.08015002 0.6615938 -0.3677398 -0.22221301 -0.35754043 -0.6865647 -0.16339538 -0.058276106 0.07295212 0.27627346
3 -0.042467795 0.71125907 -0.37250718 -0.34161595 -0.3099282 -0.6952691 -0.13909982 -0.042876385 0.15262562 0.3312515
2 -0.08894942 0.6132399 -0.4101253 -0.2857819 -0.3634474 -0.73552096 -0.1794817 -0.114496045 0.1113273 0.3143014
