7 10
5 -0.14234264 0.020334247 -0.9918463 0.39966756 -0.23915459 0.35091925 -0.09681104 0.14938395 0.13266347 -0.11107964
2 -0.17557922 0.009987271 -0.96798867 0.37239656 -0.25524202 0.30923113 -0.17165084 0.14129816 0.1748137 -0.1360914
0 -0.10667204 0.09786924 -1.0146917 0.4182627 -0.2110019 0.26493114 -0.17251176 0.12943669 0.16261579 -0.06907802
1 -0.15709658 0.087732114 -0.98192644 0.42968524 -0.25071904 0.3328991 -0.14219192 0.11783072 0.19979292 -0.098460354
3 -0.13281247 0.061443627 -0.9435595 0.39139143 -0.26041162 0.35635385 -0.18609908 0.06882454 0.19152091 -0.12984219
4 -0.11947418 0.10829994 -0.98154414 0.35601893 -0.17624748 0.34144205 -0.15323548 0.08182121 0.2085363 -0.13414434
6 -0.10320366 0.049996544 -1.0062776 0.4461668 -0.26634914 0.36476666 -0.11331652 0.16652699 0.12507331 -0.06608425
