6 10
1 -0.6541182 0.38854942 0.4071717 -0.51073146 -0.35101184 -0.33669648 -0.21461798 -0.1287603 0.1299776 0.010690799
2 -0.66355664 0.37462 0.47399843 -0.4862298 -0.43387812 -0.38030627 -0.1021741 -0.26307 0.10428928 -0.028920602
3 -0.7114401 0.39806414 0.48696905 -0.54778594 -0.4442237 -0.3706545 -0.14092878 -0.27565444 0.08220025 -0.08992038
6 -0.6414037 0.36115754 0.46694106 -0.4287364 -0.40181708 -0.37915313 -0.2124081 -0.119583935 0.09572415 -0.08342616
5 -0.6522192 0.37777525 0.42990932 -0.49153888 -0.3810465 -0.34680164 -0.17957869 -0.17609634 0.08051144 -0.061132338
4 -0.692462 0.4105345 0.5020982 -0.5062155 -0.43891445 -0.38858953 -0.064847246 -0.27600995 0.09210917 -0.011894739
