6 10
1 0.41809577 -0.22821975 -0.6536659 0.40677652 0.12178028 -0.13413599 0.1792517 0.17585401 -0.4144256 -0.48376438
0 0.40001565 -0.18321148 -0.6312169 0.3951246 0.13529709 -0.09413148 0.22068575 0.13017973 -0.45145336 -0.52957094
3 0.3677528 -0.26743087 -0.6775882 0.40349734 0.12661421 -0.16472623 0.19808882 0.12024015 -0.45958912 -0.5635015
4 0.4182839 -0.25121558 -0.6938394 0.37470633 0.10401695 -0.16113985 0.25669464 0.109842785 -0.42525515 -0.57398796
6 0.42401543 -0.267507 -0.66420573 0.3868583 0.09551189 -0.10400666 0.18139239 0.17189439 -0.43609142 -0.5483833
5 0.36485204 -0.2826608 -0.6653227 0.35781112 0.11240523 -0.17120782 0.2616556 0.1599092 -0.4644165 -0.49647316
