7 10
1 0.40821645 -0.5185494 -0.9592223 -0.35586116 -0.388341 -0.46434084 0.061041124 1.2699729 -1.102939 0.9293558
2 0.7176606 1.052349 0.52265614 -1.3436114 0.07467625 0.5886996 1.1961542 0.07323345 -0.5516044 -0.68220323
6 0.72528523 1.0005323 0.5092177 -1.2766825 0.06770831 0.5821059 1.1140904 0.08558867 -0.56340337 -0.6162802
5 0.7170839 1.0467062 0.46973422 -1.3269464 0.07514013 0.60227215 1.1756531 0.012530368 -0.572234 -0.6733373
3 0.28053784 -0.42448664 -0.8330771 -0.23705697 -0.28510398 -0.40802342 -0.0018463279 1.1399773 -0.9796296 0.7982641
4 0.3318513 -0.3614926 -0.73237973 -0.2726854 -0.32772386 -0.4160323 0.008159804 1.0891125 -0.9189709 0.75733876
0 0.3667203 -0.38340324 -0.8213798 -0.32782528 -0.3060055 -0.389417 0.01584726 1.141716 -0.9652509 0.7747064
