6 10
1 0.9201376 0.119724095 -1.2512928 0.938668 0.5731849 0.118728004 1.1556538 -0.105991736 -0.8406776 -0.26758856
3 0.94226456 0.066747166 -1.244716 0.8798734 0.5111461 0.17589338 1.0645188 -0.055417687 -0.7818937 -0.2582271
5 -0.217183 -0.7551045 -0.38531035 -0.19422856 -0.6941014 0.109835684 -0.34409913 -1.2113899 -0.64909804 0.9956028
6 -0.23012279 -0.72783965 -0.46805122 -0.22779778 -0.66589916 0.05374177 -0.30811808 -1.2039287 -0.63365155 0.9784994
4 -0.21847664 -0.6952609 -0.34649432 -0.16753048 -0.6327924 0.116139494 -0.2619017 -1.1485372 -0.60224956 0.92207515
0 -0.17188781 -0.6300458 -0.3778569 -0.20871225 -0.6069252 0.12676728 -0.23029503 -1.1007692 -0.60154605 0.8764894
