7 10
2 0.35300902 -0.5880402 -0.4853708 -0.4235107 0.44759694 0.3074502 -0.011004551 -0.14714327 -0.21491615 -0.5110675
5 0.42008907 -0.5406444 -0.45043325 -0.3728004 0.50418496 0.36322534 -0.070624866 -0.1282287 -0.15616234 -0.44348592
4 0.34868512 -0.54399693 -0.44965068 -0.37095752 0.52783334 0.2819454 -0.103584304 -0.08512708 -0.18821576 -0.45649093
1 0.3787017 -0.5831432 -0.45154756 -0.4317501 0.46169117 0.33310807 -0.07284316 -0.15514693 -0.12950414 -0.41558465
6 0.39189616 -0.5477578 -0.3899268 -0.33924925 0.50198895 0.3188689 -0.0329699 -0.11562126 -0.2116958 -0.4532115
3 0.39651772 -0.581499 -0.45211276 -0.38524365 0.5147088 0.31584376 -0.0718036 -0.08098288 -0.21451202 -0.46128702
0 0.432412 -0.55023205 -0.40650213 -0.4275703 0.52901864 0.33086342 -0.078228794 -0.08368101 -0.121001214 -0.4366536
