4 10
3 0.6544575 0.04203291 -0.30079985 0.8512099 0.60915625 0.45306972 -0.59887415 -0.30882683 0.13702057 -0.57743984
4 0.65936863 -0.033513654 -0.34248993 0.8671923 0.65279263 0.52076817 -0.67766047 -0.29287568 0.06376297 -0.5562585
2 -0.27399734 0.24551916 -0.4094041 0.12873502 -0.19902435 -0.9702179 0.29385313 1.0599372 0.19402884 -1.0093718
0 -0.26551142 0.1719633 -0.3765802 0.099518165 -0.29851374 -0.8701666 0.33886644 1.0043359 0.14406942 -0.8723778
