7 10
1 0.0949669 -0.80536115 0.16431676 -0.4526732 0.21515594 -0.4212568 -0.2306195 0.13600215 -0.10759026 -0.4780453
0 0.09510281 -0.80321324 0.18138877 -0.36355555 0.27657133 -0.45275724 -0.1293496 0.12916102 -0.11959788 -0.4863236
6 0.06661348 -0.79893005 0.2021944 -0.44486466 0.29539844 -0.3906291 -0.1660891 0.18538064 -0.15266043 -0.42896712
5 0.028015263 -0.8012525 0.13310878 -0.42417628 0.22764948 -0.47194827 -0.22690327 0.1025233 -0.119162 -0.4796531
2 -8.554405e-05 -0.80828846 0.16472772 -0.3766385 0.3026553 -0.44563794 -0.19633009 0.12413696 -0.10841593 -0.49447748
3 0.036212597 -0.8093608 0.22092079 -0.45109594 0.29509768 -0.45916155 -0.201184 0.17146417 -0.15645488 -0.43820336
4 0.07320173 -0.7599866 0.1278986 -0.41552413 0.26125252 -0.46193942 -0.21237239 0.094632335 -0.15219383 -0.38505715
