7 10
3 0.0038753294 -0.6524196 -0.22828837 -0.0038660844 0.41178292 -0.09723511 -0.091810554 0.19808799 0.70628226 0.44157034
1 0.07799517 -0.6244509 -0.26401472 0.019660994 0.3949963 -0.10066805 -0.1287997 0.2495387 0.74840164 0.45711753
0 0.013454757 -0.6112921 -0.22332639 0.04729107 0.37458578 -0.10845399 -0.13060564 0.2581118 0.7341295 0.4474485
4 0.08856418 -0.62369174 -0.18625171 0.0812078 0.42048028 -0.08773569 -0.13158539 0.28895405 0.7411486 0.37179467
5 0.064834714 -0.582102 -0.22320992 0.012131232 0.4273609 -0.053313866 -0.12956688 0.20336986 0.7402196 0.47100177
2 0.077457815 -0.56248945 -0.26040518 0.010856808 0.42352346 -0.026262835 -0.057033136 0.24092616 0.72232354 0.4355054
6 0.093731076 -0.6128361 -0.27998805 0.055449937 0.35841393 -0.050452795 -0.06812899 0.23228973 0.76395935 0.43061158
