7 10
1 -0.4363215 0.5842921 0.2477666 -0.32601494 0.45943353 -0.28185195 -0.21249542 0.5512633 0.2604581 -0.0742355
5 -0.45159045 0.5616749 0.30657074 -0.32450435 0.4919671 -0.2730238 -0.26148537 0.53121746 0.2546104 -0.17176524
6 -0.48935956 0.5664089 0.33683094 -0.25846893 0.46050757 -0.35551187 -0.1876622 0.4799797 0.2575111 -0.11892013
0 -0.43076593 0.5592898 0.3268239 -0.31305093 0.3890839 -0.26197538 -0.24565203 0.5339625 0.28251836 -0.13900602
2 -0.44514468 0.552576 0.286724 -0.34122196 0.42713076 -0.34715396 -0.15534237 0.5308842 0.22988027 -0.11669984
4 -0.36798787 0.57497615 0.23215003 -0.2681939 0.461655 -0.39522102 -0.16092835 0.5286251 0.33245936 -0.18142475
3 -0.41112676 0.5357094 0.25904003 -0.31547937 0.46913138 -0.3845045 -0.22861615 0.50405043 0.33933544 -0.12303918
