6 10
0 -0.37940583 -0.43468395 -0.62882745 0.015632171 -0.3228742 -0.20105848 -0.4537177 -0.12960304 0.24690309 -0.46663806
3 -0.37426552 -0.45482185 -0.66126895 -0.010584728 -0.28210208 -0.22933877 -0.45637667 -0.08039485 0.20445494 -0.5077901
5 -0.34653375 -0.39143768 -0.63733315 0.06786859 -0.3316282 -0.15438192 -0.51096535 -0.10664162 0.2197964 -0.4889821
1 -0.36216614 -0.47070247 -0.6343313 0.01747556 -0.25108886 -0.23094106 -0.5020743 -0.15845023 0.17432232 -0.47713217
2 -0.2892902 -0.4405165 -0.65110123 0.07943707 -0.30611458 -0.14492138 -0.519536 -0.16371585 0.22477157 -0.45951328
4 -0.36256114 -0.42744437 -0.5867227 -0.019878667 -0.3196623 -0.23290405 -0.49213403 -0.1366343 0.18058373 -0.4843049
