7 10
4 0.55130386 -0.22815661 0.35338244 -0.5103705 0.6176655 0.3817942 -0.21402225 0.055882744 -0.019604482 0.24282353
1 0.54977393 -0.19533476 0.31693316 -0.54117835 0.5783012 0.39710823 -0.21845475 0.037810624 -0.020175813 0.31778955
6 0.54754883 -0.21765454 0.2856027 -0.5446605 0.65567416 0.2971871 -0.16952032 0.022312997 -0.0377025 0.31698817
2 0.53695536 -0.28043735 0.3372613 -0.5308897 0.67267096 0.32944265 -0.267965 -0.024980659 -0.0764647 0.30527267
5 0.58369404 -0.21511102 0.3314173 -0.5186771 0.64093703 0.36524308 -0.18214938 -0.031164724 0.010764339 0.2345687
3 0.49905613 -0.22700626 0.28888604 -0.57216316 0.6328777 0.38369504 -0.27103606 0.039032307 -0.09098087 0.3526286
0 0.5413385 -0.25821617 0.34266597 -0.54020226 0.6537387 0.39164576 -0.23593634 0.011573953 -0.006527776 0.32389313
