7 10
3 0.23684017 0.07729949 0.14213122 -0.42758834 -0.3782057 -0.518836 0.25024173 0.85409874 0.116703115 -0.12036995
1 0.30872995 0.108457714 0.1650603 -0.48035395 -0.2761746 -0.5224807 0.2231189 0.83579487 0.18489465 -0.115738064
2 0.2497262 0.02432683 0.12062949 -0.42563376 -0.32818884 -0.47840205 0.21247625 0.8258381 0.1485033 -0.14241584
0 0.2754887 0.07059256 0.13586837 -0.3867968 -0.34828842 -0.5339923 0.1542554 0.8386646 0.13748217 -0.062258884
6 0.30010387 0.07802284 0.1619113 -0.44087514 -0.3074699 -0.49137414 0.14901759 0.8051147 0.17580254 -0.0443643
4 0.30204663 0.0428858 0.18868569 -0.44806919 -0.3524724 -0.44540682 0.22083421 0.7861415 0.0845872 -0.1326785
5 0.252526 0.041387897 0.18105039 -0.46314844 -0.31822544 -0.42550904 0.1683306 0.8068132 0.11353223 -0.17802076
