7 10
5 0.33873925 -0.5075072 0.12696426 -0.53067774 0.18313724 0.32730803 -0.6733553 0.0041278456 0.376662 -0.14832254
3 0.35003346 -0.527893 0.1774505 -0.5212766 0.19715755 0.33981487 -0.6332628 -0.03961332 0.34600976 -0.1088836
4 0.34886208 -0.48148888 0.21394958 -0.5428376 0.18477215 0.3641875 -0.66503906 -0.03743834 0.35670972 -0.19223315
0 0.33489937 -0.4619636 0.14280923 -0.51577836 0.18434978 0.35941172 -0.6354949 -0.007118652 0.3325884 -0.13353273
6 0.29203105 -0.48891887 0.22054438 -0.4851226 0.26942995 0.30286118 -0.65128857 0.03633859 0.37748647 -0.105866246
1 0.2628595 -0.5067115 0.20792492 -0.5351441 0.2669054 0.26539463 -0.6809476 -0.025325011 0.30688894 -0.16622238
2 0.3326952 -0.542208 0.16358282 -0.5116658 0.26060468 0.30925995 -0.72194463 -0.03837724 0.37651053 -0.20285122
