7 10
0 0.17747813 -0.1354054 -0.17867218 0.051263 -0.042524964 0.22414283 0.56310135 -0.705069 -0.61424935 0.43180573
2 0.12101307 -0.14392117 -0.1663294 0.0683841 -0.094141364 0.1907743 0.535475 -0.6989204 -0.585024 0.4555732
3 0.15080002 -0.10634469 -0.106804974 0.07986988 -0.11462191 0.16913138 0.5350299 -0.68933856 -0.57650274 0.42268014
5 0.18032272 -0.13486856 -0.14289431 0.011468567 -0.048133917 0.1748827 0.517356 -0.7500961 -0.5452127 0.43991262
6 0.09437391 -0.06380816 -0.1342803 0.006155622 -0.14994603 0.1874214 0.56359786 -0.71657574 -0.5495594 0.4311506
1 0.12028698 -0.14204566 -0.20979123 0.046084467 -0.03645797 0.19212367 0.49609044 -0.7462503 -0.6305432 0.40818292
4 0.18834873 -0.10603096 -0.13158497 0.038390562 -0.10000257 0.12757167 0.48019874 -0.67140067 -0.58210355 0.4351053
