7 10
5 0.7117342 0.0079572415 0.27107823 -0.10200611 -0.22308771 0.27796328 -0.35556012 0.25973597 0.45229572 -0.54658103
4 0.69130164 0.021071965 0.26827314 -0.101332545 -0.19635522 0.29416203 -0.39004555 0.30173552 0.42372358 -0.49062362
3 0.68148154 0.011149126 0.23407303 -0.14133303 -0.2083804 0.27954644 -0.40453422 0.2874305 0.4226958 -0.5302164
2 0.6967883 0.011002459 0.22453646 -0.13372277 -0.24118908 0.33321297 -0.40784532 0.32717437 0.3994985 -0.49044105
0 0.71800786 0.06244774 0.22867179 -0.07838117 -0.20938738 0.28096637 -0.3338983 0.29596534 0.45644608 -0.5224541
1 0.7145482 -0.04267457 0.21603134 -0.1301126 -0.1597937 0.33735898 -0.32069424 0.3146708 0.4570071 -0.57649547
6 0.7445348 -0.0035962097 0.27999732 -0.122831635 -0.16568099 0.34752208 -0.3862683 0.30505484 0.39311156 -0.5003669
