7 10
5 0.048042864 -0.29198208 0.0405619 0.4190631 -0.16670176 -0.9269081 -0.28914568 0.19148469 0.14198048 0.21288694
6 0.021643966 -0.3010583 0.057396572 0.39632142 -0.27064627 -0.9648595 -0.22431996 0.21169366 0.20405696 0.2742915
4 0.026719898 -0.21586898 0.023810277 0.3598733 -0.22808298 -0.9467812 -0.31772047 0.14267012 0.18553758 0.26028007
1 -0.01595375 -0.27099314 0.03839481 0.42905465 -0.23320726 -0.8925377 -0.297268 0.1250811 0.13208987 0.3025177
2 -0.014865827 -0.2507162 0.064280145 0.37566262 -0.2556038 -1.0235735 -0.2543311 0.14940093 0.13727893 0.34395638
3 0.028173843 -0.29621583 0.08541671 0.41210014 -0.25405422 -0.94087446 -0.28116354 0.12211316 0.18392855 0.27731422
0 0.031338714 -0.32406604 -0.017008862 0.4547456 -0.25000376 -0.9329245 -0.3102932 0.20164792 0.14080736 0.30085707
