7 10
2 0.35538784 0.11459714 -0.19821821 0.2692349 -0.02980622 0.9001016 0.08449225 0.24322554 0.27543586 0.51875514
4 0.3200458 0.10739236 -0.14314127 0.27435264 -0.050381586 0.8754692 0.05394969 0.24995123 0.25393534 0.57562965
0 0.3368686 0.027690168 -0.18518868 0.2900878 -0.09389835 0.84852916 0.09724973 0.2646304 0.26258987 0.553406
5 0.33061394 0.038701966 -0.15217295 0.21203828 -0.021039061 0.845373 0.055062376 0.25606787 0.2977854 0.53486323
1 0.3624292 0.026454628 -0.14433873 0.27053377 -0.07969105 0.84208137 0.07425102 0.29922542 0.3163944 0.4701051
3 0.29652688 0.123774126 -0.13917981 0.25762087 -0.03185979 0.816711 0.009693106 0.2723258 0.28239647 0.51697177
6 0.37992743 0.11966382 -0.120539665 0.19933578 -0.008565146 0.8561523 0.03852726 0.25481817 0.22843558 0.5514528
