7 10
0 0.35061932 0.018194055 0.7791138 -0.54715806 0.3261239 0.26036087 -0.21842664 -0.19162092 0.1354167 -0.15977782
2 0.34381425 0.045649488 0.76127225 -0.62934715 0.28956616 0.28495842 -0.22543532 -0.19810227 0.0633298 -0.14573985
5 0.41225982 0.045410812 0.8259996 -0.66057104 0.34306884 0.25333118 -0.19524689 -0.243481 0.14478081 -0.20159966
3 0.4081995 0.000746265 0.7432697 -0.6488734 0.37857363 0.21892002 -0.18495591 -0.14346692 0.12700044 -0.2193538
6 0.43532225 0.06677718 0.70827824 -0.64339167 0.38086557 0.27784798 -0.18350641 -0.14179225 0.078819424 -0.183286
1 0.41956547 0.053558584 0.7614608 -0.59534025 0.3057976 0.29232547 -0.18950425 -0.20595485 0.13734698 -0.1894561
4 0.31458294 0.043594714 0.7856995 -0.60356057 0.3645534 0.25208 -0.21471438 -0.20809239 0.06756843 -0.22528838
