6 10
0 0.07056388 0.4953013 -0.7235492 0.10529426 -0.059258286 0.33994117 0.35257077 -0.48705563 -0.3184022 0.07950985
1 0.030458206 0.524524 -0.7161566 0.14794034 -0.09341234 0.2991097 0.34906465 -0.48879647 -0.3571633 0.115718246
2 0.04776082 0.47112575 -0.73006266 0.060649995 -0.088558294 0.3544584 0.37738797 -0.43369514 -0.3313857 0.046754386
3 0.08895885 0.5255111 -0.72234815 0.13129662 -0.061113086 0.3175261 0.3565867 -0.45043397 -0.3091371 0.08490738
5 0.06254467 0.5372692 -0.75083137 0.07427686 -0.09851213 0.29176256 0.35407284 -0.42029276 -0.3479321 0.05892393
4 0.046535227 0.5340078 -0.73913354 0.07371124 -0.06797536 0.3197225 0.39086628 -0.48920476 -0.27079174 0.124524586
