7 10
0 0.2592435 -0.83758694 0.01372018 0.39399874 -0.03986332 -0.4440121 -0.1287841 0.15813886 -0.33965364 0.39658225
4 0.21448547 -0.8431072 -0.07175251 0.3669085 -0.041777283 -0.45275706 -0.15739463 0.117692925 -0.32863533 0.43860048
1 0.26967046 -0.8072642 -0.06500509 0.35835126 -0.02526983 -0.4071699 -0.1425115 0.17176168 -0.30792466 0.38776067
5 0.2722758 -0.81553876 0.0017165369 0.38022873 -0.003878097 -0.4364477 -0.15512247 0.18799637 -0.33098978 0.40167168
3 0.23599865 -0.81152546 -0.058707766 0.4033159 -0.05994982 -0.45586988 -0.12740345 0.12267485 -0.23569691 0.3944932
2 0.2957834 -0.83889234 0.011650106 0.38473538 0.00200312 -0.44766504 -0.119841665 0.18565619 -0.25786185 0.4216782
6 0.26824683 -0.8221724 -0.04149797 0.40385103 -0.04050595 -0.41681054 -0.12638164 0.20660987 -0.27709565 0.42976618
