7 10
2 0.49788162 0.26353708 0.45950443 -0.47970676 0.23119204 -0.24901375 0.28980422 0.5386414 -0.28443238 -0.09582367
1 0.5303258 0.26418182 0.47243834 -0.49503732 0.30016136 -0.23692426 0.3135243 0.4575742 -0.306368 -0.088466
3 0.47504857 0.27802032 0.4830877 -0.45432156 0.24831183 -0.25895056 0.253988 0.54760903 -0.3271323 -0.13406521
0 0.5327918 0.23057297 0.44563815 -0.4342702 0.23555756 -0.22848666 0.272453 0.49377272 -0.31124377 -0.11122967
5 0.55094326 0.22135814 0.43259132 -0.466286 0.30305645 -0.18495949 0.3115136 0.5225625 -0.3615791 -0.15814316
4 0.5027304 0.2595957 0.43693203 -0.4726288 0.2684551 -0.23314412 0.2098715 0.52700996 -0.27807698 -0.11495854
6 0.5115528 0.2671795 0.4542487 -0.47302788 0.24018684 -0.23773192 0.32502833 0.48367912 -0.35858998 -0.15428907
