5 10
0 -0.40539363 -0.26791805 0.05339361 0.2914281 0.06950852 0.43947807 -0.7737064 -0.22208598 0.16646008 -0.35882646
2 -0.42327797 -0.21616913 0.016090736 0.37714863 0.034144484 0.3995598 -0.7941631 -0.3004531 0.14638565 -0.3495985
1 -0.3746982 -0.29517594 -0.023431744 0.34780154 0.052452568 0.39885664 -0.7423543 -0.281321 0.0826055 -0.33649093
3 -0.3186444 -0.2682177 0.027686445 0.34668761 0.060031787 0.42881185 -0.7480188 -0.2907104 0.08833099 -0.34335554
4 -0.36265206 -0.3372541 0.04808362 0.36904877 -0.0074457712 0.4160149 -0.75309926 -0.23720586 0.068627216 -0.32490024
