5 10
0 0.59118205 -0.3751734 -0.38306898 0.09844024 0.41755757 -0.4419526 0.50370705 -0.10363518 0.0138217155 -0.31929025
3 0.6005848 -0.34851077 -0.38645416 0.1336118 0.43979302 -0.41894096 0.534448 -0.13516115 0.039897326 -0.28782532
2 0.5654162 -0.39852795 -0.38494337 0.15042274 0.38614807 -0.44532028 0.5374553 -0.101648375 0.08265736 -0.29630637
1 0.5468453 -0.36206523 -0.3871651 0.14199056 0.37868956 -0.42297283 0.398479 -0.11735895 0.089188576 -0.2436952
5 0.5329902 -0.3504064 -0.3840544 0.13812333 0.34210917 -0.38970625 0.4836093 -0.13042127 0.033708338 -0.3278854
