7 10
1 -0.014292084 -0.04138484 -0.46669745 0.15938914 -0.28439444 0.20541596 0.3710338 0.4070975 0.76566094 -0.31671694
2 0.044129454 -0.12537163 -0.5459924 0.124847814 -0.07018198 0.30452782 0.40646103 0.38031578 0.7253008 -0.32105643
0 0.0042246245 0.016462222 -0.36124355 0.12497897 -0.3042892 0.20488477 0.4312385 0.45073915 0.74408543 -0.3562821
5 0.05728821 -0.11633955 -0.63589096 0.15386388 -0.08325018 0.21116206 0.42194027 0.36382663 0.7527484 -0.30233288
6 0.0012353905 -0.09867946 -0.563077 0.06864253 -0.060673233 0.30898288 0.3996781 0.41458324 0.7569407 -0.30196512
3 0.016601253 -0.05347175 -0.4917693 0.1692547 -0.2490133 0.17939717 0.44512627 0.4486797 0.7201417 -0.34706447
4 0.03593547 -0.09916222 -0.47863436 0.12763564 -0.2842406 0.16934425 0.42043328 0.45669177 0.7376353 -0.34344697
