7 10
2 0.58086723 0.05527582 -0.072962716 0.4183641 0.8861254 -0.1405679 -0.30747768 0.07918682 0.046180185 0.040685136
4 0.53425205 0.08665142 -0.055690315 0.41948864 0.889105 -0.2075146 -0.31845006 0.09372003 -0.026877237 -0.027629506
5 0.5586045 0.06079374 -0.08294016 0.36890858 0.88524914 -0.19366154 -0.23576058 0.12920506 0.0739965 0.06686131
1 0.54412985 0.033491157 -0.05916359 0.42389032 0.9000167 -0.21584669 -0.3018171 0.052666742 0.0018789065 -0.011736452
3 0.57300115 0.0086832 -0.01555481 0.42099467 0.8987021 -0.19497469 -0.26012745 0.10510486 -0.009733707 0.0904373
6 0.6057079 0.011379467 -0.03965959 0.34329528 0.9145205 -0.13644427 -0.2665262 0.09329081 0.060284317 0.10894973
0 0.5119185 0.11090423 -0.1012768 0.3908004 0.8736898 -0.19265418 -0.35477307 0.10239687 0.0427132 -0.01058785
