7 10
0 0.20381641 -0.70769763 -0.7314146 0.30762768 0.23778543 -0.15178742 0.082890294 0.077361345 -0.32725072 -0.24504462
1 0.20288402 -0.7070149 -0.7120643 0.3026294 0.19938737 -0.10672803 0.011942879 0.07720606 -0.319309 -0.2883296
2 0.19843352 -0.76492 -0.7233444 0.29311305 0.20404303 -0.114502065 0.043166984 0.036112722 -0.25456923 -0.24166165
5 0.150817 -0.708416 -0.738224 0.27998492 0.25198093 -0.1850678 0.054229066 0.01677356 -0.28830674 -0.2980509
3 0.23404336 -0.752634 -0.7019625 0.22762886 0.20123525 -0.16978072 0.06930168 0.023243582 -0.31895152 -0.25421306
4 0.26186565 -0.71211994 -0.67759985 0.26918596 0.2768893 -0.08824462 0.097871676 0.099110946 -0.27814078 -0.24788542
6 0.18981785 -0.762018 -0.6782498 0.24195632 0.24400161 -0.18410751 0.019465318 0.09779674 -0.26570246 -0.31275976
