7 10
0 0.4139186 0.33098042 -0.44084802 -0.0115156965 -0.35141572 0.27527192 0.42996484 -0.6045989 0.011125236 0.452138
6 0.4442708 0.37628913 -0.39818263 -0.0050326725 -0.37995142 0.3464146 0.41476986 -0.61961365 -0.042748865 0.4371069
4 0.42156336 0.35950205 -0.40292343 0.014713466 -0.3327901 0.32837984 0.37507275 -0.6020948 -0.053249966 0.4369274
5 0.403954 0.37720108 -0.42677394 -0.036394477 -0.30813125 0.33607334 0.36379066 -0.60363483 0.031881448 0.42883936
2 0.44569376 0.35395986 -0.4147205 -0.013285029 -0.3623933 0.366482 0.3528843 -0.5739097 -0.005784726 0.44546703
1 0.42612946 0.32279176 -0.45200437 0.0035069296 -0.280976 0.3171063 0.42692134 -0.5626504 -0.03817337 0.40887114
3 0.44005424 0.29873425 -0.4158411 -0.005717411 -0.33884883 0.3559894 0.408686 -0.54731095 -0.016377272 0.39164758
