4 10
3 -0.1415077 -0.094091795 -0.33026955 0.18744095 -0.6335784 0.24528997 -0.034044784 0.010574661 -0.014140626 0.8848948
1 -0.13876809 -0.06241313 -0.29376772 0.11488251 -0.5583399 0.25512502 -0.09792701 0.05219007 -0.0028299482 0.82028615
2 -0.105725154 -0.014161345 -0.274543 0.11271572 -0.57120794 0.22322781 -0.092836194 0.05257054 -0.04182446 0.8108697
0 -0.15684828 -0.046057176 -0.2753129 0.071445644 -0.46492922 0.22183311 -0.06614449 0.0005294632 -0.005037564 0.66491944
