7 10
1 -0.1709889 -0.06484646 0.11984234 0.45002863 0.3962272 0.46719068 0.25743172 0.614773 -0.32918504 -0.5441616
2 -0.1349813 -0.13486172 0.16006842 0.4361702 0.35693988 0.43319878 0.21582447 0.5710176 -0.36102155 -0.49768674
6 -0.16555798 -0.14469141 0.13746831 0.4870014 0.38484025 0.48110095 0.26330572 0.5789231 -0.30861285 -0.43202406
5 -0.10239818 -0.09539247 0.16681024 0.42657706 0.41918212 0.5025024 0.22512428 0.6266268 -0.29824725 -0.46134496
0 -0.10539721 -0.16379143 0.17998473 0.4848065 0.3588606 0.46741706 0.1845498 0.59404546 -0.38232714 -0.5083961
3 -0.1903108 -0.05285523 0.108096555 0.4782596 0.37465915 0.4390698 0.20488255 0.5787053 -0.34601033 -0.49480274
4 -0.14934431 -0.036244992 0.106943995 0.49696597 0.37912664 0.385985 0.24541833 0.63190377 -0.37677094 -0.5267358
