7 10
0 0.44079378 0.0077347606 0.19448137 -0.6608927 0.46267012 0.43006775 -0.41418788 0.10455727 0.30546728 -0.3550911
1 0.43668774 0.016589964 0.20683448 -0.61837363 0.42247576 0.45171145 -0.3528454 0.055158094 0.24092524 -0.34350514
2 0.42160568 0.061775047 0.22116067 -0.68816876 0.45363066 0.44383198 -0.44154534 0.11301997 0.28377736 -0.26706782
3 0.44733465 0.002232287 0.20062366 -0.6360982 0.45179346 0.45159355 -0.35143706 0.039735746 0.26894858 -0.34813207
5 0.43871474 0.01606487 0.158731 -0.5924314 0.41964862 0.46530232 -0.40570548 0.11809276 0.2519714 -0.2389644
6 0.4583803 0.06141203 0.21456708 -0.6214545 0.3930728 0.45559806 -0.40599638 0.10958468 0.24558277 -0.30799413
4 0.43394232 -0.02975612 0.23278639 -0.68171126 0.4652705 0.47550705 -0.43644756 0.06442549 0.26814368 -0.29929936
