5 10
1 0.47915268 0.30831274 -0.47028416 -0.34858057 0.0001077061 0.37651604 -0.02894631 0.030156562 -0.18010852 -0.7380674
0 0.5310707 0.25928286 -0.4940689 -0.3624496 -0.009418678 0.4462273 -0.020762334 -0.02515912 -0.13867086 -0.6898817
2 0.45282623 0.27476114 -0.5004676 -0.29936466 -0.042798914 0.38297552 0.01958155 -0.040136456 -0.15585208 -0.72823215
3 0.4397808 0.280513 -0.4518222 -0.32368416 -0.026873035 0.41994512 -0.023951996 0.025332749 -0.1776051 -0.7215309
4 0.46388456 0.26350766 -0.44668254 -0.3389425 -0.06476649 0.38208774 -0.044775747 -0.06830392 -0.09101386 -0.7035987
