7 10
5 -0.20998622 0.04133543 -0.9020674 -0.16682838 -0.2476659 0.29190022 0.0040512723 -0.27218202 -0.58565015 0.051904187
3 -0.25238848 0.07783718 -0.8899844 -0.10241629 -0.19765018 0.24366291 0.016294675 -0.3108506 -0.6030043 0.008669599
2 -0.21087557 0.010774421 -0.86012805 -0.09593811 -0.1715775 0.20384637 -0.044779193 -0.3223477 -0.6464155 0.090054706
4 -0.22937496 0.06602926 -0.87763596 -0.09439385 -0.17208217 0.26443452 0.01864725 -0.3388995 -0.6029819 0.015908383
1 -0.26765546 0.07353848 -0.8741 -0.08879028 -0.24107707 0.19960448 -0.052448772 -0.33020806 -0.6448328 0.09951006
0 -0.23711337 0.10146321 -0.8633161 -0.1546084 -0.18263942 0.23394854 -0.048587706 -0.29730496 -0.65874976 0.08427394
6 -0.18927965 0.022849763 -0.82853246 -0.1587231 -0.22543621 0.2502771 0.008454235 -0.33338076 -0.6120867 0.06321645
