7 10
1 -0.4767292 -0.05128185 0.26072428 -0.1808903 -0.6904182 -0.43210226 0.24004412 -0.4360079 0.31746104 -0.14085022
0 -0.43236494 -0.07667628 0.32611337 -0.11813245 -0.648766 -0.45691323 0.25233603 -0.38799953 0.29481062 -0.13499658
4 -0.41467857 -0.03805432 0.29187503 -0.070975155 -0.6626082 -0.43732068 0.26153445 -0.42787293 0.28801066 -0.20431045
2 -0.46662328 -0.05916348 0.32601392 -0.075246565 -0.6356988 -0.40345407 0.31365076 -0.43633398 0.27235645 -0.2132803
3 -0.43090707 -0.04999456 0.32800433 -0.09580486 -0.6368426 -0.35351095 0.302672 -0.4255067 0.23326427 -0.10959928
6 -0.5769175 -0.044856273 0.35830116 -0.24327351 -0.76282287 -0.40575626 0.32631597 -0.35864893 0.27620146 -0.1386752
5 -0.6076656 -0.06033308 0.4285106 -0.24893889 -0.8146628 -0.42311352 0.31347954 -0.38994616 0.3932019 -0.07169034
