5 10
2 -0.105599456 0.031139763 -0.9080573 -0.06341793 0.24874209 0.628262 -0.12670945 -0.15457141 0.014897665 0.104869835
1 -0.14627676 0.049709667 -0.9575823 -0.08714648 0.20363855 0.6328007 -0.13598329 -0.15508097 0.108711824 0.09198971
6 -0.09108843 0.078499876 -0.89775294 -0.042672087 0.25291032 0.62067854 -0.072142415 -0.09747907 0.023054209 0.09642429
5 -0.09842422 0.03932687 -0.9082016 -0.1032408 0.20198938 0.560733 -0.09890117 -0.07387036 0.03338765 0.12137062
0 -0.05214864 -0.0030924545 -0.9251379 -0.031059086 0.2672482 0.64151 -0.1612724 -0.13066114 0.12167016 0.10577489
