7 10
4 0.62598747 0.67719346 0.031891998 -0.58218926 0.14282495 -0.3319106 -0.2758739 -0.37105605 -0.18355349 0.05097628
1 0.64481956 0.6452709 -0.010513795 -0.5290944 0.11774711 -0.2270301 -0.22380628 -0.34058574 -0.16840422 0.007944694
3 0.6631753 0.6171662 -0.05440828 -0.5072994 0.15278885 -0.28363225 -0.1908882 -0.35227072 -0.23187943 0.011713099
0 0.6887069 0.6568464 -0.034949943 -0.5773633 0.18234237 -0.23512581 -0.21737565 -0.33959314 -0.22440441 0.06779758
2 0.6204623 0.65306693 -0.008295744 -0.504123 0.16279599 -0.32193062 -0.28176314 -0.33230752 -0.20137529 0.0042693485
6 0.66581625 0.6354132 -0.041728623 -0.5214273 0.100580975 -0.24439329 -0.24821416 -0.28680283 -0.17156051 0.034745947
5 0.61986667 0.6362704 0.010213266 -0.53851694 0.102880195 -0.31080237 -0.2159474 -0.3912361 -0.17044255 0.004366891
