7 10
3 0.59050834 0.16693494 -0.4586346 -0.5126898 0.44713 0.5170106 0.24583599 -0.15561257 -0.018864552 -0.19833627
4 0.5506127 0.8194168 -0.35261875 -0.24972759 0.57127 0.38048106 0.1659184 0.15277947 -0.07742252 -0.11263384
0 0.51378095 0.9337375 -0.3755622 -0.19113272 0.5117218 0.28454337 0.22971539 0.14267753 -0.18576753 -0.13158618
5 0.6187987 0.25516093 -0.420455 -0.4461245 0.4717613 0.41142312 0.21656136 -0.052485168 0.036270816 -0.21998069
2 0.60871553 0.1586856 -0.44566783 -0.48485717 0.4349215 0.4928893 0.28679517 -0.13494013 -0.015132051 -0.16514733
6 0.62799966 0.31683287 -0.39589563 -0.4139337 0.46902192 0.48064113 0.28187093 -0.017354108 0.021747556 -0.17658193
1 0.5612179 0.8790847 -0.37235337 -0.24544294 0.5288867 0.3106575 0.19733043 0.14571036 -0.11823542 -0.17261425
