5 10
0 0.29622945 -0.1178736 -0.5398523 -0.6000699 -0.026079176 0.3951903 0.38122395 -0.4557729 -0.15705661 -0.18342961
3 0.30472085 -0.09753789 -0.6346144 -0.636132 0.048364606 0.35774446 0.3723631 -0.47987765 -0.12549722 -0.27844128
1 0.264005 -0.032353684 -0.57296115 -0.5596775 0.056778032 0.36148104 0.38518995 -0.5047573 -0.07557439 -0.23910409
2 0.26374248 -0.05050728 -0.53735316 -0.5842916 0.061186712 0.32939076 0.35389978 -0.47557417 -0.1543415 -0.2725992
4 0.27415395 -0.04004925 -0.5940025 -0.5666963 0.018292688 0.33950415 0.41272542 -0.4891717 -0.07204683 -0.20768255
