7 10
2 -0.79989076 0.23218226 0.22354007 -0.5381542 0.04240782 0.056889866 -0.073967084 -0.079629324 0.1747769 0.6054228
1 -0.78816146 0.24537961 0.22085135 -0.5681998 0.037211012 0.008615883 -0.093673244 -0.026629826 0.18788594 0.57445145
0 -0.7929358 0.23525149 0.21020359 -0.5269395 0.10776129 0.05344385 -0.12479674 -0.0824521 0.17128444 0.56118757
5 -0.75864995 0.22852474 0.12156033 -0.55585134 0.13933006 0.03881293 -0.057620626 -0.06403354 0.11339765 0.5894594
4 -0.7793529 0.27404293 0.1796219 -0.53855664 0.10235655 0.036081582 -0.070235305 -0.095979206 0.14971696 0.5979004
3 -0.7303019 0.2821505 0.15846604 -0.58649206 0.09749432 0.02433474 -0.13736627 -0.014843638 0.11766825 0.61161846
6 -0.7659506 0.18078081 0.11746419 -0.5495616 0.07768085 -0.015731726 -0.036909413 -0.059442606 0.12891474 0.55599964
