7 10
1 0.2755415 0.49507007 -0.70430404 -0.051095054 -0.26396543 -0.23302785 -0.52375966 0.14799199 0.36589932 -0.18819165
5 0.3004438 0.43658176 -0.66202646 -0.09916375 -0.32672274 -0.1892082 -0.64188254 0.11283505 0.38668686 -0.16023734
4 0.31774595 0.45738992 -0.7093195 -0.06233034 -0.29229447 -0.19457541 -0.5848732 0.15934238 0.31663784 -0.17357934
0 0.32402188 0.4635267 -0.69769853 -0.12506016 -0.3180523 -0.25536138 -0.58520466 0.12995519 0.37162873 -0.16899765
2 0.29476893 0.41855127 -0.60232997 -0.13599402 -0.3343591 -0.17227103 -0.64566004 0.19673963 0.42054874 -0.16301663
3 0.30651394 0.46051455 -0.657329 -0.057546094 -0.26148906 -0.15410268 -0.59768605 0.17637284 0.4092093 -0.21003987
6 0.22598787 0.41103408 -0.62724835 -0.03937317 -0.22044666 -0.23634872 -0.56779045 0.09786363 0.36107492 -0.12233381
