7 10
2 0.40696776 -0.3669791 0.61555094 -0.3516639 0.10632182 0.05438498 -0.4317759 -0.56291276 -0.20965262 -0.121140786
1 0.41645747 -0.38314614 0.6174963 -0.37114567 0.12747057 0.028082421 -0.42174616 -0.53669953 -0.11983009 -0.065724626
0 0.390354 -0.3998192 0.6045388 -0.38162667 0.10404669 0.03359415 -0.41224474 -0.53614366 -0.11210312 -0.121182784
3 0.41243458 -0.41034943 0.56572473 -0.40224135 0.04990226 0.055225395 -0.44060227 -0.528425 -0.12331519 -0.10012771
4 0.417669 -0.27759445 0.6279412 -0.39378998 0.12598702 -0.038474847 -0.43017727 -0.559255 -0.23428778 -0.103303164
5 0.37772796 -0.3769976 0.6729169 -0.36962092 0.106023885 0.0038691328 -0.387244 -0.5590853 -0.16001396 -0.082673475
6 0.42279083 -0.4039799 0.62622285 -0.39203328 0.033635247 0.040680997 -0.39475104 -0.5228939 -0.15266956 -0.038606368
