7 10
4 -0.7083904 -0.5129405 0.34975794 -0.16813616 -0.06567327 -0.45142588 -0.024598042 0.4118858 -0.3414612 -0.2192112
3 -0.7140922 -0.54695624 0.35567468 -0.17016004 -0.06446841 -0.38982183 -0.061051972 0.421904 -0.28875688 -0.23872201
5 -0.7089441 -0.44279137 0.3601794 -0.20529161 -0.104487225 -0.4245939 -0.04978611 0.39711758 -0.3050428 -0.26008016
6 -0.73830646 -0.4737716 0.34312728 -0.24441926 -0.096494906 -0.42931727 -0.030472973 0.38167447 -0.31496048 -0.30038923
1 -0.6948431 -0.44918668 0.3816397 -0.19418114 -0.07133386 -0.45499048 -0.023230765 0.43116093 -0.25251356 -0.28899026
2 -0.6991298 -0.4746815 0.37920663 -0.22795177 -0.0649353 -0.3786304 -0.0388735 0.3505276 -0.32199547 -0.30383927
0 -0.6959188 -0.4604618 0.3546408 -0.17777926 -0.039748512 -0.46345276 -0.06358994 0.3920876 -0.27967015 -0.3021587
