7 10
2 -0.48535743 0.2763437 0.3876102 0.18315212 -0.3034545 0.30592024 0.0816961 -0.22912942 -0.5020525 0.6314777
5 -0.49226195 0.20750783 0.40804002 0.119905174 -0.22048283 0.34400296 0.036252625 -0.19576779 -0.51426804 0.6200998
1 -0.49003327 0.29414198 0.34653234 0.15266499 -0.2624843 0.3537584 0.025719685 -0.24480978 -0.5065915 0.57327175
4 -0.44894844 0.24678764 0.37286177 0.18290143 -0.33553317 0.4106172 0.068570726 -0.21052508 -0.55149555 0.59585917
3 -0.50503826 0.2690339 0.34956047 0.13741222 -0.2709656 0.35756436 0.00473503 -0.27093893 -0.53185916 0.6374864
0 -0.4533248 0.26130608 0.38090706 0.1770848 -0.29218307 0.34417602 -0.012492287 -0.23855144 -0.5246865 0.6174372
6 -0.44479677 0.24462906 0.38676324 0.16569522 -0.3252455 0.39538658 -0.010251886 -0.24735518 -0.51695144 0.6211768
