7 10
3 0.46388564 0.26237077 0.30732188 -0.29611316 -0.54393095 -0.16340573 0.39275134 -0.29782233 0.34918472 0.47352666
2 0.48151323 0.2915127 0.24319139 -0.29514295 -0.52248824 -0.110113606 0.40878868 -0.23134865 0.41808954 0.45606434
4 0.44810584 0.18845561 0.29971734 -0.28990865 -0.5315789 -0.16861248 0.39851457 -0.27784657 0.41085368 0.4448772
5 0.4574365 0.23634523 0.26205137 -0.31959814 -0.52000153 -0.15441774 0.3617484 -0.30929485 0.4441658 0.45719573
1 0.47140563 0.2613398 0.26348144 -0.34010613 -0.4694703 -0.10977474 0.39090896 -0.31234866 0.40554342 0.46205863
6 0.47368369 0.33121204 0.284651 -0.29575932 -0.51837945 -0.23007798 0.44303158 -0.21907826 0.5169208 0.4406144
0 0.4865954 0.24720183 0.337408 -0.26489845 -0.49387518 -0.1654876 0.48965698 -0.23429577 0.52762175 0.4769579
