7 10
1 0.50344706 0.64511484 -0.36917177 0.4209763 -0.008096529 -0.04607275 0.17465591 0.04684195 0.60293335 -0.063264176
0 0.5381311 0.6390796 -0.3421437 0.40846673 -0.007510414 -0.0765763 0.21960382 -0.015538998 0.62443626 -0.09313834
3 0.51853466 0.62854165 -0.35647523 0.533088 0.026136955 -0.03330598 0.3819342 -0.116661176 0.5082189 -0.089945026
2 0.5158185 0.6226295 -0.35231495 0.51547474 0.050012004 -0.040914778 0.3002105 -0.11444098 0.55823386 -0.07123934
5 0.48621014 0.6114538 -0.3924483 0.44455588 0.05894623 -0.029646493 0.17141262 0.038419638 0.5648421 -0.08359207
6 0.49426624 0.614462 -0.39892888 0.4589831 0.07190171 0.009363921 0.15967742 -0.012615601 0.58479285 -0.13232377
4 0.44030398 0.6695121 -0.41365933 0.5606053 0.0064691682 -0.10824756 0.38530183 -0.13701461 0.47299626 -0.039528977
