6 10
4 0.25438443 0.22672 0.33772537 0.13955651 0.063424684 -0.11342433 -0.06109932 0.5983155 0.32097387 -0.8410148
3 0.25125006 0.21583629 0.34385356 0.12717862 0.012285615 -0.06478686 -0.03905118 0.58996934 0.28347778 -0.85780317
0 0.25277874 0.26295558 0.28902668 0.076567665 0.09608964 -0.018021217 -0.08662347 0.58956796 0.3239848 -0.8224016
1 0.25957236 0.2576168 0.35857436 0.04632397 0.056279402 -0.07219646 -0.054134574 0.5843371 0.23902619 -0.8051948
2 0.22702304 0.2082455 0.30296195 0.04544977 0.059804417 -0.0107630845 -0.07193337 0.60521024 0.27534673 -0.8400002
5 0.23140614 0.17418917 0.30517852 0.08314955 0.006963608 -0.070530646 -0.07810063 0.61565876 0.26643524 -0.7672789
