7 10
4 0.43060672 0.11655284 0.7000056 -0.50072116 0.45384043 -0.3835007 0.2977491 0.08571103 0.08081708 -0.023825306
0 0.42977098 0.16698496 0.71477765 -0.5112783 0.4572016 -0.40066713 0.25667733 0.00023029232 0.055372845 0.012740548
1 0.41038948 0.12552692 0.71025324 -0.51097846 0.42382795 -0.39592844 0.20804295 0.0091365315 -0.008685917 -0.0732913
3 0.3859709 0.15217225 0.69859517 -0.50139064 0.44221744 -0.35051978 0.2860703 0.061954454 0.024548048 -0.09515256
5 0.46912602 0.081686415 0.70156425 -0.44901186 0.48333207 -0.4194419 0.24248202 -0.019812457 -0.0057844883 -0.06261571
2 0.43691143 0.14933707 0.70747447 -0.42486146 0.48905912 -0.3737522 0.29073015 0.013475153 -0.0016537047 -0.016160542
6 0.47125322 0.10138361 0.7464149 -0.52866805 0.5174136 -0.37613517 0.22361216 0.07284538 0.0664834 0.0026482472
