7 10
4 0.23772478 0.25308532 -0.10712567 0.23979497 -0.68672967 -0.6926879 -0.48509532 -0.13881393 -0.077696934 0.08393636
5 0.32199866 0.22099525 -0.07348328 0.20348933 -0.6751035 -0.713392 -0.4984653 -0.22148074 -0.050968993 -0.006042147
6 0.29892427 0.16258113 -0.1407681 0.23758651 -0.6205331 -0.70909625 -0.5231416 -0.21026966 -0.06718187 0.07714993
2 0.30893368 0.2637655 -0.036883574 0.16187169 -0.66617626 -0.66942304 -0.49500751 -0.13861237 -0.060582973 0.024990948
3 0.26358372 0.2127242 -0.121813394 0.16706684 -0.6552013 -0.7054705 -0.47060588 -0.15562992 -0.04786403 0.027505172
1 0.29414245 0.21932797 -0.051540088 0.18069604 -0.6535003 -0.72521037 -0.5092226 -0.13098593 -0.08474763 0.059235353
0 0.3124401 0.23874466 -0.1388408 0.21241008 -0.62867624 -0.69923156 -0.51168615 -0.18599746 -0.06267643 0.037774563
