7 10
4 0.052210864 -0.22267975 0.30363813 0.031383988 -0.7663976 0.080065414 -0.037661135 0.43258202 0.60732645 -0.46946454
3 0.034218773 -0.28239393 0.29743823 0.030129207 -0.73520255 0.0004640868 -0.007326654 0.35628822 0.5532323 -0.46563506
0 -0.02577559 -0.27146205 0.31089458 0.017940065 -0.75160813 0.012359332 -0.07925824 0.38988492 0.5044566 -0.49487284
1 0.012520874 -0.22628497 0.23893437 0.08249332 -0.71219736 0.02812889 -0.07641005 0.38635653 0.57384384 -0.49783164
2 0.0155763095 -0.21567136 0.24390766 0.075737074 -0.70155203 -0.010142575 -0.056136478 0.42967132 0.50662035 -0.51244843
5 0.018584609 -0.28219402 0.22333142 0.08160055 -0.7282682 0.08123967 -0.027383033 0.42627686 0.571183 -0.46823913
6 0.043717023 -0.23135434 0.26076984 0.057173464 -0.7765906 0.0206578 -0.0518944 0.405613 0.5884452 -0.5255966
