4 10
4 0.70015234 -0.3721067 0.21471016 -0.34334624 -0.26579067 -0.5015773 -0.08019104 0.9721796 0.16889976 0.22035417
5 0.70319426 -0.41676697 0.22199048 -0.39964268 -0.30322337 -0.4854301 -0.12362247 1.0318495 0.25306514 0.26978117
3 0.2115415 0.020989127 0.025333619 -0.7669264 0.0072384295 -0.507632 -0.6028987 -0.830123 -1.1588657 -0.6888882
0 0.09350773 0.09660788 0.072783515 -0.6867889 0.10462416 -0.48838463 -0.519309 -0.78941447 -1.0710322 -0.6037771
