6 10
1 0.9953315 -0.41946378 0.014163196 -0.24445704 -0.10131639 0.19860768 -0.15420736 0.0769049 0.3367102 -0.14278263
2 1.0144385 -0.38970944 -0.046945453 -0.22862527 -0.15948144 0.22285803 -0.23585764 0.10935616 0.30021423 -0.09732348
0 0.96901447 -0.38532025 -0.044557117 -0.18633407 -0.1640643 0.13455166 -0.23202664 0.032420285 0.29413226 -0.1206534
3 0.9813363 -0.314426 -0.0471819 -0.16112019 -0.1782713 0.2014132 -0.17643505 0.0776393 0.27281094 -0.16828112
4 0.9843289 -0.41709083 -0.017438503 -0.19677871 -0.20867738 0.14489715 -0.2057285 0.071829885 0.28065422 -0.1690319
5 0.9805145 -0.3756109 -0.08600138 -0.18870671 -0.1440177 0.20389071 -0.12887806 0.088199385 0.2589423 -0.19228336
