7 10
5 -0.09878096 0.16326925 -0.41062737 -0.34630212 0.47127324 -0.40654123 0.038243722 -0.4139527 0.6884024 -0.33111316
6 -0.13197875 0.10527783 -0.3889611 -0.34212568 0.52156883 -0.41878527 -0.03436689 -0.43463048 0.6685147 -0.29200354
3 -0.14884397 0.1061652 -0.3326267 -0.36849892 0.4948698 -0.44183818 0.023438524 -0.37351918 0.72045135 -0.31107736
2 -0.07303348 0.13257731 -0.4027363 -0.2702797 0.53524864 -0.38511607 -0.035797827 -0.3640243 0.66233146 -0.37479094
4 -0.08037525 0.17058554 -0.3618471 -0.2948542 0.45196643 -0.42491004 0.037964 -0.40499434 0.63021344 -0.3531287
1 -0.14864169 0.12639914 -0.3944216 -0.3088164 0.544012 -0.3725981 -0.00017539666 -0.41702324 0.7232247 -0.28784698
0 -0.087094374 0.15419608 -0.2983352 -0.29585817 0.48831055 -0.41169083 -0.04639771 -0.40761578 0.65949416 -0.34350598
