7 10
1 -0.2688934 0.0038657105 0.19613862 -0.11302959 0.042338222 -0.7989055 0.62312603 -0.2504699 -0.38678628 0.18973012
5 -0.33314312 0.012605772 0.19588754 -0.19794446 0.025178917 -0.84796256 0.62080175 -0.20478469 -0.32156083 0.13753241
4 -0.28451937 0.023264235 0.24392499 -0.16377573 -0.011109085 -0.8012326 0.5801403 -0.12141252 -0.38078448 0.21685769
3 -0.32886708 -0.038452405 0.25130504 -0.12346754 -0.05190054 -0.766334 0.5970643 -0.1278799 -0.3532245 0.19614968
2 -0.28433326 -0.033560473 0.27641016 -0.101996295 -0.018357353 -0.82413965 0.65744853 -0.168287 -0.35798764 0.15483618
0 -0.33318794 0.019563055 0.2681359 -0.1485192 0.01288766 -0.7564748 0.65108657 -0.17459597 -0.39936474 0.16310303
6 -0.3069006 0.0044704615 0.23692498 -0.15044011 -0.013561931 -0.76926845 0.6125436 -0.1980468 -0.34987986 0.18673402
