7 10
0 0.11791647 -0.34064528 0.47840276 -0.54920423 -0.50159293 -0.5276304 0.21893433 -0.15549533 -0.28137866 0.18880948
3 0.09803194 -0.3853761 0.5154753 -0.5690733 -0.47019598 -0.52599525 0.25086084 -0.17477033 -0.30065447 0.15449187
2 0.13033418 -0.38122955 0.42656258 -0.474414 -0.46408734 -0.53594166 0.2522265 -0.15697744 -0.33675987 0.12992252
1 0.096699454 -0.30044776 0.4399244 -0.5238588 -0.473901 -0.5620936 0.2210495 -0.21060778 -0.2741231 0.22213197
6 0.11210623 -0.391091 0.51076704 -0.5657343 -0.4599447 -0.57519895 0.32018477 -0.23669414 -0.25486746 0.24789412
4 0.07478312 -0.3238028 0.4273084 -0.49975106 -0.47065136 -0.5321993 0.23501223 -0.12025614 -0.29898888 0.18374337
5 0.16778624 -0.33303645 0.5288401 -0.52923876 -0.44591832 -0.6357842 0.2841126 -0.1920684 -0.27976516 0.2690506
