7 10
1 -0.8467213 0.47024336 -0.10962362 0.055162895 -0.07828459 -0.021254925 0.36600462 -0.3380366 -0.56879413 -0.086278096
5 -0.8237879 0.46249816 -0.10970928 -0.0125046205 -0.03812745 -0.036158122 0.4012122 -0.3040318 -0.5399531 -0.102656014
3 -0.84348017 0.46258354 -0.1587344 0.016176535 -0.07682047 -0.021196539 0.41891336 -0.3232539 -0.50066376 -0.09619956
4 -0.80471534 0.42870057 -0.09940464 -0.012813264 0.001397165 0.03821675 0.39620167 -0.30946636 -0.5578391 -0.04934837
2 -0.8197323 0.41802084 -0.14040826 -0.015081503 0.022298427 0.035809357 0.40692386 -0.23659284 -0.5729793 -0.11569553
0 -0.78981686 0.47181088 -0.09414311 0.028909083 -0.039708696 0.004997425 0.39126238 -0.2685673 -0.5917944 -0.07378854
6 -0.8265318 0.45075548 -0.073695555 0.056733754 -0.020539982 -0.051543966 0.36163846 -0.2876581 -0.529187 -0.044282276
