7 10
5 0.17622446 0.73858386 0.4588884 0.15661366 0.22918151 -0.1176159 -0.7490333 0.12521982 -0.08067439 0.05927185
3 0.122031 0.75261927 0.42635202 0.19232002 0.16710581 -0.12918682 -0.72477007 0.1745931 -0.1010115 0.091581315
6 0.16199242 0.69768566 0.47173932 0.13235423 0.20628044 -0.13880514 -0.7531919 0.1706309 -0.026119066 0.14305076
4 0.12933402 0.69564426 0.47883746 0.1140522 0.26228976 -0.1475322 -0.747523 0.13775077 -0.039563958 0.09187785
2 0.1567293 0.69770885 0.45058537 0.13248956 0.23415951 -0.109632604 -0.7862868 0.07525641 -0.04610694 0.08607433
1 0.10430327 0.73510337 0.4539385 0.20626466 0.19168285 -0.16122429 -0.72707117 0.16096063 -0.11445153 0.13685541
0 0.13291796 0.6691425 0.42504576 0.18402518 0.2589714 -0.0686162 -0.7849233 0.124078035 -0.06552984 0.08558071
