5 10
1 0.4164555 -0.7236533 -0.067285836 -0.16247734 0.25119448 0.039897792 -0.24194093 0.020244718 -0.5078256 -0.51775956
4 0.41637614 -0.75315976 -0.087578766 -0.11730709 0.18476148 0.04616977 -0.18284188 -0.08618903 -0.53089523 -0.55962014
3 0.39192545 -0.7567615 -0.115208276 -0.09138799 0.27003586 0.092969805 -0.22230086 -0.042134933 -0.5359873 -0.5436227
2 0.34460124 -0.72228533 -0.07535828 -0.073142536 0.1892368 0.043214455 -0.27887166 0.008141576 -0.44853282 -0.5554703
0 0.37227884 -0.6934211 -0.05955791 -0.17898378 0.24021432 0.029084574 -0.27351263 -0.048627064 -0.50819415 -0.52566195
