7 10
3 -0.17702882 -0.5640716 0.24286354 -0.311576 0.39869252 0.5468693 -0.31518438 -0.07224623 0.57557213 -0.13081823
6 -0.13801765 -0.59512734 0.27685043 -0.3332179 0.34102628 0.56179607 -0.32200655 -0.09425091 0.5925694 -0.22538115
4 -0.17995533 -0.51371384 0.3093781 -0.31032088 0.3754273 0.53769886 -0.21613178 -0.14769897 0.6179081 -0.18280622
5 -0.15183377 -0.5619708 0.29344252 -0.3337067 0.34682524 0.5235304 -0.25151572 -0.11671283 0.62281317 -0.19224393
1 -0.09562503 -0.5999404 0.24997208 -0.3408697 0.31409404 0.48790327 -0.30858934 -0.090184 0.61169416 -0.22945641
2 -0.1247224 -0.51573956 0.29810667 -0.32743695 0.33160868 0.5524026 -0.27521366 -0.107911415 0.60415137 -0.15430887
0 -0.12405463 -0.59509003 0.25457856 -0.28387004 0.3117264 0.49963042 -0.23945844 -0.07993367 0.6386181 -0.15454596
