7 10
5 -0.52365977 0.5086755 0.3975625 0.016152484 -0.065748826 -0.12688021 -0.45106688 0.15567747 -0.14279886 -0.6406326
2 -0.57764125 0.46638983 0.3505819 0.042089332 -0.046946112 -0.10349996 -0.41878816 0.1516203 -0.10298477 -0.6838412
0 -0.56066626 0.5117434 0.36245 0.13989298 -0.11646887 -0.1596656 -0.38838047 0.11734866 -0.14805616 -0.66111135
4 -0.5027358 0.4246441 0.41054696 0.09824692 -0.06819031 -0.13054259 -0.48515967 0.12941852 -0.17342298 -0.7266101
1 -0.47136176 0.45737106 0.33873132 0.026454935 -0.099253125 -0.091021664 -0.44549385 0.15083377 -0.16742566 -0.7369575
3 -0.58948654 0.48522347 0.3512217 0.13002948 -0.04256918 -0.12953869 -0.40624917 0.066558 -0.15214868 -0.655489
6 -0.5957664 0.5215512 0.38860312 0.08880136 -0.04535181 -0.105543986 -0.42030185 0.056279115 -0.13282613 -0.6570112
