6 10
2 0.39441216 0.20085105 0.488178 0.5421812 -0.4072894 -0.013219249 -0.062575765 0.2682633 -0.53001016 0.3264105
4 0.3617776 0.25010982 0.47615457 0.54182386 -0.400281 0.036230676 -0.1008575 0.21079694 -0.49899754 0.3814439
3 0.35306948 0.17867024 0.47039828 0.53421026 -0.4025864 0.045727972 -0.16441725 0.27724555 -0.53785545 0.3765472
5 0.42479932 0.22756235 0.48911884 0.49536628 -0.43308088 0.056094926 -0.17646177 0.22617653 -0.5311694 0.3578276
1 0.37173605 0.24911974 0.4646115 0.52691984 -0.360952 -0.004537485 -0.13708186 0.29762068 -0.57971174 0.38660488
0 0.3061226 0.18589999 0.50002384 0.5230355 -0.3338973 0.044222467 -0.14506233 0.27583772 -0.4625692 0.3727784
