6 10
4 0.1767361 -0.31620622 -0.3795705 -0.3175377 0.3988271 0.6759786 0.46812162 0.11043871 0.072045736 -0.34434098
1 0.2550916 -0.30261695 -0.4281944 -0.25675634 0.44808426 0.6990824 0.444858 0.16287912 0.033759914 -0.26466382
3 0.19607094 -0.34562692 -0.407838 -0.2989537 0.44691297 0.6560853 0.4454871 0.13335554 -0.01962081 -0.3124736
2 0.2335035 -0.34496596 -0.41012275 -0.23581326 0.46609634 0.6586687 0.41698468 0.1569404 -0.0136451 -0.3139827
0 0.24127741 -0.33302778 -0.3769568 -0.284583 0.44361964 0.6676367 0.46231067 0.14339013 0.03973057 -0.3449703
5 0.2562046 -0.24888635 -0.38586012 -0.22278348 0.40954447 0.6116549 0.44225085 0.09406109 0.070622966 -0.3015727
