7 10
6 0.0940921 0.6878969 -0.04707859 -0.8125777 -0.21155658 0.1800053 -0.023552135 -0.34417823 -0.15106608 0.36866993
4 0.14544956 0.70033234 0.023106052 -0.82769454 -0.18403362 0.1475618 0.026996955 -0.3861508 -0.11107625 0.31278887
5 0.08420427 0.69135433 0.017852599 -0.7570152 -0.1599807 0.19482772 0.019634597 -0.35045505 -0.111813545 0.26878378
3 0.1538751 0.66980404 -0.0009291748 -0.79117936 -0.21369632 0.1815438 0.05177807 -0.30134597 -0.1509231 0.32574993
2 0.1631745 0.69017375 -0.019784313 -0.7726712 -0.14958088 0.21449213 0.071743116 -0.2835333 -0.17238384 0.3381767
1 0.12520452 0.7039963 -0.02815651 -0.7595116 -0.12262727 0.22328486 -0.006345147 -0.31753555 -0.15741219 0.36588037
0 0.13941355 0.6507521 -0.04314843 -0.75682884 -0.14478433 0.20870501 0.0109509695 -0.3713736 -0.12953033 0.3472928
