4 10
0 -0.41487086 0.64638597 0.13154207 -0.12589669 -0.2055602 -0.3187605 0.23707068 0.5684992 -0.28425843 0.2527961
3 -0.32777935 0.51586473 0.11623522 -0.06889308 -0.2094864 -0.27775228 0.14545318 0.47880822 -0.28432894 0.21105765
5 -0.31619954 0.5180503 0.10594121 -0.123008735 -0.22324052 -0.26954886 0.182935 0.4502116 -0.2844769 0.19063231
4 -0.3114965 0.5033042 0.10327411 -0.0924467 -0.20112184 -0.28241375 0.12868924 0.44923753 -0.2529575 0.22970042
