7 10
2 -0.010677486 -0.34263936 0.58909047 -0.32536757 0.51939 0.43726262 -0.2498211 -0.046505198 -0.6497029 0.17394592
0 -0.02683626 -0.36568007 0.5928535 -0.2853598 0.5105396 0.42432797 -0.20661682 -0.051972326 -0.6332499 0.20589913
1 0.043904122 -0.31147173 0.54985464 -0.29200375 0.5532547 0.3537634 -0.24969615 -0.03759289 -0.6955783 0.16884984
5 0.012968092 -0.3004495 0.56139237 -0.29659837 0.509763 0.3738942 -0.26007435 -0.07859409 -0.61486834 0.23050314
3 0.006797583 -0.31738386 0.51626694 -0.2517579 0.46346918 0.43182755 -0.25217888 -0.042011723 -0.65946573 0.21063423
4 -0.038008235 -0.2929702 0.51922464 -0.30238912 0.5125837 0.39118168 -0.15423 -0.07964779 -0.633371 0.24287194
6 0.05754194 -0.27173954 0.49470836 -0.31427777 0.4669667 0.3738834 -0.1920354 -0.08102702 -0.6620389 0.21895577
