7 10
5 0.3376058 0.33258235 -0.21029988 -0.122265175 -0.1994637 0.28952083 -0.4164576 -0.582092 -0.6031317 0.19398089
6 0.3906805 0.32140157 -0.21940835 -0.04437556 -0.17098269 0.31611454 -0.39657348 -0.54110134 -0.62705684 0.2177285
3 0.3940865 0.3702726 -0.20083891 -0.066579126 -0.176561 0.26269642 -0.43100965 -0.58557445 -0.63564914 0.26575506
4 0.3839766 0.29695147 -0.15328795 -0.08832798 -0.14892693 0.30477366 -0.47994536 -0.5451843 -0.63220096 0.2778367
0 0.38528594 0.31545857 -0.15001078 -0.04436221 -0.1700413 0.27271605 -0.43901652 -0.5897935 -0.6241312 0.28257632
1 0.3810317 0.36061975 -0.2545845 -0.08623006 -0.16673827 0.28636274 -0.45811015 -0.5994062 -0.6125279 0.20229256
2 0.37282205 0.33077455 -0.23362204 -0.09603883 -0.19651759 0.34499764 -0.467747 -0.5504669 -0.5879043 0.29337034
