5 10
2 -0.9735001 -1.1635815 0.77997524 -0.5948266 -0.15270407 -0.04488298 0.8551596 -0.00726144 0.4538831 0.40605515
6 0.7239102 -0.23643176 -0.7112452 -0.9527466 -0.9138514 -1.3222295 -0.23259543 -0.66834277 -0.2561212 0.12529859
5 0.6533612 -0.25667498 -0.54276824 -0.8885944 -0.86742884 -1.2277982 -0.19454288 -0.5509024 -0.26210225 0.13520455
1 -0.7839515 -0.9457356 0.6545839 -0.49567622 -0.19438471 -0.091526926 0.6785625 -0.06656359 0.37177736 0.27743897
3 -0.9034019 -0.99658513 0.6571055 -0.57707846 -0.20382595 -0.020118318 0.6818243 0.02841896 0.4598823 0.28077155
