7 10
0 0.41593006 0.48398182 0.13700536 0.04807226 0.43877766 -0.029792983 -0.81939596 0.1795681 0.10608276 -0.19813912
3 0.38212126 0.48602185 0.096077666 -0.035555005 0.4663282 -0.030269343 -0.8044849 0.17198998 0.11269874 -0.27583724
2 0.39669296 0.5026446 0.13817634 0.02873474 0.48595658 -0.089435086 -0.83773625 0.2145212 0.12380993 -0.25627634
4 0.38107985 0.4566172 0.047011696 0.04643798 0.40023977 0.0066699157 -0.84415543 0.1965295 0.059836503 -0.29936415
6 0.35750303 0.52965045 0.113729835 -0.012583913 0.5152294 -0.030152371 -0.8170462 0.18963134 0.10912054 -0.22640276
5 0.40589243 0.47932726 0.05332109 -0.02755697 0.41722393 -0.016011657 -0.8032002 0.21614498 0.07124032 -0.2348898
1 0.3668415 0.46073017 0.15163897 0.011487668 0.48389658 -0.05338759 -0.8014432 0.18375981 0.07624107 -0.24016611
