5 10
1 0.55118585 0.22769192 -0.0044267997 -0.5111379 -0.1565975 -0.17373279 -0.27054632 0.35393184 0.28376493 -0.6866613
0 0.54385847 0.2041695 0.031054316 -0.5272285 -0.16776237 -0.13031654 -0.29206917 0.30101886 0.26153892 -0.6763563
2 0.5322973 0.18008317 -0.03371685 -0.5063483 -0.1480699 -0.15233457 -0.33979356 0.31548813 0.2609767 -0.73918915
3 0.51829505 0.22443587 -0.023210656 -0.5011214 -0.18920197 -0.1808215 -0.33529228 0.3220343 0.29272586 -0.72238904
5 0.50969976 0.17677936 -0.014658771 -0.4692994 -0.19066606 -0.18312322 -0.32652268 0.3805837 0.22757739 -0.7358623
