7 10
3 0.1642622 -0.6613013 -0.83004445 -0.04888701 -0.18612367 0.10846369 -0.24823487 -0.26600116 0.28076193 0.26198855
1 0.11426277 -0.6143295 -0.8504287 0.013567505 -0.24533603 0.08496592 -0.16409561 -0.31384504 0.23663284 0.30007282
4 0.1948927 -0.59082717 -0.81296307 0.038243923 -0.22565815 0.109663315 -0.2329 -0.22858945 0.22735488 0.2309095
2 0.14890936 -0.5960828 -0.8126139 -0.040441256 -0.23764439 0.11596969 -0.20634061 -0.2584084 0.19206573 0.28442335
6 0.14580542 -0.63199705 -0.836407 0.013196412 -0.23921697 0.15119183 -0.26358768 -0.262118 0.26068336 0.23628725
5 0.18548752 -0.54875445 -0.85252446 -0.008665634 -0.24172547 0.09975443 -0.18965694 -0.26834407 0.27555206 0.24465674
0 0.20205182 -0.57194173 -0.8533814 -0.019398486 -0.21092977 0.090549685 -0.16716585 -0.2792369 0.27722186 0.28575525
