7 10
6 0.66429204 0.29409242 -0.6643011 0.10585247 -0.29464808 -0.16172685 -0.3528042 0.21803382 -0.25407845 -0.36789072
5 0.62461144 0.31367803 -0.63055795 0.045384753 -0.29695165 -0.14643668 -0.26104948 0.21275823 -0.28754973 -0.3242622
4 0.6365262 0.31853357 -0.62892866 0.033445377 -0.28214058 -0.107843265 -0.3132569 0.16053642 -0.28368223 -0.36675158
3 0.6482275 0.32950357 -0.64856124 0.011960329 -0.23688556 -0.120803654 -0.3076013 0.20736536 -0.31225199 -0.3952628
2 0.66379935 0.34599537 -0.6757453 0.062062576 -0.24463478 -0.10275317 -0.34298295 0.17779575 -0.2556376 -0.3094953
1 0.6203537 0.3081524 -0.64132756 0.07731507 -0.23009478 -0.077384144 -0.3304699 0.22968441 -0.32232186 -0.30782223
0 0.62436855 0.31610596 -0.62853247 0.10752659 -0.3159432 -0.15674083 -0.35493812 0.15062046 -0.29205722 -0.367937
