7 10
2 -0.03883591 0.17799564 -0.5519113 -0.104699865 0.3358663 0.2243677 0.6720859 -0.6990181 0.1211597 0.08692343
0 0.016270338 0.1342132 -0.57047564 -0.114860125 0.31334397 0.1823714 0.6928494 -0.69694525 0.058524303 0.06720459
1 0.04308746 0.12822537 -0.5801227 -0.12255917 0.36403424 0.19862585 0.65470284 -0.6715013 0.069425434 0.09234479
6 -0.0010065692 0.21081907 -0.5043384 -0.110045224 0.32621333 0.21988603 0.6836087 -0.66311824 0.06446816 0.056371294
5 0.059975337 0.18508264 -0.5511271 -0.11770483 0.31733203 0.20599718 0.63528854 -0.69072086 0.15008381 0.14599836
4 -0.013750085 0.21119222 -0.5645901 -0.09813502 0.33002934 0.25094533 0.6526489 -0.6741602 0.12463249 0.12708162
3 0.008485242 0.20124805 -0.5520073 -0.13182412 0.3658791 0.23159558 0.638629 -0.69102126 0.1227416 0.0801274
