6 10
1 0.06623226 0.2461864 0.093244955 0.5253974 0.12080962 -0.49611077 -0.2948009 -0.8431439 -0.09746204 -0.054704785
0 0.09622858 0.27099591 0.11252304 0.5598106 0.089367606 -0.51585585 -0.23446545 -0.8282362 -0.013610133 -0.048228495
4 0.034777597 0.29451966 0.11843052 0.6179607 0.051831108 -0.45213136 -0.19124663 -0.79371357 -0.0004727691 0.016201131
5 0.104639985 0.2547583 0.04231992 0.5687918 0.08134126 -0.5303706 -0.2272099 -0.82460076 -0.06336356 -0.007064463
3 0.072186254 0.21005467 0.07286112 0.5681279 0.066625595 -0.44832912 -0.27722815 -0.8104293 -0.092208065 0.015441739
2 0.06361085 0.2882307 0.10190343 0.53491455 0.11777773 -0.47150105 -0.19942734 -0.8420522 -0.008124224 0.005721545
