4 10
1 -0.28429 -0.6616727 -0.22568962 0.31096804 -0.36555544 -0.14974117 0.07678649 0.48791566 -0.15113714 -0.010116014
2 -0.2848849 -0.66836196 -0.21964619 0.35684457 -0.4499444 -0.2000921 -0.0064451173 0.42376566 -0.15520717 -0.050643064
0 -0.27963436 -0.6133556 -0.21843924 0.3501242 -0.3357777 -0.14742815 0.07316493 0.46914724 -0.09782744 -0.060094967
3 -0.30980325 -0.635474 -0.20619158 0.37235677 -0.4475613 -0.12081843 0.040246285 0.50865805 -0.15431544 -0.05133205
