7 10
2 -0.30615893 -0.13359354 -0.5052462 0.5379423 0.22200546 0.477598 -0.5693676 -0.13812953 0.23469068 0.3311244
0 -0.32764724 -0.13908237 -0.5492584 0.5336121 0.20245485 0.4531101 -0.5116377 -0.118483886 0.16215108 0.29815522
1 -0.3117439 -0.14983968 -0.5745817 0.45836058 0.2512867 0.44639936 -0.595563 -0.20462774 0.13229778 0.271504
6 -0.33032584 -0.11744949 -0.5297237 0.5088937 0.2598592 0.36972857 -0.56029135 -0.18285243 0.1857419 0.29704222
5 -0.31501952 -0.09258368 -0.5288141 0.51402587 0.1655863 0.41156495 -0.5499991 -0.19933948 0.15897267 0.29047668
4 -0.3905364 -0.18633601 -0.5775993 0.5720604 0.19028023 0.4356256 -0.58348703 -0.19127375 0.20573357 0.25668436
3 -0.34627986 -0.14971393 -0.6017622 0.5229513 0.26671073 0.43992177 -0.5434613 -0.2123491 0.21157075 0.34304103
