7 10
5 -0.272566 0.47524908 -0.0059226225 0.33195344 -0.31376207 0.69489336 0.1719595 -0.3225228 0.413487 -0.34506822
4 -0.3250596 0.38435295 0.07957779 0.32537854 -0.22402728 0.780598 0.17994346 -0.33703804 0.279959 -0.38527483
2 -0.3588185 0.40751645 0.07988431 0.3286971 -0.24448383 0.7670172 0.14580445 -0.33073923 0.34064147 -0.365912
1 -0.32743126 0.45122197 0.042719413 0.2484297 -0.32134908 0.7556665 0.119050056 -0.26660943 0.34341806 -0.36233583
6 -0.33649132 0.39216074 -0.024544278 0.29222724 -0.29084298 0.7260382 0.10306805 -0.34212914 0.381992 -0.3791993
0 -0.27063346 0.48035276 -0.01406724 0.2206232 -0.31525218 0.7339317 0.1021484 -0.31075722 0.33486336 -0.32242444
3 -0.3599708 0.47085702 0.012309561 0.27801004 -0.2559075 0.76390284 0.17828766 -0.2695232 0.38199717 -0.36377555
