7 10
4 -0.22809802 0.5135952 0.14366443 -0.46364686 0.13503492 0.1938652 -0.14472018 0.54222363 0.72300595 -0.08212181
5 -0.20191489 0.47367057 0.14313377 -0.46421582 0.13950945 0.13592511 -0.14308885 0.5027933 0.723983 -0.109146856
1 -0.15420334 0.48296252 0.05923588 -0.41222313 0.089256436 0.15730256 -0.19161853 0.5492396 0.73387074 -0.14067112
2 -0.20503019 0.47775358 0.08910535 -0.47140142 0.09759758 0.19762991 -0.14828224 0.51689434 0.72548556 -0.12655799
6 -0.2139872 0.46290454 0.059993464 -0.48493865 0.13142122 0.16611642 -0.09978087 0.54208314 0.72668535 -0.10193377
3 -0.18620722 0.42463264 0.10031 -0.49211589 0.08842242 0.14286038 -0.15859467 0.58576804 0.77416784 -0.10147171
0 -0.2334755 0.43462822 0.13431495 -0.43031082 0.07165298 0.11237924 -0.17320468 0.54835474 0.7387321 -0.085455485
