7 10
1 -0.0327623 -0.05019407 -0.4226627 0.38377455 0.44536537 0.12620793 -0.12859558 -0.80384785 -0.43865398 -0.09511016
2 -0.09767635 -0.10401374 -0.35713038 0.47443667 0.40927178 0.058507454 -0.1697952 -0.7554536 -0.49470842 -0.107718684
4 -0.044236656 -0.04506643 -0.40745696 0.441494 0.42322755 0.07343373 -0.12420354 -0.7291007 -0.42210004 -0.09227613
5 -0.09405936 -0.0412726 -0.3705007 0.40081036 0.41381678 0.09292571 -0.17195427 -0.7497803 -0.50342506 -0.14172451
3 -0.050124533 -0.037162658 -0.39523864 0.43260413 0.4123897 0.033255104 -0.18227367 -0.72543097 -0.4788871 -0.13180515
0 -0.07417579 -0.09152291 -0.38849673 0.44260493 0.4249757 0.061364062 -0.19057038 -0.7438323 -0.44089988 -0.06700012
6 -0.09644411 -0.07099492 -0.38252005 0.44497755 0.42793724 0.04594293 -0.18915318 -0.72991323 -0.4522471 -0.10149912
