7 10
0 0.522594 0.23026375 -0.017921476 0.28445 0.0019746497 0.60141677 -0.5000569 0.1323828 0.52609974 -0.29487783
2 0.48123807 0.28304738 -0.029528102 0.35386738 -0.058445662 0.58846474 -0.5620755 0.0918938 0.49408984 -0.22567025
3 0.50971013 0.2051641 -0.05805476 0.31818917 -0.02225729 0.6070976 -0.56268746 0.116110526 0.47296754 -0.23406221
1 0.47199017 0.27359506 -0.07611261 0.2937252 -0.041004118 0.5624708 -0.52971804 0.120709196 0.48742846 -0.27787942
5 0.55399585 0.2928766 -0.0049788645 0.3744229 -0.09900723 0.6113156 -0.51272786 0.07984353 0.5110794 -0.23576452
4 0.44686174 0.25020012 -0.07033519 0.34370488 -0.09318824 0.5313339 -0.5270482 0.13423686 0.49634758 -0.22150595
6 0.4613775 0.27725285 -0.010056575 0.31550005 -0.025907999 0.4751281 -0.5250341 0.12413336 0.51497436 -0.23008691
