7 10
3 -0.006134282 0.37706012 0.20385458 -0.43206397 0.42258304 0.087997444 0.6883583 -0.088277526 0.53947383 -0.35751942
5 -0.0235073 0.46453983 0.16983406 -0.47396666 0.31529963 0.06180845 0.63877803 -0.12784894 0.50322527 -0.40812156
4 0.023969166 0.43022633 0.24178436 -0.4402013 0.36485323 0.052848097 0.6318345 -0.096229285 0.51436543 -0.3704451
0 0.0009775443 0.43277743 0.2548355 -0.38127932 0.41209543 -0.001054692 0.59667325 -0.14948998 0.5254665 -0.3567494
6 0.053896174 0.39068627 0.18899217 -0.4934189 0.39716145 0.100445196 0.6528073 -0.16410452 0.489854 -0.36249655
2 0.045706354 0.4266795 0.16622587 -0.47801593 0.39766175 0.031168532 0.64828026 -0.17818743 0.42684922 -0.3738285
1 -0.018687345 0.41292217 0.21429624 -0.47965378 0.36338288 0.033978086 0.6437541 -0.15800233 0.5089845 -0.3405722
