7 10
1 -0.088438675 -0.3228875 0.12258487 0.710952 -0.2064809 0.13950329 -0.78552 0.093656234 -0.09356741 -0.27987677
4 -0.19814368 -0.29089245 0.08848621 0.6637543 -0.25329626 0.12830028 -0.7949248 0.19006775 -0.04906162 -0.309639
0 -0.18269528 -0.2799944 0.113302484 0.6793104 -0.28161904 0.21362588 -0.754512 0.19017787 -0.1290534 -0.24195524
3 -0.20000368 -0.31091955 0.068996735 0.64884824 -0.26376694 0.2020796 -0.76793975 0.14414881 -0.07445999 -0.21541229
2 -0.1493141 -0.2335747 0.07965168 0.6633787 -0.22578853 0.16630262 -0.76863 0.1872022 -0.1277153 -0.2692149
5 -0.12064289 -0.31283802 0.11726699 0.6675894 -0.2195953 0.13560529 -0.7740866 0.12811522 -0.09691642 -0.26703647
6 -0.11817214 -0.30374283 0.12605454 0.62424755 -0.18580647 0.16596761 -0.8011836 0.15367931 -0.07190663 -0.26498607
