7 10
0 0.31142575 -0.59855634 0.72228825 0.118852824 -0.16588804 -0.027182372 -0.397359 -0.33203042 0.19203214 0.35218826
4 0.28338677 -0.56903154 0.6865641 0.16498932 -0.23926051 -0.03029434 -0.4103343 -0.3370908 0.24913783 0.30767614
3 0.25501838 -0.583971 0.7140733 0.18359855 -0.21136029 -0.064823106 -0.37678477 -0.24953853 0.24222873 0.32750022
2 0.29835778 -0.57844347 0.70630133 0.13087356 -0.2460624 0.009024201 -0.33272967 -0.3435432 0.20999599 0.33975407
6 0.32923338 -0.5443032 0.7361505 0.16063966 -0.18586718 -0.062163945 -0.38026476 -0.29478827 0.16908787 0.28198013
5 0.3174213 -0.56095225 0.6906372 0.108773045 -0.21926723 -0.0025816793 -0.37967482 -0.29689243 0.21878755 0.33852062
1 0.32708696 -0.5248245 0.6936339 0.19230084 -0.17502137 -0.0581561 -0.41858396 -0.31308097 0.17629862 0.3277391
