7 10
1 -0.6334905 -0.122275144 0.19029962 0.24247415 0.42609993 0.36089015 0.25401747 -0.50318706 -0.019356128 0.5497686
4 -0.64016354 -0.04613886 0.18148 0.26953408 0.33433858 0.30044636 0.2340744 -0.5372371 -0.035684697 0.4847832
3 -0.66131735 -0.06698111 0.17273165 0.2700125 0.42379394 0.27047354 0.18397635 -0.57632476 -0.033000246 0.47857332
5 -0.6379852 -0.12896973 0.19840527 0.26102316 0.39651173 0.31363508 0.22944479 -0.5657876 -0.060772892 0.48510313
0 -0.64125127 -0.04668139 0.15281805 0.19624986 0.3958449 0.3135364 0.24106276 -0.56616277 -0.08901264 0.51905215
2 -0.6211888 -0.15424047 0.118730724 0.24529712 0.45201087 0.31844386 0.2198753 -0.5876786 -0.071409285 0.49481767
6 -0.63869125 -0.110284105 0.10903486 0.24877 0.36995524 0.34879592 0.26861456 -0.5663737 -0.018922055 0.504072
