7 10
2 -0.09172057 -0.12271908 -0.13654232 -0.38083237 0.34619462 0.89893204 0.18537004 0.32643795 -0.12228084 -0.25602496
6 -0.096580096 -0.06853809 -0.115531184 -0.3976325 0.41726667 0.9424938 0.14067627 0.2912914 -0.17279379 -0.29773745
5 -0.08608072 -0.13812062 -0.08067045 -0.29586342 0.3833813 0.9127065 0.15946163 0.37578315 -0.07417933 -0.28663522
1 -0.06338087 -0.13934402 -0.05329789 -0.37745282 0.39164293 0.9698605 0.22701268 0.33770835 -0.16917893 -0.23385744
4 -0.14399089 -0.08567991 -0.040067147 -0.3163971 0.33603868 0.89391196 0.18028946 0.31077284 -0.11539517 -0.22594708
3 -0.058683444 -0.097724706 -0.06638986 -0.39663765 0.3643666 0.92897284 0.18590252 0.31778634 -0.12942669 -0.20652737
0 -0.16489746 -0.057303846 -0.12771122 -0.34366888 0.36551836 1.0261369 0.14336745 0.36154547 -0.21070549 -0.2479487
