7 10
2 0.06724313 0.67775303 -0.43197066 0.24504386 -0.54790837 0.5120145 0.35435155 -0.0050059226 -0.032281198 -0.07995063
1 -0.011340527 0.7100795 -0.4148587 0.28268996 -0.46663672 0.4340912 0.32845032 -0.023105873 0.020972425 0.002177472
0 0.008624718 0.6642144 -0.41343078 0.2527328 -0.5597064 0.41901278 0.38003287 -0.092991926 -0.022278372 -0.057953995
3 -0.029274506 0.6582957 -0.44293535 0.19064039 -0.5397463 0.50386685 0.38457632 -0.06584168 0.053973768 -0.011632965
5 -0.020606285 0.708491 -0.399942 0.27434534 -0.4600111 0.43564534 0.38290638 -0.02994207 -0.006836594 -0.035590988
6 0.047417484 0.7604969 -0.44964612 0.18014309 -0.6351517 0.57369703 0.35874453 -0.094155595 0.05040139 0.00014174018
4 0.07897664 0.75477004 -0.48487267 0.21881399 -0.6368931 0.5714999 0.3563191 -0.114170484 0.011733913 -0.022808334
