7 10
2 -0.1317642 -0.18476813 0.89138067 -0.15330386 0.061835866 0.61237675 -0.01103984 0.017061666 0.14295864 0.22059299
3 -0.17861906 -0.17766409 0.9170817 -0.16471028 0.15869781 0.5652023 -0.09060841 0.034468472 0.10957018 0.29818475
4 -0.15988906 -0.24952745 0.9271826 -0.20289995 0.10732956 0.5688455 -0.12053218 0.07174364 0.18234819 0.23727363
0 -0.18427035 -0.2639434 0.9245662 -0.25483793 0.08992741 0.50353575 -0.031406797 0.007844511 0.21167018 0.28869084
1 -0.147272 -0.23076423 0.9201529 -0.21903072 0.16120678 0.5583851 -0.11571526 0.053099968 0.14821759 0.29668418
5 -0.06331127 -0.20580222 0.8508536 -0.17116608 0.16402173 0.6387044 -0.045679525 -0.07804479 0.18423092 0.30942285
6 -0.05474759 -0.18001664 0.8931056 -0.18293814 0.1041629 0.6373067 -0.053526774 -0.04516342 0.19447628 0.29040414
