6 10
1 -0.30192813 0.1262259 0.5428391 -0.4676864 0.21598582 -0.7275228 0.3551913 -0.14711916 0.22986278 -0.18593054
3 -0.27249616 0.03075428 0.44721016 -0.45818064 0.26544052 -0.736082 0.3399831 -0.094867095 0.13507995 -0.13794984
2 -0.26818797 0.109184995 0.51980674 -0.5253533 0.20344256 -0.8196887 0.33437088 -0.16168158 0.18614434 -0.15945731
5 -0.27040333 0.119920366 0.49482104 -0.41766226 0.19945656 -0.68943036 0.26853684 -0.16329518 0.19567616 -0.17416215
0 -0.27982357 0.061360866 0.4394691 -0.5050491 0.22996244 -0.74756384 0.3519117 -0.1653564 0.17241207 -0.19256857
4 -0.2790022 0.13299611 0.5119746 -0.5178186 0.2355363 -0.7573263 0.31063044 -0.13835156 0.1958968 -0.18474403
