6 10
4 0.7325042 0.33159256 -0.29653367 -0.23456718 -0.3291822 -0.57853514 -0.18330066 0.147691 -0.19574794 -0.1351457
3 0.76224685 0.29618147 -0.3396686 -0.27398762 -0.2809704 -0.5881867 -0.14237821 0.16869068 -0.22103877 -0.0930723
1 0.7260619 0.28708848 -0.3738608 -0.24009724 -0.3318304 -0.572462 -0.2178138 0.15541324 -0.24021493 -0.10232641
0 0.7484698 0.32249635 -0.29067826 -0.27540487 -0.26984358 -0.5949517 -0.21147205 0.17994659 -0.22178267 -0.050286096
2 0.7652809 0.3441568 -0.35148782 -0.21574722 -0.2516721 -0.59441686 -0.1968097 0.13160063 -0.22812957 -0.11902484
5 0.745043 0.26359773 -0.2798336 -0.21401675 -0.26737863 -0.5542888 -0.19484048 0.13606037 -0.24429183 -0.09329039
