6 10
1 -0.06171131 0.15134272 -0.27293465 -0.36063895 -0.30373773 0.27380344 -0.4981731 0.27713445 -0.7105408 -0.389739
4 -0.088423476 0.2277133 -0.30708694 -0.41430315 -0.29680455 0.28592762 -0.41040683 0.3289723 -0.6990246 -0.29909426
0 -0.10834586 0.21917813 -0.23951182 -0.4087085 -0.2383093 0.21707249 -0.4715075 0.3419147 -0.6900691 -0.36503762
2 -0.08030287 0.23114313 -0.28329793 -0.4281216 -0.31682563 0.27702257 -0.409569 0.35246956 -0.70695055 -0.36715376
3 -0.0727296 0.16646597 -0.3213866 -0.41232157 -0.31063527 0.23635711 -0.4728154 0.3661326 -0.73240787 -0.31857818
5 -0.11498496 0.23297976 -0.2857509 -0.37839857 -0.30869907 0.28284827 -0.40677208 0.35846332 -0.6750934 -0.3679572
