7 10
4 -0.06805709 0.21429364 -0.68897593 0.31020534 0.11503179 -0.65820044 -0.2490566 -0.1351702 0.05637112 -0.4882035
2 -0.12986642 0.25011414 -0.7200157 0.22552124 0.13531826 -0.60412085 -0.20484002 -0.10292284 0.072826095 -0.50951225
3 -0.15325156 0.22137108 -0.74176353 0.23806192 0.06528078 -0.6344874 -0.2605051 -0.18663341 0.03487816 -0.48330143
5 -0.12515417 0.23746486 -0.7182218 0.22766519 0.0387455 -0.6339584 -0.25503662 -0.1595262 0.084211275 -0.5113396
6 -0.120532796 0.21880819 -0.7264479 0.2787732 0.040696677 -0.65945375 -0.28371084 -0.1258886 0.03113 -0.5113175
1 -0.083833106 0.27810976 -0.702432 0.32216147 0.17608781 -0.62787163 -0.19792666 -0.10613921 -0.010590915 -0.45792338
0 -0.11590285 0.20365793 -0.7192316 0.32295135 0.15670267 -0.5827684 -0.2833363 -0.16284743 0.0030621442 -0.48603314
