6 10
1 -0.5593933 0.1302823 -0.05486141 -0.01372155 0.8752722 0.18551987 -0.19828232 -0.40178773 -0.068640225 0.17815158
6 -0.54441786 0.13557115 -0.100204006 0.01715496 0.90866613 0.13362888 -0.1903435 -0.38203123 -0.120170176 0.25410175
5 -0.55599123 0.09038983 -0.087025024 0.04859071 0.8507042 0.18952177 -0.15803285 -0.40759796 -0.055814307 0.2148937
4 -0.59189963 0.08201099 -0.038899478 0.03305435 0.8365069 0.12855045 -0.13338624 -0.43488306 -0.072694525 0.24960653
3 -0.55762774 0.13708185 -0.013838616 0.07551994 0.8033899 0.19658804 -0.1625098 -0.43376026 -0.010067044 0.19758812
0 -0.56639224 0.10353737 -0.10770792 0.04644691 0.8505999 0.19796075 -0.1396832 -0.44579774 -0.05861327 0.15284854
