3 10
0 0.093925044 -0.24330705 -0.1074482 -0.2439099 -0.05368333 -0.23537737 -0.133042 -0.5207856 -0.02507151 0.18191397
2 0.03255916 -0.29782945 -0.07493474 -0.17779502 0.0019877679 -0.28409755 -0.2125506 -0.5518082 -0.0571824 0.14069274
1 -0.0035468037 -0.31162643 -0.08740464 -0.31585804 -0.046369974 -0.29742342 -0.25370347 -0.6412552 -0.0551679 0.1759003
