7 10
5 -0.18082142 0.94983536 0.048939183 0.24402002 -0.027842857 0.31623748 0.35833907 -0.32848206 -0.24630325 -0.16042714
4 -0.23260833 0.91090256 0.06972476 0.23052269 -0.057254326 0.32787436 0.3412008 -0.31269458 -0.22700715 -0.22085162
0 -0.2225093 0.9054908 0.058896992 0.1829101 -0.020585237 0.33199388 0.30957672 -0.33022305 -0.29343525 -0.23737203
2 -0.13830648 0.9394461 -0.0016391645 0.19250304 -0.059408095 0.32199684 0.27668884 -0.29565376 -0.30364364 -0.26495633
3 -0.21778211 0.8888925 0.08363601 0.22672738 -0.04115471 0.33362696 0.3443257 -0.25880498 -0.28290975 -0.24157403
1 -0.15940502 0.90788275 0.10017409 0.21897759 -0.021207409 0.2815409 0.30771273 -0.3267041 -0.26264113 -0.19158198
6 -0.23948547 0.95150286 0.032774165 0.18561606 0.016980076 0.36546823 0.29750457 -0.28469452 -0.22644214 -0.18254791
