7 10
5 0.406035 0.5402956 0.18227527 0.52444386 0.24970314 -0.11382008 0.70884705 -0.2429993 -0.026717529 -0.07278894
4 0.39361316 0.5924277 0.1900311 0.49320903 0.21272601 -0.100584716 0.7220132 -0.24040282 0.020288333 -0.10156723
1 0.42928416 0.63132197 0.121906854 0.45453754 0.19295587 -0.06340507 0.6929962 -0.15483473 -0.0029049462 -0.023414759
0 0.41651258 0.6264907 0.11933758 0.5102493 0.20207854 -0.1143265 0.6726562 -0.22484137 -0.027593099 0.015200989
3 0.35730976 0.5882794 0.18963923 0.46233594 0.23704003 -0.09543574 0.6878492 -0.24083684 0.019713681 0.0019223616
2 0.41975832 0.6015625 0.11152342 0.5206438 0.25476828 -0.050443072 0.65684676 -0.19452026 0.042812973 -0.01563314
6 0.41165608 0.5995541 0.19020842 0.46540013 0.2643212 -0.023695309 0.6738396 -0.20898291 -0.019526126 -0.102466814
