6 10
2 -0.2501686 0.070199735 -0.4023528 -0.05403639 -0.4278059 -0.06197968 -0.21948315 0.15364067 -0.30658427 0.93056905
4 -0.25148228 0.097696535 -0.36806828 -0.014059504 -0.43055677 -0.12315255 -0.2425964 0.15400738 -0.29852742 0.9283135
3 -0.2702067 0.039691888 -0.41239277 -0.037311327 -0.44389606 -0.04460337 -0.27539897 0.09377596 -0.24471945 0.91947055
6 -0.2663706 0.048581686 -0.37723196 -0.04276834 -0.44302082 -0.1039552 -0.24301612 0.13697347 -0.2760161 0.896881
5 -0.2226881 0.04338595 -0.40129834 -0.10180426 -0.43445724 -0.13191842 -0.2552529 0.13641374 -0.20303506 0.8882541
1 -0.27270782 0.03936533 -0.3240856 -0.099518664 -0.41976264 -0.09498328 -0.17507929 0.18106794 -0.28961134 0.8965216
