7 10
5 -0.86552835 0.08320274 -0.58625454 0.15312442 0.011477899 -0.1604777 0.0059769554 0.18900803 -0.40431845 -0.056061003
6 -0.91405123 0.11758203 -0.6144467 0.1943735 -0.014419153 -0.15742917 0.03756577 0.14410129 -0.40167433 -0.08735935
4 -0.9016609 0.07010023 -0.5751667 0.20748867 -0.054573074 -0.11049718 -0.040470164 0.19956839 -0.42441687 -0.058745056
2 -0.8839594 0.09849229 -0.5789662 0.22996685 -0.0063495273 -0.14342031 0.01989714 0.23740926 -0.38872272 -0.0859778
3 -0.8668957 0.13480681 -0.5997351 0.1317579 -0.016790792 -0.112519816 -0.03936064 0.15933008 -0.38860193 -0.11553365
1 -0.8907978 0.119190924 -0.57065845 0.14269044 0.012801991 -0.13642012 -0.08626424 0.24949577 -0.44412914 -0.03507166
0 -0.85799634 0.08892014 -0.64369905 0.22176224 0.0057366826 -0.15668198 -0.05037408 0.20894486 -0.4594157 -0.12328592
