7 10
4 0.029934136 -0.10014514 0.10826263 0.39088374 0.25116923 -0.0007615638 -0.6839169 -0.1918698 -0.7533573 0.3145716
3 0.13231844 -0.070098706 0.12471054 0.32943407 0.2148932 0.083142 -0.70818746 -0.18620302 -0.73487127 0.34520483
0 0.09364941 -0.13006634 0.13927506 0.38928548 0.2594215 0.039802864 -0.6611441 -0.1914854 -0.754068 0.38329825
1 0.06842703 -0.11032737 0.1512368 0.3169607 0.18926723 0.09030858 -0.69448566 -0.12745975 -0.7383276 0.35601562
2 0.11202934 -0.17235559 0.09561067 0.34326446 0.25360426 0.016438844 -0.7198226 -0.14267822 -0.7562823 0.3459077
5 0.08156079 -0.11874952 0.1360484 0.35399806 0.14959842 0.07681467 -0.6435336 -0.21844871 -0.71394926 0.35659033
6 0.07736956 -0.122523114 0.10414051 0.29994312 0.13332027 0.0700692 -0.6109404 -0.19514103 -0.6645371 0.33577695
