7 10
3 -0.68748766 -0.5040653 -0.107784696 0.4473172 0.17053919 -0.47332838 -0.30313712 -0.15093699 0.35651353 -0.13940057
2 -0.68343365 -0.5130351 -0.052896205 0.39679658 0.13039939 -0.5456364 -0.25525543 -0.14131342 0.28560752 -0.084705465
4 -0.6723703 -0.43126905 -0.11758978 0.40018225 0.17329662 -0.5270186 -0.29026338 -0.13327643 0.35043037 -0.051809244
5 -0.62808084 -0.4626382 -0.058265343 0.48525336 0.21956539 -0.5172954 -0.3014577 -0.1599263 0.35335773 -0.13200259
1 -0.6742478 -0.50093776 -0.054134455 0.46266887 0.2180125 -0.5638007 -0.2978561 -0.12031776 0.33266175 -0.08958809
0 -0.6799654 -0.52296275 -0.12753616 0.45634177 0.16039887 -0.5357661 -0.24016407 -0.19008172 0.28971753 -0.046009198
6 -0.65640736 -0.45124966 -0.07070236 0.42355785 0.13566598 -0.5291453 -0.28967053 -0.12952588 0.32317162 -0.12693538
