7 10
3 0.23375568 0.7021204 -0.060354367 -0.03209187 0.40100136 -0.14969847 0.75549155 0.20006189 0.026008189 -0.23015298
6 0.25498968 0.67365193 -0.03749346 -0.071618445 0.4121246 -0.21563126 0.6890864 0.20013094 0.08726588 -0.2972705
0 0.27727768 0.6958428 -0.057784677 -0.06358801 0.38461718 -0.19205506 0.75266945 0.20010304 0.07223272 -0.2678553
2 0.20267725 0.68364865 -0.08857775 -0.053540524 0.41165575 -0.19379073 0.7362205 0.20329404 0.11128058 -0.29981217
5 0.2516989 0.65418315 -0.081358254 -0.016775746 0.39572757 -0.14822951 0.7073676 0.25040746 0.06034771 -0.27756727
1 0.2939928 0.62749803 -0.069946274 -0.07714417 0.35607135 -0.2190716 0.767714 0.26196086 0.05208132 -0.27730918
4 0.29400423 0.6958141 -0.068279356 -0.023705889 0.40121713 -0.1651993 0.7139672 0.2514965 0.06661898 -0.22428298
