7 10
1 -0.36448392 0.7220515 -0.2785607 -0.39581528 -0.1250342 -0.19979718 0.1753138 0.23247027 0.11100383 -0.5621983
4 -0.34726727 0.7214779 -0.35609266 -0.33345553 -0.11188503 -0.2425238 0.19597326 0.2227682 0.16750018 -0.5946041
6 -0.3272772 0.79162985 -0.36387837 -0.35169035 -0.035677508 -0.19055115 0.15673779 0.24914445 0.1374672 -0.6032329
2 -0.34570742 0.7333971 -0.32999098 -0.40336168 -0.09113575 -0.19585842 0.18305197 0.27503935 0.18648659 -0.5670022
5 -0.30421528 0.7160011 -0.35055348 -0.41535503 -0.12040133 -0.24644643 0.17990676 0.2516043 0.1851791 -0.5692838
3 -0.3071981 0.7689867 -0.3531499 -0.35604134 -0.059651457 -0.26860744 0.15874657 0.1830195 0.15407757 -0.5860694
0 -0.34760827 0.63739955 -0.35259208 -0.35565522 -0.06936742 -0.25618845 0.20642556 0.2506347 0.12955453 -0.5828315
