7 10
2 0.7625162 0.061300043 0.24453436 0.7421302 -0.0101078935 0.12408683 -0.18141328 -0.47465637 -0.059882708 -0.035105586
0 0.76287454 -0.019508308 0.21753263 0.6824742 -0.04457788 0.14444 -0.17523645 -0.46005505 -0.12531036 -0.025525285
5 0.76856273 0.020576192 0.27272 0.68230116 0.0348044 0.11856357 -0.17254834 -0.4730688 -0.11207335 -0.068849675
1 0.7487027 -0.018060436 0.2067177 0.67086 0.019854227 0.09212028 -0.22328888 -0.40363967 -0.09444643 0.028473623
4 0.78724056 -0.0103740245 0.2962012 0.7057072 0.025469773 0.12178401 -0.18308258 -0.44048113 -0.09991418 0.005848397
3 0.80638325 0.03795706 0.20451236 0.72885734 -0.011783178 0.088961035 -0.19691424 -0.4059385 -0.1283449 -0.020927455
6 0.7533333 0.020897508 0.24115804 0.6827356 0.028167665 0.11596578 -0.19636822 -0.45551595 -0.03188916 -0.038328476
