7 10
2 -0.48027182 -0.77854884 -0.25763768 0.25324568 0.19334489 -0.34862736 -0.36023083 -0.24330515 0.008939266 -0.49116582
1 -0.38253358 -0.74633235 -0.26148275 0.20334908 0.19917585 -0.34127688 -0.32345203 -0.21533357 0.07558496 -0.4945588
6 -0.42012933 -0.6710716 -0.24469092 0.19339016 0.16507426 -0.31590337 -0.36299032 -0.22271296 0.010979877 -0.49398863
3 -0.47775203 -0.77008647 -0.2996512 0.23866928 0.12954143 -0.29934996 -0.3064458 -0.19916037 -0.019792154 -0.50525945
5 -0.44228527 -0.76370746 -0.31403872 0.16308847 0.14049904 -0.31936032 -0.3268977 -0.2240683 0.06607889 -0.4489926
0 -0.43754557 -0.7301981 -0.27318996 0.18633807 0.19657727 -0.340801 -0.31805223 -0.16872811 0.04700053 -0.47831637
4 -0.40807685 -0.72814983 -0.25167266 0.19665787 0.22099689 -0.3372615 -0.3147174 -0.17237715 0.039800838 -0.4823575
