6 10
4 -0.105042785 0.17331706 -0.11622657 -0.8704744 0.041211754 -0.6446664 0.18930355 -0.027991224 -0.15152663 0.31883574
5 -0.093155466 0.12988065 -0.113523714 -0.8556219 0.11134899 -0.64015204 0.21464548 0.0015516167 -0.1292665 0.34216675
0 -0.19576788 0.054057907 -0.16758583 -0.9069595 0.05049521 -0.61928654 0.12807809 -0.11441569 -0.098345146 0.34952715
2 -0.15848014 0.12572014 -0.072992094 -0.8430834 0.10812704 -0.6406392 0.11308309 -0.09353838 -0.13112743 0.3820357
1 -0.17596303 0.077673726 -0.1201723 -0.8526706 0.118044645 -0.6376074 0.17786914 -0.057925925 -0.10696485 0.30755243
3 -0.122974046 0.11665961 -0.0783331 -0.84204733 0.05465913 -0.6504943 0.15988213 -0.080730826 -0.16957346 0.360854
