7 10
6 -0.4893927 -0.61337894 0.321931 -0.3120462 -0.13790663 0.18678118 -0.27742162 0.027524412 0.5340132 -0.33500934
5 -0.54081875 -0.62768745 0.3048542 -0.34381676 -0.113167405 0.20597324 -0.31545112 0.08131704 0.45932615 -0.33423162
4 -0.5428719 -0.6191584 0.30168378 -0.25612816 -0.19055162 0.19402069 -0.2913607 0.073452175 0.5015785 -0.2954723
2 -0.5347209 -0.5920435 0.2905729 -0.34324175 -0.15216659 0.17422034 -0.23299184 0.093236 0.5467266 -0.38167492
1 -0.53338724 -0.5706706 0.32594737 -0.30609974 -0.18488288 0.17872462 -0.2720069 0.07605099 0.5302048 -0.3113574
3 -0.51628643 -0.615634 0.34908342 -0.3608632 -0.17472392 0.11365467 -0.22273332 0.10456064 0.5660923 -0.34524846
0 -0.53489625 -0.6205787 0.34952003 -0.28542376 -0.21287343 0.14362 -0.24023679 0.11675196 0.55087256 -0.36775646
