7 10
5 -0.33149767 -0.72128433 0.51299566 0.43243548 -0.036187097 0.12827882 0.07906935 -0.31488279 -0.17165005 0.4174941
1 -0.34248033 -0.71566445 0.48639607 0.41046327 0.02790537 0.06402799 0.124859646 -0.30797142 -0.19135231 0.45271564
0 -0.4013333 -0.72325647 0.5311376 0.38624057 -0.039592024 0.1479856 0.12013292 -0.2414386 -0.18996878 0.3948168
2 -0.3530078 -0.7617778 0.46891257 0.4091087 0.023080735 0.07456051 0.055884022 -0.25730625 -0.18744987 0.46306932
4 -0.37699476 -0.7496154 0.4661204 0.4168311 -0.03903935 0.10182911 0.09627263 -0.32724974 -0.14393795 0.41535655
3 -0.37269026 -0.724728 0.46752143 0.45401862 0.007117027 0.112856776 0.10529074 -0.23863119 -0.21453111 0.40136638
6 -0.36801034 -0.71254957 0.44282028 0.4576708 -0.043379005 0.086173825 0.038758025 -0.33706838 -0.20314664 0.43508843
