6 10
1 0.15404627 -0.33593133 -0.39075536 -0.5570097 -0.18481572 0.3340163 -0.7299733 -0.037448112 -0.30938646 -0.16823412
2 0.21278153 -0.36602515 -0.37176302 -0.5371548 -0.2596737 0.25849023 -0.78315884 -0.0037513608 -0.23298196 -0.109221585
4 0.11704428 -0.34725383 -0.32084998 -0.5815061 -0.18479386 0.33584604 -0.76264656 0.0085088 -0.25362504 -0.11919378
0 0.12843 -0.27875832 -0.36224476 -0.55842763 -0.2501911 0.34923032 -0.74210304 -0.03707325 -0.30344224 -0.18233629
3 0.12971693 -0.3153232 -0.39644995 -0.59600127 -0.2500812 0.255451 -0.742178 -0.047536194 -0.2788073 -0.11447279
5 0.1899799 -0.2648807 -0.3415986 -0.5399879 -0.15609242 0.30843058 -0.7343217 -0.06306788 -0.29761338 -0.13865982
