6 10
6 0.30504927 -0.11061765 0.5197171 -0.5963798 -0.18231288 0.10010069 -0.08596807 0.5387995 0.5716686 -0.30265307
5 0.3230074 -0.12126484 0.48930734 -0.62650996 -0.2508311 0.1375901 -0.049750727 0.5253002 0.5316454 -0.23377763
1 0.308956 -0.15432642 0.47102767 -0.65703714 -0.26222035 0.12539892 -0.036433294 0.5542559 0.51267624 -0.307756
3 0.31364352 -0.088538446 0.50491476 -0.60926354 -0.19583283 0.15513138 -0.05369836 0.4581867 0.5393142 -0.21865194
2 0.26662013 -0.17561315 0.51230836 -0.602009 -0.21129334 0.14130017 -0.06284465 0.49037096 0.5515141 -0.2682954
4 0.28997767 -0.19124317 0.48759255 -0.60169184 -0.20566791 0.06946532 -0.06525123 0.47215575 0.53364474 -0.30828983
