7 10
6 0.5353275 0.21276799 0.048090965 -0.63520914 -0.13132635 0.5170395 0.11210529 0.32019743 0.35270917 -0.44325045
3 0.49725857 0.32245556 -0.024667205 -0.61298454 -0.13251656 0.45668086 0.21676159 0.32205242 0.25095448 -0.46284962
4 0.46464396 0.31655255 -0.018857302 -0.5865131 -0.15183358 0.4411292 0.21506937 0.3775844 0.22441751 -0.4843164
5 0.427625 0.3136516 0.035223573 -0.61225814 -0.16212508 0.5024636 0.10145868 0.36505845 0.3453017 -0.48197255
1 0.46332777 0.39024326 0.04956186 -0.52997065 -0.17010628 0.4667207 0.25019065 0.3479403 0.2363436 -0.49722025
0 0.42100173 0.37127972 0.0368184 -0.5954129 -0.1825638 0.45250407 0.2500416 0.39358515 0.1864567 -0.47459334
2 0.46708235 0.2633972 -0.020758612 -0.5773612 -0.13891628 0.47061163 0.13208763 0.33871326 0.37200698 -0.4628969
