7 10
0 0.14422058 -0.39523086 0.6723625 0.20081449 0.08373118 0.70799965 -0.055128187 -0.20913817 -0.13173573 0.47817835
5 0.19049333 -0.41622928 0.5815947 0.2569002 0.052344177 0.6927241 0.034786485 -0.22164579 -0.21900372 0.4264367
4 0.15945707 -0.43595257 0.6465829 0.17638361 0.013996723 0.6512066 0.034723055 -0.13968128 -0.19239642 0.45106772
6 0.16674958 -0.43015411 0.638607 0.24324282 0.058086272 0.6555206 0.037458885 -0.20232013 -0.1941495 0.4266372
3 0.23179495 -0.3988691 0.6646298 0.19840181 0.08664803 0.67150086 -0.020692851 -0.1773725 -0.15472376 0.4090721
1 0.22308344 -0.43870562 0.66011745 0.21556796 0.027260054 0.66388476 -0.03336424 -0.14589682 -0.16354246 0.43008614
2 0.19049406 -0.3942131 0.62979895 0.21575646 0.09852365 0.6529613 -0.016335629 -0.16699718 -0.20403957 0.4443822
