7 10
1 -0.04733737 -0.31881785 -0.45346555 -0.18382819 -0.034166917 0.22104637 0.23491016 -0.5956765 -0.4879736 -0.673043
2 -0.087682486 -0.23244739 -0.4626046 -0.05268273 0.06688244 0.1217481 0.2814906 -0.51129055 -0.5203463 -0.67591447
6 -0.13092238 -0.15827301 -0.38642177 -0.012304579 0.04447383 0.17355353 0.2674212 -0.51641643 -0.56856114 -0.6899339
3 -0.09255078 -0.23598434 -0.39035445 -0.096731864 -0.0043493495 0.21749492 0.25939733 -0.5870554 -0.4311356 -0.67547864
5 -0.13044071 -0.18226013 -0.4404894 -0.062410027 0.03832195 0.12940958 0.2023105 -0.5085866 -0.5335576 -0.67186844
0 -0.023288103 -0.23897454 -0.45706233 -0.15263797 0.034987442 0.18447116 0.2774664 -0.5854695 -0.49055955 -0.57523334
4 -0.1201991 -0.21881247 -0.47097299 -0.083747484 0.0659757 0.17605503 0.2778804 -0.56821203 -0.45974454 -0.6213861
