7 10
2 0.1682419 -0.41918525 0.6383658 0.2973191 -0.66051775 0.016009824 0.024139808 -0.4739319 -0.3434399 0.25977093
1 0.15502447 -0.41970277 0.58914167 0.34150183 -0.634329 0.042821277 0.08551851 -0.51226455 -0.35965425 0.33741188
5 0.13719508 -0.38136455 0.65037066 0.2297164 -0.6705053 0.020763868 -0.013372151 -0.39879018 -0.3056971 0.33248994
6 0.13389522 -0.34766537 0.5738934 0.25161096 -0.631642 0.06602703 -0.033638388 -0.34329146 -0.31508845 0.26543993
3 0.11561626 -0.4270659 0.5535971 0.28365365 -0.6634866 0.020326251 0.030633712 -0.43845436 -0.34120172 0.30103403
4 0.16417669 -0.37093166 0.5720388 0.23454568 -0.5570601 0.030221315 0.025963372 -0.40344858 -0.23683356 0.28782347
0 0.13719554 -0.4323372 0.5753782 0.33270437 -0.6278215 0.020697186 0.05842816 -0.48659015 -0.29773277 0.36155784
