6 10
1 -0.68005514 0.03729939 -0.19160952 -0.20274244 -0.09541665 -0.46138266 -0.108430386 -0.3214872 -0.7208063 0.2125973
6 -0.6452848 -0.025986996 -0.22736974 -0.2401541 -0.039912775 -0.43171877 -0.14154342 -0.2893652 -0.6898645 0.1523458
5 -0.6870781 -0.051444545 -0.2358824 -0.1904039 -0.016128976 -0.41971207 -0.20768568 -0.28244948 -0.76446116 0.14251874
3 -0.7212813 -0.06948172 -0.2483463 -0.24956179 0.009831198 -0.408132 -0.22170375 -0.3180325 -0.6989423 0.17465149
4 -0.59203047 0.012534697 -0.20682117 -0.1603083 -0.042159356 -0.41296083 -0.17894189 -0.2751975 -0.7019247 0.18512212
0 -0.73553205 -0.105867326 -0.19902483 -0.2710307 0.009680486 -0.47397864 -0.28285217 -0.3655867 -0.7516615 0.18019156
