7 10
5 0.60245955 0.58182144 -0.07869878 0.41342378 -0.25519344 -0.09912641 0.29105574 0.517311 0.20440128 -0.23450087
6 0.6388653 0.5632071 -0.02682172 0.35963616 -0.28578869 -0.087188885 0.27079642 0.5606685 0.24418496 -0.24417156
4 0.5594177 0.55556375 -0.09767349 0.35491025 -0.27367753 -0.06769128 0.29911676 0.5523139 0.2365354 -0.2674607
3 0.5479152 0.6008082 -0.011671311 0.4042995 -0.3214881 0.01330904 0.30892164 0.48665905 0.2121484 -0.21350797
2 0.5702686 0.61951554 -0.052482598 0.3809408 -0.2667277 -0.0077796457 0.27814025 0.5514445 0.23052518 -0.17551279
1 0.627 0.60992396 -0.06087657 0.3555459 -0.26102775 -0.054070644 0.2501537 0.5634143 0.29410347 -0.16617715
0 0.5549201 0.5794951 -0.061226554 0.3798328 -0.2527675 -0.08346228 0.26948038 0.5754506 0.27359104 -0.21386641
