6 10
2 0.10406674 -0.22466792 0.40437636 -0.39945462 -0.10807918 0.39580202 -0.357792 -0.08466403 -0.67281127 0.5145649
1 0.15035167 -0.15821604 0.43938845 -0.36206007 -0.07895857 0.3748563 -0.38577405 -0.11305417 -0.6097554 0.54744333
0 0.16960914 -0.25924766 0.37513593 -0.3835401 -0.1377128 0.30902934 -0.35866028 -0.112871684 -0.6510107 0.59555686
4 0.11336697 -0.21219273 0.47487202 -0.34407112 -0.14890769 0.35009405 -0.36955312 -0.082312495 -0.6417819 0.6101872
3 0.09117668 -0.22044471 0.3961048 -0.36137795 -0.113188826 0.32060456 -0.3273649 -0.14260423 -0.5898203 0.5352534
6 0.09783899 -0.22417465 0.4656846 -0.41913497 -0.044483982 0.3857579 -0.3786395 -0.15660979 -0.6617804 0.5605177
