7 10
5 -0.17198631 -0.46743882 -0.12044517 0.46581414 -0.20226105 -0.5953484 0.1577682 0.23293954 -0.26079774 -0.70531046
1 -0.2338685 -0.42340922 -0.14038582 0.505714 -0.17352444 -0.59475464 0.1853088 0.21581724 -0.2128835 -0.7216043
4 -0.1119425 -0.4272339 -0.13716193 0.40320846 -0.21823595 -0.5589305 0.11665229 0.22035863 -0.20343833 -0.6860299
6 -0.20680782 -0.42174634 -0.1791599 0.4181368 -0.16967401 -0.58482313 0.118665636 0.14562654 -0.2370333 -0.6473146
3 -0.18665175 -0.39699486 -0.1894858 0.42208663 -0.23823449 -0.5832378 0.07861575 0.14599341 -0.16511954 -0.72775847
0 -0.18515317 -0.39876756 -0.13105932 0.44133335 -0.22863397 -0.5590526 0.16543616 0.18536294 -0.18319583 -0.7191355
2 -0.1315181 -0.44626316 -0.20342025 0.38868454 -0.26834133 -0.55188763 0.1069562 0.23699063 -0.2353761 -0.77400875
