7 10
2 0.5770737 -0.3180471 0.22878796 -0.19886251 -0.10110772 -0.44353673 -0.15396838 -0.06652867 0.43128124 -0.7505291
5 0.48695868 -0.24842925 0.17705217 -0.2882932 -0.0485143 -0.46960315 -0.24000733 -0.028987823 0.49338746 -0.8064778
4 0.5167383 -0.2356426 0.18627502 -0.2263552 -0.06447312 -0.3948447 -0.21648464 -0.059225313 0.44303888 -0.7121851
3 0.5393858 -0.27865693 0.17401394 -0.20459035 -0.12078402 -0.37927634 -0.20933503 -0.08090436 0.3774426 -0.7045741
1 0.5235042 -0.28010917 0.1782062 -0.23038816 -0.09227172 -0.4521509 -0.19630873 -0.05643411 0.46185446 -0.7167121
0 0.5554175 -0.2905438 0.16575581 -0.2834226 -0.065884605 -0.46842933 -0.18884902 -0.0943547 0.46251845 -0.71320075
6 0.5054462 -0.28750744 0.13029812 -0.21581094 -0.034132134 -0.46034476 -0.14996402 -0.03199641 0.4034632 -0.7375218
