7 10
2 -0.086940914 0.3233744 -0.6873004 0.37512964 -0.50209916 -0.48347282 0.1744881 0.08755197 0.15292361 0.27788696
1 0.0068955566 0.380216 -0.72455853 0.30214244 -0.48645985 -0.42244926 0.22216016 0.0766316 0.26191854 0.28655276
5 -0.09638235 0.34512165 -0.6701991 0.3232427 -0.43524152 -0.4719041 0.07893266 -0.0014221962 0.14319725 0.28484234
6 -0.08047196 0.39752302 -0.66517425 0.3614221 -0.51121813 -0.48745704 0.12880203 0.049023874 0.111277424 0.22962822
4 -0.1309574 0.3598128 -0.66499627 0.28906152 -0.48377764 -0.524136 0.09944526 -0.010338304 0.21998577 0.32175174
3 0.012279798 0.34857535 -0.71426445 0.35007548 -0.50457364 -0.48739296 0.18837823 0.043314513 0.16763996 0.3494659
0 -0.024432378 0.35637167 -0.75194377 0.36241835 -0.44763127 -0.47743663 0.16979873 0.117010795 0.25617173 0.34579268
