7 10
4 0.15314436 0.31242117 0.1583391 -0.048864342 -0.5345144 0.16150951 -0.021625917 -0.93121743 0.3265643 -0.0264284
6 0.12838711 0.26533556 0.14798683 -0.08210063 -0.47418195 0.1679804 -0.08491395 -0.9541351 0.3087319 -0.017256167
5 0.1639905 0.3336604 0.18195269 -0.014286746 -0.506894 0.16836205 -0.1035109 -0.92110753 0.26729515 0.033024002
2 0.079967 0.31774616 0.124190904 -0.025091356 -0.5277312 0.13664645 -0.07020912 -0.96822745 0.23918003 0.042652413
1 0.08263609 0.26255906 0.18165742 -0.01822342 -0.5318459 0.11741709 -0.038053386 -0.9559459 0.25018558 0.015303464
3 0.075194694 0.35245046 0.20122716 -0.06816434 -0.5129285 0.13685217 -0.0782242 -0.9665415 0.24309073 0.0029079292
0 0.15732372 0.33337393 0.16272022 -0.06630871 -0.5011701 0.1415207 -0.027227815 -0.9422787 0.3170423 -0.024762446
