7 10
0 -0.29567373 -0.4204237 0.014763105 -0.54510933 0.35423347 0.14635356 -0.057158325 -0.57646686 0.49041492 0.30802512
3 -0.2668469 -0.46158352 0.050752886 -0.5418198 0.36727214 0.04288662 -0.08515472 -0.62536055 0.508828 0.31864163
1 -0.2967331 -0.38236323 -0.00615302 -0.55743515 0.35310322 0.07852033 -0.054701906 -0.6751927 0.48509854 0.33533278
4 -0.23706122 -0.4092846 0.05878906 -0.4156439 0.29114863 0.111988015 0.012760001 -0.6204964 0.4829097 0.35802582
2 -0.30731076 -0.42320564 0.057097413 -0.48355365 0.37958905 0.05279975 -0.054139245 -0.6468171 0.4362609 0.28943717
5 -0.30973172 -0.4290821 0.038599413 -0.5705229 0.327721 0.13163121 -0.040120166 -0.6182675 0.431447 0.3709802
6 -0.22895502 -0.39536875 0.021752067 -0.5080725 0.39200673 0.041561384 -0.069001175 -0.6392778 0.45686617 0.37892535
