7 10
4 0.17638244 0.06509098 -0.08353285 -0.25768933 0.95357454 0.25133666 -0.03093123 -0.050910015 0.5303676 0.41196635
3 0.22251046 -0.043265805 -0.13948143 -0.2892997 0.90855336 0.26580408 -0.002509285 -0.1176 0.47473964 0.4166807
2 0.1688938 0.00023296794 -0.08780219 -0.27835116 0.85222644 0.24674769 -0.07241374 -0.045900207 0.4842465 0.4023504
0 0.22338673 0.06383418 -0.06516142 -0.3229806 0.90457845 0.2027029 -0.034817137 -0.07360936 0.46986967 0.34444046
5 0.22768575 0.010923024 -0.025559213 -0.3008752 0.85801804 0.21510589 -0.07230705 -0.060117327 0.43395215 0.36286137
1 0.16333015 -0.028384643 -0.1125792 -0.24964973 0.8844868 0.22230305 0.008597574 -0.026905656 0.42974812 0.42932144
6 0.1809817 0.010447812 -0.07075361 -0.29311982 0.9333992 0.24214901 -0.07372617 -0.07587281 0.46359617 0.39701122
