4 10
5 -0.22045715 0.12253479 0.06728183 0.09584514 0.9421316 0.12690988 0.27349362 -0.110910125 0.103445075 0.5539345
6 -0.15567762 0.104059875 0.13529833 0.09871683 0.8367509 0.111144565 0.19568744 -0.07819843 0.050595496 0.5423016
4 -0.15723433 0.13727582 0.049391817 0.14007159 0.7725387 0.028358387 0.21043335 -0.11420459 0.03378596 0.51097345
0 -0.14202224 0.07194117 0.13009493 0.096026994 0.740382 0.025765497 0.170503 -0.05238791 0.092512116 0.44611976
