7 10
6 -0.04105319 -0.47337943 0.08799661 0.6404353 0.692747 -0.07258578 -0.475916 -0.08923052 0.06904573 0.28348976
5 0.005333591 -0.4196574 0.12711343 0.60588014 0.6394362 -0.0058809454 -0.51599073 -0.15869188 0.112872116 0.28553838
2 -0.037081033 -0.4484921 0.09534325 0.6204858 0.62423617 0.01581291 -0.53909785 -0.17011224 0.14632772 0.3397105
1 -0.039757244 -0.4518586 0.12101933 0.59739 0.6815036 0.042497184 -0.4631574 -0.09227124 0.14408207 0.30700552
4 0.02712774 -0.4650394 0.10600194 0.55565363 0.66140944 -0.06604693 -0.52089155 -0.09236183 0.06580355 0.3127283
3 0.034423374 -0.39871177 0.0643471 0.6318882 0.6780433 -0.043853633 -0.5243216 -0.11427074 0.11303124 0.3457809
0 -0.00094067096 -0.43303263 0.15216465 0.55746675 0.6655903 0.014958346 -0.54672503 -0.15283199 0.115277976 0.2727939
