7 10
0 -0.34180552 0.2368705 -0.06284515 0.7555238 0.3441677 0.08156178 -0.4027027 0.16353233 -0.14249262 -0.61002606
2 -0.32040438 0.24089433 -0.1734763 0.81761754 0.2945158 0.24989386 -0.37512937 0.054115627 -0.12814066 -0.66389185
1 -0.33963594 0.22567548 -0.1702467 0.7572295 0.31905887 0.22209822 -0.3432062 0.06142137 -0.09957098 -0.6264651
4 -0.35696772 0.24334684 -0.13940118 0.69805336 0.35001367 0.071191385 -0.41568282 0.11044617 -0.11208507 -0.5922741
3 -0.2964659 0.26357412 -0.110842146 0.7120612 0.343505 0.11046489 -0.3742242 0.10399638 -0.066494174 -0.55411756
5 -0.40059635 0.2125377 -0.104211904 0.7375492 0.377211 0.19686937 -0.38282028 0.09776594 -0.071548834 -0.6648678
6 -0.34907705 0.26135263 -0.16220014 0.75481474 0.29343688 0.23090357 -0.41763934 0.06877541 -0.14896621 -0.61082345
