5 10
4 0.43756694 -0.63407046 -0.47503018 -0.2564665 0.22014065 -0.31281927 -0.2565747 0.16278294 -0.14233835 -0.4716918
3 0.42702934 -0.72063005 -0.46778244 -0.34196317 0.30878857 -0.24564642 -0.23314814 0.13028273 -0.12547974 -0.46175325
2 0.44668633 -0.62962455 -0.4194709 -0.2458525 0.289699 -0.2726293 -0.14747883 0.16713966 -0.1581927 -0.46953738
5 0.44667554 -0.6644503 -0.41667324 -0.32012573 0.28598693 -0.21272808 -0.18716078 0.12776281 -0.14657132 -0.42660555
0 0.442281 -0.63878644 -0.45969844 -0.21430981 0.24252136 -0.26573333 -0.19539168 0.099851094 -0.16186205 -0.4375311
