6 10
1 -0.18862279 0.5371587 0.25630948 -0.07600499 0.1454541 -0.017824829 0.70338345 0.20961477 -0.134907 -0.62491393
5 -0.10167063 0.59009296 0.25323087 -0.0678476 0.20882758 0.050637905 0.7229878 0.21019912 -0.12046344 -0.60087067
4 -0.14172633 0.5180008 0.24420005 -0.09962524 0.16975397 0.02420555 0.710241 0.25130895 -0.11638771 -0.6224392
2 -0.14429419 0.53841925 0.2461779 -0.08116948 0.21188536 -0.023447989 0.70460355 0.22949056 -0.13602978 -0.61629707
3 -0.11057538 0.54155904 0.18577756 -0.08671501 0.21150507 -0.0060096257 0.7375912 0.26505765 -0.07189773 -0.6207327
0 -0.16927417 0.57143605 0.21769203 -0.041441854 0.18174821 -0.0109835435 0.70086396 0.19113354 -0.107220314 -0.5880326
