7 10
6 -0.15546827 -0.066746235 -0.13556622 -0.29527506 0.19725847 0.58775383 -0.6907628 -0.016344968 0.5687556 0.36613292
5 -0.15886289 -0.11969161 -0.09778786 -0.30936286 0.20226113 0.54864 -0.6782366 -0.027744563 0.5175177 0.34151632
4 -0.21158329 -0.075415 -0.14487836 -0.3468557 0.2107522 0.46376413 -0.65915483 0.021624293 0.55563045 0.3751763
1 -0.1324108 -0.07776849 -0.14935336 -0.3432911 0.24567418 0.5642543 -0.70531815 0.02567177 0.5076327 0.37310156
0 -0.15688713 -0.06412056 -0.17205128 -0.2561503 0.24198502 0.54528826 -0.7069121 -0.04795417 0.56294096 0.3299396
3 -0.17554343 -0.07520488 -0.18377402 -0.28275698 0.26778778 0.5642667 -0.65580904 -0.011992011 0.54945874 0.29383665
2 -0.15829857 -0.08070493 -0.16840085 -0.29863358 0.271753 0.52214164 -0.65989864 0.011339148 0.56519014 0.32823762
