7 10
1 -0.25893217 -0.39553407 -0.5840185 0.4524143 -0.15340964 -0.010334649 -0.4203706 0.4413392 0.5404626 0.06689539
4 -0.23495118 -0.3545581 -0.56003803 0.36784512 -0.15715055 0.002815619 -0.4646142 0.47232735 0.56744105 -0.0060860734
5 -0.27627608 -0.31729764 -0.53480947 0.42478275 -0.124251634 -0.027266309 -0.45418277 0.46518493 0.5682818 0.00048013777
3 -0.29482105 -0.41460714 -0.50329375 0.45449087 -0.16479114 -0.01870625 -0.40569797 0.41190135 0.58265555 -0.011069911
0 -0.3044278 -0.3850427 -0.56700546 0.3679203 -0.12060714 -0.045284614 -0.4515041 0.4235567 0.5558967 0.025436148
2 -0.2511427 -0.35134846 -0.5204545 0.46025652 -0.19828306 -0.023587337 -0.43278396 0.4608638 0.5557898 0.066523895
6 -0.29708838 -0.36081567 -0.5155945 0.43351382 -0.13737217 -0.024601558 -0.3780154 0.42999515 0.47170585 0.061898272
