5 10
2 0.14374177 -0.1074172 -0.4382344 -0.37850335 0.6185752 -0.1865931 -0.12450393 0.21018675 0.6792756 -0.24028268
0 0.22188981 -0.09501744 -0.44090927 -0.4082704 0.61600935 -0.112781085 -0.15196879 0.29006726 0.670501 -0.16848975
1 0.1550694 -0.087036185 -0.4737371 -0.4259312 0.6193203 -0.21415196 -0.17774135 0.23361748 0.65762204 -0.24601263
4 0.20518331 -0.053764187 -0.39754197 -0.4107763 0.59843975 -0.16813016 -0.108950675 0.29185414 0.6633112 -0.22801827
3 0.18938579 -0.07885934 -0.46602568 -0.3881001 0.6044414 -0.16086741 -0.18958595 0.26494732 0.67029524 -0.25741982
