7 10
5 -0.03720522 0.57742643 0.37084445 0.21870905 0.8539315 0.20279802 -0.12311325 0.09258102 -0.17757095 0.28956613
4 -0.12873922 0.60773003 0.310933 0.24919184 0.78409433 0.24378166 -0.034370434 0.11543973 -0.1850652 0.22648928
3 -0.08994594 0.63791704 0.35175318 0.1923374 0.83289117 0.2422211 -0.09159972 0.112496145 -0.10401955 0.21729946
0 -0.10478619 0.62903446 0.38497317 0.26525384 0.80142844 0.15803431 -0.112027235 0.14653875 -0.19130142 0.22881214
6 -0.08623948 0.6492636 0.36646602 0.3026424 0.7976667 0.19354746 -0.08139531 0.13611811 -0.14497927 0.30616984
1 -0.051382 0.6081173 0.2855872 0.27508816 0.81804925 0.16892353 -0.08795961 0.100824825 -0.18754059 0.27222535
2 -0.08461507 0.6281019 0.34334385 0.24643666 0.82344383 0.22866517 -0.06143221 0.087419346 -0.14725448 0.22751664
