7 10
1 -0.25837418 -0.30846402 -0.8941926 0.15117607 0.26071241 -0.50281584 0.01817846 -0.239849 0.10883106 0.09484433
0 -0.26798093 -0.32492548 -0.88934374 0.16740948 0.24701834 -0.51471764 0.04511846 -0.21558516 0.07000627 0.11663105
4 -0.27745682 -0.26923412 -0.9066896 0.12998588 0.24362434 -0.5147692 0.06417403 -0.24875662 0.060603425 0.035105802
5 -0.31756705 -0.30492988 -0.86696625 0.12116241 0.19619754 -0.41784427 0.026512837 -0.25537172 0.12563922 0.06978553
3 -0.3224645 -0.32951653 -0.88497895 0.17888221 0.25600535 -0.4821141 0.0195764 -0.2678134 0.09189948 0.06800024
2 -0.27261403 -0.25424907 -0.87333137 0.1591846 0.19445421 -0.5074821 0.07351597 -0.23732868 0.14423105 0.11931864
6 -0.2490094 -0.32347167 -0.86025524 0.10291752 0.24676795 -0.49946973 0.034937236 -0.18084577 0.13767923 0.055051573
