5 10
2 0.40006208 0.09704601 -0.5971908 -0.21998438 0.07630187 -0.525566 0.23834816 0.72764486 -0.016482735 0.109369315
1 0.41947398 0.029419597 -0.61009324 -0.18064623 0.11420547 -0.53250116 0.27429625 0.7534669 -0.014765499 0.09814643
0 0.3656581 0.081683494 -0.5879846 -0.18029685 0.15246338 -0.53275466 0.19155672 0.7031794 0.010758149 0.080565125
3 0.38803583 0.08354252 -0.5454394 -0.14655124 0.15700988 -0.506568 0.21699084 0.67565167 -0.046856 0.07400288
4 0.35881144 0.08564422 -0.51603204 -0.17731063 0.1491198 -0.47716478 0.21065335 0.65640676 0.04655743 0.09427566
