7 10
6 -0.15402654 -0.024112368 0.3481262 -0.62423545 0.18160327 0.06700194 -0.16862595 -0.81873 -0.025317336 0.4079755
3 -0.19985475 0.012777441 0.36246836 -0.54184526 0.08055044 0.055707674 -0.22311798 -0.81726104 0.041332882 0.3957275
4 -0.16599934 -0.027103025 0.3051748 -0.62647027 0.16324586 0.016238088 -0.15125783 -0.8283354 0.0086403005 0.40650782
5 -0.16188577 -0.030212168 0.34489456 -0.62436765 0.15842113 0.026073927 -0.20389608 -0.8312277 0.05172915 0.35882786
1 -0.15468673 -0.03610501 0.36006036 -0.6400252 0.07799179 0.07595248 -0.21022545 -0.8224378 0.054482363 0.36729848
2 -0.17100248 -0.035605915 0.33784243 -0.5599509 0.097168334 0.00916849 -0.17546956 -0.83140385 0.046007507 0.4232151
0 -0.203707 0.00050712394 0.31132954 -0.6348772 0.15869232 -0.021649309 -0.15424629 -0.82441604 0.01389542 0.32876402
