7 10
4 0.13458447 -0.7304338 -0.34635866 -0.61278695 -0.21054223 0.30653518 0.25481346 -0.38181645 0.19732656 -0.23207547
1 0.09655104 -0.68189263 -0.29850802 -0.5318706 -0.19475839 0.28379095 0.23599568 -0.38308448 0.20274536 -0.25179285
2 0.13837145 -0.6957696 -0.27949935 -0.6021638 -0.22823328 0.31958768 0.2793476 -0.329087 0.23429853 -0.20116518
3 0.16678806 -0.74899405 -0.2977786 -0.6026302 -0.1921313 0.2679619 0.20954257 -0.32609805 0.1952831 -0.20130682
0 0.086263165 -0.6803093 -0.32181948 -0.5707839 -0.21868667 0.29619464 0.27142972 -0.33449247 0.23614101 -0.24813081
6 0.06795031 -0.69302773 -0.28801194 -0.58286816 -0.24333556 0.2750051 0.27174908 -0.3527383 0.24307363 -0.21696667
5 0.07325371 -0.64911985 -0.2647413 -0.55849385 -0.214972 0.24397667 0.18071504 -0.32967165 0.20342508 -0.2724637
