7 10
6 0.80004406 0.45141125 -0.29149476 -0.260447 0.05940526 0.27777517 0.070105985 -0.47907966 -0.36284006 -0.1607071
4 0.75803775 0.43045422 -0.2888768 -0.23507875 0.042082895 0.33710143 0.026545174 -0.4513828 -0.35970217 -0.17423776
2 0.8101632 0.4856922 -0.29992497 -0.21696344 0.020707127 0.28183135 0.032759488 -0.4711049 -0.4050774 -0.21287075
5 0.75195706 0.4225065 -0.26529613 -0.2840103 0.009280863 0.30422488 -0.0017097472 -0.43838274 -0.41382706 -0.102554336
3 0.7655581 0.46522778 -0.25875404 -0.27098072 0.0043501183 0.27934372 0.068533994 -0.42924458 -0.39786834 -0.21333534
1 0.8156639 0.38070026 -0.28534642 -0.23559208 -0.021615893 0.3579079 0.06923823 -0.48792452 -0.43664518 -0.1103312
0 0.714896 0.445972 -0.29659173 -0.2742833 0.0352608 0.3414204 0.050291527 -0.46536946 -0.3676068 -0.17223485
