7 10
5 0.042637136 -0.2206783 -0.48657432 0.019698082 -0.88825715 0.064972684 -0.22078556 -0.02179596 -0.12324998 0.5142991
6 0.1302087 -0.21109697 -0.5581513 0.06584513 -0.802526 0.054377917 -0.20152214 -0.085498214 -0.16873118 0.486504
2 0.10002768 -0.29013753 -0.5232219 0.07666473 -0.8986452 0.025212532 -0.22486986 -0.043286644 -0.13991135 0.46788993
4 0.14752986 -0.28201452 -0.5504882 -0.0017677791 -0.8104827 -0.00037930952 -0.24197523 -0.018061042 -0.12240555 0.51403904
3 0.1250536 -0.2894506 -0.57105494 0.07117023 -0.8683737 0.07691624 -0.20906623 -0.088737525 -0.14237626 0.44388014
1 0.05152363 -0.2231785 -0.5743717 0.0010253901 -0.88845754 0.017533809 -0.17619586 -0.09485563 -0.1870069 0.47163445
0 0.102782436 -0.19975677 -0.5514277 0.026276544 -0.8444109 0.03820879 -0.22166827 -0.023067387 -0.15094268 0.49479195
