6 10
1 -0.23399495 0.3787528 0.04998584 -0.38790107 0.4073798 0.24632217 0.023219699 -0.44499615 0.31049094 0.7281064
0 -0.24200372 0.4035177 0.026340745 -0.42966884 0.4325828 0.1928288 0.09854413 -0.42804286 0.32189742 0.8004256
4 -0.18867256 0.35600877 0.06780133 -0.3824744 0.41634077 0.17122644 0.069868416 -0.43006378 0.27441743 0.7714441
5 -0.23483288 0.4299363 0.04340256 -0.32253808 0.3470639 0.20054989 0.039587364 -0.4171321 0.33701017 0.7634684
3 -0.19588774 0.38620725 0.068043925 -0.38232693 0.33834445 0.25640503 0.0031460077 -0.4613705 0.33088815 0.7269885
2 -0.21773878 0.38351333 0.06212242 -0.32690436 0.3665656 0.23239404 0.083077215 -0.41575673 0.27132913 0.78619784
