7 10
0 -0.66771966 0.37067503 0.1323998 0.36439604 0.6399201 -0.15836602 0.42912704 0.0896265 -0.10958629 0.26908794
3 -0.68461955 0.36526775 0.09425059 0.33243734 0.63285065 -0.14306316 0.39884382 0.0923199 -0.08029635 0.29901716
1 -0.6189102 0.40299815 0.0841123 0.35743168 0.64909893 -0.109285936 0.38633636 0.18138905 -0.09103681 0.22785622
4 -0.6958519 0.36723396 0.07568142 0.300057 0.6071321 -0.14188981 0.4243243 0.12955427 -0.11859357 0.20817035
2 -0.7204462 0.31403074 0.15517242 0.37472883 0.5916791 -0.07567461 0.45216516 0.18423313 -0.10476409 0.3399138
5 -0.6228159 0.367155 0.17175922 0.2598995 0.598525 -0.16102183 0.43915066 0.17121182 -0.048237786 0.19226335
6 -0.6253219 0.34062657 0.16725332 0.3213493 0.5978412 -0.16809809 0.4092003 0.14287154 -0.048415672 0.24173653
