7 10
2 -1.6702129 -1.005727 -0.18604948 0.43302545 0.85409087 -0.8409816 -0.28710356 -0.40487522 0.33480164 0.17950422
6 -1.6207219 -1.0938796 -0.17517464 0.40939555 0.8057503 -0.7937784 -0.2717469 -0.36270285 0.2561079 0.22572435
0 0.12388217 0.083105125 0.25768054 -0.57797515 1.4294457 0.816492 1.4018096 0.39897594 0.1427897 -0.18777691
1 0.15789247 -0.0046721557 0.20914371 -0.5768205 1.3501053 0.6775024 1.2748622 0.334538 0.119159676 -0.16147913
5 -1.599451 -1.0821877 -0.23124678 0.47766197 0.785874 -0.8357041 -0.1930902 -0.40276322 0.33333763 0.13830522
3 0.10651408 0.011713722 0.19701473 -0.4814596 1.2418122 0.61286306 1.2002082 0.35095966 0.17807296 -0.21020947
4 0.10585292 0.00845347 0.2156895 -0.55306995 1.3228135 0.71077424 1.2758826 0.33483452 0.1901593 -0.19978938
