7 10
4 -0.2579118 -0.17050876 0.5637333 -0.44289082 0.5649937 -0.033086047 -0.596621 -0.04946088 -0.1622464 0.20078714
1 -0.19744885 -0.09604829 0.5544622 -0.37220138 0.61039084 -0.0029269736 -0.6631559 -0.09193693 -0.20579313 0.2595168
5 -0.18463679 -0.13615777 0.5459791 -0.47371507 0.6475151 -0.0642641 -0.6046491 -0.014014448 -0.21738048 0.2508962
2 -0.25855303 -0.093858354 0.5514674 -0.3046675 0.62249184 -0.09842886 -0.69335437 -0.14080694 -0.2581017 0.18430021
0 -0.19483863 -0.18270409 0.534203 -0.43624368 0.55983585 0.014465937 -0.59092534 -0.007305058 -0.22265337 0.17382765
3 -0.24702197 -0.10201163 0.45557708 -0.3502447 0.6237049 -0.05849032 -0.6735322 -0.09587217 -0.25690073 0.21434823
6 -0.2345795 -0.16905737 0.53867346 -0.44085395 0.6226092 -0.06681685 -0.66532844 -0.04315758 -0.1670991 0.17649512
