5 10
2 0.17614926 -0.16781586 0.107728854 0.8930534 -0.2888473 -1.3882025e-05 -0.3165993 -0.3911344 0.16267098 0.54358697
1 0.15008144 -0.22022378 0.08387433 0.85412216 -0.28588292 -0.06815443 -0.2673277 -0.39890948 0.10490538 0.5026772
5 0.19276243 -0.18460234 0.0658065 0.82452136 -0.27093056 -0.06473848 -0.2795193 -0.38031593 0.095036514 0.4902485
0 0.10295364 -0.18192226 0.12076072 0.81930965 -0.33570454 -0.088096745 -0.23719141 -0.4217813 0.08353355 0.53221595
6 0.15246569 -0.22443467 0.07890135 0.8515005 -0.27100593 -0.024399089 -0.28383 -0.33542648 0.1582835 0.48575893
