7 10
5 0.24607767 -0.10097235 -0.5135014 0.19956069 0.8179066 -0.11064361 0.20044394 0.28426865 0.4155257 -0.34273928
6 0.23637691 -0.08533622 -0.47574958 0.28156078 0.8043685 -0.073771596 0.16205354 0.2544117 0.33971444 -0.36677936
4 0.16783907 -0.09344237 -0.5104531 0.22916132 0.81979346 -0.09432304 0.1463052 0.31304637 0.3736572 -0.36377007
1 0.2518218 -0.06906104 -0.47773778 0.28142634 0.7602386 -0.12386786 0.1757269 0.28560498 0.37032154 -0.376379
0 0.18933627 -0.1157568 -0.5031154 0.24683124 0.8010878 -0.026109867 0.13969162 0.299726 0.34117025 -0.36106467
3 0.18219864 -0.11395733 -0.53342944 0.26846108 0.82046795 -0.06252424 0.14510125 0.24973153 0.41895938 -0.29715395
2 0.23647521 -0.06853412 -0.4347651 0.25414994 0.8135238 -0.012106033 0.1593347 0.31159937 0.37634298 -0.3163756
