7 10
6 0.12595002 -0.11650571 0.28554115 -0.20860486 0.70268357 0.23926115 0.3565968 -0.53028756 -0.20982778 -0.5253615
5 0.087755255 -0.10053043 0.3101831 -0.24301498 0.67158395 0.23431475 0.31187966 -0.4889865 -0.2154278 -0.5603484
1 0.14857216 -0.12715983 0.24459286 -0.26195982 0.6471514 0.20319234 0.36786392 -0.5667939 -0.14454995 -0.5353147
2 0.14698078 -0.109401934 0.30273724 -0.18179725 0.696772 0.17053409 0.30180213 -0.5700388 -0.18220311 -0.55992484
0 0.09360918 -0.09388271 0.30648443 -0.20084482 0.6966677 0.2335862 0.3497626 -0.5989339 -0.22685108 -0.4815112
3 0.07970143 -0.086347684 0.2675682 -0.2504154 0.64329344 0.2207306 0.3722514 -0.5524277 -0.15550277 -0.5478533
4 0.1666873 -0.12226537 0.23929399 -0.24044593 0.6615478 0.26497984 0.31464913 -0.612011 -0.23407033 -0.48477244
