7 10
2 0.9223048 -0.051668234 0.003009549 0.21491435 -0.20577396 -0.07915158 -0.053340044 -0.026934618 0.6959964 -0.22123927
1 0.8672305 -0.019509694 0.07172496 0.22768511 -0.13087785 -0.030603535 -0.06781174 -0.06014506 0.65829146 -0.17150618
4 0.8640065 -0.029371703 0.0015809825 0.25943425 -0.11535048 -0.06619153 0.009672262 -0.04482451 0.65771574 -0.09278501
0 0.92394066 -0.051387522 0.07611271 0.2329404 -0.21730517 -0.04077859 -0.041089114 -0.021589082 0.645229 -0.21909174
3 0.8565069 -0.07561811 0.09900496 0.21984063 -0.15296692 -0.0351614 -0.09565471 -0.091447756 0.6971894 -0.15202236
5 0.92228204 -0.058455296 -0.00448654 0.24396342 -0.21544431 -0.15233973 -0.030182375 -0.112573504 0.7321424 -0.20654598
6 0.99257725 -0.026492842 0.043628436 0.28486326 -0.23096196 -0.17053235 -0.08143182 -0.1688675 0.631283 -0.23307519
