6 10
0 -0.18235089 0.11510633 -0.25301227 -0.43839377 -0.37087098 0.2882689 -0.64698064 -0.2648694 -0.30502555 -0.5941816
3 -0.26911637 0.025859602 -0.26447904 -0.46867448 -0.34444708 0.2616298 -0.6122411 -0.17858973 -0.35976407 -0.5369753
4 -0.20042758 0.067087315 -0.2925983 -0.48420024 -0.37244785 0.26240808 -0.63570774 -0.22056839 -0.3519154 -0.5492188
2 -0.23267536 0.04188075 -0.2720028 -0.42435008 -0.38980073 0.26632246 -0.5951632 -0.17220724 -0.3015678 -0.5782594
5 -0.28292602 0.087652065 -0.22096956 -0.42022106 -0.32839873 0.22982076 -0.65911347 -0.2668105 -0.36966288 -0.546186
1 -0.24539223 0.10598325 -0.27780703 -0.45307285 -0.3203065 0.24350172 -0.5671726 -0.24965303 -0.3550979 -0.58494407
