7 10
0 -0.7164664 0.4544421 0.31679168 -0.26694077 -0.35345703 0.16917801 0.18727575 -0.2804031 -0.20372455 -0.51767874
5 -0.72819144 0.43143877 0.32050738 -0.20373558 -0.32249486 0.18169186 0.27814525 -0.28660443 -0.22336815 -0.42730746
4 -0.73563117 0.4068893 0.27779806 -0.20545104 -0.40029764 0.15774234 0.21512844 -0.2790979 -0.23276639 -0.48278484
6 -0.7487785 0.4145376 0.21245487 -0.25713825 -0.42429963 0.12142003 0.2753915 -0.21596071 -0.25132582 -0.46362656
2 -0.7120191 0.38723418 0.31746048 -0.20332044 -0.41358742 0.15164669 0.23582788 -0.21891548 -0.18329091 -0.5006713
1 -0.71813047 0.38565615 0.28663892 -0.22811444 -0.31524312 0.18397334 0.28024587 -0.24542181 -0.18792541 -0.50146514
3 -0.76472783 0.449327 0.23222376 -0.20650646 -0.39608708 0.09339582 0.30678198 -0.26718912 -0.22294797 -0.55240923
