7 10
0 -0.21160126 -0.5567202 0.08294311 0.6925081 0.009536523 -0.18984261 0.047542088 0.5805199 0.09917335 0.40132868
3 -0.22846903 -0.54849327 0.08451684 0.68426394 0.040012315 -0.19793744 0.054220133 0.51646644 0.023749758 0.4302884
4 -0.17059623 -0.543956 0.1365844 0.68089294 0.015048266 -0.25190732 0.020200714 0.6142011 0.026194287 0.42694178
5 -0.17081879 -0.50423956 0.09303624 0.7123745 -0.0013219977 -0.24841076 0.0068143 0.6446058 0.06725444 0.35183477
6 -0.178681 -0.54486 0.13674143 0.7112868 0.040317833 -0.18116757 -0.01976665 0.6118321 0.050559275 0.41075018
1 -0.2131309 -0.5489616 0.101857156 0.6253387 -0.017552312 -0.23857498 0.071756594 0.61301094 0.10079711 0.35679436
2 -0.19168672 -0.52803046 0.15479076 0.71447164 0.022135647 -0.28190947 0.026534973 0.6321061 0.113333255 0.398161
