7 10
0 0.30446517 -0.154331 -0.48247352 -0.33838144 -0.4929247 0.28070328 0.092356734 0.08298749 0.67485994 0.33550328
5 0.2933404 -0.23437478 -0.5253372 -0.369948 -0.47907826 0.30209258 0.06442132 0.087839425 0.645154 0.3742923
4 0.32179284 -0.1472185 -0.5168878 -0.37515843 -0.5152757 0.279921 0.10647947 0.142376 0.7015789 0.3258748
1 0.35102323 -0.18850368 -0.47243196 -0.35026628 -0.51403356 0.32082576 0.062229935 0.110676914 0.6723768 0.38330734
3 0.28910422 -0.19885065 -0.54255056 -0.35881078 -0.4951722 0.2834789 0.0787225 0.07208978 0.64582634 0.34617025
2 0.29255658 -0.23547329 -0.53255224 -0.29333088 -0.513409 0.31483454 0.05682124 0.060617767 0.6886625 0.33596432
6 0.33338213 -0.17904007 -0.5251524 -0.29441887 -0.46950525 0.328146 0.12344258 0.043626018 0.6550506 0.36716673
