7 10
5 0.4069505 0.12517385 -0.12603395 0.5880299 -0.08925157 0.026874732 0.049049284 0.6148552 -0.65608084 0.18019089
2 0.37445295 0.06996795 -0.080605336 0.57272065 -0.0746495 0.035361666 0.08840102 0.6078471 -0.6605529 0.20764147
6 0.4477081 0.08547817 -0.16028361 0.5986244 -0.05705371 0.028483644 0.07905628 0.5843906 -0.65137136 0.19610661
3 0.35839278 0.116165794 -0.09472051 0.580149 -0.099489704 0.027613172 0.110853106 0.6315565 -0.67658067 0.17593758
4 0.4049973 0.062476505 -0.059904795 0.60568744 -0.12809639 -0.026316473 0.14593941 0.58472806 -0.6840353 0.23979451
0 0.40471014 0.110829204 -0.13188307 0.5869589 -0.1486366 -0.038314987 0.09727163 0.58938783 -0.6488222 0.19402161
1 0.3672746 0.05685946 -0.089135654 0.61411756 -0.1371946 -0.0034849462 0.11750971 0.5973324 -0.6770675 0.2401372
