7 10
3 0.5603805 -0.6809376 -0.2104654 0.4512388 -0.2806692 -0.23244587 -0.43474987 0.17391263 -0.1603665 -0.3823771
4 0.50730276 -0.6349918 -0.1493774 0.4512092 -0.255133 -0.28325963 -0.39099798 0.13280547 -0.1275566 -0.38144732
5 0.55578953 -0.6203932 -0.149458 0.37067592 -0.2957697 -0.24646217 -0.40669742 0.14687704 -0.1070083 -0.4279617
6 0.55418366 -0.63789624 -0.2575505 0.46202838 -0.2857235 -0.17260301 -0.35230193 0.15711404 -0.13262346 -0.37277427
1 0.5617586 -0.64093095 -0.20370564 0.36603484 -0.29065737 -0.21635215 -0.35630423 0.20551379 -0.16512981 -0.39413813
0 0.4799732 -0.66364044 -0.25515115 0.46510077 -0.24763647 -0.2437596 -0.40409133 0.18144675 -0.07923972 -0.38082558
2 0.49836403 -0.6044221 -0.26634535 0.46223855 -0.33328333 -0.26768753 -0.33210713 0.17956755 -0.14343858 -0.43774784
