7 10
0 -0.10975657 -0.03360352 -0.40098533 0.33632264 -0.13690948 -0.2723429 -0.25358438 0.5634759 -0.2808882 0.7165224
6 -0.10175753 -0.0072769057 -0.46307045 0.41526198 -0.11054162 -0.19534956 -0.28767723 0.5730918 -0.32926416 0.73725146
4 -0.099396296 -0.043692816 -0.4765909 0.36578253 -0.15317118 -0.2728788 -0.24542029 0.51164633 -0.24602343 0.75363624
5 -0.10621219 -0.0071962266 -0.4288328 0.3166413 -0.16386442 -0.27937338 -0.24635024 0.60138935 -0.3309521 0.74680644
2 -0.1312276 -0.029559283 -0.4367835 0.351059 -0.08690012 -0.23312332 -0.29629996 0.54728377 -0.27196252 0.71781313
3 -0.064742014 -0.057521425 -0.38923198 0.3527646 -0.08976582 -0.23850931 -0.25403067 0.5921724 -0.24521922 0.7684413
1 -0.15123671 -0.063898474 -0.41868377 0.3979112 -0.11624748 -0.20575929 -0.2934035 0.5684703 -0.32221097 0.70617974
