7 10
1 0.46576273 0.099588275 -0.008238162 -0.29274476 0.6423116 -0.56431675 -0.23790777 0.30120376 0.094737135 -0.4424145
5 0.47043028 0.096672125 -0.07759619 -0.30295047 0.7151975 -0.5752592 -0.20684007 0.29665205 0.076346375 -0.44835797
2 0.46797508 0.17063096 -0.04322677 -0.25027695 0.64447916 -0.56895614 -0.23322693 0.23089457 0.15124673 -0.46828666
0 0.40943345 0.15550251 -0.03687822 -0.30863282 0.57621795 -0.5552903 -0.22728994 0.27425197 0.07419467 -0.46285605
6 0.43856806 0.16961603 -0.06455394 -0.2221627 0.7127268 -0.58348095 -0.2050881 0.30516815 0.16653848 -0.43272695
4 0.4186233 0.05421039 -0.0912374 -0.29268488 0.58256805 -0.52458024 -0.2510709 0.26279977 0.10907527 -0.42034084
3 0.38365707 0.10780579 -0.095310725 -0.2903149 0.6198512 -0.53315437 -0.2550517 0.30488172 0.08594764 -0.46598557
