6 10
1 0.18063341 -0.11845705 -0.19172254 -0.04218058 -0.17232585 0.22490248 -0.73943657 -0.45945886 -0.6941695 0.16219611
2 0.19655083 -0.093648285 -0.19884816 -0.08144339 -0.14885445 0.17539145 -0.7507839 -0.51849693 -0.6700626 0.1845132
0 0.1766341 -0.092259236 -0.21509331 -0.12946784 -0.17970528 0.23294708 -0.705451 -0.46296805 -0.67398006 0.23154294
5 0.16724709 -0.07929078 -0.23181453 -0.105042435 -0.1892006 0.17695269 -0.68278515 -0.4411932 -0.6615577 0.24268994
4 0.1330311 -0.041113038 -0.2492533 -0.03612131 -0.17002892 0.21950302 -0.72278297 -0.4629592 -0.65976405 0.20629744
3 0.22449712 -0.03536289 -0.2546575 -0.13714999 -0.10717435 0.16936591 -0.66738224 -0.49449515 -0.689868 0.24536161
