7 10
3 -0.09740066 -0.050546646 -0.44495708 0.199448 0.5392576 -0.58279693 0.42438748 -0.5635876 0.18997732 -0.1743652
4 -0.15010037 -0.0019472567 -0.36889684 0.17098355 0.5484666 -0.59655327 0.39940262 -0.58001834 0.18083742 -0.2034075
1 -0.135893 -0.033725318 -0.427708 0.10848288 0.461411 -0.62909865 0.41470525 -0.57204634 0.13771519 -0.24049458
2 -0.093613505 -0.09731715 -0.42866683 0.12976027 0.51584965 -0.60452014 0.38692054 -0.5462882 0.15940836 -0.2573269
0 -0.08117565 -0.079798535 -0.3696146 0.17032391 0.50099045 -0.6203332 0.4227949 -0.5671816 0.13877612 -0.21555486
5 -0.13647081 -0.034086496 -0.4485129 0.13522084 0.4919855 -0.6187217 0.4288233 -0.53237647 0.10722725 -0.2661157
6 -0.044510853 -0.10025094 -0.36092675 0.13891628 0.53358835 -0.5685287 0.40594503 -0.54819274 0.13290465 -0.19785826
