7 10
5 -0.33727363 -0.027279114 0.26462722 -0.66400146 -0.61618644 -0.08451924 -0.15086465 0.4706971 -0.13639437 0.3302851
6 -0.27706158 -0.063547604 0.27343222 -0.6855345 -0.5985377 -0.0803945 -0.18573178 0.50706697 -0.22949135 0.33748636
1 -0.30963832 0.0035256133 0.25732267 -0.64515513 -0.59849524 -0.10691494 -0.13471647 0.47544566 -0.21452138 0.41555983
0 -0.2568935 0.046511725 0.23730363 -0.6363671 -0.5925102 -0.09814009 -0.11985838 0.48599485 -0.21321781 0.31077448
3 -0.33125395 0.018996827 0.19273838 -0.6574008 -0.6039253 -0.07165808 -0.14698103 0.5016647 -0.21676542 0.3875332
4 -0.35322866 0.017512692 0.2804609 -0.6528584 -0.56546766 -0.11753008 -0.1463509 0.47401118 -0.19450428 0.3732282
2 -0.31583706 -0.035923667 0.26091528 -0.66891235 -0.5388585 -0.04098474 -0.15277338 0.4793964 -0.1502977 0.3920539
