7 10
3 0.2105707 0.2022531 0.28988868 -0.44804776 -0.029087488 -0.2048297 -0.5522022 0.05105021 0.7571168 -0.16204216
0 0.20006068 0.21169195 0.33566076 -0.45237127 -0.10703651 -0.19049387 -0.5552774 0.033524875 0.79368716 -0.17202452
1 0.18440081 0.15477291 0.33942237 -0.49171138 -0.1129259 -0.22628509 -0.5839649 -0.03345563 0.78551894 -0.085920475
4 0.1688979 0.17348118 0.3054084 -0.44687766 -0.10913714 -0.18359646 -0.56628954 -0.012634161 0.8331938 -0.18105558
2 0.13292336 0.22181073 0.3330368 -0.4436428 -0.04464408 -0.16602176 -0.5436358 0.008666904 0.7745527 -0.09812395
6 0.1419162 0.14233893 0.31443068 -0.4692203 -0.10550756 -0.17080137 -0.5556142 0.03944086 0.78415453 -0.0944477
5 0.22527966 0.1442586 0.30212763 -0.50591356 -0.12664688 -0.2267232 -0.53823245 -0.026426628 0.8306817 -0.1454964
