7 10
0 -0.3726527 0.53051835 -0.2872778 -0.59824973 -0.20711127 0.34472728 0.056733273 -0.009276658 -0.0708333 -0.58447725
2 -0.40815234 0.50785017 -0.29856634 -0.6291407 -0.20934145 0.3093572 0.09812959 -0.015452512 -0.054436903 -0.53995764
1 -0.40486187 0.53611 -0.2715456 -0.60867244 -0.19078296 0.32900015 0.11477972 -0.046461493 -0.08514953 -0.5845729
4 -0.38618913 0.4774855 -0.24453017 -0.6040766 -0.28228903 0.36666486 0.09205273 -0.06936719 -0.031092659 -0.5566323
3 -0.43216017 0.48748708 -0.27565503 -0.6528326 -0.24956423 0.351428 0.055940274 -0.013843395 -0.059721615 -0.6206143
5 -0.34888214 0.542195 -0.19302271 -0.54375 -0.27003744 0.38452873 0.0458646 -0.0066049746 -0.0071968315 -0.6010686
6 -0.35978773 0.5283458 -0.2699913 -0.66449654 -0.28113577 0.2958123 0.12038671 -0.05872027 -0.010211746 -0.60117096
