6 10
1 0.40290967 -0.1742437 0.1384833 -0.6185042 0.0077857566 -0.10421627 0.20424299 -0.027086576 0.7851751 -0.4171165
5 0.40194413 -0.22862807 0.20917846 -0.5390831 0.071683824 -0.17438366 0.26981524 -0.027116213 0.74560815 -0.37633422
4 0.38467082 -0.20577468 0.1275053 -0.5840005 -0.0012354003 -0.19685224 0.20086111 -0.008573578 0.76184946 -0.32060197
3 0.3145274 -0.22421105 0.18901634 -0.58719134 0.05619979 -0.15781517 0.26483038 -0.03084587 0.7553856 -0.33847368
0 0.3383998 -0.19847992 0.1920347 -0.638196 0.086433254 -0.19693674 0.23581481 -0.05850486 0.704518 -0.3782455
2 0.34889394 -0.2166985 0.18415788 -0.5929851 0.0297163 -0.08629807 0.2700218 -0.07945751 0.72896534 -0.384656
