6 10
4 0.299717 -0.22832726 0.4158225 -0.61008066 0.6095061 0.37116405 -0.29575258 0.2964022 0.15811232 0.1579708
5 0.28767845 -0.20727597 0.43415824 -0.56405014 0.60556185 0.35646242 -0.29010034 0.31233108 0.11267968 0.17440315
0 0.31899682 -0.26865786 0.35574082 -0.58011675 0.52145475 0.39751595 -0.31934893 0.30218798 0.13616285 0.1316554
2 0.25003132 -0.2856487 0.43079826 -0.53123593 0.60506904 0.400183 -0.34336075 0.35105008 0.08553913 0.12334698
1 0.23769827 -0.23502363 0.39278224 -0.6209011 0.6290807 0.33372656 -0.2935078 0.3729194 0.09733946 0.18203144
3 0.29061577 -0.2504304 0.43282577 -0.5698703 0.52647966 0.3695536 -0.22799864 0.36162126 0.15700845 0.15714373
