6 10
5 0.2986975 0.30222434 0.5110854 -0.105780594 -0.071501575 -0.43080026 -0.17219673 -0.019877799 -0.87635744 0.15408264
1 0.29867604 0.28046086 0.4966664 -0.1235068 -0.09470152 -0.42323697 -0.20646247 -0.03710491 -0.8318662 0.20629767
2 0.3434143 0.23317695 0.42465475 -0.11292066 -0.04817356 -0.4316557 -0.17058188 0.036831275 -0.8153947 0.20105483
3 0.31910437 0.23372306 0.44262812 -0.17035022 -0.043976467 -0.36575 -0.23127992 0.017975172 -0.86799085 0.15037388
0 0.36109084 0.24228153 0.42322728 -0.17011707 -0.021292146 -0.44739622 -0.16163613 0.04384947 -0.8465188 0.12066976
4 0.35713658 0.32418317 0.4771047 -0.13437438 -0.09620377 -0.43299913 -0.19562145 -0.026330188 -0.8523813 0.18707487
