7 10
0 -0.15386772 -0.14909743 0.3783106 0.4012671 0.17675339 0.5931885 0.16939223 -0.75919783 -0.26982558 -0.23178636
2 -0.14388439 -0.17484109 0.35013887 0.4139815 0.15962312 0.6061457 0.12655246 -0.7421561 -0.21357417 -0.27798373
5 -0.15047525 -0.1065155 0.35736266 0.40999794 0.16528434 0.5665783 0.1251194 -0.70355475 -0.25458586 -0.26103222
1 -0.14434808 -0.1648231 0.3461711 0.39527816 0.1216267 0.6004418 0.18937293 -0.69943225 -0.19417712 -0.30149773
3 -0.14738178 -0.12231789 0.33028075 0.4557484 0.18249077 0.5382881 0.14151439 -0.76008254 -0.22154984 -0.32339376
4 -0.16311826 -0.17384388 0.3163751 0.41939104 0.12376725 0.57630384 0.15089783 -0.74113184 -0.25046632 -0.2793657
6 -0.18420611 -0.17506666 0.29316205 0.40687823 0.14011247 0.5432527 0.17268728 -0.70292526 -0.22132689 -0.21515958
