7 10
0 0.17118596 0.3843048 -0.052693963 0.3324492 -0.38490424 -0.29796964 -0.6199915 0.38073838 0.045053508 0.60578066
1 0.2178116 0.30605495 -0.025342861 0.38954246 -0.38741624 -0.2765542 -0.60201734 0.3966288 -0.03224967 0.5919487
4 0.19444285 0.38047022 -0.017690841 0.3676089 -0.39117926 -0.3231733 -0.59858423 0.40315962 0.029503053 0.5956597
5 0.18995172 0.40938005 -0.09063807 0.3279995 -0.3591236 -0.30937698 -0.59620905 0.43634737 0.058676824 0.62527305
3 0.16146523 0.35828245 0.0018811492 0.37464115 -0.35981962 -0.27797145 -0.5953292 0.38865614 -0.0090637375 0.5919375
2 0.19562607 0.3299596 -0.03732871 0.3708009 -0.34703082 -0.30997828 -0.5949165 0.35503048 0.03540419 0.6007189
6 0.13495158 0.3541885 -0.066299535 0.34005257 -0.376478 -0.27978447 -0.61617035 0.40729272 0.017106716 0.5391084
