6 10
2 -0.061253894 -0.78942853 0.08357537 0.24202637 -0.4320207 -0.27444616 -0.06739303 -0.42508486 -0.36684406 0.035807755
5 -0.100012116 -0.85929364 0.0975483 0.23028058 -0.37194687 -0.30889478 -0.032602135 -0.5035071 -0.37021637 0.023963407
1 -0.09067817 -0.8265804 0.033131875 0.226695 -0.42671397 -0.28148702 -0.064332195 -0.4750122 -0.36393324 0.056145273
4 -0.065989934 -0.8832684 0.11524523 0.21174747 -0.4404566 -0.23335229 -0.09473722 -0.42952037 -0.29871893 -0.050824866
3 -0.061348867 -0.811946 0.058590997 0.2613741 -0.42651623 -0.20798355 -0.09000371 -0.44748524 -0.2738271 -0.0078540975
0 -0.060525432 -0.8730869 0.026453797 0.23862858 -0.43614733 -0.26315165 -0.0033764136 -0.4754307 -0.39210525 -0.013408942
