7 10
6 -0.36529583 -0.011438627 0.47083065 0.092302054 -0.068783894 -0.14374599 0.06064362 -0.18357182 0.995793 -0.039293587
1 -0.32109216 0.0023947337 0.48755458 0.08388469 0.0070505003 -0.18812028 0.05182995 -0.2455675 1.0082022 -0.10688933
3 -0.31855217 0.050235156 0.5269444 0.07609862 -0.012793064 -0.1682051 0.0207682 -0.15986641 0.99503994 -0.08735319
5 -0.35927638 0.010866962 0.4859957 0.11967634 -0.034662563 -0.20885323 0.012657537 -0.20098977 0.99396706 -0.041885335
2 -0.34500328 -0.02935896 0.51316863 0.13862298 -0.06984757 -0.14121561 0.07163042 -0.16101949 0.9947534 -0.11467577
4 -0.33682305 -0.008972073 0.53041047 0.14234288 -0.07462481 -0.17900363 0.08543597 -0.19632533 0.995489 -0.08251946
0 -0.3558707 0.044493932 0.48456335 0.13341871 -0.047335133 -0.18023957 0.091003574 -0.148181 0.9482265 -0.10834851
