7 10
6 0.23911515 0.5271618 -0.20396142 -0.2653284 0.5470559 -0.053274352 -0.4385633 0.23787378 -0.009691164 -0.64812666
5 0.26862255 0.5498784 -0.24127667 -0.28230602 0.52193856 -0.11046826 -0.44206795 0.23010391 0.035560243 -0.63841826
4 0.24616349 0.47505066 -0.2172884 -0.24581407 0.54871 -0.04933462 -0.47895703 0.2921569 0.048577033 -0.61831176
2 0.2671784 0.53986365 -0.15342924 -0.29989675 0.55670553 -0.08108152 -0.47944376 0.286628 0.019921497 -0.55014807
3 0.20696884 0.5142018 -0.22913654 -0.25681913 0.47699738 -0.08443261 -0.47783664 0.27318949 -0.026564604 -0.5974155
1 0.28056392 0.4547457 -0.19861014 -0.29692984 0.51694375 -0.10323302 -0.4826279 0.28482842 -0.011419011 -0.607481
0 0.2947794 0.50053704 -0.16363744 -0.27526647 0.5370227 -0.07992877 -0.44235355 0.24977118 0.048554625 -0.5575206
