7 10
0 0.04544789 0.010092048 0.53543407 0.008641252 -0.68217105 0.38627702 0.6354668 -0.13434789 0.29783967 -0.003919141
5 0.05393306 -0.046632692 0.51558477 -0.04449329 -0.6760524 0.3479242 0.6404252 -0.2186273 0.35804453 0.0022244668
6 -0.0032041986 -0.053409565 0.49526018 -0.032122105 -0.6630487 0.39278522 0.6473192 -0.19228442 0.28436074 -0.019068819
1 0.052138794 -0.07856952 0.46991605 -0.004276967 -0.70727557 0.398309 0.6321134 -0.15547848 0.3290022 0.036513247
2 0.0043263286 -0.024817761 0.49902806 0.022113655 -0.6582892 0.32107827 0.6152243 -0.19893509 0.31878573 0.045815855
4 -0.012828629 -0.028039707 0.5033561 0.0014676194 -0.7117274 0.30798075 0.64395493 -0.15372218 0.2778796 -0.050650187
3 0.0036751735 0.006927126 0.5084067 -0.019685518 -0.6342025 0.35089818 0.6290551 -0.16258433 0.31907538 0.0067842132
