6 10
2 -0.13004844 0.30213293 -0.055206887 -0.6765516 0.024136446 0.14562137 -0.0003479888 0.026234841 0.81786454 0.041706357
0 -0.14364167 0.23884916 -0.1082551 -0.6480087 -0.016854784 0.096663885 -0.059376262 -0.025054418 0.88531643 0.09680437
3 -0.1740686 0.28490546 -0.06331038 -0.6906702 0.027654916 0.11219225 -0.00083330204 -0.0010686722 0.82102054 0.05705438
4 -0.19394901 0.29957634 -0.06896376 -0.6718622 0.06429468 0.16142158 -0.017488144 0.032527894 0.808217 0.048647206
6 -0.17434981 0.27174336 -0.11327514 -0.7063305 0.05151868 0.162998 -0.041746892 0.031025618 0.87662095 0.029959066
5 -0.19659425 0.30993673 -0.03661696 -0.6897832 0.025717538 0.11451189 -0.03387253 0.049363416 0.8774491 0.06478824
