7 10
4 0.18567008 0.37209097 -0.31136802 0.40269133 -0.64215 0.25212395 0.49615946 0.24226743 -0.34908634 -0.30096522
1 0.10218081 0.31910536 -0.24233605 0.39532647 -0.60622525 0.3460928 0.5399928 0.2276036 -0.3741828 -0.29261363
0 0.22933152 0.34915835 -0.3104912 0.4285893 -0.63592964 0.23279837 0.4925012 0.25709715 -0.38384494 -0.35290068
2 0.07486293 0.27609557 -0.14669965 0.42101306 -0.63951856 0.38405895 0.5481157 0.23995738 -0.38428256 -0.27731872
3 0.119879775 0.2289665 -0.13219962 0.40484563 -0.654876 0.41932604 0.54578143 0.17522691 -0.33730048 -0.32692328
5 0.15866275 0.34761843 -0.36076003 0.34374836 -0.63382083 0.23222202 0.48721334 0.30602673 -0.31751886 -0.32443058
6 0.23341802 0.3721028 -0.3354689 0.33504274 -0.58768666 0.22130373 0.44840837 0.24346744 -0.39167026 -0.34499198
