7 10
0 0.23078299 -0.31739998 0.65444857 -0.11569901 -0.47389343 0.38390356 -0.3755764 0.51976645 0.020173436 -0.2825485
3 0.22024104 -0.28627706 0.62602305 -0.1520857 -0.5262237 0.32421538 -0.38676247 0.512818 0.027078202 -0.3697943
4 0.17778681 -0.2967882 0.63009226 -0.13479699 -0.49352267 0.35343307 -0.33098894 0.50610757 -0.008616856 -0.2892402
1 0.26770586 -0.33128807 0.61422056 -0.02764283 -0.44536173 0.40146998 -0.41862765 0.49367294 -0.07523004 -0.33506876
2 0.22715761 -0.33192754 0.5967549 -0.037679672 -0.46771437 0.3661475 -0.396564 0.54735315 -0.054605395 -0.29163972
6 0.25803953 -0.31972787 0.6372392 -0.05794739 -0.43650776 0.38805458 -0.34388682 0.48728263 -0.027553592 -0.33970818
5 0.21663673 -0.2926904 0.559446 -0.048685145 -0.40407392 0.37769467 -0.37350106 0.51066846 -0.039800335 -0.33234534
