7 10
1 -0.44824088 -0.7091655 -0.02511652 0.1511818 0.67488885 0.15723085 0.03346118 -0.16857602 -0.12470418 0.28020954
4 -0.48454276 -0.7593607 -0.034828994 0.20082746 0.63973695 0.1702144 0.028083634 -0.18569891 -0.15653734 0.28106037
0 -0.4565226 -0.7056429 0.05151685 0.21142894 0.6419501 0.27472815 -0.0044009103 -0.1449657 -0.046889625 0.22112983
3 -0.40529957 -0.7488443 0.039826803 0.14750862 0.6187629 0.25615296 0.046998974 -0.18140484 -0.098406926 0.3029584
6 -0.40317667 -0.75664485 -0.08249971 0.28634664 0.6709636 0.14956039 0.03024313 -0.28091216 -0.18016559 0.2717321
5 -0.44416466 -0.7068831 0.034476485 0.24999014 0.6118246 0.24973164 -0.03777076 -0.21413255 -0.1373751 0.30576172
2 -0.47552198 -0.75731814 -0.11604956 0.21420693 0.65661216 0.09873998 0.039721224 -0.30430433 -0.23812334 0.26612964
