7 10
1 0.061568044 -0.42164147 0.16901806 -0.32056898 0.2807219 -0.5007718 0.6023864 0.35238665 -0.349698 0.2833292
2 0.087641425 -0.35878402 0.20392491 -0.33559683 0.231955 -0.54361886 0.62656474 0.4132485 -0.2696103 0.2452041
5 0.027805576 -0.41944358 0.19670685 -0.3664848 0.25332463 -0.5359048 0.55980575 0.37500253 -0.29986203 0.23729002
3 0.064382635 -0.44042644 0.17929628 -0.35393488 0.23939219 -0.51298213 0.5774291 0.42148045 -0.2993945 0.26134324
4 0.05489239 -0.41873574 0.16032785 -0.3801017 0.21754408 -0.5152501 0.64173925 0.35069296 -0.33707395 0.21329825
0 0.09111733 -0.38225704 0.13275547 -0.3658662 0.26760203 -0.5673169 0.59678346 0.36129206 -0.35792413 0.25942108
6 0.020189289 -0.4330417 0.14778364 -0.386576 0.25162724 -0.4897469 0.5623049 0.39609244 -0.3685386 0.24442416
