7 10
4 -0.23027436 -0.20478822 -0.3491195 -0.7303543 0.33297127 -0.35813934 -0.40251318 0.5262277 -0.25684613 0.054678276
2 -0.14750691 -0.1945653 -0.33923963 -0.74319816 0.39867473 -0.30602512 -0.38908103 0.5637124 -0.27700004 -0.0017169346
5 -0.14631741 -0.16307561 -0.3223493 -0.67957336 0.30640894 -0.3188542 -0.388335 0.50633323 -0.21818008 0.031084698
3 -0.20676357 -0.20893472 -0.3098503 -0.7420427 0.37490937 -0.26696852 -0.4130361 0.4976907 -0.21270518 0.118514985
1 -0.19634154 -0.20147409 -0.3329323 -0.748348 0.40625393 -0.3235109 -0.41781688 0.47485915 -0.23380452 0.08506966
0 -0.24478231 -0.23847511 -0.32481512 -0.73397905 0.41766366 -0.285847 -0.36404535 0.50118595 -0.30889675 0.10989892
6 -0.22874399 -0.13716343 -0.30861875 -0.6627325 0.33599013 -0.29886642 -0.32994023 0.51479685 -0.24134305 0.043977108
