7 10
1 -0.23921156 0.45601758 0.6384144 0.38065162 0.17166223 -0.34616816 -0.10595706 -0.508628 -0.17888606 -0.3591674
0 -0.27018583 0.4484505 0.6071632 0.4400652 0.17768595 -0.42630136 -0.050825227 -0.5077693 -0.20622584 -0.29937258
3 -0.28141487 0.38283736 0.5899182 0.41186914 0.17460947 -0.4175134 -0.072978616 -0.4449004 -0.16128445 -0.37134826
5 -0.28276965 0.4517807 0.57772607 0.4611496 0.18707849 -0.4433189 -0.006859884 -0.46619746 -0.13520747 -0.38329974
2 -0.30952677 0.41040382 0.6273437 0.39109543 0.14203729 -0.37302363 -0.048469827 -0.5091742 -0.18211769 -0.3301678
4 -0.31200588 0.45500544 0.5853255 0.4485589 0.118116885 -0.39229828 -0.023283143 -0.44047308 -0.19317926 -0.2947363
6 -0.25503495 0.45014113 0.56562 0.42740017 0.11926242 -0.41566753 -0.03398349 -0.46999735 -0.18933228 -0.38440242
