7 10
5 0.14380734 0.24105196 -0.24754737 -0.36149198 0.23489286 -0.8758674 0.45710656 0.34195402 0.057426203 -0.12053896
0 0.2293326 0.24393836 -0.33196405 -0.3769502 0.24531296 -0.8428578 0.47614703 0.22224292 0.06258848 -0.05281593
3 0.20106088 0.16819786 -0.27087244 -0.3878189 0.23060222 -0.8613555 0.3785061 0.3327922 -0.0031803136 -0.14558893
4 0.13395381 0.19114383 -0.31167936 -0.36678562 0.24768999 -0.8581062 0.46070868 0.2791853 0.019764572 -0.03367548
1 0.18220718 0.17740896 -0.293982 -0.38491318 0.22146909 -0.82286036 0.44390845 0.3022484 -0.006879449 -0.0954294
2 0.19004805 0.25418317 -0.247617 -0.39219734 0.25479355 -0.8740215 0.45440972 0.2688231 0.06506925 -0.13916922
6 0.16578597 0.25503835 -0.29133153 -0.3534976 0.1819455 -0.85087526 0.3912575 0.32622615 0.004301497 -0.1144897
