6 10
2 -0.032370422 -0.5469337 0.224569 -0.40488324 0.7075436 0.016468357 -0.434911 -0.32468617 -0.21164061 -0.19659655
1 -0.118074626 -0.4963137 0.2933673 -0.42895943 0.6755266 -0.01879785 -0.405937 -0.32877445 -0.17620961 -0.2267924
0 -0.037262984 -0.5535544 0.25185588 -0.47920537 0.709471 -0.021096656 -0.34537733 -0.26120663 -0.15932156 -0.17728105
3 -0.08862738 -0.5544548 0.28534052 -0.43235317 0.7389924 -0.0695176 -0.41419703 -0.31578106 -0.23424791 -0.22288218
5 -0.042229414 -0.48549497 0.2908124 -0.4725669 0.7096607 -0.072402045 -0.36773127 -0.33592826 -0.1651658 -0.19829874
4 -0.10562408 -0.48684594 0.27544412 -0.4264462 0.624351 -0.011437431 -0.40158495 -0.28832102 -0.17776687 -0.23460701
