7 10
0 -0.05546144 -0.236527 0.38202554 -0.66480273 -0.2834198 0.13063987 0.4105932 -0.45244414 0.24953 -0.3302092
2 -0.124819785 -0.17150246 0.3676439 -0.73786837 -0.3292013 0.08687633 0.48012546 -0.45728368 0.24456388 -0.32427162
4 -0.102680795 -0.17190242 0.39709243 -0.71442467 -0.28563097 0.1138096 0.5188183 -0.436409 0.22832508 -0.33767208
3 -0.085842595 -0.19256152 0.3419733 -0.68384105 -0.24882618 0.173827 0.4736448 -0.4340552 0.27996826 -0.36359915
5 -0.03463241 -0.19290163 0.3950471 -0.68587387 -0.312585 0.14885356 0.3892638 -0.47407585 0.27277866 -0.2955338
1 -0.03230178 -0.20080754 0.33393446 -0.66344607 -0.24662986 0.1134986 0.46185142 -0.42218336 0.2932424 -0.34533122
6 -0.12780128 -0.20623234 0.3877649 -0.7602806 -0.26945892 0.14575431 0.4471633 -0.51252556 0.22509906 -0.31685063
