7 10
4 -0.187278 0.7272931 -0.53925914 -0.20004018 -0.09034349 0.2855936 0.013337703 0.00019911915 -0.05311644 -0.632673
0 -0.21923633 0.74650717 -0.5324976 -0.15378611 -0.038813613 0.29767975 0.03461923 0.020618571 0.028588109 -0.6673241
2 -0.24225828 0.7146498 -0.5675089 -0.16351506 -0.07818609 0.32193524 -0.04551816 -0.022418318 0.012750264 -0.5958272
1 -0.22622868 0.73100334 -0.54776496 -0.12998427 -0.019591168 0.32906324 0.007793947 -0.034927927 -0.05995141 -0.5636979
3 -0.2200354 0.68816286 -0.572962 -0.13721977 -0.0015461135 0.32072103 -0.02462445 -0.05645201 0.0034223632 -0.63769037
5 -0.18818912 0.7452314 -0.54821354 -0.20450036 -0.061810907 0.28054532 0.019252613 0.039436113 -0.013390239 -0.6371969
6 -0.23888913 0.75873834 -0.57795256 -0.14479737 -0.06933435 0.27541113 0.040152304 -0.015770495 -0.028546618 -0.5867585
