7 10
2 0.21632488 0.5877093 0.3970376 -0.4704751 -0.09275518 -0.13966852 -0.37140772 -0.4947164 0.38398728 0.28870925
6 0.25344625 0.5753897 0.35808644 -0.44557628 -0.092442095 -0.11676378 -0.41385895 -0.4162768 0.41267434 0.3718155
4 0.25860062 0.52092963 0.37540016 -0.3962288 -0.10804195 -0.118560754 -0.44608548 -0.4617969 0.47904673 0.32590955
3 0.28001827 0.5791459 0.36220858 -0.45477647 -0.11120238 -0.12893978 -0.33502212 -0.46604732 0.4532186 0.2963517
5 0.2518323 0.5996009 0.31264824 -0.42392543 -0.113928586 -0.13705422 -0.37700787 -0.5238813 0.4227454 0.37735942
1 0.2645502 0.59629595 0.3061298 -0.40677187 -0.04852284 -0.18490107 -0.40751877 -0.4669565 0.42663726 0.3600303
0 0.29104683 0.58448356 0.29961625 -0.40859857 -0.08922037 -0.17802128 -0.35062608 -0.41802698 0.4582632 0.32920545
