6 10
2 -0.021445109 -0.704318 0.72479415 -0.20218699 -0.076335944 -0.45290703 0.18016765 0.33675346 0.0973182 0.19923696
1 -0.036724668 -0.6039878 0.7634224 -0.21315372 -0.026552478 -0.50112075 0.147269 0.3475341 0.12418418 0.27177402
5 0.01645953 -0.6669736 0.74832934 -0.21275748 -0.049897276 -0.48002255 0.10524505 0.29700464 0.102862164 0.18301466
4 -0.029012313 -0.64057446 0.73854005 -0.25359923 -0.0213986 -0.4915896 0.16489938 0.24594659 0.16818386 0.20802827
3 0.032479845 -0.6588614 0.66824037 -0.23431368 -0.09272488 -0.4804619 0.15293303 0.23130387 0.15854158 0.24268211
0 -0.02490007 -0.642951 0.6857188 -0.22941539 -0.091097385 -0.5265201 0.102961004 0.25815514 0.16231269 0.24485797
