7 10
2 0.4108036 0.7811011 -0.06086621 -0.039562 -0.24362929 -0.5317294 -0.14781033 -0.22438283 0.10232507 0.37545514
4 0.44880515 0.81543946 -0.06670475 -0.008977236 -0.22972752 -0.56408167 -0.17715953 -0.24714959 -0.000271569 0.34270105
1 0.43643552 0.86726344 -0.06348539 -0.022965029 -0.30306715 -0.56692976 -0.20526007 -0.18741362 0.043395434 0.37531757
5 0.3917412 0.7873639 -0.07732084 -0.066344194 -0.3084581 -0.50407207 -0.17248525 -0.22104128 -0.0073416373 0.295447
3 0.45885667 0.80789447 -0.0948852 -0.08467804 -0.2922836 -0.52107435 -0.1243364 -0.17737122 0.03346273 0.31672925
0 0.48589364 0.8432652 -0.05974454 -0.030454947 -0.2525492 -0.51885176 -0.19444606 -0.17466483 0.03454054 0.36380053
6 0.40655997 0.87328446 -0.08143469 -0.08107007 -0.24197328 -0.59048486 -0.18434094 -0.18444009 0.062934496 0.36989248
