7 10
2 -0.011503024 0.042490654 -0.9548732 0.12587327 -0.3456205 0.33166537 0.41026828 -0.41259748 0.10973854 -0.15081969
3 0.020873496 0.014795566 -0.9522922 0.08713906 -0.28396723 0.32050186 0.4138031 -0.44490674 0.11655668 -0.13356906
4 0.012842081 -0.016653297 -0.912715 0.1104688 -0.34033474 0.34583494 0.36705235 -0.3951986 0.15816326 -0.123306565
1 0.05106425 0.053322762 -0.9472303 0.11263842 -0.30661687 0.32645634 0.40910637 -0.3878464 0.06326925 -0.12096199
6 0.016848309 -0.00321919 -0.94169027 0.1615725 -0.34932384 0.254792 0.40359792 -0.44911236 0.14869867 -0.107826136
5 -0.010367627 -0.03870208 -0.92308986 0.16301517 -0.27983296 0.28030142 0.3982697 -0.433374 0.07605289 -0.08877238
0 -0.011302696 0.051136408 -0.89606273 0.12510175 -0.29781038 0.3055618 0.33680823 -0.44906664 0.12714736 -0.15863256
