7 10
6 0.07897085 -0.2785398 0.541021 -0.6408956 0.69234955 0.0603905 0.0006506712 0.18199556 0.27899498 0.14214763
4 0.08645114 -0.31676263 0.5260551 -0.60336703 0.6469764 -0.011236885 -0.052261908 0.13749889 0.33934224 0.18200473
5 0.105558954 -0.29532766 0.53896004 -0.63949937 0.679821 0.036487672 0.028216692 0.11519622 0.29553765 0.15105891
3 0.09595687 -0.30302927 0.542552 -0.6532733 0.67410344 0.044623215 -0.028305627 0.13833496 0.28418183 0.17420946
1 0.100076236 -0.28010556 0.5255548 -0.6400405 0.6845288 0.07417879 -0.056969315 0.16736288 0.35238156 0.12751184
0 0.12131563 -0.32764184 0.4765857 -0.6292874 0.6579696 0.004765071 0.028666548 0.1490137 0.3151664 0.11511568
2 0.12660177 -0.23107052 0.5124259 -0.656252 0.69023 0.07508319 -0.0069866385 0.17445023 0.33873308 0.13013102
