7 10
4 -0.06291093 -0.19508171 0.3330473 0.23416877 0.50649446 -0.43046436 -0.20560898 0.5610366 0.4992707 0.37583455
0 -0.09124454 -0.1850408 0.37111023 0.26085368 0.4652573 -0.4752918 -0.27654967 0.51013654 0.52397954 0.3287198
5 -0.085838206 -0.23443548 0.31493476 0.25770673 0.48240733 -0.42652413 -0.24959932 0.542554 0.5248428 0.36636874
2 -0.10629302 -0.17469971 0.34566322 0.19447938 0.41358232 -0.46120116 -0.27800953 0.5030147 0.5372535 0.39332604
1 -0.04423052 -0.16360661 0.34361464 0.29871222 0.52145445 -0.47361413 -0.23869759 0.5056725 0.45304632 0.3962105
3 -0.016529778 -0.21714406 0.27376482 0.23497812 0.551017 -0.41920662 -0.20996247 0.56080496 0.45695937 0.4208081
6 -0.11852916 -0.24657202 0.35336456 0.2763231 0.5375624 -0.45960525 -0.23947728 0.5279035 0.5552816 0.33520788
