7 10
4 -0.063624285 -0.78632444 -0.366432 0.23050165 0.18800735 -0.2887503 0.076751105 0.06853175 0.7557946 -0.35048065
0 -0.038850028 -0.74116963 -0.27801126 0.29104728 0.15646711 -0.23488496 0.012186306 0.14349677 0.70544785 -0.29357502
1 0.0012502532 -0.7545765 -0.28227946 0.28793094 0.14934368 -0.2823104 0.06752595 0.13866597 0.655652 -0.35622764
3 0.012752136 -0.71810126 -0.266496 0.21307352 0.09930616 -0.20567563 0.017026788 0.08293135 0.7131541 -0.2837673
2 0.017188681 -0.73301923 -0.3330274 0.29649612 0.14395095 -0.24165034 -0.009623966 0.117389984 0.6549092 -0.26016816
5 -0.008834284 -0.6953585 -0.3307503 0.27741927 0.09007363 -0.2205694 0.040658556 0.09256531 0.6597743 -0.3107974
6 -0.027197698 -0.7339483 -0.32673267 0.24663389 0.15518741 -0.18284635 0.013194429 0.08744873 0.71772397 -0.34886757
