7 10
0 -0.117362976 0.22335503 0.33032876 0.78727216 0.10877961 -0.29007146 -0.48095873 -0.5079591 0.15566054 0.15423766
1 -0.1049439 0.25792035 0.31711334 0.77602863 0.09671479 -0.27456617 -0.46972513 -0.51821023 0.18726762 0.09647777
5 -0.20759909 0.26275125 0.278505 0.8296096 0.113328524 -0.23623367 -0.44333237 -0.45672175 0.11612021 0.16970336
2 -0.17474538 0.23222853 0.32501528 0.7891016 0.07179877 -0.254653 -0.43206275 -0.47945982 0.18190847 0.15465377
3 -0.18565266 0.25015974 0.32790565 0.79609334 0.119536206 -0.22178751 -0.44422716 -0.5140199 0.15289077 0.13504384
4 -0.19355582 0.25301963 0.35606852 0.8430287 0.12647575 -0.24619146 -0.41964996 -0.47222292 0.123603106 0.16872111
6 -0.15819342 0.20666884 0.2781954 0.8286821 0.094556965 -0.1918003 -0.44617102 -0.5020218 0.1834822 0.15050837
