7 10
5 -0.14483853 -0.7652026 0.21139036 -0.406953 -0.17069882 -0.21725924 0.24116796 0.2783526 0.37517205 0.4910054
1 -0.15020558 -0.73403555 0.25118795 -0.39395002 -0.20431922 -0.20118737 0.25423843 0.22438425 0.45905602 0.4517508
4 -0.10182736 -0.71968514 0.29445264 -0.39941686 -0.19306566 -0.119808055 0.27960265 0.18308641 0.44036502 0.44231346
2 -0.11169261 -0.6628049 0.25015023 -0.44541174 -0.16783231 -0.14489353 0.26709265 0.20130835 0.41313955 0.3943851
3 -0.15345693 -0.7216891 0.29785246 -0.44288653 -0.21240841 -0.21708927 0.28935027 0.26089585 0.36990952 0.44032788
0 -0.17639375 -0.7428679 0.27744117 -0.4335143 -0.17281432 -0.23413266 0.22122394 0.29118347 0.46481988 0.5090391
6 -0.13279006 -0.75883764 0.21224938 -0.39889908 -0.18889762 -0.20105436 0.22106421 0.28528816 0.40137243 0.48365137
