5 10
0 -0.53402233 0.6643284 -0.21440537 0.20842752 -0.6314574 -0.28265485 -0.0103748655 0.16659394 -0.02213833 0.08837824
1 -0.51346684 0.6575814 -0.25980356 0.1884883 -0.61244094 -0.3195357 0.059249237 0.1937921 -0.09260477 0.17456518
5 -0.5087574 0.67810076 -0.26069918 0.1844688 -0.6355574 -0.31739715 0.010523586 0.18770562 -0.088833794 0.13021587
2 -0.5294849 0.7048707 -0.19260313 0.2382488 -0.63554645 -0.3502178 0.061147604 0.14231189 -0.0915462 0.15992981
4 -0.517921 0.70528156 -0.25313437 0.21736628 -0.59277254 -0.29285187 -0.015594023 0.18192121 -0.040209517 0.13102399
