7 10
3 -0.19670486 0.510025 -0.336284 -0.24191184 -0.019446973 -0.36910963 -0.4243188 0.17117034 0.7413308 -0.11086204
0 -0.15076192 0.49640694 -0.32358527 -0.27465117 -0.014579502 -0.3552628 -0.38648912 0.26368257 0.77658045 -0.17181371
2 -0.18850383 0.51651555 -0.32055524 -0.27306238 -0.040013727 -0.31155533 -0.4194344 0.23781244 0.7009303 -0.13945417
4 -0.21220653 0.49507943 -0.25235578 -0.30163208 0.027733333 -0.35333055 -0.37698004 0.25164476 0.7215392 -0.13839912
1 -0.12578289 0.50739574 -0.25215423 -0.3058958 0.029166508 -0.35514617 -0.40531516 0.22616372 0.7098815 -0.090466864
5 -0.12614582 0.5087055 -0.30772567 -0.2659902 -0.0042823628 -0.3626314 -0.41780782 0.19578616 0.73104215 -0.16247205
6 -0.18787923 0.4586743 -0.28523174 -0.32373992 -0.010373869 -0.3569423 -0.39518455 0.16472627 0.77726257 -0.11558642
