7 10
0 0.18733837 -0.5141715 0.31876343 -0.0175765 -0.3638845 0.10983932 -0.0665737 -0.45721763 0.017382883 -0.7539615
6 0.11881264 -0.45447978 0.26588476 -0.020001747 -0.381297 0.109953456 -0.09137387 -0.5211318 0.042476047 -0.8122127
4 0.10809137 -0.5879987 0.28140503 -0.041811384 -0.353679 0.08533676 -0.09429969 -0.5293188 0.0899739 -0.7799814
2 0.18279631 -0.5225336 0.3197243 0.00749312 -0.33438283 0.054954603 -0.05732818 -0.46212706 0.07139058 -0.7746992
5 0.178095 -0.53875095 0.29679185 -0.0022067248 -0.34253496 0.05242168 -0.10957912 -0.48326024 0.018721595 -0.732695
3 0.13905728 -0.56764776 0.3023956 0.011409523 -0.3676806 0.056941308 -0.12583023 -0.50619847 0.072119944 -0.79585576
1 0.12704518 -0.5298603 0.26875344 -0.04798188 -0.30395478 0.058358695 -0.12467674 -0.53435177 0.09588935 -0.78125
