7 10
2 0.6183729 -0.14954048 0.45588443 -0.38040844 -0.078631714 -0.22732191 -0.29318607 0.3373228 -0.42113483 0.53788584
4 0.56524616 -0.080223344 0.44375497 -0.3478536 -0.02689546 -0.17633271 -0.29597607 0.3545022 -0.4147941 0.5146002
3 0.57295895 -0.1713499 0.44907087 -0.33499527 -0.066029735 -0.21589087 -0.2840407 0.3565376 -0.37289852 0.5372437
5 0.5752888 -0.07908135 0.46702033 -0.33719772 -0.08642287 -0.24270959 -0.24919394 0.356747 -0.43070632 0.539696
1 0.5879304 -0.08886926 0.47500715 -0.30739683 -0.07160902 -0.20800157 -0.23462416 0.3207808 -0.41634315 0.5168385
6 0.52791137 -0.15355317 0.40854153 -0.32715237 -0.044392798 -0.23204438 -0.27343357 0.3513942 -0.42803824 0.5109811
0 0.52950317 -0.14096586 0.4558192 -0.33530837 -0.079279475 -0.22861518 -0.24218313 0.38004008 -0.392865 0.5362551
