7 10
4 -0.092357926 -0.061964117 -0.013037298 -0.6003361 0.19092655 0.06597673 0.81270826 -0.2216694 0.4660417 -0.21364206
1 -0.13233207 -0.06719731 -0.06911062 -0.6108228 0.1339979 0.16573791 0.8123373 -0.23485278 0.43750188 -0.18441248
3 -0.15631221 -0.07289212 -0.018900888 -0.5589858 0.13006087 0.1728525 0.7616799 -0.22186473 0.43989733 -0.21075226
2 -0.06561422 -0.07295605 -0.10037714 -0.5504127 0.19250242 0.15531476 0.77367634 -0.16695724 0.45216006 -0.2420098
0 -0.14500378 -0.040537693 -0.096727006 -0.5250664 0.16119939 0.19248478 0.77891713 -0.22238949 0.4477111 -0.19044055
5 -0.1754947 -0.096544795 -0.0007848793 -0.66693705 0.19518074 0.09640114 0.9084359 -0.27220285 0.4526448 -0.2040712
6 -0.17532073 -0.121060714 -0.011809106 -0.66183865 0.18523279 0.06698603 0.9039204 -0.26194885 0.44325697 -0.26159108
