7 10
0 0.0060982066 0.1233431 -0.24410635 -0.40341312 -0.8160393 -0.21612822 -0.29165974 -0.46257302 -0.16916676 -0.3342709
2 0.019976988 0.12969849 -0.29906473 -0.4239709 -0.8586718 -0.13519007 -0.26296481 -0.49312934 -0.22242081 -0.2915651
4 0.03993355 0.1866778 -0.28612468 -0.41718328 -0.851134 -0.17608956 -0.25597754 -0.44682688 -0.1612875 -0.27849916
3 0.07523869 0.12549286 -0.30883494 -0.46627182 -0.82012093 -0.21994139 -0.2411997 -0.44698614 -0.20382884 -0.29363573
1 -0.0038943156 0.18512928 -0.32482517 -0.4312133 -0.8047299 -0.14013974 -0.32020244 -0.41410714 -0.22395816 -0.30267125
5 0.02828985 0.12877405 -0.2965351 -0.44538084 -0.76162505 -0.19992885 -0.2735143 -0.46914557 -0.14067091 -0.2645443
6 0.0842259 0.13591613 -0.28037527 -0.41743535 -0.84004426 -0.11137496 -0.3186213 -0.39822254 -0.17196795 -0.276492
