6 10
1 -0.40767235 0.09736276 0.021812769 0.22089711 -0.4763236 0.14165291 -0.1903627 -0.4806787 0.7850129 -0.22575527
0 -0.35423234 0.084364705 -0.026367823 0.20855172 -0.5132644 0.13847211 -0.23644958 -0.47972998 0.7878974 -0.23275685
4 -0.3925253 0.024641326 0.039182942 0.25363442 -0.46746612 0.14454244 -0.23840956 -0.41781098 0.76845264 -0.24981374
5 -0.33665323 0.11078038 -0.039361082 0.2576123 -0.52192307 0.14049184 -0.22128959 -0.45052028 0.8010029 -0.20261773
3 -0.41251105 0.051896345 0.013568992 0.26511782 -0.44978037 0.12914747 -0.20261365 -0.43925458 0.7706884 -0.17466682
2 -0.39144555 0.08290583 0.04346057 0.24423338 -0.48956233 0.1675704 -0.2369458 -0.42212895 0.7778236 -0.221607
