7 10
6 0.30756065 -0.44908786 -0.21637487 -0.50918317 -0.22221597 -0.21157563 -0.5226294 -0.46244398 0.33074403 0.2997923
5 0.34961772 -0.4130733 -0.2107743 -0.5210062 -0.18281434 -0.16941307 -0.48523888 -0.48041216 0.33453 0.36569083
4 0.3566464 -0.4410672 -0.18464027 -0.49329394 -0.1558887 -0.21047299 -0.5037911 -0.5131876 0.36384255 0.29523945
3 0.31125462 -0.39143142 -0.25285155 -0.48259124 -0.21859956 -0.22395442 -0.5149563 -0.49658698 0.32171726 0.3295245
1 0.34489533 -0.39048856 -0.15515469 -0.49247253 -0.16000526 -0.18077573 -0.5508145 -0.44849613 0.37082568 0.3779471
0 0.35256174 -0.45769924 -0.24817765 -0.46811292 -0.19077359 -0.15715708 -0.5341073 -0.5338559 0.2780418 0.30382833
2 0.32775918 -0.41339546 -0.18349734 -0.5393418 -0.20989232 -0.20882317 -0.51323587 -0.54248077 0.29636502 0.33818546
