7 10
2 0.90901005 -0.2997987 0.53481346 0.043406654 0.07706183 -0.33027062 -0.6790935 0.5514084 -1.1055578 0.6209743
0 0.905579 -0.31421778 0.57137907 0.008934447 0.10418901 -0.3223057 -0.6471431 0.53160375 -1.0346942 0.6847272
6 0.036992308 0.8069719 0.18583363 0.48517016 -0.6925694 1.0250901 0.49470475 1.7294368 -0.6000341 -1.1806031
5 0.03390775 0.79520863 0.16485357 0.5232672 -0.64343524 1.0171582 0.4278201 1.6961242 -0.5873386 -1.149617
1 0.8827768 -0.27079958 0.5461656 0.015989542 0.16165692 -0.37675515 -0.69544494 0.53146625 -1.030958 0.5979633
4 0.7519139 -0.24093506 0.45141396 0.04839968 0.059021223 -0.28535238 -0.54666144 0.4489447 -0.9523786 0.5760936
3 0.73004764 -0.2451814 0.533512 -0.017222367 0.1351435 -0.33222666 -0.6690578 0.40956035 -1.0062364 0.54257494
