7 10
2 0.16311093 0.09552682 -0.5978825 -0.5145953 -0.06774956 -0.04987217 0.6464035 0.15263852 0.01629794 0.5464825
3 0.19410634 0.09735661 -0.63906676 -0.48679823 -0.09841133 -0.035691492 0.6738474 0.15501262 -0.04389137 0.53887993
4 0.21074826 0.059438806 -0.6049062 -0.52403206 -0.07007323 -0.065786436 0.5972311 0.12414644 0.016442116 0.5485031
1 0.16125895 0.115694605 -0.59273213 -0.53624934 -0.12780225 -0.033965304 0.65250725 0.09873881 -0.041937932 0.58871436
5 0.1998714 0.039496638 -0.57925767 -0.43534592 -0.05254073 -0.06700547 0.6763641 0.13135949 -0.018375818 0.5771272
6 0.22305477 0.0696455 -0.5700169 -0.43957362 -0.12465184 -0.047787048 0.62232906 0.18044937 -0.06077246 0.55063295
0 0.1783514 0.06701368 -0.63249475 -0.5121206 -0.119119965 -0.013619867 0.66855633 0.14309129 0.04525567 0.51640904
