7 10
1 -0.027666029 -0.7100791 -0.42740715 0.37233576 -0.52265304 0.30518916 0.026065452 -0.023827573 -0.21949613 -0.35353333
2 -0.042055205 -0.6512958 -0.47914913 0.3993099 -0.5546389 0.2797784 0.08489565 0.016411066 -0.25065422 -0.3395335
0 -0.0483217 -0.71278983 -0.38554025 0.43845996 -0.56140214 0.31395438 0.05130233 -0.01792657 -0.1895348 -0.32056606
5 -0.046881653 -0.6653581 -0.36641926 0.42108408 -0.5348126 0.31158528 0.037292033 0.03158364 -0.17844619 -0.3598103
3 -0.017640866 -0.6977 -0.47607964 0.44981858 -0.5145274 0.32225922 0.116341956 0.040995844 -0.23206398 -0.33845302
6 -0.08782748 -0.68217045 -0.41219229 0.4192433 -0.48268938 0.24213079 0.05073393 0.021813413 -0.1619982 -0.35422483
4 0.0033131328 -0.70874465 -0.36291122 0.42051464 -0.5512357 0.24433392 0.060266875 0.003986077 -0.20673546 -0.38367534
