7 10
0 -0.14081219 -0.015217288 0.0031967415 0.7123647 0.58299756 -0.41548446 -0.27553207 -0.39021462 -0.33987126 0.19925669
3 -0.23477814 -0.02977268 0.04578781 0.6573434 0.54590446 -0.38501334 -0.27871725 -0.40468583 -0.37887612 0.2341208
4 -0.21141817 -0.09037234 0.008046417 0.7077485 0.5785253 -0.44956678 -0.28648493 -0.39173254 -0.29595068 0.18042336
6 -0.24924642 -0.069549814 -0.013924237 0.6259039 0.5573232 -0.40743792 -0.2404515 -0.36662036 -0.3761775 0.1646462
2 -0.21232487 -0.08645309 -0.05342434 0.7068753 0.5669271 -0.36619505 -0.3295904 -0.3612838 -0.34151337 0.24187984
5 -0.2385862 -0.04246259 -0.057104144 0.6880595 0.57041454 -0.43579742 -0.27089384 -0.3915236 -0.3136616 0.1744977
1 -0.15769887 -0.108040385 -0.016035121 0.69565994 0.53451806 -0.40107834 -0.3154849 -0.41564777 -0.3039816 0.20379065
