7 10
2 -0.003780405 -0.52867967 -0.868649 -0.39733335 0.3158774 -0.23151931 -0.13290772 0.08096206 -0.02090092 0.27566665
5 -0.022194566 -0.5412313 -0.85270566 -0.43556008 0.28379264 -0.19944118 -0.07584659 0.040619474 -0.02003263 0.2243873
1 0.062403534 -0.51942605 -0.8450932 -0.38705036 0.34189215 -0.19210854 -0.11887849 -0.02194898 -0.09871644 0.19103327
4 -0.014973772 -0.54083234 -0.8454369 -0.4278916 0.32483107 -0.19121356 -0.15124646 0.017639754 -0.08650522 0.27513286
3 0.049207408 -0.54000974 -0.8836948 -0.4461846 0.3033256 -0.1904571 -0.08984688 0.07232636 -0.0569818 0.26308292
6 0.03590355 -0.49249497 -0.8750867 -0.36419785 0.3122332 -0.1624721 -0.1408028 -0.0024998246 -0.01953753 0.2568549
0 -0.028531859 -0.48065317 -0.8820738 -0.46248937 0.30467904 -0.23229979 -0.1426075 0.02803834 -0.017851776 0.3007949
