7 10
2 -0.30098245 0.27418423 -0.018756285 0.2649414 0.68999124 -0.08284804 -0.27739078 -0.41097054 -0.41708845 -0.5056901
5 -0.328653 0.21717262 -0.11446317 0.24161655 0.74597836 -0.04193973 -0.30263913 -0.3884509 -0.43278122 -0.45184216
3 -0.330401 0.2900705 -0.032161523 0.29981574 0.6855453 -0.07500682 -0.2679555 -0.3991063 -0.361829 -0.5231428
0 -0.3647061 0.28764662 -0.08036697 0.24084571 0.70829195 -0.114312164 -0.23995918 -0.39010292 -0.37202236 -0.49705267
6 -0.34696615 0.23685037 -0.085619465 0.2688463 0.7096729 -0.11322431 -0.2706231 -0.3614692 -0.42714038 -0.4472231
1 -0.30866805 0.21644288 -0.08440136 0.2645787 0.67947537 -0.027187228 -0.24219087 -0.3701702 -0.40923625 -0.4859853
4 -0.34892502 0.2921412 -0.111612365 0.23062044 0.72823477 -0.07592597 -0.28570428 -0.37554765 -0.44087666 -0.50565803
