7 10
6 -0.23836982 -0.19253834 -0.11886418 -0.6079626 -0.53666246 0.078230865 -0.042378686 -0.052382797 -0.8134365 -0.15863016
5 -0.18624811 -0.28353763 -0.1110585 -0.5756604 -0.50269276 0.09881952 -0.08609916 -0.012427911 -0.85265553 -0.09252426
4 -0.2054393 -0.20115846 -0.16770321 -0.5735857 -0.4938437 0.04549856 -0.096793905 -0.07349229 -0.80310416 -0.11646094
3 -0.22668321 -0.20192619 -0.13956967 -0.60679567 -0.54046124 0.10008031 -0.08749414 -0.018026931 -0.7524466 -0.123904884
1 -0.24778996 -0.27932766 -0.20011471 -0.6139428 -0.5144991 0.045065228 -0.016893758 -0.013360501 -0.7946757 -0.08334435
0 -0.2128159 -0.22989394 -0.08799698 -0.6204606 -0.479093 0.06895037 -0.109213255 -0.079283044 -0.8058692 -0.11733432
2 -0.19045766 -0.26433048 -0.17798087 -0.6080914 -0.5181133 0.05278126 -0.04165891 -0.0726259 -0.7731028 -0.10618177
