7 10
5 -0.24385138 -0.36259973 -0.13943237 0.26057082 0.14103267 -0.7130992 -0.30851895 -0.5834344 -0.46014607 0.11777073
6 -0.30207184 -0.2875762 -0.08199697 0.30659163 0.09826143 -0.70679635 -0.27679625 -0.56085294 -0.4407354 0.16442713
1 -0.32174906 -0.27183253 -0.016538544 0.32006556 0.18242143 -0.7045519 -0.26937318 -0.62130165 -0.3576286 0.18602417
3 -0.27045596 -0.3185436 -0.033775747 0.27248445 0.11032297 -0.71211845 -0.33733064 -0.56250846 -0.39591902 0.16985743
2 -0.24006109 -0.36417753 -0.1278414 0.31540376 0.13870743 -0.65578806 -0.33677217 -0.6153815 -0.4625783 0.09630298
4 -0.22928998 -0.334929 -0.08384209 0.24894366 0.14809008 -0.71414596 -0.31071675 -0.63192225 -0.37689042 0.12812729
0 -0.30794123 -0.30819875 -0.122013696 0.3165491 0.13171172 -0.67831546 -0.32803527 -0.5946279 -0.41708973 0.09184698
