5 10
5 -0.18907775 -0.15153141 -0.45449775 -0.46134117 0.25360602 0.12687111 -0.7250731 0.15813729 0.24838236 0.3011755
2 -0.19448502 -0.18088141 -0.45023984 -0.48359483 0.23433228 0.06906494 -0.7896992 0.111400485 0.2609981 0.2410871
1 -0.15486753 -0.09202152 -0.45780236 -0.4664793 0.22603258 0.097676426 -0.7505533 0.13224113 0.16987814 0.26407024
0 -0.1759613 -0.13379207 -0.4103938 -0.43759874 0.17856652 0.10310986 -0.71390873 0.11959877 0.2173176 0.27467227
3 -0.17353237 -0.1872878 -0.44904548 -0.4466316 0.21987657 0.10429662 -0.78540444 0.08380989 0.2662106 0.3245975
