6 10
4 -0.25448745 0.2862614 0.21918239 0.2055874 -0.4790574 0.19364119 0.5427324 0.7183189 0.27296293 0.059848048
1 -0.25013915 0.34396833 0.1968743 0.10088623 -0.46233338 0.2475569 0.44959795 0.7004634 0.31795758 0.054010477
3 -0.26082367 0.3449706 0.20516525 0.17864081 -0.46975037 0.23919626 0.47541153 0.68506056 0.27149758 0.053797916
0 -0.26767546 0.345998 0.23347542 0.14962402 -0.50330865 0.18939929 0.5305104 0.71035916 0.3232853 0.05771886
2 -0.27303275 0.3494629 0.24400042 0.1827471 -0.4471697 0.21686421 0.47483414 0.67184454 0.21874495 0.01761105
5 -0.2729363 0.2925344 0.2452032 0.09735087 -0.49870574 0.2563719 0.46973175 0.69468814 0.3007779 0.027948702
