7 10
3 0.07399461 -0.70063186 -0.08088726 -0.0018936688 -0.028045313 0.42640454 0.31569344 0.1102172 -0.7981649 0.00052865205
6 0.119058795 -0.67266476 -0.09840621 -0.06423505 -0.033649683 0.3983873 0.35419518 0.032951064 -0.782 -0.09808429
4 0.087527215 -0.6800132 -0.10408025 -0.029414216 -0.041217856 0.42136383 0.28621587 0.0571448 -0.80567753 -0.013379925
5 0.047237836 -0.7484965 -0.09267455 -0.037072193 -0.044430256 0.42494708 0.34871423 0.06899886 -0.77031076 -0.07250201
0 0.06599173 -0.6391511 -0.106623426 -0.07225685 -0.010968011 0.39104998 0.3016108 0.047698114 -0.811199 -0.053045798
2 0.10858569 -0.6945892 -0.07246939 -0.038544856 -0.035678186 0.38888544 0.24633028 0.067940034 -0.8203351 0.006933309
1 0.08265336 -0.6798952 -0.08915245 -0.091063075 -0.03774709 0.36649525 0.2928205 0.07090619 -0.829949 -0.049641293
