7 10
5 -0.33384898 0.7559574 0.39694628 -0.53273696 -0.2445024 -0.18946974 0.0036876935 0.17649959 -0.08863497 0.22895592
2 -0.3662071 0.7738664 0.4168698 -0.5796759 -0.28288993 -0.22157851 -0.037551984 0.2097491 -0.15227222 0.26213315
3 -0.39600283 0.7554629 0.4388554 -0.4732651 -0.26772684 -0.21457629 -0.05395492 0.07987367 -0.06915176 0.2870943
4 -0.37962884 0.74851847 0.43610543 -0.5547565 -0.24223438 -0.13959974 -0.07320189 0.14496186 -0.13003914 0.21374011
1 -0.39537448 0.8124968 0.3975389 -0.51587796 -0.28172985 -0.17634918 -0.040468484 0.16883399 -0.1374679 0.19404326
6 -0.40279672 0.78065526 0.40912655 -0.51565033 -0.22661203 -0.14586653 -0.080664106 0.14754534 -0.067271516 0.24490714
0 -0.34271905 0.7907156 0.3700564 -0.5708725 -0.27601293 -0.18582222 0.016265346 0.21720196 -0.07595655 0.24827199
