7 10
2 0.43940827 0.24533983 -0.067791626 0.26710516 -0.3298087 0.045783848 -0.23592673 0.4316996 -0.8124644 0.045498747
4 0.37734258 0.29971054 -0.12813321 0.26963764 -0.3520238 0.04583456 -0.3133646 0.46238253 -0.8181588 -0.006245461
3 0.43535382 0.2796365 -0.10190302 0.2321165 -0.34620708 0.09824499 -0.29552352 0.3870653 -0.8296309 0.0103913825
1 0.47829542 0.2280289 -0.07637067 0.26537788 -0.27987662 0.015762044 -0.28244337 0.42576465 -0.865313 0.03803487
5 0.3341415 0.21518402 -0.13552661 0.26255 -0.3094749 0.09719383 -0.32298735 0.455159 -0.8313856 0.036512695
6 0.40121844 0.29574642 -0.15465914 0.24322848 -0.34410265 0.08198983 -0.24920669 0.40284503 -0.8625102 0.07821582
0 0.45187998 0.2110617 -0.10348888 0.28545174 -0.38199198 0.056812357 -0.3047512 0.40141246 -0.7948538 0.0038301547
