7 10
3 0.34032232 0.3947415 -0.28659475 0.21778457 -0.31597137 -0.052674256 -0.20720416 -0.07227014 0.79803854 -0.41303492
0 0.39805043 0.34447885 -0.28454918 0.23756132 -0.29104623 -0.10432718 -0.22581096 -0.028795771 0.81731844 -0.42412636
5 0.38785258 0.40830526 -0.3085779 0.24833654 -0.27972484 -0.026081104 -0.22801998 -0.0052348934 0.7985328 -0.37598264
6 0.43160957 0.32304788 -0.2607744 0.18807723 -0.32518375 -0.061937302 -0.2923092 -0.075490534 0.810844 -0.40674496
1 0.40728486 0.35986763 -0.30965602 0.22620878 -0.32483187 -0.081306726 -0.2545754 -0.033272333 0.78025377 -0.4057857
4 0.29478744 0.40036586 -0.25899822 0.23972446 -0.27357727 -0.10966375 -0.19623844 -0.057524595 0.8102474 -0.35387823
2 0.38543323 0.41268983 -0.24224585 0.27796713 -0.2437174 -0.040198833 -0.23138323 -0.09168861 0.807055 -0.39718893
