7 10
4 0.45963752 0.9684952 -0.65020335 0.15265304 -0.73314977 -0.5650404 -0.03428716 -0.47905114 -0.60247374 0.5456824
1 0.46168935 0.97289807 -0.65450853 0.21479827 -0.68957144 -0.59564006 -0.12698036 -0.48000562 -0.66752 0.54951346
3 -0.36075714 1.4516848 0.90235734 -0.66109496 0.9622634 1.1424057 0.87551963 -0.61303586 -0.38622445 0.37622893
6 -0.48054388 1.5980728 1.0247574 -0.7449241 1.0578575 1.247486 1.0222414 -0.6743006 -0.43795273 0.46742493
0 0.44625115 0.9621897 -0.67780185 0.14518535 -0.68603945 -0.5911464 -0.14622806 -0.38856277 -0.67433304 0.50864816
5 0.4719339 0.92693293 -0.6725136 0.20096013 -0.71778744 -0.5863346 -0.066731624 -0.42015937 -0.65783256 0.5487403
2 0.47201192 0.9586482 -0.68625677 0.18624692 -0.6858929 -0.52094376 -0.03918304 -0.4643047 -0.6510348 0.49934855
