7 10
4 0.250712 0.29945877 -0.01552517 -0.031697586 -0.6084493 -0.45786482 -0.021529999 0.19498381 0.8704005 0.09613081
1 0.27363676 0.24746513 -0.050385546 0.039391384 -0.56961936 -0.5143388 -0.054102283 0.17619051 0.8569488 0.12090972
3 0.28568035 0.28743216 -0.054448042 0.01623485 -0.54163843 -0.47997177 0.03866214 0.21698889 0.78068763 0.098251335
2 0.22026932 0.20826247 -0.041849576 0.06171794 -0.54882485 -0.47729567 -0.048895754 0.24400789 0.8945211 0.113550626
0 0.26881593 0.2741062 -0.065524794 0.040337007 -0.54149485 -0.46994126 -0.026409613 0.17784041 0.86553687 0.11906074
5 0.24339223 0.22546345 0.02041349 0.013608633 -0.5718652 -0.49547014 -0.013150978 0.2007608 0.85297996 0.12661183
6 0.23366144 0.2958638 -0.06635541 -0.010643599 -0.5669456 -0.50335944 0.023628527 0.24927865 0.7899459 0.054767706
