7 10
2 0.5030581 0.2829847 0.6239522 0.11589114 0.11381132 0.24968487 0.369159 -0.40295076 0.5426521 0.10515734
0 0.53571576 0.31377405 0.6331455 0.15953375 0.08797387 0.25266227 0.42528197 -0.31442636 0.47055975 0.10919069
3 0.5856671 0.3211631 0.5943704 0.1712877 0.04383366 0.23361732 0.32268706 -0.4062887 0.52062815 0.06890071
5 0.53697985 0.30826512 0.60818064 0.1272104 0.07295533 0.26095966 0.38263378 -0.31885496 0.45276493 0.07300878
4 0.5887988 0.2594726 0.6370835 0.20567384 0.11769161 0.285286 0.36443588 -0.3728409 0.4639244 0.09438177
1 0.55025613 0.29464677 0.6226454 0.2167654 0.09095968 0.245433 0.3532279 -0.3369905 0.5233611 0.12301457
6 0.4745859 0.28298354 0.60220456 0.118469015 0.10910534 0.25786215 0.38087466 -0.36917725 0.49362078 0.09841248
