6 10
1 0.4756721 0.16864483 -0.18159771 0.45896628 -0.41155502 -0.53322613 0.5705365 0.27287906 0.19478957 -0.024092322
2 0.45270884 0.18824816 -0.16746931 0.43808243 -0.39908305 -0.51941824 0.58842075 0.31446356 0.31339452 0.01895637
3 0.4594599 0.13317506 -0.19866024 0.5199738 -0.33835292 -0.47281617 0.60027075 0.30127233 0.32078552 -0.06262036
0 0.4659228 0.19447462 -0.18992236 0.48855725 -0.32108682 -0.48895618 0.55736834 0.2631913 0.26797014 -0.03823917
5 0.45968512 0.17784016 -0.17753148 0.44440827 -0.3878638 -0.5084565 0.5559613 0.30350992 0.3002447 -0.040960655
4 0.3866396 0.14923471 -0.17163132 0.4476119 -0.3686094 -0.4812934 0.5358062 0.2893057 0.23187204 -0.05356334
