6 10
1 0.5803881 -0.022180077 -0.28006527 0.14451237 0.7006373 0.05412508 -0.15991624 0.5510682 0.38204908 -0.340235
0 0.6074425 0.0013159736 -0.24286115 0.14248115 0.696667 0.07079861 -0.24105632 0.519682 0.42609474 -0.21642691
3 0.584603 0.008322805 -0.29185438 0.13686167 0.6822031 0.036818624 -0.1550315 0.50194126 0.38441718 -0.2673063
4 0.581661 -0.0116130635 -0.28483152 0.0805144 0.67534184 0.034124807 -0.20212306 0.46161792 0.3889607 -0.2905973
2 0.55359864 -0.01189687 -0.31569108 0.12552036 0.64291143 0.058910538 -0.23263864 0.4708229 0.35604307 -0.25861344
5 0.54843175 -0.018232917 -0.20977831 0.12880541 0.6768064 0.10426925 -0.21231383 0.49107587 0.40409344 -0.25521624
