7 10
1 0.410826 0.41182342 0.15733232 -0.25470853 -0.16526546 0.60044897 0.3651161 -0.41723478 -0.24629177 -0.4682411
0 0.36551255 0.3491689 0.13446055 -0.2032399 -0.111406215 0.6533887 0.32661423 -0.45925483 -0.29490268 -0.530068
3 0.4217378 0.3674366 0.076235205 -0.26642472 -0.124798685 0.63537765 0.3806659 -0.42300484 -0.31692284 -0.48197168
6 0.40130225 0.36829996 0.17088549 -0.18737496 -0.20613861 0.5848318 0.35598454 -0.3936587 -0.18519588 -0.506483
5 0.3569111 0.3972413 0.14495538 -0.28909406 -0.18693282 0.59032154 0.36064735 -0.41146013 -0.282986 -0.472288
2 0.40553093 0.3146452 0.07515156 -0.28412467 -0.16871782 0.60850704 0.3294144 -0.42247567 -0.24650258 -0.4618208
4 0.3215933 0.40452445 0.07247341 -0.26517415 -0.21571128 0.6426985 0.36728817 -0.39701656 -0.26682454 -0.4638932
