6 10
0 0.08530995 0.40760973 -0.5333916 0.036640096 0.04215543 -0.37998858 0.4136353 -0.050262827 0.38517466 -0.66997135
2 0.09928071 0.41856644 -0.53419304 0.06440654 0.010417353 -0.31592235 0.45668852 -0.024612907 0.35211736 -0.6599071
4 0.049888745 0.43991736 -0.51468784 -0.022394774 0.047035724 -0.37689665 0.44380257 -0.10186938 0.40183857 -0.649987
3 0.062268663 0.3770294 -0.5704818 0.011788666 -0.04605297 -0.37812206 0.3943881 -0.06387839 0.34805316 -0.73490673
5 0.04295697 0.47606263 -0.5485498 0.06864125 -0.0028798573 -0.35421973 0.441762 -0.10499582 0.37625724 -0.68968207
1 0.05904297 0.38831958 -0.45390585 -0.017379617 -0.033890013 -0.36664215 0.39898652 -0.011399245 0.39200115 -0.6318914
