7 10
6 0.3517379 0.3561081 0.35237283 -0.39245078 -0.08206987 -0.23501074 0.13471611 0.30922654 0.8445879 0.11028239
4 0.31719446 0.32737967 0.35315695 -0.35007104 -0.09219713 -0.23812298 0.14636803 0.28342724 0.8571891 0.18051468
2 0.29429328 0.32083496 0.3673834 -0.37131014 -0.0591505 -0.22989587 0.19243945 0.31499934 0.8369117 0.11129344
5 0.32643482 0.30561587 0.40563855 -0.35274407 -0.16043615 -0.20678696 0.12314858 0.27834585 0.88888556 0.15428598
1 0.28917286 0.25801992 0.37466848 -0.39206836 -0.13846609 -0.17171696 0.16064574 0.33544198 0.8464243 0.13906348
3 0.27558872 0.28365904 0.38216656 -0.41328368 -0.1057254 -0.22282633 0.14158855 0.2985456 0.8396304 0.12532553
0 0.33824578 0.2787205 0.33723238 -0.41054288 -0.16709082 -0.21403606 0.16651395 0.3383711 0.8340644 0.11650992
