5 10
2 -0.35342768 0.16899906 0.55434525 -0.16162558 0.03797615 -0.59590364 -0.2730024 -0.10483397 0.006199036 0.6645824
6 -0.3361961 0.1735365 0.54889995 -0.15719876 -0.029569827 -0.5695394 -0.24144931 -0.09657988 0.059476063 0.66644967
4 -0.2646877 0.2210014 0.5480443 -0.17057826 -0.061010648 -0.6085953 -0.24562004 -0.030211687 0.03688235 0.69514203
3 -0.30658275 0.1905288 0.5644209 -0.12801786 -0.046515048 -0.566644 -0.20825687 -0.08989576 0.023583056 0.6994573
5 -0.33862096 0.14646757 0.49015036 -0.10964185 -0.0059186183 -0.55936754 -0.2987197 -0.07475506 -0.015419945 0.6764131
