7 10
1 -0.309978 -0.23703016 0.26915142 0.049635246 -0.13900797 -0.99157536 0.17939349 0.16670862 0.014599171 -0.05794761
0 -0.28848013 -0.22858669 0.25420064 0.08165082 -0.13958916 -1.0235106 0.18692857 0.19503605 0.07123251 -0.09176841
6 -0.34365815 -0.18375011 0.2722552 0.039524313 -0.0897669 -0.9884142 0.21166098 0.24874932 0.09572743 -0.09772149
2 -0.31371555 -0.22266956 0.26782176 0.10884643 -0.09791053 -1.0569601 0.1417479 0.20075801 0.066091135 -0.078518584
5 -0.33231682 -0.19153169 0.31145263 0.08372448 -0.12173204 -1.0456583 0.15106209 0.21783164 0.0016022575 -0.029048115
4 -0.32066518 -0.2647872 0.34836644 0.09676406 -0.12041977 -1.0461608 0.19782118 0.27083692 0.068315834 -0.08907094
3 -0.28021654 -0.23683317 0.31703505 0.07378573 -0.1802959 -1.1295383 0.19882172 0.23239349 0.025076797 -0.013666436
