6 10
2 0.6943775 -0.05563699 -0.3656924 0.12921833 0.5163539 -0.29981416 -0.37307632 0.43725678 0.04861267 -0.24981481
3 0.7137942 -0.020135954 -0.3676031 0.13250652 0.4721046 -0.37544298 -0.33257186 0.48280898 -0.03977942 -0.19892651
0 0.73491466 -0.0022605702 -0.39800483 0.19977595 0.44704422 -0.37220293 -0.30006695 0.47404152 0.006353702 -0.16116032
5 0.71348876 -0.10026264 -0.39883572 0.18533142 0.5418283 -0.2812899 -0.32477948 0.42866185 -0.025988825 -0.1781037
1 0.6986189 -0.07403754 -0.35105368 0.20126882 0.49181882 -0.3316541 -0.3377053 0.40228823 0.0013710249 -0.21603313
4 0.73677427 -0.049111776 -0.4076824 0.22966592 0.42985466 -0.3659097 -0.29343098 0.46472353 -0.0074832262 -0.20927143
