6 10
2 0.31495112 -0.48428935 -0.23512247 0.25206348 0.062404163 0.5686093 -0.5644428 0.15741591 -0.55423313 0.041025843
3 0.3261636 -0.508347 -0.14394768 0.16690944 0.077578105 0.599279 -0.57029366 0.20654051 -0.48107243 0.007621591
0 0.37504098 -0.5184372 -0.18241847 0.22438864 0.111246236 0.5810915 -0.5679745 0.18069868 -0.5188582 0.059450407
5 0.30469158 -0.47248292 -0.2191205 0.25978476 0.083853774 0.5833061 -0.5731784 0.1975286 -0.4744144 0.0750798
4 0.33036017 -0.47457594 -0.24820314 0.18879919 0.060075145 0.5739028 -0.5023793 0.18389048 -0.47473246 0.07531256
1 0.34354177 -0.46334147 -0.13050453 0.20651135 0.084727146 0.524915 -0.5588298 0.15177406 -0.4934466 0.040544506
