6 10
0 -0.011881296 0.6625783 -0.3064593 0.59759605 -0.1629086 0.3724953 -0.013203183 -0.3146445 -0.037468724 -0.5345743
5 0.039397884 0.66700906 -0.30573058 0.5884684 -0.10994909 0.3680648 -0.038053956 -0.29387254 -0.08455218 -0.509618
2 -0.055412814 0.69780755 -0.24411908 0.5789392 -0.18642294 0.39905137 -0.00025574554 -0.29615495 -0.03585488 -0.51911926
4 -0.054699074 0.6522874 -0.246976 0.5671695 -0.10188439 0.4118056 0.044134535 -0.27861163 -0.07433548 -0.5432044
1 0.048672967 0.5928245 -0.26343852 0.56664604 -0.16378462 0.39011636 -0.055003606 -0.2752813 -0.1145773 -0.5071214
3 -0.00016691376 0.678405 -0.3277029 0.61945206 -0.15314774 0.3597447 0.024098767 -0.323577 -0.017295888 -0.47592422
