7 10
3 -0.10715308 0.47329277 -0.103137776 -0.44395763 -0.471119 -0.44704023 0.70026034 0.047528014 0.24074358 -0.14986803
5 -0.04859154 0.47960782 -0.031295482 -0.45980206 -0.46981063 -0.45118812 0.6605205 0.04330412 0.22909771 -0.13682021
4 -0.019134039 0.4604104 -0.021532971 -0.43190083 -0.47007915 -0.3897071 0.6164323 -0.08088463 0.17246987 -0.16800898
1 -0.054572508 0.5369422 0.0031738188 -0.4189022 -0.456008 -0.43567207 0.6837165 -0.02932723 0.27822316 -0.11612593
0 -0.08091474 0.4673982 -0.011605438 -0.45708096 -0.526915 -0.3986897 0.67856306 -0.017187173 0.22626409 -0.20023976
2 -0.00034737223 0.5552168 -0.06997811 -0.42965028 -0.5153187 -0.39396936 0.70981795 0.0035195865 0.22896175 -0.13996525
6 0.004299399 0.5369036 0.0106454315 -0.4783439 -0.49063605 -0.38222992 0.71545875 -0.033633713 0.20483182 -0.105734825
