6 10
1 -0.15230833 0.15318942 0.4618872 0.5445707 0.09901985 0.11342644 -0.7377349 0.55010074 0.113122076 -0.17662548
4 -0.21305247 0.19831678 0.43136525 0.50970465 0.08398863 0.12967598 -0.67603135 0.52992445 0.17524666 -0.23553097
2 -0.12787911 0.19992192 0.46173814 0.52757543 0.14596525 0.122934334 -0.70350975 0.5259221 0.16965054 -0.21097231
5 -0.23374322 0.20090562 0.48922724 0.49008897 0.042232502 0.12764604 -0.6991847 0.49072993 0.10847498 -0.22342964
0 -0.13824181 0.22498347 0.4428009 0.49054536 0.0951965 0.06188472 -0.64318323 0.5038682 0.17996255 -0.1874061
3 -0.20793793 0.18850553 0.41648594 0.47078827 0.1345811 0.076380305 -0.6260908 0.4548286 0.16101521 -0.14670055
