7 10
3 -0.040264223 -0.40560266 -0.62526554 -0.24074775 -0.28835794 0.3498853 -0.12879366 -0.57125413 0.30709255 -0.31490934
4 -0.04495413 -0.4082517 -0.6296937 -0.25096002 -0.32796678 0.40336752 -0.17689992 -0.5502141 0.28792834 -0.24563138
6 -0.015302997 -0.35168475 -0.5942694 -0.16310471 -0.36237222 0.4570453 -0.14606386 -0.62277305 0.3071377 -0.2616179
5 -0.061683375 -0.33594832 -0.6312137 -0.25136188 -0.36064184 0.4056254 -0.10400105 -0.60500467 0.25126702 -0.2552564
0 -0.04880813 -0.37128007 -0.6226083 -0.17925169 -0.34962758 0.39004466 -0.17753583 -0.6057232 0.2892308 -0.32201967
1 -0.024124598 -0.32182658 -0.617931 -0.19522579 -0.3618294 0.41104975 -0.17351641 -0.6144788 0.32218346 -0.31097287
2 -0.092381306 -0.34421083 -0.60419244 -0.24126187 -0.3408134 0.39094767 -0.09476111 -0.5812799 0.2632277 -0.31785604
