7 10
3 -0.26821628 0.1149921 0.29260787 0.14663348 -0.47631794 0.47669306 0.5820499 0.041699633 -0.4727932 0.5527095
4 -0.21045494 0.07424403 0.2571903 0.20674533 -0.45815703 0.47360015 0.5360248 0.08661636 -0.43638238 0.52757955
2 -0.24548405 0.0417054 0.27002764 0.19264893 -0.37572357 0.4298354 0.59760654 0.020105807 -0.4554933 0.5714189
1 -0.2681463 0.04907569 0.30184546 0.15471955 -0.4418316 0.42431742 0.56334186 0.052331388 -0.4824981 0.560122
0 -0.24211137 0.102793515 0.21010552 0.17031099 -0.39687458 0.47509336 0.56261414 0.07692045 -0.47150263 0.5806409
5 -0.19381249 0.055916265 0.29252854 0.2051453 -0.45800456 0.4956697 0.5199199 0.110950075 -0.49759814 0.5672978
6 -0.25906807 0.095343344 0.2470229 0.16366723 -0.43133545 0.45008048 0.54921776 0.052110344 -0.4947199 0.54032266
