7 10
0 0.16025439 0.66568375 -0.016802462 -0.34070507 0.49216154 0.114834614 0.6090499 0.22512236 -0.3836469 0.12237509
4 0.15317886 0.6965878 0.023149278 -0.33737743 0.56303227 0.052860714 0.55416256 0.23989831 -0.32870892 0.059435464
5 0.10728643 0.691471 0.0148854945 -0.3782851 0.48687765 0.061313294 0.5945729 0.24968275 -0.3747934 0.050870843
3 0.08394822 0.61393225 -0.047552705 -0.34031513 0.51803327 0.101192854 0.5883304 0.17729074 -0.40294245 0.1391109
6 0.09822728 0.6660302 -0.023605531 -0.3004492 0.52335715 0.16138853 0.56249154 0.23000358 -0.40986893 0.07134442
2 0.14848553 0.6649684 -0.050145525 -0.30309585 0.53902614 0.13268295 0.55829 0.17209536 -0.36904472 0.09561218
1 0.14399795 0.63922 -0.0095072845 -0.32835543 0.48129588 0.15911797 0.5406127 0.16561338 -0.33546108 0.12777147
