6 10
1 -0.65570986 -0.008713432 0.60712653 0.48708934 0.27032557 0.15359572 -0.40237817 -0.1094322 -0.20992985 0.22180694
3 -0.67650676 0.03377677 0.60245836 0.47069475 0.31161356 0.07515666 -0.3921651 -0.10867871 -0.24799512 0.2519901
2 -0.6760995 0.063465096 0.60985374 0.5094705 0.3191951 0.13745147 -0.35752758 -0.12518106 -0.16973856 0.28044394
4 -0.6634704 0.037663817 0.61254627 0.50592035 0.25770932 0.12514327 -0.386564 -0.17557043 -0.18901463 0.25116
0 -0.6750655 0.02449343 0.610559 0.47762942 0.25130495 0.11685067 -0.38292155 -0.12705627 -0.25620818 0.25027284
5 -0.5831815 0.020835983 0.5631517 0.45559096 0.3006271 0.14593889 -0.38551497 -0.14683484 -0.22102122 0.1883707
