2 10
4 0.09519509 0.0081826635 -0.0054554413 -0.07546767 -0.063896395 -0.06389975 -0.08590087 0.007655861 -0.042674165 -0.03253239
5 0.11800138 0.013340642 0.053144965 -0.043207906 -0.0974022 -0.08159956 -0.091773055 -0.012376138 -0.1038466 -0.09046351
