7 10
5 0.040220935 0.12768395 -0.045595374 0.39428273 0.21683761 1.0388837 0.23162018 0.114054196 -0.2530507 -0.28814304
6 0.01198079 0.11939085 -0.095999904 0.3088727 0.12009102 0.9675655 0.2765146 0.08290334 -0.21525086 -0.31340942
2 0.030582046 0.2050815 -0.11689283 0.37938493 0.17631891 0.9750259 0.20754325 0.08148768 -0.16238375 -0.23690787
3 0.028138584 0.19960707 -0.11705723 0.35223004 0.09226644 0.9977775 0.21920381 0.07108942 -0.2072552 -0.31428075
4 0.0041996366 0.1283811 -0.07024127 0.31808734 0.12154864 1.0449835 0.27298528 0.07392477 -0.22594653 -0.3259813
1 -0.0032715492 0.18526237 -0.07767607 0.30664617 0.17420767 0.965246 0.24914952 0.12514335 -0.23392645 -0.24693246
0 0.015294897 0.186389 -0.14300027 0.30947986 0.19741967 1.0737163 0.24857847 0.1330027 -0.22486113 -0.3202901
