5 10
4 0.1941116 0.114724405 0.067757845 -0.5545874 -0.5146752 -0.19198683 -0.12941985 0.56767464 0.40292287 0.46834898
1 0.17732833 0.1748165 0.044162787 -0.531092 -0.4936436 -0.21856137 -0.11590564 0.5261427 0.42577174 0.5066507
2 0.17310664 0.1611609 0.13184415 -0.57194984 -0.57347953 -0.16128632 -0.055558503 0.60027117 0.4043437 0.4667343
5 0.19073543 0.19592665 0.13881622 -0.51616096 -0.5167631 -0.17270981 -0.08049601 0.5519201 0.34860334 0.46151316
0 0.1782162 0.18224189 0.08111023 -0.5259205 -0.5236707 -0.17848046 -0.033116102 0.5194242 0.3870201 0.450133
