6 10
5 -0.29991394 -0.22489844 -0.635524 0.27938735 -0.35997862 0.31984916 -0.11479776 0.71911544 -0.19015175 0.066215836
3 -0.38231665 -0.13904685 -0.5614385 0.30395973 -0.4589684 0.28210694 -0.10898794 0.69381493 -0.16228275 0.06968838
0 -0.32250187 -0.1802848 -0.5941288 0.25292733 -0.42160687 0.3118722 -0.038697205 0.6756513 -0.107341506 -0.01139156
1 -0.29610392 -0.17835759 -0.55555445 0.26277643 -0.45414606 0.35088325 -0.044813406 0.7203636 -0.15464091 0.019815492
4 -0.3486872 -0.16265579 -0.5545454 0.2602403 -0.41110945 0.2757761 -0.041492287 0.6217368 -0.16721976 0.06251879
2 -0.36694112 -0.19890516 -0.59478563 0.22736764 -0.46178207 0.3055436 -0.11488366 0.6532328 -0.18520372 -0.0053193914
