7 10
0 -0.0013653915 -0.17699718 0.34718743 0.018715946 0.15617451 0.51162094 0.42589566 -0.7745542 -0.23738475 0.35195738
3 -0.06037024 -0.16140056 0.4310991 0.051510546 0.17788772 0.45264703 0.38745043 -0.8124186 -0.31043056 0.28534353
1 -0.030281894 -0.23360099 0.4168493 0.05170767 0.19158584 0.5116247 0.36617443 -0.7886049 -0.23500036 0.31283304
5 -0.014072806 -0.16706784 0.41016093 0.062707305 0.141081 0.48296762 0.41624522 -0.7840256 -0.32019472 0.27431133
2 -0.099165626 -0.22392698 0.33730417 0.09461963 0.12680383 0.48797774 0.41223526 -0.78501505 -0.29858935 0.3417899
6 -0.05714476 -0.15370734 0.37174967 0.0046107383 0.10025447 0.5263731 0.4101329 -0.7310011 -0.31792134 0.3185712
4 -0.08183935 -0.18601134 0.41991335 0.069949284 0.132661 0.5276251 0.3771642 -0.77858216 -0.24902795 0.30571866
