6 10
1 0.49541083 0.095294975 0.53640574 0.31857052 0.4154113 -0.53749335 -0.21904905 0.17965822 0.15285334 -0.44662547
2 0.5132057 0.06531617 0.51996106 0.27546957 0.4250741 -0.5409105 -0.22335722 0.13745084 0.16433315 -0.479423
4 0.45137352 0.10709923 0.49380645 0.3343821 0.44427767 -0.5884134 -0.18951766 0.16648416 0.18485783 -0.4141171
0 0.47599676 0.014567412 0.55385953 0.28492367 0.41343728 -0.5081541 -0.26011187 0.18757938 0.16339009 -0.47922948
3 0.52585196 0.06504736 0.5234243 0.31116018 0.38147026 -0.55553544 -0.24840572 0.16635656 0.22283007 -0.39774528
5 0.42628282 0.023376457 0.4681693 0.34328094 0.3901441 -0.538315 -0.20832038 0.20390525 0.18536402 -0.44603693
