6 10
1 -0.32244262 0.35142064 0.041240342 -0.6016675 -0.21892528 -0.6963199 -0.40940124 0.32488456 0.25011238 0.058181457
0 -0.30433223 0.3517594 0.066564456 -0.6045423 -0.16125308 -0.7139374 -0.3973983 0.29522464 0.18665572 0.08922229
3 -0.32617176 0.32839212 0.034818668 -0.5952805 -0.20811427 -0.67637706 -0.39226443 0.31091648 0.18280496 0.06508725
2 -0.27604064 0.37852275 0.040891092 -0.5899358 -0.15768513 -0.6661305 -0.39151758 0.3319022 0.23590231 0.10608738
4 -0.28009972 0.3597149 -0.0066315904 -0.5923579 -0.18643016 -0.6742925 -0.36003336 0.281597 0.15588942 0.08151337
5 -0.24624425 0.34442845 0.06861926 -0.5985384 -0.16181177 -0.6408849 -0.38717437 0.24548385 0.22483829 0.1294807
