7 10
1 0.04324369 -0.7618263 0.374219 -0.6498719 -0.23202948 0.029813645 -0.10921942 0.13188106 -0.29945248 -0.32108542
0 0.0046808063 -0.74023217 0.43390343 -0.5620246 -0.25151122 0.0117755 -0.0973827 0.114159815 -0.37764722 -0.4210374
6 -0.0061429543 -0.71405566 0.4379127 -0.62995106 -0.23470536 -0.049162775 -0.038211413 0.14590093 -0.28490078 -0.3792628
3 0.0060873856 -0.695453 0.47010827 -0.6648347 -0.18633604 0.006257046 -0.11294116 0.13695706 -0.38564232 -0.37302306
5 -0.011814243 -0.71803635 0.42434174 -0.66032994 -0.18563052 -0.026002178 -0.11019017 0.10132439 -0.32434264 -0.36720398
2 0.05707957 -0.7369595 0.45012605 -0.57201624 -0.21430539 -0.05012873 -0.03642882 0.15842173 -0.34838715 -0.39990452
4 0.024877846 -0.7276613 0.44653454 -0.5625242 -0.20986582 -0.056071084 -0.095568575 0.07969809 -0.33458915 -0.3548078
