7 10
2 -0.119815834 -0.09195086 0.60420036 -0.4101833 -0.41281125 -0.5033218 -0.46140167 -0.08771778 -0.29990533 -0.3326979
5 -0.14922656 -0.09806963 0.6106767 -0.44757354 -0.4339541 -0.50173527 -0.41643634 -0.03868187 -0.28961334 -0.33227414
1 -0.11194164 -0.16803655 0.5909878 -0.45466375 -0.38066632 -0.47546202 -0.4725952 -0.0040341984 -0.3595308 -0.3119885
3 -0.14520338 -0.11204883 0.6068375 -0.39336002 -0.4473892 -0.46248952 -0.43674365 -0.12889937 -0.26412317 -0.3457367
0 -0.13368288 -0.14139813 0.59858346 -0.4405903 -0.38400525 -0.49818653 -0.4703427 -0.04881036 -0.34243393 -0.24587472
4 -0.13965744 -0.10918898 0.5377418 -0.46102506 -0.40370753 -0.46447125 -0.4823888 -0.05499522 -0.35141033 -0.32906637
6 -0.17126416 -0.120691456 0.5650127 -0.38541007 -0.4236307 -0.48037288 -0.42116445 -0.052310802 -0.27990693 -0.28501344
