4 10
2 -0.09948763 -0.52415746 0.37936682 0.07597432 -0.4745494 0.26605266 -0.13113603 -0.5495901 0.36349633 -0.008481572
0 -0.12505892 -0.5462301 0.41662553 0.07593397 -0.5099591 0.26633912 -0.1489296 -0.55090857 0.35988057 -0.04677068
1 -0.15965623 -0.5002332 0.38327464 -0.002060327 -0.47014365 0.245326 -0.1213773 -0.5418564 0.3875931 -1.3103767e-05
3 -0.059463527 -0.5195928 0.33795705 0.0060101063 -0.45355228 0.19691204 -0.10921643 -0.55097574 0.38394806 -0.03481366
