7 10
4 0.2598915 -0.9678652 -0.17795448 0.15795411 -0.22385292 0.0060609505 0.15038605 -0.13486698 0.4121339 -0.38405952
3 0.2102175 -0.95818114 -0.24856637 0.10318353 -0.30008072 -0.04678844 0.18645146 -0.120861866 0.38620186 -0.36767244
0 0.24702048 -0.98001015 -0.19732173 0.0859627 -0.20913243 -0.021349404 0.18209769 -0.13538364 0.4346849 -0.3709929
2 0.18310805 -0.9440034 -0.18656568 0.09722509 -0.27919924 0.0055131777 0.12517351 -0.1432566 0.44154236 -0.3630657
1 0.2414231 -0.8800368 -0.21441483 0.15373828 -0.24075948 -0.039910693 0.13489377 -0.062482733 0.41078332 -0.30931607
5 0.2650554 -0.87885267 -0.23417245 0.14602467 -0.28182885 0.021962028 0.19697084 -0.15243281 0.38075402 -0.38009796
6 0.23788507 -0.92109036 -0.25764853 0.1127216 -0.22057107 0.049331848 0.10487065 -0.07226398 0.36150238 -0.35909507
