7 10
0 -0.085759014 0.10343736 0.2791289 -0.5081645 0.5034847 0.0027328127 -0.43756753 0.22252354 -0.6141059 0.175562
3 -0.062043317 0.052694973 0.27895898 -0.53352624 0.48954722 -0.0540993 -0.5371593 0.270082 -0.63498855 0.13025436
2 -0.148278 0.11037077 0.29082674 -0.4791865 0.546094 -0.040592294 -0.5464512 0.2240537 -0.68741363 0.121281885
1 -0.10701639 0.061959848 0.23500729 -0.5404228 0.58226573 -0.04200499 -0.52102435 0.23392823 -0.5987736 0.17527717
4 -0.13553375 0.12495245 0.27897725 -0.5064033 0.51362085 0.011680666 -0.53426486 0.26152185 -0.6215613 0.087813236
5 -0.13537593 0.027055468 0.22109112 -0.55991805 0.50645375 0.010503827 -0.50665236 0.2572013 -0.63165635 0.09391653
6 -0.0491082 0.09018863 0.24780086 -0.54774624 0.5328681 0.004355067 -0.52213234 0.20759802 -0.6261674 0.10217027
