7 10
1 0.28254104 -0.81144816 -0.013215179 -0.72736347 0.06607722 -0.47906867 -0.75656885 1.0387359 0.2686217 0.1679134
4 0.23646674 -0.7998989 -0.047979284 -0.69923687 0.10177039 -0.44334957 -0.7682933 1.085427 0.27727988 0.1805167
3 0.70327824 -0.02624337 1.6460555 -1.1928465 0.9154698 -0.5534065 1.3869509 -0.50127405 0.53602135 0.22780232
6 0.62234855 0.018084696 1.693317 -1.2010311 0.9290734 -0.47150275 1.4191886 -0.43595126 0.5167966 0.27008945
2 0.246543 -0.8038542 0.03442425 -0.70182455 0.1325294 -0.4727111 -0.6890088 1.0181577 0.27095336 0.105549164
5 0.29192853 -0.72194684 0.025772411 -0.6616074 0.07573078 -0.43481514 -0.63101393 0.93662244 0.21013495 0.16544165
0 0.28250247 -0.71916467 -0.03296074 -0.6802098 0.12337814 -0.39709952 -0.67583835 0.9147139 0.20734668 0.104451105
