7 10
5 0.083359554 0.61059177 -0.40167692 -0.2558078 -0.19017331 0.087679595 -0.014194391 0.6424674 0.2007275 -0.51042914
6 0.07765285 0.62187654 -0.42932382 -0.27552962 -0.24479702 0.12711982 0.01753249 0.6691483 0.18318598 -0.4754053
4 0.13178681 0.5883577 -0.39639628 -0.24267212 -0.22750524 0.10242118 0.008129241 0.6248419 0.25731176 -0.5564113
0 0.13803203 0.5804059 -0.43278208 -0.29729968 -0.18952714 0.11619171 -0.061194073 0.6325781 0.22737297 -0.49766383
1 0.10652906 0.6141061 -0.41626105 -0.31345898 -0.20788227 0.055690072 -0.03176826 0.6340104 0.24686229 -0.5366754
3 0.107895724 0.5856873 -0.40531537 -0.2229252 -0.25205874 0.12999025 -0.036408655 0.64841783 0.21773025 -0.52820057
2 0.12353336 0.6029562 -0.3962206 -0.29666892 -0.18819194 0.07171039 -0.013492249 0.66514784 0.17458999 -0.5099151
