7 10
2 -0.21074916 0.06499532 -0.06844131 0.40211475 -0.28440636 -0.0063434797 0.059175484 0.97580695 -0.4913699 0.111033306
4 -0.20843425 0.00294831 -0.04795831 0.3687671 -0.2994249 0.049271874 0.108505994 0.92955893 -0.48706245 0.091815986
3 -0.24717905 0.054463003 -0.08860766 0.3999164 -0.3449857 -0.00058812596 0.1370398 0.9670303 -0.4383148 0.10158452
5 -0.20358905 0.056230962 -0.026500262 0.3998341 -0.33475572 0.061136477 0.108459465 0.9478106 -0.4180766 0.08092701
0 -0.20287605 0.019762734 -0.047066003 0.3693799 -0.35564238 0.0025967779 0.09400272 0.9571519 -0.42259467 0.07524071
1 -0.16784315 0.05628102 -0.06293771 0.3502063 -0.35189754 0.076646015 0.06173592 0.9221746 -0.48484418 0.051172882
6 -0.19600326 0.0011730581 -0.08188527 0.34955895 -0.32767028 0.041989356 0.11531452 0.9800053 -0.50388634 0.052018866
