5 10
4 0.06486067 0.007955675 -0.69388026 0.14542973 0.09672412 -0.74345905 -0.115937755 0.5151304 -0.024302058 0.2799176
2 -0.00034150603 0.09537075 -0.6680367 0.16190775 0.06798651 -0.69173557 -0.18814327 0.54267263 0.02029795 0.29572558
1 -0.0087918965 0.076693386 -0.66311926 0.18590765 0.1319139 -0.6625543 -0.14426082 0.5228278 -0.02160078 0.21688873
3 0.025494864 0.0040048715 -0.6855333 0.13955504 0.12368419 -0.7016415 -0.15703999 0.5445034 0.012813483 0.23755032
0 0.06936108 0.0068432232 -0.6164714 0.1784818 0.14054367 -0.73215246 -0.19419697 0.46225372 -0.03426729 0.2965613
