7 10
1 0.552193 -0.40223208 -0.6185341 -0.2713964 0.47214338 -0.26680717 -0.027347544 -0.32553753 0.44851735 0.11441078
4 0.5612605 -0.32914108 -0.6071662 -0.1799037 0.41938055 -0.18522926 -0.012709399 -0.26700875 0.5079863 0.12033387
3 0.5178691 -0.4264308 -0.5697114 -0.21227798 0.42067534 -0.21459185 -0.047629096 -0.35057107 0.4843822 0.09831107
5 0.5525219 -0.37361547 -0.5748601 -0.18935299 0.3992322 -0.22614256 -0.0019492349 -0.346651 0.4896908 0.1746676
2 0.5108972 -0.36904302 -0.5704257 -0.19537947 0.40902764 -0.23757175 -0.041566584 -0.33284438 0.4616144 0.17130934
0 0.5366523 -0.38313934 -0.57283795 -0.2141681 0.37514684 -0.23914613 -0.033727765 -0.29990992 0.47652087 0.16834268
6 0.5200446 -0.38134444 -0.5898429 -0.24783278 0.35855353 -0.22748163 -0.034989268 -0.31583673 0.4792292 0.15621957
