7 10
2 0.42463818 0.08298138 -0.11074299 -0.034312688 -0.41910183 0.77742314 -0.106856816 -0.14085901 0.73602027 0.04557462
5 0.40251967 0.09959069 -0.02424997 -0.057773016 -0.4025075 0.78872895 -0.108257435 -0.07430184 0.6523412 0.013027166
0 0.37124214 0.11199231 -0.004339425 -0.008236801 -0.39826378 0.7765876 -0.057590395 -0.065243684 0.7292323 -0.0014012471
1 0.44677132 0.14008349 -0.10346559 -0.003721204 -0.3765068 0.7491956 -0.13595636 -0.057879616 0.687197 0.022679575
6 0.4366692 0.12084504 -0.07461944 -0.035439737 -0.36288098 0.7432329 -0.08304699 -0.14684685 0.7223234 0.06273855
3 0.44986644 0.06773222 -0.10478388 -0.016623009 -0.41403368 0.73656327 -0.10767221 -0.14575121 0.70545024 -0.0252242
4 0.34150273 0.12213791 0.00041331034 0.013193511 -0.341224 0.77767354 -0.13469364 -0.15773645 0.65601474 0.036330283
