7 10
1 -0.46774223 -0.6232672 -0.010614272 0.66035324 -0.19051558 0.40216574 0.15188608 0.3429156 -0.23123878 0.18261778
0 -0.48430187 -0.63500607 -0.029561384 0.62587637 -0.23011991 0.36710957 0.12362938 0.33437467 -0.21047956 0.13089685
2 -0.50030017 -0.6303632 0.018985638 0.6360953 -0.19225556 0.36072296 0.1376124 0.30144542 -0.15970854 0.115348116
4 -0.5032052 -0.64035785 -0.038117073 0.64942545 -0.22832304 0.36770722 0.13882838 0.24631028 -0.18073143 0.15915228
3 -0.47571662 -0.6438763 0.042396877 0.596663 -0.20762652 0.33374062 0.18370071 0.3096566 -0.18127935 0.17928049
6 -0.43681824 -0.55046195 0.0283384 0.6380886 -0.2044339 0.33619925 0.14516789 0.24905135 -0.18716635 0.17271867
5 -0.48591268 -0.64005405 0.048292313 0.58660245 -0.23702991 0.32795444 0.19196077 0.28295106 -0.12837222 0.087077655
