7 10
6 0.09978893 -0.10647192 -0.23317538 -0.54211354 -0.38553742 0.548886 0.089897916 0.22822767 -0.168153 0.73331165
2 0.11797595 -0.077446945 -0.10649065 -0.49073496 -0.38609624 0.63432455 0.17691778 0.14693743 -0.12069675 0.69303304
5 0.16091537 -0.120104186 -0.11890629 -0.5257675 -0.42393267 0.6320236 0.1020893 0.17307778 -0.10630476 0.6621434
3 0.09326638 -0.07507623 -0.19965471 -0.54423815 -0.3873523 0.57380396 0.11175333 0.24310648 -0.16324195 0.6925296
4 0.073889464 -0.111430794 -0.18298326 -0.49316525 -0.36218914 0.6288879 0.19377919 0.24116151 -0.13619049 0.6844522
1 0.16542211 -0.07596104 -0.16693398 -0.48292312 -0.39611885 0.63822365 0.16436704 0.1925225 -0.17379703 0.6842767
0 0.14561984 -0.11691419 -0.14968847 -0.46420273 -0.3988334 0.6415178 0.19268705 0.2342501 -0.15368037 0.6363785
