7 10
4 -0.3143644 0.38262597 -0.82372016 0.27756327 0.12592378 0.49756655 -0.04294467 0.2605333 -0.1527894 0.3203927
5 -0.36089078 0.41186202 -0.75632626 0.2946197 0.15850158 0.52821946 -0.005498314 0.19095792 -0.14263067 0.31351373
1 -0.3300101 0.32189095 -0.7809651 0.29420584 0.15348543 0.5306542 -0.07783352 0.1791944 -0.22967343 0.32215825
2 -0.36434242 0.39324042 -0.7666514 0.26527366 0.09360904 0.5107328 -0.06566799 0.2504717 -0.16879326 0.35742983
3 -0.39242917 0.37449032 -0.7337626 0.21970138 0.08327615 0.4772294 -0.06540524 0.2374617 -0.20097211 0.33560467
0 -0.37004265 0.37795576 -0.7769792 0.2181688 0.1491927 0.47980222 -0.003335863 0.2730826 -0.1358498 0.3118568
6 -0.38801154 0.4058018 -0.76831776 0.20373207 0.09158666 0.43332464 -0.07310097 0.22739275 -0.22242238 0.37251028
