4 10
3 -0.51865417 -0.35528094 -0.27278623 0.12835889 -0.19569337 -0.24567837 -0.85193807 0.1602585 -0.11949113 -0.3734501
1 -0.43529734 -0.2761652 -0.23403642 0.15985496 -0.18774915 -0.22660871 -0.63502073 0.18110895 -0.0632587 -0.22527854
4 -0.42543238 -0.27449313 -0.20148095 0.13598236 -0.17347376 -0.17843026 -0.64798146 0.1603045 -0.12203595 -0.28445092
2 -0.37068838 -0.23758538 -0.20655285 0.11963775 -0.18963371 -0.14457956 -0.58451515 0.10051159 -0.036132902 -0.2090381
