7 10
6 -0.33790284 0.17084838 -0.3038218 0.14609593 0.25868335 0.72162867 0.056427386 -0.03402825 -0.0070935613 -0.6807798
2 -0.30423695 0.19237612 -0.2774517 0.13280307 0.18587826 0.76370335 0.08976801 -0.11006708 0.026646812 -0.70043755
1 -0.2906012 0.2170902 -0.24413982 0.062425476 0.25972193 0.7708345 0.0845824 -0.10687333 0.061912764 -0.7302952
5 -0.3377201 0.13258162 -0.2989997 0.09854454 0.29562825 0.7617846 0.075784735 -0.085195936 0.05272098 -0.6707355
4 -0.39183655 0.21653025 -0.27307835 0.1585217 0.25026697 0.7572472 0.040212408 -0.12121916 -0.008439671 -0.7230573
3 -0.3747256 0.16730434 -0.22890036 0.13587217 0.22817391 0.7325569 0.05852206 -0.059742544 0.008763417 -0.6852019
0 -0.3486584 0.21718663 -0.18629692 0.057216864 0.27440152 0.7156259 0.06528721 -0.07218814 -0.02054538 -0.68089473
