7 10
6 -0.6661766 -0.30213997 0.46826416 0.012185415 0.5426454 0.18747175 0.039822612 -0.4782852 -0.29610875 0.018103229
1 -0.59375775 -0.29762426 0.42282176 0.013548482 0.5595841 0.18236229 0.107217476 -0.56100893 -0.30713803 0.06691861
2 -0.67815924 -0.24080066 0.4790708 0.051321566 0.5359316 0.18440937 0.03829347 -0.56898344 -0.2725277 0.017224725
5 -0.6707532 -0.26088956 0.46305588 0.055687867 0.51803553 0.22179097 0.04886173 -0.546034 -0.2784869 0.051635504
3 -0.5945349 -0.2948471 0.47721097 0.07557389 0.4973821 0.15847698 0.036479264 -0.5395497 -0.343133 0.07955594
4 -0.6741412 -0.23137508 0.4547719 0.08648607 0.4829068 0.17927481 0.102746524 -0.5616206 -0.2572445 0.07138531
0 -0.66061574 -0.22667487 0.3967938 0.08394747 0.520913 0.19466488 0.014846395 -0.50267065 -0.33596188 -0.014699759
