6 10
1 0.0978153 -0.010746951 -0.074751176 -0.76029545 0.2358146 0.37402412 -0.39470905 -0.3170657 -0.5000921 0.47922277
0 0.12447671 0.003417252 -0.1229979 -0.737013 0.22936264 0.38435417 -0.40497172 -0.24038285 -0.4716705 0.52671266
3 0.102556035 0.044923674 -0.0973738 -0.74770325 0.26520866 0.3859029 -0.3542438 -0.31171116 -0.45338917 0.4323416
4 0.052549757 0.036505856 -0.15612386 -0.7260869 0.20364621 0.36342028 -0.37591684 -0.25030878 -0.47616747 0.46485922
2 0.12877335 0.015498444 -0.15153097 -0.7212855 0.15934667 0.3419086 -0.3347135 -0.26374862 -0.47313032 0.4513594
5 0.13510421 0.07358171 -0.14070356 -0.6941475 0.22903991 0.37484214 -0.30782613 -0.21294914 -0.5070654 0.4721395
