7 10
1 -0.26672843 0.034340076 0.19728994 0.2902795 -0.16339184 0.792475 -0.56286335 0.3694844 -0.2179152 -0.10333577
6 -0.220075 0.026736543 0.27616122 0.2712702 -0.25801995 0.78030187 -0.52683467 0.39178658 -0.21667065 -0.20492232
5 -0.25781026 -0.0178889 0.20926921 0.31847844 -0.20017387 0.7846 -0.59602135 0.368044 -0.16778632 -0.26946333
2 -0.2378029 0.059488226 0.16733155 0.25436473 -0.19564347 0.7934447 -0.5117968 0.36603647 -0.25704688 -0.08337929
3 -0.27528903 0.03604969 0.26379994 0.3089408 -0.20886984 0.80367875 -0.5292543 0.391 -0.2151136 -0.17658065
4 -0.2748347 0.011674128 0.22253697 0.23630755 -0.2557076 0.80219007 -0.5545055 0.3728908 -0.19790727 -0.08767427
0 -0.21986957 0.0813072 0.26014844 0.28031033 -0.2617297 0.7941303 -0.5718704 0.3509191 -0.20397931 -0.24705216
