7 10
6 -0.41928107 -0.615115 0.47159892 -0.33000454 0.2921013 -0.054577358 0.15480424 0.16775607 0.5224593 0.42506835
2 -0.3976543 -0.586677 0.46027583 -0.34229526 0.32786384 -0.016540604 0.18147725 0.19607244 0.5014696 0.3721256
3 -0.35423392 -0.6081058 0.38680136 -0.30191478 0.34119537 -0.09089701 0.17902108 0.16220947 0.49342042 0.4284883
0 -0.33576822 -0.56937575 0.43414572 -0.36097664 0.2916196 -0.08835698 0.16794848 0.20285994 0.5301957 0.4231615
4 -0.373679 -0.57019955 0.38556546 -0.3412809 0.33917084 -0.045257155 0.18847264 0.19854568 0.50980985 0.38914227
5 -0.3872616 -0.59694445 0.46290812 -0.38254124 0.34530917 -0.07449076 0.13513991 0.15225132 0.5163018 0.4329933
1 -0.3535872 -0.61576515 0.40414646 -0.30379742 0.31382313 -0.11735975 0.21255091 0.16022418 0.5137183 0.4344001
