6 10
0 -0.01595688 0.023234893 0.37210834 -0.21134874 0.1685218 0.72239465 0.3626122 0.57745224 -0.0467424 -0.56345403
2 -0.06428783 -0.008491855 0.3443166 -0.19168034 0.16924937 0.67072016 0.27758193 0.53123385 0.0012750234 -0.6090175
1 -0.08462117 -0.04081594 0.32686993 -0.25763455 0.18969771 0.7136922 0.32601848 0.52958417 0.0084740175 -0.54536295
3 -0.08594093 0.0049766884 0.34825304 -0.15741742 0.12925576 0.7098665 0.32567963 0.53556716 0.02598943 -0.5499982
5 -0.08798469 -0.037202097 0.3114372 -0.20983276 0.17960739 0.6838496 0.24527182 0.5536257 -0.06167043 -0.5731211
4 -0.028331198 -0.024254737 0.3828718 -0.25589177 0.20019905 0.699392 0.29734167 0.5091916 -0.054775227 -0.5796868
