7 10
4 0.2877189 0.19750382 0.75165206 -0.3548627 -0.1553804 -0.01627326 0.33075315 0.58650506 -0.22750695 -0.22719051
3 0.2967379 0.17947902 0.7096667 -0.33776927 -0.12094617 -0.058841802 0.36278698 0.6202217 -0.22190467 -0.21091911
5 0.33426023 0.2064619 0.71515775 -0.34611526 -0.14414918 -0.092222735 0.37206954 0.5987371 -0.28015903 -0.22826105
1 0.28757522 0.18956794 0.7373713 -0.28583258 -0.16056947 -0.06894716 0.36949822 0.6247399 -0.27917385 -0.20730355
6 0.30183485 0.2060839 0.721861 -0.2787401 -0.1277071 -0.08445253 0.34776703 0.6294023 -0.27935028 -0.19165891
0 0.28118676 0.2374822 0.72156036 -0.31107858 -0.20667392 -0.009852779 0.33693188 0.6394017 -0.24074169 -0.1523829
2 0.27903265 0.16017102 0.71839106 -0.30252752 -0.20354019 -0.050896794 0.36408448 0.61800873 -0.18799897 -0.23305325
