7 10
6 0.3747274 0.24726407 -0.30439356 0.31493247 -0.37992823 -0.20168328 -0.22812314 -0.4850171 0.44996098 -0.6490713
5 0.38177228 0.27650872 -0.20425583 0.32869756 -0.38250026 -0.21153401 -0.21584688 -0.4157232 0.46319124 -0.5824832
4 0.30375528 0.2993011 -0.25848544 0.33647594 -0.41672617 -0.21035184 -0.26492953 -0.43293622 0.48745602 -0.6238486
0 0.36605468 0.2972504 -0.22233394 0.35850027 -0.39511847 -0.16979049 -0.2549923 -0.4659736 0.48710856 -0.57142067
1 0.35985586 0.28492957 -0.25534296 0.2799463 -0.39668044 -0.17808062 -0.24583006 -0.43806574 0.45066017 -0.534707
3 0.3705336 0.22812544 -0.26171058 0.31267446 -0.43064326 -0.1833265 -0.2403408 -0.4150303 0.47418046 -0.5709676
2 0.3475295 0.22926362 -0.2065685 0.34852332 -0.4021702 -0.1670349 -0.2084111 -0.47371194 0.44213173 -0.5627291
