7 10
3 0.021688156 0.114150755 0.20196195 0.46898693 0.22001249 0.5482954 -0.33438677 0.081760265 0.78630394 -0.17569631
6 0.025690218 0.076035656 0.20348635 0.48893622 0.21837316 0.5465609 -0.37157 0.10986766 0.78465265 -0.16360211
0 0.024135282 0.04828412 0.26865795 0.45763472 0.18520966 0.540381 -0.35223967 0.15689379 0.7799842 -0.093806915
1 -0.030638138 0.109591015 0.18329398 0.46000397 0.17446868 0.58127666 -0.37176558 0.14172347 0.80634344 -0.19347544
2 0.030804373 0.12998998 0.27320895 0.4390615 0.14860731 0.57183045 -0.40783107 0.07297516 0.76826 -0.17397225
4 0.020764906 0.10270334 0.24007238 0.44213453 0.1969987 0.49725646 -0.40696684 0.16407444 0.7690314 -0.18509512
5 0.013445844 0.076799124 0.22942553 0.4523761 0.18199849 0.51814204 -0.41183937 0.10205097 0.78052425 -0.085681535
