6 10
1 -0.38881063 0.23576148 0.485747 0.33430114 0.59385926 -0.47935408 0.015545285 0.06300934 0.4546564 -0.12020851
5 -0.41425556 0.1995614 0.48202413 0.40011925 0.5469161 -0.39931944 -0.018837186 -0.008179154 0.4616943 -0.13131954
2 -0.36830088 0.27392867 0.52745336 0.44184858 0.5802944 -0.50137365 0.07572211 0.0859539 0.4840058 -0.16245836
6 -0.43987992 0.23113531 0.51447296 0.40986484 0.5950396 -0.43537012 0.05076498 0.008533319 0.47372705 -0.10551221
3 -0.41416103 0.20740317 0.45342833 0.4146192 0.554317 -0.48071566 0.0820274 0.07262413 0.47909567 -0.17796853
4 -0.40163988 0.24576934 0.53205746 0.3823611 0.5835988 -0.47174796 0.06781205 0.035083983 0.48052654 -0.16349962
