7 10
4 -0.47460645 0.043586787 0.5244901 0.40093976 -0.063454814 0.0724705 0.28185186 -0.031189203 -0.6080721 0.53851473
5 -0.48380852 0.11907153 0.49397907 0.36543453 -0.10003876 0.10137959 0.3103396 -0.087917544 -0.60964185 0.5375254
1 -0.4727891 0.044678137 0.547192 0.41777387 -0.10674229 0.07095026 0.24092391 -0.023493042 -0.59231955 0.52440256
3 -0.45763722 0.060225062 0.54257554 0.44119674 -0.044735722 0.075814016 0.29771128 -0.033091113 -0.5653606 0.524622
0 -0.41870883 0.041181665 0.5641685 0.44556195 -0.08833557 0.082609184 0.21484986 -0.061290924 -0.5469144 0.5533035
2 -0.40708733 0.09467766 0.51196706 0.4278605 -0.06233455 0.12029671 0.30760744 -0.07001486 -0.5804529 0.5014886
6 -0.43424705 0.07294425 0.56071365 0.41537926 -0.12560777 0.103895575 0.25831506 -0.10076782 -0.6185738 0.5407675
