6 10
1 -0.5081962 -0.18565129 -0.36990252 -0.32877672 0.07386811 0.060048006 -0.6599708 0.5752807 -0.18212634 -0.35198128
5 -0.5170174 -0.16509904 -0.42557183 -0.31760618 0.04688573 0.03701734 -0.6855469 0.55822974 -0.15252317 -0.34723282
2 -0.49108952 -0.1736216 -0.36171526 -0.3173435 0.102609254 0.09613725 -0.6666943 0.5743907 -0.09167632 -0.2857706
4 -0.5080068 -0.1762826 -0.35839456 -0.3206432 0.06625238 0.10031939 -0.61451083 0.60512227 -0.10457305 -0.2994943
3 -0.41305733 -0.17264783 -0.3887232 -0.32002792 0.097644836 0.044144236 -0.6413191 0.5904701 -0.15232742 -0.33077064
0 -0.4464435 -0.16930327 -0.37681687 -0.29388338 0.12131541 0.04373546 -0.57689124 0.53570056 -0.16385508 -0.33009928
