7 10
2 -0.2860886 0.5857774 0.2456173 0.36590892 0.13148911 0.33390075 0.36292082 0.76230514 0.14033896 -0.10624256
1 -0.32163432 0.5433253 0.29110897 0.34095916 0.117872186 0.32913214 0.31970245 0.8072282 0.17527318 -0.1359238
4 -0.3106752 0.5358586 0.24537279 0.31836355 0.18719293 0.29178777 0.3404419 0.766404 0.1798593 -0.104738854
3 -0.30987895 0.483444 0.24631622 0.2782262 0.18298677 0.27009782 0.36200836 0.78240466 0.1921554 -0.15231442
6 -0.27501807 0.48432025 0.24234252 0.36506233 0.20165274 0.35995665 0.33373562 0.7966064 0.10880658 -0.104977466
0 -0.27124646 0.546065 0.26437607 0.2986014 0.18876116 0.2890234 0.34190655 0.74637306 0.15494877 -0.14966999
5 -0.31887263 0.54076713 0.24750942 0.34855938 0.18509457 0.3044589 0.29797566 0.74932563 0.17461106 -0.15322983
