7 10
1 -0.33271223 0.38645387 0.69021684 0.13305674 -0.16742888 -0.1693167 -0.5769678 0.01361875 -0.18358454 0.5201969
4 -0.37872574 0.3422581 0.6960109 0.12933491 -0.13938253 -0.17470361 -0.55441254 0.006021623 -0.1107942 0.5431435
3 -0.38854167 0.38502157 0.6826526 0.18864603 -0.19333117 -0.16561824 -0.58106416 -0.04632862 -0.17864662 0.521362
0 -0.3484626 0.3856295 0.7176709 0.16975912 -0.15034626 -0.12935428 -0.60828024 -0.0039963885 -0.19101734 0.504156
5 -0.3458601 0.3645544 0.66710293 0.17462981 -0.13842317 -0.1409068 -0.53351516 -0.06244485 -0.13492088 0.5223303
2 -0.2977208 0.37889034 0.63057977 0.19362801 -0.17443466 -0.16625421 -0.53962266 -0.08024151 -0.13060586 0.5168078
6 -0.35015178 0.42363846 0.72347987 0.19586813 -0.1190947 -0.10774183 -0.5613013 -0.06683973 -0.11044719 0.4710869
