7 10
5 0.5571099 0.0022963542 0.7794462 -0.1918777 0.18827543 0.9151827 1.6470178 0.4564505 0.8546593 -0.367698
6 0.61880004 0.0014944222 0.80420154 -0.13132153 0.15225942 0.9214723 1.7524655 0.52434 0.836265 -0.30910414
3 -0.40994993 -0.5470261 -0.9590395 0.25906813 -0.5249731 -0.5519331 0.20157778 0.78990966 0.7308503 -0.5297196
4 -0.44303036 -0.52046007 -0.95497924 0.20619918 -0.48955774 -0.58316445 0.20333344 0.7762237 0.6730036 -0.51080877
0 -0.4581594 -0.56547534 -0.9332281 0.285973 -0.52606475 -0.584105 0.19059694 0.7948294 0.72364265 -0.4797462
1 -0.47307965 -0.57065314 -0.9852358 0.26806045 -0.45338148 -0.56461173 0.16126367 0.8204681 0.73612744 -0.5443816
2 -0.4148396 -0.4933663 -0.9851803 0.21449871 -0.5098585 -0.57309246 0.20203564 0.79965353 0.68578964 -0.4993959
