4 10
0 -0.5041129 0.15302172 -0.06282974 0.113172196 0.38522804 0.42396304 -0.40786132 -0.5762821 -0.40749404 0.0016075752
5 -0.44487152 0.12811127 -0.08744052 0.038065635 0.31792918 0.3428236 -0.31270564 -0.5047357 -0.3590022 -0.03437073
3 -0.46803436 0.08283778 -0.032919373 0.057389695 0.34083608 0.3956314 -0.3420487 -0.5619333 -0.3775525 0.031903706
4 -0.55007416 0.05992393 -0.11981989 0.12148089 0.40820456 0.4036035 -0.3934759 -0.627726 -0.43403143 0.047130626
