7 10
0 -0.18908308 0.3460079 -0.03578675 -0.7653185 -0.26915014 0.2041723 0.22550662 -0.06993579 0.61128646 -0.3261091
1 -0.22556399 0.36077762 -0.05372104 -0.79881924 -0.21439128 0.22079496 0.18988326 -0.018126752 0.59416014 -0.37269643
4 -0.23470822 0.31933454 -0.09628005 -0.7714693 -0.27970418 0.1417137 0.23448561 -0.009935375 0.59775627 -0.3056713
5 -0.2002135 0.3318355 -0.104006864 -0.77190566 -0.22271045 0.16063206 0.25952315 -0.061923135 0.60533077 -0.28935713
2 -0.22246109 0.35617277 -0.12016378 -0.7678545 -0.24647143 0.15027426 0.2166674 -0.029763835 0.6429517 -0.34132025
6 -0.19872092 0.29908273 -0.12534061 -0.71368897 -0.2668626 0.21139005 0.2217431 0.0067589474 0.626979 -0.34503433
3 -0.25361097 0.32193848 -0.06986604 -0.80182344 -0.22256736 0.23304099 0.22294647 -0.068974674 0.5749348 -0.36249104
