7 10
2 0.32062253 0.23652437 -0.21646784 -0.33085284 0.69312936 0.4307178 -0.2956924 0.38303387 0.23086561 -0.0060624164
4 0.36004433 0.31722993 -0.20932911 -0.29459828 0.7137624 0.4572745 -0.34901688 0.3704039 0.25569817 -0.029532943
1 0.31252226 0.29509726 -0.21824698 -0.36075845 0.7198804 0.42162535 -0.34331635 0.35318154 0.21884136 -0.02930857
5 0.2820381 0.27105576 -0.25674978 -0.31361273 0.749534 0.41901183 -0.34551716 0.38651672 0.17477018 0.0025461547
3 0.28389925 0.28915703 -0.20514967 -0.3391555 0.77156097 0.50384486 -0.28803983 0.37187368 0.19361988 -0.033141922
0 0.25106412 0.30802602 -0.19816034 -0.33732122 0.7196028 0.45981684 -0.28467017 0.37966368 0.1894429 -0.052967884
6 0.33724493 0.2699551 -0.26381466 -0.342993 0.7120303 0.44093382 -0.30189452 0.3424552 0.19689603 -0.02802842
