7 10
1 0.36436403 0.8179768 -0.014408108 -0.31884125 -0.057696093 0.49612722 0.34854913 -0.13351826 0.0782491 -0.3609839
2 0.35854805 0.76067865 -0.008883111 -0.33746713 -0.06099366 0.47718614 0.331497 -0.10839263 0.08534251 -0.39774233
5 0.3143531 0.8219931 -0.028241433 -0.28781584 -0.007850432 0.49157453 0.358354 -0.10515478 0.06657926 -0.37755418
3 0.3442939 0.8642007 -0.03160005 -0.33795205 -0.045053843 0.48034 0.35571983 -0.09023244 -0.0070993127 -0.3286875
4 0.33525902 0.8616747 0.026559196 -0.2972025 0.026461814 0.526858 0.27713153 -0.13127203 0.015364277 -0.3748918
0 0.3407777 0.7735519 0.009211711 -0.34350476 0.0089820605 0.46833995 0.3444533 -0.08495215 0.04825872 -0.38342553
6 0.34574738 0.82927495 0.034106355 -0.2983726 0.030208563 0.486091 0.28373906 -0.054111227 0.012608525 -0.39519712
