6 10
4 -0.10175374 -0.23656686 -0.35880372 0.25036484 0.16235198 -0.48511785 0.08182159 0.3377095 0.20916381 0.8485544
0 -0.16354948 -0.3660949 -0.32307243 0.2816999 0.08656084 -0.5318984 0.08382027 0.25339803 0.16617917 0.86049217
5 -0.095497586 -0.2572211 -0.34808734 0.29887477 0.14686841 -0.4680779 0.094184056 0.32492998 0.2009901 0.8220665
6 -0.11894353 -0.3273935 -0.37207934 0.30711165 0.09270964 -0.53541684 0.011581706 0.29044586 0.13818239 0.77770525
3 -0.1822214 -0.20346548 -0.36766052 0.22174658 0.16672297 -0.4501384 0.080787055 0.31428984 0.18710503 0.8125788
1 -0.11022667 -0.3602094 -0.37029222 0.27113065 0.034545112 -0.5573122 0.060458962 0.26391852 0.17456225 0.78526634
