6 10
0 -0.40628636 -0.43996292 0.34163186 -0.008096023 -0.5582086 -0.71186614 0.09971882 -0.024209635 0.09625143 0.2467205
3 -0.39972237 -0.48659626 0.3836194 -0.02364605 -0.49346602 -0.6647287 0.21094207 0.011098874 0.10824962 0.20338744
2 -0.44687805 -0.49184385 0.37108228 -0.09857524 -0.47750667 -0.63935184 0.23413749 -0.049713515 0.023580868 0.27336597
1 -0.43800226 -0.47418705 0.344481 -0.011551763 -0.48680452 -0.6481978 0.2235437 -0.05927014 0.11930353 0.27044785
5 -0.35804534 -0.44581172 0.2474359 -0.072905146 -0.6108587 -0.7897493 0.05701223 0.07525733 0.12798904 0.17969151
4 -0.4089668 -0.482367 0.31511953 -0.043849982 -0.6417042 -0.77748895 0.05233461 0.052887395 0.06317185 0.21845275
