7 10
5 0.0908099 0.49741834 0.39096367 -0.15529853 0.18421082 0.17899755 0.23268187 0.1267322 0.7979854 0.42506683
6 0.09204099 0.47534445 0.38181913 -0.13725358 0.15560994 0.253484 0.2222936 0.14678676 0.8023204 0.41058466
3 0.0509352 0.50678766 0.31758305 -0.12642649 0.16291 0.22751504 0.2547108 0.18063945 0.82003284 0.4494472
4 0.09329233 0.48216632 0.37306434 -0.16540444 0.1441857 0.22356838 0.22669509 0.099826835 0.7900601 0.46084988
1 0.06835353 0.48824394 0.3545806 -0.18028864 0.21301828 0.22791438 0.26277915 0.1382016 0.7856307 0.45779166
2 0.08541986 0.4852647 0.33889294 -0.1688939 0.172494 0.23737846 0.22412972 0.16001499 0.7787744 0.4658494
0 0.101940736 0.48604578 0.34454125 -0.11463937 0.17208391 0.18681397 0.20932065 0.121798195 0.8042347 0.41369545
