6 10
0 0.48991635 -0.10514949 -0.87120664 -0.058424074 0.1996702 0.3055038 0.5037809 -0.13539429 -0.14149038 0.11330128
3 0.42377594 -0.14408812 -0.8382198 -0.048993748 0.16020718 0.31183043 0.48773944 -0.19900237 -0.1808381 0.15923649
4 0.43857983 -0.15492865 -0.865386 -0.07214507 0.19436496 0.2701912 0.5140853 -0.1985202 -0.19614181 0.1656556
2 0.40257943 -0.082892485 -0.84361964 0.02108524 0.1933741 0.31644735 0.5070875 -0.11935373 -0.1853476 0.1494113
5 0.50223243 -0.113709934 -0.8406296 -0.0038893146 0.13800508 0.3167675 0.47625634 -0.1963468 -0.16026522 0.17253691
1 0.48486936 -0.15349784 -0.82117516 0.010330761 0.11594469 0.25803372 0.50532496 -0.18041949 -0.1965922 0.19195646
