7 10
2 0.10713276 0.461184 0.7013871 0.087704934 -0.26625812 -0.24657126 -0.279426 0.06470877 0.1635763 -0.6009653
0 0.1156588 0.49996138 0.7812722 0.007833311 -0.20246719 -0.32065377 -0.29202956 0.065726146 0.19586924 -0.5852888
6 0.08559249 0.44671026 0.6901108 0.07784518 -0.25867277 -0.26585042 -0.30579045 0.14031246 0.1708258 -0.58971334
4 0.10332339 0.48873097 0.7637076 0.011700886 -0.22041509 -0.22186163 -0.2793324 0.13474938 0.1112093 -0.6295474
5 0.1594793 0.43216562 0.69355166 0.065495625 -0.26681077 -0.20517083 -0.27814418 0.1641667 0.19192478 -0.5905417
3 0.15111434 0.410393 0.73658675 0.028207516 -0.24692555 -0.21381454 -0.30730128 0.15795518 0.14595383 -0.6029012
1 0.09888141 0.46962148 0.78943366 0.073483236 -0.19994162 -0.3050597 -0.3111424 0.18190965 0.14996238 -0.58443063
