5 10
1 0.54833937 0.6700912 -0.2938265 0.56775594 0.43562558 -0.38297102 0.2049943 -0.8030057 0.49913722 -0.9061427
2 0.5194619 0.64592475 -0.27145937 0.5492351 0.48642823 -0.38409293 0.12669085 -0.77487975 0.45838866 -0.89858353
3 0.56910586 0.6293739 -0.3357073 0.5510263 0.47178483 -0.36137596 0.1493892 -0.76962894 0.5228637 -0.9145729
5 1.3310363 -0.6463843 -0.40247586 -1.5081161 -0.38459054 0.027751397 -0.21480095 -0.23682012 0.9092689 0.1481246
0 1.4192005 -0.7004531 -0.43190178 -1.6057904 -0.3689027 0.10407061 -0.20175564 -0.20760368 0.91156214 0.093329534
