7 10
4 0.29873824 0.40519622 -0.45418078 -0.3682251 -0.12709607 -0.31256744 -0.021121288 0.30912873 0.51135767 0.6609031
2 0.3359751 0.34267935 -0.49879727 -0.3528889 -0.14615016 -0.33088648 -0.073302895 0.2468476 0.4834906 0.64061385
5 0.2491257 0.35043323 -0.46145663 -0.45346698 -0.15441506 -0.31623045 -0.0758521 0.1681489 0.4491942 0.73125947
1 0.20814735 0.3569998 -0.4105493 -0.42623815 -0.15721896 -0.372449 -0.101753175 0.1982074 0.44188404 0.723044
3 0.31487003 0.28038883 -0.50275195 -0.43717358 -0.14627405 -0.28874943 -0.10185883 0.2906007 0.48019996 0.61794055
0 0.1691605 0.38673905 -0.41102257 -0.4177702 -0.1195809 -0.33428293 -0.07547782 0.20256889 0.4791181 0.7145351
6 0.28416136 0.30616343 -0.51572865 -0.35099506 -0.13275589 -0.27466863 -0.053069796 0.27835217 0.41492763 0.6660131
