7 10
3 0.38992122 0.7000869 0.4534149 -0.034070026 -0.24429266 0.42006695 -0.14837494 -0.21135226 -0.54560226 -0.119575456
4 0.39910537 0.682658 0.4565853 -0.057387445 -0.2425843 0.40763608 -0.21215576 -0.18857543 -0.51137006 -0.1814125
5 0.30118734 0.65865695 0.52050513 -0.09593384 -0.28780738 0.41908357 -0.13603017 -0.24590057 -0.54287654 -0.13316132
1 0.2933102 0.60559964 0.48042658 -0.096805155 -0.293421 0.36464122 -0.18833889 -0.24602723 -0.57157075 -0.14320827
0 0.37770894 0.62306434 0.4914718 -0.043830004 -0.27898335 0.3901838 -0.21178915 -0.14595051 -0.53713405 -0.1784864
2 0.340813 0.6281112 0.48532224 -0.05151775 -0.2671796 0.4097973 -0.138078 -0.23875485 -0.54164606 -0.089370705
6 0.33340022 0.6479537 0.44885743 -0.07068384 -0.26849237 0.40897676 -0.1340734 -0.15948097 -0.5565003 -0.08942271
