7 10
4 -0.30959225 -0.31207055 -0.23569535 -0.055600163 0.4041557 -0.79475373 -0.3035469 0.016905505 0.52619535 0.025033649
3 -0.34577367 -0.30099872 -0.28955182 -0.06489513 0.36674404 -0.76018554 -0.32720664 0.027218748 0.53009826 0.043573763
6 -0.39004895 -0.3526362 -0.19814645 -0.024927855 0.37543252 -0.7641116 -0.30620393 -0.022643505 0.50012213 0.031138167
0 -0.3772887 -0.32248512 -0.28007004 -0.044149067 0.3565852 -0.78054214 -0.25380632 0.0476704 0.49848306 0.07716407
1 -0.37205708 -0.34691593 -0.24923211 -0.08173805 0.37400582 -0.7502421 -0.27439606 0.036879152 0.5103682 0.019739684
5 -0.3590322 -0.29814845 -0.272051 -0.028043726 0.36438608 -0.7827939 -0.3230213 -0.003653543 0.55259734 0.0068892166
2 -0.3767869 -0.3416173 -0.21094894 -0.06284825 0.35082626 -0.7823687 -0.32138515 -0.038600683 0.5355434 -0.0054658325
