7 10
2 0.25069484 -0.3366771 -0.55011576 0.319695 -0.28334934 0.41168368 -0.42705235 0.3944769 -0.3229559 0.12747158
1 0.36828107 -0.36452955 -0.53358746 0.42711288 -0.3525725 0.23237339 -0.4272223 0.31921172 -0.339697 0.10694862
4 0.49121165 -0.3474269 -0.58973044 0.47307065 -0.39236665 0.18749548 -0.5122539 0.2852065 -0.32320434 0.055852357
0 0.45559514 -0.31123585 -0.6500015 0.53016704 -0.44566903 0.13170235 -0.52783215 0.22964956 -0.32171685 0.0071972515
3 0.3958034 -0.3703509 -0.5999864 0.47873122 -0.39079463 0.17896874 -0.51801896 0.24741857 -0.33941856 0.059005044
6 0.24588479 -0.35317618 -0.5391064 0.40209907 -0.30101666 0.3430195 -0.44994137 0.34945112 -0.334274 0.046493467
5 0.33909944 -0.31648383 -0.5992564 0.45543358 -0.31686765 0.31683737 -0.45820957 0.30662605 -0.33682373 0.099892765
