7 10
4 0.0950275 -0.041197892 0.71452147 -0.23369122 0.0992183 -0.07356904 0.3113455 0.87492204 -0.08675131 -0.06758248
2 0.13083409 -0.075667866 0.7031406 -0.23870774 0.1402161 -0.072056375 0.36353424 0.8239832 -0.13850293 -0.11430002
3 0.045281865 -0.12051225 0.62651664 -0.23509492 0.18250315 -0.04665314 0.3475555 0.8339165 -0.06314474 -0.020581044
1 0.101679854 -0.08599208 0.6517597 -0.16831468 0.1604763 -0.02756913 0.3839338 0.803191 -0.07355149 -0.027628219
0 0.035700902 -0.13678493 0.62813896 -0.23176204 0.13360295 -0.073908664 0.36423236 0.8530057 -0.06844293 -0.031407475
5 0.02398932 -0.09207951 0.6747606 -0.25372684 0.099595904 -0.0990842 0.32916015 0.83172226 -0.07249015 -0.08215855
6 0.033170454 -0.10023642 0.6938379 -0.18144085 0.11247166 -0.060704086 0.36452714 0.79620826 -0.056476716 -0.051800713
