7 10
0 0.5310013 -0.17230068 -0.23386596 0.049512126 -0.004205412 -0.34848455 0.7570879 -0.5259178 0.15377954 0.06424223
6 0.5522556 -0.17006767 -0.21677296 0.04400618 -0.020495966 -0.32971314 0.7597707 -0.53909653 0.10521241 -0.0026352233
5 0.5502315 -0.23333092 -0.17251611 0.017726552 -0.06055053 -0.27337402 0.77597564 -0.54234475 0.1526818 0.06046159
1 0.5445651 -0.23071031 -0.22032951 -0.009279484 -0.071502686 -0.3058967 0.78083706 -0.57641125 0.12170067 0.044428572
2 0.47569788 -0.27364594 -0.20847227 -0.044498637 -0.019179165 -0.36367103 0.751885 -0.5424432 0.13145958 -0.029750895
4 0.565553 -0.19557622 -0.1836736 0.040922157 -0.0122677125 -0.32829255 0.7682598 -0.5802771 0.10187449 -0.024085455
3 0.564686 -0.16640158 -0.18492153 -0.024103235 -0.07869561 -0.37492222 0.7676239 -0.4734816 0.08488571 -0.0214972
