5 10
3 -0.032355614 0.62957495 -0.74350274 -0.5606784 -0.044141565 0.09993052 0.18184857 0.30266884 0.0539724 -0.00733143
4 -0.0299075 0.70418674 -0.8089641 -0.6135944 -0.054314207 0.1058549 0.21235283 0.27626705 0.14915699 -0.011032394
1 0.028376695 0.52206504 -0.6792615 -0.4807839 -0.052573834 0.041975114 0.12692839 0.28834352 0.08267421 0.043440104
2 -0.019744348 0.49630728 -0.7094525 -0.52396697 -0.1012764 0.02364877 0.19048096 0.25098416 0.105747126 0.039643526
0 -0.050654426 0.64426064 -0.7664203 -0.48240682 -0.09107737 0.12339316 0.23763357 0.31053674 0.14997222 0.06204556
