7 10
4 0.1681817 0.21361546 -0.106841 -0.49206236 0.24267083 -0.4242456 -0.54810804 0.5532818 0.04651645 0.36866987
3 0.14123444 0.21787892 -0.19700904 -0.45016512 0.27497923 -0.42797378 -0.60600334 0.5788321 0.06961786 0.3104019
6 0.17272457 0.22441597 -0.20834395 -0.50679344 0.25462353 -0.43812448 -0.5948655 0.6014966 0.07287255 0.32425883
1 0.12433579 0.22456166 -0.18066873 -0.46635807 0.26996464 -0.35405877 -0.61713725 0.5846907 0.013646072 0.3670584
5 0.12533388 0.1932929 -0.15614791 -0.5116511 0.27280626 -0.41667476 -0.6244555 0.5994337 0.07042131 0.32572
0 0.17168495 0.20159094 -0.13478486 -0.48656303 0.22882271 -0.4367166 -0.6535845 0.5940753 0.033175662 0.3234646
2 0.13758747 0.2287682 -0.18066259 -0.47248158 0.22026274 -0.38451785 -0.61231905 0.588684 0.08710511 0.34598497
