6 10
3 -0.25200278 0.71287316 1.0843849 -0.01077061 -0.39372027 0.6012369 0.08390351 0.59083843 -0.14049779 -0.81783676
2 -0.2562905 0.6877817 1.0516053 -0.094832525 -0.41210145 0.57591474 0.16188924 0.5809809 -0.21739066 -0.7855264
4 0.7879276 0.24707386 -0.42870355 0.31720027 0.066860214 -0.43780532 1.2519776 1.1145266 -1.8940808 0.34603187
1 0.7413743 0.14027151 -0.4431952 0.3339898 0.034086097 -0.5307842 1.1946135 1.0670704 -1.8227609 0.35362056
6 -0.23945095 0.68666226 1.1195875 -0.04581443 -0.4156114 0.60512346 0.13191769 0.6000808 -0.19182286 -0.80989546
5 -0.2587385 0.6891414 1.0872939 -0.014605964 -0.45251757 0.59341043 0.042224713 0.49857512 -0.16427985 -0.849633
