5 10
4 -0.32745516 -0.036340103 -0.46640772 0.20559096 0.5003123 0.16742457 0.47294694 0.026785905 -0.6193773 0.43250522
1 -0.3565147 -0.071965806 -0.45612055 0.16019304 0.4429395 0.20335944 0.44091332 0.038739186 -0.5549004 0.4696028
0 -0.26783046 -0.008897483 -0.3881829 0.1403015 0.4918755 0.16724361 0.51804924 0.06511246 -0.6097178 0.4130179
2 -0.32467866 -0.05683359 -0.4034684 0.19723776 0.51396376 0.1996646 0.53670496 0.038359325 -0.61367244 0.44392526
3 -0.34701735 -0.040571086 -0.4290834 0.13745047 0.4234451 0.21925236 0.5009137 0.08288305 -0.583446 0.41446397
