6 10
1 0.4009048 0.4935279 -0.6408233 -0.16898644 0.16820827 0.6401989 -0.17665038 -0.21937309 0.21146 -0.17949541
4 0.3879564 0.5217082 -0.59947395 -0.1316067 0.16578512 0.6406463 -0.18428482 -0.19921578 0.20003651 -0.14419684
0 0.3020559 0.51414335 -0.58815205 -0.16802111 0.11834118 0.58666104 -0.19258568 -0.17007379 0.18938057 -0.15749738
3 0.3342312 0.5121734 -0.5739718 -0.18822035 0.20883441 0.6528818 -0.17977 -0.15742575 0.2566929 -0.1827321
6 0.3930263 0.46555546 -0.6374027 -0.18128555 0.14409006 0.6808204 -0.18721569 -0.14247248 0.2015099 -0.20501232
5 0.39305332 0.5068084 -0.6494961 -0.19689016 0.18007904 0.6464677 -0.20830092 -0.14714754 0.23993286 -0.1879518
