6 10
1 -0.57912105 0.4836486 0.37279773 -0.34644148 0.2294043 0.26423094 0.0966767 -0.33097833 -0.5214868 -0.18203902
2 -0.53894955 0.45860207 0.34849605 -0.2772199 0.17936666 0.29887983 0.07359133 -0.34893587 -0.49951845 -0.16220476
3 -0.5449674 0.48150745 0.3229004 -0.29966447 0.24468108 0.33590746 0.1021397 -0.32369736 -0.46855038 -0.092642285
6 -0.5618297 0.4737447 0.2990573 -0.30299872 0.1760748 0.29546377 0.13175537 -0.38202497 -0.536548 -0.105864815
0 -0.5900743 0.44958326 0.31419736 -0.28612468 0.20282768 0.2730106 0.13273717 -0.38215092 -0.519846 -0.1473123
5 -0.511125 0.41334057 0.3437197 -0.27168322 0.23205449 0.3324819 0.035619527 -0.37734532 -0.51926064 -0.09507999
