7 10
0 -0.44360936 0.08471502 -0.29401755 0.6399676 -0.019255102 -0.5160444 0.07961178 0.26800948 0.041797206 -0.6375551
4 -0.5101114 0.11577503 -0.29780313 0.60809517 -0.08714252 -0.51097685 0.15571566 0.33628303 -0.041053243 -0.5592271
5 -0.46003935 0.12414865 -0.2930233 0.63151157 -0.060479302 -0.48599204 0.16934682 0.29691908 -0.006039803 -0.53648657
2 -0.51128894 0.076876424 -0.28031543 0.64413077 -0.030338023 -0.5114031 0.16132803 0.29557607 -0.050016806 -0.60199904
1 -0.47927856 0.11939665 -0.21380922 0.60159266 -0.08752886 -0.40672883 0.14575933 0.3282433 0.023247385 -0.5802017
3 -0.57229507 0.06931405 -0.31887648 0.6397152 -0.005242187 -0.510348 0.09623996 0.38338873 -0.0359414 -0.6053693
6 -0.46254987 0.11404587 -0.2932624 0.59572285 0.017245045 -0.49867097 0.09004663 0.27139828 -0.021147043 -0.56983453
