6 10
4 0.5373371 -0.038784847 0.03328486 -0.5969745 0.5012779 0.13719761 -0.3222822 0.46892318 0.31968173 -0.09536447
1 0.575417 0.019301865 0.004531249 -0.6137975 0.5868989 0.12421348 -0.25584117 0.45197466 0.24624641 -0.03364688
3 0.55537266 0.010252579 0.017457467 -0.5889154 0.5199751 0.10335 -0.33450642 0.4742004 0.28186312 -0.05253074
2 0.5364304 -0.044314276 -0.051649887 -0.5727427 0.54376686 0.081258826 -0.31845385 0.48895255 0.2917032 -0.026378816
0 0.5884239 0.02757005 -0.048880246 -0.6287944 0.5081934 0.05154823 -0.32297918 0.45440525 0.27311742 -0.074771054
5 0.48322797 0.0093363235 0.048149575 -0.5680341 0.49583992 0.050406504 -0.30286184 0.41917264 0.26112452 -0.010993393
