7 10
0 -0.41662416 -0.42626986 0.22042976 0.72548556 -0.16090143 -0.06572503 0.15777406 0.46457767 -0.38845944 -0.12808627
2 -0.4158606 -0.4037292 0.23851895 0.77547926 -0.05059208 0.024651855 0.19819236 0.45534503 -0.38651538 -0.16631693
3 -0.39332524 -0.38364983 0.21002579 0.7895859 -0.071401596 -0.032714806 0.16709337 0.445028 -0.3901984 -0.18063277
4 -0.39678374 -0.44021192 0.23409727 0.7623708 -0.10918269 -0.03663574 0.18358736 0.45713517 -0.42219108 -0.14702877
5 -0.4454416 -0.43953353 0.17599718 0.82256854 -0.15005922 0.020232858 0.21221583 0.46976808 -0.40342784 -0.17538317
1 -0.43321502 -0.3831569 0.18138939 0.7567299 -0.09175976 -0.052032396 0.21331775 0.46097913 -0.43484023 -0.18934476
6 -0.45312542 -0.3787154 0.16629522 0.7181705 -0.15213768 -0.041782256 0.16253972 0.47656813 -0.32939798 -0.18617585
