7 10
6 0.07247151 0.030346712 -0.5528424 -0.5096249 0.31874037 0.51230925 -0.08150423 0.2540287 -0.48753935 -0.3700574
4 0.0067539993 -0.006355248 -0.58960503 -0.5008013 0.27438015 0.5219876 -0.086551465 0.23342036 -0.49914604 -0.39914963
1 0.04354542 -0.054399576 -0.61303794 -0.48887503 0.29238042 0.5222961 -0.078027025 0.2426457 -0.48581555 -0.35979074
5 0.060544 -0.024567401 -0.5867377 -0.4893028 0.32611802 0.47796988 -0.02156997 0.17747284 -0.46853486 -0.3925493
0 0.076617636 0.021474957 -0.57201946 -0.46702728 0.28818342 0.54940975 -0.013299904 0.24722208 -0.46576247 -0.39511883
3 -0.0022785221 -0.01889253 -0.61506927 -0.4462693 0.3088422 0.55919665 -0.059298377 0.20681667 -0.49312943 -0.35081038
2 0.067789726 -0.05481821 -0.6436439 -0.48940176 0.31762603 0.47873986 0.00012474057 0.18053131 -0.52363163 -0.41198918
