6 10
0 -0.5309653 -0.4378762 -1.13064 -0.7727228 0.07835167 0.41270253 -1.2102584 -0.080055624 -0.29921764 0.4352069
1 -0.26664275 -0.891221 0.8681665 -0.04753193 -0.82910323 1.1801386 -0.06825622 1.2836876 -0.14645453 -0.43809497
2 -0.20132232 -0.90181196 0.880052 -0.06931949 -0.8622565 1.2479936 -0.10075422 1.3075079 -0.08672122 -0.46141002
3 -0.40154472 -0.37529525 -1.0567334 -0.68516475 0.15042573 0.38170373 -1.1240466 -0.15749566 -0.20891477 0.36416933
5 -0.4159273 -0.41462612 -1.0554539 -0.68251795 0.13037091 0.35759774 -1.0499287 -0.07490334 -0.22335552 0.41896495
4 -0.455958 -0.39208984 -0.9928925 -0.6682239 0.136895 0.3302582 -1.0390666 -0.1295956 -0.22288767 0.34659445
