6 10
1 0.67082393 -0.30842602 0.5776158 -0.04104286 0.13191836 -0.64557314 0.09897536 0.051113196 -0.15381303 -0.045196675
2 0.61694795 -0.3333465 0.5798525 0.08174509 0.23160209 -0.76068455 0.09116712 -0.06889991 -0.19311054 0.07297441
5 0.6227974 -0.2635803 0.557688 0.07931195 0.22327611 -0.701007 0.08164042 -0.06838185 -0.1429999 0.02458748
6 0.59374803 -0.30786714 0.5619497 0.044407304 0.24140796 -0.69657916 0.10224681 -0.033731427 -0.19118933 0.060562413
4 0.62506366 -0.24995863 0.5312716 -0.0042581907 0.22154498 -0.73059124 0.14605154 0.026527664 -0.1633638 -0.027594274
3 0.6624569 -0.24291521 0.5008039 0.03274296 0.15380578 -0.702058 0.15683575 -0.035722245 -0.15009592 -0.025107168
