7 10
2 -0.17922391 -0.39607564 0.6667071 -0.16385455 -0.5997131 0.021616064 0.5557493 0.07743199 -0.110532194 -0.10027096
0 -0.23481093 -0.3618461 0.6872919 -0.09779751 -0.6006062 0.0092668105 0.5564473 0.026428647 -0.07530949 -0.13232839
4 -0.20164159 -0.41975653 0.66410524 -0.14800178 -0.55020887 -0.009740423 0.55012375 0.08953318 -0.020189634 -0.09593091
5 -0.18031871 -0.36437804 0.68085957 -0.12676649 -0.6643403 -0.033286877 0.6104274 0.03946117 -0.06659297 -0.07866133
3 -0.24422295 -0.41563442 0.6623198 -0.15366744 -0.5980512 0.05781221 0.5151256 0.0033755421 -0.06525471 -0.14646932
6 -0.2468917 -0.38267252 0.7175577 -0.091775194 -0.59394985 0.017052656 0.580834 0.068135865 -0.08927413 -0.08243752
1 -0.17030668 -0.4462332 0.6781088 -0.18523346 -0.5917243 -0.04866169 0.5600743 0.012098954 -0.09212581 -0.11453191
