7 10
6 0.359088 0.12962386 -0.5650212 0.44967377 0.24561007 -0.4011984 0.35493994 0.41906118 -0.20945017 -0.5054144
0 0.35149527 0.09072738 -0.5442586 0.38830444 0.2579585 -0.37194943 0.41082928 0.40552044 -0.21987738 -0.5068872
4 0.3231447 0.04419245 -0.50877213 0.47441468 0.28301984 -0.36004126 0.3692203 0.39613426 -0.20811394 -0.53088087
3 0.34531027 0.05808705 -0.50977904 0.49420175 0.24749 -0.32037428 0.4054168 0.3696394 -0.2016943 -0.50716496
2 0.3334707 0.05434209 -0.5574933 0.4875554 0.30163714 -0.31872982 0.3607541 0.3752381 -0.14449981 -0.49951434
5 0.31166744 0.08371964 -0.56794775 0.48893455 0.26545608 -0.3095161 0.3856079 0.38077733 -0.23600142 -0.46521577
1 0.31101102 0.11959306 -0.52135247 0.48227197 0.29034117 -0.38682032 0.38357723 0.34535494 -0.19752522 -0.51024455
