7 10
5 0.6549924 -0.63454276 -0.4780111 -0.17070766 0.037006866 -0.36898774 -0.1438076 0.16981673 0.007149016 -0.47491208
0 0.6836484 -0.57300144 -0.49615636 -0.14128715 -0.040173896 -0.35861772 -0.07887777 0.13630633 -0.0068478757 -0.45625407
3 0.63629735 -0.60392416 -0.49692792 -0.1808723 -0.024541853 -0.3138401 -0.14121054 0.13363817 0.015789388 -0.38237712
2 0.66901773 -0.5852753 -0.47476614 -0.19051874 0.035632208 -0.3321632 -0.04044115 0.18212195 -0.0583297 -0.38882115
1 0.60336053 -0.6188531 -0.52779275 -0.16800143 0.0373554 -0.2906292 -0.0805906 0.23002435 -0.09014953 -0.44091046
4 0.67848474 -0.62762314 -0.4530483 -0.10849621 0.05168845 -0.28350207 -0.11382142 0.16643885 -0.051478017 -0.38907757
6 0.6261019 -0.5105608 -0.4860306 -0.13435604 -0.010774045 -0.35020432 -0.10574056 0.20809105 -0.037346974 -0.42334092
