7 10
4 0.14614585 -0.1460225 0.1190809 0.43122077 0.23911585 0.53486395 -0.5816235 0.37046218 -0.5019421 -0.31262273
1 0.1786816 -0.1950651 0.20523727 0.41474915 0.21767764 0.45658308 -0.54022527 0.4118629 -0.51772696 -0.26304755
2 0.12464324 -0.21413971 0.17831106 0.3838714 0.16109633 0.5249235 -0.46245533 0.37169844 -0.50270087 -0.32552502
0 0.19062592 -0.19281459 0.15423915 0.41849276 0.23601821 0.5579932 -0.5709927 0.35372898 -0.48598567 -0.27936375
3 0.12531982 -0.21097553 0.12757027 0.4019697 0.21265048 0.5500383 -0.5466576 0.3909572 -0.5264623 -0.33459032
5 0.11985411 -0.1431845 0.21074133 0.44329506 0.19728927 0.5026269 -0.5526018 0.39234337 -0.46494508 -0.31886014
6 0.17772165 -0.17090502 0.20535855 0.41335306 0.18139412 0.5330235 -0.5774969 0.37815672 -0.51345384 -0.31691653
