7 10
4 -0.360199 0.09359496 -0.3022398 0.7665889 -0.59984624 -0.027945606 -0.19051102 -0.31552956 0.3396183 -0.1921988
5 -0.36102706 0.11130134 -0.29105443 0.79527146 -0.5309039 0.047207564 -0.18736069 -0.3169656 0.30881715 -0.2241503
6 -0.31993818 0.10434914 -0.2856839 0.7282921 -0.63654584 -0.030096784 -0.2588579 -0.27842748 0.32807204 -0.22175774
3 -0.34676945 0.11773026 -0.2990044 0.76605976 -0.56883043 -0.04505559 -0.23255233 -0.27173105 0.34531882 -0.22154586
1 -0.38607976 0.059941005 -0.21169347 0.7741628 -0.59228724 -0.013898185 -0.26360345 -0.32044357 0.33529344 -0.13257088
2 -0.3763172 0.032994986 -0.22260411 0.7624549 -0.57435995 0.024525939 -0.2633594 -0.28354073 0.358585 -0.1414301
0 -0.37306634 0.07269976 -0.258662 0.7868268 -0.59071076 0.04451548 -0.20510624 -0.260884 0.28479663 -0.18053971
