7 10
6 -0.44841647 0.107446484 0.5498803 0.10435003 -0.6580249 -0.26703984 -0.12411867 0.11214987 0.5725574 -0.045696378
5 -0.45250225 0.14522624 0.54820746 0.13849586 -0.62257946 -0.32809255 -0.059904248 0.11505339 0.54888827 -0.025106499
2 -0.40891662 0.06327544 0.55208105 0.13045456 -0.6703993 -0.32139668 -0.11862605 0.15004928 0.5973301 -0.06624021
1 -0.42220572 0.13713734 0.55530125 0.13936038 -0.6632491 -0.3311267 -0.060461707 0.11656307 0.5770295 -0.014566399
3 -0.42241803 0.15542492 0.50157255 0.08538139 -0.6525656 -0.34625882 -0.10968878 0.12843361 0.59256864 -0.024500385
4 -0.40741298 0.14625745 0.49457425 0.14862981 -0.6661128 -0.31569076 -0.100542486 0.08974184 0.5872932 0.0030366129
0 -0.43855622 0.06853032 0.50330836 0.114071555 -0.67882663 -0.31813404 -0.11508949 0.12998295 0.55826634 0.013415674
