5 10
0 -0.38346258 0.18157683 -0.76853967 0.037662465 0.09624764 -0.54454577 0.2547671 0.007622932 0.17979795 -0.52758306
1 -0.41987038 0.16255175 -0.7972451 -0.0028416724 0.16354346 -0.5796003 0.22004084 0.00409471 0.13567846 -0.4997614
4 -0.4004945 0.13677542 -0.7954551 0.05794536 0.11164561 -0.5475873 0.25312546 -0.0046448545 0.15011048 -0.5072764
2 -0.3726556 0.0931414 -0.74369353 0.0638422 0.16133839 -0.53245795 0.2800889 -0.021622473 0.16834086 -0.51039773
3 -0.35344943 0.1732404 -0.7688526 0.0050978838 0.1844215 -0.5707981 0.24337244 -0.0656976 0.1399316 -0.5325481
