7 10
0 -0.04627568 -0.0272405 0.103757 -0.60578865 0.60139525 -0.19711609 0.3835611 -0.51263547 -0.34959587 0.3678066
4 -0.053545553 0.043126192 0.11014465 -0.59679335 0.56229466 -0.23264633 0.3166343 -0.47967193 -0.37828487 0.40120846
5 -0.05225027 0.05414321 0.104233414 -0.6109948 0.6022245 -0.24647877 0.3715104 -0.5109305 -0.3793583 0.40806904
2 -0.07030004 0.0041859397 0.064578496 -0.6165941 0.5617898 -0.19570762 0.36480063 -0.51521516 -0.43070027 0.34579563
6 -0.07647838 -0.025306825 0.09502165 -0.5929719 0.5632079 -0.20824684 0.37225503 -0.49414122 -0.35674784 0.3706317
3 -0.008771153 0.013194778 0.10890611 -0.61647063 0.60563093 -0.17955685 0.36691192 -0.4552255 -0.41154963 0.3313938
1 -0.0429361 -0.02649687 0.07036623 -0.5935157 0.5492508 -0.21889293 0.3900008 -0.48612276 -0.33657214 0.40354985
