7 10
3 -0.36143422 -0.112724364 0.879947 0.5720643 -0.026712187 0.018281883 -0.10338946 -0.102311514 0.19480239 -0.23675683
4 -0.38611394 -0.0709522 0.8792022 0.59328806 0.040221795 -0.059819344 -0.032229017 -0.12972368 0.11186351 -0.23804595
6 -0.34610787 -0.075070165 0.91035694 0.6036739 -0.008028828 0.012570875 -0.073866785 -0.0699598 0.19688073 -0.18499456
5 -0.33055165 -0.12076546 0.8857317 0.60789305 0.04992998 -0.052004036 -0.037231456 -0.0963306 0.1848922 -0.2223624
2 -0.39934346 -0.038791552 0.9041987 0.5455904 -0.031258833 -0.058965273 -0.06310672 -0.09217683 0.21283485 -0.17786127
1 -0.3694329 -0.0891351 0.87407506 0.6113771 0.025430555 -0.011789834 -0.08066902 -0.044790193 0.12821317 -0.24764837
0 -0.3735795 -0.10907805 0.8711914 0.6370282 -0.05358449 -0.05589688 -0.0649784 -0.120864846 0.18929364 -0.15775381
