7 10
0 -0.122450545 0.296187 0.16687548 0.0275993 -0.50480455 -0.021062642 -0.43796608 0.091192424 -0.7501202 0.47251737
3 -0.106206335 0.37905592 0.14354396 0.07784948 -0.47992498 -0.07184883 -0.42082098 0.08215035 -0.7550244 0.42339528
2 -0.13026407 0.35192436 0.081477575 0.058246475 -0.5084302 -0.05573051 -0.41960377 0.1223518 -0.7128346 0.47345188
1 -0.084738515 0.35447562 0.10618552 0.093454055 -0.5061091 -0.030115033 -0.3720537 0.1012419 -0.7088578 0.4717946
4 -0.16035855 0.3060526 0.11297864 0.10908525 -0.4417983 -0.02210555 -0.43053886 0.08200196 -0.7556112 0.48659936
6 -0.11219866 0.35764888 0.06630882 0.06284175 -0.4789235 -0.031013273 -0.4525922 0.08234965 -0.75266564 0.403784
5 -0.10002104 0.3629386 0.13514802 0.054618202 -0.51208603 0.0066513647 -0.4331859 0.06279452 -0.7173977 0.43063468
