6 10
4 -0.30427155 0.15309739 -0.50366986 -0.46986747 0.15226285 -0.511276 0.06958232 -0.032519944 0.67907035 0.3301176
0 -0.32011294 0.04754792 -0.5274146 -0.40404633 0.09421241 -0.47747123 0.17168786 -0.028716091 0.68306565 0.2766538
2 -0.27925712 0.071603954 -0.51672757 -0.4734035 0.08637026 -0.52763075 0.112305164 0.03518443 0.6180886 0.34131303
1 -0.29469544 0.07537717 -0.5409942 -0.44085816 0.06649464 -0.50395405 0.10820173 0.005103137 0.64367783 0.323631
3 -0.29252636 0.120943494 -0.5144479 -0.42375365 0.12653576 -0.4578986 0.13933025 0.037974197 0.726928 0.37822753
5 -0.26841557 0.07151629 -0.51206434 -0.45089564 0.1309295 -0.46954727 0.1540474 -0.0061592185 0.6148512 0.24916866
