6 10
2 -0.5618779 0.11407762 -0.007818583 -0.20949812 -0.015284322 0.41000924 0.4117695 -0.25037366 0.53183293 -0.5570745
3 -0.51780355 0.13761914 -0.0055235103 -0.24988204 -0.039203424 0.3667183 0.44107908 -0.23984502 0.517755 -0.5683083
0 -0.53834873 0.1697582 0.03642781 -0.18503316 0.013052139 0.3595385 0.4133465 -0.20513675 0.54765946 -0.5805782
4 -0.56413335 0.14841348 0.023670085 -0.23917773 -0.07818829 0.42415953 0.41412267 -0.27696553 0.56468153 -0.55742645
5 -0.5682055 0.0967258 -0.0016306405 -0.2168365 -0.028971879 0.39547014 0.40347403 -0.28766963 0.5450546 -0.60870576
1 -0.5338724 0.12792571 0.03402037 -0.17460643 -0.057772014 0.3690054 0.40546894 -0.28565294 0.5024439 -0.53386825
