7 10
4 0.5680675 0.27666852 -0.09367388 -0.1011935 -0.5751365 -0.47826156 -0.36147332 0.18369576 -0.045679424 -0.47885168
2 0.5474983 0.24458952 -0.08137842 -0.116779014 -0.55636346 -0.47772288 -0.3681126 0.16186817 -0.09901334 -0.5080775
3 0.586379 0.27151954 -0.042696826 -0.17923687 -0.6069474 -0.4869211 -0.30468854 0.20513089 -0.15490896 -0.4950207
1 0.5733416 0.27709457 -0.06060342 -0.14429227 -0.55986303 -0.5175026 -0.38228217 0.123201095 -0.088723585 -0.46993798
0 0.5390159 0.29215592 -0.056654118 -0.10421576 -0.60024136 -0.5055258 -0.30308512 0.1720486 -0.120367475 -0.53174263
5 0.59374785 0.27620605 -0.009245668 -0.12118213 -0.5384021 -0.5197297 -0.39933336 0.23087625 -0.097094655 -0.54713964
6 0.5711874 0.3254359 -0.01933512 -0.07879257 -0.57599527 -0.4678323 -0.36357898 0.16630468 -0.11615214 -0.49486125
