4 10
3 0.14693512 -0.29122818 0.06412366 -0.8421889 -0.17738979 0.37070698 -0.11454574 -0.32688817 -0.24286166 0.06755092
5 0.116256796 -0.28809875 0.12487696 -0.84786147 -0.2470046 0.37897298 -0.12518016 -0.34236386 -0.24220875 0.013926829
0 0.09502098 -0.25951588 0.08560583 -0.79214805 -0.22550306 0.39334056 -0.14182773 -0.28958344 -0.21614276 0.041185845
4 0.09772802 -0.27172992 0.13287021 -0.8600694 -0.26616117 0.40617025 -0.11993279 -0.34412867 -0.2573605 0.06792438
