6 10
4 0.23077533 -0.16163363 0.91556686 -0.24393907 -0.17578495 0.14780073 0.09420645 0.11447381 -0.33135992 -0.5026116
2 0.27708316 -0.10852754 0.89711463 -0.3023263 -0.250714 0.18997419 0.16083862 0.21258967 -0.27938208 -0.53834754
3 0.30753213 -0.10231905 0.8948569 -0.30199334 -0.23405239 0.115532145 0.10711526 0.21037114 -0.23823988 -0.53009915
0 0.22436993 -0.1458544 0.9034188 -0.27323166 -0.2306555 0.13954522 0.09156841 0.19321272 -0.2670365 -0.51182836
1 0.24320158 -0.08977521 0.86585695 -0.21443015 -0.17459641 0.1870544 0.17262807 0.12342074 -0.31661475 -0.4957746
5 0.19777904 -0.11430143 0.8820196 -0.23177046 -0.25166708 0.124244496 0.17076147 0.13401192 -0.3280494 -0.51363343
