7 10
0 -0.88624454 0.26645365 -0.009475736 0.3054012 -0.23571384 0.16748069 0.10961771 0.19200586 0.040181696 0.55666304
4 -0.9098776 0.29610044 0.032497104 0.22916353 -0.30116785 0.21224444 0.10773215 0.11724468 -0.01848413 0.5036811
2 -0.89238846 0.19249496 -0.054604236 0.35114804 -0.26883432 0.21783261 0.043498084 0.17265259 -0.023756169 0.5363345
1 -0.90340286 0.23485953 -0.05591345 0.31588683 -0.31071457 0.20704202 0.08067633 0.17308484 -0.04301136 0.48634118
3 -0.90825576 0.30963027 -0.0045094215 0.25335464 -0.25972912 0.21524033 0.1424414 0.17402127 0.020489994 0.53665805
5 -0.88731706 0.30194202 -0.047778063 0.28607795 -0.29091135 0.20191412 0.13372083 0.11557357 -0.010673003 0.539438
6 -0.8665485 0.317302 -0.030008253 0.3257368 -0.3203154 0.24161199 0.14157067 0.1010694 0.04545645 0.48186332
