7 10
2 0.17952794 0.37098268 -0.6975954 -0.019166926 -0.27809107 -0.7041909 0.31940666 -0.5471213 0.114828534 -0.13810748
1 0.16910791 0.26343834 -0.51706743 -0.17824505 -0.049060147 -0.43610913 0.4189626 -0.6557216 0.17571613 -0.41763395
4 0.18768163 0.29513708 -0.47147807 -0.29102913 0.073844686 -0.32919353 0.4747644 -0.66435945 0.25479627 -0.509253
3 0.14046396 0.22480154 -0.49924928 -0.25473338 0.079924054 -0.39295426 0.41605407 -0.67493844 0.24007179 -0.48349875
0 0.10674506 0.20871176 -0.48001185 -0.28931 0.13269247 -0.3730618 0.5032635 -0.7423226 0.16918267 -0.54381514
5 0.16033253 0.33782825 -0.6021535 -0.107682556 -0.1459161 -0.60777533 0.3740428 -0.5853307 0.1143147 -0.24260922
6 0.1135944 0.28578678 -0.6258265 -0.17961025 -0.1956847 -0.60942125 0.32670784 -0.6456596 0.21342734 -0.33970785
