6 10
1 0.08829915 -0.22822477 -0.29726112 0.21568005 0.51272094 0.34329525 0.010503915 -0.43526664 0.338373 -0.69546574
2 0.11577025 -0.1746867 -0.33069012 0.29156727 0.535742 0.31569982 -0.0018729205 -0.4302116 0.26771614 -0.6981554
4 0.09575804 -0.19569175 -0.30962366 0.22880286 0.54265296 0.2858897 -0.005921499 -0.4460883 0.34983304 -0.76937306
5 0.084259294 -0.17282243 -0.33310443 0.26064613 0.5233626 0.2916657 -0.07309802 -0.38592654 0.34459102 -0.7013434
0 0.09893067 -0.2220742 -0.26671374 0.27513346 0.47726995 0.34167728 -0.07866472 -0.4535053 0.321117 -0.718542
3 0.033584453 -0.14133051 -0.29866943 0.28120476 0.5408647 0.328046 -0.073135085 -0.42838842 0.29368827 -0.70387644
