7 10
6 0.07082729 0.10815152 0.0041322517 -0.5161213 -0.01284877 -0.25494367 -0.6891813 0.065273836 0.33288747 -0.6265548
5 0.049200498 0.09442797 -0.020141153 -0.4689493 -0.04143305 -0.26772776 -0.7350598 0.037766248 0.2910497 -0.66968715
4 0.10049854 0.095002376 -0.024833435 -0.537173 -0.052334074 -0.2567868 -0.6767441 0.08815026 0.36918363 -0.6620046
2 0.09623017 0.07317236 0.048181623 -0.53668046 0.031459346 -0.24449058 -0.6097182 0.10102048 0.29519686 -0.6394143
1 0.025295623 0.08251524 0.047331262 -0.5292736 -0.028604355 -0.23009527 -0.70340514 0.09514229 0.2989747 -0.6358906
3 0.14236207 0.107644975 -0.052329905 -0.49862632 0.00544993 -0.24360658 -0.7623175 0.032874953 0.40290385 -0.6160451
0 0.062147804 0.12979227 -0.018455425 -0.5158267 0.018328454 -0.22885764 -0.6678056 0.10004542 0.35303995 -0.64277774
