7 10
4 0.09221734 0.10813606 0.8796244 -0.5780736 -0.58368313 -0.16656701 0.5472769 -0.13785198 1.3053212 -0.009522523
5 0.5498977 -0.73110116 -0.64923155 0.7074825 -0.27345216 0.14550538 -0.9335367 1.1367595 1.303955 1.5473186
6 0.5558415 -0.7085661 -0.6886139 0.64014107 -0.34458527 0.17760368 -0.9420457 1.069784 1.2604488 1.5522913
1 0.13940567 0.075957805 0.8135994 -0.55253905 -0.5654546 -0.14933215 0.46929103 -0.14078355 1.1576296 -0.042403616
0 0.041533705 0.041554708 0.85034734 -0.61059326 -0.6221446 -0.13561372 0.5318908 -0.07507732 1.1621863 -0.07091607
2 0.14099787 0.10769472 0.78400207 -0.6087409 -0.59596264 -0.17942327 0.5661598 -0.17271824 1.2217022 -0.051938478
3 0.08730115 0.069984995 0.83481145 -0.59695584 -0.5905902 -0.21104407 0.505368 -0.09415392 1.2162023 0.029663268
