6 10
5 0.45341438 0.17713042 -0.16470227 -0.10628055 0.54450643 -0.4607069 -0.54917943 0.16706064 0.11300567 0.48595905
1 0.47537604 0.19000143 -0.17596166 -0.18441261 0.5668252 -0.44163015 -0.604618 0.14359334 0.04595361 0.4520195
4 0.44408455 0.22949459 -0.22311562 -0.19036184 0.4651399 -0.481319 -0.56512856 0.16394623 0.07328297 0.41800037
2 0.44567022 0.20313296 -0.2411354 -0.11347328 0.5494778 -0.47700325 -0.6385669 0.15911943 0.10094773 0.4686252
3 0.4771115 0.21176654 -0.24829116 -0.21030127 0.51998645 -0.4710273 -0.6422562 0.21341126 0.107409455 0.43985707
0 0.43066353 0.16759792 -0.21671638 -0.16184452 0.5045141 -0.42112607 -0.5344764 0.14751963 0.009292983 0.45705855
