7 10
0 -0.7149504 -0.6544654 -0.43787035 -0.39617914 -0.08965548 -0.30944946 0.06660499 0.24259216 0.075447984 0.23517384
4 -0.71923554 -0.6053073 -0.43660843 -0.27416104 -0.12806346 -0.29985645 0.06838288 0.23184843 -0.0074227457 0.28137708
2 -0.73049784 -0.6012286 -0.40297884 -0.3442694 -0.058845304 -0.2553021 0.11284113 0.20380923 0.08854744 0.28598174
3 -0.7052068 -0.59450895 -0.3751353 -0.35309464 -0.07618998 -0.25121424 0.106811434 0.16374692 0.024361746 0.2635207
6 -0.674632 -0.6395258 -0.43576863 -0.3436635 -0.05409382 -0.27262998 0.03472758 0.20743382 0.08472626 0.27912924
5 -0.70753115 -0.616931 -0.40669125 -0.3676282 -0.11640211 -0.30391422 0.06655278 0.20108563 0.05839011 0.22219893
1 -0.76332676 -0.64736384 -0.434201 -0.33989498 -0.04450138 -0.28357556 0.099388674 0.16528991 0.05298496 0.22182733
