7 10
5 -0.030271677 -0.31335887 -0.5203905 -0.15878266 0.020260464 -0.6430217 0.50357985 0.4274474 0.14649647 -0.22232276
3 -0.032018773 -0.3515241 -0.5967281 -0.15290605 0.07555948 -0.57455045 0.46766254 0.4625739 0.11134324 -0.22167066
6 -0.029211175 -0.32051075 -0.59901875 -0.17162795 0.040359683 -0.65139073 0.5197421 0.43331382 0.09104185 -0.20331201
4 0.004370778 -0.3461309 -0.5717198 -0.12170894 0.06390529 -0.58665913 0.5378575 0.4203212 0.05236371 -0.19538614
2 -0.018926905 -0.39451408 -0.5622984 -0.15898675 0.0051926076 -0.6434534 0.52309775 0.46208218 0.13302507 -0.20138307
1 -0.057291 -0.38983652 -0.5490257 -0.15679224 0.07031004 -0.66803485 0.53008103 0.44938904 0.12015225 -0.1464837
0 0.00015065975 -0.34962034 -0.5644509 -0.17658329 0.065107465 -0.6320551 0.51447225 0.43533823 0.08076987 -0.20159815
