7 10
2 0.32167754 0.17196085 0.057142247 0.22356386 0.21922335 8.314839e-06 0.8394647 -0.42557162 -0.3836757 0.28416875
5 0.3743351 0.14803858 0.11145408 0.18333723 0.24895814 0.0043841754 0.85029256 -0.46003583 -0.41202858 0.26928678
0 0.38686538 0.15330021 0.08205319 0.20623194 0.25986812 0.016128577 0.82901937 -0.4835044 -0.38028494 0.19054571
4 0.35992628 0.16467592 0.04839698 0.15906337 0.2718855 0.058444213 0.8746797 -0.45561805 -0.4250448 0.28476188
1 0.32389638 0.15306854 0.103719756 0.20134363 0.2352776 0.06272121 0.8514771 -0.41907442 -0.36462608 0.2670968
3 0.32138953 0.15643999 0.05037018 0.21684802 0.2798949 -0.014492712 0.7955297 -0.44887614 -0.4082436 0.19875439
6 0.3126504 0.10517471 0.081980094 0.2337568 0.21951361 0.011540614 0.86568016 -0.4622861 -0.3325252 0.21381994
