7 10
0 0.14035922 0.019998863 -0.25358945 -0.73504984 -0.5814861 -0.20619988 -0.13609363 0.07153527 0.542689 0.35101187
3 0.059374135 0.019791612 -0.18092464 -0.67414385 -0.5868701 -0.24329059 -0.10787937 0.12451721 0.5145799 0.36219883
2 0.10988301 -0.022803338 -0.16106923 -0.701146 -0.5707784 -0.22112104 -0.09760872 0.13045377 0.51708484 0.34451362
1 0.13159126 0.022941811 -0.24787436 -0.75016254 -0.6429262 -0.17173277 -0.067237295 0.10512576 0.44900697 0.2920145
5 0.059451804 0.08444174 -0.23039898 -0.77445906 -0.6270936 -0.17134519 -0.079398826 0.16534717 0.4906897 0.26862475
4 0.12461876 0.07123114 -0.25411844 -0.67778677 -0.58871806 -0.19115396 -0.11291908 0.16393037 0.45257923 0.3386728
6 0.08053491 0.09687012 -0.17238061 -0.74074686 -0.64558655 -0.15700322 -0.14455494 0.117072396 0.49307364 0.32908025
