6 10
0 -0.42469883 -0.75607926 -0.52937245 -0.36809152 0.11078428 -0.09523674 0.12526022 -0.24372599 -0.19151986 0.34473425
3 -0.45336798 -0.73375857 -0.53750205 -0.32046103 0.15046546 -0.13387963 0.1057004 -0.2714844 -0.15697904 0.36155674
2 -0.4593665 -0.730402 -0.5268498 -0.33313918 0.1298128 -0.09468097 0.08234279 -0.28775305 -0.1411767 0.31153816
5 -0.43875742 -0.740186 -0.5572146 -0.3614307 0.09977861 -0.14663856 0.08286357 -0.29460183 -0.19070153 0.37428328
4 -0.43026647 -0.66526043 -0.4545874 -0.30454883 0.05279277 -0.08910353 0.14646001 -0.29278865 -0.17331213 0.32988542
1 -0.48538783 -0.7522639 -0.50638396 -0.29036513 0.064755924 -0.12913592 0.09490619 -0.32635406 -0.20302176 0.29153836
