6 10
4 -0.6454821 -0.52988195 -0.25104722 -0.23382597 -0.03471458 0.07689422 0.5379441 0.12958923 0.05513795 -0.56722087
3 -0.6427852 -0.5176112 -0.23844811 -0.2760075 0.021181097 0.054223187 0.44769186 0.11341647 0.11038584 -0.56915855
2 -0.6109912 -0.53012115 -0.22509694 -0.28730386 -0.0676224 0.051890142 0.51922125 0.11657473 0.08993067 -0.52919626
0 -0.6061005 -0.5306985 -0.23275323 -0.31755883 -0.02641586 0.020669414 0.49269634 0.1312579 0.1336639 -0.5610462
1 -0.5908085 -0.50000775 -0.20849274 -0.31144723 -0.061964966 0.1053059 0.52361435 0.13145436 0.10161872 -0.54781735
5 -0.57613873 -0.50324893 -0.25430763 -0.33342025 0.0020684 0.111336775 0.5004999 0.17754169 0.06593215 -0.47924846
