7 10
1 0.752587 0.41574857 0.1689634 0.4377359 0.23018208 0.51089823 -0.101616904 0.23528785 -0.24516198 -0.109718785
0 0.7447158 0.40086484 0.15928558 0.43419284 0.2609563 0.56244344 -0.1786219 0.24559957 -0.17381293 -0.1135781
5 0.7195763 0.38602054 0.117112026 0.4314369 0.2541566 0.5148464 -0.15621576 0.21197723 -0.21244231 -0.14659283
4 0.749151 0.32683894 0.14262582 0.42041504 0.27192166 0.5782413 -0.14446661 0.2340276 -0.14722988 -0.101173975
3 0.7342283 0.3849292 0.09013715 0.4180405 0.26631397 0.52428615 -0.16826661 0.24616715 -0.15877241 -0.079930075
2 0.7463333 0.34449792 0.18227169 0.4316048 0.21334192 0.55928093 -0.119147815 0.18809776 -0.1473598 -0.16882128
6 0.7604953 0.4077334 0.18637632 0.45827416 0.22878124 0.5451584 -0.14450319 0.19283637 -0.1957082 -0.15170407
