7 10
1 -0.38045987 -0.39384723 -0.118306905 -0.8664793 -0.22114146 0.20699905 0.38926244 -0.13218437 -0.17882137 -0.16976367
4 -0.3942862 -0.42192745 -0.18741044 -0.93509394 -0.20531255 0.17883177 0.35820153 -0.07809386 -0.18609741 -0.121183716
3 -0.3622378 -0.3896374 -0.13632143 -0.8938006 -0.21966864 0.18384022 0.3164899 -0.14922626 -0.19389011 -0.091079615
6 -0.34806454 -0.42680103 -0.119497105 -0.86064416 -0.24099624 0.21041286 0.36551338 -0.09165027 -0.21916698 -0.14771643
2 -0.36040506 -0.42830738 -0.09743549 -0.9145683 -0.26396397 0.20827301 0.3887287 -0.106674194 -0.17135039 -0.11973878
5 -0.31146193 -0.3561427 -0.15774858 -0.9086024 -0.20080498 0.17622994 0.36179936 -0.13166094 -0.21300852 -0.14777489
0 -0.3166406 -0.35150853 -0.08767409 -0.8500343 -0.24785516 0.20679007 0.33917862 -0.1063638 -0.2198036 -0.112141185
