7 10
1 -0.7472455 0.16825715 -0.10685055 0.45880538 0.08898874 0.29639643 -0.35586736 0.39406073 -0.4189949 -0.29171774
0 -0.77791446 0.18287253 -0.078692436 0.45412585 0.15011325 0.35907623 -0.42230433 0.37684202 -0.37375492 -0.25140074
6 -0.75492287 0.18249013 -0.09545966 0.41120097 0.1288993 0.3193306 -0.39262897 0.3484876 -0.38673124 -0.31092688
5 -0.7476228 0.16035289 -0.09453774 0.47582248 0.112741254 0.30835107 -0.36303675 0.34389076 -0.36882314 -0.27533758
3 -0.7459161 0.140237 -0.10285573 0.43276057 0.12667383 0.3256018 -0.4161639 0.3677733 -0.35734424 -0.3241133
4 -0.7906058 0.1384154 -0.052341867 0.44140708 0.087595195 0.34575835 -0.33773765 0.30568373 -0.35336378 -0.28387636
2 -0.7615078 0.10012617 -0.12910095 0.40795407 0.17740966 0.33370927 -0.37593699 0.3448622 -0.39381373 -0.2934974
