6 10
2 -0.70825005 0.17933612 -0.24904661 0.50844324 -0.36521533 0.03216036 0.2947544 -0.4709998 -0.11153916 0.4094411
4 -0.7024681 0.098197356 -0.19712476 0.57014245 -0.29599097 0.10207755 0.28620648 -0.4031635 -0.13033618 0.34188184
3 -0.6788913 0.16434304 -0.23262347 0.549977 -0.38342524 0.10587435 0.23086989 -0.3715474 -0.13042662 0.35837883
6 -0.70877564 0.11667302 -0.24287468 0.54788446 -0.3680034 0.11860538 0.28380004 -0.44814608 -0.12600349 0.35355163
5 -0.70680106 0.15085009 -0.1683902 0.5666333 -0.3453797 0.06938835 0.27897653 -0.4184282 -0.10173845 0.36542895
0 -0.63299376 0.13998963 -0.20624772 0.5679958 -0.3814336 0.03411858 0.30225393 -0.43651834 -0.06849719 0.3278856
