6 10
0 -0.2479754 -0.077705614 -0.08438885 -0.45995834 -0.5427491 -0.41956848 -0.18273991 0.652192 -0.06822286 0.30814424
3 -0.32717228 -0.117902465 -0.10092646 -0.5352708 -0.5647974 -0.4121892 -0.23725836 0.6547964 -0.12098542 0.26567724
2 -0.35772014 -0.14580767 -0.028130926 -0.45310172 -0.61080235 -0.34122556 -0.21056718 0.70062464 -0.16353291 0.3053081
1 -0.29079863 -0.092397876 -0.04886819 -0.44332373 -0.5446001 -0.44098964 -0.23785688 0.64025104 -0.048628747 0.25912958
4 -0.31157878 -0.08915861 -0.044077225 -0.527399 -0.58642554 -0.37968096 -0.22517638 0.64342266 -0.024382314 0.319164
5 -0.3258731 -0.047666345 -0.10956227 -0.5436699 -0.52999616 -0.38674864 -0.26680055 0.67672896 -0.11769018 0.2363675
