5 10
4 0.15881558 0.33834314 0.56936586 -0.07378534 0.3349126 0.48797148 -0.31435993 0.091633946 0.47643197 -0.5712524
2 0.17290351 0.34921223 0.45948997 -0.05167091 0.30234239 0.4493019 -0.28589132 0.07600705 0.47214904 -0.54834574
3 0.14083922 0.33204776 0.523683 -0.11649313 0.34864923 0.4298557 -0.20581035 0.106023334 0.4737725 -0.53350055
0 0.13292006 0.3276144 0.47075647 -0.13392259 0.25215933 0.40582404 -0.22450058 0.054958135 0.4023226 -0.46947598
1 0.1186121 0.37621313 0.4661045 -0.108742 0.3201789 0.4315212 -0.25230882 0.064472996 0.3905255 -0.4894363
