7 10
6 0.5693169 0.30246913 -0.202411 0.2166836 -0.4080746 0.66737074 -0.35739723 0.29492715 -0.20137778 -0.10754857
2 0.56235325 0.23159687 -0.22441767 0.27404436 -0.39586398 0.7010175 -0.35035622 0.19789295 -0.2550043 -0.11522562
4 0.5562283 0.33790356 -0.22159016 0.23022051 -0.384982 0.67197084 -0.3181889 0.28445765 -0.25335738 -0.10597946
0 0.580342 0.327168 -0.1598028 0.2808213 -0.38187912 0.60059327 -0.38407248 0.2712663 -0.2659707 -0.1448826
3 0.5104192 0.33088726 -0.26613575 0.25163633 -0.33710155 0.71992296 -0.31702065 0.27510643 -0.22980523 -0.17893817
1 0.5795975 0.23835823 -0.26817077 0.19288231 -0.43044183 0.7054231 -0.3004511 0.2823795 -0.21881664 -0.105038874
5 0.51806444 0.2579923 -0.2383701 0.21861242 -0.36945805 0.69515705 -0.36580747 0.2935651 -0.27109712 -0.0920062
