7 10
5 -0.47233778 0.24758232 -0.17874402 0.31588605 -0.5996528 0.348223 0.21417852 -0.69068503 0.10083807 -0.13576937
4 -0.5131921 0.18187402 -0.19786063 0.32784614 -0.548272 0.30471876 0.19640295 -0.69120663 0.1448514 -0.111495964
6 -0.5484075 0.16247569 -0.20159741 0.3395543 -0.5718045 0.3306466 0.13051566 -0.70062464 0.12208941 -0.076803476
1 -0.54369277 0.22882286 -0.13220236 0.34211677 -0.53240615 0.30480206 0.1797783 -0.6797715 0.16721147 -0.060080096
2 -0.47108927 0.2008264 -0.110826306 0.3472433 -0.6387775 0.36737597 0.1567828 -0.6506519 0.1269527 -0.12505428
3 -0.51090884 0.22551979 -0.12742077 0.35637736 -0.5952742 0.2911004 0.16076323 -0.6822074 0.07339049 -0.07119738
0 -0.44295514 0.25735778 -0.108587444 0.36620432 -0.58052915 0.3104158 0.1794817 -0.66486746 0.14937995 -0.12894656
