7 10
4 -0.31692278 -0.36433262 0.65102965 -0.11959191 0.33402625 0.42146358 -0.47474876 0.24704376 0.03972136 0.29492348
1 -0.2838005 -0.39554948 0.69050574 -0.15646279 0.3304258 0.35693642 -0.4392649 0.19275382 0.042951725 0.32737336
2 -0.21359882 -0.48652706 0.7308593 -0.13657983 0.36089516 0.37625 -0.48397154 0.18959752 0.072954066 0.3662233
3 -0.19646461 -0.52055657 0.6984915 -0.24280395 0.3130173 0.36807585 -0.44483292 0.1704261 0.030913528 0.44090405
0 -0.23389684 -0.36453608 0.6433179 -0.07358713 0.32274896 0.34866136 -0.5051121 0.21439588 0.08007818 0.34273437
5 -0.31982887 -0.3817415 0.6289103 -0.08093473 0.31078735 0.3943918 -0.53059554 0.16958462 0.0032950263 0.3087174
6 -0.18456492 -0.5126194 0.73524463 -0.20919429 0.37498316 0.34832388 -0.4332729 0.1417588 0.03456861 0.4646582
