6 10
1 -0.062033046 -0.3425349 0.40022552 -0.0022094487 0.09584577 -0.35006958 -0.33771393 0.40643868 0.53580374 -0.6023766
3 -0.13152538 -0.32477242 0.45025146 -0.0011750185 0.04095447 -0.3345558 -0.29641587 0.3533948 0.52639276 -0.62843466
4 -0.109830074 -0.32421592 0.4663533 -0.025485555 0.05245245 -0.36333013 -0.37314177 0.37634856 0.55379736 -0.68002903
2 -0.09961572 -0.34298566 0.4329862 -0.0023583213 0.12286747 -0.3668575 -0.27280328 0.38079986 0.5541251 -0.60436827
0 -0.047541797 -0.346254 0.37316918 0.052772924 0.15579663 -0.33590713 -0.37145558 0.44295144 0.55763096 -0.59441066
5 -0.14182335 -0.30335292 0.4499286 -0.0089423 0.097342305 -0.28042534 -0.34863552 0.41570875 0.5273305 -0.60345227
