7 10
3 -0.17453593 -0.21237104 0.6180602 -0.46105555 0.71512336 0.05422694 -0.17100151 -0.14020088 -0.42167634 -0.1062253
5 -0.1318088 -0.2084751 0.5626842 -0.50933915 0.73183614 -0.022795333 -0.19078907 -0.22005282 -0.3634147 -0.094367
1 -0.14168489 -0.24049412 0.56341934 -0.43564194 0.734746 0.038233634 -0.13182671 -0.20601854 -0.43351746 -0.0851383
4 -0.22285162 -0.2128512 0.610915 -0.43254423 0.6904655 0.024867542 -0.106053054 -0.13275182 -0.4129968 -0.034922447
6 -0.21947287 -0.17048176 0.5635312 -0.5155553 0.73909336 -0.023149956 -0.17325835 -0.13449533 -0.44786683 -0.109049
0 -0.19826417 -0.2011238 0.62339276 -0.5304906 0.6946267 0.004017334 -0.15437506 -0.20944825 -0.3919267 -0.028150346
2 -0.13953218 -0.20805499 0.548995 -0.50542915 0.7087679 0.064128265 -0.16539064 -0.1837164 -0.3917558 -0.060100876
