7 10
1 0.6791734 0.30025452 -0.35020337 0.28168544 0.19841404 -0.4056362 -0.057588432 0.086875 -0.45967868 0.5158281
4 0.6733122 0.30244166 -0.3826128 0.32972062 0.16407244 -0.36937082 -0.08000373 0.15953228 -0.4439012 0.5092098
0 0.6471288 0.3063687 -0.39926302 0.2898028 0.18629335 -0.33835158 -0.14152533 0.097472996 -0.4823112 0.4351359
2 0.66435516 0.29631835 -0.36877576 0.32891807 0.1338227 -0.38139346 -0.086974464 0.12014172 -0.39907297 0.47538996
3 0.6777274 0.32395846 -0.42654502 0.32374507 0.13879816 -0.32985765 -0.12367431 0.08939687 -0.49380976 0.49526602
5 0.69940823 0.25267228 -0.40649763 0.30359516 0.21045657 -0.3323511 -0.07861707 0.115450114 -0.4817067 0.48842552
6 0.63992745 0.27695078 -0.39721304 0.25317264 0.20498137 -0.37620452 -0.07458566 0.1226359 -0.4809779 0.5001233
