6 10
3 -0.06295189 0.18311481 -0.5045821 0.27220252 -0.45312014 0.31966507 0.5798858 -0.22584407 0.63473064 0.06309951
4 0.01060147 0.21500097 -0.5143788 0.26049092 -0.3656362 0.30832258 0.59893894 -0.21432196 0.7096469 0.008133627
1 0.03636526 0.25138983 -0.51556015 0.23162156 -0.37876728 0.2902147 0.57768744 -0.16911557 0.67824274 0.03365387
2 -0.020292155 0.22414446 -0.48785597 0.25402966 -0.41327867 0.29237574 0.47752094 -0.22386007 0.63743216 0.087790586
6 -0.029602574 0.18197246 -0.4672247 0.28167683 -0.40492657 0.24956061 0.5282556 -0.16850598 0.66944206 0.07694303
0 -0.061038233 0.15240061 -0.46595895 0.2575369 -0.30842432 0.27251685 0.5597507 -0.23146635 0.6654657 -0.017679958
