7 10
6 -0.59249985 0.055013794 0.39911574 0.053066574 0.46926498 -0.57804334 0.28371647 0.35679752 0.3416182 0.037699554
4 -0.537406 0.051939983 0.39360988 0.042193197 0.3965664 -0.6116394 0.25827897 0.42155373 0.35343865 0.03476395
5 -0.5610063 0.03135854 0.36584762 0.0497702 0.45420912 -0.62682027 0.25550917 0.41241172 0.3263362 0.077249065
3 -0.56124866 0.03690111 0.35751453 0.0005948699 0.44479915 -0.6122811 0.2679229 0.39478058 0.3179671 0.06758043
2 -0.57279456 0.007301783 0.4004175 0.055108123 0.41044164 -0.6028378 0.23524171 0.4059715 0.33245465 0.0030275139
0 -0.6096741 0.010530619 0.43211308 0.03999971 0.4085717 -0.57031375 0.23323683 0.3752073 0.395314 0.030411366
1 -0.57700276 0.033704583 0.4020595 0.04527139 0.45774502 -0.63551533 0.21735846 0.4372171 0.33773133 0.069700636
