7 10
0 0.2636424 -0.06560999 -0.43488905 -0.21931055 0.17780152 -0.75535226 0.14958188 0.29058897 0.4595916 0.40605557
3 0.28459954 -0.1055075 -0.43419862 -0.25675505 0.1392105 -0.7063666 0.15075022 0.3041178 0.47064164 0.40451998
2 0.2776327 -0.1180104 -0.397037 -0.19819741 0.1214261 -0.7152262 0.156389 0.279037 0.48842296 0.48890814
4 0.34372053 -0.005089776 -0.38011867 -0.24741057 0.111364834 -0.7128262 0.13907863 0.23023812 0.5048643 0.48582932
5 0.33184862 -0.036049046 -0.4284557 -0.27150816 0.19975871 -0.7218859 0.09838691 0.21737023 0.48268977 0.4483211
1 0.27337366 -0.09919361 -0.4667184 -0.23174572 0.22254294 -0.70996577 0.14513437 0.30525643 0.43771908 0.4673593
6 0.30771038 -0.09722036 -0.3839447 -0.2392803 0.18535332 -0.7260304 0.1891969 0.29814175 0.45045862 0.47227508
