7 10
1 0.41991234 0.6605146 -0.011958212 -0.4233726 -0.21413602 -0.42159498 -0.2998873 -0.33966097 0.24315418 -0.21910931
5 0.3474242 0.70437914 -0.059146263 -0.36448807 -0.20445096 -0.39706042 -0.35645986 -0.3632334 0.31215373 -0.19655208
2 0.4061362 0.6422256 0.005510529 -0.3891792 -0.23481391 -0.40077966 -0.35000113 -0.34414294 0.2856922 -0.17049001
3 0.37301758 0.67625326 -0.012547674 -0.38830248 -0.18193431 -0.37046924 -0.36171633 -0.3416281 0.29544392 -0.15327075
0 0.43469778 0.6926213 0.03821013 -0.46424767 -0.230655 -0.42112088 -0.27698037 -0.26512817 0.22005664 -0.27489486
6 0.48375267 0.75830996 0.10286595 -0.56640697 -0.20817558 -0.42827743 -0.33005303 -0.25343367 0.16121209 -0.31961557
4 0.47889715 0.7809972 0.115886316 -0.5627346 -0.2814974 -0.4506287 -0.37480235 -0.19696715 0.15552127 -0.3554306
