7 10
2 -0.7492258 -0.17150435 0.8477774 -0.39302433 0.06476737 0.40442932 0.19277158 -1.0597767 1.6556616 -0.7241941
0 0.0897585 0.09902006 0.13388687 -0.44559795 0.80693626 1.7347127 -0.018526047 0.96880853 -0.2198668 -0.25849837
1 0.11599287 0.16469586 0.14320344 -0.45291394 0.75499576 1.6879464 -0.019869057 0.9168004 -0.23504283 -0.34197393
6 -0.7592559 -0.16959679 0.74044394 -0.34592018 0.10740388 0.37531936 0.14421543 -1.0599272 1.6312228 -0.651585
5 -0.7800972 -0.19973117 0.7365444 -0.33720827 0.046256304 0.28571647 0.22001985 -1.0214163 1.6073864 -0.7055078
3 0.091563225 0.10108829 0.08565573 -0.38896015 0.72765994 1.6071866 0.04545368 0.8517538 -0.24247518 -0.3303096
4 0.13556688 0.15989396 0.073778026 -0.4314117 0.75849575 1.7071079 0.041286632 0.9286203 -0.29185233 -0.33252507
