6 10
2 -0.27154943 0.3185424 -0.100376435 -0.67619264 0.34137785 -0.07949985 0.25061586 0.45894226 0.3718975 0.46847752
5 -0.34404966 0.32952273 -0.09033836 -0.63159645 0.33957648 -0.044549197 0.20866986 0.45117018 0.4259318 0.45214915
4 -0.28416088 0.29813948 -0.1275632 -0.65838045 0.26092216 -0.010831112 0.2098044 0.44881096 0.40286213 0.40528342
1 -0.3131876 0.26534885 -0.110343195 -0.6908209 0.3626851 -0.07551374 0.25213668 0.434163 0.38273305 0.43035132
3 -0.2783784 0.25255495 -0.1452937 -0.70933944 0.38531348 -0.10632312 0.19700421 0.4162168 0.35344183 0.48280218
6 -0.34062192 0.24186616 -0.08227587 -0.6645764 0.3451256 -0.096741565 0.2541893 0.39785254 0.39517653 0.44340354
