7 10
4 -0.49781686 -0.6033709 -0.5403341 0.22495633 -0.27080417 0.32409832 0.0451984 0.29807734 -0.17645603 -0.59573656
1 -0.47730076 -0.5713154 -0.47896123 0.23407017 -0.26556024 0.34800953 0.11789017 0.25505295 -0.1542355 -0.4774329
2 -0.4861571 -0.5450782 -0.4265188 0.25164068 -0.27282667 0.33137265 0.06378707 0.2894293 -0.15042008 -0.49248406
0 -0.46958825 -0.5806758 -0.47740126 0.22157647 -0.21828339 0.31181803 0.023508262 0.3304703 -0.18924327 -0.52356523
5 -0.45712557 -0.54381746 -0.45350647 0.29169548 -0.29301217 0.37072957 0.076640725 0.25296926 -0.117161766 -0.5824137
3 -0.4762127 -0.5642978 -0.46183318 0.27517745 -0.27807134 0.29114422 0.097754486 0.3206483 -0.098199196 -0.57674474
6 -0.44643018 -0.4599829 -0.43164918 0.22286803 -0.2848919 0.32563436 0.086969964 0.2882867 -0.14632712 -0.51581067
