7 10
0 0.14003387 -0.91396385 -0.09675802 0.25067455 0.51395833 -0.034963414 0.2835793 -0.38843367 -0.14285427 0.04249305
5 0.051830154 -0.8649632 -0.108156115 0.22289827 0.48489887 0.04927006 0.3127615 -0.39320916 -0.19659491 0.0006901731
2 0.11791653 -0.85609215 -0.14706315 0.31519723 0.51402426 -0.07354222 0.26179716 -0.41610244 -0.1693071 -0.021474726
4 0.12065387 -0.86836296 -0.15033312 0.26325676 0.48677364 -0.020496784 0.29392567 -0.39491594 -0.16342284 -0.0013591428
1 0.07326651 -0.9252925 -0.094141975 0.29867348 0.540123 0.020246468 0.32817015 -0.33303162 -0.20650372 -0.03714034
6 0.099839196 -0.8583435 -0.12785348 0.29071397 0.44897258 0.048925772 0.29745883 -0.34825203 -0.17363171 0.0031864871
3 0.10825134 -0.8527059 -0.16391636 0.3299905 0.5286859 -0.030752923 0.26705846 -0.3469894 -0.12790506 -0.022455538
