7 10
2 0.5776973 -0.11750062 -0.27447528 0.059880372 0.18200769 0.2821728 0.51881635 -0.51810193 -0.6107074 -0.100954354
1 0.56682354 -0.21290594 -0.28691763 0.0015618219 0.1810159 0.22011392 0.5404668 -0.5496429 -0.6042359 -0.03074325
0 0.6043754 -0.22183694 -0.22738467 0.010234564 0.16617642 0.17885892 0.45414355 -0.5789063 -0.62238216 -0.035670396
6 0.55986965 -0.18776363 -0.2652464 0.06765615 0.16009761 0.23852402 0.45220652 -0.5567989 -0.5901568 -0.033599127
5 0.58283997 -0.20301592 -0.28035358 0.024817474 0.11419287 0.23629364 0.47471473 -0.51078063 -0.56653273 -0.03133718
4 0.55938315 -0.13437629 -0.2589618 0.02082956 0.16974507 0.27384728 0.5095372 -0.5222416 -0.58093107 -0.08321397
3 0.549107 -0.217396 -0.21720356 0.054560266 0.1587487 0.26387286 0.5013766 -0.5821491 -0.6254114 -0.06868619
