7 10
0 0.46331465 -0.40752852 0.1881915 -0.3434782 -0.20420218 0.4224201 0.050059102 -0.08623908 -0.76945627 -0.15823804
2 0.46391907 -0.4957305 0.2061178 -0.24800874 -0.08870919 0.4883181 -0.022248203 -0.13512424 -0.7821954 -0.24352203
3 0.45683274 -0.45306474 0.20716703 -0.3191369 -0.12789424 0.49925962 0.04477305 -0.15085791 -0.7403703 -0.21515857
5 0.3779473 -0.4552219 0.21855505 -0.29517514 -0.11810428 0.42648438 -0.02378131 -0.11637439 -0.74731433 -0.19858406
4 0.38019064 -0.4759183 0.26297048 -0.31389093 -0.09916948 0.35199386 -0.045716677 -0.1499678 -0.73231745 -0.21719424
1 0.44763237 -0.4253504 0.20945106 -0.27760994 -0.1337016 0.47724956 -0.009091006 -0.1440903 -0.7615128 -0.23647183
6 0.46854725 -0.37559202 0.25349557 -0.24701202 -0.15434937 0.44845572 -0.018621437 -0.15937357 -0.721353 -0.20234545
