7 10
3 -0.24920401 -0.15480891 0.1365612 -0.28281993 -0.4152784 0.49259958 0.64045084 -0.3678352 0.42181972 0.10878383
2 -0.18810393 -0.16592343 0.12745386 -0.35481507 -0.36537224 0.4673568 0.7436421 -0.39663145 0.40548086 0.03888027
4 -0.17235148 -0.21059206 0.20470944 -0.28646198 -0.40825287 0.49743253 0.7047739 -0.39732635 0.41466373 0.108089425
0 -0.1956342 -0.123953685 0.15722875 -0.3064733 -0.414781 0.42733872 0.6886307 -0.37534398 0.45956722 0.13154022
5 -0.22209783 -0.18114892 0.14414494 -0.3203375 -0.4225878 0.4592549 0.6698382 -0.37308723 0.38444385 0.026908573
1 -0.1917508 -0.15080011 0.1190727 -0.31328484 -0.37897566 0.47074693 0.6770459 -0.39416727 0.38455617 0.060151566
6 -0.16183722 -0.17803818 0.1497169 -0.34293604 -0.38522068 0.48994455 0.72331965 -0.42386165 0.4411473 0.06607429
