7 10
0 -0.18361615 0.14922206 0.28496164 -0.15190694 -0.4421854 0.88178116 0.13139468 -0.07142076 0.14427285 -0.42580533
6 -0.15488812 0.13688034 0.33184144 -0.16972733 -0.43140075 0.9271067 0.12407101 -0.14922132 0.1534838 -0.38672918
2 -0.1295976 0.1393141 0.29919264 -0.2011892 -0.47134274 0.8868427 0.16101871 -0.06259452 0.08748899 -0.3751869
4 -0.1321481 0.14954804 0.27549604 -0.12628369 -0.50178015 0.9031562 0.1966695 -0.14925365 0.18370096 -0.40625012
1 -0.13403612 0.15311985 0.3025099 -0.17943536 -0.4632806 0.8763138 0.19934301 -0.15098992 0.10129767 -0.4294348
3 -0.11908823 0.123422764 0.33507147 -0.16396524 -0.4114431 0.9026638 0.19804205 -0.11948081 0.13513023 -0.4299017
5 -0.17948595 0.12280898 0.29912537 -0.18136375 -0.45811203 0.9010048 0.18932156 -0.13907108 0.13968608 -0.45766163
