3 10
0 -0.09165089 0.19984274 -0.08607716 0.13256349 0.4001831 -0.03770733 0.23257501 -0.29761007 0.527632 0.43816382
2 -0.06122618 0.17010362 -0.15898217 0.15199569 0.3245052 -0.06761955 0.1737978 -0.28696996 0.5439306 0.44906092
1 -0.039451662 0.27519673 -0.12893581 0.15664546 0.45973593 -0.008616384 0.18745261 -0.2723978 0.6021335 0.46115124
