4 10
3 -0.35805348 -0.17379989 -0.023238312 -0.33104786 -0.4201383 0.012559577 -0.24427062 0.43411684 -0.81956416 -0.13253815
4 -0.37857687 -0.21182711 -0.052691437 -0.33447278 -0.3543771 0.020556139 -0.22500603 0.3288351 -0.7252307 -0.17537594
2 -0.36685193 -0.21014622 -0.058862954 -0.28691185 -0.35407928 0.011140767 -0.19079381 0.36016837 -0.6795621 -0.12698485
0 -0.3239474 -0.15761231 -0.024405727 -0.29659444 -0.34377936 -0.036103472 -0.19892325 0.32758924 -0.66014457 -0.17238168
