7 10
2 -0.13018562 0.07913585 -0.06423969 0.72352064 0.43876973 0.67577434 0.24918082 0.32006893 0.05586777 -0.18071519
1 -0.08988318 0.077586055 -0.109858096 0.7299958 0.40830615 0.69509465 0.19492306 0.3772264 0.08904813 -0.18167931
4 -0.10431194 0.0008670676 -0.1336869 0.74761724 0.42293897 0.73321486 0.18790378 0.3176475 0.072405174 -0.09844679
5 -0.06114563 0.044293225 -0.07255574 0.73706305 0.38192785 0.6789965 0.20015371 0.32427657 0.07632371 -0.13915491
0 -0.06417122 0.014786972 -0.040817223 0.7281653 0.4534282 0.7067079 0.23549557 0.3782395 0.11062819 -0.15664425
3 -0.1309643 0.053400874 -0.13788077 0.7871242 0.42200887 0.6499177 0.21327357 0.3517306 0.047694664 -0.10894765
6 -0.076848015 0.0019191426 -0.070348516 0.7100454 0.41032246 0.64145404 0.25957564 0.34190837 0.13558093 -0.19137311
