7 10
2 -0.16937305 -0.5949262 0.16069749 0.22683497 -0.5707994 -0.49466625 0.2744 -0.2648701 -0.35549465 -0.42547813
5 -0.16974781 -0.54345316 0.1761617 0.18920223 -0.50709057 -0.4693494 0.323587 -0.26918718 -0.396183 -0.3994276
1 -0.21479155 -0.6213621 0.22621326 0.23116949 -0.51973975 -0.44624373 0.32593796 -0.24876356 -0.39104912 -0.40893397
4 -0.21083465 -0.536659 0.21891472 0.18561777 -0.5408454 -0.44830164 0.34708646 -0.2027615 -0.3615108 -0.29476678
3 -0.2412368 -0.5908467 0.23954006 0.15262431 -0.5004086 -0.48333293 0.34820598 -0.18159594 -0.3336271 -0.38250566
0 -0.1640553 -0.62047887 0.1717081 0.2093768 -0.55049646 -0.5154772 0.27821124 -0.23356405 -0.34060198 -0.37201175
6 -0.17957336 -0.6113128 0.1960887 0.16128384 -0.5103757 -0.42745432 0.28096244 -0.17466535 -0.3263917 -0.34867853
