6 10
0 -0.17790577 -0.18326873 0.26336697 -0.34203014 -0.591579 0.14300796 -0.50002885 0.52403605 -0.16154261 -0.46553072
3 -0.1226542 -0.16055928 0.26162124 -0.36350775 -0.5627913 0.18784207 -0.5351293 0.5233933 -0.1851695 -0.5048634
4 -0.21220806 -0.11825751 0.24905656 -0.3188616 -0.58947515 0.20913407 -0.57132447 0.5812831 -0.11333431 -0.42340124
2 -0.12748677 -0.1433161 0.24731192 -0.29929247 -0.5818895 0.1610628 -0.5184666 0.52412087 -0.13096671 -0.45262888
1 -0.17284566 -0.13052985 0.20296237 -0.3053881 -0.5893405 0.18478395 -0.515855 0.49992195 -0.1868951 -0.42967284
5 -0.17767586 -0.14592853 0.2092338 -0.32912037 -0.57317144 0.16157952 -0.49544796 0.49352142 -0.1496899 -0.494278
