7 10
4 0.2813265 -0.24467987 0.103958085 -0.2644162 0.2347359 0.77054065 -0.2496524 0.47780126 -0.4616725 0.22375542
6 0.23566787 -0.23521812 0.05889614 -0.29500154 0.26942393 0.7497661 -0.2979971 0.5267641 -0.46274263 0.25630575
3 0.30097204 -0.24776787 0.05816175 -0.2628972 0.23032211 0.7401571 -0.21595837 0.46535915 -0.41947427 0.30647686
5 0.251668 -0.20427315 0.06741312 -0.29624295 0.20631328 0.721406 -0.24434319 0.458337 -0.47234753 0.28268516
2 0.30415928 -0.18215162 0.11590323 -0.2685767 0.19519664 0.73979646 -0.2104359 0.42619687 -0.45628527 0.30196938
1 0.28665292 -0.21777257 0.11589118 -0.31484672 0.19881707 0.7543267 -0.27830508 0.5011067 -0.47746104 0.2827379
0 0.29251325 -0.23160894 0.06461384 -0.22891618 0.22953431 0.71116406 -0.28906396 0.5050701 -0.4056054 0.32086706
