7 10
5 0.07682588 0.28129083 0.38684627 0.46111202 -0.688131 0.025234684 0.32569563 -0.5702979 0.15631366 -0.14066254
0 0.06541375 0.22936915 0.41506487 0.4683728 -0.7646038 0.015055414 0.38757554 -0.5761523 0.14616412 -0.10271263
1 0.02636971 0.2664705 0.41961834 0.44180453 -0.6931785 0.05330983 0.39664093 -0.57093227 0.19530222 -0.16707845
4 0.070284426 0.2827495 0.4041445 0.42899558 -0.7234286 -0.059103284 0.31833315 -0.5162784 0.23353386 -0.0758995
3 0.07165186 0.29451427 0.36406305 0.46391135 -0.7350298 -0.058319334 0.34672135 -0.5271814 0.23448974 -0.16470316
2 0.031387564 0.2939215 0.4181523 0.40552768 -0.7184817 -0.0018718087 0.36912513 -0.5098695 0.16811152 -0.093737915
6 0.10207296 0.18469922 0.3183611 0.4707013 -0.7095408 0.022989932 0.30370182 -0.5271439 0.1779662 -0.17536643
