7 10
1 0.102212824 -0.22738054 0.20478962 -0.34235895 0.007178897 0.7405914 -0.047539227 -0.13781163 0.7363801 -0.048549928
2 0.11406918 -0.1647415 0.27283666 -0.32605165 0.004696534 0.8065711 -0.08968979 -0.15835455 0.7412595 -0.0015466645
6 0.1389084 -0.30836067 0.25920522 -0.34966418 0.054771725 0.70098335 0.046604544 -0.11558668 0.80064774 -0.02337158
0 0.15964088 -0.122684896 0.23745042 -0.28178203 -0.032977223 0.78975636 -0.05655851 -0.15787666 0.7152158 -0.06393305
3 0.09666016 -0.17872003 0.25849846 -0.28116006 -0.033966858 0.7870709 -0.01519627 -0.12393372 0.7128606 0.01267553
4 0.13405018 -0.11987482 0.245255 -0.27861425 0.035402767 0.80480117 -0.029682763 -0.14330997 0.7495297 -0.038488783
5 0.18301438 -0.3594532 0.33406892 -0.24676163 0.048806876 0.83000034 0.09405922 -0.20778532 0.78352123 -0.11765296
