5 10
4 0.17815663 0.19769287 0.38011658 -0.2713054 0.087334484 0.1512027 0.5655718 0.6584953 -0.43614465 -0.053320438
2 0.24962956 0.22563852 0.3971161 -0.29660788 0.1471795 0.10132459 0.5310699 0.66264844 -0.46360853 -0.030652164
1 0.20435712 0.19245595 0.40946764 -0.263281 0.13736378 0.14066945 0.54017854 0.62908316 -0.38291794 -0.07466319
0 0.25101885 0.24057008 0.34920347 -0.28416342 0.12943771 0.15925796 0.4814986 0.57533985 -0.39337224 -0.10158028
3 0.23023015 0.24797869 0.3640145 -0.2057248 0.089537285 0.14313523 0.58230215 0.66883796 -0.4663197 -0.0898142
