7 10
1 -0.1491261 -0.62219626 -0.096229315 -0.3792958 -0.26100025 -0.47254738 0.74326277 0.09494737 -0.24677444 0.16639863
0 -0.22240321 -0.57501817 -0.13597617 -0.37623522 -0.26801863 -0.43907687 0.72637206 0.027567934 -0.22809191 0.08266974
3 -0.18728706 -0.58575726 -0.18589398 -0.3127893 -0.21662797 -0.39171743 0.7442497 0.017992312 -0.30050135 0.053042464
4 -0.22678573 -0.5195077 -0.096388794 -0.3282477 -0.22512572 -0.43598503 0.78026885 0.033906277 -0.2757094 0.15571916
2 -0.13617954 -0.60377955 -0.13345459 -0.3644389 -0.19157434 -0.46227795 0.7391319 0.09943635 -0.30113986 0.09698949
5 -0.13994694 -0.49430266 -0.13278623 -0.37933543 -0.22898234 -0.44780177 0.72552395 0.08107444 -0.3061639 0.16571479
6 -0.16586581 -0.55524856 -0.16661832 -0.28832504 -0.20839457 -0.46918723 0.70452917 0.032315344 -0.2878722 0.15840098
