7 10
5 0.23500079 -0.15340678 -0.50443345 0.21643549 -0.67353535 -0.18597156 0.0686873 0.39280528 0.19624048 0.5799142
6 0.25670713 -0.10257981 -0.4888704 0.15793084 -0.70092946 -0.18679741 0.10731002 0.38707608 0.22704287 0.5665579
4 0.18304595 -0.16496687 -0.42920467 0.26545322 -0.7029788 -0.18574321 0.008744828 0.42602685 0.18774143 0.598548
1 0.15141417 -0.13761179 -0.48862433 0.21536069 -0.65927684 -0.22730903 0.1044703 0.35967287 0.14763571 0.5708384
2 0.20695691 -0.13885579 -0.47613582 0.24104093 -0.71973324 -0.24635029 0.1000175 0.34270275 0.16335286 0.5725464
3 0.2106022 -0.123243034 -0.458453 0.25549996 -0.65407354 -0.24607274 0.03155551 0.40545335 0.22350203 0.5793243
0 0.2376218 -0.12328233 -0.48141304 0.20925778 -0.6775245 -0.2474044 0.014774771 0.4247215 0.16263242 0.5517063
