7 10
1 -0.090485945 0.021380542 -0.6916543 -0.28956145 0.29078242 -0.54683614 -0.05846175 0.079707235 -0.45910966 0.4058427
2 -0.13561384 0.0037770227 -0.6774123 -0.24984056 0.34364402 -0.5368137 -0.030295566 0.044085555 -0.4515037 0.41781625
5 -0.09636615 -0.0138003975 -0.64456075 -0.22603275 0.37519744 -0.5522234 0.006465576 0.026931137 -0.43812126 0.44575307
0 -0.10265769 0.020642623 -0.679377 -0.26696807 0.27883717 -0.51506895 0.023513233 0.04847532 -0.445492 0.44343498
3 -0.13902706 0.0018539563 -0.70998305 -0.22212523 0.31775048 -0.53228045 -0.009294673 -0.006590887 -0.42703107 0.4395249
6 -0.16805542 -0.016899047 -0.5670464 -0.088448375 0.3959237 -0.6039336 0.05407133 0.11733467 -0.6719446 0.5192745
4 -0.07527426 -0.045043737 -0.53545344 -0.14489909 0.4119316 -0.60337263 0.098334365 0.054282736 -0.65740126 0.5555557
