7 10
3 -0.03263673 0.33515182 0.017741688 -0.15778647 0.4978093 0.045893554 -0.48942864 -0.8709354 0.20927978 -0.15896827
6 -0.048746523 0.34007457 -0.023143051 -0.19157791 0.46774027 -0.0037904938 -0.4666278 -0.85822654 0.18425828 -0.118027
5 -0.0038111515 0.3801498 -0.05653337 -0.16618471 0.42453462 -0.01375021 -0.4747848 -0.856314 0.1837922 -0.15578625
4 -0.038196445 0.3692335 -0.016450733 -0.12946337 0.4990274 -0.026672734 -0.48527342 -0.86356455 0.23451409 -0.100774094
1 -0.057542954 0.38459837 -0.011231154 -0.14093813 0.43173003 0.026083397 -0.49717644 -0.8410538 0.2592319 -0.15536878
2 -0.07845632 0.31388697 -0.05235346 -0.18020248 0.50784355 -0.031307217 -0.42422262 -0.8714934 0.19040105 -0.1361246
0 -0.033214312 0.35657522 0.04004696 -0.1582474 0.51513165 -0.061366335 -0.38949725 -0.8675403 0.26412204 -0.14443743
