7 10
4 0.686803 0.23779687 0.14372635 -0.6814175 -0.5072079 0.13269734 0.18958257 0.050610483 -0.27579188 -0.28778937
3 0.60983306 0.17501044 0.07888691 -0.6546402 -0.5741575 0.16070645 0.21863198 0.0027989398 -0.28756118 -0.2554343
0 0.639522 0.25158304 0.12077957 -0.5834888 -0.52507156 0.15984476 0.20701666 -0.026415959 -0.28811026 -0.31481588
1 0.63791376 0.23259147 0.12013921 -0.6148964 -0.54091674 0.08627222 0.23454738 -0.006657229 -0.29052433 -0.2772756
6 0.64280117 0.23616247 0.13528332 -0.6052853 -0.51202834 0.16625986 0.22632883 0.042754933 -0.32317367 -0.28941834
2 0.6204533 0.22210172 0.12236429 -0.6231086 -0.53416663 0.1260297 0.17174315 -0.022960389 -0.33444738 -0.3221654
5 0.6596089 0.18362395 0.074517325 -0.65770346 -0.5402311 0.16386792 0.17766209 0.04707551 -0.34562513 -0.28542092
