6 10
4 0.25215948 -0.30763888 -0.2176407 -0.4758519 0.5201414 -0.36299157 0.29790062 -0.33033654 -0.053330734 0.6055226
0 0.15642709 -0.34056392 -0.19701043 -0.491229 0.53422385 -0.36663577 0.26665366 -0.2849592 -0.12607916 0.55007756
1 0.20965348 -0.349945 -0.20276791 -0.5215811 0.4954905 -0.3503114 0.2027145 -0.3642936 -0.10959605 0.57454216
2 0.16236876 -0.39244828 -0.1466758 -0.5421851 0.50661236 -0.33811474 0.2159015 -0.35550433 -0.12997289 0.56472063
5 0.19622403 -0.2656178 -0.22049277 -0.47670135 0.53016156 -0.3380083 0.25716937 -0.24900492 -0.10985527 0.601479
3 0.16172256 -0.3526027 -0.19411384 -0.5072924 0.52904207 -0.31597242 0.24284744 -0.3372227 -0.049304947 0.5679145
