7 10
1 -0.6021904 -0.28137827 0.4221592 0.55597085 0.9206102 -0.48206186 0.13159555 0.6102216 0.7158461 0.6059597
0 -0.53221774 -0.31797642 0.48903558 0.52672577 0.9562918 -0.5014011 0.20222385 0.7055848 0.73851055 0.6937917
5 -0.22657494 -1.4696702 -0.57388836 -0.22222482 -1.0588256 0.40940762 0.72556496 1.3721476 0.8781599 -0.7342306
6 -0.15061752 -1.5821556 -0.58839816 -0.22056791 -1.187204 0.42861137 0.7981222 1.477971 0.9046274 -0.78181654
3 -0.5558512 -0.28500733 0.49026567 0.49944073 0.9470334 -0.40981382 0.18516152 0.5859515 0.6848652 0.67399645
4 -0.574089 -0.28216258 0.39047906 0.47457743 0.8567796 -0.43920928 0.12490873 0.67087823 0.62455034 0.60604805
2 -0.45227015 -0.2692397 0.32635558 0.47133127 0.7947974 -0.42507604 0.17538238 0.5744056 0.6459465 0.5588399
