7 10
0 0.37387645 0.63657165 0.09111762 0.12325997 -0.5091327 -0.039054975 0.21074721 -0.21699241 -0.67039406 0.18628111
2 0.32108563 0.72323895 0.052633725 0.14872776 -0.47588193 -0.046202775 0.22352041 -0.29148635 -0.65485215 0.20566633
5 0.29927868 0.6881159 0.1038379 0.12538107 -0.48745432 -0.019145487 0.21977311 -0.25175175 -0.6828409 0.22199321
1 0.3673797 0.6562712 0.018762507 0.06642163 -0.4655765 -0.0034331447 0.13994756 -0.22724771 -0.65721804 0.1981577
3 0.37601382 0.68327713 0.06569832 0.0777026 -0.4853246 -0.06739113 0.19704375 -0.2662908 -0.6529336 0.21186273
4 0.3378472 0.6517452 0.071259186 0.06793845 -0.4870566 -0.055825528 0.23773399 -0.20217894 -0.57938254 0.1682986
6 0.3632065 0.5658399 0.08459494 0.12686697 -0.46362293 -0.08513891 0.19621849 -0.1731867 -0.6275799 0.2225103
