7 10
2 -0.12358662 0.050220426 -0.70209414 -0.0902472 0.029944157 -0.33681646 0.15241712 -0.7536468 -0.2501915 -0.36899853
1 -0.09940844 0.055217907 -0.729625 -0.035147388 0.05278896 -0.32267 0.103118986 -0.69539857 -0.31574142 -0.3717956
3 -0.1246392 0.1449685 -0.6968016 -0.01757353 0.059976704 -0.37412277 0.21498175 -0.7123473 -0.22884846 -0.3158968
5 -0.064909354 -0.009128758 -0.730228 -0.026263813 0.029104862 -0.27932653 0.13037688 -0.7027498 -0.29298458 -0.29210994
6 -0.09815003 0.087803155 -0.73381186 -0.074515656 0.0874591 -0.28980005 0.15907297 -0.70843923 -0.25886646 -0.34781727
4 -0.073656455 0.11956208 -0.6667276 -0.08656765 0.0700393 -0.33752933 0.20995376 -0.73179495 -0.26343632 -0.34842312
0 -0.097370386 0.022998972 -0.69865215 -0.06464228 0.08065028 -0.3177032 0.17562254 -0.7282285 -0.24566427 -0.32366455
