6 10
4 -0.440487 -0.36644307 0.34403557 0.2380637 0.18185617 -0.285915 0.52284116 -0.27068344 0.6026955 -0.24988945
1 -0.4423217 -0.40827787 0.37957168 0.20866084 0.21522017 -0.30201277 0.53259623 -0.2722423 0.54374087 -0.21810167
2 -0.40546536 -0.41744015 0.37447742 0.18043242 0.25639886 -0.336322 0.4980244 -0.2544187 0.5152035 -0.16613315
0 -0.4005991 -0.3973395 0.38116285 0.2358839 0.22245985 -0.3094824 0.4727089 -0.24653682 0.6089845 -0.19604908
3 -0.36004525 -0.4078879 0.37821195 0.22294658 0.249779 -0.31552225 0.5253894 -0.2635092 0.5678719 -0.18877752
5 -0.40964037 -0.40632305 0.37107894 0.15005705 0.19131736 -0.28553757 0.49345362 -0.27146026 0.54849726 -0.17871383
