6 10
3 0.056056105 0.110835485 -0.10887203 -0.2139564 -0.0609636 0.17352244 0.6362031 0.38637862 0.79536104 -0.24262145
2 -0.033157818 0.13180557 -0.13469769 -0.17643782 0.010777808 0.13163325 0.62076116 0.41089946 0.7626681 -0.20895937
1 0.057779096 0.105860785 -0.14008027 -0.20585695 -0.017966777 0.1924541 0.6470088 0.36914232 0.8748001 -0.19376692
4 0.03042452 0.15932308 -0.14348455 -0.20691791 -0.111400805 0.20538175 0.65687746 0.35418007 0.80123466 -0.2650971
0 0.1402538 0.14824572 -0.08322517 -0.28790224 -0.12975344 0.23361626 0.64472437 0.35210833 0.86039895 -0.24665539
5 0.13093032 0.1682607 -0.11917311 -0.24166237 -0.07967347 0.24390812 0.64680696 0.28882733 0.8559374 -0.20312022
