7 10
6 0.3043489 -0.4691596 -0.38560295 0.4157756 0.06285274 -0.049134374 -0.526945 -0.6954668 0.07538717 -0.21260123
5 0.20882218 -0.5350877 -0.30166882 0.38201004 0.024870234 0.016325023 -0.5766505 -0.6389731 0.0678445 -0.15462413
4 0.27545422 -0.45221895 -0.3581241 0.36159077 0.03658281 -0.06244355 -0.5998086 -0.71057266 0.0067957724 -0.13860697
3 0.26322758 -0.4787567 -0.3758707 0.34154168 -0.013205785 0.025877839 -0.59561914 -0.6969064 0.027028741 -0.1319262
2 0.25007087 -0.51993674 -0.3406473 0.3783318 0.05322168 -0.026517276 -0.58034277 -0.6409198 0.06799203 -0.17468365
1 0.21237443 -0.4880091 -0.3666642 0.38687822 0.011226438 0.02066303 -0.5719716 -0.64858776 0.04867729 -0.16451083
0 0.26730216 -0.5266682 -0.338037 0.38392758 0.025816565 -0.04391806 -0.5878701 -0.64595443 0.040496115 -0.16552773
