6 10
4 -0.32175657 -0.25884676 -0.10114371 -0.058692444 0.18132119 -0.53088224 -0.061698705 0.2570565 -0.4064367 0.8567024
1 -0.3344115 -0.20845109 -0.16114582 -0.07660306 0.200257 -0.55002046 -0.0022927176 0.27627578 -0.38408324 0.83408475
2 -0.34350675 -0.222641 -0.14377543 -0.11457009 0.21907191 -0.5152153 -0.09215951 0.27867326 -0.36920905 0.83032024
5 -0.27395508 -0.22846524 -0.08304965 -0.115252584 0.25708437 -0.5430828 -0.04730918 0.22386515 -0.3698978 0.8516175
3 -0.31657833 -0.18417104 -0.0712327 -0.10905007 0.25970283 -0.52836674 -0.06976393 0.23505373 -0.3856738 0.79211247
6 -0.22993593 -0.14560013 -0.09796786 -0.13865095 0.25412086 -0.5361542 -0.016041836 0.23730169 -0.3766431 0.79713637
