6 10
4 0.7180299 -0.32868022 -0.06811796 -0.015152336 -0.50714284 -0.14613843 0.4961468 0.2397497 -0.31763136 -0.31984332
3 0.7358038 -0.36826608 0.012510359 0.057562023 -0.47801587 -0.14540343 0.5340869 0.22801323 -0.34084505 -0.25862172
0 0.72783107 -0.3683956 -0.05010616 0.06703148 -0.4984899 -0.1721081 0.48886847 0.20450355 -0.34453186 -0.2843282
5 0.6576732 -0.3594024 0.02115247 0.06503744 -0.39898968 -0.20181336 0.49894458 0.18055224 -0.32817352 -0.3104381
2 0.6702014 -0.2921908 -0.036154445 -0.016342327 -0.48369363 -0.16325592 0.5249174 0.16901535 -0.2907144 -0.32560205
1 0.67325395 -0.286787 -0.034117356 -0.034878828 -0.4670675 -0.1857312 0.4917994 0.18381709 -0.2850859 -0.27140573
