7 10
2 0.78927463 -0.15782544 -0.19368328 0.30130148 0.53445363 -0.4251301 -0.3953801 0.04405043 0.10475253 0.19094293
4 0.80765826 -0.11721888 -0.20186508 0.37031773 0.5327478 -0.39150873 -0.38247457 0.0104873935 0.051007204 0.16034259
5 0.8071574 -0.16809008 -0.21301043 0.3587851 0.51927257 -0.4343517 -0.3693482 0.064018525 0.1278858 0.11632652
1 0.80625826 -0.14096193 -0.14111423 0.358434 0.54671746 -0.3926304 -0.36540008 0.0413458 0.12985715 0.11888656
3 0.7644112 -0.0682062 -0.11443571 0.3399305 0.5130244 -0.34094408 -0.39443198 0.03185875 0.0650363 0.19095923
0 0.78444904 -0.1229577 -0.18726645 0.3222809 0.5530636 -0.38869184 -0.3213411 0.0003689639 0.12184795 0.16581073
6 0.7571434 -0.16026011 -0.17643446 0.31843993 0.48868912 -0.4139125 -0.3796901 0.07452034 0.07789128 0.16952758
