7 10
6 -0.3275394 -0.25833583 -0.6278848 -0.026419863 -0.35806882 0.2592493 0.6234041 -0.40590134 0.1781456 0.07452384
3 -0.33805335 -0.25841352 -0.6591327 0.018306198 -0.37126803 0.2636322 0.6384537 -0.38650772 0.19720557 0.06784243
5 -0.37164462 -0.2500257 -0.5950447 -0.036180586 -0.30916685 0.3117396 0.6706559 -0.42918298 0.15011369 0.0892014
4 -0.26406294 -0.19165684 -0.63989043 -0.05090158 -0.39754996 0.3086601 0.6606789 -0.37726444 0.17187789 0.057903744
2 -0.25847045 -0.16556022 -0.6467115 -0.047116455 -0.40636623 0.30638546 0.6326128 -0.42621166 0.17308263 0.04781561
1 -0.33547634 -0.22682764 -0.6356608 -0.033824053 -0.32434082 0.31490093 0.6416091 -0.43056023 0.101172626 0.10549252
0 -0.32722035 -0.25706315 -0.62955236 -0.038574204 -0.32996318 0.3202104 0.6282793 -0.43388414 0.15191744 0.08185717
