7 10
6 0.40309596 0.2972446 0.5041256 -0.45197958 0.23758085 -0.020755535 -0.5588259 -0.15835933 0.15832268 0.43321958
1 0.43075758 0.27369007 0.5747948 -0.41794538 0.19923356 0.026228163 -0.59114295 -0.21102645 0.09612229 0.4563832
2 0.39679414 0.2755674 0.5781346 -0.48742914 0.18807414 0.053876612 -0.6067243 -0.14117232 0.13134871 0.4130257
5 0.44207057 0.25129783 0.5560592 -0.36595345 0.16116855 -0.014787545 -0.5720577 -0.2027493 0.16268848 0.42605174
0 0.37210417 0.3123279 0.5765021 -0.42521042 0.15050578 0.021975499 -0.6049626 -0.22242054 0.118112765 0.39906913
4 0.41097233 0.2903762 0.5621876 -0.4436693 0.22533679 0.0030385405 -0.53018695 -0.10975327 0.083206065 0.4428202
3 0.357155 0.23456691 0.54978997 -0.43069234 0.20065989 0.011370784 -0.5724661 -0.1751666 0.14946193 0.4267262
