7 10
0 0.040852092 -0.29509777 -0.81871927 0.20732632 0.1522576 0.51238066 0.53964555 0.19535813 0.030958975 -0.05611798
4 0.033820886 -0.21139789 -0.79235226 0.17080078 0.23198819 0.5869541 0.5300517 0.21877377 0.08197972 -0.06815525
3 0.05449219 -0.24273708 -0.7941986 0.15278034 0.2008474 0.52033746 0.5469619 0.15178521 -0.004969061 -0.0846437
2 0.08577688 -0.2177767 -0.7488738 0.16618726 0.22015905 0.5826366 0.5503157 0.17108367 0.06481347 -0.030797275
5 0.028751489 -0.2644849 -0.7981179 0.14630105 0.13454632 0.580796 0.5070477 0.17064127 0.080889724 -0.07763706
6 0.08728692 -0.2811803 -0.7356634 0.1964604 0.15420943 0.5570417 0.55675936 0.1253078 0.07468288 -0.08281465
1 0.037299484 -0.26877898 -0.78555816 0.119099654 0.15496047 0.5584493 0.5374644 0.18375343 0.043225337 -0.09388598
