5 10
3 0.30489993 -0.14961304 0.19318226 0.25462428 -0.20558247 0.23810701 -0.057634886 -0.593696 -0.12197798 -0.8408936
4 0.31911266 -0.17181578 0.15776771 0.19075653 -0.1655825 0.28011426 -0.10349036 -0.6072299 -0.061737955 -0.84916073
1 0.2715551 -0.17665541 0.15454465 0.28143477 -0.16526102 0.28318852 -0.075285226 -0.5797406 -0.09505143 -0.83868784
0 0.30884376 -0.13318045 0.14549126 0.27487975 -0.13219766 0.2598987 -0.052388713 -0.5613469 -0.10672592 -0.8171387
2 0.35292453 -0.13469934 0.20405085 0.23628098 -0.115515135 0.3037349 -0.09316783 -0.56037045 -0.09063749 -0.8282966
