7 10
2 0.18251641 0.5460295 -0.28573075 1.2170177 -0.07707004 -0.88645715 0.250622 -0.45404914 1.2081417 0.69512093
0 -0.2842784 0.87245584 0.85173696 -1.251662 -0.3695796 -1.4484352 -0.074886315 -1.0452014 -0.14873488 -0.863926
6 0.12618762 0.5131444 -0.17007256 1.1254492 -0.04140124 -0.86717457 0.25320837 -0.43261528 1.0975227 0.66750133
1 0.04900231 0.4839017 -0.19213246 1.0765336 -0.014722531 -0.75475436 0.18733247 -0.37906826 0.9595389 0.6198377
5 0.14013597 0.48086363 -0.192676 1.1563625 -0.07413266 -0.8103475 0.25466385 -0.34610888 1.0682424 0.7046396
3 -0.30983517 0.7837961 0.80591834 -1.144375 -0.37970966 -1.3402174 -0.096360855 -0.98352045 -0.19267765 -0.7716469
4 -0.323751 0.76038337 0.7159608 -1.1172074 -0.4048497 -1.3355913 -0.12053343 -0.8993546 -0.13367054 -0.7684051
