7 10
5 -0.34543785 -0.100254305 -0.4100417 -0.51089174 -0.18718123 -0.71875274 -0.44055906 0.30300328 0.27920958 0.27771974
6 -0.35561633 -0.0126726795 -0.46910074 -0.4232836 -0.24137014 -0.66986954 -0.39411876 0.24291374 0.27043593 0.25000668
4 -0.31359798 -0.016222287 -0.42171964 -0.42599604 -0.18961139 -0.65079004 -0.43511096 0.29752365 0.24249162 0.23000525
3 -0.36347055 -0.06595645 -0.46858847 -0.4388846 -0.1604403 -0.583774 -0.43906957 0.31193283 0.28350785 0.21488988
2 -0.35627174 -0.021209175 -0.4694616 -0.44156635 -0.25396025 -0.63732547 -0.39053518 0.29929623 0.28206283 0.18865936
0 -0.37174135 -0.025323765 -0.46518457 -0.441781 -0.18637198 -0.6328337 -0.40498495 0.29522482 0.23394863 0.24039236
1 -0.37290215 -0.08211486 -0.4536174 -0.43177602 -0.22591124 -0.66476476 -0.42778382 0.24462056 0.3084824 0.22084562
