7 10
3 0.80629 0.3437851 -0.21880336 -0.6297219 0.3206436 -0.052922007 -0.34917387 0.18987985 -0.036198843 0.06738026
4 0.77243894 0.34429967 -0.24906498 -0.60396314 0.34114137 0.03447607 -0.31192887 0.19712386 0.038196743 0.084361374
1 0.7348952 0.33003154 -0.26021096 -0.59922343 0.323795 -0.032616682 -0.36485767 0.19233894 0.0273221 0.10213593
0 0.7682687 0.30426195 -0.2895609 -0.578476 0.3052797 0.007492817 -0.35600236 0.23163037 -0.0074819354 0.07312254
2 0.7753771 0.319606 -0.27539027 -0.58113515 0.3244475 0.0037320433 -0.3776634 0.15843537 -0.043069106 -0.0030246244
5 0.7625517 0.3328111 -0.20209816 -0.6020866 0.3517592 -0.03319306 -0.3314837 0.16321303 0.031648666 0.009589804
6 0.78465736 0.36115772 -0.23431084 -0.6051269 0.32078424 -0.028701117 -0.351212 0.20187399 0.0027549723 0.037359867
