6 10
2 -0.29447436 -0.22017573 -0.31125465 -0.27080494 -0.4878768 0.7022007 0.21547979 -0.12120454 0.46966583 -0.27972353
1 -0.224261 -0.26659986 -0.2705131 -0.32406652 -0.42479104 0.7096468 0.15478742 -0.06506928 0.50484747 -0.35581583
3 -0.278761 -0.26382554 -0.23468222 -0.2830812 -0.4687517 0.6090707 0.22705846 -0.18234216 0.55714685 -0.23034805
4 -0.22855051 -0.26035666 -0.34504345 -0.2649684 -0.44062054 0.69053143 0.1916191 -0.17201097 0.5786833 -0.3299116
5 -0.22813202 -0.27531072 -0.2812879 -0.22125396 -0.47841933 0.64976764 0.17672388 -0.18364157 0.54481965 -0.25512207
6 -0.21397424 -0.21826388 -0.24237268 -0.3197197 -0.45047706 0.6960467 0.21759315 -0.16192348 0.5110098 -0.3340786
