7 10
5 -0.20899007 -0.40646493 -0.4366724 0.3774896 -0.25804815 0.18893385 -0.3713716 -0.10981021 -0.793591 -0.016290996
4 -0.25077438 -0.5263638 -0.45819664 0.2867459 -0.31007487 0.16513677 -0.378385 -0.13478218 -0.73515624 -0.0054484704
1 -0.21369755 -0.46877605 -0.4464171 0.340412 -0.2755097 0.24429476 -0.38543946 -0.059380904 -0.7355825 -0.0038905076
2 -0.21202502 -0.45383856 -0.38028646 0.36693734 -0.25269455 0.23319164 -0.33672255 -0.054812733 -0.7293945 0.055335794
3 -0.19909397 -0.39504102 -0.36639875 0.33990845 -0.26447532 0.19154915 -0.37350312 -0.10392618 -0.77200496 0.049986597
0 -0.22566873 -0.53854346 -0.46438947 0.2844027 -0.22059825 0.20606712 -0.42099494 -0.14820182 -0.7930376 0.028206196
6 -0.16100325 -0.4250798 -0.46168226 0.3748113 -0.27604175 0.2284599 -0.36937338 -0.12868463 -0.71715385 0.049593452
