7 10
0 -0.48493165 0.31208608 0.4423067 -0.13326465 -0.3744134 0.5527136 -0.15092629 -0.14118803 0.5108506 -0.2652214
2 -0.52424014 0.25733805 0.3936851 -0.09602432 -0.31204036 0.58955586 -0.13227211 -0.11337846 0.5576236 -0.32471803
4 -0.5200908 0.32099432 0.39212275 -0.17062481 -0.3343475 0.54272974 -0.20526691 -0.13827541 0.5805113 -0.29066956
3 -0.49078435 0.34336966 0.41598877 -0.103814565 -0.41000807 0.5667576 -0.15164098 -0.19195971 0.5665987 -0.28594655
5 -0.49799472 0.2671754 0.43055752 -0.1000718 -0.32399228 0.5542062 -0.12000689 -0.15901181 0.4981731 -0.33308467
1 -0.44661584 0.326713 0.4404598 -0.11651427 -0.33939976 0.4913938 -0.17706965 -0.17368835 0.5061474 -0.3251086
6 -0.5327551 0.24273016 0.45180783 -0.14694712 -0.32685047 0.5688422 -0.18800157 -0.1746159 0.54949784 -0.35093698
