6 10
5 -0.75976294 -0.16130477 0.29365692 0.029823624 0.66100454 -0.081502624 0.32303506 0.22504455 0.19249374 0.31982297
1 -0.67034537 -0.12480449 0.34110895 0.13910246 0.55632174 -0.052825518 0.34226647 0.2101504 0.20939837 0.29756865
4 -0.67149705 -0.10655006 0.283282 0.14076343 0.61796886 -0.0023218503 0.26771408 0.2792678 0.22412468 0.3252439
6 -0.77147603 -0.051714286 0.2457941 0.034475103 0.6627155 -0.10946769 0.2785571 0.3357592 0.2950928 0.3521427
2 -0.69352764 -0.11014772 0.31056005 0.05485766 0.60378116 -0.078752995 0.33798864 0.2732614 0.21869692 0.3292225
3 -0.7956878 -0.022778742 0.35309756 0.011890356 0.61978126 -0.07133929 0.33098608 0.37858388 0.3154217 0.38005322
