7 10
0 0.49804536 -0.17922148 -0.02900616 -0.26899883 0.12267095 0.75006574 -0.18632305 0.29781026 -0.26761767 -0.4731129
1 0.49094605 -0.058152094 0.02125473 -0.260272 0.13568941 0.78217494 -0.13788983 0.31259105 -0.23018107 -0.49219632
4 0.444945 -0.15241817 -0.039178036 -0.20745681 0.10211846 0.80275416 -0.23579736 0.32426223 -0.21751846 -0.51195365
3 0.5309502 -0.12281588 -0.051582795 -0.28290194 0.061998706 0.772975 -0.18180831 0.3250225 -0.2741073 -0.49268937
5 0.47350088 -0.18890253 0.039668918 -0.30010813 0.12589191 0.8000322 -0.26091588 0.31438908 -0.26140872 -0.4962537
6 0.4940672 -0.19028361 0.013621988 -0.2202253 0.14385414 0.7515103 -0.26248723 0.37188405 -0.26584986 -0.49686632
2 0.5106067 -0.10682648 -0.014037066 -0.19752306 0.09255046 0.78421086 -0.19665228 0.2903779 -0.24482748 -0.48455122
