6 10
2 0.26544854 -0.519665 -0.28727922 0.19395784 0.24133807 0.50504845 -0.19981332 -0.7940142 -0.16750878 -0.26101688
0 0.2368049 -0.5173022 -0.23425177 0.18483615 0.28011847 0.49737382 -0.18622433 -0.74150395 -0.16802159 -0.23663191
5 0.2299305 -0.518011 -0.28642732 0.17916064 0.25306645 0.49756014 -0.19750057 -0.7853694 -0.16456193 -0.1635043
1 0.16175124 -0.5192877 -0.2109385 0.20602307 0.28495967 0.44605222 -0.14307624 -0.74767846 -0.17310388 -0.20303664
3 0.17285039 -0.5049582 -0.301116 0.2192223 0.3067858 0.44677174 -0.10537943 -0.75340253 -0.095166616 -0.18189315
4 0.20138648 -0.47105557 -0.3084596 0.16697553 0.25869742 0.48121142 -0.12968831 -0.7451549 -0.18648416 -0.1624288
