7 10
0 -0.3401141 -0.29981586 0.61603165 -0.07670178 0.20727877 0.24466552 -0.5052101 0.1559336 0.28454876 -0.5991901
1 -0.3104738 -0.29278055 0.59234416 -0.08878071 0.23513062 0.21252143 -0.49091265 0.22532527 0.26543033 -0.5851469
4 -0.31387177 -0.33192006 0.60779274 -0.024878867 0.2025859 0.25831246 -0.49886218 0.20495859 0.2115846 -0.60391545
5 -0.36592457 -0.34904367 0.5715727 -0.106227815 0.17450342 0.18231355 -0.5322724 0.20562553 0.24869005 -0.59974194
3 -0.3592151 -0.31664956 0.59251904 -0.059472598 0.20295243 0.28143057 -0.52709705 0.24144407 0.2784286 -0.5905966
2 -0.32356343 -0.31042182 0.61180246 -0.075279504 0.19995934 0.27567732 -0.45158806 0.1608581 0.30253252 -0.64125806
6 -0.3616776 -0.3506629 0.5983273 -0.08650895 0.23529704 0.18492399 -0.51454145 0.16958116 0.1892331 -0.59589475
