6 10
4 -0.17950244 0.62221783 0.084024675 0.46113962 -0.49637932 -0.27834594 -0.012477722 0.3782014 0.43622237 -0.18319695
3 -0.22981755 0.60068303 0.04848319 0.43668017 -0.46785197 -0.28360352 0.005088145 0.3774657 0.46253082 -0.15835106
2 -0.25606772 0.6091042 0.098859526 0.46385995 -0.5074519 -0.23661712 -0.05700574 0.37901586 0.44995254 -0.1919381
1 -0.25273803 0.6500559 0.06011825 0.47096074 -0.51053834 -0.31838048 -0.0073344926 0.35545298 0.39065963 -0.17708443
0 -0.17654482 0.62854207 0.041375034 0.4564392 -0.481645 -0.29372758 -0.0157563 0.38885874 0.43250832 -0.14236148
5 -0.19856912 0.6580826 0.013808846 0.52015674 -0.5277383 -0.30292708 -0.009026029 0.34868926 0.42318544 -0.2249487
