7 10
3 0.47096956 0.6553986 0.26769954 -0.16696146 0.21140552 -0.13777347 0.2836716 -0.24963245 0.30631056 0.5568347
0 0.49102542 0.69917643 0.17555796 -0.099339604 0.21679144 -0.11093631 0.38232303 -0.21534409 0.35913724 0.5413164
6 0.47770154 0.66170657 0.267052 -0.16419725 0.21640606 -0.11806759 0.34607205 -0.17682394 0.3820787 0.5368152
5 0.4996787 0.61063457 0.28884134 -0.099983975 0.21596003 -0.17596522 0.291246 -0.24429598 0.3875862 0.5182891
2 0.47920612 0.6711021 0.21009862 -0.12551025 0.12943266 -0.18041651 0.36389977 -0.21394327 0.39336142 0.5350034
4 0.41477534 0.6763428 0.18687464 -0.1198066 0.20680651 -0.16711998 0.32860455 -0.23665681 0.3968858 0.57825965
1 0.43584412 0.7102165 0.27579674 -0.165733 0.19011319 -0.14717409 0.334236 -0.23172392 0.33366698 0.521087
