7 10
0 -0.88003254 0.061577655 0.34794033 0.2807398 -0.3138546 -0.023279693 -0.5096217 0.16289723 0.29587132 -0.024685325
2 -0.8293738 0.06396621 0.30510435 0.26064813 -0.33732754 -0.0037969882 -0.5043825 0.21937664 0.3311441 -0.035079673
6 -0.8359347 0.017957363 0.3499039 0.29912966 -0.28113666 0.020277828 -0.4801173 0.17004988 0.2671487 -0.009471424
1 -0.84491956 0.029274084 0.34066257 0.22299029 -0.2621963 0.0037132332 -0.49773976 0.20939694 0.29867265 0.01239412
5 -0.8187411 0.06163526 0.33969867 0.291256 -0.26410905 0.046428528 -0.50496835 0.1953252 0.26671046 -0.010101015
4 -0.85554725 0.04171172 0.35696423 0.25927824 -0.23992689 0.039431658 -0.50674826 0.172958 0.23177946 0.029405765
3 -0.8403956 0.097991444 0.3253532 0.25617632 -0.30027512 0.064377055 -0.5200399 0.14150433 0.30535245 -0.05640654
