7 10
6 0.124777295 -0.7740215 0.28496757 -0.19827245 -0.73258114 -0.09221977 0.046483956 -0.03352592 0.027888441 0.27514797
0 0.17256413 -0.8106793 0.30269462 -0.28855547 -0.72347015 -0.16691755 0.026230814 -0.05475969 0.038603764 0.2542773
5 0.15796944 -0.7492789 0.35006163 -0.23431662 -0.6844654 -0.13372101 -0.022319442 0.011452938 0.029509148 0.26414576
4 0.16032119 -0.73565584 0.29814392 -0.27508965 -0.7313862 -0.17265736 0.0045694727 -0.02833635 0.06323165 0.30026302
3 0.16691855 -0.7456408 0.35748085 -0.20203698 -0.7151983 -0.14406358 0.047679394 -0.03171467 0.07740655 0.25269824
1 0.14044146 -0.77969694 0.3016685 -0.2861981 -0.70531577 -0.1871017 0.0052430504 0.0029600996 0.09272449 0.2901026
2 0.16184099 -0.76323366 0.33206064 -0.25831655 -0.6920511 -0.08695059 0.0077705737 0.021700451 0.016192982 0.23267531
