7 10
5 -0.34003127 -0.22812833 -0.5259224 -0.7806132 0.15661255 0.040589415 -0.4145912 0.40584737 -0.13191627 0.17130989
2 -0.33375055 -0.14514722 -0.49884433 -0.78034943 0.16336238 -0.008265426 -0.31837595 0.42213205 -0.066191934 0.23976204
1 -0.32630283 -0.16588563 -0.5038687 -0.7735952 0.14753424 -0.01766401 -0.36526257 0.4486321 -0.11626136 0.22421229
3 -0.32578158 -0.111941114 -0.5013818 -0.7938293 0.14896639 0.048291575 -0.34020698 0.45029938 -0.12029828 0.22678728
4 -0.37133446 -0.20775372 -0.47118598 -0.7489189 0.10810217 0.035289884 -0.37642628 0.4165537 -0.060415044 0.20084545
0 -0.38626376 -0.20939298 -0.4370169 -0.75485754 0.1926158 0.01657884 -0.358649 0.41267148 -0.07949725 0.15288927
6 -0.38824344 -0.22466062 -0.4523039 -0.7845943 0.14092374 -0.0067648776 -0.41726747 0.47345588 -0.16501689 0.19969556
