7 10
0 0.15330954 0.70278734 -0.27554235 0.33933744 0.007932059 -0.5801048 -0.28209 -0.39017132 0.042706203 -0.44698042
2 0.21547793 0.72195303 -0.30977288 0.3195005 0.034550674 -0.5143643 -0.31384167 -0.38204327 0.019721799 -0.40461934
3 0.14142834 0.68615645 -0.25011843 0.33731464 0.038502514 -0.5030036 -0.32581326 -0.40398443 0.039220706 -0.41305432
4 0.17789122 0.72672075 -0.32585728 0.24609932 0.056423277 -0.5217271 -0.35669425 -0.34559202 0.06711445 -0.3468343
5 0.14194316 0.7039875 -0.24837235 0.24416956 0.033868544 -0.55198914 -0.3156044 -0.33958828 0.06710093 -0.3995483
1 0.17574817 0.66215336 -0.3231215 0.25873578 0.060729686 -0.51173687 -0.33309165 -0.36617744 0.096745655 -0.33816573
6 0.17204997 0.65362585 -0.2820522 0.24001478 0.0829312 -0.54988724 -0.36206144 -0.41351563 0.040629115 -0.42102614
