6 10
5 0.4774897 0.93733174 0.27642173 -0.040191993 0.29626018 0.15524581 -0.28310606 0.24823946 -0.24033853 -0.015287351
4 0.42466226 0.9522748 0.28927025 0.019968078 0.2734035 0.112617895 -0.31305975 0.22422436 -0.18268499 -0.062051486
6 0.5138049 0.9137031 0.21288186 0.009152636 0.29444206 0.13616043 -0.23520705 0.1997126 -0.23242188 -0.07100832
2 0.47396904 0.936637 0.29299328 -0.061363522 0.25367782 0.07653828 -0.25456724 0.16088098 -0.25686672 -0.045387123
3 0.4178548 0.91163874 0.291706 -0.053167243 0.28775933 0.07733707 -0.25318125 0.23768951 -0.23162079 -0.08817062
1 0.4276725 0.9153828 0.2248289 -0.03550528 0.3069445 0.14080894 -0.24794614 0.20131601 -0.1985354 -0.07983025
