5 10
1 0.18119073 0.0225775 -0.41268387 -0.052225392 -0.18644406 0.3934097 -0.2918573 -0.15934883 -0.8745286 -0.01409643
4 0.25175062 0.0068165683 -0.3832971 -0.03614041 -0.1207276 0.40706667 -0.22218424 -0.17238875 -0.9221012 -0.04706683
2 0.19909145 -0.03653999 -0.34118307 -0.04499277 -0.19051829 0.356741 -0.2106382 -0.16690086 -0.8921779 -0.07001893
0 0.19504409 -0.03241529 -0.32128513 -0.024044968 -0.107828245 0.3678627 -0.23127331 -0.15396042 -0.84458566 -0.05088462
5 0.22358333 0.021230506 -0.4180234 -0.053636663 -0.17712511 0.4026289 -0.27296442 -0.21213175 -0.88298863 -0.03612237
