7 10
0 0.2147587 0.2738815 -0.73483944 -0.2390298 0.08475051 0.3739253 -0.4253007 0.41936156 0.2746309 0.48051
2 0.15061074 0.20153679 -0.7595384 -0.28324398 0.09007282 0.37172756 -0.3689172 0.4365438 0.23431915 0.39746848
3 0.09041985 0.20388591 -0.76014 -0.24341781 0.13984668 0.3515235 -0.31936133 0.45406708 0.24074264 0.47963384
1 0.12714839 0.19251812 -0.7608909 -0.22614264 0.122624695 0.40206027 -0.33202672 0.42368647 0.1878319 0.3984686
4 0.09553367 0.25109938 -0.77906597 -0.25079727 0.1759723 0.3640158 -0.3081532 0.36226144 0.16233607 0.48862964
5 0.17218463 0.19768484 -0.71971256 -0.2140537 0.16016711 0.38609207 -0.35884467 0.4101852 0.16227749 0.45939052
6 0.12900895 0.2630677 -0.7743744 -0.23762117 0.116367124 0.37455717 -0.28547636 0.44167468 0.23613799 0.37243313
