7 10
1 0.17626822 0.024993338 -0.33163098 -0.4986606 -0.0597374 -0.6962652 0.6771153 -0.28205594 0.20345788 -0.105365865
5 0.4123497 -0.08989515 -0.32050464 -0.68086827 -0.07260056 -0.5216312 0.5051602 -0.275147 0.11893004 -0.19085975
2 0.31169614 -0.026527308 -0.33000684 -0.544642 -0.078439966 -0.62986004 0.6130182 -0.3023234 0.2310444 -0.13960464
6 0.3909966 -0.08831566 -0.29717898 -0.63519067 -0.13715045 -0.55262184 0.48528135 -0.321924 0.13066497 -0.2118982
4 0.26412794 0.028944999 -0.30474666 -0.54991204 -0.10238013 -0.580363 0.6566165 -0.28005764 0.27259204 -0.08538143
3 0.26132894 -0.025978643 -0.35675642 -0.5406294 -0.13314119 -0.60398996 0.5821586 -0.30673596 0.2372216 -0.0654836
0 0.18842936 -0.016030451 -0.3146556 -0.534599 -0.08568874 -0.6294384 0.5871431 -0.2793185 0.26018712 -0.12572101
