7 10
5 -0.050055698 -0.16907828 0.25471807 0.30209547 0.4117728 0.44443324 -0.7116853 0.14396346 0.113169394 -0.5296684
4 -0.10688337 -0.12971488 0.245019 0.32491744 0.38191983 0.42496908 -0.70196223 0.14865968 0.080744565 -0.5063224
0 -0.08429933 -0.10888956 0.28214458 0.34265465 0.40449616 0.41001981 -0.72256446 0.1579872 0.036742568 -0.53993094
3 -0.16477263 -0.08508193 0.16851912 0.36609232 0.35993642 0.45132586 -0.74872136 0.122304775 0.077476576 -0.5233054
2 -0.13748895 -0.18538211 0.26031318 0.29628217 0.35495126 0.42682844 -0.7669913 0.19105619 0.039525587 -0.53145736
1 -0.07280386 -0.09544473 0.2180913 0.33214277 0.45951727 0.40145415 -0.7763527 0.13754524 0.04301468 -0.5337789
6 -0.12749076 -0.15842754 0.19371712 0.34687263 0.41869417 0.40016487 -0.7098046 0.1269981 0.03179767 -0.5294752
