6 10
4 0.3054803 -0.29890615 0.10887812 0.54121876 -0.016898818 0.46060017 -0.68997425 -0.064757295 0.3787651 -0.114190504
5 0.39601654 -0.2942095 0.19513157 0.53579 -0.0031562569 0.47477123 -0.73519814 -0.08432259 0.3402535 -0.18160474
3 0.3164983 -0.27905107 0.15898664 0.4961777 -0.046744384 0.47295037 -0.69139105 -0.05446396 0.36662903 -0.14550446
2 0.38533705 -0.30287656 0.16342957 0.51305443 -0.049058303 0.40215263 -0.616849 -0.11458992 0.38388836 -0.16004635
1 0.35991317 -0.36832726 0.15892647 0.52577466 -0.046393614 0.49644396 -0.6481357 -0.1429725 0.32404083 -0.132164
0 0.36989632 -0.33422107 0.1434942 0.47278908 -0.033153404 0.445525 -0.72294 -0.13268793 0.3919473 -0.17790774
