7 10
2 -0.45990586 0.38318342 0.49866018 -0.6181558 -0.74145555 0.058050882 1.155843 0.42844313 0.24686585 -0.3393627
5 -0.42359227 0.3444789 0.5056613 -0.5360364 -0.6346311 0.08824112 1.0703553 0.33746678 0.19313428 -0.38667947
6 -0.43028364 0.3586192 0.4714365 -0.5378905 -0.664617 0.082516514 1.1004795 0.34759516 0.21634862 -0.30198345
1 0.18484145 -1.1577971 -0.343003 -0.57704484 -0.36609232 -1.1644127 -0.8054617 1.3122916 1.043175 -1.1648179
0 0.13022767 -1.1487244 -0.28131258 -0.6206299 -0.4785213 -1.2364339 -0.8144856 1.3405635 1.1069463 -1.1843848
3 -0.43624517 0.29972085 0.45864326 -0.50596845 -0.6318165 0.10133315 1.0421994 0.3536997 0.15677285 -0.26300666
4 -0.42300427 0.25423753 0.4465584 -0.47431678 -0.61833 0.06515043 0.947347 0.34786898 0.18344745 -0.3604106
