7 10
4 0.31067184 -0.27749592 -0.013140965 -0.9803102 -0.05066796 -0.012052682 -0.47500843 0.07876858 -0.21339302 -0.10191258
6 0.26820904 -0.19972888 -0.039959073 -0.99110645 -0.06067254 -0.020812936 -0.50517845 0.05912674 -0.2081774 -0.072383605
3 0.2614257 -0.27886048 0.02452161 -0.9554259 -0.09495037 -0.054003637 -0.4879357 0.043072645 -0.20979781 -0.08638087
0 0.32936174 -0.26956213 0.057610516 -0.9340839 -0.09149532 -0.08121414 -0.5053972 0.03953698 -0.19483887 -0.055872433
1 0.2967634 -0.2227424 0.048797745 -0.9708295 -0.124896996 -0.029957352 -0.5193269 0.07878557 -0.20416835 -0.08369717
5 0.28915146 -0.2867567 -0.029745713 -0.95473605 -0.10467503 0.008428676 -0.48559773 0.09013913 -0.24379802 -0.033345852
2 0.26503414 -0.27781254 0.0012279482 -0.9802032 -0.054079156 -0.07416188 -0.50131774 0.009371724 -0.18155524 -0.023749085
