7 10
1 -0.37252477 0.6149476 -0.58577216 0.049270857 0.3593977 -0.02214349 -0.08090352 -0.37821522 0.4460019 -0.24882329
4 -0.37541178 0.5774711 -0.5498459 0.11560071 0.35020003 -0.10526136 -0.011903058 -0.3700058 0.39918813 -0.26286295
5 -0.33447817 0.61425257 -0.5736406 0.105756566 0.300721 -0.11415632 -0.054860856 -0.36452878 0.4388126 -0.260924
3 -0.38086239 0.60261154 -0.586824 0.08318365 0.29518968 -0.11913647 -0.043099415 -0.34816185 0.41529116 -0.21930891
0 -0.37884784 0.5147578 -0.542017 0.061455272 0.3021469 -0.07245846 -0.029201178 -0.3730021 0.4396183 -0.2678621
2 -0.40042657 0.655138 -0.5964659 0.10155803 0.36471695 -0.03136586 -0.056245033 -0.4315086 0.45893255 -0.2353475
6 -0.3724849 0.6584837 -0.5908706 0.09008098 0.35036737 -0.10453164 -0.05272298 -0.38735664 0.4815378 -0.26976433
