7 10
3 0.6081045 0.33857864 -0.27680504 0.34847558 -0.22477266 -0.35381335 -0.7112719 -0.040283386 0.023994813 -0.12817106
4 0.56970525 0.3171816 -0.30178452 0.2917198 -0.26771986 -0.37052044 -0.7721419 0.0095589645 0.017665287 -0.21133223
0 0.56779355 0.3194672 -0.24867931 0.2969058 -0.24554741 -0.30267134 -0.7560903 -0.023516567 0.07784337 -0.19098201
1 0.51204187 0.3325774 -0.2437578 0.33283705 -0.22014354 -0.32061538 -0.7190079 0.0330358 0.10731236 -0.16894703
5 0.5669505 0.31772006 -0.28383318 0.36777556 -0.29030895 -0.29618657 -0.7122305 0.007489 0.10306885 -0.22281681
2 0.55057406 0.25827536 -0.26990172 0.34901756 -0.2526028 -0.32992357 -0.65194476 -0.03774597 0.077673346 -0.14839213
6 0.59926337 0.30905002 -0.222257 0.35825068 -0.23198612 -0.38172036 -0.74161774 -0.017154183 0.0865871 -0.192782
