7 10
6 0.32277307 0.08019854 0.19993116 0.71369606 -0.24659178 0.2877137 0.07337617 -0.32757917 0.29569563 0.60878855
4 0.3858454 0.048103902 0.18266284 0.6784044 -0.30142114 0.25878227 0.03502028 -0.3287342 0.34470487 0.58603734
1 0.35334265 0.13426508 0.14672013 0.67703176 -0.27763268 0.261536 0.10547517 -0.37191743 0.3747964 0.5731133
2 0.40431198 0.10878098 0.17046696 0.649658 -0.2318358 0.27428368 0.10241631 -0.31999144 0.30063242 0.58566606
0 0.3680794 0.10921475 0.16579719 0.7068464 -0.30427986 0.23730342 0.02812358 -0.31262407 0.36184454 0.61201185
5 0.35362723 0.051280748 0.16236523 0.7113807 -0.24287827 0.3126877 0.0834554 -0.26170653 0.30479982 0.6150568
3 0.40233725 0.07855872 0.1697491 0.7178698 -0.26764727 0.27024245 0.031815298 -0.34458342 0.38413957 0.56887
