6 10
5 -0.43778563 -0.12781839 -0.26190704 -0.6142971 -0.38834426 -0.58782756 0.18533167 -0.28903064 0.35454297 0.2119189
2 -0.45474097 -0.1565852 -0.2781219 -0.61119473 -0.30403176 -0.6718943 0.18762587 -0.25700533 0.2844632 0.2289057
0 -0.45178163 -0.17809205 -0.24041094 -0.5663125 -0.36915088 -0.64653724 0.18792136 -0.25642037 0.33267465 0.18175204
1 -0.4318316 -0.19603498 -0.30433384 -0.5549167 -0.37741685 -0.6612955 0.11984295 -0.19931483 0.3290686 0.17960282
4 -0.4684679 -0.11483941 -0.2693564 -0.5999519 -0.35046765 -0.61450386 0.13599066 -0.28824145 0.25460577 0.18098326
3 -0.4472397 -0.10362475 -0.2828818 -0.52639246 -0.31749278 -0.63804984 0.1089304 -0.2637474 0.29018098 0.15685907
