7 10
4 0.6323546 -0.28389937 -0.34857488 0.5009445 0.01094851 -0.6178816 -0.23262408 -0.32428214 -0.15371092 -0.35645097
3 0.580331 -0.3218648 -0.37187827 0.51956195 0.08077258 -0.5510105 -0.21621588 -0.32802224 -0.08356747 -0.27597606
1 0.56142837 -0.32851836 -0.361533 0.55207753 0.093207195 -0.5454159 -0.2016065 -0.34969386 -0.08971398 -0.33016998
2 0.5282011 -0.31987044 -0.34331244 0.552329 0.03626495 -0.58526784 -0.27196938 -0.3188004 -0.14725867 -0.27663824
5 0.57104295 -0.2872279 -0.3263123 0.4898082 0.08543113 -0.567135 -0.26708153 -0.2811569 -0.155045 -0.3519655
6 0.55429953 -0.30391613 -0.38752678 0.52250594 0.045878414 -0.5150199 -0.21940736 -0.29362583 -0.076971486 -0.36444882
0 0.525575 -0.28580415 -0.3876259 0.5444867 0.058356304 -0.5188718 -0.23653857 -0.27201366 -0.15774441 -0.33854702
