5 10
3 -0.15178765 0.17591567 0.43157002 0.149751 0.05997999 -0.4953001 -0.1154074 -0.045050662 0.60459054 -0.66799366
1 -0.052893285 0.24137259 0.43540615 0.16304724 0.064211644 -0.46666503 -0.020871049 0.022695659 0.5973215 -0.63615054
2 -0.15326735 0.16657597 0.39281175 0.17472164 0.040869627 -0.45685896 -0.092548266 -0.05542666 0.6002413 -0.66667587
4 -0.1676736 0.25149187 0.40621424 0.20577282 0.11640047 -0.49653304 -0.08721261 -0.04115572 0.5347911 -0.74357307
0 -0.18291299 0.24237841 0.41217193 0.1842628 0.022320865 -0.43705675 -0.14023848 0.024375401 0.6241539 -0.7443234
