7 10
6 -0.081984766 -0.61317486 0.055343997 0.29844067 0.059245728 -0.1857569 0.7004566 -0.1911205 0.57742405 0.0956614
5 -0.07737221 -0.6281047 0.081414565 0.35804516 0.10971993 -0.12869838 0.67446905 -0.2037361 0.61052465 0.062690996
3 -0.04864972 -0.6381716 0.12798253 0.36327007 0.0068895235 -0.122537196 0.6909488 -0.1840442 0.5511487 0.11543846
4 -0.049076255 -0.59948534 0.043680463 0.34543675 0.055394866 -0.153886 0.7061698 -0.1636936 0.59075284 0.033162408
0 -0.065165296 -0.62693375 0.11092624 0.27839732 0.071711585 -0.11122519 0.7213118 -0.19265752 0.61577517 0.03949786
1 -0.030920612 -0.6298338 0.10633749 0.33697724 0.07279502 -0.17849162 0.6679302 -0.14335765 0.5396237 0.08478194
2 -0.04487414 -0.62536734 0.1222407 0.30515945 0.060943864 -0.10258131 0.71007556 -0.13657854 0.5963856 0.023340376
