7 10
6 0.5542202 0.29578692 0.23586558 0.15290803 -0.6475135 -0.16948631 0.27907982 0.28457108 0.5866251 0.004919853
5 0.4909496 0.21386011 0.23379116 0.08160797 -0.6574247 -0.20073716 0.3912302 0.2556863 0.66878986 -0.036808718
0 0.53150314 0.30019477 0.27864444 0.089299165 -0.644731 -0.1312232 0.35240912 0.29707536 0.5930686 0.005792442
3 0.5254329 0.26201415 0.21448486 0.099532604 -0.6187859 -0.12791304 0.3592909 0.22879776 0.6467638 -0.08264442
4 0.5065703 0.2864207 0.27361846 0.11216271 -0.62689334 -0.085105024 0.36339718 0.27729762 0.61132556 -0.008787518
1 0.47489682 0.3029853 0.17010388 0.14371122 -0.6038 -0.16185896 0.33569577 0.21974485 0.64603925 -0.07943727
2 0.5453263 0.22642548 0.23543288 0.13715808 -0.5925151 -0.13204582 0.3225968 0.23557496 0.6501804 -0.069171585
