7 10
0 0.31002107 -0.38832358 -0.2801328 -0.61468047 -0.07954514 0.43339413 0.6364769 0.15700395 -0.22363882 -0.16184449
1 0.34267002 -0.42797717 -0.21204595 -0.52447605 -0.08022247 0.40020785 0.64474434 0.1377402 -0.2258238 -0.23375301
4 0.29675606 -0.41518515 -0.20848024 -0.589831 -0.024539761 0.39694497 0.6377535 0.18688248 -0.28658143 -0.23132144
2 0.35689318 -0.42964613 -0.17228754 -0.5707343 -0.09025541 0.41335782 0.6422387 0.18348901 -0.22108807 -0.23139955
5 0.3623727 -0.44265658 -0.23329838 -0.5546771 -0.035974197 0.4013735 0.61499614 0.18149044 -0.28084582 -0.19772185
3 0.39090452 -0.48970842 -0.20248201 -0.5577297 -0.03846831 0.39554918 0.61420673 0.18368512 -0.2980211 -0.17048779
6 0.37654966 -0.42268583 -0.19604814 -0.61287224 -0.05037109 0.43296275 0.59665513 0.11342322 -0.20900147 -0.14455874
