5 10
0 -0.012165453 0.070550784 -0.84911495 0.4054971 -0.0043629427 -0.17182581 0.22572093 -0.32480076 -0.37100163 0.28789675
1 -0.07494456 0.10090303 -0.8454736 0.4288101 -0.047526825 -0.21233356 0.17858805 -0.34608105 -0.42373893 0.27091318
2 -0.07453389 0.09634156 -0.88528794 0.38440642 -0.060632747 -0.18509631 0.14574513 -0.33554697 -0.4631055 0.19497299
4 -0.10213229 0.041524395 -0.80359024 0.42228043 0.004960453 -0.25355873 0.1726054 -0.27760273 -0.40894657 0.26115122
3 -0.009248351 0.112317614 -0.865797 0.43290928 -0.022891188 -0.19079852 0.18146087 -0.26718238 -0.4735059 0.25232625
