7 10
4 0.50240934 -0.3648774 0.244468 -0.4753483 -0.24467145 -0.30869716 -0.32830688 -0.35644692 0.008570308 0.5641233
2 0.5040341 -0.3527405 0.2489815 -0.42986533 -0.28415686 -0.23618206 -0.33640337 -0.34222844 -0.011269533 0.5614192
3 0.4607167 -0.30215684 0.17580305 -0.5189607 -0.32072735 -0.29892832 -0.314164 -0.35839593 -0.013695094 0.51802254
5 0.46525645 -0.34062767 0.20909713 -0.47846246 -0.24820845 -0.28653258 -0.29330695 -0.38818857 0.01471964 0.53431815
1 0.51853776 -0.33507887 0.18407872 -0.49368712 -0.28087386 -0.24821584 -0.3523264 -0.3946562 -0.0032103027 0.50305164
0 0.5513794 -0.32863736 0.1759678 -0.5506652 -0.2879298 -0.319399 -0.29039124 -0.3994733 0.006656321 0.5647982
6 0.49991214 -0.28991252 0.20449764 -0.47251412 -0.3354285 -0.32246605 -0.3144653 -0.35465157 -0.046820536 0.55507386
