6 10
2 0.31281993 -0.12922993 0.7382094 0.58239645 0.013538478 0.15937941 -0.1509375 -0.45728305 0.10036911 -0.4173486
4 0.3492325 -0.1563362 0.7195923 0.6000915 0.06562151 0.15951738 -0.13453402 -0.511831 0.024443576 -0.42052796
3 0.33505797 -0.06380919 0.6364558 0.56621194 0.049563423 0.20083919 -0.11115131 -0.4583979 0.10651141 -0.41993064
5 0.31251982 -0.09599843 0.675153 0.60533106 0.04352888 0.2031399 -0.09419951 -0.4628584 0.061050866 -0.4283304
6 0.36770925 -0.03754478 0.7420074 0.6334511 0.07896755 0.21907617 -0.097675934 -0.4185148 0.06809427 -0.41051868
0 0.28537312 -0.15420915 0.665024 0.5549004 0.09872392 0.18473649 -0.07432458 -0.47186294 0.01590542 -0.44198123
