7 10
0 -0.43940458 -0.48357803 0.13206123 0.27697587 0.10939498 0.4224809 -0.15748362 -0.03643893 -0.64947885 0.44723174
2 -0.4620551 -0.4916283 0.21626757 0.26626217 0.14285561 0.36898142 -0.21037371 -0.07602595 -0.6556346 0.42719173
1 -0.42488793 -0.46777436 0.14123976 0.24258319 0.17483962 0.40252417 -0.1502774 -0.090131335 -0.6356552 0.46020105
3 -0.45576924 -0.44802028 0.1479816 0.27604127 0.083562255 0.40880433 -0.15811987 -0.042366143 -0.6223722 0.45160326
5 -0.4842725 -0.4620729 0.14806262 0.27795714 0.07847838 0.41149366 -0.13349085 -0.050849386 -0.6877581 0.45026535
4 -0.434923 -0.47279134 0.15517807 0.25450337 0.051178437 0.436634 -0.19325592 -0.034156963 -0.64177436 0.46644664
6 -0.4871256 -0.5054195 0.21027957 0.2832284 0.11369135 0.34139705 -0.1652906 -0.08386425 -0.6564662 0.44665226
