6 10
2 -0.8110515 0.3857918 0.623554 0.5716203 -0.34935746 -0.3936746 -0.33747214 -0.77368784 -1.0056658 -0.5604665
3 -1.5472076 0.3152108 -1.4812341 0.4405755 -0.1385878 -0.5607663 0.3390765 1.2401948 0.07970882 -0.16544941
4 -1.482932 0.3139746 -1.4743205 0.34301242 -0.047164515 -0.48871657 0.2944571 1.2123246 0.048466664 -0.13616094
6 -0.7329169 0.3148873 0.5879627 0.50691086 -0.32258585 -0.4147789 -0.36127758 -0.7476919 -0.93348646 -0.5269704
5 -0.74488676 0.3367145 0.558904 0.56891763 -0.2748357 -0.36794797 -0.2901021 -0.5784309 -0.90321374 -0.51899874
1 -0.6259976 0.30388775 0.44965023 0.4317287 -0.27976504 -0.3560576 -0.22640899 -0.54090494 -0.7303114 -0.3926589
