4 10
1 0.52662975 -0.20637377 0.035296336 0.36749387 0.27682835 -0.04710895 0.47479683 -0.5562414 -0.58494 -0.18454601
0 0.5062336 -0.14614148 0.07615587 0.37658516 0.29666677 0.0007846039 0.45691815 -0.57878834 -0.54442424 -0.17565094
2 0.4152816 -0.22539285 0.0059477054 0.34174576 0.28575003 0.040298626 0.3547877 -0.49881598 -0.48110548 -0.091434576
3 0.45873183 -0.22200316 0.012539205 0.31535056 0.29248348 -0.009961526 0.3741119 -0.5000158 -0.4912729 -0.16194347
