7 10
4 0.62859166 -0.3560163 -0.19025211 -0.41649333 -0.40999213 0.2948573 0.4135086 0.43869188 0.12464486 0.21134017
5 0.64290416 -0.34454507 -0.17604613 -0.35436147 -0.3958914 0.32109484 0.37808916 0.44712925 0.088678904 0.25508142
6 0.66925454 -0.32746142 -0.22735503 -0.4061805 -0.35511374 0.24520469 0.4432899 0.37928075 0.17714812 0.25014895
2 0.62729645 -0.3424231 -0.20872284 -0.4029255 -0.32856238 0.32582137 0.36283532 0.46227413 0.11809041 0.2746272
3 0.6368256 -0.3767627 -0.23342429 -0.40958974 -0.37896726 0.26565596 0.40899536 0.42969328 0.121070005 0.20688684
1 0.60742205 -0.373253 -0.16172242 -0.39329314 -0.34355208 0.32518286 0.41150415 0.4315145 0.17934151 0.1864711
0 0.62351036 -0.35368153 -0.23006062 -0.40690202 -0.39425892 0.29309502 0.39001748 0.43052366 0.17766742 0.15591629
