7 10
0 -0.085295625 0.45070502 -0.7024664 -0.64308554 0.27536878 -0.5287016 0.02755026 0.38188514 0.12374038 0.1316923
4 -0.07509806 0.49258703 -0.66198105 -0.5670214 0.31280577 -0.4467386 0.09568792 0.3736766 0.09824679 0.1556942
3 -0.07992614 0.4386154 -0.6182678 -0.52523476 0.29912668 -0.43097916 0.068291984 0.39278707 0.1383239 0.100831084
2 -0.114756696 0.3977359 -0.6571771 -0.5617034 0.28553817 -0.43941736 0.026068853 0.42591184 0.15666874 0.098682076
1 -0.07685726 0.4548656 -0.6754099 -0.512555 0.32893416 -0.4580493 0.036098577 0.40515038 0.06360766 0.16412938
5 -0.10380102 0.41346124 -0.6904867 -0.5163282 0.2899144 -0.40430307 0.04343496 0.408179 0.16890824 0.064312354
6 -0.112148225 0.4510962 -0.7014243 -0.49190864 0.24714944 -0.41380924 0.022890702 0.35912636 0.08826023 0.056932766
