7 10
1 -0.36249003 0.35998997 0.6509306 -0.69649523 -0.3228687 -0.1470265 -0.36237702 0.025686264 0.24080046 0.031779673
2 -0.33186466 0.33216694 0.62174 -0.64722747 -0.32939157 -0.112608284 -0.29000407 0.009625012 0.24168259 0.111820854
3 -0.35640776 0.3826757 0.655723 -0.6618685 -0.36586487 -0.053564616 -0.3387048 -0.0646444 0.18929736 0.13823734
4 -0.36948326 0.28345692 0.64765114 -0.6806379 -0.3101916 -0.05282805 -0.30025196 -0.012204049 0.2642706 0.11113685
0 -0.36033565 0.3254342 0.6523434 -0.7034049 -0.2844861 -0.058728848 -0.34340706 -0.06382853 0.22358635 0.03787244
6 -0.26309213 0.37790015 0.6359044 -0.67996436 -0.24428958 -0.14907444 -0.32952753 0.042000063 0.20679577 0.06284941
5 -0.29188588 0.37136292 0.62715137 -0.7158335 -0.3643878 -0.10195596 -0.36501485 -0.05236273 0.1893694 0.12889148
