4 10
0 -0.26175278 0.33242857 0.6131649 0.29236937 0.06690097 0.32656896 0.13915509 0.33490527 0.28676373 0.26086807
1 -0.22801843 0.31705832 0.6063193 0.31322083 0.020704513 0.296671 0.14023317 0.23370002 0.26863056 0.27208737
3 -0.19035734 0.29404402 0.53306943 0.26646987 -0.01756325 0.28198925 0.12106354 0.27613395 0.17862734 0.28456637
4 -0.18472973 0.23931977 0.53291994 0.23982216 0.057140402 0.29080114 0.12950891 0.29659057 0.21362798 0.269804
