3 10
1 -0.09394917 0.35981604 0.46403924 -0.15253448 0.01890992 -0.3991758 -0.111360475 0.23670761 0.28665793 -0.03193074
0 -0.12382431 0.3565323 0.4148266 -0.11654271 -0.029953204 -0.29342327 -0.059650067 0.22556412 0.26813865 -0.024422105
2 -0.02754684 0.2102503 0.3120868 -0.049934212 -0.014077744 -0.23052962 -0.02718176 0.18785928 0.21438245 -0.06065667
