7 10
3 -0.028047828 -0.31689397 0.22444412 0.15064083 -0.11944078 -0.09239186 -0.4249745 0.97485965 -0.019757679 0.14493132
5 -0.017093232 -0.32182622 0.14280531 0.1831329 -0.108528435 -0.12424008 -0.47296146 0.9782093 -0.035149157 0.15416263
2 -0.026218109 -0.3628387 0.16924354 0.13355924 -0.116961464 -0.108451486 -0.45327887 0.98040396 -0.08328163 0.20475209
4 -0.04097244 -0.35904568 0.19770595 0.119938016 -0.15796845 -0.061202943 -0.4335909 0.96473545 -0.10081294 0.22041637
1 -0.039761417 -0.33297354 0.21213488 0.15820566 -0.17502359 -0.06870571 -0.4550226 0.9635581 -0.06600591 0.20199981
0 0.017552387 -0.3582723 0.16752787 0.17331153 -0.14624304 -0.04501227 -0.44394743 0.9563524 -0.022410015 0.2149942
6 -0.027020792 -0.3245108 0.21427244 0.12640706 -0.17998157 -0.056399833 -0.46454716 0.9616947 -0.07965006 0.18520917
