7 10
5 -0.25982946 -0.21375455 0.032386832 0.36757323 0.36903387 0.17685993 0.43638685 -0.61007524 0.60593915 -0.18779351
1 -0.33714202 -0.22827338 0.0514191 0.28700513 0.36920005 0.10862745 0.45213124 -0.6696053 0.64556265 -0.11898926
3 -0.3130418 -0.23317863 0.06224835 0.3896309 0.37132898 0.12999547 0.44843394 -0.6155777 0.57703364 -0.207282
6 -0.34747812 -0.2202545 0.042655952 0.29704884 0.33216253 0.1049912 0.45139748 -0.6345282 0.6449493 -0.18091457
4 -0.23528047 -0.15239722 0.047915347 0.3570963 0.32615763 0.16736177 0.46705985 -0.63585526 0.59001815 -0.16856983
2 -0.3017084 -0.17992914 0.074531294 0.34721804 0.35750875 0.13927115 0.48276785 -0.6355375 0.63385284 -0.13169025
0 -0.2369322 -0.14649051 0.0878108 0.34019643 0.3344145 0.1773755 0.4748752 -0.6260544 0.5905262 -0.16419554
