7 10
2 0.63829243 -0.48591137 -0.006479347 0.4475684 -0.1828452 0.01602383 0.10922577 -0.042746168 -0.64619756 -0.32964504
1 0.62627864 -0.5105382 0.018152125 0.46332678 -0.15436648 0.006464416 0.13034306 -0.06325688 -0.6523245 -0.27762246
4 0.6348778 -0.45237947 0.016490893 0.46192813 -0.14399141 -0.048026808 0.07901804 6.646935e-05 -0.6398629 -0.24474663
3 0.60356396 -0.5149748 0.04398537 0.44933972 -0.16691115 -0.028447 0.112711534 -0.041382935 -0.6310022 -0.30451825
6 0.5850071 -0.46983775 0.055121664 0.44178852 -0.15819837 -0.04952419 0.14968467 -0.09620123 -0.6903458 -0.35822448
0 0.5930905 -0.48403054 -0.006032265 0.37927347 -0.14675711 -0.07404851 0.16153602 -0.038985122 -0.6323174 -0.30007726
5 0.6881891 -0.54200596 0.04508192 0.43512803 -0.18117295 -0.04314582 0.14667664 -0.1035612 -0.6545835 -0.34483284
