4 10
0 -0.027275128 0.41944292 -0.805003 0.2718667 0.45214173 0.047442064 0.3497198 -0.09227626 0.18994945 -0.28643095
5 0.042227395 0.37442285 -0.7523373 0.29372942 0.35932523 0.069358125 0.3695625 -0.08941963 0.1875504 -0.16930406
4 0.0011581801 0.27319732 -0.58852077 0.2620158 0.36982408 0.035411406 0.28141004 -0.0035293864 0.16695748 -0.14827868
3 0.059257183 0.3444617 -0.63283134 0.23077334 0.33234257 0.008931675 0.2524739 -0.035943888 0.12312055 -0.22995523
