7 10
5 -0.28666037 -0.44049466 -0.70099 0.28260654 -0.5014281 -0.14315628 0.25781757 -0.20954663 0.15178858 0.45591986
2 -0.25399008 -0.42230925 -0.68988603 0.35070702 -0.5300099 -0.09634737 0.25367102 -0.2145907 0.15182856 0.4286169
0 -0.28154865 -0.48033598 -0.65632445 0.34140283 -0.4656771 -0.114919685 0.30703127 -0.21759535 0.13764448 0.41352108
4 -0.23129287 -0.47469068 -0.68575335 0.34670433 -0.4473508 -0.13200773 0.29040968 -0.20306996 0.12005269 0.35206458
1 -0.2254978 -0.49539468 -0.6720037 0.29012367 -0.5284825 -0.17155512 0.30963212 -0.18549182 0.16400523 0.4528534
3 -0.241925 -0.44714832 -0.6840918 0.27459362 -0.49047023 -0.11134588 0.3147405 -0.19934914 0.22433741 0.39347968
6 -0.2307201 -0.49390072 -0.69101614 0.32507172 -0.4680672 -0.0911219 0.2579162 -0.15690584 0.20383811 0.3816294
