7 10
0 0.6079837 -0.25432765 -0.47432068 -0.05841939 0.26744026 -0.2122781 -0.63975817 0.19800095 0.35536095 0.39031303
2 0.6102778 -0.23792829 -0.47280136 -0.06980421 0.29455867 -0.19233835 -0.57979286 0.1712986 0.30375737 0.35129455
4 0.64883476 -0.16739798 -0.48539567 -0.12755848 0.29258257 -0.22894982 -0.5574413 0.06611548 0.31904197 0.365925
3 0.5888283 -0.26010886 -0.53542715 -0.060863506 0.2788056 -0.2486576 -0.601235 0.08660541 0.33517674 0.31261116
5 0.6704881 -0.23294683 -0.5058956 -0.14017293 0.25972047 -0.22302446 -0.5389098 0.16205463 0.30206743 0.36259383
1 0.64599454 -0.21661761 -0.5033449 -0.13000122 0.27234307 -0.25008696 -0.5720609 0.07736954 0.35248116 0.32344535
6 0.6096736 -0.19914776 -0.4708558 -0.08752416 0.26906267 -0.22831805 -0.5697387 0.101872295 0.33552468 0.3216113
