7 10
6 -0.3982607 -0.1709942 -0.7092539 -0.12045078 -0.21170117 -0.5565783 -0.11747163 -0.37350926 -0.49880415 -0.0016027688
1 -0.40451714 -0.13549134 -0.68036467 -0.059888363 -0.15075897 -0.519815 -0.19799383 -0.37232286 -0.50380826 -0.09156751
3 -0.34645033 -0.11906898 -0.6141593 -0.113147296 -0.14252335 -0.56308603 -0.19610026 -0.43626365 -0.50294095 -0.057653338
5 -0.37495717 -0.06458097 -0.6027407 -0.025749039 -0.22447877 -0.56293666 -0.14041542 -0.44641384 -0.5316877 -0.05298473
0 -0.29900175 -0.12674937 -0.6535161 -0.041360915 -0.21018986 -0.5748725 -0.18071562 -0.43997505 -0.55400777 -0.018031778
2 -0.34182346 -0.11236798 -0.70023865 -0.10087805 -0.16529682 -0.5411779 -0.13625814 -0.41542137 -0.55584335 -0.064241566
4 -0.4100643 -0.1458618 -0.6496386 -0.05299463 -0.18491836 -0.5665851 -0.1776153 -0.4015999 -0.52410424 -0.018732589
