6 10
3 -0.03744857 -0.79502684 0.46822417 -0.2637713 0.2701727 -0.53748626 0.019476209 0.3111464 0.048275676 0.014811378
0 -0.08075374 -0.8185221 0.42726767 -0.2689443 0.2923866 -0.55823797 -0.037797607 0.27796397 0.05889691 0.058921337
2 -0.0076318327 -0.80619115 0.4485697 -0.21149474 0.2254169 -0.5704062 -0.018349122 0.28760797 0.0024589691 0.07976395
4 -0.035542674 -0.75757265 0.46998218 -0.28792563 0.27511722 -0.5948436 0.010768819 0.2666814 0.07654656 -0.004952888
1 -0.05413491 -0.83100474 0.48935917 -0.2668513 0.228741 -0.5218349 0.042718574 0.24309291 0.0066400254 0.093989186
5 -0.09318922 -0.7933199 0.4507939 -0.24457385 0.2740526 -0.5105804 -0.016814161 0.28458688 0.017892256 0.06612635
