5 10
0 0.15173157 -0.07727153 0.184159 0.47201592 -0.36702272 0.45094883 0.75271404 0.2785078 0.31127277 -0.29654726
1 0.24750794 -0.10277913 0.14534776 0.49021655 -0.36458623 0.48404658 0.7599587 0.19446844 0.3566116 -0.28815296
4 0.2366166 -0.031476732 0.1131394 0.4415305 -0.34581417 0.4672707 0.7712787 0.2542738 0.34763506 -0.30507386
2 0.22248334 -0.01936909 0.17907245 0.4126761 -0.41007093 0.48401752 0.7200209 0.18991587 0.33032647 -0.2651159
3 0.17122674 -0.049522977 0.1388897 0.4657683 -0.41477087 0.39008224 0.7633478 0.28101593 0.37849128 -0.2729168
