6 10
2 0.2464429 0.5357662 -0.18600681 0.06280727 -0.59449494 0.04578802 0.7167361 0.14671199 0.11510446 0.14656602
5 0.26593813 0.50016797 -0.20860143 0.045240715 -0.64729893 0.023293113 0.7499701 0.2018632 0.10544599 0.1342494
1 0.19274758 0.5364304 -0.14128506 0.03017217 -0.57734156 0.032977078 0.7889424 0.23609912 0.07510394 0.2146442
4 0.26160702 0.54576415 -0.1429753 0.112010576 -0.6089535 -0.018257277 0.68254876 0.118159994 0.05858022 0.18740302
6 0.19678284 0.47321433 -0.11824408 0.08138552 -0.57522815 0.04906044 0.69974995 0.17539278 0.09040152 0.20919447
3 0.22041474 0.5104109 -0.13887411 0.049155936 -0.60641086 0.008934321 0.67160314 0.108097054 0.04935689 0.19535533
