7 10
3 -0.011981463 -0.3282593 -0.60969764 0.30677333 -0.22741958 -0.05962126 0.113161884 0.28298244 0.62543017 -0.53881466
0 -0.008674323 -0.3435245 -0.5926032 0.3505598 -0.17283204 5.8749247e-05 0.04732554 0.2609946 0.5945579 -0.53439087
4 0.03144705 -0.34547046 -0.54402083 0.36473322 -0.24592565 -0.00962085 0.103548534 0.24616991 0.64349884 -0.50203365
6 -0.015503076 -0.30489314 -0.6120377 0.30596414 -0.21648028 -0.03486044 0.13239722 0.22354755 0.63951755 -0.54950666
2 -0.012497804 -0.34746286 -0.61226815 0.3047369 -0.21189804 -0.031186884 0.06274164 0.3143896 0.59239775 -0.5625986
5 0.023902025 -0.29082146 -0.6007438 0.30389228 -0.20391987 -0.07753789 0.08797189 0.30373672 0.6164668 -0.53821814
1 0.045014687 -0.2939377 -0.5977163 0.29397458 -0.20464578 -0.086998574 0.11292233 0.32654953 0.6565893 -0.49034956
