7 10
0 0.09256674 -0.46150467 -0.2501847 -0.1611371 -0.19025399 -0.08300058 0.8980804 -0.43531463 0.28558144 -0.17604609
4 0.14410956 -0.49898165 -0.28459007 -0.17933536 -0.1374363 -0.10169565 0.88929814 -0.3491564 0.2675239 -0.13561162
6 0.07981758 -0.5100715 -0.23934959 -0.13289219 -0.13621049 -0.08195705 0.9227883 -0.35369048 0.21742363 -0.14089158
5 0.09861279 -0.49140948 -0.19704692 -0.09421463 -0.13709202 -0.10827188 0.8892057 -0.4033837 0.17988876 -0.19171727
2 0.13900918 -0.5004406 -0.1875734 -0.14900538 -0.11126721 -0.089549705 0.911477 -0.39401558 0.25349042 -0.17334858
3 0.13624473 -0.46735567 -0.23479289 -0.08695323 -0.18873079 -0.035859935 0.8950315 -0.34902206 0.23514815 -0.19968373
1 0.16116333 -0.48165253 -0.2243822 -0.1352246 -0.08916883 -0.06127628 0.9302258 -0.3447365 0.22169949 -0.1339471
