7 10
3 0.29896507 0.2705976 0.20716645 0.14310718 0.028352404 0.70031995 0.35805607 -0.02473732 -0.6007315 0.35335183
2 0.28807738 0.22484472 0.22608249 0.19339898 0.052760936 0.7045775 0.30955264 0.014871875 -0.65303266 0.36576015
5 0.2877681 0.24115966 0.2256638 0.2246144 0.056025334 0.6689796 0.40601528 0.052800965 -0.66510856 0.3913328
0 0.23258835 0.2164888 0.22254287 0.20886762 0.051506467 0.75510514 0.3551309 -0.054579888 -0.62503797 0.40368995
4 0.26093495 0.24010798 0.14147823 0.23477176 0.047336176 0.7194495 0.3761588 -0.04941728 -0.63777024 0.4049892
1 0.28813252 0.24440019 0.1524041 0.15802713 0.04392434 0.6964791 0.36381975 -0.03751193 -0.62850666 0.40454862
6 0.20689806 0.20508453 0.18838862 0.16025479 0.10214053 0.7206187 0.39003384 -0.03116862 -0.66395116 0.34575403
