7 10
6 -0.05872488 -0.393091 0.45631295 0.14146417 0.514771 0.23563245 0.68332005 0.114283465 0.06014696 -0.39933604
5 -0.034708053 -0.3294478 0.46472743 0.18871306 0.5311658 0.22433925 0.704402 0.16056922 0.11983602 -0.33722317
2 0.0063523157 -0.4028224 0.51762605 0.13952604 0.53219527 0.16785468 0.7238943 0.09948816 0.055780828 -0.3773004
3 -0.082162574 -0.35284007 0.5256817 0.13741696 0.55720866 0.19068317 0.66952294 0.1128342 0.11433487 -0.37420505
4 -0.06696986 -0.3644143 0.5459332 0.10363092 0.5522376 0.21718414 0.69553703 0.10301108 0.124252945 -0.40361896
1 -0.02254537 -0.37728542 0.44306335 0.13880892 0.5321115 0.17677958 0.68180966 0.1587648 0.1313381 -0.335502
0 0.0073380736 -0.35709137 0.47980967 0.17474683 0.5189868 0.200504 0.7037648 0.092839934 0.0940452 -0.35280812
