7 10
5 0.18535982 0.22553292 0.32375187 0.078869805 0.27847254 0.10741316 -0.2542501 0.7149622 -0.12930435 0.72661597
1 0.25567657 0.15385993 0.3592479 0.07019799 0.30525556 0.14920044 -0.27446917 0.69194484 -0.1732418 0.66526604
2 0.19901203 0.22632082 0.30007085 0.040709186 0.28254473 0.14850548 -0.32257324 0.7024856 -0.20482571 0.70935357
4 0.22392201 0.1821973 0.3204751 0.07149411 0.3022302 0.16612199 -0.3023991 0.67996365 -0.13251466 0.7028567
3 0.22138791 0.22284843 0.290907 0.10547053 0.32208106 0.095270544 -0.30955517 0.6293481 -0.15464288 0.70877075
0 0.20835343 0.1834687 0.2826549 -0.003019468 0.2522138 0.17035231 -0.30049506 0.68323076 -0.20661226 0.72068703
6 0.21016051 0.24135752 0.33764243 0.008950032 0.3240471 0.12663388 -0.22976477 0.70291483 -0.19891018 0.71703374
