7 10
2 0.13142726 -0.9489755 0.21396123 -0.5499957 -0.032901764 -0.06280792 -0.03653735 -0.1955706 -0.43270788 0.1294743
5 0.13718995 -0.939546 0.26518053 -0.501829 -0.022173487 0.007581089 -0.10302493 -0.18476954 -0.35365337 0.08926463
4 0.09518982 -0.8988378 0.27322066 -0.56207263 0.019214971 0.05047184 -0.08307821 -0.15582052 -0.35201013 0.0453146
0 0.1434713 -0.9054653 0.26433593 -0.5680062 -0.038245622 0.015314376 -0.06819932 -0.22206695 -0.3821503 0.07810159
1 0.1477719 -0.9227893 0.29973617 -0.56053144 -0.053054158 0.03280867 -0.10208593 -0.24635606 -0.36409307 0.0641373
3 0.09647716 -0.9152271 0.30163354 -0.5069858 -0.0155023495 0.017816795 -0.089039594 -0.1982303 -0.41889864 0.122479536
6 0.14719081 -0.8793985 0.25419298 -0.5400533 0.0037016266 -0.034216903 -0.06341665 -0.22990954 -0.38109303 0.071916744
