6 10
0 -0.30280364 -0.5985649 0.18185164 0.33906856 -0.11179619 -0.018390508 0.09434246 -0.756373 0.3089915 -0.18777436
1 -0.2982564 -0.59803766 0.17199077 0.29164693 -0.090606816 0.009418938 0.041240472 -0.77705306 0.36603695 -0.2728222
2 -0.2908913 -0.5695362 0.21147607 0.33462092 -0.12624635 0.006668277 0.053600267 -0.7668944 0.37679738 -0.19701517
4 -0.290834 -0.59879386 0.22691132 0.29104882 -0.11428579 0.004258735 0.03310623 -0.8240527 0.38306582 -0.26599705
5 -0.25990263 -0.61445314 0.21310863 0.27011007 -0.095857814 0.006102901 0.10400448 -0.75955766 0.31361392 -0.24177313
3 -0.3166234 -0.64014465 0.1416438 0.3459319 -0.10726088 -0.054455385 0.05133667 -0.76627254 0.36076376 -0.23498042
