6 10
0 0.20652197 0.023032242 -0.16191036 0.73363715 -0.4089072 -0.12705095 0.08418553 0.19881397 0.73852074 -0.18213901
1 0.2549793 -0.0141115505 -0.1278434 0.7403743 -0.4044544 -0.10471671 0.038760576 0.1693076 0.7219807 -0.08681751
2 0.28325775 -0.022131048 -0.09616104 0.71023846 -0.40069345 -0.1823561 0.07866865 0.09964494 0.7601938 -0.18603459
3 0.23185329 0.045874342 -0.18225817 0.7544285 -0.4089381 -0.16243814 0.09993605 0.12624562 0.6725589 -0.14424148
5 0.20003699 0.036357976 -0.116870046 0.74774957 -0.36843282 -0.18128853 0.13541779 0.1625397 0.69153076 -0.10521958
4 0.22069061 0.002694451 -0.10984387 0.739154 -0.39804775 -0.16277163 0.1036532 0.16050573 0.67219406 -0.15134719
