7 10
3 0.40390527 -0.023538936 -0.39774153 0.43723762 -0.072118595 -0.36956233 -0.19800298 -0.65337104 -0.34352985 0.48532027
0 0.4811307 0.059049357 -0.37947923 0.36016384 -0.06494334 -0.31067804 -0.14981978 -0.7276452 -0.26687267 0.43150243
5 0.438893 0.015455908 -0.37690026 0.36309668 -0.063688934 -0.29745346 -0.06582563 -0.7369532 -0.28067484 0.4215706
1 0.50094664 0.092473574 -0.3979966 0.27915838 -0.063916236 -0.308106 -0.07507548 -0.78051925 -0.19978061 0.3959344
2 0.4230009 0.01438719 -0.3362581 0.39915344 -0.11093737 -0.3346052 -0.17116934 -0.73808974 -0.344924 0.38419312
4 0.46004882 0.047549058 -0.31372812 0.32249257 -0.08454173 -0.32555926 -0.08827772 -0.7980012 -0.18805365 0.40937322
6 0.4190325 0.04618638 -0.37258983 0.39415178 -0.12510973 -0.35474452 -0.09491086 -0.66690457 -0.29334933 0.43111002
