7 10
1 -0.04056228 0.5261268 0.17995058 0.29974848 -0.29339284 -0.7745673 0.3987816 -0.28337705 -0.30237353 -0.1136716
3 0.06086759 0.5124623 0.18366432 0.28694654 -0.29667428 -0.77275544 0.36197242 -0.28627703 -0.2578471 -0.16054568
2 0.035494696 0.54581535 0.21453646 0.28720084 -0.30968094 -0.7541777 0.3605496 -0.32428443 -0.2981278 -0.1533858
5 0.035631776 0.5605879 0.23090366 0.23805857 -0.31040817 -0.7679282 0.41050342 -0.27092144 -0.23518267 -0.12296497
0 -0.025232913 0.5733539 0.14225931 0.23991899 -0.23770364 -0.7527673 0.40812206 -0.3038717 -0.24149115 -0.15954113
4 0.019261196 0.5835471 0.2441324 0.21232495 -0.2808752 -0.8022472 0.41682386 -0.24182987 -0.21888056 -0.07584988
6 -0.050839193 0.47728914 0.15693504 0.29536343 -0.27252427 -0.76409286 0.3897718 -0.26828378 -0.27417153 -0.13191496
