7 10
2 -0.5595624 1.1533372 -0.4403187 0.3732456 0.7815639 0.69188696 0.36576468 0.63342637 0.10448518 -0.11366972
5 -0.56021297 0.025809254 0.21800096 0.10884294 0.17923455 -1.04999 -1.7778738 1.2226241 0.4379722 -0.57801104
6 -0.66726726 -0.03927423 0.1523875 0.11440865 0.19243233 -1.1450874 -1.9930669 1.3481771 0.40596846 -0.6837916
3 -0.5271045 1.1008848 -0.3989539 0.3766825 0.6934216 0.65370786 0.33664167 0.62908036 0.118374266 -0.13436842
0 -0.5873758 1.0986087 -0.33423784 0.30028522 0.784412 0.6324875 0.35108957 0.61944324 0.089525774 -0.14992434
4 -0.5724346 1.1166575 -0.42169788 0.37072232 0.76260895 0.677243 0.39293504 0.6222478 0.059014328 -0.17687178
1 -0.48729867 1.0527661 -0.3059386 0.271696 0.70637065 0.5459654 0.3421504 0.5686744 0.07978007 -0.14855407
