7 10
0 0.20702012 -0.4880311 0.34761813 -0.17975973 0.18181288 -0.01966216 -0.6808116 -0.38961145 0.58001035 0.15682794
5 0.23085287 -0.558176 0.357847 -0.1875607 0.15687127 -0.004843886 -0.69246376 -0.3656964 0.57637995 0.1653611
4 0.18023519 -0.54502034 0.25497973 -0.15800439 0.107579045 0.021397866 -0.68632823 -0.33715132 0.54182845 0.14015248
6 0.16416687 -0.54390526 0.30410594 -0.21030919 0.1373716 -0.02801823 -0.70517635 -0.40782765 0.4824964 0.22141075
3 0.1658524 -0.5067405 0.281561 -0.15980887 0.18172392 -0.02627615 -0.66465724 -0.35817814 0.51594824 0.16978262
2 0.20831273 -0.5071757 0.29883158 -0.21472308 0.1564364 0.015630001 -0.63598347 -0.36331803 0.5261484 0.21551625
1 0.17256145 -0.47683635 0.34734133 -0.1682724 0.2110273 -0.008967217 -0.6567291 -0.3961711 0.55118406 0.118019216
