7 10
2 0.30275193 -0.5151541 -0.06899922 -0.2597731 -0.26907974 0.3265339 -0.18125185 -0.77350384 -0.4726173 -0.036330234
0 0.34119463 -0.48669294 -0.1492064 -0.15259132 -0.30926263 0.37341642 -0.26098457 -0.67929155 -0.43208632 -0.042399615
4 0.36908326 -0.39551648 -0.13692448 -0.23657878 -0.3073162 0.3362781 -0.2504067 -0.746961 -0.4874647 0.022533888
5 0.35525012 -0.45623797 -0.15596366 -0.21477175 -0.3015067 0.34822553 -0.23873462 -0.72296166 -0.4731352 -0.0623502
6 0.31028077 -0.48174444 -0.15301551 -0.14389089 -0.32119834 0.34596843 -0.2153751 -0.6976877 -0.41591522 0.0043881903
3 0.35974383 -0.45843124 -0.095432475 -0.18818226 -0.25139433 0.3295468 -0.22940965 -0.74271935 -0.504714 -0.018810105
1 0.36831108 -0.5041472 -0.12546878 -0.17399514 -0.3470283 0.28429154 -0.17806594 -0.79969263 -0.43490988 -0.032149013
