6 10
1 -0.0002624248 0.024547687 -0.06460857 -0.44012934 0.53540003 0.5127706 0.48607892 0.5828165 -0.27024293 -0.20906042
4 0.029223612 0.037224445 -0.10048752 -0.40618852 0.52170247 0.57277185 0.4588575 0.5250771 -0.26734304 -0.28186065
0 0.0036708892 -0.020132128 -0.08747123 -0.4229509 0.4958475 0.5019869 0.48008358 0.5467134 -0.27118158 -0.25170994
5 0.012362509 -0.05527339 -0.12355498 -0.3628978 0.5383656 0.51555 0.45119727 0.58128136 -0.21087414 -0.28023025
3 0.05993101 -0.0038120716 -0.090431005 -0.35799652 0.506243 0.5364353 0.46444494 0.54523593 -0.23745842 -0.20982747
2 0.05071857 -0.05606917 -0.12579499 -0.41103694 0.46522328 0.5824797 0.41903004 0.597501 -0.26271507 -0.29440227
