7 10
6 0.45704952 -0.3145185 -0.020441618 -0.59421444 -0.30121958 -0.12351428 -0.47335324 0.54189575 0.23410231 0.30037746
3 0.47695196 -0.32778597 -0.07545139 -0.5838255 -0.3689537 -0.09915619 -0.4547987 0.47423503 0.21460263 0.32486916
0 0.48759475 -0.32560313 -0.05763216 -0.524154 -0.34373534 -0.10938082 -0.5057065 0.47233605 0.2144713 0.33452913
5 0.5010594 -0.3703573 -0.012307909 -0.56454766 -0.30857876 -0.15263909 -0.4722967 0.43672636 0.22533453 0.3105215
4 0.48777103 -0.36544898 -0.03342726 -0.56076664 -0.3478067 -0.09866958 -0.5019801 0.5001061 0.22392057 0.27916825
1 0.4605287 -0.33579543 -0.028674357 -0.54441816 -0.3513592 -0.14754069 -0.4898074 0.49034733 0.19024476 0.23529042
2 0.4975664 -0.33248886 -0.061213687 -0.550337 -0.3447678 -0.07136939 -0.5109944 0.44639143 0.20328745 0.33513874
