7 10
6 -0.55873394 -0.047324393 -0.0006142022 0.15285175 -0.6423969 -0.41326225 0.24463528 0.45224503 -0.28261998 -0.3089683
5 -0.57448226 0.006517996 0.0047614616 0.1146312 -0.6158552 -0.42412513 0.17629334 0.4751592 -0.3466995 -0.33214295
3 -0.55902535 0.028947955 -0.039879728 0.18626997 -0.6265658 -0.43130246 0.22672442 0.4829532 -0.30562708 -0.29633152
4 -0.5832732 0.029986668 -0.0040613376 0.19021548 -0.60927165 -0.45344684 0.241427 0.42266208 -0.2866518 -0.27360517
2 -0.5674881 -0.051325243 -0.0021842008 0.10230115 -0.60660815 -0.4376138 0.19019586 0.49613675 -0.31880885 -0.2924901
1 -0.58080006 0.017528147 0.028684892 0.12151023 -0.6269238 -0.44545627 0.23478791 0.47810546 -0.33431292 -0.3270058
0 -0.5139569 -0.034243003 0.02073262 0.19125961 -0.6327266 -0.4256794 0.25647774 0.5083639 -0.28846312 -0.26167822
