7 10
1 -0.1961731 0.3308172 0.030858262 -0.33103642 0.041090935 -0.6857191 0.040792737 -0.546471 -0.40219232 -0.6646062
4 -0.1707449 0.25513536 0.050470896 -0.3318636 -0.027765885 -0.6530561 0.092913836 -0.50769544 -0.482261 -0.6322398
5 -0.14800267 0.21775998 0.08392563 -0.2402042 0.051059633 -0.64619154 0.053077005 -0.5245888 -0.40759495 -0.64367
3 -0.16080229 0.25671226 -0.012206909 -0.27038193 -0.007609525 -0.5988298 0.040129643 -0.5006615 -0.45032308 -0.66664135
0 -0.2082143 0.29914516 0.020666575 -0.2713942 0.021884646 -0.65055543 0.0385562 -0.4956068 -0.3651175 -0.6670301
2 -0.18658046 0.28294677 0.016739639 -0.2485043 -0.018843958 -0.6292356 0.01745947 -0.5128315 -0.43588975 -0.6167821
6 -0.1209398 0.2993697 0.06075494 -0.28916776 0.059141126 -0.6246745 0.08094553 -0.49609143 -0.43197736 -0.57492423
