6 10
2 0.25775412 0.6192466 0.37894803 0.13300942 0.82738185 -0.099478394 0.17367455 -0.36128578 0.088230506 0.24107862
5 0.18843561 0.5727219 0.31889123 0.16643853 0.8551159 -0.14801516 0.18572395 -0.3002663 0.082815096 0.18322429
6 0.24340579 0.5245801 0.36126837 0.15803947 0.8002458 -0.12370789 0.19505934 -0.32076713 0.026127549 0.20429854
1 0.1926683 0.57273847 0.3186373 0.17676397 0.80188084 -0.045010105 0.18055555 -0.27956763 0.0035723143 0.21914268
3 0.25017235 0.56212705 0.3699156 0.15901981 0.7123997 -0.042251788 0.118489616 -0.30405587 0.04437652 0.12821247
4 0.1615 0.51757365 0.3687625 0.12091502 0.77255434 -0.094341345 0.10168057 -0.35916555 -0.009134643 0.20744936
