5 10
6 0.27335235 -0.35369784 -0.7194014 1.5697237 0.24688302 0.34854078 -0.110555306 0.959784 -0.62596095 -0.5738406
5 0.16808987 -0.42331198 -0.72846717 1.5731716 0.24395953 0.28453696 -0.117183685 0.9275029 -0.5283231 -0.51583827
0 -0.28357023 -0.15869425 -0.03517198 -0.34475383 1.1969914 -0.031453267 -0.48034927 0.18916461 0.99964243 -0.55466694
4 -0.32958546 -0.11165236 -0.07058712 -0.3150459 1.2011273 -0.018285215 -0.4941067 0.24370569 1.098207 -0.5381651
2 -0.30949694 -0.17304255 -0.040081132 -0.35878953 1.221873 -0.068764925 -0.4800889 0.30138138 1.1007768 -0.6258762
