7 10
6 -0.7455346 -0.15309228 -0.1650953 0.27400613 0.52348447 0.20386782 0.20217445 -0.08843786 0.40465242 0.39462247
1 -0.7544833 -0.16009851 -0.13802476 0.2688234 0.53880376 0.26121286 0.13053343 -0.022703042 0.33888853 0.47097662
5 -0.79749626 -0.10981461 -0.16216618 0.28609118 0.47897515 0.29615265 0.13590935 -0.028103897 0.39937386 0.46440026
2 -0.7823223 -0.12562178 -0.09292558 0.22391783 0.5349212 0.2767251 0.14447702 -0.08448688 0.38696986 0.43922392
4 -0.7830404 -0.11290477 -0.07085734 0.2604062 0.49457595 0.2161514 0.13954705 -0.020923847 0.36798236 0.45123044
0 -0.77545106 -0.1042569 -0.11369596 0.28812507 0.51706505 0.23977317 0.19593987 -0.08257344 0.37027392 0.41509035
3 -0.7948912 -0.090691805 -0.15725061 0.2221952 0.46478152 0.2255223 0.2020178 -0.0154477805 0.40114316 0.46075234
