7 10
1 0.19770949 0.95746267 -0.63824356 0.5439012 0.6428203 -0.8587287 1.1001066 -0.3075561 0.1166429 -0.34811983
5 0.0387905 0.24618272 -1.3973829 -0.6864041 0.45968226 0.4413711 -1.5611389 -0.8347619 -0.30288368 -1.2611333
6 -0.05410393 0.17505877 -1.4180845 -0.71318036 0.5227862 0.4755662 -1.5047477 -0.8631462 -0.3578383 -1.2319072
2 0.14558384 0.86133665 -0.5870231 0.45857564 0.60190463 -0.7967913 0.88352746 -0.29937994 0.06650374 -0.34843788
4 0.15872404 0.8940013 -0.6205306 0.4057226 0.5915979 -0.759346 0.9540903 -0.26418462 0.025455233 -0.30251706
3 0.11661486 0.802284 -0.6066268 0.46096617 0.49701276 -0.76756364 0.9002455 -0.279826 0.05083776 -0.32339758
0 0.09579217 0.83290416 -0.5842484 0.48715246 0.5238093 -0.7885957 0.924852 -0.2410949 0.049032312 -0.26802483
