7 10
4 -0.15236592 -0.39905852 -0.1029652 0.60667914 0.7340934 -0.057136454 -0.16717294 0.11745671 0.28320146 0.5482728
3 -0.090239815 -0.19653584 -0.30658522 0.6037636 0.78554785 -0.04721475 -0.16605084 0.15915668 0.15035391 0.4345753
2 -0.09640297 -0.08277575 -0.3833534 0.62153155 0.81443936 -0.050296728 -0.13371697 0.20320182 0.082065985 0.3347187
0 -0.18570648 0.09399194 -0.52072835 0.71225524 0.80023223 -0.15523602 -0.1737595 0.23134263 0.08153078 0.27990526
1 -0.112741016 0.033413894 -0.46755376 0.67083573 0.8010845 -0.14150988 -0.08768863 0.18861061 0.09498582 0.26989585
5 -0.16148205 -0.28583294 -0.2961875 0.67991656 0.7500104 -0.020802347 -0.12703705 0.18871978 0.2402533 0.4836945
6 -0.15013883 0.10341799 -0.5057901 0.64579016 0.78854847 -0.10883885 -0.18527961 0.25811207 0.041484527 0.20783924
