7 10
4 -0.2410851 0.18441509 -0.30558473 -0.27819964 -0.16339874 0.4581576 0.3260454 0.67383665 0.41940993 -0.4112928
3 -0.182801 0.14516786 -0.30669287 -0.3006584 -0.23118691 0.43348747 0.32840088 0.67766255 0.41906133 -0.421879
0 -0.27018625 0.13417771 -0.3375861 -0.22381295 -0.22791441 0.45771414 0.29455534 0.6865284 0.38106364 -0.4223747
1 -0.18606901 0.16448852 -0.29965213 -0.23626012 -0.1758838 0.4374091 0.24683183 0.656639 0.44481674 -0.4527603
2 -0.24863872 0.20339072 -0.24073465 -0.29496488 -0.22661582 0.49196005 0.29484516 0.6560364 0.40909815 -0.39922088
5 -0.2633467 0.15531856 -0.30053377 -0.29717904 -0.24710198 0.4502787 0.23929925 0.6432556 0.379066 -0.38947582
6 -0.2292435 0.12539849 -0.27444935 -0.31170154 -0.24191412 0.49235263 0.30749974 0.6091174 0.43522918 -0.35732028
