7 10
6 0.5108637 -0.6199373 0.48796588 -0.087108605 -0.18726827 0.14120142 -0.19020924 -0.065126106 0.5031901 -0.47367087
5 0.5331212 -0.62356347 0.47019702 -0.09971297 -0.19054492 0.118551604 -0.16623016 -0.043791305 0.47265846 -0.4924842
4 0.5002036 -0.66680616 0.48461366 -0.15707484 -0.16335359 0.21226741 -0.1424052 -0.001936547 0.48650143 -0.45285773
2 0.47127002 -0.64115983 0.48781115 -0.14503463 -0.1521716 0.1804001 -0.18535395 -0.012962544 0.49850175 -0.41444585
3 0.46099147 -0.60807574 0.5001345 -0.12976292 -0.1755541 0.20721072 -0.20654869 -0.06273595 0.44572836 -0.49737206
0 0.49409667 -0.59295774 0.43289888 -0.106201984 -0.14586541 0.19995527 -0.15463082 -0.0036929685 0.4809533 -0.41500327
1 0.5031026 -0.62414885 0.4799093 -0.11784735 -0.17228997 0.16667055 -0.17553791 -0.061668333 0.49478686 -0.4889077
