6 10
0 -0.57550615 0.17009105 0.7941609 -1.0439497 -0.60325193 -0.4460044 -0.7448784 0.9675971 0.282281 0.24376355
2 -0.2793097 -0.6978026 -0.54967725 0.655765 -0.29402962 1.494389 -0.44481474 0.7747751 0.44262865 0.98893124
4 -0.2637655 -0.648951 -0.567667 0.7011684 -0.3128049 1.5238875 -0.48578045 0.7969133 0.49669743 1.0408372
1 -0.47301325 0.23698881 0.7448708 -0.9131808 -0.59353 -0.45836827 -0.7296275 0.8330207 0.18478829 0.15209076
6 -0.48306572 0.18194285 0.7549689 -0.9070446 -0.5729989 -0.43043917 -0.6578985 0.8449591 0.25042534 0.17075802
5 -0.436699 0.1976461 0.7077159 -0.91487247 -0.56709826 -0.39877373 -0.63316464 0.81768453 0.18586627 0.16416837
