6 10
4 0.22018142 0.2153411 -0.19060607 0.10203025 -0.60609114 0.2680566 -0.58311063 0.19333042 0.61962026 -0.12567443
1 0.2983233 0.2660738 -0.2723305 0.053560704 -0.6119176 0.23788966 -0.5454495 0.15982527 0.66819936 -0.1080669
2 0.32878765 0.2936402 -0.26065078 0.020718044 -0.6400908 0.27307618 -0.58841014 0.1868674 0.6109514 -0.15872751
0 0.2439927 0.26919094 -0.23213775 0.05928275 -0.59746647 0.21395747 -0.5489196 0.21426989 0.6119065 -0.15674874
5 0.28952476 0.2243988 -0.22063361 0.09447162 -0.572579 0.26794884 -0.58596873 0.169944 0.5728239 -0.107217066
3 0.30552703 0.2386638 -0.27148452 0.103680655 -0.5807318 0.2089509 -0.5871929 0.15477012 0.65451765 -0.16450505
