6 10
4 -0.23703657 0.10381957 0.06913421 -0.048235405 0.12285907 -0.06698228 -0.24756145 -0.04275989 -1.0266256 0.4298738
1 -0.17010362 0.012568158 0.12206299 -0.019336058 0.10697206 -0.05183178 -0.206465 -0.07053163 -0.99807644 0.45169622
3 -0.229183 0.018589422 0.11757774 -0.036397062 0.12557192 -0.09550875 -0.24413525 -0.0073435293 -0.97774756 0.45228752
0 -0.20314242 0.09110348 0.095817 -0.024901824 0.19114289 -0.09259219 -0.2166406 -0.056159906 -1.0494108 0.44655856
2 -0.18718673 0.035921924 0.14662816 -0.07167906 0.16324185 -0.027202886 -0.15330857 -0.06693828 -0.9956197 0.39062268
5 -0.24915507 0.075336084 0.049339164 0.0007680386 0.12878393 -0.10280707 -0.19798458 -0.031793907 -1.0051938 0.43482795
