7 10
1 -0.5399127 -0.29165724 -0.20321296 -0.43122426 -0.5695652 -0.39757994 -0.13066722 0.13240243 0.1441876 0.44181764
0 -0.50496215 -0.22710074 -0.23679775 -0.48104683 -0.6194032 -0.45205423 -0.041053187 0.18552649 0.13917416 0.39335105
2 -0.5147507 -0.28878504 -0.21622856 -0.46416926 -0.63061976 -0.45525554 -0.103598535 0.1340331 0.14192985 0.37845793
5 -0.5485928 -0.21577792 -0.22499914 -0.43405503 -0.6401907 -0.3898076 -0.13474137 0.19830596 0.08946669 0.44508848
4 -0.48312464 -0.25939825 -0.25024906 -0.45259142 -0.6159643 -0.4436233 -0.09261192 0.14192685 0.14590247 0.38915783
3 -0.48519704 -0.24166809 -0.2332243 -0.45890084 -0.5983251 -0.4332254 -0.078750215 0.17216104 0.16186175 0.3908222
6 -0.5050478 -0.27691624 -0.2717002 -0.44499552 -0.66842324 -0.44318992 -0.055741016 0.17054151 0.17601709 0.39973053
