7 10
0 0.31904367 0.16486335 0.4099073 -0.3415376 -0.036824737 -0.031041728 -0.24091776 -0.46670198 0.71392083 0.46546748
5 0.29522854 0.085636206 0.38218406 -0.3786602 -0.120382495 -0.0023923344 -0.26808506 -0.49864042 0.7096566 0.4370871
2 0.3672386 0.15330905 0.3484349 -0.2656825 -0.05631885 -0.059528507 -0.19561997 -0.50286674 0.7203844 0.48789114
3 0.32595468 0.10026938 0.3976156 -0.2969586 -0.12925969 -0.058240727 -0.26069298 -0.48801672 0.7019036 0.46057877
1 0.35432428 0.14861839 0.32404485 -0.36638978 -0.095770575 -0.035826314 -0.22397761 -0.5129252 0.70659083 0.4594275
4 0.33226058 0.14278346 0.39122573 -0.27588376 -0.09541482 -0.0011031685 -0.2751494 -0.4944575 0.6799189 0.4516271
6 0.3087813 0.16704689 0.38570085 -0.36004063 -0.02545374 -0.054131526 -0.19176796 -0.48197377 0.72026306 0.43155748
