5 10
2 0.10492821 0.44793057 0.6760078 -0.3270452 0.53356564 -0.23292735 -0.22536565 0.14730535 0.4439403 -0.22236186
5 0.12637997 0.4278255 0.6118153 -0.35495538 0.5919221 -0.23863946 -0.2580974 0.12416465 0.47059402 -0.24842606
6 0.11805704 0.34519032 0.6457746 -0.35460672 0.57497156 -0.28132734 -0.19835043 0.17090032 0.4296327 -0.269442
4 0.13317384 0.35760596 0.5584072 -0.30876777 0.49127805 -0.23597546 -0.24511483 0.07879592 0.3920716 -0.27207816
3 0.1624254 0.38623124 0.5604819 -0.34123373 0.5167349 -0.2790904 -0.22081769 0.11179097 0.38391268 -0.25497037
