7 10
6 -0.03116708 0.25738898 0.1651597 -0.16937366 0.31202576 0.40250036 0.21365283 0.011341445 0.797505 0.5810297
2 -0.06370546 0.25358486 0.14363958 -0.19462685 0.30637014 0.3854629 0.21205652 -0.05537746 0.74514025 0.59705245
3 -0.09174843 0.19134551 0.12739345 -0.1554592 0.25698543 0.32450947 0.24439594 -0.0066247485 0.7414761 0.58888966
0 -0.07670235 0.22792679 0.19335143 -0.20153598 0.3219379 0.35659367 0.2340299 -0.061045203 0.78161424 0.5971573
1 -0.09344637 0.20555891 0.19328876 -0.21800584 0.291845 0.41790497 0.26599443 0.009173466 0.78027844 0.5836647
4 -0.07229657 0.17602082 0.13927941 -0.14251131 0.31932935 0.36539504 0.27703196 -0.07660282 0.7242113 0.57677597
5 -0.03800839 0.2651446 0.16861175 -0.22229242 0.29719856 0.32349095 0.2067591 -0.02611279 0.784271 0.60295814
