7 10
5 0.074479155 0.48167032 -0.46153516 -0.13063037 0.5977336 0.09403656 -0.11679127 -0.11802431 -0.53465956 -0.6184092
1 0.06972188 0.4317904 -0.4406168 -0.13589752 0.48465067 0.15919504 -0.12752406 -0.067322224 -0.49722394 -0.6171495
2 0.09457684 0.39591655 -0.45193562 -0.15817913 0.4936432 0.18141185 -0.06295322 -0.08185098 -0.5537728 -0.6141736
0 0.11172892 0.37362036 -0.48215526 -0.07254445 0.54795176 0.19203317 -0.10822021 -0.12104009 -0.5479218 -0.5619273
3 0.11347936 0.4329174 -0.48434225 -0.08103853 0.56716293 0.13155314 -0.045006886 -0.09492734 -0.51568377 -0.5957829
4 0.116571076 0.3830797 -0.42316374 -0.078197405 0.5721515 0.104329795 -0.0788756 -0.0840389 -0.50832695 -0.59192926
6 0.042961266 0.40597048 -0.45284206 -0.15150905 0.5405831 0.10105961 -0.046381056 -0.045056544 -0.5337353 -0.5750519
