7 10
5 0.57268304 -0.007922335 -0.06860926 0.19297326 -0.14339484 -0.17380805 0.18267684 0.92540073 -0.1614665 0.21650086
2 0.59510183 -0.046198126 -0.06247876 0.20679086 -0.17114496 -0.17737016 0.15568303 0.9290609 -0.08350025 0.15661754
1 0.56274766 -0.048865415 -0.066582195 0.22829343 -0.10031785 -0.22278062 0.19158831 0.8592289 -0.17314588 0.24974698
0 0.59988236 0.00079701317 -0.11721966 0.1501472 -0.17183402 -0.20341465 0.14650473 0.90972114 -0.10473898 0.22721922
3 0.6045086 -0.06718098 -0.03146938 0.2161061 -0.10909932 -0.19451815 0.18933393 0.894767 -0.15626495 0.23208885
4 0.6027001 -0.034033623 -0.07044687 0.17486112 -0.07105238 -0.18564193 0.22129011 0.87271106 -0.1162915 0.23432994
6 0.60727453 0.0037619995 -0.10785337 0.19681306 -0.1252536 -0.12544397 0.17802425 0.9041663 -0.07989872 0.16935474
