6 10
4 0.008437619 0.3179429 0.8972337 -0.4597108 -0.1095952 -0.0652356 -0.1040413 -0.19777353 -0.39601552 0.15760407
3 -0.07874821 0.34482294 0.8522366 -0.5128202 -0.16142225 -0.08718062 -0.1967408 -0.08289731 -0.40094018 0.18214783
1 -0.04928891 0.29958293 0.9193831 -0.45426992 -0.148971 -0.0809826 -0.10864218 -0.09157723 -0.39663598 0.15093225
2 -0.03126707 0.31767318 0.88944215 -0.5075909 -0.14768577 -0.11979878 -0.18728365 -0.07481546 -0.35953403 0.17915976
0 0.02161054 0.2612866 0.8568216 -0.42993098 -0.1467642 -0.037471253 -0.10628298 -0.1837268 -0.35656247 0.12054182
5 0.036465745 0.2833311 0.9252448 -0.49794227 -0.18539315 -0.06775784 -0.12163194 -0.21569571 -0.39813244 0.2149338
