7 10
5 0.07852753 0.027794005 -0.27892548 0.021263966 0.10766285 -0.33679676 -0.92224157 0.15764773 -0.43692118 0.058460023
2 0.058446456 -0.03551487 -0.2846242 0.042282842 0.050522033 -0.3171058 -1.0329437 0.20974372 -0.446165 0.034240603
4 0.12941174 -0.010732936 -0.31070518 -0.010018998 0.09286492 -0.31446204 -0.97777086 0.19581886 -0.41503608 0.032383636
0 0.070607334 0.062599815 -0.28478202 0.005601263 0.116322055 -0.29501045 -1.0277907 0.17669061 -0.44922954 -0.031529654
3 0.10340557 0.0014550749 -0.22917025 -0.015372819 0.12958828 -0.34280866 -0.95261574 0.1429319 -0.44390258 -0.0049501304
1 0.13375328 0.006678707 -0.21522602 0.012356734 0.132494 -0.2745495 -0.9748325 0.20965989 -0.44165614 0.035264906
6 0.120987125 -0.00640914 -0.2458586 -0.028209064 0.056941226 -0.33059806 -0.9572625 0.12343528 -0.42726433 -0.014408361
