7 10
2 -0.667495 0.34899414 -0.59084564 0.021480286 -0.3040624 0.44068605 0.29832262 -0.17744847 -0.17324628 0.03217815
3 -0.6684693 0.36761302 -0.60857415 0.09052921 -0.3335472 0.41722375 0.2947543 -0.21076979 -0.12884767 0.0817607
5 -0.68995386 0.38352644 -0.64597 0.009700323 -0.27637717 0.44742906 0.28328604 -0.13966478 -0.1405061 0.08395705
0 -0.64658695 0.29162994 -0.57853955 0.07596978 -0.3291615 0.43194404 0.30806142 -0.18112585 -0.15750557 0.02331952
1 -0.6899523 0.294841 -0.60279685 0.065292574 -0.3547818 0.37092057 0.30358526 -0.22409908 -0.16272451 0.053581297
4 -0.61176956 0.3662504 -0.62942785 0.04772592 -0.33368266 0.44855732 0.3104195 -0.17979534 -0.13202764 0.010931599
6 -0.71678203 0.33511502 -0.6576641 0.051832642 -0.3366106 0.46264955 0.3267665 -0.18565522 -0.11548424 0.07141256
