5 10
3 -0.54653233 -0.15737405 0.1155096 -0.90437037 -0.15884209 0.110545754 0.08641202 0.4227901 0.1948265 -0.24303943
4 -0.51054966 -0.25049996 0.089940086 -0.89024913 -0.20281051 0.14196593 0.031518653 0.41601714 0.13609165 -0.25325495
0 -0.5030252 -0.20823564 0.1293327 -0.8300825 -0.14519863 0.15982036 0.029308114 0.40374804 0.17620158 -0.26434705
1 -0.49093503 -0.24722517 0.13344294 -0.8596208 -0.17765231 0.10578155 0.025678312 0.43535343 0.12235888 -0.23420629
2 -0.4690685 -0.21299313 0.07502085 -0.84779245 -0.19353117 0.10282291 0.01111179 0.41560358 0.09441991 -0.274653
