6 10
2 0.25560787 -0.021295954 0.12146049 0.3385932 -0.4994495 -0.80609924 -0.35931206 0.19040062 0.17128535 0.3573279
0 0.291704 0.0019822225 0.16122778 0.30446908 -0.49631947 -0.8015922 -0.3512782 0.21579361 0.17802374 0.3469629
4 0.26824632 -0.031598788 0.15408266 0.23384304 -0.5217526 -0.81767994 -0.28496447 0.17403445 0.1884042 0.31041804
3 0.27703765 0.043466654 0.16353482 0.23336786 -0.46339267 -0.83973247 -0.25889596 0.15462403 0.22730008 0.35718346
5 0.25914612 0.008231428 0.1344132 0.32561442 -0.49997416 -0.84023994 -0.29335114 0.14043528 0.1803588 0.3178305
6 0.23235571 0.036243305 0.09142631 0.28852615 -0.45198193 -0.81811035 -0.34489983 0.16386555 0.1874775 0.26578668
