7 10
5 1.2430986 1.071227 0.01404797 -0.54103017 -0.373195 0.24293357 1.350221 -0.9354562 0.36335495 -0.91605514
6 1.3627268 1.1558964 0.020711483 -0.6114465 -0.3875298 0.16150239 1.3747241 -1.0436459 0.34556255 -0.986949
4 -0.43531713 0.032291178 -0.85333663 -0.2226139 0.3532986 0.36683166 0.8932744 0.82648194 -0.8225225 -0.21048528
3 -0.46258694 0.0039887154 -0.8751999 -0.24003346 0.3431414 0.29845133 0.90064114 0.90117157 -0.85930556 -0.19107027
2 -0.43883526 0.088862814 -0.84109825 -0.21797644 0.35588542 0.3714347 0.90725845 0.79761064 -0.83835787 -0.1610408
1 -0.3508181 0.08175255 -0.7571988 -0.19265592 0.31774616 0.3364654 0.87933713 0.7507704 -0.8083525 -0.17265812
0 -0.37213847 0.067758374 -0.8344918 -0.24852109 0.37879595 0.30243286 0.8566266 0.78108 -0.8300491 -0.18347564
