6 10
1 0.15496115 -0.46235833 0.2152807 -0.0043060905 -0.32933968 0.4202528 -0.68143797 0.57188135 -0.26743916 0.14304106
2 0.12876873 -0.38647395 0.20668149 -0.007472402 -0.35957205 0.49194252 -0.7205742 0.51035887 -0.26098078 0.121484116
5 0.08448396 -0.41260687 0.13080141 -0.021836497 -0.26873627 0.47556368 -0.6991231 0.49716452 -0.29864648 0.16864195
4 0.12556219 -0.4096126 0.20811425 -0.0528078 -0.33331308 0.43816376 -0.7198139 0.5226264 -0.24604297 0.091762014
3 0.1288273 -0.40901104 0.14877154 -0.07050941 -0.28809375 0.3872726 -0.7077304 0.5649976 -0.30045554 0.15364832
0 0.16012762 -0.41700822 0.19981346 -0.049040377 -0.23911323 0.46274474 -0.673587 0.5392558 -0.22560407 0.1582413
