7 10
6 0.24067086 -0.2529782 0.5029877 0.053657245 0.7187292 -0.113979235 0.010836286 0.34901634 0.007687941 0.6256268
5 0.30062127 -0.24470133 0.53860873 0.036446862 0.6900457 -0.11756527 -0.018159349 0.3262746 -0.0027934606 0.6171132
0 0.2756487 -0.23287754 0.495805 0.032230683 0.69029474 -0.05250504 -0.0039414167 0.25792077 0.026736094 0.6484209
3 0.21983857 -0.18694417 0.49186128 0.055569492 0.7524598 -0.077058874 -0.008687957 0.32645366 -0.012866107 0.6300106
4 0.31050575 -0.25441957 0.47110456 0.10315623 0.75388145 -0.06514188 -0.04509735 0.2790738 0.025415882 0.6330722
1 0.25230572 -0.2608254 0.53936106 0.0024723713 0.6760656 -0.08002378 -0.035570897 0.38123912 0.016651662 0.7037061
2 0.25262734 -0.22993404 0.4756852 0.076194555 0.7213926 -0.062107746 0.019124122 0.37133777 0.020783776 0.6643041
