7 10
5 -0.09262367 -0.35879734 0.33978254 -0.11763284 0.17662166 -0.5574947 0.010549492 0.81752175 0.24225965 -0.13748436
4 -0.121143304 -0.4081931 0.28000757 -0.10847324 0.09326839 -0.59775114 -0.009976458 0.8159018 0.23565732 -0.14889929
3 -0.036819644 -0.3420008 0.35048667 -0.09262699 0.14181855 -0.5855676 -0.013928102 0.8032751 0.27584264 -0.0711723
0 -0.063378155 -0.33651823 0.3653099 -0.11508492 0.16950256 -0.58687884 -0.04460496 0.7949387 0.26440275 -0.104471296
2 -0.11166827 -0.3983211 0.37553748 -0.105180845 0.11407349 -0.58907247 -0.061343186 0.86069494 0.20436697 -0.11649922
6 -0.078927144 -0.35949007 0.36816484 -0.10930418 0.1818888 -0.5845732 -0.011762687 0.7980723 0.26850092 -0.12880376
1 -0.12274362 -0.4283145 0.2963416 -0.1618826 0.08281026 -0.6110192 -0.0019577243 0.8509884 0.21493906 -0.08085026
