7 10
5 0.0002542851 -0.36572182 -0.4691256 0.21237782 -0.68087083 -0.16483232 0.5869264 -0.3517222 -0.093113996 -0.12184292
6 0.0050366716 -0.37185076 -0.4970047 0.19792466 -0.68395096 -0.21886529 0.57769555 -0.34662506 -0.11749542 -0.1265444
1 -0.0432619 -0.3636838 -0.427349 0.21134758 -0.6778617 -0.16971971 0.64701086 -0.41466412 -0.08489648 -0.061903372
0 0.030106498 -0.35182452 -0.41286585 0.23074898 -0.71324056 -0.22535922 0.6495069 -0.32051295 -0.11579777 -0.035857752
2 0.023835568 -0.37205637 -0.45278153 0.21580853 -0.6920167 -0.1747224 0.5887732 -0.391238 -0.16140695 -0.06980981
3 -0.006408372 -0.35124406 -0.47129962 0.22789861 -0.64349556 -0.13815996 0.5569967 -0.3115614 -0.1668864 -0.115956694
4 -0.061282344 -0.31211898 -0.5061911 0.24938539 -0.7131621 -0.21036546 0.6540859 -0.35214987 -0.15618216 -0.069296405
