5 10
1 -0.07083356 0.07720827 -0.5494204 0.29550263 0.18976083 0.21245112 0.7723788 0.06285886 -0.4494855 0.5011874
3 -0.077477954 0.015377264 -0.56852704 0.32033324 0.13650718 0.1719776 0.71632457 0.10802169 -0.35832265 0.44086108
2 -0.1498764 0.013727514 -0.52639884 0.29902986 0.11377572 0.12625189 0.66940165 0.1264513 -0.4261372 0.47347185
4 -0.1766696 -0.02676648 -0.54929125 0.349767 0.18388715 0.12323176 0.67895097 0.17251262 -0.42685863 0.52722734
0 -0.15226744 0.035003904 -0.5355469 0.27237266 0.13969962 0.094931625 0.6042011 0.10095282 -0.36644417 0.4772885
