7 10
2 -0.26383826 -0.13672888 0.70452577 -0.24610348 -0.56373155 0.09983053 -0.5910086 -0.16904175 -0.03884038 0.18695739
0 -0.26275072 -0.13153812 0.75275403 -0.20979124 -0.55731726 0.032399777 -0.5826535 -0.08666281 0.010179788 0.16231817
5 -0.28102922 -0.15645862 0.7147247 -0.25090066 -0.47454742 0.015636439 -0.5688569 -0.14611045 -0.052235834 0.2107375
3 -0.28078943 -0.14377221 0.72368014 -0.26135135 -0.5781539 0.16402525 -0.62614745 -0.1154946 -0.045851193 0.2774095
1 -0.30589625 -0.15118949 0.7626447 -0.28367323 -0.52230763 0.09270665 -0.5404129 -0.098949604 0.0060096583 0.16366632
4 -0.27146062 -0.1107078 0.7389621 -0.2813733 -0.56179416 0.12945992 -0.58160114 -0.12745331 -0.051183805 0.23828068
6 -0.32907844 -0.17608726 0.6955426 -0.2552857 -0.5747588 0.0838864 -0.5910623 -0.19806491 -0.06156758 0.2587298
