7 10
1 0.4439944 0.06421776 0.19076777 -0.15877025 0.3963192 -0.1165369 0.28307498 0.5665585 -0.6918694 0.2978821
2 0.50584644 0.021215828 0.18107568 -0.1761106 0.41519618 -0.14936817 0.18719006 0.54278105 -0.6561235 0.25697187
5 0.48930794 0.05385877 0.184419 -0.17363535 0.36807796 -0.06848671 0.2601046 0.5435102 -0.6717627 0.2638666
0 0.51622045 0.023436982 0.14273098 -0.13967894 0.4436121 -0.06912349 0.24690142 0.5402092 -0.6806948 0.32968152
4 0.53590447 0.00957321 0.15787907 -0.14201178 0.41159698 -0.13097288 0.2966577 0.5728648 -0.66290796 0.22869343
6 0.49166435 -0.018872706 0.17152216 -0.10209363 0.3944028 -0.13014318 0.21509883 0.5437005 -0.671339 0.24676919
3 0.51544046 0.054604348 0.13247383 -0.12821637 0.39263088 -0.12126082 0.26589015 0.52652764 -0.6818645 0.27268133
