7 10
1 0.7558312 0.54844475 0.21953596 0.10382326 0.016741456 0.5112425 -0.083003916 0.36049744 0.19986093 0.37671757
4 0.71833163 0.4977757 0.28242838 0.13469881 0.0734484 0.53496355 -0.053578656 0.27647087 0.20245738 0.39111286
0 0.7819793 0.5244541 0.27134383 0.07854054 0.04366002 0.46353063 -0.095292926 0.30074596 0.22710492 0.32648632
5 0.7604024 0.5239377 0.22975443 0.086847395 0.08982579 0.49346602 -0.045361288 0.31712613 0.23218437 0.309503
3 0.7368455 0.4440125 0.27298343 0.1385047 0.01106498 0.5053792 -0.03075315 0.34252778 0.2422072 0.3577236
2 0.7434783 0.50940555 0.27298915 0.059962805 -0.00030649762 0.51023906 -0.072280556 0.34870046 0.20120294 0.3585303
6 0.76312983 0.5291044 0.2539209 0.11718265 0.036657594 0.44783744 -0.021284146 0.33179587 0.17437556 0.34214118
