7 10
2 0.617463 0.4499231 -0.12284709 0.26181534 -0.028946584 0.70488256 0.08942806 0.40459123 -0.27577308 -0.0028816303
5 0.62025756 0.42438132 -0.08860558 0.28577513 -0.055244993 0.7676949 0.048581127 0.33728302 -0.26635188 0.00881084
4 0.6157122 0.42412263 -0.11162317 0.23872809 0.022811798 0.794635 0.13390319 0.35073912 -0.27298954 -0.0644805
3 0.5410453 0.46411774 -0.057198312 0.23912282 -0.030741451 0.76948136 0.12016382 0.42861596 -0.25158104 0.03375467
1 0.6094523 0.49387434 -0.07268491 0.2038439 -0.0618139 0.7856991 0.040442318 0.35474116 -0.21405117 -0.041438222
0 0.60392684 0.39913914 -0.15118429 0.22510885 -0.018778339 0.77253485 0.089150354 0.4021458 -0.24359682 -0.03456551
6 0.6218447 0.40676427 -0.14991735 0.23370922 0.026934117 0.7001541 0.11370997 0.41715086 -0.19989821 0.033466503
