5 10
1 0.5897048 -0.07479626 -0.22204705 0.16296168 -0.79791236 -0.16370793 -0.24545506 0.33707154 -0.23638353 -0.23133658
4 0.59011155 -0.05361989 -0.16251566 0.1666392 -0.8205591 -0.15200363 -0.26731014 0.40714967 -0.2531357 -0.17335871
3 0.6069292 -0.06426209 -0.13682693 0.2061713 -0.8011095 -0.20324457 -0.28941917 0.39370465 -0.2559274 -0.210932
2 0.5755915 -0.009350453 -0.2228972 0.20772493 -0.7416801 -0.168261 -0.22411619 0.3712345 -0.21191053 -0.2151131
0 0.56468254 -0.10040965 -0.16057386 0.17789511 -0.8061257 -0.110344015 -0.28734833 0.3385871 -0.23131815 -0.12413614
