7 10
6 0.5834888 0.059331004 0.4344369 0.011206928 -0.70827377 -0.48985377 0.17457762 -0.18985568 0.33505896 -0.057101
4 0.5992866 0.023374757 0.3978682 0.024250263 -0.65896904 -0.47503027 0.2580094 -0.15038319 0.3021249 -0.054415215
5 0.62637603 -0.0057363235 0.40890396 -0.0010535719 -0.7160373 -0.4645389 0.25487268 -0.19204701 0.29141515 -0.043112606
1 0.59549624 0.022123246 0.41613713 0.08380478 -0.6822621 -0.511269 0.1441286 -0.16449605 0.254463 0.0130172605
3 0.6157587 0.0099920975 0.34035006 0.010475883 -0.69949216 -0.4624172 0.2635522 -0.12985161 0.3242844 0.016282981
2 0.56864965 0.088987075 0.37751958 0.087699294 -0.683671 -0.5083628 0.19122969 -0.17941608 0.32433578 -0.01951934
0 0.58025444 -0.0063837264 0.4126252 0.09658844 -0.6088858 -0.4518234 0.24589497 -0.19342473 0.26661775 -0.04211545
