7 10
4 0.3796299 0.30735347 -0.3028397 0.5163627 0.45396608 0.21599708 0.49065736 0.20395324 0.49104026 0.06307627
2 0.43600857 0.25270674 -0.3043434 0.55440515 0.4607163 0.1860794 0.5253429 0.14325257 0.48680174 0.058892153
3 0.4164359 0.267033 -0.2451168 0.5286939 0.426243 0.15015166 0.5402492 0.19316365 0.5212366 0.04502025
0 0.41121694 0.34023044 -0.30286634 0.5231022 0.4664517 0.11332281 0.50437725 0.18309194 0.48608026 -0.011166767
5 0.47445425 0.3192449 -0.3034236 0.4756295 0.51811296 0.23438022 0.47004175 0.2279891 0.46095714 0.045396183
1 0.40006268 0.32819298 -0.22845142 0.49311393 0.48619378 0.22240214 0.46484032 0.13312124 0.5002741 0.031118931
6 0.37850395 0.2898456 -0.22960556 0.55686027 0.46920586 0.13682269 0.44036007 0.2264883 0.5284218 0.0056747063
