7 10
6 0.6233294 -0.45508215 -0.22050487 0.13741222 0.11214192 -0.17707407 -0.421011 0.3786216 0.39745453 -0.41040456
5 0.6323444 -0.43674865 -0.1509248 0.0766912 0.12753537 -0.1935946 -0.48347062 0.3438528 0.42400438 -0.3919631
1 0.6277767 -0.4650528 -0.21452269 0.16228978 0.11000968 -0.20857474 -0.43167707 0.38737023 0.43489248 -0.36623093
0 0.593459 -0.5000089 -0.14560382 0.119854264 0.19624914 -0.1744848 -0.4250366 0.42806673 0.41710952 -0.44084013
2 0.6173392 -0.45670176 -0.19279328 0.08565839 0.15171087 -0.18645173 -0.46514285 0.37021434 0.4259998 -0.42732596
4 0.6274759 -0.43713784 -0.14477888 0.1848822 0.17668769 -0.12613809 -0.43253785 0.40094733 0.43121627 -0.44306636
3 0.64800704 -0.4307396 -0.18640947 0.16105384 0.18878853 -0.13995329 -0.42602724 0.36781013 0.42094135 -0.38458028
