7 10
5 0.016131174 -0.31068927 -0.48496264 0.18085003 -0.397299 -0.353234 0.20470463 -0.7815568 -0.052861076 0.38655138
4 0.0715415 -0.2527046 -0.45535 0.21902849 -0.41012886 -0.31066334 0.24859798 -0.7786464 -0.041058514 0.38558617
2 0.043767713 -0.29274192 -0.46895567 0.16439207 -0.40888342 -0.2957376 0.23653764 -0.7581232 -0.024163596 0.30299875
0 0.014706679 -0.33300355 -0.47362772 0.14495675 -0.40187332 -0.2720392 0.20353688 -0.78982025 -0.07199555 0.43179405
6 0.06683038 -0.30851242 -0.41876987 0.19423193 -0.37625796 -0.31677625 0.20188937 -0.8359827 -0.09004907 0.4425062
1 0.00042523968 -0.24096985 -0.4753064 0.17549098 -0.4288246 -0.33007 0.23351808 -0.7726087 -0.062473048 0.4131526
3 0.012575583 -0.25832942 -0.41597304 0.12639885 -0.44249827 -0.32500157 0.21680945 -0.78939354 -0.0037679095 0.39862326
