7 10
4 0.12298747 -0.04942907 -0.23119317 -0.5733961 -0.066278175 0.71783495 -0.55389386 -0.3589383 0.13998915 -0.19043654
6 0.16151763 -0.08079008 -0.23531948 -0.5239444 -0.020564396 0.75159216 -0.56426305 -0.297897 0.13550095 -0.18962164
3 0.14500304 -0.07118903 -0.24424638 -0.57926166 -0.010625807 0.7397967 -0.53424925 -0.3812369 0.13044073 -0.15224521
5 0.13345271 -0.038040515 -0.25302678 -0.5858325 0.004848641 0.66239053 -0.58653444 -0.35293528 0.077952646 -0.23291947
1 0.057353985 -0.07589037 -0.18971454 -0.5228906 -0.068827964 0.7402139 -0.5663654 -0.2959872 0.14775018 -0.20240569
2 0.09457655 -0.089070916 -0.18028775 -0.5085629 -0.06908073 0.76694113 -0.5449466 -0.30599105 0.15955305 -0.19681962
0 0.07409465 -0.059513856 -0.17448492 -0.5688673 -0.04292737 0.7511829 -0.582984 -0.37829438 0.15189427 -0.17448364
