6 10
0 -0.32853585 -0.10465414 0.5619994 -0.11517433 0.67754376 0.23838648 -0.1480736 0.44933987 -0.47397763 0.05463027
2 -0.2963522 -0.13356888 0.54871136 -0.11340961 0.69906795 0.18586913 -0.18340033 0.4722128 -0.44948286 0.029529423
3 -0.3231306 -0.17083134 0.56138295 -0.110421345 0.7550253 0.20202199 -0.13298507 0.48892093 -0.43520054 0.068109185
4 -0.27532965 -0.17098142 0.5799484 -0.1335177 0.71828586 0.19580613 -0.13552436 0.4782263 -0.43607527 0.040561132
1 -0.3526146 -0.14794819 0.55190706 -0.16255833 0.7360014 0.17094967 -0.1831318 0.48599923 -0.40701523 0.06607293
5 -0.33137718 -0.18473478 0.5437363 -0.12086623 0.6682895 0.14911056 -0.19681197 0.4536669 -0.43046093 0.0676334
