7 10
1 -0.17744471 -0.043911856 -0.02424872 -0.7400519 0.35279325 -0.50171566 -0.043849096 0.63375765 0.18981257 -0.2383409
5 -0.21459517 -0.13245578 0.03560759 -0.7574375 0.36354136 -0.47234914 -0.03982085 0.65489984 0.19438374 -0.15536928
4 -0.24234065 -0.06927161 0.008730656 -0.695971 0.35358793 -0.513691 -0.074808404 0.6312318 0.19729288 -0.25926897
0 -0.19029549 -0.051997617 -0.051717736 -0.65575224 0.33603117 -0.5045326 -0.07940019 0.64195156 0.23515631 -0.24687646
2 -0.22494234 -0.13258643 -0.043840602 -0.71792734 0.29221928 -0.49782518 0.00081368914 0.6294056 0.18848425 -0.14465795
3 -0.2468082 -0.0870243 0.0027186216 -0.6905483 0.34545124 -0.45114377 -0.03191937 0.584556 0.16950703 -0.19689637
6 -0.22415157 -0.046041694 0.015515516 -0.6878577 0.297296 -0.5111203 0.0059524467 0.5814891 0.20710188 -0.16020052
