7 10
2 -0.35638767 0.61594623 -0.6136425 0.36571315 -0.12682378 0.16519824 0.27393246 -0.2807488 -0.41807944 -0.13776836
4 -0.3377156 0.56143725 -0.63576853 0.33609548 -0.15363157 0.07319639 0.2507353 -0.40941975 -0.40542614 -0.17372596
1 -0.29761282 0.55115175 -0.6790427 0.30686083 -0.17255288 0.17932966 0.2420694 -0.38649172 -0.4320516 -0.124941915
0 -0.3252806 0.5919093 -0.63408315 0.32624826 -0.09506399 0.16340666 0.25031394 -0.38353717 -0.3636942 -0.11836123
5 -0.32709745 0.5956998 -0.5984115 0.29446074 -0.15754128 0.13093485 0.24672575 -0.36202484 -0.3332883 -0.1337617
6 -0.30224594 0.62726 -0.57504576 0.38221356 -0.07330983 0.116459355 0.28370857 -0.38079062 -0.36265376 -0.18560113
3 -0.35453475 0.63823414 -0.6287513 0.38966724 -0.05922591 0.08338597 0.24372515 -0.3005143 -0.32386294 -0.1762967
