7 10
5 0.6598314 0.27062368 0.22730143 -0.3884746 -0.25180212 -0.12106366 -0.45355627 -0.39600414 0.42286807 -0.30927262
1 0.68576705 0.26042306 0.1584364 -0.35149512 -0.23280339 -0.12944287 -0.43106297 -0.46415612 0.3855302 -0.2855809
4 0.663675 0.2158939 0.21141532 -0.33993372 -0.14837575 -0.13672496 -0.44129422 -0.43532062 0.3969591 -0.32702094
2 0.6536179 0.21840487 0.18934873 -0.35246164 -0.18604901 -0.09758953 -0.4346926 -0.44069362 0.42145354 -0.3272408
0 0.6606776 0.24078843 0.16734056 -0.3684561 -0.14106454 -0.14395154 -0.40448624 -0.4465699 0.4158307 -0.34245238
3 0.69601125 0.26148552 0.22263116 -0.33351487 -0.23642097 -0.14698686 -0.44153023 -0.39592063 0.35562107 -0.31826484
6 0.63569534 0.1976734 0.1562093 -0.39266545 -0.20744936 -0.09337131 -0.38240698 -0.43860108 0.43274307 -0.3363358
