7 10
0 -0.4558254 -0.09296839 0.25042436 0.30621028 0.3739287 0.31088087 -0.22705775 0.25136775 -0.46936366 0.6887744
1 -0.3957544 -0.15887105 0.33586267 0.31479064 0.38516814 0.36234897 -0.27968532 0.13526559 -0.46782744 0.6100962
4 -0.43512923 -0.1391938 0.3123028 0.32897305 0.37233385 0.32877204 -0.2757727 0.1905739 -0.40637225 0.6974104
5 -0.43076035 -0.13301717 0.31472686 0.28079945 0.3376023 0.36022955 -0.25865737 0.22334127 -0.4256776 0.6734291
3 -0.41448256 -0.089185126 0.30282494 0.28488344 0.3323124 0.26338375 -0.2761174 0.16301571 -0.46603408 0.7001517
2 -0.44434378 -0.0802851 0.29971445 0.2895728 0.36440977 0.33799538 -0.24162863 0.19640914 -0.47435296 0.6461929
6 -0.45602027 -0.12950571 0.24484915 0.30012912 0.31939486 0.33355093 -0.2319225 0.2293756 -0.4301166 0.62315065
