7 10
6 0.30413267 -0.46716663 0.5779826 -0.3892366 0.47776842 -0.19010109 -0.453368 0.25185472 -0.014193714 -0.24587493
4 0.32910267 -0.5265215 0.5666518 -0.3811963 0.4604377 -0.15191066 -0.5038212 0.2530241 -0.07529612 -0.19169652
5 0.29686117 -0.54555947 0.54931736 -0.2966095 0.5173336 -0.15337712 -0.5148627 0.26325786 0.016825482 -0.13845584
1 0.3115781 -0.4917699 0.570164 -0.3603556 0.44801086 -0.14718878 -0.44713846 0.20849954 -0.08635128 -0.23867536
3 0.28081083 -0.5222813 0.5356158 -0.3138355 0.4376272 -0.08367942 -0.5373114 0.2766241 0.0072432044 -0.21385483
0 0.24870399 -0.46643922 0.5698135 -0.34531295 0.4740966 -0.08413185 -0.5066253 0.3102762 -0.07156513 -0.12843317
2 0.2771458 -0.44975618 0.5504589 -0.3488895 0.46684113 -0.16342925 -0.5007715 0.27317822 -0.034002542 -0.20426163
