6 10
1 0.30846182 -0.34657258 0.46781462 -0.026271138 -0.040149786 -0.07293084 -0.25670257 -0.4829546 -0.75938785 0.3426298
5 0.30240116 -0.30921683 0.4428861 0.011088722 -0.052353244 -0.10970845 -0.2619946 -0.496603 -0.7361563 0.31817874
4 0.22704221 -0.3377439 0.47277597 -0.03995842 -0.00015156926 -0.11944509 -0.2420303 -0.470213 -0.72040886 0.31798086
3 0.21851781 -0.31017497 0.4902374 -0.0546044 -0.0008713522 -0.10881116 -0.2422297 -0.42273465 -0.74215865 0.35421607
0 0.25659895 -0.33060548 0.41298148 -0.036582712 0.028862823 -0.13894725 -0.3059024 -0.42760625 -0.7868055 0.28827354
2 0.241967 -0.23421097 0.4849862 -0.061506186 0.0062583475 -0.115664646 -0.3079546 -0.42706972 -0.7402362 0.36267513
