7 10
4 -0.28284988 0.332434 0.32496908 -0.11319113 0.14098792 0.41202074 0.27042162 0.057234198 -0.7967938 0.27449727
3 -0.2910937 0.31457096 0.35844463 -0.13742334 0.07777341 0.46729374 0.29193008 0.04767341 -0.86167675 0.19799167
2 -0.31761327 0.31417614 0.31238517 -0.19746616 0.17874777 0.40010968 0.3403459 0.044883784 -0.8736667 0.23955591
5 -0.36514902 0.28621694 0.35365808 -0.16073811 0.07322872 0.36920083 0.31342486 0.105852425 -0.8375884 0.23965022
1 -0.38535687 0.2658628 0.33008564 -0.20485255 0.09113393 0.41324016 0.27677038 0.06451664 -0.8283862 0.225196
0 -0.34715423 0.34096798 0.30823237 -0.1824553 0.14080758 0.41628554 0.27814478 0.0900161 -0.8273437 0.2718433
6 -0.33738425 0.29277065 0.37898734 -0.17390102 0.11863294 0.43521625 0.33717233 0.0650668 -0.7633715 0.2743486
