7 10
3 -0.7059985 0.1572609 0.40695274 0.14036667 0.7018742 0.23346849 0.0033835943 -0.39917362 -0.08862152 -0.17694935
4 -0.6641546 0.12926425 0.4444774 0.12736723 0.6788899 0.22189286 -0.018358387 -0.38628265 -0.086831324 -0.19561394
2 -0.69359213 0.15457891 0.4200525 0.16446154 0.6654469 0.24407697 0.039825443 -0.39030412 -0.07065163 -0.1763587
1 -0.72002393 0.16715574 0.4220588 0.11863552 0.67446387 0.23388685 0.06318355 -0.37200266 -0.043436103 -0.19442572
5 -0.68282837 0.098453715 0.4330133 0.16593939 0.6838781 0.28038463 0.026901392 -0.32689026 -0.04260818 -0.21292922
0 -0.7118889 0.16722053 0.409993 0.09339084 0.7003015 0.20419441 0.032758016 -0.41767338 -0.1030682 -0.15507571
6 -0.664519 0.09635339 0.44449916 0.1285292 0.71026504 0.26487312 0.047540095 -0.33572313 -0.11509384 -0.15623626
