7 10
2 0.16175036 0.35105783 -0.847738 -0.118404835 0.7282599 0.0601374 -0.10877923 -0.03705517 -0.09506379 0.11536816
1 0.12505458 0.40238944 -0.82294846 -0.06410003 0.70729697 0.10340322 -0.14850911 0.01458398 -0.07980096 0.14634424
4 0.12636319 0.32687402 -0.80741477 -0.09982145 0.66397685 0.041695666 -0.1769545 -0.026703702 -0.123326965 0.1470974
3 0.1268996 0.31749672 -0.82479966 -0.06843033 0.65261865 0.046533734 -0.18063112 -0.03533785 -0.049834184 0.12326
0 0.09036746 0.33951288 -0.8360943 -0.11310049 0.72566247 0.10297465 -0.0986695 -0.0042045377 -0.09377789 0.13523307
6 0.100464165 0.35413972 -0.76284677 -0.061198898 0.6783652 0.01469371 -0.13040134 -0.0031199052 -0.10808894 0.17446332
5 0.13724594 0.393525 -0.8127142 -0.077703886 0.70369875 0.06131987 -0.103432715 -0.03428544 -0.11278688 0.17240793
