7 10
6 -0.30116013 0.45269397 0.3354752 -0.7080483 0.24082261 0.48597422 -0.29828674 -0.2820258 0.03717005 -0.067741774
3 -0.26017386 0.47026867 0.3670183 -0.6967652 0.21247 0.4663735 -0.29810968 -0.33826178 0.050986964 -0.125771
5 -0.2775126 0.47295144 0.3323112 -0.6892544 0.25168803 0.43390492 -0.2757938 -0.35679454 0.0051449263 -0.10614059
1 -0.30098447 0.5220829 0.29742655 -0.70479 0.27482724 0.4137448 -0.2787267 -0.3750425 0.0733523 -0.049512878
0 -0.25661847 0.4744414 0.3684899 -0.7070361 0.23241012 0.44226772 -0.25260714 -0.35817397 0.07346725 -0.091831274
4 -0.27930593 0.4431903 0.33908594 -0.70481527 0.2360088 0.46355826 -0.28989336 -0.34885484 0.0589261 -0.047943175
2 -0.3387038 0.5359908 0.34928283 -0.69560534 0.21116151 0.51440644 -0.23334809 -0.34640348 0.0025010821 -0.09261667
