7 10
2 0.12859635 -0.41136855 0.58803725 -0.07780567 0.3169282 -0.50256234 0.59962314 -0.21571617 -0.12538266 0.25927502
1 0.17481236 -0.37577432 0.5843346 -0.10636933 0.29628932 -0.5178136 0.6258159 -0.25508463 -0.016309714 0.3006628
5 0.15475383 -0.4118203 0.6173765 -0.08593596 0.25947535 -0.5620655 0.60970664 -0.2365423 -0.06646268 0.2077772
4 0.15444104 -0.41973907 0.5985541 -0.111735426 0.21506804 -0.55647194 0.551252 -0.25436842 -0.12453161 0.23679945
6 0.117083855 -0.42054176 0.58745736 -0.05520033 0.28809038 -0.58731294 0.55007815 -0.25982842 -0.067910135 0.27809465
3 0.18185318 -0.4105316 0.54990125 -0.10178335 0.26791218 -0.5730842 0.5541574 -0.27272964 -0.094461545 0.2402797
0 0.15294096 -0.37750506 0.5870335 -0.10013892 0.273026 -0.54866314 0.5731854 -0.23576587 -0.09721186 0.22336143
