6 10
1 -0.3860967 -0.40743196 -0.50493616 -0.1330288 0.2918772 0.39800364 -0.69311273 0.015599311 -0.18983828 -0.07351734
2 -0.34883583 -0.49953353 -0.5076614 -0.17159571 0.3229198 0.36985925 -0.69727474 -0.01620545 -0.19103515 -0.031976685
5 -0.36348888 -0.41360438 -0.5024032 -0.1210309 0.26721588 0.3506193 -0.6962172 -0.060177147 -0.23851056 0.01037018
3 -0.31810132 -0.38259175 -0.48347443 -0.12127957 0.26561102 0.39459345 -0.7263384 -0.013860742 -0.2549597 -0.03651702
4 -0.34581587 -0.44978505 -0.49745065 -0.13169327 0.31992188 0.3954115 -0.64880455 -0.0708647 -0.16422802 -0.03950525
0 -0.3548853 -0.48100546 -0.45293283 -0.12040521 0.2858602 0.3493609 -0.72094524 0.023855403 -0.21661042 -0.06911683
