7 10
3 -0.43149862 0.2944898 0.050880894 -0.08667054 -0.37097123 0.2906596 -0.66584116 0.2847469 -0.54253846 -0.18560103
2 -0.4976985 0.29497343 0.0025846933 -0.097673856 -0.35303652 0.33531052 -0.68462855 0.2724996 -0.5143397 -0.14967185
1 -0.4640781 0.23840356 0.049827985 -0.0022420515 -0.41282123 0.3222021 -0.6310409 0.27473715 -0.55443853 -0.2130184
0 -0.46819994 0.30414793 0.07751987 -0.018739132 -0.38261005 0.30771413 -0.6667859 0.2700849 -0.52010876 -0.19956318
4 -0.50727445 0.29018098 0.037597284 -0.021580907 -0.42709228 0.30670792 -0.672497 0.2205393 -0.53223234 -0.19013374
6 -0.4756163 0.2961615 0.01975603 -0.07360566 -0.3362778 0.2942495 -0.684103 0.23427993 -0.5555994 -0.18816024
5 -0.42768678 0.2768271 0.019606318 -0.051591955 -0.3960513 0.33926624 -0.6417701 0.3097802 -0.55210453 -0.17505887
