7 10
1 -0.16899972 0.7245893 0.20345503 -0.42948055 -0.097029574 -0.1299315 -0.39244828 0.6364889 -0.104155324 -0.063196704
2 -0.10257843 0.70230323 0.19281206 -0.42433763 -0.18206725 -0.11804378 -0.42441803 0.6736051 -0.051557414 -0.0042535774
4 -0.11739491 0.74297446 0.18728065 -0.4477381 -0.18966894 -0.14575647 -0.37336165 0.6444236 -0.06901819 -0.011944013
3 -0.056066908 0.65252984 0.11485385 -0.44020778 -0.21239343 -0.168683 -0.44859502 0.6940588 -0.14787535 -0.053817846
0 -0.119768895 0.6853539 0.18273744 -0.41270295 -0.12737559 -0.18065886 -0.3586079 0.6775227 -0.116258055 -0.009630595
6 -0.08779549 0.66567135 0.12081069 -0.3651685 -0.14411964 -0.14761698 -0.38371277 0.64607245 -0.08480049 -0.06131017
5 -0.15762365 0.70014787 0.1592312 -0.40254733 -0.18402663 -0.18056658 -0.42355445 0.641444 -0.117480546 0.009256186
