7 10
2 -0.16624449 0.250357 0.3279953 0.4749977 0.16774237 0.1833379 -0.74045014 0.4104511 -0.45005074 -0.23537451
1 -0.17465247 0.23859192 0.38331828 0.48753032 0.14217956 0.21176086 -0.7274185 0.4370742 -0.44787872 -0.24642576
4 -0.09839568 0.24609439 0.35597062 0.3636919 0.063501 0.1592211 -0.7343469 0.39404532 -0.33161443 -0.29445913
0 -0.17987806 0.20256317 0.30987933 0.45675927 0.09378755 0.17732428 -0.76260567 0.3889077 -0.44040078 -0.3058744
3 -0.15680487 0.24351421 0.32906348 0.3913365 0.12710941 0.13900313 -0.72201973 0.4021888 -0.33035535 -0.25154272
5 -0.09198785 0.23233786 0.32867545 0.4641827 0.11266324 0.18102224 -0.72032106 0.40670064 -0.43615702 -0.19832285
6 -0.16241306 0.19771641 0.33177838 0.44085723 0.14433934 0.1984186 -0.7604997 0.41083536 -0.40057367 -0.26403335
