7 10
1 0.0576568 0.28884965 -0.40065312 -0.47955146 0.5402715 0.05938115 0.15924397 -0.21886487 -0.21867353 0.7217914
4 0.17918049 0.2272607 -0.37040642 -0.4673183 0.5593016 0.08620371 0.17657259 -0.26189175 -0.2050832 0.75368065
5 0.14075656 0.27145433 -0.3666046 -0.503037 0.5655955 0.0556608 0.1355611 -0.16734691 -0.2569255 0.7406918
2 0.0527651 0.19212388 -0.4134134 -0.41529748 0.5676979 0.01652415 0.098589115 -0.27610868 -0.24632816 0.7141121
6 0.09870614 0.27078432 -0.38573474 -0.45945296 0.56927353 0.009682409 0.095481664 -0.23392954 -0.259034 0.6845063
3 0.13052091 0.28171757 -0.41139397 -0.4806721 0.5510966 0.033106443 0.18105869 -0.26351604 -0.21877766 0.677107
0 0.1760165 0.3076164 -0.3314047 -0.5078808 0.5524017 0.08062255 0.09616074 -0.19934721 -0.19980542 0.7633844
