7 10
3 0.373258 -0.4153214 -0.12739334 -0.07272827 0.06416352 -0.45477718 -0.34763464 -0.73288494 -0.019412288 -0.29329947
6 0.35035297 -0.43437675 -0.086431324 -0.018668944 0.07111998 -0.5017181 -0.3617894 -0.79716784 -0.040707268 -0.2940637
0 0.3502321 -0.37539646 -0.14646682 0.0018078272 0.048387364 -0.50287354 -0.34955034 -0.7695607 -0.0067881653 -0.31886968
4 0.40806776 -0.40307006 -0.14273551 -0.03914089 0.05742718 -0.43901137 -0.34717909 -0.84362423 0.011500459 -0.34087816
5 0.41545787 -0.42917907 -0.089639656 -0.04765604 0.0668429 -0.4440239 -0.36163986 -0.77318 0.042250205 -0.33909136
1 0.42690352 -0.38440272 -0.1675765 -0.017892424 0.07098734 -0.4656675 -0.36091712 -0.7822806 -0.029085292 -0.2712221
2 0.34083262 -0.39423236 -0.14579032 0.019528272 0.04169426 -0.46524236 -0.30933687 -0.7705231 -0.05392582 -0.28373963
