7 10
3 0.13617842 0.5839886 -0.53634256 -0.020722503 -0.2161384 0.3502539 -0.26427257 0.6189302 0.10684346 -0.355587
1 0.13641228 0.5884028 -0.49514246 -0.027750313 -0.21045494 0.35984218 -0.21951996 0.64127326 0.033418693 -0.34971508
4 0.15981546 0.5339312 -0.5280317 -0.037769392 -0.20875427 0.3969706 -0.23448877 0.6935894 0.022811519 -0.28960285
0 0.08202944 0.56566936 -0.48755655 -0.050882567 -0.19891006 0.4027999 -0.26775342 0.63742155 0.07472986 -0.3224726
5 0.12765126 0.57652617 -0.54034054 0.0054225666 -0.23393123 0.32855865 -0.19168805 0.6315292 0.021339444 -0.34020066
6 0.1709023 0.55969244 -0.5511405 0.012176897 -0.24061722 0.36150295 -0.22892939 0.59677523 0.11419747 -0.34186894
2 0.14613482 0.58617103 -0.5451741 -0.013011937 -0.24898298 0.2848903 -0.26795414 0.641721 0.105087295 -0.2870197
