7 10
1 -0.13857941 0.06911536 0.3961158 0.5241762 0.30880842 0.7474215 0.36154094 0.18562162 -0.38272363 -0.1875421
5 -0.07495862 0.068637244 0.42908227 0.5375527 0.3072127 0.703081 0.3588502 0.17181954 -0.39567232 -0.12573746
2 -0.12098075 0.06630478 0.44810733 0.5437057 0.19480331 0.7223332 0.3716993 0.2734741 -0.32219553 -0.21210128
0 -0.05394734 0.10048747 0.43429056 0.5322014 0.20150483 0.71030277 0.29485247 0.25711322 -0.40759122 -0.19781451
4 -0.089996934 0.07773664 0.40881148 0.50589293 0.28357324 0.64855975 0.3193627 0.24794008 -0.38445187 -0.17276472
3 -0.1045906 0.009109547 0.4357624 0.55043685 0.22595717 0.6781757 0.29025 0.21198842 -0.4095447 -0.16741247
6 -0.04366145 0.054711416 0.3726796 0.5308343 0.21020493 0.7630464 0.37402204 0.27673933 -0.36125842 -0.15588611
