5 10
4 -0.5233226 -0.49176636 0.4026067 -0.046927053 -0.14998265 0.12552778 -0.48573607 0.5719517 -0.037164494 -0.17824228
1 -0.5470919 -0.5374476 0.36428303 -0.0626239 -0.09431202 0.14183924 -0.5221902 0.5636981 -0.048251793 -0.19650902
3 -0.5890084 -0.53387815 0.45980626 -0.06214652 -0.12360762 0.11441989 -0.48301718 0.60102975 -0.013294061 -0.24022533
0 -0.48910633 -0.49025434 0.34404352 -0.03779689 -0.12880252 0.17544301 -0.4894065 0.5345045 -0.07082285 -0.22938448
2 -0.47327012 -0.39911404 0.39489543 -0.03272231 -0.14246428 0.15690747 -0.49681213 0.49120858 -0.07774532 -0.18694763
