6 10
1 -0.17085324 1.3791615 -0.47126535 -0.5171318 0.73165023 -0.8016187 1.0866752 0.67953277 -0.6839553 0.30750942
2 -0.082105584 1.4514376 -0.40812033 -0.5933441 0.6943366 -0.768899 1.1198109 0.73803633 -0.6097893 0.29815054
4 -0.32495105 0.8861503 0.5197443 1.0952637 0.3269096 0.48078656 -1.2296103 -0.93118834 -1.4085166 0.40729415
5 -0.30295354 0.9090825 0.53156453 1.1221592 0.3113937 0.5130877 -1.2373606 -0.88586146 -1.3902465 0.39451873
3 -0.29616845 0.30480328 -0.7082294 1.2589201 0.68920213 0.85839653 1.1829996 -0.6317422 0.10537945 1.2580451
0 -0.3070648 0.34583876 -0.7148958 1.1828611 0.64116746 0.8220257 1.0884631 -0.6463199 0.09117339 1.2264339
