7 10
3 0.12993962 0.43868482 0.41399288 -0.2158203 0.24804708 0.5515639 -0.18151565 -0.31102228 -0.4705524 0.416944
6 0.20171624 0.44398588 0.36048785 -0.3232931 0.30061668 0.54721034 -0.13633119 -0.28589815 -0.4730935 0.46297678
2 0.19919713 0.4333222 0.42664638 -0.30550164 0.26802433 0.5488543 -0.10163096 -0.26958916 -0.48375425 0.46895134
5 0.106571116 0.4650908 0.38530892 -0.24406847 0.27781102 0.6336159 -0.18590844 -0.30514577 -0.5130267 0.40554556
1 0.13721694 0.3811242 0.4330497 -0.27915278 0.2800918 0.62326354 -0.19219413 -0.33594736 -0.41351193 0.4452134
0 0.16331986 0.44646353 0.40491632 -0.27289099 0.28617752 0.5637855 -0.082193874 -0.22931775 -0.4688549 0.46661553
4 0.14026073 0.40092394 0.448031 -0.3407293 0.23878458 0.61250496 -0.0984529 -0.32657737 -0.42181548 0.43434665
