7 10
1 -0.49553397 0.08470706 -0.6761232 -0.278975 -0.18371855 -0.15504967 -0.41413385 -0.36735827 -0.24103825 0.4261003
0 -0.47792178 0.005329678 -0.6794325 -0.21404009 -0.21319586 -0.21399774 -0.4174002 -0.39652705 -0.3250259 0.42311272
4 -0.49168253 -0.04284169 -0.6337114 -0.18688619 -0.19221194 -0.24212146 -0.42277625 -0.35504127 -0.26942903 0.36747816
3 -0.41987467 -0.05024728 -0.7285631 -0.2542145 -0.17701162 -0.1800216 -0.4316344 -0.4453682 -0.3385572 0.3896303
2 -0.47006187 0.015018608 -0.6438018 -0.24250494 -0.22584371 -0.1758352 -0.41181618 -0.4084226 -0.26525402 0.31029305
5 -0.4138651 -0.028411852 -0.6678713 -0.21060409 -0.21215235 -0.2029153 -0.3959556 -0.39064458 -0.22174017 0.38448983
6 -0.43578613 0.06053146 -0.65889084 -0.27168253 -0.13611634 -0.16649194 -0.37205473 -0.41743374 -0.26787364 0.45001686
