7 10
2 -0.3334796 -0.018888557 -0.20559071 0.80240417 -0.5115024 0.20769972 -0.102854826 -0.30351257 -0.4037385 0.22489041
0 -0.32206246 0.061432518 -0.18895444 0.7737068 -0.5534906 0.2643177 -0.073736586 -0.29195383 -0.3948884 0.1780712
4 -0.27000907 0.055445883 -0.25150275 0.79813266 -0.5714391 0.19900882 -0.08393152 -0.3227118 -0.3459234 0.1814408
5 -0.29236063 0.015480844 -0.20232324 0.7902127 -0.47961712 0.27013376 -0.14098881 -0.28645864 -0.4078537 0.23532867
6 -0.3316462 -0.0124944 -0.24920075 0.78989565 -0.54395676 0.24019322 -0.07630579 -0.27623028 -0.3799279 0.17493476
1 -0.2830967 -0.0021846322 -0.26422864 0.741148 -0.5423636 0.19990163 -0.056603465 -0.2993669 -0.38811305 0.20284536
3 -0.26045772 -0.0073050223 -0.2581502 0.7952822 -0.5354124 0.25334486 -0.13316934 -0.3303021 -0.36447605 0.14681272
