6 10
6 0.26779562 0.43115887 -0.12387807 0.24701633 -0.4013968 0.34351325 -0.78348154 0.00644422 0.431673 -0.18367597
2 0.16357979 0.41082186 -0.064799055 0.16328314 -0.38981214 0.40158987 -0.73139197 0.0395849 0.40230897 -0.2591618
5 0.18583794 0.42867485 -0.093873926 0.22021751 -0.50759506 0.35245255 -0.71741027 0.0073794913 0.3792001 -0.22605474
1 0.2336382 0.44553697 -0.16450731 0.22340721 -0.4806245 0.39491844 -0.7517604 0.016553745 0.35468966 -0.20438555
0 0.24749911 0.3698856 -0.08442152 0.18689646 -0.45913324 0.35628435 -0.72891814 0.015543442 0.40269488 -0.25724366
3 0.1767772 0.38101393 -0.16400716 0.18548879 -0.44712222 0.33525303 -0.7424834 -0.040222563 0.42617166 -0.25214162
