7 10
1 0.41753194 0.3418981 -0.17819615 0.033037398 0.16949736 -0.51695037 -0.7803573 0.25693482 -0.31901088 -0.111276455
4 0.37983948 0.32663074 -0.17466025 0.00062784593 0.11398211 -0.5932428 -0.785037 0.28667092 -0.32220635 -0.03181891
3 0.372979 0.3183986 -0.20572765 -0.01683945 0.18850474 -0.58551514 -0.773166 0.230813 -0.2792915 -0.09477115
0 0.345057 0.29107997 -0.22910218 -0.018228015 0.19818886 -0.587661 -0.7513647 0.26166657 -0.30417967 -0.09349439
6 0.351997 0.3429403 -0.21657854 -0.06360953 0.131202 -0.5673752 -0.8213397 0.25832748 -0.28910494 -0.030409487
5 0.41459873 0.33434546 -0.18465242 -0.045104176 0.17711307 -0.5769812 -0.7432089 0.2581179 -0.3303875 -0.07669299
2 0.41011894 0.32515097 -0.23194459 -0.026550539 0.20135196 -0.518076 -0.75378716 0.22538312 -0.29513824 -0.029956874
