5 10
4 -0.53811646 -1.0170807 -1.0410652 -0.43797553 1.0726186 -0.7573448 0.5889688 0.42699957 -0.5131481 -0.12421971
3 -0.5835609 -0.99685305 -1.014987 -0.34188268 1.0475816 -0.68971956 0.5823714 0.36534664 -0.5750935 -0.061007995
0 -0.18638863 -0.7584338 0.4616205 0.3461973 -1.0786239 -0.11757287 0.5391231 -0.7117511 -0.68148977 -0.46745798
2 -0.11852161 -0.8017176 0.4583895 0.28638038 -1.0809865 -0.09726614 0.5667317 -0.7464005 -0.72415406 -0.47767428
1 -0.18642755 -0.8204126 0.4460864 0.36916184 -1.1094314 -0.11276421 0.6087873 -0.78104913 -0.70199233 -0.50602317
