7 10
0 -0.41756272 -0.110412754 0.07798407 0.6929376 -0.43466163 -0.3308818 0.020953497 0.4929518 -0.0061568306 -0.5317559
5 -0.44842148 -0.016870504 0.058773108 0.64175105 -0.4522552 -0.3546013 0.0013797283 0.47527394 0.020711344 -0.5195168
3 -0.45459315 -0.07686345 -0.011944648 0.6143553 -0.4151487 -0.3468436 0.039369743 0.50790924 -0.006857267 -0.5121355
2 -0.44890746 -0.101348214 0.0026974494 0.6605217 -0.4413854 -0.3189731 0.044837303 0.49709165 -0.0044938903 -0.5068008
4 -0.42861807 -0.033035472 0.003969636 0.66058123 -0.45091078 -0.37682617 0.0072726808 0.49287206 0.009582088 -0.4761181
1 -0.45500746 -0.091118716 -0.004592673 0.6285883 -0.47073925 -0.37415683 -0.022365142 0.53294134 0.0045714737 -0.53948444
6 -0.39700928 -0.08102459 0.065315 0.64450496 -0.37035802 -0.27153438 0.012592827 0.498542 0.020096233 -0.462874
