6 10
4 -0.5147856 -0.45302433 -0.20118497 -0.0621597 0.082112774 -0.54541737 -0.20176172 0.6313755 -0.35303566 -0.24092804
1 -0.526845 -0.48610622 -0.20209615 0.024572002 0.14667815 -0.5317154 -0.14694755 0.602592 -0.359275 -0.17611088
2 -0.51031107 -0.5055684 -0.13122876 -0.006745993 0.1698912 -0.47925222 -0.13407378 0.61700654 -0.349502 -0.25399774
3 -0.51614773 -0.51735634 -0.12083231 -0.01812688 0.1406018 -0.5173753 -0.19231081 0.58550596 -0.30578023 -0.20247169
0 -0.47295007 -0.47879225 -0.14654648 0.014530781 0.08597707 -0.5044058 -0.13577653 0.58145475 -0.29879743 -0.24834318
5 -0.49887797 -0.4918704 -0.12101404 -0.07055954 0.1602815 -0.5201439 -0.146112 0.5787151 -0.35966295 -0.24055815
