7 10
5 0.44023153 0.19580574 -0.31464535 -0.4343871 0.6593915 -0.054215726 0.23625204 0.45514965 -0.29843554 0.21745038
3 0.45024133 0.27616522 -0.33323792 -0.4661861 0.6569188 -0.11480968 0.26968518 0.472212 -0.24385059 0.19332427
6 0.443906 0.24013996 -0.33015233 -0.45893177 0.68088263 -0.06555833 0.2629914 0.42265636 -0.23066218 0.19658399
1 0.36269605 0.27803573 -0.28016722 -0.46274486 0.6773989 -0.12810174 0.19124162 0.46317977 -0.28820458 0.15415064
0 0.46223444 0.30099598 -0.29765433 -0.4151405 0.6983018 -0.03046126 0.18961169 0.3961529 -0.2474004 0.1652899
4 0.3927242 0.22966574 -0.32808244 -0.45307046 0.67766815 -0.13165817 0.2289709 0.4590897 -0.2669471 0.17639802
2 0.4087102 0.25761715 -0.2617792 -0.49437073 0.72079694 -0.05653959 0.27814502 0.41147268 -0.25589794 0.15031123
