7 10
5 -0.34989902 -0.037126556 0.20221584 -0.46283168 0.31123847 0.9331949 0.069714144 -0.15020964 0.1957004 -0.11611175
3 -0.36055443 -0.029795505 0.12583278 -0.4716597 0.31602755 0.90822595 0.094735675 -0.22735447 0.19961023 -0.060678124
4 -0.35696027 -0.0043170783 0.17781173 -0.45301622 0.25907725 0.9280417 0.13352558 -0.14259808 0.23774774 -0.12102621
6 -0.35454807 -0.005401096 0.2131803 -0.4693766 0.3155482 0.8951184 0.12400261 -0.16736738 0.22107878 -0.06627823
2 -0.29547548 -0.0024420426 0.19673085 -0.44789717 0.32354727 0.95896864 0.092934705 -0.15994161 0.1811388 -0.0901761
1 -0.30262697 -0.043661974 0.13297398 -0.4291331 0.32780826 0.9324839 0.12308741 -0.1864205 0.14309314 -0.05799121
0 -0.33438045 -0.027664278 0.21662237 -0.48819026 0.29284775 0.89316255 0.08911226 -0.19967565 0.19109917 -0.14413066
