5 10
5 -0.23510617 -0.99311036 0.086632185 1.0729648 0.26955402 0.3784424 -0.061289076 1.4146799 -0.46897238 -0.21601145
4 0.8762129 0.22980873 -0.48586294 -0.4345965 -0.10620664 0.9686334 0.47899997 -0.08511329 -1.0014199 1.2544067
3 0.82761836 0.20937091 -0.39289674 -0.32382783 -0.0956895 0.8520113 0.44114605 -0.0129825175 -0.93982124 1.1361766
1 -0.1216608 -0.81198424 0.094336525 0.8805794 0.24384616 0.35595116 -0.09178771 1.1582413 -0.3750613 -0.09263128
2 -0.18419327 -0.83721244 0.07664139 0.9303898 0.30380893 0.26298368 -0.05162703 1.2438952 -0.44690508 -0.14162496
