3 10
1 0.5037563 -0.4790421 -0.30500004 0.33117402 0.10540455 -0.24929594 -0.31950054 -0.30781364 -0.035890862 -0.19719288
2 0.40850976 -0.34468538 -0.2276152 0.2593835 0.1349635 -0.1674144 -0.28158686 -0.31522134 -0.10100616 -0.18156546
3 0.3457952 -0.3686113 -0.19581677 0.22132473 0.16701655 -0.16795225 -0.26125538 -0.3178712 -0.05377688 -0.18323788
