7 10
6 0.030174062 -0.2232846 0.78474766 0.6721276 0.32306117 -0.09948486 -0.21456775 0.16756502 0.012002101 -0.41122702
1 0.05514002 -0.25059715 0.7677494 0.6566459 0.310266 -0.03896922 -0.21683693 0.15691291 -0.034569904 -0.39882725
5 0.04356022 -0.2905275 0.7541701 0.64885944 0.35973188 -0.09028435 -0.17426722 0.17280328 0.023312239 -0.34237581
3 0.011583771 -0.20419252 0.7525092 0.6756417 0.33361208 0.13204387 -0.13406241 0.20384166 -0.037946936 -0.3485697
2 -0.0074650873 -0.25214154 0.75911325 0.72043777 0.2519785 0.07506423 -0.20254396 0.14337415 -0.020731285 -0.4161548
0 0.006603684 -0.3066591 0.76194763 0.68691415 0.29325038 -0.12745157 -0.15033795 0.2045084 -0.043481372 -0.37416828
4 -0.0033143137 -0.2866164 0.7476749 0.6447237 0.2630056 0.1256373 -0.23281741 0.13199958 -0.020890903 -0.34845296
