7 10
1 -0.5723862 0.7477813 -0.2294812 0.105496354 0.34828192 -0.25648636 0.2848229 0.030404422 -0.26348257 0.35972837
5 -0.51587355 0.7521631 -0.1841316 0.16543278 0.35261118 -0.2313651 0.27657145 -0.026761 -0.27021825 0.28605092
0 -0.546155 0.79231465 -0.19947481 0.11014502 0.32164028 -0.25983363 0.31023446 0.033147816 -0.30062744 0.36957315
3 -0.58431536 0.74489063 -0.22082385 0.1428809 0.4059046 -0.15444662 0.22811921 0.011716025 -0.32240546 0.29856622
4 -0.5085228 0.7550896 -0.19733877 0.09753873 0.39584935 -0.17085603 0.29752216 -0.038396716 -0.31487885 0.2951781
2 -0.5774501 0.7774112 -0.21260704 0.14389412 0.397332 -0.15910392 0.22646089 -0.04581223 -0.34595037 0.3518926
6 -0.5742515 0.80318964 -0.21598533 0.10527996 0.37016317 -0.19712543 0.2317393 -0.0120266825 -0.27114612 0.25464815
