7 10
4 -0.41914093 -0.17197154 -0.07347724 -0.65410185 0.024960997 -0.49241605 -0.43563253 0.41767076 -0.15690076 0.3589818
3 -0.48387715 -0.26073605 -0.11434635 -0.68098533 -0.012855992 -0.4624158 -0.38424867 0.46064112 -0.1389333 0.31931773
6 -0.53156316 -0.23361072 -0.20524043 -0.7113524 0.038687147 -0.5167075 -0.42367482 0.3538753 -0.11448349 0.34739006
5 -0.42958134 -0.15329266 -0.17741193 -0.6053387 0.08737321 -0.5117437 -0.47495306 0.34378314 -0.19513199 0.34496912
0 -0.51639163 -0.16860515 -0.14100182 -0.64048094 0.035494708 -0.45050222 -0.44772023 0.3632667 -0.17480332 0.38794804
2 -0.4788556 -0.25050288 -0.094914265 -0.6575461 0.05058201 -0.4217403 -0.42670873 0.47511593 -0.13304116 0.29819652
1 -0.43348807 -0.23982258 -0.10890224 -0.5705082 0.04485572 -0.45354787 -0.43362087 0.42870048 -0.16954054 0.31615898
