7 10
5 -0.24119794 0.24199171 0.016947024 -0.034622174 0.45314083 -0.47263566 -0.20271733 -0.11847306 0.45619795 -0.7036573
4 -0.24915124 0.27315903 0.09857868 -0.07089458 0.45258072 -0.50823855 -0.1556365 -0.057085052 0.45749646 -0.76110756
6 -0.20520747 0.28191578 0.015983265 -0.07369125 0.42702535 -0.50712746 -0.23359202 -0.10005616 0.3995489 -0.8073666
2 -0.24288425 0.27916268 0.09208314 -0.07868411 0.44674855 -0.3812737 -0.22436905 -0.053654492 0.450584 -0.6955868
3 -0.27872136 0.22600825 0.07656062 -0.089719124 0.39751962 -0.5036328 -0.17611828 -0.12730762 0.4386797 -0.78586656
1 -0.2489401 0.26546156 0.048745207 -0.05931011 0.38113457 -0.44729367 -0.23551877 -0.06808715 0.47216946 -0.7024873
0 -0.31574023 0.27848846 0.07739438 -0.013254608 0.47719845 -0.5260603 -0.21560067 -0.06710869 0.43502972 -0.8342393
