7 10
0 -0.4086719 0.05252372 0.26158214 -0.37554035 0.026554331 -0.087035395 0.87602544 0.41201788 -0.091639966 0.3212453
1 -0.47292775 0.067737855 0.28114915 -0.35019812 -0.035923366 -0.026949659 0.86666715 0.4033264 -0.11773669 0.29335594
2 -0.44363403 0.05865642 0.2716156 -0.38172814 0.0057970677 -0.09656998 0.86475456 0.40773556 -0.054851048 0.29322904
3 -0.39670306 0.089994825 0.29316118 -0.40480587 0.016949847 -0.082221 0.8650438 0.3979238 -0.07127602 0.27453864
4 -0.46650222 0.09038522 0.32272637 -0.31953025 -0.027493643 -0.06230019 0.8502473 0.40792906 -0.07800874 0.3227783
5 -0.46237952 0.043943778 0.2091959 -0.3233296 -0.039342206 -0.047773216 0.8846468 0.36975923 -0.040490914 0.2723345
6 -0.42438957 0.067454234 0.2282315 -0.3727837 -0.011757572 -0.0817432 0.84404993 0.3182092 -0.007446283 0.2187004
