6 10
2 0.9246842 0.11805187 -0.017676683 0.26807815 -0.023723131 -0.22351407 0.44176555 0.10267792 -0.56898606 -0.12161396
0 0.90372336 0.093217395 -0.032527067 0.23506464 -0.036681257 -0.19268528 0.41775656 0.11155106 -0.5448985 -0.051059656
5 0.92948264 0.12141689 0.007825156 0.22017285 -0.015464324 -0.24503414 0.42666864 0.091272205 -0.520085 -0.07105534
1 0.9068774 0.10908288 -0.0012738573 0.26171646 -0.06354232 -0.1828012 0.34230277 0.111949265 -0.48381844 -0.08765912
3 0.8959889 0.08748399 0.017672952 0.19918314 -0.0056113326 -0.2710564 0.35604048 0.091350496 -0.50844043 -0.116350405
4 0.8651352 0.15019952 0.0020230352 0.28386822 -0.010125115 -0.2599414 0.41043836 0.09135075 -0.46531466 -0.09652809
