7 10
1 0.0134396115 0.09220063 -0.7971387 0.14870426 -0.15784651 -0.374233 0.6892003 0.18652187 -0.009547383 0.012665666
0 0.066930614 0.073905766 -0.82119906 0.1848638 -0.19287768 -0.31587633 0.67838424 0.25106442 -0.08674204 0.0030139552
6 0.10020417 0.027320221 -0.74243766 0.22030035 -0.1545143 -0.36945075 0.7181244 0.2457122 -0.0352811 0.00704837
5 0.07493862 0.054471318 -0.8385834 0.18281007 -0.12595043 -0.39721066 0.7009313 0.23402385 -0.065721914 -0.035471637
4 0.0033974587 0.09701763 -0.848755 0.12947609 -0.15723298 -0.33330256 0.7312242 0.14543143 -0.02606962 -0.055199347
3 0.022400001 0.11298894 -0.8365421 0.17259233 -0.124198556 -0.3060565 0.7137114 0.18221241 -0.09780927 -0.006371104
2 -0.0070210746 0.050597318 -0.80306995 0.2003789 -0.13303813 -0.37414265 0.6949842 0.18754654 -0.05879838 -0.050365712
