5 10
4 0.36189708 -0.010336735 -0.08794804 0.37388718 0.6084383 0.35533294 -0.17533197 0.0032395483 -0.6332651 -0.37944496
1 0.38198897 -0.0992773 -0.027721837 0.46925274 0.59269375 0.428815 -0.17429006 -0.056339245 -0.60060495 -0.2962737
0 0.3402222 -0.024033515 -0.07081209 0.47393733 0.5685418 0.3923676 -0.22380011 -0.0519942 -0.60537595 -0.37022743
5 0.3885316 -0.016893392 -0.030091101 0.398106 0.58335465 0.3747477 -0.22216265 -0.02398822 -0.63371843 -0.36254194
2 0.35182068 -0.00992114 -0.05738787 0.45786405 0.53485686 0.413697 -0.16752397 -0.0654419 -0.6249048 -0.2911763
