7 10
5 -0.46345904 0.434812 -0.6073532 0.5912974 0.021319175 0.22597219 -0.3331893 -0.24977516 -0.18684848 -0.044905443
6 -0.48566929 0.44750276 -0.670184 0.5805768 0.053618092 0.18351471 -0.26473308 -0.23410319 -0.17384993 -0.08765157
4 -0.5072741 0.37867984 -0.6067664 0.6055208 0.03389666 0.19620685 -0.33608404 -0.25344366 -0.14026468 -0.108022034
3 -0.45088124 0.37749276 -0.6585504 0.55886674 -0.030704256 0.2045762 -0.31301406 -0.33325866 -0.14936937 -0.10345139
2 -0.52138233 0.41129482 -0.6216895 0.6063266 0.06934514 0.25516245 -0.29723245 -0.2893645 -0.21351385 -0.098148175
1 -0.47965676 0.34429795 -0.6123977 0.5386309 -0.019796006 0.25947502 -0.33562127 -0.29346126 -0.15450768 -0.13644159
0 -0.47754574 0.45760065 -0.6651145 0.55554575 0.05262686 0.2544808 -0.26083285 -0.27436516 -0.18761477 -0.13711002
