7 10
4 -0.5060059 -0.008013668 -0.22247632 0.32980016 0.48138776 0.45146805 0.13639823 0.35593802 0.527391 -0.419971
3 -0.49309736 0.023001768 -0.17148311 0.33476955 0.49802408 0.407481 0.136488 0.36575797 0.48932615 -0.44247073
0 -0.4666256 0.018102096 -0.19878528 0.34521514 0.45346153 0.46642154 0.15142573 0.31461436 0.51547897 -0.38941678
6 -0.5251727 0.045018148 -0.2253503 0.31623042 0.510116 0.3822014 0.15805154 0.33981872 0.49360567 -0.452896
1 -0.5046369 0.037289917 -0.16001883 0.27616593 0.4375066 0.4391967 0.065381184 0.36979514 0.505422 -0.46849933
5 -0.5487757 -0.033751413 -0.17306292 0.30342665 0.51088315 0.45801988 0.106832504 0.34991577 0.46411762 -0.47956154
2 -0.55789983 -0.004469236 -0.19580369 0.34247503 0.47229698 0.4052121 0.16834201 0.30370215 0.5188437 -0.47029296
