7 10
2 0.522685 -0.44230703 -0.018415248 -0.524934 0.42255038 0.23656838 -0.19952595 0.22559762 0.042705834 0.67674965
4 0.4713201 -0.39403176 -0.07820359 -0.43986148 0.35223427 0.2926653 -0.27255392 0.14777441 0.039238356 0.6924683
3 0.5020301 -0.43753797 -0.050447553 -0.44529575 0.45235056 0.28381872 -0.27790284 0.18331233 0.013485971 0.7265815
1 0.43022716 -0.38882676 -0.07480852 -0.43731043 0.42578906 0.25305888 -0.2477384 0.20631777 0.05384463 0.6243558
0 0.5252551 -0.3254301 -0.060608834 -0.4136154 0.44747654 0.27559146 -0.21667986 0.17389691 -0.015269044 0.6731731
6 0.51350474 -0.4126335 0.0074404683 -0.51150554 0.37995958 0.26542068 -0.19921355 0.2515629 -0.025702374 0.71541524
5 0.43419167 -0.4094232 -0.021902833 -0.5333163 0.35712984 0.22095516 -0.21138239 0.25202212 0.058878396 0.7240953
