6 10
5 0.22538929 -0.28703463 0.014675189 0.5954757 0.32871193 0.6871339 -0.038273443 0.0025793957 0.46490073 -0.43023613
4 0.25953096 -0.33078212 -0.023493737 0.56446636 0.25068024 0.6595606 -0.088082455 -0.059533928 0.5305286 -0.43504205
1 0.21494982 -0.29230782 -0.073733896 0.47766772 0.23361267 0.66164446 -0.09832925 -0.04625932 0.49949753 -0.4547546
3 0.16980265 -0.25646582 -0.075292386 0.54659325 0.29634866 0.61326677 -0.07783982 -0.05373106 0.49888963 -0.4022851
0 0.23225029 -0.34836867 -0.03766135 0.53738457 0.30809203 0.6071793 -0.016517138 -0.07836672 0.45922956 -0.43206397
2 0.24636365 -0.323404 0.013665046 0.5051407 0.28782922 0.6330964 -0.08134424 -0.018245334 0.45212492 -0.43437195
