7 10
3 0.12364748 0.4846041 -0.11866787 0.6337071 0.34803942 -0.61887735 -0.09773861 0.13072504 0.047771502 0.36168435
4 0.19345184 0.45458385 -0.07576911 0.6355985 0.38372695 -0.6294715 -0.08460998 0.1575637 0.0034524428 0.364942
5 0.19799617 0.45631987 -0.105036885 0.65092844 0.36176506 -0.5940698 -0.14398651 0.116429806 -0.037220508 0.38160884
6 0.13163969 0.474937 -0.046832833 0.66542625 0.36747426 -0.58473474 -0.061779156 0.12588821 -0.0044444273 0.39135292
2 0.19133076 0.5000097 -0.088901624 0.6606844 0.35977155 -0.6451779 -0.12124682 0.14694996 0.0121101 0.27649227
1 0.15691586 0.48383445 -0.1175362 0.72714907 0.4016145 -0.6449459 -0.14886828 0.1390646 0.020570725 0.3315176
0 0.19225019 0.49273193 -0.094583035 0.6938325 0.3923539 -0.6353288 -0.098629184 0.16309689 0.05304414 0.32062572
