6 10
0 0.73019606 0.35532108 -0.13863835 0.53204674 0.17391375 -0.25438413 0.10355313 -0.22689061 -0.10614887 0.52982444
2 0.7397182 0.35102957 -0.115564294 0.58290654 0.14649662 -0.22351746 0.036728717 -0.21543992 -0.026574988 0.56538475
3 0.7157033 0.34747592 -0.14468339 0.562979 0.17188917 -0.18621111 0.094483025 -0.20295502 -0.011973233 0.48125306
1 0.6749621 0.3802397 -0.14499979 0.5762025 0.13304488 -0.24458228 0.08917609 -0.16117883 -0.08773262 0.49621695
4 0.6867853 0.34067902 -0.074463554 0.56856364 0.21221301 -0.229303 0.018615827 -0.19875306 -0.030289704 0.49652135
5 0.7186299 0.31261018 -0.05300468 0.5015392 0.17556801 -0.23374921 0.00077282713 -0.12557282 -0.094475076 0.5209084
