7 10
2 0.28232157 -0.12971003 -0.008687544 0.5044598 -0.31007197 0.60393924 0.53346014 0.43536204 0.20497116 -0.024902672
1 0.29530638 -0.062942214 -0.05684198 0.51573956 -0.24235475 0.61578053 0.5661222 0.37046674 0.2597739 -0.008232735
4 0.21980351 -0.15775885 -0.014877624 0.5330934 -0.33105183 0.64552027 0.5988338 0.4143182 0.22661796 0.027749144
6 0.169894 -0.16526496 -0.029123945 0.4734276 -0.3111965 0.6700968 0.5562468 0.4299833 0.22425556 -0.016699398
3 0.26329154 -0.11986021 -0.05424151 0.5090385 -0.26363716 0.6961226 0.6275149 0.3768693 0.21598805 -0.053335972
5 0.29920736 -0.07745673 -0.015239139 0.5166785 -0.24904622 0.5988385 0.58579785 0.4259077 0.2465805 0.026847795
0 0.25190425 -0.03843716 0.017461875 0.46384105 -0.27563828 0.5926107 0.56620234 0.4210907 0.26870152 0.0049245753
