7 10
0 0.2808356 0.19456196 0.18055744 -0.10154773 0.16288964 -0.7567221 0.361212 -0.48914546 0.60292345 0.009654418
1 0.24481173 0.25182325 0.11034488 -0.069129005 0.20133026 -0.7181833 0.31753466 -0.4951179 0.6415797 -0.05197686
2 0.30095872 0.23419026 0.16845483 -0.06105687 0.11136939 -0.7434793 0.38774115 -0.38876453 0.63296956 0.025522752
5 0.33225346 0.23556265 0.18138689 -0.02948197 0.20196077 -0.7234539 0.35483408 -0.5028405 0.62368995 -0.039424025
4 0.31808183 0.2455578 0.13765568 -0.10605978 0.12614615 -0.7572917 0.3709775 -0.41159904 0.5879494 -0.02071064
3 0.3216816 0.2576824 0.19857223 -0.09172949 0.20892082 -0.74602944 0.3183419 -0.4548919 0.55709577 -0.018494464
6 0.25325778 0.23788497 0.11258212 -0.034460314 0.16243932 -0.7293326 0.36333245 -0.41628152 0.6174221 -0.025931882
