7 10
4 0.35514465 0.31622782 0.60976803 -0.0079091815 -0.80259496 -0.23686662 0.11090996 0.0671585 0.15254536 0.028641475
2 0.39058435 0.28459832 0.6635446 0.026394561 -0.82560676 -0.22696087 0.11051092 0.091624476 0.119403005 0.07319359
1 0.3498629 0.3120368 0.65758914 0.014017806 -0.7411611 -0.21292073 0.18111153 0.037725627 0.15102649 -0.026661608
3 0.37803012 0.27550426 0.6482252 -0.020942174 -0.8323999 -0.20656128 0.13493937 0.10441026 0.09529103 0.075508796
6 0.39302155 0.33784068 0.6736824 0.03657472 -0.7727925 -0.26795593 0.18020043 0.0035198543 0.088500716 0.030384349
5 0.28807437 0.32539147 0.65781206 0.057068255 -0.8343963 -0.23698552 0.20814657 0.029866615 0.081160225 -0.008134408
0 0.323616 0.2653326 0.64950943 0.072913535 -0.824521 -0.22399382 0.1970993 0.104601435 0.10874315 0.045424085
