7 10
2 -0.048894037 0.59164166 0.12303712 -0.52300084 -0.19690737 0.35306957 0.4442718 -0.35067433 0.46316826 -0.32240087
5 -0.0624065 0.62104666 0.10852852 -0.56069916 -0.11216983 0.4107043 0.42797476 -0.30037424 0.51961106 -0.30137888
4 -0.0581903 0.55390024 0.10974168 -0.5776664 -0.15691367 0.36620563 0.46381393 -0.33118945 0.51005334 -0.26628008
1 -0.037814304 0.58434886 0.1669122 -0.48726916 -0.16219114 0.3974732 0.44191396 -0.33702698 0.4557283 -0.2946664
0 0.002262069 0.63117737 0.15361616 -0.53002214 -0.18061194 0.37508076 0.40767577 -0.29719132 0.51708764 -0.33899516
3 -0.085708775 0.5418791 0.120974325 -0.5634989 -0.105675235 0.3801685 0.46084154 -0.34058633 0.49778044 -0.34726545
6 0.011267559 0.6135564 0.12708534 -0.48136276 -0.17617248 0.36421937 0.43321568 -0.34103265 0.46027038 -0.2636275
