7 10
4 -0.8702679 -0.21257731 0.32836717 0.054233927 0.30629033 -0.24964851 -0.295838 -0.07004305 0.34305346 -0.34919304
2 -0.8830846 -0.1734756 0.35915706 -0.0023282957 0.32284603 -0.29365826 -0.21766898 -0.07577858 0.3061747 -0.38422176
3 -0.9020598 -0.18822984 0.38339385 -0.013676093 0.38585487 -0.27246094 -0.20624317 -0.011737456 0.26004595 -0.40010962
1 -0.87156564 -0.12558883 0.32213023 0.076207474 0.3762204 -0.23137327 -0.29039097 -0.0462357 0.2878928 -0.30995262
0 -0.8427465 -0.11191232 0.38287464 0.00823603 0.38823804 -0.19084997 -0.22672202 -0.0075226943 0.27407637 -0.41507277
6 -0.8418811 -0.1635562 0.3156111 0.021861015 0.32296592 -0.26096895 -0.27150187 -0.051076334 0.2396898 -0.39433593
5 -0.8883258 -0.19420698 0.36433116 0.0648786 0.2824306 -0.22362196 -0.23988532 -0.0655156 0.33546224 -0.36946604
