7 10
1 -0.13234718 0.31665677 -0.33021063 0.23654 0.48517996 -0.069561586 0.48890552 0.56748277 0.4084265 -0.31975985
2 -0.20322776 0.34862792 -0.33072034 0.13225892 0.4825539 -0.11384822 0.45007637 0.5250458 0.41746593 -0.3984138
5 -0.14005683 0.32509476 -0.2864208 0.16730651 0.4609694 -0.090586394 0.47108036 0.55012184 0.43408194 -0.3500373
4 -0.21896873 0.34880328 -0.27532303 0.25106356 0.5561067 -0.041949246 0.4349209 0.57381815 0.4620745 -0.40374056
0 -0.17363286 0.36681828 -0.31970713 0.14979988 0.55059403 -0.11233156 0.48877046 0.51895905 0.44667348 -0.40954494
6 -0.15956502 0.33897167 -0.30527657 0.1567131 0.5201753 -0.09147593 0.48113343 0.53207576 0.400297 -0.40140247
3 -0.21613285 0.3025785 -0.31118873 0.24462265 0.5733413 -0.09472871 0.4400059 0.5325818 0.5110976 -0.35716757
