6 10
2 0.2448328 0.31489986 -0.3596546 -0.03870143 0.14445032 -0.12889947 0.8089556 -0.10313741 -0.42205065 0.3597594
3 0.3037743 0.38531405 -0.2832044 -0.07381784 0.08688765 -0.15279138 0.8342437 -0.15407443 -0.4192141 0.46603847
6 0.29218814 0.3280459 -0.3286593 -0.09050118 0.100221165 -0.10734804 0.8203655 -0.14161399 -0.4369992 0.4381396
4 0.25777665 0.36058277 -0.35726675 -0.069533624 0.15518026 -0.10176341 0.7837456 -0.16183594 -0.44771373 0.35723358
5 0.23237808 0.34865823 -0.2868024 -0.0041577285 0.118584566 -0.12017583 0.7960656 -0.09244219 -0.41661656 0.38426906
1 0.30595586 0.30461216 -0.2670721 -0.0068765827 0.06043418 -0.08610323 0.80449665 -0.17646633 -0.44865596 0.38659313
