6 10
0 -0.33230972 -0.12530601 -0.81019753 -0.27631795 0.46490842 -0.2902148 -0.38393092 -0.11271806 0.32708076 0.04744067
3 -0.24934906 -0.087604865 -0.788003 -0.3382454 0.46247774 -0.30155304 -0.45765522 -0.038249396 0.32459486 0.023691768
1 -0.2884909 -0.0649249 -0.8290738 -0.26429662 0.5369635 -0.2462355 -0.39974818 -0.03245292 0.28934515 0.09103999
2 -0.30961797 -0.09611115 -0.75650465 -0.23888534 0.48885205 -0.25480804 -0.43914333 -0.11464629 0.25931087 0.06097126
5 -0.29095113 -0.10572419 -0.77089465 -0.3108731 0.4796091 -0.24846809 -0.456058 -0.10919877 0.2682246 0.026662355
4 -0.3062339 -0.10561774 -0.7810296 -0.3374793 0.5199793 -0.25495762 -0.43462524 -0.04110859 0.29397792 0.049556322
