5 10
0 0.5480037 -0.18826358 -0.79435754 -0.1260497 -0.048278205 -0.15345065 0.23216549 -0.0076005487 -0.61175215 0.091238864
1 0.5000281 -0.1309179 -0.8602059 -0.09859184 -0.0052145915 -0.16026367 0.19211294 -0.038625862 -0.6474318 0.13355388
4 0.4567801 -0.19676238 -0.83360666 -0.13400081 0.0005982579 -0.15395279 0.22603908 -0.06320506 -0.63689035 0.1736836
2 0.51765794 -0.100950226 -0.8061265 -0.14501365 0.030796248 -0.12520681 0.18099715 -0.06575551 -0.60772544 0.16186753
3 0.5382561 -0.19279984 -0.8388553 -0.124344505 -0.009469963 -0.1315134 0.15645874 -0.0173163 -0.59981775 0.14366071
