7 10
4 -0.18518093 -0.48335883 -0.099053 0.33237413 -0.03509592 -0.25374284 0.33779848 -0.8036041 -0.017651143 -0.3297491
3 -0.22951667 -0.48076415 -0.15377027 0.3870093 0.049401443 -0.16653085 0.32518983 -0.8373763 0.005266062 -0.3089787
5 -0.22817002 -0.4037551 -0.15968381 0.40374303 0.031109376 -0.19167556 0.3137953 -0.81100816 0.09596629 -0.39551342
2 -0.23983218 -0.43225563 -0.16584545 0.32697272 0.055677414 -0.2505623 0.3359404 -0.8364068 0.08117675 -0.41325623
6 -0.23606193 -0.4604616 -0.12186209 0.40191638 0.06604332 -0.21099842 0.32037702 -0.7935981 0.027046438 -0.41047245
1 -0.26170614 -0.47211722 -0.10284398 0.38245893 -0.020271042 -0.23422082 0.36523604 -0.8112498 0.030814406 -0.45733505
0 -0.2674994 -0.43268958 -0.21951528 0.37637687 0.014558167 -0.18700883 0.33334178 -0.8048819 0.11175573 -0.45181254
