7 10
2 -0.4508184 0.27326646 -0.63887733 -0.08039846 -0.53711885 -0.31311017 0.01747063 -0.17293374 -0.4993709 -0.071738854
1 -0.5374067 0.29568744 -0.6144669 -0.019291732 -0.5474385 -0.21233076 -0.06780626 -0.15961464 -0.4752772 -0.06932006
6 -0.5006838 0.31679147 -0.6285343 -0.041429482 -0.5164984 -0.21692796 -0.03399702 -0.24235395 -0.44459563 -0.09678786
4 -0.52630806 0.31877452 -0.6292965 -0.011601375 -0.563711 -0.285747 -0.016847422 -0.21057697 -0.4368881 -0.054342125
5 -0.5323489 0.28287387 -0.59996134 -0.042782508 -0.5335511 -0.28840178 -0.06820806 -0.2532341 -0.47104284 -0.026278896
3 -0.57549727 0.299301 -0.57856387 -0.008972669 -0.53056794 -0.30321676 -0.055899415 -0.22681227 -0.5153245 -0.06415563
0 -0.5573768 0.26333585 -0.6426448 -0.03824523 -0.57056224 -0.27887332 -0.01759611 -0.23438661 -0.46519148 -0.112333015
