7 10
1 -0.014119352 -0.17255439 -0.41993427 0.1485222 -0.05121909 0.17455037 -0.6901628 -0.28731525 0.7892407 0.26659444
5 -0.023555715 -0.17005247 -0.42672396 0.13524276 -0.10288847 0.18104091 -0.6243661 -0.3495128 0.7881532 0.3013804
3 -0.0851417 -0.08624609 -0.45026425 0.065376356 -0.09449359 0.1981391 -0.66078496 -0.33257264 0.72218466 0.23811138
2 -0.040953126 -0.13210094 -0.43274122 0.13228197 -0.08081325 0.17451018 -0.5978376 -0.3164623 0.76572907 0.2836658
4 -0.089287974 -0.10528917 -0.37236628 0.14484885 -0.091186546 0.18567035 -0.6372278 -0.30745256 0.7478204 0.28349432
0 -0.06608821 -0.0849339 -0.47560158 0.07657005 -0.05283952 0.15782812 -0.65036696 -0.27493128 0.79320395 0.26100197
6 -0.08131248 -0.07868793 -0.47332257 0.07100303 -0.024049597 0.12605038 -0.6288028 -0.3267797 0.7808402 0.22155006
