7 10
5 -0.2133756 0.07392791 -0.3767586 0.2362348 0.008165138 0.06412596 -0.27883705 0.20396444 -0.85726523 0.511759
1 -0.22974768 0.02346788 -0.3331615 0.2671137 -0.048310246 0.06276925 -0.21374021 0.22449112 -0.8407654 0.5127807
2 -0.22450149 0.1125907 -0.32582226 0.23295067 0.039290227 0.14515735 -0.2625855 0.2548814 -0.8378222 0.5296738
4 -0.1920215 0.046049714 -0.38431138 0.25083655 0.032032855 0.096543066 -0.2289317 0.23991406 -0.852964 0.4649834
3 -0.2341919 0.08735001 -0.32987884 0.26847282 -0.057200857 0.15456228 -0.26462272 0.21605067 -0.8486684 0.48777232
0 -0.2435217 0.05038801 -0.40018955 0.2924643 0.00040677367 0.12520202 -0.27610746 0.23651853 -0.85207325 0.4846991
6 -0.26754576 0.117204264 -0.33337417 0.2607216 -0.049504723 0.115559496 -0.26959205 0.2644495 -0.8203388 0.548696
