6 10
1 0.22422735 -0.12479916 0.15660496 -0.34149835 0.21648832 -0.6730811 0.048795994 0.590058 0.5672899 -0.3552134
0 0.2577057 -0.09587764 0.19639905 -0.3442953 0.243027 -0.6584235 0.07599699 0.5974322 0.5317829 -0.368112
4 0.24424385 -0.15069441 0.17284097 -0.35589185 0.15242323 -0.7146746 0.06332318 0.53102607 0.45464486 -0.29281092
3 0.26505575 -0.06415944 0.2077787 -0.3257845 0.1998409 -0.66248864 0.121954605 0.57554954 0.5149579 -0.24045074
2 0.19336492 -0.055175718 0.19160284 -0.27839202 0.13475049 -0.6949218 0.13326702 0.57759213 0.5547067 -0.33737904
5 0.16836584 -0.03827637 0.122818485 -0.30881518 0.2080593 -0.643222 0.12643348 0.520606 0.5095946 -0.28354773
