7 10
1 0.13746087 0.03476936 0.3989007 -0.6095663 -0.12079743 -0.31943613 -0.66325986 -0.3389294 0.35965973 0.47573993
2 0.22479321 0.02665137 0.3699043 -0.5677622 -0.11241589 -0.29052857 -0.66939706 -0.28223345 0.33958617 0.43542272
6 0.16371909 0.042807095 0.37113357 -0.57322335 -0.18679847 -0.24761215 -0.6740073 -0.3414712 0.38236207 0.33834106
5 0.21256448 0.0068663354 0.349183 -0.5821331 -0.17624077 -0.28468192 -0.6256521 -0.28054446 0.36972013 0.33387938
4 0.14164291 0.054212056 0.4024903 -0.5254565 -0.13867487 -0.24145319 -0.627076 -0.29443544 0.27440575 0.39548135
0 0.17242657 0.025035538 0.44810873 -0.5849781 -0.09689646 -0.2824798 -0.62060124 -0.3469137 0.3453299 0.46303454
3 0.19074826 -0.011340002 0.3607957 -0.53432524 -0.06480931 -0.3157154 -0.615607 -0.326158 0.38731563 0.4451128
