7 10
0 0.4395697 -0.4873301 0.03685015 -0.049440533 0.54243404 0.2124021 0.08744725 -0.35764167 -0.6034592 -0.30172017
1 0.40152457 -0.46017987 -0.0014640811 -0.019643452 0.588476 0.17826638 0.13707168 -0.37786743 -0.6376723 -0.27800867
2 0.43305165 -0.4554017 0.070098735 -0.0780625 0.5806804 0.15112303 0.10672499 -0.38546845 -0.6263981 -0.30036056
5 0.4301607 -0.4666637 0.083525285 -0.075181715 0.5630683 0.23151824 0.09515816 -0.36529317 -0.60423493 -0.25234324
4 0.44992727 -0.4477705 0.07033624 0.010079861 0.57622975 0.19258767 0.08513573 -0.3328882 -0.62146753 -0.2989556
3 0.41614082 -0.45645332 0.012626243 -0.002577888 0.6372826 0.1901264 0.07610929 -0.3496445 -0.6460158 -0.26352334
6 0.43794343 -0.4145111 0.00046881812 -0.02799212 0.6231004 0.23001151 0.14327839 -0.38695464 -0.57704765 -0.29217255
