7 10
1 -0.058850944 0.25991973 -0.77538306 -0.14988708 -0.2822023 0.18926471 -0.14424028 0.6263419 0.08632587 0.38154563
2 -0.12114436 0.2540451 -0.7793794 -0.13217346 -0.32748058 0.2692712 -0.19655524 0.58304054 0.10343693 0.3325652
3 -0.03595799 0.2541142 -0.7885235 -0.1356921 -0.26056844 0.22559613 -0.16917504 0.60679215 0.038184498 0.37743896
0 -0.0838159 0.28513974 -0.7554409 -0.15392701 -0.20741224 0.19867824 -0.11541686 0.62156284 0.037115224 0.38790458
5 -0.10311825 0.25703079 -0.6937997 -0.10995272 -0.30810386 0.22392607 -0.18510744 0.6067845 0.059655353 0.36229828
6 -0.04313441 0.21565674 -0.72905266 -0.18996282 -0.3141394 0.166464 -0.1047917 0.6314975 0.038777117 0.35574448
4 -0.098217145 0.21819858 -0.7609838 -0.13254125 -0.19846265 0.24843527 -0.13491993 0.5955074 0.032926966 0.3956241
