7 10
2 0.54590905 0.053435043 -0.1928431 -0.3127333 0.2326581 0.8335608 0.4078869 0.1960501 -0.12329635 -0.04326507
6 0.56602794 0.043845106 -0.16354996 -0.32060072 0.22102943 0.8647921 0.4108708 0.09866954 -0.029970814 -0.13095324
1 0.5320532 -0.011695258 -0.13733424 -0.29310584 0.2572655 0.8977033 0.41430932 0.124246575 -0.08887962 -0.07859517
5 0.59332675 0.035751257 -0.16403432 -0.31464243 0.23629959 0.881862 0.3596773 0.16657564 -0.021020183 -0.09799542
4 0.5493827 0.03985084 -0.1767232 -0.25489497 0.18744056 0.8694043 0.37399352 0.14109363 -0.09975123 -0.12014525
0 0.60238546 0.012205577 -0.17418939 -0.23242508 0.27629355 0.8484068 0.37145272 0.13881247 0.0046718903 -0.1443191
3 0.5629253 -0.03301122 -0.16831988 -0.28724462 0.26065886 0.86308837 0.40116742 0.15264878 -0.08904483 -0.055322867
