7 10
1 0.29094848 -0.502574 0.20425688 0.19588578 -0.13399214 0.7564241 0.28526798 0.09659479 0.23606429 0.5814736
4 0.31265163 -0.48202956 0.22256178 0.12593096 -0.16169593 0.7108845 0.29087946 0.09129698 0.24168341 0.5310366
2 0.27341136 -0.49414882 0.24413283 0.16959849 -0.07882088 0.7839649 0.2993221 0.100745 0.28752366 0.51335883
5 0.30401197 -0.4558989 0.23530924 0.15292495 -0.13046482 0.7133504 0.33301792 0.02067809 0.25579986 0.52121353
3 0.33672142 -0.4609945 0.22575668 0.11039283 -0.13554376 0.7246195 0.31167838 0.10056661 0.2067574 0.5657998
6 0.34642178 -0.46258977 0.15996037 0.16276503 -0.08101026 0.72699887 0.2994508 0.052440714 0.2590219 0.556446
0 0.34369525 -0.5206038 0.16395092 0.13829033 -0.1323174 0.77409905 0.33106732 0.057056896 0.20689785 0.517808
