6 10
3 0.7996909 0.19923717 0.4028693 -0.28788313 -0.08523807 0.06990093 -0.31163895 0.22255474 -0.16382487 -0.51312107
0 0.8218448 0.27602142 0.38347843 -0.21960106 -0.055687387 0.11539909 -0.25668898 0.21328937 -0.12158409 -0.58728707
2 0.80779237 0.19965743 0.34113732 -0.30590665 -0.09527288 0.077886075 -0.24326704 0.2771399 -0.13243076 -0.54105264
1 0.8136929 0.25867394 0.3636217 -0.2517618 -0.052879255 0.037292104 -0.28470063 0.22287515 -0.14548987 -0.5553827
4 0.7657505 0.30224347 0.3399143 -0.30664662 -0.10603171 0.074035734 -0.2878675 0.22993286 -0.17290649 -0.5184608
5 0.7757892 0.25250936 0.36645377 -0.27831262 -0.023275502 0.00405423 -0.3155643 0.18632537 -0.12945311 -0.539056
