7 10
6 0.05766234 -0.31294373 0.3079111 -0.5925672 -0.16599138 -0.42565763 0.49603805 -0.33091354 -0.55097836 0.058064733
4 0.037869062 -0.26029426 0.27954903 -0.58225733 -0.099470854 -0.4423378 0.48150396 -0.33011535 -0.5836528 0.08715918
2 -0.00305454 -0.2844298 0.23191033 -0.5953541 -0.13805504 -0.43023148 0.4271356 -0.33286953 -0.60356164 0.07619936
1 -0.028018093 -0.29566103 0.30997175 -0.5552954 -0.17749585 -0.46572614 0.5170372 -0.27356544 -0.55286497 0.05058089
3 -0.015865846 -0.31488276 0.3020022 -0.5858167 -0.12363491 -0.43719137 0.5203915 -0.30879176 -0.5821303 0.05876195
5 -0.03833705 -0.33117986 0.2666912 -0.6191757 -0.19234778 -0.37496662 0.495734 -0.30596867 -0.5605419 0.12698245
0 -0.00043100156 -0.2860186 0.2516521 -0.5605373 -0.18001741 -0.45954835 0.538853 -0.299477 -0.62478346 0.12125859
