7 10
2 0.74947286 0.008925097 -0.12389464 0.60141337 -0.02267019 -0.61446476 0.10265759 -0.036250208 -0.015229461 0.2918884
6 0.73594725 -0.0319482 -0.12209489 0.5933807 -0.039538313 -0.5902498 0.14707287 -0.06698676 -0.1088495 0.29112002
1 0.7482111 0.015996028 -0.08787246 0.61747617 -0.015972009 -0.5951525 0.1672472 -0.07427103 -0.11138916 0.29111686
5 0.7603469 -0.024541076 -0.12025834 0.54728097 -0.06063406 -0.60491323 0.112633325 -0.0787318 -0.0638315 0.26966518
0 0.77189916 0.013777967 -0.04625873 0.57239115 -0.010712636 -0.6137694 0.11224916 -0.010052926 -0.11126588 0.28413868
4 0.7359203 0.050668716 -0.057535175 0.58502334 0.02526468 -0.5969263 0.17203055 -0.0037027348 -0.041232947 0.26845667
3 0.76874524 0.031873062 -0.099857 0.5471396 -0.0005312408 -0.5978765 0.08400721 -0.081676096 -0.08986675 0.25655016
