7 10
3 0.39263692 -0.27364776 -0.31536356 0.20150502 0.3834718 -0.0075785033 -0.24196033 -0.57179123 -0.25754622 0.64921874
4 0.36144894 -0.19949093 -0.34852284 0.15647928 0.38259894 0.04698085 -0.23871028 -0.6042514 -0.28668624 0.637345
5 0.3806884 -0.24809346 -0.354787 0.17918858 0.36663717 0.018935567 -0.2665701 -0.5842311 -0.30223015 0.63578093
6 0.33668634 -0.25831094 -0.30383152 0.11550522 0.43064493 0.010831428 -0.29005763 -0.66532063 -0.23076653 0.61595273
0 0.3800558 -0.22095235 -0.2966443 0.18343619 0.33405876 0.053396102 -0.30176038 -0.6416678 -0.24542361 0.642386
2 0.32971868 -0.27659515 -0.37726533 0.12299278 0.41109192 -0.04675327 -0.18880334 -0.5910944 -0.2513051 0.61629117
1 0.31533527 -0.30715984 -0.3847402 0.15461428 0.36796173 -0.023944832 -0.25274935 -0.58319265 -0.31079817 0.60706794
