5 10
0 -0.5515257 0.44388187 0.0347679 -0.25139332 0.3019652 -0.2528482 0.7621213 -0.01532308 0.32266504 0.17495707
5 -0.52919877 0.4561532 -0.012488828 -0.15011252 0.28665105 -0.25476563 0.7235296 -0.072034396 0.3203688 0.1883849
4 -0.5748489 0.48616272 0.084792696 -0.19192177 0.26821804 -0.29731834 0.76381445 -0.07118631 0.28209594 0.12809367
2 -0.5415743 0.47623548 0.07816364 -0.2263453 0.29183668 -0.24546601 0.7289293 0.022192735 0.34237573 0.117118865
1 -0.5570837 0.46295667 0.04412408 -0.16537558 0.32626674 -0.2997375 0.7566352 -0.055829354 0.2670109 0.14858663
