6 10
2 -0.37801558 -0.06279804 0.40886888 -0.28568187 -0.37380317 0.3491818 0.13512802 0.3316315 0.80787385 -0.07367074
3 -0.36659878 -0.046219025 0.43503067 -0.3217338 -0.38606858 0.32948017 0.08834631 0.27415827 0.7423737 -0.09413088
0 -0.3294091 -0.08656746 0.48799476 -0.2562473 -0.39126936 0.3230683 0.14914514 0.27846798 0.7653201 -0.08413937
4 -0.28706753 -0.13901417 0.48761117 -0.27545565 -0.40562752 0.33890966 0.13867532 0.2995414 0.7986697 -0.1360266
5 -0.35136518 -0.12202633 0.4630515 -0.29732576 -0.32212234 0.3335175 0.11968331 0.24881224 0.75865626 -0.10906927
6 -0.29417315 -0.10730866 0.46416265 -0.2929602 -0.3781562 0.31524113 0.10157136 0.31969598 0.6780952 -0.14042698
