6 10
0 0.03262726 -0.14419831 -0.68403095 0.5360899 -0.2238038 -0.6193285 -0.22757025 0.14159872 0.3936498 -0.1134904
5 0.026305756 -0.12903339 -0.6559144 0.5241033 -0.16851038 -0.59376323 -0.27852166 0.21151693 0.39983317 -0.04611985
2 0.017229576 -0.09327951 -0.6748391 0.54631007 -0.1911295 -0.6093186 -0.26914802 0.16214857 0.4056562 -0.082483664
4 0.061803643 -0.1270523 -0.6203233 0.5294515 -0.16969526 -0.6105527 -0.26727808 0.19826713 0.41198283 -0.025291067
1 0.04440309 -0.03874266 -0.6187883 0.52049357 -0.2347852 -0.5998412 -0.22500527 0.15019651 0.33826548 -0.122667626
3 0.005680635 -0.06785942 -0.6277627 0.51434535 -0.25832683 -0.6172334 -0.24347518 0.2243247 0.46439213 -0.045866236
