7 10
5 -0.37579086 -0.45381504 -0.6302585 0.34721306 -0.03352948 0.31924927 -0.25165075 0.6092597 -0.026311817 0.29407066
0 -0.39875823 -0.41268596 -0.580388 0.31102902 -0.071476445 0.3020484 -0.2629228 0.535989 0.02042513 0.19569598
1 -0.43309647 -0.46535277 -0.5968061 0.28580076 -0.10193324 0.24211267 -0.26895484 0.5551471 -0.07612499 0.23914005
2 -0.37698302 -0.4479189 -0.631659 0.24874161 -0.03532793 0.2973204 -0.27591836 0.59163725 0.01791148 0.28338507
4 -0.3598757 -0.4007737 -0.5902448 0.3174721 -0.10193544 0.31320283 -0.25553235 0.5974128 -0.06568023 0.2701403
3 -0.40466583 -0.488604 -0.5967431 0.33557487 -0.06531326 0.27847818 -0.28894165 0.58778614 -0.043320492 0.22907308
6 -0.4282061 -0.46064118 -0.6605422 0.2683726 -0.090979375 0.33966666 -0.24290396 0.57040113 -2.6278156e-05 0.23364647
