3 10
3 -0.48904344 -0.2850059 0.0455296 -0.2151032 -0.30106717 -0.40152353 0.24725278 0.17031418 0.12965006 -0.103182934
1 -0.33863539 -0.14231263 -0.021082256 -0.0903189 -0.19375633 -0.2529439 0.15651801 0.11287135 0.14825433 -0.056378495
2 -0.32768595 -0.14931786 0.032455314 -0.08532046 -0.21956289 -0.22765614 0.1546841 0.08071803 0.14337902 -0.092491545
