6 10
4 0.053535048 -0.076679796 -0.6357864 0.22418144 0.45113352 -0.08594767 0.30431053 -0.22964823 0.58264196 0.5140623
5 -0.01732236 -0.016382232 -0.5726258 0.18795913 0.38013014 -0.14133818 0.28082654 -0.263385 0.59921324 0.56329256
0 -0.005969188 -0.04157368 -0.6395137 0.17721844 0.33992544 -0.09786452 0.2757722 -0.27527615 0.55071104 0.51942414
2 0.0589358 -0.06961955 -0.6388979 0.18417811 0.42396295 -0.15312865 0.32778242 -0.23001833 0.5278126 0.55248135
1 -0.02113059 -0.040583987 -0.6233196 0.18207377 0.42548192 -0.064453535 0.33523554 -0.21274589 0.5702246 0.5784598
3 0.03814185 -0.08128628 -0.5648574 0.22248515 0.41863436 -0.11040473 0.28465763 -0.2676818 0.524444 0.55869424
