7 10
4 0.072874844 0.33013314 0.14472081 0.23391771 -0.26501453 0.21141033 -0.88765 -0.09482244 -0.39100024 0.3182795
6 0.16592024 0.35611355 0.16047013 0.15214416 -0.23717348 0.14170828 -0.90542185 -0.0777511 -0.40045077 0.34299394
3 0.13556293 0.33812085 0.1753751 0.24247953 -0.27067265 0.21444495 -0.8633402 -0.1392061 -0.38016456 0.25655618
5 0.121690996 0.3171311 0.1625371 0.2158391 -0.30134705 0.23469116 -0.89363015 -0.12935759 -0.37801585 0.32266393
2 0.1356341 0.35226855 0.103220776 0.20363535 -0.26363027 0.23338304 -0.8795065 -0.12256763 -0.36332482 0.30088472
1 0.10932958 0.36477596 0.13683926 0.22100781 -0.26967493 0.159839 -0.92498785 -0.114293255 -0.40736002 0.28489026
0 0.07583904 0.34656876 0.16801679 0.23992336 -0.23415612 0.19025844 -0.9333653 -0.15437004 -0.3374669 0.30289993
