7 10
1 0.66584295 -0.13040878 -0.5789566 -0.11310026 -0.47510287 0.03753992 0.51037425 -0.23764902 -0.04265666 0.11514927
2 0.7096603 -0.109943636 -0.63061523 -0.13158938 -0.46211544 0.04646024 0.43680093 -0.25469738 -0.01047963 0.069174245
5 0.6729459 -0.09550585 -0.60462326 -0.05373628 -0.44750544 0.033386633 0.49375236 -0.29247966 -0.06379372 0.120833315
6 0.7201399 -0.041552525 -0.5984218 -0.13289014 -0.41732508 0.042234723 0.5080453 -0.23634522 0.0016614514 0.07235465
3 0.6197254 -0.049835887 -0.62606484 -0.11643322 -0.48229286 0.10039754 0.47107348 -0.30453074 -0.035042875 0.11771388
4 0.7156116 -0.09639846 -0.60165983 -0.11297138 -0.45336637 0.08187095 0.5066678 -0.3183196 -0.059710152 0.07272228
0 0.6725467 -0.12715712 -0.6345536 -0.07849571 -0.39491126 0.051624134 0.5214768 -0.2870474 -0.02516241 0.11619811
