7 10
0 0.49455395 -0.39099127 -0.37635958 -0.38631544 -0.39640763 -0.5150145 -0.08624103 0.26961884 0.28901592 -0.3624632
3 0.4516154 -0.35366213 -0.3190505 -0.4059619 -0.42530832 -0.47376814 -0.014754436 0.34489274 0.37111595 -0.3443565
6 0.501264 -0.37414086 -0.4131993 -0.3555639 -0.4110213 -0.5112617 -0.023644557 0.28435338 0.28738916 -0.3352012
5 0.43994033 -0.37981558 -0.37619507 -0.38237208 -0.4111233 -0.48211783 -0.0013950045 0.34897816 0.3403839 -0.33721733
4 0.4058086 -0.3733191 -0.37027127 -0.33649728 -0.44108552 -0.5247161 -0.05002574 0.33234984 0.38280454 -0.31823406
1 0.4589028 -0.39034024 -0.40531352 -0.33781993 -0.40396702 -0.5378833 -0.07686752 0.31206834 0.29481646 -0.34075457
2 0.48438412 -0.3374274 -0.3083482 -0.40402216 -0.42330852 -0.4949916 -0.08334375 0.3175562 0.34107104 -0.2889097
