7 10
1 -0.0032904337 0.2989422 0.12998317 -0.5043251 0.26949266 0.6597349 0.18940702 -0.49128166 0.025071125 -0.5668007
5 0.03514891 0.31573457 0.13219419 -0.5122215 0.17950563 0.6568939 0.19159172 -0.5370361 -0.001972388 -0.5383601
6 0.08698774 0.27102375 0.08054056 -0.435852 0.20242609 0.6220353 0.20373106 -0.54627985 0.071686395 -0.53927034
0 0.0006880703 0.3085707 0.09448424 -0.48516408 0.2636541 0.65433514 0.1223564 -0.5445532 0.07403475 -0.5671941
3 0.038886506 0.30840996 0.069563136 -0.5221835 0.2621801 0.5696468 0.11711658 -0.4836991 0.051653884 -0.47513485
2 0.05367705 0.27463487 0.13527524 -0.50814456 0.17946938 0.65070844 0.16938353 -0.5472734 0.019170022 -0.47259873
4 0.099970974 0.32648492 0.10018336 -0.42889234 0.15712546 0.689857 0.21787137 -0.5329839 -0.021605043 -0.6081369
