7 10
3 0.019567007 0.29724166 0.17416008 0.2218786 0.4190044 -0.39410293 -0.7145463 0.5858176 0.14146 -0.22642273
1 -0.046855126 0.35675895 0.1857818 0.24658002 0.4086445 -0.33864525 -0.75339615 0.5177883 0.085700765 -0.30480996
0 -0.06321485 0.3508019 0.231848 0.17828014 0.35445634 -0.36788964 -0.7031802 0.5472797 0.088352226 -0.2997765
4 0.00916973 0.37118614 0.22742923 0.24814777 0.3884952 -0.32924807 -0.69939816 0.5862493 0.125908 -0.27927458
6 -0.036366135 0.29355323 0.18469903 0.24659373 0.44036362 -0.38704294 -0.72485626 0.5327299 0.14317504 -0.21016195
2 0.009772608 0.28177598 0.2541609 0.21663448 0.40901613 -0.3813498 -0.7244654 0.50301886 0.10438248 -0.25790793
5 -0.045784824 0.35511488 0.24449298 0.24370338 0.37476885 -0.32343572 -0.6864579 0.54044735 0.16569935 -0.32696328
