7 10
3 0.15848652 -0.11084292 -0.0713997 0.73428935 0.5116689 -0.7522512 -0.03195497 -0.1484051 0.053116024 -0.12771876
4 0.17712545 -0.21897702 -0.0993925 0.6831237 0.45352253 -0.72473353 -0.054636832 -0.16352381 0.019226676 -0.20244415
2 0.17768425 -0.14257354 -0.09360483 0.71344095 0.49882355 -0.6959311 0.01922132 -0.22108781 0.06429549 -0.14385462
1 0.1071722 -0.1716796 -0.0804235 0.74675727 0.5113363 -0.7178337 -0.04086956 -0.22872631 0.017915927 -0.099901885
6 0.16316801 -0.17820166 -0.060065597 0.73425406 0.49978897 -0.68323773 0.00013139023 -0.13392475 0.052005097 -0.18003985
5 0.19392237 -0.18321188 -0.070526876 0.7115983 0.4523881 -0.69674915 -0.06376132 -0.1288729 0.040467113 -0.11270727
0 0.18608303 -0.112242505 -0.058148693 0.76050484 0.44211423 -0.674655 -0.0786026 -0.21577229 0.09297023 -0.12068492
