7 10
0 -0.2797447 0.18380009 0.36018416 0.3808444 -0.5881795 0.27993587 -0.37690327 0.3640176 0.6142268 0.029691663
1 -0.23376949 0.13311556 0.44196415 0.4057045 -0.5791569 0.25112775 -0.31898528 0.3240917 0.61200106 0.048256535
4 -0.27321696 0.19228579 0.4151406 0.43946955 -0.49233207 0.3195381 -0.3710125 0.37060007 0.59328705 -0.010388971
3 -0.21303715 0.21092957 0.3603991 0.4339856 -0.5268082 0.3118634 -0.3684707 0.39893806 0.6462415 -0.019782493
5 -0.22309135 0.18103795 0.39176074 0.40236968 -0.54081917 0.2545407 -0.36643204 0.39525038 0.5885411 0.005976159
6 -0.2858115 0.12511072 0.34753966 0.41387495 -0.512808 0.23621622 -0.29548267 0.35330898 0.6360703 0.023847323
2 -0.25787464 0.15533876 0.39376944 0.42635232 -0.55165464 0.27939513 -0.30134827 0.30452162 0.58946735 0.020254811
