7 10
0 -0.06745044 0.27631462 -0.03413251 -0.3249036 0.6563762 0.35785627 0.09343851 0.81848717 0.13291304 0.02196654
1 -0.06016224 0.28942266 0.027387725 -0.2473431 0.63046527 0.36948866 0.13549276 0.8317772 0.079691306 0.058412954
3 -0.021682244 0.24351487 -0.024306826 -0.28079447 0.6313967 0.38032898 0.123084486 0.82516664 0.104280554 0.062391065
2 -0.017955745 0.25577348 0.04230549 -0.26862308 0.6278105 0.3142437 0.14175884 0.8636189 0.097185165 0.05214041
6 -0.11886359 0.28777796 -0.055626493 -0.38266516 0.5490514 0.36354408 0.18740468 0.8651137 0.036387913 -0.021720964
5 -0.08403241 0.26125026 0.03655224 -0.2928158 0.6421042 0.34770504 0.10156738 0.82388145 0.060287986 0.064094774
4 -0.10406513 0.28130317 0.0004442288 -0.3221392 0.5939601 0.28016746 0.13190588 0.81839466 0.04534162 -0.004780839
