6 10
2 0.15430936 -0.1682945 0.1609776 -0.28147757 0.30756626 0.07969893 -0.5233095 0.48611653 0.7119026 -0.33884406
1 0.15300575 -0.11785978 0.18807529 -0.2317002 0.2581693 0.13198954 -0.5255485 0.46877185 0.72649986 -0.33552536
0 0.13624346 -0.16357574 0.16133013 -0.33513626 0.28148317 0.11228957 -0.4724021 0.46330717 0.7264258 -0.3200347
3 0.17888169 -0.13997829 0.21295738 -0.33342335 0.33236948 0.03771877 -0.506498 0.42508724 0.78510225 -0.38390315
5 0.18605438 -0.17121041 0.19882259 -0.30720645 0.32621706 0.07586641 -0.4843448 0.46096307 0.7281915 -0.29211825
4 0.1512112 -0.174693 0.12215495 -0.24563247 0.2841504 0.08307153 -0.4944572 0.44929433 0.6873422 -0.2928428
