6 10
1 -0.28758505 -0.002003483 -0.21011 0.17051601 -0.42708588 -0.97444606 -0.0289044 0.08829311 0.11637511 -0.18070444
2 -0.34022912 -0.053647507 -0.2995059 0.24602132 -0.4447158 -1.0288568 -0.047369376 0.08766931 0.14931916 -0.19110535
4 -0.20686792 -0.039076585 -0.20572335 0.14923067 -0.38514304 -0.8924327 -0.012161373 0.096282244 0.16636465 -0.18203789
6 -0.33000422 -0.020020703 -0.27404565 0.16590732 -0.35690236 -1.0080872 -0.10881609 0.07216185 0.21157934 -0.0996116
3 -0.3217397 -0.05242636 -0.22888316 0.18226993 -0.38391712 -1.0061822 -0.059244554 0.10371935 0.20946185 -0.14544179
5 -0.29517415 0.027452413 -0.17858934 0.17066382 -0.32156825 -0.9123831 -0.09455271 0.134372 0.18125516 -0.09250278
