6 10
1 0.5721987 -0.11213207 0.4194374 0.2683744 0.035415333 -0.14623997 0.0062588407 0.6742489 -0.54856515 -0.11581035
2 0.5187225 -0.04928245 0.46038693 0.31985378 0.039731745 -0.11156222 -0.00396605 0.7645083 -0.53154033 -0.11794688
0 0.58874905 -0.07387 0.38562125 0.2797844 0.061913062 -0.06435732 -0.0045670825 0.75560045 -0.499338 -0.18102105
4 0.57390356 -0.099918835 0.39679515 0.32724112 0.10413265 -0.076643735 -0.016713755 0.7444179 -0.49192476 -0.16357303
3 0.5644111 -0.07681166 0.38681987 0.30849943 0.11533841 -0.16193886 0.04840126 0.6996065 -0.52937794 -0.12031102
5 0.5376354 -0.05767124 0.32511625 0.2697845 0.078206375 -0.06266997 0.038878597 0.6405873 -0.45767587 -0.12922965
