7 10
3 -0.07273514 0.55598444 -0.4680359 -0.06462905 0.11463654 0.37894323 -0.12253433 -0.62861955 -0.5689276 -0.059448846
4 -0.13986902 0.55428654 -0.44044334 -0.11535462 0.088586316 0.38130814 -0.16761653 -0.60029995 -0.56485283 0.0116725005
2 -0.043026578 0.5391867 -0.41841802 -0.089471035 0.17397559 0.30956492 -0.2028314 -0.6234506 -0.589606 0.002341336
1 -0.13582224 0.5148622 -0.49662697 -0.025176402 0.15888183 0.31576326 -0.16647448 -0.5794056 -0.6023366 -0.024373606
5 -0.026057787 0.5160531 -0.45606628 -0.06311822 0.12198171 0.35368577 -0.22184777 -0.6352812 -0.6057474 0.005971854
0 -0.069121435 0.490348 -0.47879764 -0.05359796 0.13791074 0.40130568 -0.18038733 -0.5965728 -0.5864509 -0.061970826
6 -0.12325075 0.5070753 -0.50378644 -0.04058261 0.14279 0.40515915 -0.16244005 -0.61645955 -0.5428045 -0.057967648
