7 10
4 0.5419932 0.20791024 0.22605577 0.21838348 0.09125017 -0.11157912 0.11543819 -0.0853839 0.63361627 0.7065742
2 0.5607068 0.14824012 0.19087304 0.23910318 0.093868755 -0.106326364 0.12679522 -0.051904917 0.6381666 0.72435594
5 0.57670814 0.13480417 0.25580823 0.20935962 0.12619923 -0.09715344 0.14745331 -0.10971619 0.56127685 0.7757205
1 0.54806846 0.21465614 0.27598044 0.14667358 0.08848885 -0.05772227 0.12357967 -0.025788119 0.5457621 0.7712954
6 0.49783534 0.1437147 0.20807347 0.14588968 0.03629551 -0.06177644 0.10879283 -0.03348802 0.65937525 0.78852963
3 0.52977896 0.20697053 0.24094759 0.20951095 0.09130823 -0.08173376 0.117332004 -0.07196429 0.619381 0.754707
0 0.49749458 0.21922791 0.23016441 0.19021845 0.098499894 -0.14349547 0.0881927 -0.10109247 0.5936441 0.7624476
