7 10
2 -0.021404142 0.2742043 -0.5043111 0.6950431 -0.05660342 -0.30235818 -0.014507738 -0.6806203 0.11833691 -0.035792284
5 0.024768047 0.28209686 -0.5040574 0.7034267 -0.019829703 -0.30029455 0.05687931 -0.62678814 0.15830225 0.041208174
1 -0.0027761215 0.31461477 -0.45644388 0.7211656 -0.08277237 -0.2548049 0.059555158 -0.6959424 0.16989556 0.0054542306
3 -0.021038141 0.32733378 -0.53697115 0.71938485 -0.021031888 -0.2477718 -0.02752047 -0.68833095 0.17783383 -0.02374186
4 0.010594288 0.3344052 -0.53904396 0.69131947 -0.04842845 -0.25569782 0.019684682 -0.6794946 0.105457 -0.019193564
0 -0.031772066 0.3485222 -0.51530105 0.7158402 -0.035145584 -0.30330893 -0.016571403 -0.6346233 0.0923514 0.028218107
6 -0.077150896 0.3234469 -0.5060343 0.63242316 -0.022971665 -0.2720139 0.018190214 -0.6461763 0.0846828 -0.033755608
