6 10
2 -0.33687726 0.032080073 0.8776094 0.0637127 -0.2618702 -0.49514988 0.08193025 -0.36632988 -0.09419326 -0.1375416
3 -0.3465509 -0.015859783 0.8869982 0.08207945 -0.30021286 -0.48953208 0.13895588 -0.29172084 -0.11995022 -0.1054108
4 -0.38450468 0.06512168 0.8508958 0.02589049 -0.26942566 -0.46774626 0.12285944 -0.36471713 -0.09440926 -0.067807004
0 -0.3514022 0.038262196 0.904746 0.0066900686 -0.2813664 -0.49566555 0.11853094 -0.38553122 -0.028026767 -0.13098131
5 -0.3406384 0.0006249629 0.8607504 0.03184611 -0.24502397 -0.46596593 0.09391259 -0.38033748 -0.059665013 -0.1097554
6 -0.28908503 0.068546146 0.90426385 0.020086322 -0.24679466 -0.48125434 0.1589727 -0.34540793 -0.020316621 -0.055041444
