7 10
0 0.23633093 -0.5991085 -0.30543762 0.10297106 -0.22774391 0.08838764 -0.5746625 0.55859107 -0.2694725 0.3627027
1 0.1466081 -0.54116404 -0.30107105 0.13326168 -0.25313187 0.13728054 -0.57777363 0.53645205 -0.19168654 0.41048682
2 0.22095843 -0.5980593 -0.34748444 0.1275861 -0.28037405 0.049409717 -0.4991807 0.5745213 -0.25017387 0.38438627
3 0.16086641 -0.63193595 -0.31893724 0.06831904 -0.28252757 0.110746235 -0.5417561 0.52697814 -0.25164944 0.33636358
4 0.23658964 -0.59422904 -0.32731763 0.05844087 -0.2541137 0.07009482 -0.5564449 0.5554475 -0.23562248 0.37852505
5 0.13858284 -0.5823324 -0.302656 0.13975036 -0.27916864 0.08219849 -0.5160212 0.53556216 -0.23079164 0.38535714
6 0.15360823 -0.5996495 -0.30307785 0.10430906 -0.2906943 0.055705633 -0.55274975 0.566982 -0.19533125 0.40280983
