7 10
6 -0.6430943 0.06294868 -0.0073572127 -0.42418066 0.39785 0.3290981 -0.58074915 -0.17538732 0.3004812 -0.25600705
4 -0.6284351 0.054390036 -0.016429914 -0.42164508 0.48483476 0.31103185 -0.61146086 -0.12574825 0.2795329 -0.2302992
5 -0.5742364 0.020994902 0.032137033 -0.46091577 0.47635826 0.29915884 -0.6279385 -0.121051505 0.2402177 -0.22785139
2 -0.61152864 0.053996094 -0.003728418 -0.46458507 0.4645958 0.34104377 -0.58637065 -0.082754605 0.2372457 -0.16966268
1 -0.64633256 0.006359434 -0.06156161 -0.44469643 0.4886469 0.28341594 -0.61108935 -0.10134796 0.26867348 -0.20747073
0 -0.615482 -0.011772592 -0.037702512 -0.39437866 0.45102495 0.2790824 -0.5920976 -0.16644162 0.28933576 -0.21445534
3 -0.6537787 0.073822394 -0.04656718 -0.4459723 0.48257196 0.3470791 -0.6023012 -0.13443999 0.24895419 -0.2173376
