6 10
3 0.5044278 0.027119573 0.44864318 0.03194855 0.24692675 -0.4574765 0.19066888 0.7631663 -0.41649204 0.0344383
4 0.50679225 0.039828416 0.44281554 0.10538398 0.25457248 -0.39529112 0.13910687 0.75539494 -0.44250423 -0.004275281
2 0.46118745 0.074509256 0.49471682 0.08832245 0.22112843 -0.47634414 0.21071824 0.75696695 -0.41135725 0.056572817
5 0.47228014 0.031551626 0.4581321 0.062186565 0.22314295 -0.47421202 0.12065918 0.695603 -0.37470087 0.06605986
1 0.43672168 -0.012538188 0.4841091 0.103057064 0.25351897 -0.42173406 0.1859152 0.71806604 -0.4711607 0.10115304
6 0.5126639 0.07372892 0.39556617 0.11715655 0.20354457 -0.48252702 0.1389948 0.69079965 -0.3734798 0.056554005
