7 10
0 -0.17491852 0.30381104 -0.5709322 0.18906829 -0.06925023 -0.68515164 0.2537556 -0.27442184 -0.6780108 -0.011402789
6 -0.13170137 0.2763756 -0.5772905 0.20350471 -0.054042134 -0.55903983 0.25963232 -0.2984219 -0.65366703 0.0037629139
3 -0.114261396 0.33715928 -0.5788373 0.2038172 -0.053702805 -0.6633437 0.22461294 -0.32667616 -0.6806031 0.009112321
4 -0.17152202 0.2798952 -0.5641335 0.24997506 -0.09456556 -0.6519314 0.2405909 -0.28521577 -0.6907214 0.027770866
2 -0.100999855 0.32161197 -0.5593643 0.22686164 -0.06723407 -0.6314791 0.23019065 -0.28915766 -0.6321846 -0.005113829
5 -0.13223705 0.3140584 -0.54624486 0.21457684 -0.037832703 -0.5730941 0.17907299 -0.26998582 -0.6575499 -0.018524012
1 -0.11418609 0.2733449 -0.49756533 0.247639 -0.057883613 -0.63214654 0.2363869 -0.29694092 -0.67637146 -0.054775264
