7 10
5 0.055528 0.3876211 -0.0073323473 -0.25566316 0.4272536 -0.32882905 0.23049553 0.45562923 0.29205957 0.77694553
6 0.080574684 0.3599316 -0.049041495 -0.26597723 0.41661534 -0.33763346 0.22236401 0.45942712 0.33248553 0.775485
2 -0.0015824152 0.34092844 0.04394484 -0.28196028 0.4623287 -0.3338115 0.23146519 0.3841841 0.3394619 0.723435
3 0.07426689 0.35075697 0.03849846 -0.25671288 0.4869144 -0.3119245 0.17784536 0.45327595 0.30259696 0.75248593
4 0.031704754 0.3143133 -0.046527155 -0.23240045 0.47383553 -0.32597408 0.16542739 0.41147125 0.31502643 0.7754897
0 0.07530519 0.3254688 -0.0101164635 -0.23909937 0.42762798 -0.3691781 0.21450399 0.45404157 0.31859973 0.76468617
1 0.044419944 0.3656068 -0.019501837 -0.28535116 0.46395192 -0.34252396 0.2266829 0.4365139 0.32995304 0.7652635
