7 10
1 0.13073644 0.24907911 0.07098443 -0.48093638 -0.17347202 0.005414575 -0.83575356 -0.0953206 -0.41264746 -0.29746267
2 0.09547043 0.2219987 -0.057054453 -0.48715207 -0.09924135 -0.038413517 -0.91980183 0.00063932006 -0.5048423 -0.14182389
0 0.19927426 0.32308218 0.083665855 -0.50090915 -0.18167816 -0.016037721 -0.7881168 -0.06377035 -0.34701934 -0.42391995
3 0.21747202 0.33655143 0.08955372 -0.5129744 -0.13392827 0.0021360037 -0.8617095 -0.020453183 -0.31643704 -0.3785065
4 0.26610047 0.31881502 0.012481401 -0.52413183 -0.16986334 -0.0013514493 -0.8612636 -0.10242181 -0.32373357 -0.37467542
5 -0.01750097 0.17519832 -0.04204104 -0.5275685 -0.048990738 -0.07475527 -0.9806889 -0.055831954 -0.5509227 -0.03528207
6 0.038748994 0.23984192 -0.09148783 -0.49557889 -0.046426542 -0.015656821 -0.9624269 0.011158363 -0.5868412 -0.059348155
