7 10
5 0.076018825 -0.1491967 -0.3696711 -0.29364225 0.046465844 0.054713145 0.3928368 -0.38516527 -0.9313825 -0.07018409
4 0.047704015 -0.09083814 -0.44014373 -0.348093 0.0066327504 0.06639885 0.46047217 -0.30254272 -0.91165847 -0.12653483
2 0.10337736 -0.14221117 -0.369962 -0.27482563 0.084488995 0.09096931 0.4301458 -0.3154168 -0.9186755 -0.12182353
3 0.023342634 -0.14446092 -0.4087408 -0.3121462 -0.005581196 0.096100144 0.40021098 -0.3537472 -0.81371236 -0.11294475
0 0.08264793 -0.078967534 -0.40582895 -0.3362494 0.098805495 0.031435266 0.40290242 -0.37962562 -0.8861633 -0.08939224
1 0.09515936 -0.1351518 -0.38717943 -0.33168462 0.093461215 0.075995475 0.434636 -0.3799422 -0.90105534 -0.13885723
6 0.013483235 -0.10098892 -0.41989255 -0.3040722 0.05357011 0.021237897 0.3850949 -0.33361837 -0.8730422 -0.07105572
