7 10
1 -0.1783567 -0.14230785 -0.42059347 -0.060117915 0.16736154 0.09092765 0.18164706 0.4996749 -0.9174545 -0.08316198
4 -0.13344395 -0.13587974 -0.39250672 -0.05064111 0.15526496 0.10207947 0.14122407 0.5173438 -0.9292427 -0.13623302
6 -0.15985873 -0.14115496 -0.41434434 -0.13443248 0.1314473 0.072250925 0.12543693 0.5256834 -0.9306673 -0.05344419
2 -0.14261058 -0.16724592 -0.40403935 -0.14325218 0.17866197 0.085120834 0.15798852 0.4822392 -0.9512162 -0.096288405
3 -0.18217205 -0.17118849 -0.3877427 -0.06053844 0.20362411 0.081225656 0.10617761 0.46670628 -0.9469496 -0.11012179
5 -0.10665652 -0.18700475 -0.34265843 -0.10575562 0.17077826 0.08571505 0.11246797 0.53360647 -0.9501665 -0.097834215
0 -0.1677203 -0.1861568 -0.4047283 -0.045697145 0.1760674 0.037494224 0.0989432 0.4873514 -0.92112076 -0.14288798
