7 10
2 -0.10091262 -0.5562302 -0.25200796 -0.42361158 -0.21756499 0.5011645 0.091359 0.19960512 -0.43721935 0.5960582
1 -0.04289515 -0.5433249 -0.2307421 -0.40447184 -0.123372115 0.44944033 0.07129801 0.23158632 -0.44676384 0.5549016
3 -0.12362757 -0.6453874 -0.18710405 -0.5000009 -0.20329866 0.5376804 0.1573362 0.20371407 -0.4838183 0.68054456
6 -0.028886864 -0.43549076 -0.20354846 -0.40252292 -0.1370193 0.44970572 0.11461434 0.2217036 -0.4227367 0.5469821
5 -0.10661531 -0.56909055 -0.25761992 -0.348649 -0.14135255 0.52560544 0.11567798 0.1988633 -0.4263506 0.5515869
4 -0.09926234 -0.61415255 -0.21506958 -0.44730794 -0.10628398 0.52797365 0.0747302 0.3091621 -0.53796935 0.67383754
0 -0.018939145 -0.5270721 -0.20557301 -0.30701354 -0.19710647 0.49954435 0.115169115 0.13717897 -0.46224254 0.57240057
