7 10
5 -0.2485609 0.14643261 -0.42595837 0.48110068 -0.028941095 -0.3590906 -0.8639339 0.10954063 0.14504892 -0.32957786
6 -0.3137544 0.088932194 -0.3638672 0.48065174 0.0031730256 -0.3646829 -0.8174538 0.06505248 0.06405313 -0.37437305
2 -0.23683526 0.14456666 -0.41283765 0.4452746 -0.023449168 -0.39133883 -0.7733291 0.11844405 0.12339981 -0.36654183
4 -0.3128612 0.077833146 -0.33766544 0.4873498 0.024696067 -0.3633344 -0.7995209 0.1355227 0.101472996 -0.34188232
3 -0.29463843 0.16002147 -0.4250079 0.47333896 -0.06118769 -0.37476286 -0.80625814 0.1338787 0.15617467 -0.27110022
0 -0.31305262 0.11860785 -0.38341293 0.44017684 -0.0011861336 -0.3484414 -0.77342117 0.15909463 0.10248116 -0.3729868
1 -0.29148063 0.11801331 -0.41530868 0.47040188 -0.066430554 -0.35325265 -0.8096838 0.10599191 0.0820757 -0.3669826
