7 10
2 0.7453917 -0.07528626 -0.23336715 0.027899612 -0.6137163 -0.23414336 -0.20241345 0.25405335 -0.044409588 -0.5188855
3 0.77736884 -0.06201553 -0.25520638 0.027839772 -0.69332224 -0.2066983 -0.18396202 0.26126462 -0.08357578 -0.4429711
4 0.74454004 -0.104027 -0.20383304 0.028962204 -0.61492014 -0.24694303 -0.18456018 0.1760403 -0.072827 -0.5035209
1 0.7772737 -0.03159744 -0.19559348 0.025686875 -0.66382444 -0.2495342 -0.1394627 0.22643995 -0.13520128 -0.48409408
6 0.7598247 -0.08161351 -0.16919415 -0.022952756 -0.6673381 -0.17514811 -0.16920176 0.2220794 -0.13246599 -0.50774175
0 0.7413925 -0.08998396 -0.1618752 0.05099493 -0.6507232 -0.25509834 -0.13080384 0.1949102 -0.13784188 -0.46858272
5 0.772903 -0.093810014 -0.14434162 -0.004383184 -0.6374021 -0.22145124 -0.11127833 0.24423827 -0.0518347 -0.46980172
