6 10
5 0.20198615 0.36468154 -0.084450275 0.4143929 -0.6576731 0.21179663 -0.11154145 0.19639672 -0.12157863 -0.73358995
3 0.2600576 0.3285188 -0.053703938 0.43534416 -0.61450523 0.19055404 -0.14914958 0.20455736 -0.15826674 -0.6956809
0 0.26141912 0.31635088 -0.022586605 0.4350847 -0.56086886 0.19153604 -0.13927014 0.2046899 -0.109012686 -0.704865
1 0.26521662 0.2787642 -0.03319184 0.46882656 -0.6260851 0.19764051 -0.14132506 0.19938464 -0.16412504 -0.688251
4 0.22807395 0.2991369 -0.042595044 0.42172667 -0.583805 0.121486165 -0.15255164 0.19566005 -0.1303502 -0.65420824
2 0.27723864 0.29340306 -0.023060985 0.41825277 -0.664441 0.1448966 -0.17633791 0.15624762 -0.14327694 -0.68771553
