7 10
1 -0.14417161 0.23934887 0.050969515 -0.7560552 -0.5462599 0.35059074 0.15436228 0.32809573 0.08909071 0.30741912
4 -0.19360241 0.1855392 0.040784128 -0.7666296 -0.60658497 0.2944858 0.1900073 0.3696889 0.026831355 0.29675895
3 -0.17540832 0.22596537 -0.00090639864 -0.7782716 -0.6053078 0.32947278 0.12403931 0.33156067 0.062263362 0.31158623
2 -0.18924826 0.2484115 0.01887726 -0.7896535 -0.62403727 0.28589275 0.11308517 0.392496 0.04191543 0.2719178
0 -0.123462215 0.22261138 0.060159046 -0.7722615 -0.6038273 0.36979064 0.19488409 0.29146174 0.0047035273 0.29239142
5 -0.20772426 0.18677075 0.06702101 -0.8159958 -0.6783832 0.3884549 0.15537106 0.3939526 0.091201395 0.24076407
6 -0.1720474 0.15897423 0.09640682 -0.8211558 -0.60801136 0.40050656 0.14910056 0.35315934 0.07806514 0.24026676
