7 10
2 -1.2172809 0.29715547 -1.0658499 -0.055269133 -0.37980983 0.9047184 0.8675766 0.89149827 1.3592674 0.30915123
3 -1.1588166 0.2761834 -1.0513648 0.0014973453 -0.3141842 0.8440391 0.8735299 0.8063312 1.2004246 0.23581441
4 -1.1509312 -0.3128736 0.38328534 -0.152355 -0.3160884 -0.4490994 0.513904 0.31249234 -1.3540192 0.8851028
6 -1.1320757 -0.3547313 0.3327551 -0.22471352 -0.29159468 -0.45932657 0.6019445 0.30243036 -1.3808508 0.86636347
5 -1.0904167 -0.30896434 0.37198102 -0.14524655 -0.28214282 -0.512705 0.57326216 0.32048714 -1.4128312 0.85923487
1 0.402976 0.67741257 -0.50421476 -1.3155029 -0.8659725 -0.5546995 0.85974616 -0.3283049 0.3168318 2.168915
0 0.43098095 0.67361856 -0.54397184 -1.3156546 -0.9322965 -0.6479449 0.97334045 -0.39099595 0.30961126 2.2034693
