7 10
0 0.039606657 -0.45228264 -0.01239225 -0.17682508 0.3499819 0.39620975 0.39212823 -0.4789503 0.13430052 0.6185657
5 0.04275405 -0.50190663 0.023146667 -0.17250578 0.3080033 0.4062214 0.43844232 -0.45018193 0.18838531 0.67398614
2 0.112294875 -0.42901263 0.008269349 -0.16346025 0.27289513 0.45475698 0.42661622 -0.4508675 0.26777655 0.68951726
4 0.071810514 -0.41552496 -0.036155228 -0.19420573 0.33168104 0.41287822 0.42018703 -0.42579243 0.24791296 0.7129192
1 0.037249405 -0.47509405 -0.021789277 -0.1335978 0.34027344 0.40136114 0.45201913 -0.4651864 0.22353764 0.64454556
3 0.12784529 -0.38082096 -0.010590186 -0.15486777 0.299648 0.43708706 0.441708 -0.49436375 0.22898969 0.721118
6 0.06787812 -0.44734928 0.031672906 -0.16845773 0.31999224 0.37971568 0.36138517 -0.444323 0.14269012 0.63608605
