6 10
5 -0.7109902 0.1798495 -0.021277532 -0.5591512 0.3442817 0.22371215 -0.11859164 0.4175832 0.29001766 -0.25747946
3 -0.7346409 0.21577446 -0.058801707 -0.5024542 0.3443051 0.13074306 -0.18582308 0.46534592 0.32893616 -0.24189928
4 -0.75201625 0.17832465 -0.07335346 -0.5323207 0.35376734 0.17720613 -0.1541129 0.46910307 0.28814524 -0.20140848
2 -0.7118894 0.20745932 -0.009237047 -0.4669291 0.2667951 0.19475435 -0.1615493 0.4502489 0.3089745 -0.27201116
1 -0.71634054 0.18167251 -0.015486319 -0.52708584 0.2681403 0.18671986 -0.10562826 0.4358812 0.33097985 -0.23124164
0 -0.7087019 0.2309027 -0.055640616 -0.4993013 0.26772377 0.22271308 -0.104506746 0.35733017 0.29933944 -0.22767553
