7 10
0 0.326081 0.45973095 0.17334051 0.2504693 0.6370502 -0.34002665 0.24452758 -0.0008261205 -0.36725852 0.5760849
1 0.3187762 0.47691298 0.15523012 0.32301313 0.6116834 -0.31811896 0.23722684 -0.02041206 -0.41329345 0.5507294
3 0.32501736 0.45184833 0.19088297 0.30171832 0.6348309 -0.32796344 0.21973184 -0.04242386 -0.35766307 0.5756306
5 0.2977041 0.47704718 0.24957189 0.27556473 0.61138 -0.28969082 0.23289129 -0.062216595 -0.3420752 0.59201354
6 0.3011032 0.40522203 0.13325968 0.3199943 0.6055326 -0.22743216 0.2165008 -0.08762699 -0.35833585 0.5662549
4 0.28605738 0.40097624 0.22235571 0.2407039 0.63668615 -0.2402407 0.1548595 -0.08398208 -0.41109225 0.56010604
2 0.33609036 0.47219095 0.17852193 0.3113244 0.5499908 -0.24825993 0.17080939 -0.057642896 -0.38535678 0.5381329
