5 10
4 -0.29219556 -0.1093397 0.79929143 0.29652262 -0.058140203 0.4294211 0.16533752 -0.019899525 0.1467424 -0.58687013
1 -0.35788468 -0.045893267 0.84048384 0.22142819 0.010325899 0.4265562 0.09082367 -0.03360764 0.1798436 -0.64548624
3 -0.2897936 -0.08266547 0.7940669 0.2132847 -0.031344105 0.3985289 0.074022286 0.03492801 0.109375246 -0.5992354
2 -0.32558236 -0.108319215 0.7585686 0.25506875 -0.068286635 0.41707152 0.18807529 -0.0073635704 0.08316437 -0.5230348
0 -0.30435568 -0.06773596 0.7370803 0.27553475 -0.08029765 0.31529287 0.1705939 0.04838755 0.11474542 -0.4780709
