6 10
1 0.17607465 -0.38875848 -0.023357268 0.53509986 0.56627685 0.087791026 -0.29060867 -0.16725364 -0.6455835 0.19384891
5 0.20932095 -0.4694041 0.047236744 0.45863655 0.56654394 0.12171106 -0.22884962 -0.24229373 -0.67440456 0.14966305
0 0.17827198 -0.45590767 0.022341907 0.4809878 0.5779088 0.15061536 -0.26124352 -0.19939494 -0.6462954 0.17891042
2 0.16973661 -0.4308775 0.011401116 0.4856511 0.55485946 0.14694276 -0.29297775 -0.18939759 -0.63915765 0.109260246
3 0.1317545 -0.39000702 0.036623485 0.53785753 0.59563625 0.10914243 -0.31192723 -0.21434405 -0.6592464 0.15895092
4 0.22549318 -0.44470197 0.040526196 0.45775646 0.57374996 0.06466005 -0.28476578 -0.1978353 -0.6041802 0.14033192
