7 10
5 0.81004477 0.26092583 0.073615186 -0.2999378 -0.22345488 0.08195935 -0.14653155 -0.5531525 0.22540756 0.38424894
4 0.79916036 0.27321345 0.027845183 -0.2782096 -0.2871475 0.053735673 -0.20294921 -0.5022916 0.19604346 0.39289844
2 0.8804676 0.20971014 0.046744484 -0.24873596 -0.31523168 -0.0102306595 -0.17285669 -0.5044209 0.16628724 0.42206287
6 0.8395718 0.25230363 -0.0037387381 -0.30656102 -0.22075723 0.08119001 -0.20495048 -0.51005054 0.22056462 0.32652435
1 0.8038696 0.27498844 0.05615451 -0.28404284 -0.23608167 -0.0125018535 -0.16988932 -0.52855265 0.18377829 0.39361137
3 0.8387139 0.2500316 0.016574355 -0.27698994 -0.21007748 0.077769175 -0.16999753 -0.52187985 0.18181345 0.38052687
0 0.84909546 0.19691211 0.0115822125 -0.27070984 -0.29001 -0.020082928 -0.20854717 -0.48463017 0.15065219 0.4056019
