7 10
1 0.011846563 -0.02794296 -0.10706252 -0.010911359 0.32668242 -0.6436984 0.7170325 0.2898374 0.40855962 0.2949012
2 -0.026789084 -0.102505766 -0.13488884 0.008302768 0.30475995 -0.67221457 0.6832526 0.2583928 0.41362253 0.32111263
4 -0.068147376 -0.09902669 -0.17458187 -0.049183473 0.29408428 -0.6526213 0.72873574 0.27435055 0.42879918 0.32413924
3 -0.057113156 -0.07156377 -0.12877153 -0.055316962 0.28131616 -0.633888 0.7360241 0.25632593 0.40086636 0.27379254
5 -0.035108577 -0.08722626 -0.090924315 -0.027359374 0.24907437 -0.63751477 0.75878555 0.23269695 0.4241046 0.26151004
6 0.0065428573 -0.053085726 -0.16442648 -0.002828819 0.2911304 -0.6211266 0.7509032 0.3143295 0.42839766 0.25535515
0 0.002736602 -0.08779376 -0.15726733 -0.009293365 0.33213514 -0.66096914 0.681273 0.294453 0.3569428 0.2786786
