7 10
6 -0.49291146 0.06819402 0.3689199 0.3488866 0.12917246 -0.010819675 -0.36210045 -0.6120291 -0.63107723 0.056986626
2 -0.508828 0.03679422 0.31665316 0.38210666 0.14727825 -0.035207063 -0.36626947 -0.56487983 -0.6332025 0.05349129
4 -0.50226897 0.11501293 0.33642304 0.3841799 0.12327218 -0.07130729 -0.3421027 -0.6394788 -0.59470624 -0.0077082743
3 -0.43036512 0.08254705 0.37755355 0.36422256 0.08926317 -0.08529299 -0.36947787 -0.63360053 -0.64371353 0.07520008
5 -0.5146603 0.04122628 0.39959309 0.3439439 0.10921389 -0.061840285 -0.37798566 -0.59717476 -0.6305741 0.059358716
1 -0.43383178 0.043461878 0.34530985 0.34749618 0.050738364 -0.034367356 -0.39401174 -0.6416353 -0.59627634 0.05172538
0 -0.44962615 0.13448925 0.4126516 0.31657523 0.047814127 -0.098132975 -0.40443212 -0.6199548 -0.61422414 -0.007461802
