7 10
6 0.44710952 0.020383954 -0.7864072 0.28733873 0.26012963 -0.35926974 0.19110939 0.115638904 0.15354629 -0.51416045
3 0.37836677 -0.017088259 -0.7562872 0.3230241 0.29015726 -0.36560318 0.12528251 0.06648723 0.14806831 -0.5520931
4 0.45212057 -0.055348143 -0.7792721 0.26154155 0.24642953 -0.3906428 0.1823221 0.082437925 0.12509388 -0.49882707
1 0.44252706 0.031180788 -0.7677421 0.25498787 0.20901091 -0.37451237 0.13296452 0.051375926 0.09146563 -0.55329883
2 0.4434467 -0.027204182 -0.74789476 0.30428642 0.29614463 -0.36694095 0.21381898 0.102990694 0.09020282 -0.4986898
0 0.42855301 -0.05906309 -0.772064 0.2917577 0.273945 -0.39755866 0.19629309 0.13841817 0.088722624 -0.5223344
5 0.46733174 0.0007380419 -0.7700673 0.2412244 0.27707228 -0.38707837 0.14630446 0.13326164 0.06415072 -0.4828189
