6 10
2 -0.5280048 -0.5821261 -0.59060925 0.059887365 -0.019020041 -8.0449216e-05 -0.536241 0.03838785 -0.39754796 0.16940159
5 -0.5225051 -0.65598863 -0.5854216 -0.029142514 -0.050578117 -0.021008769 -0.48692885 -0.022740364 -0.3557762 0.24851994
6 -0.5010139 -0.5972242 -0.5486462 0.06375143 0.04392477 0.012714944 -0.53091204 0.015832847 -0.35121727 0.23913047
3 -0.46433985 -0.6306288 -0.59200865 0.004595699 -0.009752933 0.007188568 -0.49916932 -0.04022447 -0.3994363 0.1853272
1 -0.47255895 -0.62915903 -0.5366911 0.011779712 0.009639693 0.012397075 -0.5610852 -0.03862995 -0.41027656 0.1994729
4 -0.46016794 -0.6058054 -0.55834955 -0.011156734 0.03766103 0.010287636 -0.4549537 -0.04242209 -0.34944344 0.21728219
