7 10
1 -0.9417598 -0.19375663 -0.10643868 -0.07290769 0.017358568 -0.40732273 0.5118382 0.12737274 -0.17953989 0.06999019
4 -0.9832619 -0.21763264 -0.10482235 -0.0253647 -0.033974655 -0.42333812 0.40255788 0.25727907 -0.052529138 0.022901846
5 -0.91837686 -0.2161096 -0.07111262 0.0028719297 0.034555525 -0.40159234 0.4689265 0.10195167 -0.15816702 0.0042231306
6 -0.9108403 -0.2510632 2.5840702e-05 -0.06771238 0.0109724 -0.38141352 0.48372185 0.09427419 -0.12651035 0.09425234
2 -0.921956 -0.16366677 -0.027732223 -0.05607131 0.010138989 -0.4302025 0.4655704 0.20635857 -0.12906536 0.014579769
3 -0.9876417 -0.2830695 -0.06346427 0.018201662 0.050626617 -0.42652127 0.41130495 0.20716435 -0.11054779 0.08174678
0 -1.0082986 -0.23156078 -0.031339806 -0.055124808 -0.0006087015 -0.42069313 0.3894185 0.21386883 -0.093934596 0.0692691
