6 10
2 0.37525 0.41067863 -0.023748748 -0.371208 -0.116844885 -0.31597105 -0.6103853 0.32060373 0.49759942 0.29139477
3 0.41139492 0.42546573 0.020863974 -0.387648 -0.17956486 -0.3103525 -0.6023269 0.40379477 0.46876055 0.28782594
1 0.381919 0.37101275 0.009681922 -0.39949912 -0.14357188 -0.29666358 -0.5817782 0.35708475 0.5264951 0.26846197
0 0.4462391 0.37163562 -0.0049828547 -0.3339747 -0.12896343 -0.30343366 -0.57527125 0.3263398 0.4858557 0.2791578
5 0.41494456 0.34634876 -0.019973036 -0.38022444 -0.15096642 -0.35259154 -0.6442638 0.32910097 0.4501037 0.33283734
4 0.4638992 0.4334504 -0.041603297 -0.32239822 -0.10239848 -0.30188102 -0.62617815 0.3599498 0.5119319 0.27261883
