7 10
4 -0.15746225 -0.40186927 -0.29797274 -0.043754514 0.48079547 0.5083482 -0.32385832 0.37394485 0.37663805 0.5287943
3 -0.1504736 -0.42365894 -0.30696967 -0.077108756 0.4158442 0.47901332 -0.40734124 0.3651844 0.32667297 0.49546102
5 -0.1016551 -0.41121134 -0.3253155 -0.012608027 0.47235143 0.48945996 -0.385556 0.35706696 0.25807118 0.49311486
1 -0.1917167 -0.35787767 -0.23747845 0.0028104133 0.50537556 0.4515545 -0.39860892 0.38716808 0.35122994 0.5365447
2 -0.14924061 -0.35539338 -0.31074545 -0.039941203 0.4604751 0.51034015 -0.3419658 0.36074212 0.35772562 0.5167438
0 -0.16078341 -0.4103585 -0.2596899 -0.042297546 0.46879777 0.5324689 -0.4000168 0.33180368 0.35496324 0.4876248
6 -0.14387654 -0.39281392 -0.32935128 -0.07798099 0.4953495 0.50686294 -0.38487276 0.36899662 0.3194078 0.52214
