6 10
2 0.18587813 0.34429106 0.38419443 -0.40710515 -0.07403688 -0.25926572 0.21894805 -0.08674916 0.6390619 -0.6595512
0 0.21077187 0.3020805 0.42426962 -0.39854723 0.024925523 -0.27775234 0.19337246 -0.16031186 0.65183467 -0.7038114
5 0.19511206 0.40381688 0.4241578 -0.36710945 0.011892785 -0.26657942 0.1786289 -0.0949435 0.72511303 -0.6741219
4 0.21030925 0.36663207 0.440136 -0.35764426 -0.046604406 -0.28776592 0.21240315 -0.12522909 0.625013 -0.659573
1 0.15364386 0.28771135 0.37425414 -0.37501767 -0.0070295827 -0.20552814 0.20924518 -0.15487815 0.59376794 -0.6784567
3 0.14356944 0.30962017 0.44781154 -0.38831404 -0.048370156 -0.25406715 0.15872559 -0.06465955 0.6098312 -0.62969947
