7 10
4 -0.2883615 0.008106399 -0.3251419 0.054300584 -0.6543393 0.5904566 0.21520777 0.3393469 0.46439785 -0.28973585
3 -0.25139356 -0.055329803 -0.35149458 0.013176014 -0.5902546 0.6138886 0.23221852 0.27876475 0.5060436 -0.24086004
5 -0.3082406 -0.04796123 -0.35552737 0.01368293 -0.5853474 0.61804307 0.21413742 0.28168055 0.48517206 -0.31147844
1 -0.26451173 0.009450639 -0.34061646 -0.007398561 -0.6319797 0.6778239 0.18570311 0.30660936 0.46180984 -0.2456073
0 -0.28952548 0.012019593 -0.275513 0.06730876 -0.56113267 0.6373096 0.2259656 0.3212435 0.4929398 -0.2873171
6 -0.27004704 0.026518641 -0.267502 -0.010690203 -0.61054903 0.64706296 0.17405327 0.3205644 0.4756799 -0.27705905
2 -0.20515162 -0.06169302 -0.34808552 0.036435608 -0.5579643 0.61709476 0.2550279 0.32595238 0.51015586 -0.26108882
