7 10
6 0.13077629 0.7847191 -0.3992022 0.08205971 -0.46689814 0.3057494 -0.4416451 0.120018795 0.23665054 0.21443906
3 0.0877393 0.7824725 -0.37076223 0.013716146 -0.5006172 0.2914737 -0.43204388 0.08124448 0.16599202 0.22824825
5 0.14315183 0.7602665 -0.40920585 0.020686878 -0.48757997 0.33482265 -0.44935483 0.13840175 0.15040916 0.27331424
4 0.083122455 0.79017746 -0.3558713 0.08556739 -0.5195776 0.2865497 -0.44015017 0.18070018 0.2035659 0.21027365
1 0.117964886 0.7669807 -0.36456853 0.006107288 -0.49657232 0.26733607 -0.47168174 0.16915828 0.20590119 0.25737402
2 0.14748815 0.73337877 -0.4097209 -0.009987511 -0.50345564 0.3220317 -0.4537126 0.15403172 0.21093163 0.24538293
0 0.07120114 0.75601333 -0.42915133 0.05610632 -0.53471565 0.26838443 -0.46611628 0.10172615 0.20526512 0.2302934
