7 10
1 -0.014253485 0.7179715 -0.1432693 -0.052821446 -0.137892 -0.370049 0.13175239 0.06980934 0.77758116 -0.37080595
5 -0.064109266 0.71803284 -0.15211509 -0.084408164 -0.13273868 -0.37652585 0.04933551 0.13466977 0.75580776 -0.41834998
0 -0.09665975 0.7277572 -0.0673428 -0.054711673 -0.08408946 -0.33187371 0.08735779 0.03697671 0.7004945 -0.45485246
6 -0.080845974 0.70781624 -0.09663398 -0.107351415 -0.08334077 -0.35187602 0.06963186 0.042992264 0.741931 -0.41728708
2 -0.104869895 0.7122725 -0.13114604 -0.12280967 -0.06275487 -0.33044058 0.06088863 0.1241356 0.72577393 -0.46319592
3 -0.05481078 0.70424557 -0.066636786 -0.09979306 -0.14469375 -0.27760622 0.11627779 0.10444024 0.6898414 -0.42285484
4 -0.08672183 0.68179214 -0.059054475 -0.094285004 -0.10748857 -0.3136407 0.022213722 0.025881704 0.6975172 -0.38173822
