7 10
0 -0.7197292 -0.32526577 0.17790273 -0.19104314 -0.27066964 0.41391635 -0.23251376 0.36586216 0.344097 0.27926537
1 -0.7575184 -0.33453014 0.20257513 -0.16713832 -0.2689438 0.4177686 -0.26459634 0.342954 0.33808112 0.32516116
4 -0.73890555 -0.2808159 0.2399894 -0.18358421 -0.25062692 0.46564522 -0.27904215 0.3846145 0.34244004 0.3143533
3 -0.7790085 -0.27610025 0.19256201 -0.15243214 -0.20496584 0.46750697 -0.23392488 0.35552776 0.38641012 0.35309175
2 -0.7203761 -0.32219926 0.23612809 -0.15093608 -0.22185892 0.44412553 -0.31026715 0.40882787 0.39705813 0.30874228
5 -0.7496036 -0.28803444 0.19348349 -0.121524476 -0.19098464 0.3793748 -0.2628956 0.37699062 0.40110502 0.32898092
6 -0.75105435 -0.326446 0.19317713 -0.1579215 -0.2594711 0.4549377 -0.22681679 0.31063768 0.36340946 0.2684536
