7 10
6 -0.3039105 0.6583827 0.41874662 -0.5595227 0.08134461 -0.12784164 -0.21359496 0.046000857 0.582771 -0.1300848
1 -0.32891914 0.61762744 0.4376508 -0.58158755 0.029527996 -0.13543442 -0.18197513 0.027587416 0.5933335 -0.06318568
2 -0.2652171 0.6308636 0.4828297 -0.5984703 0.07633339 -0.17194939 -0.240516 0.04986062 0.5191459 -0.12762395
3 -0.28599337 0.6795367 0.44188178 -0.5059709 0.0895357 -0.077428386 -0.25001514 0.03080089 0.5629411 -0.0556519
4 -0.24285063 0.66962886 0.42716298 -0.5168808 0.109524064 -0.14406939 -0.21020861 0.07008628 0.5956119 -0.04455921
5 -0.33437794 0.64818084 0.4193196 -0.5366694 0.08296915 -0.08163154 -0.20513703 -0.006425288 0.5320848 -0.1533473
0 -0.27281913 0.6032621 0.43172318 -0.52398694 0.103805386 -0.10700883 -0.1681811 0.05460902 0.56745076 -0.04616514
