6 10
3 0.31168032 0.721785 0.2469396 -0.25600874 0.40740007 -0.13123298 0.17899694 -0.031760484 -0.61549205 0.14642502
2 0.34498385 0.80196476 0.20155041 -0.28080642 0.39259183 -0.13433178 0.22399856 -0.07026217 -0.59501874 0.09246363
5 0.2867289 0.7391781 0.17426799 -0.33370736 0.32201558 -0.08076842 0.20216134 -0.0010501941 -0.58871424 0.09665253
4 0.31999967 0.67742795 0.24629149 -0.3069385 0.33291766 -0.10000343 0.22864176 -0.01925278 -0.5778169 0.15880404
1 0.29481456 0.7330626 0.20626427 -0.327094 0.3911241 -0.084108055 0.14066681 -0.09263381 -0.6081914 0.108285725
0 0.25953943 0.7722906 0.20494545 -0.33703423 0.37159437 -0.13240059 0.23775323 -0.003388404 -0.5841133 0.1351764
