7 10
1 0.45687684 0.31761682 -0.33830217 -0.1458366 -0.050824393 0.3019198 0.42788154 0.49251983 0.112385266 -0.7018417
2 0.43886527 0.3041241 -0.33792552 -0.18411168 -0.03661269 0.33697787 0.3966777 0.43509328 0.15697116 -0.6518304
4 0.44498512 0.26954812 -0.36831662 -0.118225195 -0.04392756 0.32132122 0.36521307 0.45512572 0.099611536 -0.6636385
0 0.4842341 0.32595912 -0.38751513 -0.16962509 -0.088011116 0.2878151 0.40406138 0.44114414 0.16533647 -0.65285105
3 0.43000415 0.24156108 -0.3865975 -0.19514239 0.012669905 0.3303501 0.4276342 0.46537703 0.120213315 -0.65833986
5 0.49772835 0.22104934 -0.33408847 -0.15382136 0.0050691613 0.3416909 0.37673238 0.4202906 0.1589939 -0.68625295
6 0.46139544 0.21967334 -0.35968226 -0.1803371 -0.0041955314 0.34462878 0.41355026 0.4367899 0.090095125 -0.59031105
