2 10
5 0.020873671 -0.07133214 -0.0760747 0.07408682 -0.09710786 0.0072537744 -0.04656432 -0.053297624 -0.023419984 -0.052464776
6 0.023154454 -0.11861563 -0.0703531 0.10479866 -0.1303986 0.06825873 0.013512424 0.02878487 0.052318692 -0.005477855
