5 10
4 -0.35095775 0.15364867 0.7640968 0.31091392 0.39760515 0.36682537 -0.4754994 0.1551863 0.20673244 0.056489967
1 -0.3228915 0.13245568 0.72661835 0.33967882 0.40458393 0.36682826 -0.4384196 0.13476722 0.23801126 0.09422392
0 -0.35048243 0.17970654 0.80652183 0.3465504 0.3594958 0.39138764 -0.40909836 0.18004099 0.23187767 0.12273493
2 -0.34338152 0.17687899 0.7334679 0.32059813 0.3952062 0.37782675 -0.4264784 0.16837168 0.14010906 0.09379745
3 -0.26832616 0.18555866 0.77505845 0.23730832 0.39395323 0.35067874 -0.4403804 0.203007 0.23692524 0.08392354
