7 10
0 0.27065405 0.26025784 0.05213701 0.4437905 0.34839612 0.19155295 0.03434251 -0.75575036 -0.27646762 0.49922323
2 0.31757304 0.28341997 0.097507305 0.4300456 0.37216496 0.22042336 0.06547888 -0.79066 -0.1911985 0.5147595
5 0.31957555 0.28599384 0.040143475 0.43189585 0.2965549 0.15593702 -0.0018293429 -0.75775355 -0.2966108 0.51839995
6 0.3248036 0.19871254 0.08652071 0.4162223 0.3341774 0.17884867 0.10426793 -0.76381314 -0.21287084 0.52933073
4 0.30287027 0.31489715 0.045568407 0.42337108 0.36975467 0.2394966 0.06147971 -0.77161497 -0.273455 0.48313814
3 0.34579882 0.28715807 0.06309731 0.38859537 0.3739777 0.20972289 0.057158247 -0.7833196 -0.17646527 0.49895722
1 0.27721995 0.28250155 0.011218869 0.40850484 0.31384802 0.14519337 0.043339763 -0.692922 -0.25378 0.4924469
