6 10
1 0.051232293 0.5023952 0.40753332 -0.063544534 -0.5525847 0.21833538 0.50857645 0.44329634 -0.41545784 -0.029830946
5 0.010553456 0.5137769 0.44928813 -0.067663506 -0.5590749 0.1833287 0.5150539 0.5210465 -0.40182585 -0.04619965
4 0.02702213 0.5226451 0.42480513 -0.08859062 -0.5477194 0.21837802 0.44195828 0.52280873 -0.3569307 -0.028631382
2 -0.033116367 0.51259875 0.4471777 -0.011195076 -0.5364595 0.1901697 0.48440102 0.48240268 -0.32997826 -0.092889935
3 -0.011045727 0.44105518 0.39210302 -0.029227227 -0.5176239 0.16840763 0.510077 0.46701726 -0.37669942 -0.046662543
0 0.037095156 0.491398 0.35246533 -0.08250949 -0.53454995 0.24312524 0.45423707 0.4845563 -0.38211092 -0.016471153
