7 10
5 -0.01230795 0.4847493 0.38592124 -0.061112177 0.104745254 -0.01770418 -0.74809927 0.19434053 0.6291343 0.12943587
6 0.0025811603 0.49581167 0.31583327 -0.087194555 0.13871367 -0.03419378 -0.76519555 0.23469736 0.63619876 0.046261918
3 -0.04929408 0.42221126 0.38005748 -0.0048450027 0.1258153 -0.028658692 -0.73396677 0.13017924 0.6491493 0.06752672
2 0.013431185 0.49200538 0.37527487 -0.104984604 0.16018884 0.048380915 -0.7186541 0.21032757 0.63702357 0.10907445
0 -0.0454146 0.43585366 0.34394544 -0.051779028 0.12856819 -0.029675787 -0.7645271 0.1958806 0.6567512 0.074402206
4 0.02332178 0.49901345 0.3898217 -0.036855284 0.10707143 0.053142883 -0.77230185 0.14138952 0.57575566 0.10651359
1 -0.0050863964 0.47204337 0.42233586 0.014985609 0.17195444 0.041105743 -0.76116645 0.24703082 0.57194066 0.039409053
