7 10
1 0.09753778 -0.20884147 0.24012718 0.15425727 0.16802126 -0.1987445 0.067744195 -1.0163125 0.45769668 -0.23821548
5 0.0826823 -0.151692 0.15988985 0.078284934 0.19629218 -0.17508587 0.16298427 -0.97650665 0.42851847 -0.2959033
0 0.1409868 -0.14973244 0.24384575 0.08686502 0.17148194 -0.10892417 0.109593295 -0.9943827 0.46532083 -0.22636649
4 0.049038526 -0.10440405 0.16536935 0.16273867 0.16298997 -0.16270828 0.13859496 -0.97834057 0.45605984 -0.30739442
3 0.11903551 -0.19844216 0.22741526 0.14755273 0.11058149 -0.1351905 0.1431107 -0.9545262 0.45148236 -0.28698814
2 0.14940938 -0.11928655 0.2007947 0.14278784 0.15813488 -0.1604998 0.15738255 -1.0005454 0.4703832 -0.24473411
6 0.10603149 -0.17319058 0.18713038 0.19147582 0.14563866 -0.12098648 0.15153608 -1.0461143 0.40308994 -0.3116986
