7 10
1 0.33237052 -0.32095918 -0.06501923 -0.46929926 -0.25188395 0.051284757 -0.20958169 -0.27405635 0.48302212 0.7563366
0 0.28204387 -0.30210298 -0.14166518 -0.43206078 -0.24177384 -0.018546801 -0.1460029 -0.24200587 0.49958408 0.79031265
4 0.32719767 -0.28418502 -0.13670525 -0.4768646 -0.20275068 -0.0115223965 -0.21623679 -0.22377749 0.46750855 0.81064576
6 0.21026799 -0.33953446 -0.098985754 -0.47591433 -0.1918974 0.02888543 -0.16676772 -0.23578718 0.45205367 0.75768775
2 0.23723273 -0.3139661 -0.15541936 -0.45881224 -0.22195543 -0.008270418 -0.16435343 -0.26528302 0.426659 0.846842
3 0.27822638 -0.35713726 -0.12589855 -0.45219192 -0.20908037 0.00848256 -0.193755 -0.2610398 0.42343113 0.7939345
5 0.29376248 -0.34714934 -0.17305852 -0.46321395 -0.1890415 0.06802938 -0.22065777 -0.23735654 0.46340588 0.76522106
