6 10
2 0.44873494 -0.18819506 0.68613863 0.18492505 0.22194299 -0.25106898 -0.075474545 -0.40583798 -0.3818156 0.56148255
1 0.35480884 -0.27516797 0.68683696 0.17141923 0.2501783 -0.30398 0.016452387 -0.30478087 -0.3521533 0.5817271
6 0.45820144 -0.26490098 0.6312805 0.23284163 0.22029904 -0.27014992 -0.030637847 -0.44307798 -0.37360954 0.5151517
5 0.4301849 -0.16447294 0.65474033 0.24489939 0.1612906 -0.21178165 -0.06029036 -0.4265703 -0.3432868 0.4927007
4 0.37370026 -0.23332824 0.70272917 0.20531309 0.2176885 -0.25397828 0.0001823589 -0.36875984 -0.2541854 0.5072932
3 0.30314517 -0.21228416 0.72630477 0.237959 0.292516 -0.31751367 -0.07691639 -0.34485266 -0.2896567 0.5638504
