7 10
6 0.09082809 0.031202791 0.31300935 0.20610543 0.11792147 -0.46213952 0.29202577 -0.06651145 -0.42774063 -0.9140697
1 0.08043728 0.12238651 0.2524769 0.20426798 0.16444306 -0.3970117 0.3437559 -0.09865033 -0.3723837 -0.8996314
4 0.08278011 0.102045946 0.30149725 0.24404265 0.17317289 -0.4335999 0.31108823 -0.055141542 -0.3849141 -0.8520591
2 0.033771724 0.08811792 0.32177895 0.23157828 0.19078885 -0.3886705 0.30915022 -0.057056844 -0.3873923 -0.8990956
3 0.016794741 0.04344242 0.28443038 0.22166963 0.16522324 -0.3699891 0.2599552 -0.06775449 -0.41100168 -0.9538324
5 0.0031040232 0.062878445 0.30725262 0.2475154 0.1849922 -0.4297809 0.2382725 -0.097356565 -0.35166025 -0.90153235
0 0.044588216 0.112367496 0.32563427 0.18164477 0.18324378 -0.427839 0.26319304 -0.09947228 -0.37639007 -0.9233244
