7 10
5 0.07564715 0.10169892 -0.0745923 0.5023685 -0.20546246 -0.4062081 0.21298677 -0.14225863 0.15416957 0.89862597
6 0.13572012 0.07231834 -0.13542558 0.53410536 -0.17013589 -0.43942812 0.24604593 -0.16804686 0.18635419 0.85125434
3 0.11290748 0.13754487 -0.09941337 0.52658045 -0.2231912 -0.4001049 0.25433692 -0.12664372 0.20730907 0.87802523
2 0.096140355 0.069151066 -0.13490736 0.5259477 -0.13512439 -0.4514117 0.26804444 -0.20113775 0.21001017 0.8629652
4 0.11116692 0.13659601 -0.13567282 0.46087068 -0.23589925 -0.45026654 0.20943178 -0.15766126 0.15078205 0.8708665
1 0.08382736 0.11821786 -0.050831933 0.45742646 -0.21246055 -0.45712304 0.20321938 -0.20905562 0.2327167 0.8774133
0 0.077238925 0.05402716 -0.07694955 0.51850384 -0.1874554 -0.43848735 0.23073015 -0.16358343 0.18466143 0.86311775
