7 10
5 -0.39312252 0.533723 -0.2107577 -0.57041717 -0.062358484 -0.39775667 -0.016721139 0.045143105 0.7304068 0.30347273
4 -0.39483252 0.540205 -0.16473514 -0.50615764 -0.08199186 -0.41688207 0.041888025 0.029528288 0.70617515 0.27996522
1 -0.41836688 0.49720094 -0.24368316 -0.58864534 -0.07420632 -0.35802126 0.044955168 0.07402821 0.686183 0.22910406
0 -0.37509373 0.48642585 -0.23094878 -0.51917243 -0.06344615 -0.39038995 0.022183212 -0.0032869286 0.6565196 0.24573871
2 -0.4163542 0.5365556 -0.19966556 -0.5537451 -0.0738114 -0.3701211 -0.0038977936 0.03077974 0.6849146 0.2165582
3 -0.39307767 0.50157785 -0.17850204 -0.55049235 -0.034004495 -0.40535182 0.02690109 0.008854514 0.6127726 0.27341968
6 -0.38120228 0.5070405 -0.17894745 -0.5031318 -0.05770233 -0.40368915 0.019853314 0.06949412 0.67432743 0.21513788
