7 10
2 0.082054205 0.16634688 -0.57397586 0.47373968 -0.041445196 -0.15121086 -0.03796185 -0.28172025 0.88211703 -0.2078947
5 0.064642616 0.2210094 -0.5764017 0.4224298 -0.007383092 -0.1821257 -0.08821781 -0.2431925 0.8389457 -0.26092085
4 0.027815811 0.17593674 -0.52750987 0.4216903 -0.080480784 -0.20949149 -0.074104674 -0.27432242 0.77517956 -0.24362421
0 0.10894604 0.14292555 -0.5281997 0.4063745 -0.064241625 -0.1879104 -0.08714299 -0.30425298 0.8888524 -0.20547429
3 0.11344994 0.18240611 -0.5573277 0.3916472 -0.024431445 -0.17338063 -0.050375916 -0.22181012 0.8716699 -0.23566894
1 0.12794179 0.17395866 -0.6133793 0.47906056 -0.03678987 -0.20402686 -0.036209192 -0.25020424 0.82585466 -0.263691
6 0.093159504 0.1474951 -0.48121586 0.42836365 0.005653471 -0.22885914 -0.098787464 -0.23945744 0.7888047 -0.21912615
