6 10
1 0.19906761 0.2265253 -0.37314168 0.006809729 -0.29344344 0.057262298 0.4322496 -0.89341986 0.2612313 0.31881675
5 0.18899263 0.19337508 -0.39197397 0.041014705 -0.3584938 0.025459299 0.37380087 -0.8682697 0.32065007 0.35257855
2 0.25223443 0.23475091 -0.33362526 0.07913612 -0.35814318 0.02059071 0.39504853 -0.8932105 0.31443486 0.36333916
3 0.24386181 0.199136 -0.34945682 0.08427004 -0.29875505 0.054026667 0.35915264 -0.85176253 0.24639763 0.3279629
4 0.22052164 0.17960967 -0.3359343 -0.0036210143 -0.29746613 -0.018658612 0.38240486 -0.8609915 0.3393607 0.3367797
0 0.23812164 0.24898763 -0.37915716 -0.00024294922 -0.3469232 0.03381182 0.40221348 -0.7923509 0.26246247 0.2605952
