6 10
1 -0.15961114 -0.37720516 -0.5764491 0.28958774 -0.48590663 -0.13484633 0.19472754 0.24435651 0.62768006 0.30794367
2 -0.1827816 -0.3475154 -0.5247824 0.3369106 -0.5405316 -0.14814691 0.2163371 0.26005086 0.62477046 0.3317462
0 -0.1832298 -0.35580018 -0.5386875 0.27414948 -0.5114852 -0.11765485 0.24783802 0.16753884 0.56385875 0.33167523
3 -0.18629125 -0.35362488 -0.50487685 0.24049568 -0.5323297 -0.04970274 0.26472417 0.25094202 0.5565235 0.3236264
4 -0.16015379 -0.29713812 -0.55965906 0.32192168 -0.49040565 -0.09698109 0.21615584 0.2493279 0.6180393 0.3626035
5 -0.2070197 -0.35129988 -0.54573876 0.2539116 -0.5017479 -0.14184792 0.24025114 0.20621915 0.57207817 0.3141769
