7 10
2 0.07836544 0.015837774 -0.5229367 0.7205894 -0.68615794 0.8048476 -0.3575868 -0.91948736 -0.7156307 -0.95565134
5 0.08408354 0.012382249 -0.5498848 0.7771483 -0.63798785 0.7378296 -0.2759995 -0.8690184 -0.72950894 -0.9060639
6 0.0071802908 0.035089232 -0.520199 0.73810405 -0.6251 0.7554288 -0.3091778 -0.81976557 -0.6565273 -0.91118634
4 -0.19548434 -0.5359147 -0.45282924 0.12666045 0.36418697 0.47863463 -1.2826117 0.49106428 1.660524 -0.66392374
0 -0.17516369 -0.5331564 -0.45456627 0.08173265 0.3490074 0.44868618 -1.2386642 0.47878388 1.602945 -0.6607101
3 -0.21316782 -0.59778535 -0.37238362 0.117524184 0.45624664 0.51429224 -1.2931561 0.47371042 1.7062776 -0.62765056
1 0.03417867 0.011649063 -0.4311208 0.61335504 -0.5434633 0.7016236 -0.28768852 -0.749807 -0.5736921 -0.7792677
