5 10
3 0.046480536 0.34564468 0.18501699 -0.3206177 0.4196154 -0.5997445 0.073799 -0.105983205 0.7828998 0.1265616
1 -0.028461466 0.23843622 0.2603621 -0.32630628 0.339289 -0.5729899 0.15485458 -0.092161275 0.75074774 0.12645614
2 -0.036569204 0.3153003 0.24870254 -0.3106136 0.40160438 -0.6140819 0.05364224 -0.12829648 0.75263983 0.09272562
5 0.050459698 0.29585522 0.26286402 -0.32808426 0.34861463 -0.6153909 0.10652095 -0.13131025 0.7699889 0.11443079
0 0.01515198 0.29586765 0.20990874 -0.24281883 0.3637405 -0.5160565 0.11721267 -0.05311725 0.74965894 0.1041542
