7 10
6 0.5598298 0.09821328 0.37533367 -0.4470706 -0.4963481 -0.038127467 0.5022093 -0.15635793 -0.44909012 -0.019235825
5 0.6157654 0.06616777 0.32709965 -0.44252542 -0.4370789 -0.014406108 0.48704872 -0.1389752 -0.47319904 0.025544079
4 0.6480029 0.023272455 0.36693907 -0.44552603 -0.4660864 -0.054594755 0.49366626 -0.10428697 -0.44607094 0.07157291
3 0.634084 0.053053018 0.34422958 -0.38957784 -0.44499883 0.045356672 0.5157708 -0.19378343 -0.5009501 0.087926045
1 0.6007106 0.060386512 0.31467912 -0.42447487 -0.47311398 0.009310185 0.47775137 -0.20759052 -0.45443305 0.07430909
2 0.6028728 0.11350388 0.40364507 -0.42418817 -0.5175277 0.044315338 0.51153076 -0.15007119 -0.4304394 0.00016830483
0 0.6078053 0.07358172 0.3727708 -0.44498917 -0.47717458 0.022671824 0.44783822 -0.12922673 -0.4378623 0.036565233
