7 10
0 -0.06834161 0.25020245 0.6206789 0.41751784 -0.28012484 -0.39005652 0.5183155 0.43627483 -0.31709737 -0.22143896
1 -0.05746461 0.18741433 0.6954185 0.39716834 -0.22605781 -0.42309222 0.44016474 0.36993974 -0.3178801 -0.23567791
4 -0.03974832 0.19429927 0.70988077 0.43909132 -0.28651494 -0.38105503 0.44913453 0.39193073 -0.24748483 -0.27628452
5 -0.015305541 0.17861095 0.67785746 0.3952515 -0.24986513 -0.3743335 0.48241246 0.38051727 -0.24193561 -0.28327334
2 -0.00055953074 0.23676819 0.6647303 0.405063 -0.27707508 -0.42266613 0.46002486 0.40272784 -0.24166243 -0.28998718
3 -0.051562186 0.2066188 0.66738623 0.3344503 -0.22640699 -0.41183442 0.5193305 0.4136628 -0.3242918 -0.2855244
6 0.023199825 0.24425831 0.6073199 0.3922168 -0.24070501 -0.37240937 0.47417524 0.4428762 -0.2724767 -0.24203001
