7 10
2 0.48332652 0.030205779 -0.22862723 0.29586267 -0.14148435 0.19455068 0.12649494 -0.2410796 -0.9045754 -0.18190743
1 0.44529104 -0.0003628762 -0.30401692 0.29662988 -0.2090396 0.20724358 0.18334018 -0.24601172 -0.88527066 -0.1905778
0 0.46969783 0.06927178 -0.29427004 0.22924036 -0.20418923 0.12823696 0.14304478 -0.2687971 -0.9405921 -0.17956376
3 0.41755152 -0.0038936834 -0.27633303 0.24642558 -0.17799342 0.14228787 0.19548112 -0.24168235 -0.9334801 -0.21988596
4 0.45457792 0.049170155 -0.32957092 0.31269667 -0.15031518 0.12686764 0.1607528 -0.18718491 -0.91841596 -0.24520941
6 0.48133656 0.039152183 -0.29027584 0.30325377 -0.18176591 0.22076872 0.16301389 -0.28529435 -0.89866483 -0.21580683
5 0.45417038 -0.0071588866 -0.33039442 0.23365432 -0.18419108 0.2039932 0.14261325 -0.19161627 -0.9124306 -0.19823644
