6 10
0 -0.25885785 0.24995263 0.5218466 0.0043722494 -0.65372944 0.19809511 0.029928021 0.27010727 -0.5957107 0.26724207
1 -0.25628716 0.29566723 0.49240887 0.07051689 -0.68184334 0.25622058 -0.044207204 0.30263987 -0.5647982 0.31070507
3 -0.27260676 0.26802307 0.53217226 0.02828922 -0.61905867 0.25877237 -0.046414997 0.23638864 -0.62284094 0.22907385
4 -0.28970492 0.2847672 0.45970237 -0.01246568 -0.6549055 0.1875361 0.021129068 0.27592632 -0.6308919 0.23218448
2 -0.29326487 0.2660109 0.50568426 0.025243308 -0.6986333 0.28333405 -0.051723454 0.27342978 -0.60143894 0.29961574
5 -0.32403964 0.22342737 0.53648984 0.044416953 -0.71912944 0.2741184 -0.0007155994 0.23313595 -0.66423005 0.28580236
