7 10
4 0.514514 0.81011254 -0.019413684 -0.16688392 0.16172661 -0.068447456 0.12164884 -0.34441885 -0.31511346 0.4056056
2 0.53603435 0.7904659 -0.08180441 -0.08885364 0.19976535 -0.0510468 0.06945143 -0.2609699 -0.3687721 0.4478622
3 0.47968125 0.8345528 -0.06064379 -0.13366243 0.08935106 -0.12440443 0.10817133 -0.3434891 -0.31144774 0.48314968
5 0.5112131 0.8049408 -0.035009082 -0.15984373 0.17984834 -0.13666701 0.12570673 -0.2759483 -0.32663614 0.48420328
1 0.46966287 0.81123567 -0.02350618 -0.15910725 0.10418476 -0.04173127 0.0436899 -0.33162373 -0.3569822 0.4899578
0 0.5053853 0.8351869 -0.02702806 -0.07938827 0.13444313 -0.075205095 0.04240308 -0.2942939 -0.37591204 0.47239244
6 0.49506924 0.80740124 -0.026942674 -0.11704841 0.09668063 -0.06425483 0.08588964 -0.34475532 -0.31207597 0.39656633
