7 10
4 0.61945873 -0.22262724 0.0816422 0.2348514 0.19718549 0.05328025 0.32761022 0.629861 -0.43770143 0.4532798
1 0.59156996 -0.29513106 0.11083284 0.17248137 0.23630267 0.02959605 0.36162332 0.57168305 -0.45160297 0.462425
5 0.5672868 -0.28398725 0.08778314 0.20288189 0.20816924 0.0013904246 0.35579553 0.5637859 -0.4567651 0.3991896
2 0.5804734 -0.29625794 0.07651121 0.20720038 0.15928884 -0.021056147 0.3604732 0.60346884 -0.48123175 0.40213448
0 0.5819357 -0.20737068 0.04428038 0.17860372 0.16718781 0.019800534 0.37313938 0.5850277 -0.48402968 0.40671405
3 0.61668146 -0.30301976 0.091933295 0.23949078 0.19148692 0.06033822 0.3713989 0.56447685 -0.41684043 0.37721977
6 0.58850664 -0.20767708 0.032636188 0.18971385 0.17589603 0.019077936 0.3399796 0.58198947 -0.47689274 0.43777323
