7 10
5 -0.09468757 0.15275349 -0.10133799 -0.73235667 0.08826639 0.009157357 -0.6949199 -0.11205683 -0.6053468 -0.13351826
4 -0.13597602 0.222493 -0.114825875 -0.6706011 0.050272103 0.006255526 -0.6635436 -0.10559489 -0.61285657 -0.12163698
6 -0.08944342 0.2150418 -0.10239576 -0.68305755 0.093972325 -0.0031236256 -0.62026286 -0.0375946 -0.6559209 -0.083316915
2 -0.15493299 0.21217586 -0.06502005 -0.6833659 0.04693709 0.06790554 -0.6422385 -0.04424184 -0.615141 -0.1205193
3 -0.15873592 0.14481685 -0.12347787 -0.66524756 -0.00474293 0.029028773 -0.6915925 -0.13130143 -0.68056214 -0.12068864
1 -0.15674827 0.18534242 -0.14853533 -0.72859365 0.03131192 0.064825654 -0.62758845 -0.07327528 -0.6231566 -0.08233381
0 -0.11635341 0.18263038 -0.06490267 -0.675509 0.021293813 0.07452343 -0.6388183 -0.08431417 -0.6457001 -0.110871255
