7 10
1 -0.37595072 0.012234596 -0.53375894 -0.58334213 0.057657227 0.045295566 -0.25896725 0.42208314 -0.31743765 -0.621641
2 -0.44243896 -0.10160567 -0.42836154 -0.57743174 0.029240234 0.05830982 -0.17678149 0.25923035 -0.2796566 -0.6519906
0 -0.36222443 -0.03585514 -0.58185893 -0.63455164 0.11348658 -0.016879117 -0.23842274 0.47060215 -0.33042908 -0.49209753
3 -0.40602097 -0.01906601 -0.53447676 -0.58610743 0.1357465 0.058684554 -0.23829433 0.4332957 -0.27130097 -0.55519867
4 -0.33643076 0.010918119 -0.5444278 -0.6057801 0.11942183 0.018375954 -0.23318702 0.4114807 -0.28564596 -0.55582196
5 -0.40320456 -0.06975783 -0.3846551 -0.5597336 0.040901024 0.08089739 -0.21614015 0.31769234 -0.31708908 -0.66165626
6 -0.4394789 -0.071664445 -0.44566002 -0.48948655 0.09790822 0.06562613 -0.15833107 0.3569723 -0.33903453 -0.6596561
