6 10
1 0.3565673 0.5750258 0.35252982 -0.040712643 -0.10843668 0.16822028 -0.7689839 0.3041386 -0.081352256 0.47123033
4 0.2988203 0.59024066 0.31665352 -0.07250485 -0.1429484 0.17412384 -0.7522635 0.31559303 -0.051384363 0.41395956
3 0.33451933 0.5731546 0.31633645 -0.005092837 -0.08844714 0.2224634 -0.71815854 0.30004638 -0.030143285 0.41957054
5 0.33247322 0.5445543 0.33059418 0.0065560485 -0.12818599 0.22135578 -0.6804837 0.29724112 -0.036127828 0.4113475
0 0.27104762 0.5572732 0.27333552 -0.041207112 -0.15089627 0.1899658 -0.75496423 0.29283744 -0.042989958 0.41458938
2 0.285105 0.52845466 0.2888681 0.0145868305 -0.15639763 0.1653764 -0.73986536 0.23075785 -0.018406177 0.44748738
