6 10
1 0.39000157 -0.027267883 0.3568869 0.33782566 0.81299305 -0.079025656 -0.05125212 -0.41471997 0.40752852 0.17115776
2 0.35365686 -0.08384229 0.29198736 0.41801888 0.82313174 -0.037239246 -0.108978644 -0.42796856 0.4011481 0.20425117
0 0.41160786 -0.11022913 0.2965715 0.398147 0.77607936 -0.051443245 -0.09711802 -0.4686328 0.3481687 0.18133314
5 0.31851608 -0.018935053 0.3736895 0.3723169 0.77718663 -0.006846495 -0.086507216 -0.44287667 0.3183588 0.19442151
4 0.37987548 -0.093443185 0.37912363 0.356179 0.7860615 0.017204445 -0.034045413 -0.37767726 0.40769422 0.16975717
3 0.38156086 -0.013501922 0.3794789 0.37189147 0.77392924 -0.07680154 -0.124075525 -0.4381711 0.32300007 0.2364251
