7 10
5 -0.30620396 -0.8377146 -0.5413386 1.5849507 -1.706922 0.5619566 -0.5630557 1.003642 -0.24734035 0.18856232
6 -0.24873474 -0.76548755 -0.47562507 1.5410045 -1.6811721 0.49151543 -0.541816 0.98305225 -0.25712606 0.1257415
1 -0.28769517 -0.24116655 -0.119068116 -0.0142963985 0.67769027 -0.7238536 -1.1900847 0.5292413 0.412872 -0.75825334
2 -0.27943158 -0.17031613 -0.12939562 -0.07724038 0.6213486 -0.7199666 -1.1896282 0.58418584 0.460262 -0.75395864
0 -0.21921127 -0.24049081 -0.1409037 -0.01709048 0.6126351 -0.6536505 -1.1511883 0.5633784 0.43065172 -0.7484751
3 -0.20292884 -0.19698006 -0.12380425 -0.05559673 0.64040416 -0.6599701 -1.1397054 0.59390754 0.47471815 -0.7277421
4 -0.20152183 -0.17540878 -0.14525715 -0.029474782 0.62687004 -0.60649174 -1.1312228 0.55361927 0.45389906 -0.7551392
