7 10
1 0.096044086 -0.42748135 0.7917901 -0.40121213 0.48732093 0.174618 0.33111122 -0.11201753 -0.12514251 0.31046945
5 0.17879783 -0.41346782 0.7498021 -0.43237707 0.46055448 0.24340583 0.40931928 -0.109437436 -0.14725454 0.3272726
4 0.16103244 -0.4026196 0.7619009 -0.38527608 0.40928203 0.22404298 0.35101843 -0.036817413 -0.14764991 0.30887157
0 0.09698771 -0.3686535 0.7392485 -0.4203628 0.49238685 0.20931472 0.38003176 -0.049389243 -0.1582415 0.27187434
3 0.13546649 -0.36503905 0.807306 -0.44244316 0.42218828 0.13530378 0.31112283 -0.0604342 -0.17471437 0.3614098
2 0.1353905 -0.31982255 0.75874996 -0.3114099 0.45390776 0.18568313 0.3159246 -0.05370837 -0.13256414 0.3425644
6 0.06368167 -0.37183768 0.7650274 -0.3953448 0.3802842 0.105402194 0.33728948 -0.009116897 -0.12816595 0.33261073
