7 10
0 -0.30132362 0.5834969 0.34563074 0.15153664 0.41543564 -0.50402033 -0.118514225 0.54982024 0.2853589 -0.044499192
1 -0.34416693 0.5510766 0.2945324 0.17322344 0.46242052 -0.5067213 -0.11712767 0.5581613 0.27174532 -0.013601377
2 -0.32133222 0.56680053 0.3174687 0.16913866 0.4267806 -0.52772635 -0.027670473 0.52078474 0.24914367 0.0365945
3 -0.2790105 0.620063 0.3337526 0.18320973 0.39503267 -0.52768487 -0.06858915 0.508645 0.19893236 0.006585766
4 -0.30575466 0.6180757 0.28396258 0.12001755 0.4645276 -0.5369576 -0.04382074 0.54980636 0.23657043 -0.0018454436
5 -0.28961775 0.5935965 0.28530386 0.21237028 0.43270266 -0.50729966 -0.09857003 0.49181893 0.23429096 0.039606
6 -0.30238408 0.58066505 0.2745724 0.18759036 0.43835688 -0.52539533 -0.034259267 0.5512535 0.20492102 -0.023504423
