7 10
0 -0.58342594 0.1669383 0.52064854 0.31988376 -0.24033652 0.19730848 -0.6851532 0.104614675 -0.43473092 0.20498785
3 -0.5460011 0.25249565 0.49984407 0.29071108 -0.3111109 0.1962085 -0.6937497 0.08647534 -0.40859085 0.17726211
2 -0.54207987 0.18950331 0.5208149 0.33272657 -0.26104254 0.09483099 -0.6282763 0.029651213 -0.43239802 0.14746308
5 -0.5215214 0.24783409 0.51159483 0.29145285 -0.20250262 0.16561048 -0.64454454 0.051641777 -0.44668502 0.16532354
1 -0.5477527 0.2295196 0.5365815 0.30354822 -0.2837738 0.16690175 -0.62151545 0.07731083 -0.41741404 0.1548556
4 -0.546275 0.1626443 0.43324056 0.28128165 -0.2731917 0.12729253 -0.6196413 0.021526083 -0.4032125 0.20302229
6 -0.50814515 0.21449637 0.54042083 0.28926757 -0.24624434 0.18272492 -0.6129929 0.058290187 -0.38050696 0.14982665
