7 10
0 -0.2876082 0.014694797 -0.343325 0.36605966 -0.8892976 0.12735793 0.15089989 -0.061190777 0.44600183 0.15082192
1 -0.1022307 0.09474152 -0.24851693 0.43690336 -0.938409 0.17079653 0.22619855 -0.042047776 0.34514657 0.03912799
4 -0.1555031 0.07813337 -0.3222464 0.40421534 -0.90292007 0.19899195 0.18626088 -0.058511857 0.41921127 0.050180085
3 -0.24031392 0.04956756 -0.30963445 0.45789087 -0.93162876 0.20857015 0.12512979 -0.00013635185 0.34284917 0.13055572
2 -0.20845738 0.07827424 -0.29783574 0.37918964 -0.89628434 0.1284935 0.21175395 -0.08625514 0.44144133 0.0955713
6 -0.3145563 -0.01325009 -0.3096765 0.4437987 -0.89383507 0.12745766 0.085542545 0.026574433 0.46023664 0.2107812
5 -0.23487706 0.04545319 -0.35016906 0.44496796 -0.8340024 0.13164075 0.090040304 -0.039301317 0.39780205 0.1312898
