7 10
6 0.32640362 -0.5608962 0.024501253 -0.294249 -0.3596078 0.42066962 -0.28032053 -0.675015 -0.19376397 0.21111032
3 0.24591054 -0.6159347 0.03638999 -0.32435134 -0.29967028 0.41574854 -0.35769084 -0.6410248 -0.19583005 0.12524061
4 0.26529434 -0.5942187 0.05492695 -0.32485077 -0.32169726 0.37427583 -0.33000934 -0.66715884 -0.20864844 0.1941416
5 0.34089962 -0.5725557 0.06117702 -0.25151002 -0.33162355 0.36309657 -0.30363253 -0.64449054 -0.20427966 0.22462533
0 0.33514258 -0.6138509 0.020707848 -0.340418 -0.30732694 0.37367183 -0.34257138 -0.586435 -0.16864364 0.15654968
2 0.31573963 -0.6341946 -0.019732349 -0.30732757 -0.30295599 0.41400337 -0.31427228 -0.6626073 -0.21848536 0.18460466
1 0.30049556 -0.6451341 0.037505098 -0.3331149 -0.31334448 0.36329985 -0.34103215 -0.6099729 -0.23198411 0.118872836
