7 10
2 0.22269748 0.27339688 0.6824315 -0.7151659 0.1907514 0.3289525 0.032806505 -0.30590957 0.17052081 -0.1133221
0 0.15563384 0.40970322 0.6220559 -0.7788042 0.12762249 0.34312984 0.15006337 -0.25849444 0.112698585 -0.13387309
1 0.23385182 0.3399752 0.61297697 -0.75731254 0.22638245 0.30409002 0.040214453 -0.30263495 0.0750881 -0.14855571
4 0.16012648 0.3863403 0.6261597 -0.80494094 0.22702764 0.29059678 0.11118704 -0.30261323 0.09848112 -0.13049267
6 0.17241885 0.3752585 0.6491136 -0.7468686 0.23999016 0.2886149 0.021547804 -0.3012542 0.13845123 -0.17830741
5 0.17237915 0.32192603 0.6443351 -0.7144116 0.21744649 0.2810923 0.02651713 -0.30028173 0.1462457 -0.12591483
3 0.20119259 0.38081214 0.6496397 -0.74961317 0.13548175 0.26406527 0.108014904 -0.28440532 0.15555389 -0.08067459
