6 10
2 0.21917167 0.21106984 0.07474494 0.74658924 -0.15056239 -0.52274984 -0.009178814 0.5675148 -0.35947827 0.29855964
0 0.29912165 0.16629104 0.116019666 0.7556588 -0.17957513 -0.48057562 0.032641888 0.54124165 -0.41868696 0.26779228
5 0.20838772 0.18047541 0.1158759 0.71614367 -0.23154567 -0.5018794 -0.05718367 0.5303005 -0.41522008 0.22836863
1 0.25804463 0.1888695 0.09063009 0.700764 -0.21858354 -0.4950813 -0.045659095 0.51215667 -0.36543876 0.26954466
3 0.28400707 0.20856701 0.039763343 0.7014285 -0.19425473 -0.49954015 -0.013229368 0.50349694 -0.33878928 0.27536225
4 0.28541163 0.13719615 0.03700223 0.69365656 -0.22713462 -0.52037776 0.016092438 0.4680463 -0.37960652 0.27572185
