7 10
0 0.37309003 0.02634586 0.40680194 -0.2563448 -0.049423687 0.28578234 -0.15152049 0.6380547 0.10507307 -0.74361295
1 0.31952277 -0.009513983 0.44998404 -0.1658677 0.055743005 0.32785544 -0.06370461 0.63243026 0.14111294 -0.72895265
6 0.39801037 -0.039972518 0.3566477 -0.27366325 -0.0041237785 0.3053172 -0.12113677 0.63359267 0.04010444 -0.7090026
2 0.38430923 -0.036612753 0.39832535 -0.24788934 0.011239955 0.2265368 -0.08512626 0.62320286 0.08269927 -0.6936718
5 0.34837314 0.020444365 0.39343375 -0.2661006 -0.010827283 0.3126637 -0.13547145 0.6506834 0.10807231 -0.7253308
3 0.39056683 -0.008007461 0.43471164 -0.21272244 0.011136969 0.26023334 -0.11789138 0.6588843 0.104157515 -0.67569304
4 0.3725189 -0.04215494 0.45673573 -0.19221489 -0.058265023 0.303243 -0.15152758 0.6433712 0.09927495 -0.77896786
