5 10
1 0.40167543 -0.21727982 0.3892239 0.21090586 0.02907647 0.23924981 0.06614481 0.80610937 0.48933822 -0.15421365
4 0.41308329 -0.16916887 0.3981426 0.19463749 0.033773884 0.1707507 0.18044516 0.86716855 0.4493623 -0.15316296
3 0.4096071 -0.14659137 0.4350019 0.12660678 0.03917347 0.23456727 0.11924433 0.83863115 0.52754784 -0.13375339
2 0.35040745 -0.23751605 0.36353752 0.16052805 0.04368259 0.15016316 0.123822324 0.7970818 0.50251067 -0.11269495
0 0.4144576 -0.24003083 0.36999905 0.17735171 -0.019182112 0.21812111 0.14379446 0.8084731 0.44496292 -0.06653957
