7 10
6 -0.34837443 -0.21680373 -0.4140959 0.36988807 0.4661895 0.20401211 0.25609505 -0.13152403 0.305676 -0.707738
4 -0.41133428 -0.14862368 -0.44915444 0.32748428 0.46149412 0.15309851 0.303966 -0.16603327 0.27610728 -0.716516
5 -0.3400899 -0.15375918 -0.4647817 0.3012312 0.4452053 0.13855353 0.2546422 -0.1281892 0.33917198 -0.7232788
3 -0.34259093 -0.1763606 -0.45436022 0.30937532 0.44070238 0.17828107 0.28109542 -0.15972242 0.3369469 -0.6895043
1 -0.39075467 -0.24269724 -0.42414176 0.3024304 0.37303174 0.10484114 0.25603285 -0.20608109 0.36095428 -0.6862707
2 -0.36939698 -0.19379736 -0.44894403 0.32323506 0.41560352 0.17216884 0.31487894 -0.20746878 0.313027 -0.6861937
0 -0.34271818 -0.24317892 -0.46589708 0.33891845 0.3795552 0.19893394 0.27142093 -0.17969143 0.30582145 -0.72155637
