7 10
1 -0.5039331 -0.021895986 0.022234526 -0.26730567 -0.78476644 -0.023049692 -0.13249926 0.21143755 0.5419657 0.27313182
2 -0.49935102 -0.055013094 0.013565192 -0.27693847 -0.74232715 0.06352046 -0.15220745 0.29241753 0.5567295 0.21594386
0 -0.57171905 -0.09441354 0.04801504 -0.22700796 -0.76579124 0.011340112 -0.11545183 0.29105055 0.5972237 0.24117436
3 -0.45065486 -0.047739744 0.037872467 -0.20653526 -0.8020197 0.019944618 -0.19252534 0.21169564 0.57275385 0.25054485
5 -0.5080623 0.0031691415 0.019817287 -0.266927 -0.7760703 0.07530394 -0.0987767 0.2649884 0.5130862 0.23253487
4 -0.5255783 -0.059177402 0.0138099585 -0.2148739 -0.78426707 0.053817 -0.18468645 0.23688366 0.58276236 0.18725805
6 -0.4956946 -0.028210867 0.054667924 -0.29070625 -0.78274935 0.04109093 -0.15543085 0.21595521 0.5017655 0.22735551
