7 10
6 -0.0037664236 0.6709035 -0.29223883 -0.44788328 -0.109557696 0.51605254 0.20952374 0.043667898 -0.34187114 -0.45946085
5 0.007828308 0.62628955 -0.25665638 -0.51746356 -0.1375975 0.5381236 0.2169802 0.113934614 -0.3066752 -0.3603573
4 -0.007646455 0.694075 -0.23938853 -0.50420153 -0.11871172 0.5316527 0.20213819 0.11012032 -0.32376742 -0.43166864
2 0.010481951 0.68043 -0.20248462 -0.54752904 -0.0674138 0.4876353 0.28238222 0.12786287 -0.26475328 -0.38561
3 0.016813807 0.6602654 -0.17609252 -0.5147197 -0.07489115 0.47716668 0.2845401 0.1242401 -0.2830688 -0.44621572
1 -0.016578779 0.6817865 -0.1957061 -0.5297982 -0.10332024 0.48931196 0.29397705 0.03892729 -0.26159012 -0.41397116
0 -0.03623573 0.67457414 -0.27467588 -0.5022745 -0.08102969 0.49157345 0.24694227 0.073702045 -0.32764995 -0.3915153
