7 10
6 -0.5782948 0.6983127 0.3554338 0.34111303 0.09741357 -0.17954537 0.1610201 -0.4046295 -0.27701312 0.34637862
5 -0.5786185 0.67107236 0.39878157 0.34558833 0.108173974 -0.23236895 0.16016819 -0.33242953 -0.23473603 0.31065124
4 -0.54605705 0.7023384 0.37219265 0.35518092 0.111614525 -0.17116581 0.1422125 -0.39246628 -0.20538966 0.34895384
2 -0.5559927 0.6253437 0.42334235 0.3770299 0.14283565 -0.2409126 0.090357415 -0.39965424 -0.22881013 0.32908314
3 -0.5404247 0.72331434 0.36280835 0.33800536 0.09924743 -0.18389732 0.15156743 -0.42855182 -0.24462147 0.390642
1 -0.55494416 0.6448415 0.3750889 0.2905982 0.07358051 -0.21980801 0.10611136 -0.40776554 -0.21619284 0.348394
0 -0.55686057 0.6524062 0.37472433 0.2933165 0.08659673 -0.19591366 0.06339376 -0.34454203 -0.23729533 0.37416634
