6 10
1 -0.04249491 0.107812546 -0.011826149 0.1393418 -0.49903718 0.18244305 0.78152126 0.125709 -0.62313443 -0.32221872
5 0.041583683 0.10723279 -0.10134665 0.13894825 -0.4613392 0.21133254 0.71811515 0.09192126 -0.66927665 -0.3298798
4 -0.0032385276 0.043704674 -0.034275517 0.09668013 -0.45815212 0.13907915 0.6876738 0.082173795 -0.69223315 -0.34533226
2 0.06628575 0.033072777 -0.041748624 0.044028908 -0.46524197 0.19451185 0.76874006 0.078904085 -0.6417672 -0.287255
3 0.01848229 0.09216435 -0.076506324 0.08278169 -0.47575784 0.17815655 0.7261507 0.060367297 -0.705132 -0.27588975
0 -0.01140395 0.015769891 -0.10530726 0.13815677 -0.42774928 0.16578346 0.71199894 0.08741061 -0.6767532 -0.26678577
