7 10
5 -0.62561524 0.4452613 -0.3945127 -0.48697117 0.024481833 0.13461651 0.40371946 -0.041281242 0.022443257 0.43703038
6 -0.63394207 0.420613 -0.4511942 -0.51933557 0.07700374 0.20070992 0.4032972 -0.07836726 0.067542925 0.4674643
4 -0.6602079 0.4452803 -0.4185568 -0.46481556 0.071806535 0.17049067 0.39077434 -0.10017118 0.029496983 0.41310865
3 -0.6519023 0.40439847 -0.4031518 -0.50732934 0.019373698 0.2348274 0.33970693 -0.10262983 -0.0072302828 0.49952126
1 -0.6042077 0.40830308 -0.36907774 -0.49039474 0.002237734 0.20535924 0.3398842 -0.09394434 0.0033437905 0.44988778
2 -0.61763316 0.3928888 -0.4470234 -0.49801672 0.03156382 0.21963932 0.37450114 -0.11726611 -0.010158386 0.48200452
0 -0.6737649 0.4161512 -0.39857784 -0.5509616 0.07669474 0.1654358 0.36887407 -0.11601625 0.03964901 0.42586377
