7 10
1 0.21440783 0.17708021 -0.12037153 0.30744863 -0.058642928 -0.09842134 -0.3691421 -0.29113328 -0.9550119 -0.28013447
0 0.24711753 0.24660912 -0.1338379 0.30388215 -0.028126827 -0.08875127 -0.3879853 -0.28449664 -0.94769466 -0.32076633
4 0.16613457 0.2548441 -0.08235275 0.2639434 -0.039224632 -0.05031055 -0.3962023 -0.27408403 -0.9276047 -0.28966522
3 0.28127816 0.24164021 -0.060474973 0.3018754 -0.013722575 -0.062044058 -0.38148987 -0.25372848 -0.95014745 -0.31532994
2 0.22896697 0.24676731 -0.11144499 0.24541903 -0.045433067 -0.08214698 -0.3982865 -0.16928397 -0.8801938 -0.29428482
6 0.23569283 0.24306881 -0.11460297 0.31756932 -0.041776482 -0.11961674 -0.435674 -0.20583643 -0.9073584 -0.2982808
5 0.2414899 0.18643051 -0.09994756 0.25151062 0.022099003 -0.03655331 -0.42187774 -0.29245922 -0.9378387 -0.33218873
