7 10
1 0.558555 0.07510713 0.36375573 -0.5512415 -0.42868015 -0.61693907 0.27571058 -0.28100562 -0.27742624 -0.009787909
4 0.53779846 0.081657656 0.4175292 -0.42219594 -0.39817986 -0.56455463 0.3084369 -0.2026889 -0.3167968 -0.03211416
2 0.56785107 0.1286076 0.40325502 -0.49406943 -0.34347323 -0.5672397 0.28629825 -0.17897338 -0.2798279 0.03157993
6 0.5284796 0.07617436 0.46352255 -0.48963723 -0.3481835 -0.5634001 0.22912572 -0.26076984 -0.29200226 -0.0054345136
0 0.5733092 0.061830476 0.36952883 -0.50692594 -0.3548318 -0.4948454 0.3004576 -0.23198919 -0.29674003 0.0068496973
3 0.5499541 0.1325388 0.3955971 -0.4765605 -0.3804495 -0.5359392 0.27378586 -0.26865795 -0.3203068 -0.027788026
5 0.54243505 0.066082105 0.378219 -0.46563178 -0.3956563 -0.5411346 0.30217004 -0.25192782 -0.2798082 0.038579263
