7 10
0 0.12491228 -0.40723583 0.6401305 0.25059858 -0.008077172 0.17597073 -0.054288674 -0.7291446 0.3690062 -0.043320235
2 0.13916011 -0.38030422 0.6822192 0.2709669 -0.105493106 0.08922692 0.028897433 -0.7238303 0.4168455 -0.13914071
4 0.068124644 -0.32625705 0.68421996 0.2506282 -0.07141951 0.02987143 0.04430195 -0.7194609 0.37546438 -0.15824468
5 0.047981463 -0.42413363 0.6111331 0.19795938 -0.03554197 0.087177075 -0.034786627 -0.7508455 0.43105766 -0.03833366
3 0.12615484 -0.43628448 0.6737756 0.2539198 -0.09807133 0.10417409 -0.02276385 -0.7049309 0.43515426 -0.12224128
1 0.021802714 -0.392635 0.6128767 0.22711402 -0.08676089 0.09062078 -0.03578467 -0.75381666 0.37966514 -0.08916533
6 0.057155132 -0.43254325 0.5669733 0.21245302 -0.009923554 0.17387426 0.016008846 -0.7302166 0.37325203 -0.047807682
