7 10
1 0.12962043 -0.51373553 -0.24364148 0.2662186 -0.8698441 -0.05722987 0.26551837 0.014019834 -0.11501029 0.39869347
5 0.1480267 -0.5119579 -0.29874685 0.24190249 -0.85620177 -0.017645497 0.18328473 -0.017438885 -0.18545857 0.38323876
3 0.072974734 -0.5050799 -0.30073208 0.23630974 -0.90458757 0.046006676 0.24210429 0.022978168 -0.15429206 0.37447166
2 0.0957597 -0.5419359 -0.24642095 0.3126179 -0.87687486 0.02968375 0.22586368 0.019622616 -0.1988071 0.38829523
0 0.12235104 -0.5069736 -0.30451444 0.2373929 -0.8532576 0.007242054 0.2314041 -0.025370903 -0.110567756 0.38637283
4 0.12306672 -0.55191094 -0.2547255 0.2985351 -0.87973624 0.008314284 0.22768609 0.025935913 -0.17631193 0.36167502
6 0.11051168 -0.44597393 -0.30143595 0.27583072 -0.8842446 -0.039099704 0.25636035 0.043820452 -0.16027462 0.3404727
