7 10
4 -0.13376409 0.16888617 0.1799844 -0.24154443 -0.68316585 -0.7203295 0.42308676 -0.24664478 -0.17999908 0.29309702
5 -0.10127947 0.16972987 0.20534195 -0.25266093 -0.5579072 -0.72708964 0.41807196 -0.2624293 -0.23037647 0.31640476
6 -0.14033459 0.20241141 0.24156207 -0.2404392 -0.5589493 -0.72336304 0.37808326 -0.24177131 -0.14293496 0.25537166
1 -0.09234183 0.18448137 0.1666759 -0.2126814 -0.61894614 -0.7094969 0.35133144 -0.271641 -0.15534532 0.33470315
2 -0.09721752 0.16068241 0.22625118 -0.22121578 -0.6317479 -0.72390485 0.44011277 -0.23435086 -0.24156176 0.35423684
3 -0.12556225 0.13088335 0.24852401 -0.28682464 -0.62085974 -0.7146207 0.37146837 -0.29577056 -0.16654733 0.26937628
0 -0.16168809 0.20563877 0.1774957 -0.27150437 -0.6322607 -0.7252045 0.42403087 -0.23612623 -0.22697179 0.3266241
