7 10
4 0.20645785 0.090366006 0.27318758 0.06457029 -0.60167 0.2817014 -0.3277285 0.432361 0.46277 0.60256475
5 0.18231854 0.14324215 0.21045712 0.02351686 -0.61887556 0.23634334 -0.26240626 0.42296734 0.53014714 0.58773345
6 0.1756194 0.13631661 0.2768387 0.10595775 -0.5839976 0.20068254 -0.2533499 0.40588275 0.511962 0.62496084
3 0.22671004 0.14666976 0.30248147 0.073218286 -0.5656217 0.26314834 -0.29100594 0.38440785 0.5155884 0.57267165
2 0.17340207 0.10982145 0.26376274 0.0893519 -0.5606383 0.24347773 -0.32844013 0.39348367 0.5296035 0.6132472
1 0.14187126 0.10155221 0.2827025 0.03387265 -0.56006855 0.29338983 -0.3238648 0.43524128 0.46647087 0.58330005
0 0.12603568 0.16875951 0.2449628 0.07494138 -0.5696045 0.2857394 -0.3157072 0.3545454 0.52223223 0.59298086
