7 10
5 -0.31672674 0.014993333 0.3823059 -0.21536595 -0.33650735 -0.41229075 -0.79446447 -0.0650431 -0.39657515 0.055645198
4 -0.28901693 0.017018048 0.3682988 -0.27670252 -0.36536247 -0.48200515 -0.7960726 -0.14953008 -0.3806099 -0.016888978
3 -0.33708516 0.0429895 0.42175168 -0.20289767 -0.33987802 -0.450528 -0.7996352 -0.12821478 -0.34484112 0.039685316
6 -0.32470736 -0.007201404 0.41106284 -0.18943246 -0.31144065 -0.38295066 -0.7512046 -0.059784655 -0.38256878 0.05060959
1 -0.27133378 0.05770145 0.40577027 -0.24361844 -0.29434693 -0.43490195 -0.7597203 -0.12854716 -0.35382003 -0.027922276
0 -0.29866257 -0.007001667 0.4198286 -0.24192646 -0.33022794 -0.43582594 -0.7858107 -0.09651748 -0.38775155 -0.022166044
2 -0.26853362 0.034292065 0.39237395 -0.25246418 -0.3220515 -0.43573838 -0.7954142 -0.13569576 -0.37349 0.026370542
