2 10
3 0.055970058 0.068864614 0.015601976 0.013027249 0.041999534 0.026053594 -0.02795525 0.024420062 0.050155 -0.011250907
4 0.020799996 0.08844908 -0.07155263 0.0860586 0.09674898 -0.016704038 0.009763602 0.019068422 0.009095523 -0.027907893
