4 10
3 -0.039654654 -0.50743544 0.26474383 -0.44444752 -0.54996634 -0.15633766 0.35286674 0.704691 0.08845161 0.41724962
1 -0.0061840196 -0.44992033 0.21099666 -0.433056 -0.4808105 -0.17499986 0.34075752 0.6091755 0.06607174 0.38166374
2 -0.025057802 -0.40480867 0.175172 -0.37489542 -0.41946498 -0.15112713 0.3714205 0.5668059 0.035183754 0.31989834
4 0.029604726 -0.28437504 0.14505681 -0.30620044 -0.3819961 -0.12063593 0.2789458 0.48368704 0.036301404 0.28327537
