7 10
3 -0.5265434 -0.07893882 -0.35063034 -0.052247003 -0.1179597 -0.49860778 0.18637082 0.26787105 -0.1122449 -0.75700206
2 -0.54546785 -0.14168733 -0.36199299 -0.040506113 -0.10232589 -0.4704444 0.121773735 0.29206488 -0.15597126 -0.74205005
0 -0.54803646 -0.06367915 -0.32229814 -0.079492986 -0.06333723 -0.5510846 0.09462793 0.25939214 -0.14105083 -0.7609956
1 -0.51419663 -0.12052452 -0.3925119 -0.053504623 -0.07588181 -0.529526 0.17792858 0.20175755 -0.07651998 -0.80850536
4 -0.5228531 -0.08432018 -0.30887318 -0.011554809 -0.092042945 -0.47687674 0.17204243 0.24272221 -0.1005511 -0.80270916
5 -0.51643336 -0.09531102 -0.29177606 -0.0320479 -0.120658234 -0.5253347 0.19835283 0.23984945 -0.07204743 -0.7966915
6 -0.5217278 -0.11386722 -0.34959254 -0.021708593 -0.058999274 -0.50091726 0.18519522 0.22083122 -0.073136754 -0.77366185
