7 10
5 -0.50760376 0.40840426 0.13731968 -0.38461939 0.21902323 -0.13730988 -0.23949899 0.6131257 0.4605204 0.3492849
6 -0.48453066 0.40303084 0.18333496 -0.39189154 0.2625661 -0.17768002 -0.21399394 0.61628425 0.4959847 0.3912489
3 -0.5077514 0.37713644 0.1844865 -0.32557556 0.20288272 -0.16404037 -0.21992207 0.603421 0.45464724 0.3929466
2 -0.48967785 0.4180773 0.2009404 -0.3157319 0.22407353 -0.15657413 -0.26833275 0.6301468 0.4508027 0.40027592
4 -0.49817368 0.4298066 0.20605956 -0.3483549 0.26032454 -0.21257475 -0.20447546 0.62193877 0.4460883 0.3144852
1 -0.52992535 0.43572682 0.1638976 -0.32285234 0.20532633 -0.21142882 -0.19558783 0.60876507 0.45426753 0.37414256
0 -0.5155634 0.43878844 0.1915309 -0.38765147 0.2120073 -0.20168823 -0.18055774 0.63435674 0.46431074 0.36712962
