7 10
2 -0.19972746 -0.4475954 -0.16216312 -0.042642184 -0.23653919 -0.5053826 0.15762585 0.78215325 -0.28338918 -0.35925463
3 -0.2072729 -0.45982236 -0.23317403 -0.050190464 -0.27418092 -0.4635833 0.1261438 0.7993057 -0.28175294 -0.3008339
1 -0.20656928 -0.5023645 -0.18632606 0.04453677 -0.28389955 -0.45623532 0.13736463 0.7399889 -0.32560712 -0.3771218
0 -0.21314277 -0.42416131 -0.22585222 -0.033278763 -0.2727261 -0.40892467 0.05678307 0.7751988 -0.33051315 -0.32012475
5 -0.16364616 -0.48661992 -0.1505195 -0.023400811 -0.21109812 -0.48459804 0.09043147 0.77357435 -0.3409517 -0.33437982
4 -0.13598613 -0.44376045 -0.20445257 -0.08126874 -0.25347772 -0.43433306 0.08881457 0.77622384 -0.31857896 -0.288604
6 -0.20384315 -0.47940493 -0.1776852 0.01277203 -0.2707795 -0.42725542 0.06965958 0.74497265 -0.31977886 -0.33475325
