5 10
0 -0.039554365 -0.07657278 -0.21139845 0.16309717 0.43512967 -0.303971 -0.46258354 0.53851634 0.12678137 -0.66049737
3 0.020521872 -0.09532016 -0.22320367 0.12205696 0.4771114 -0.33947492 -0.4682272 0.56834966 0.24243559 -0.6891379
1 -0.016812967 -0.14959459 -0.23974296 0.17603683 0.41069093 -0.29537344 -0.4077266 0.5418368 0.19792794 -0.66407937
2 0.039936524 -0.10937182 -0.25058666 0.11549383 0.4120576 -0.30398092 -0.43598574 0.52779245 0.20626932 -0.6344532
4 0.05090313 -0.15856293 -0.2326595 0.07762702 0.39478838 -0.26628768 -0.47369304 0.52131116 0.23158844 -0.6774452
