7 10
6 -0.04351385 -0.11805154 0.34441245 0.93108404 -0.269363 -0.13876666 -0.49387816 0.30335447 -0.16703998 -0.17543848
1 -0.027660625 -0.09146303 0.33587158 0.9102211 -0.2782956 -0.098688096 -0.4920001 0.28941926 -0.13079457 -0.22266585
5 -0.030458199 -0.12688613 0.36823806 0.9504845 -0.21201624 -0.16047315 -0.48181155 0.26102647 -0.21441866 -0.26053953
2 -0.0229616 -0.10692983 0.35809633 0.89101213 -0.20704274 -0.17232388 -0.4457509 0.30353242 -0.18206005 -0.2420726
0 -0.085893124 -0.14196774 0.36495167 0.844312 -0.21247332 -0.18796678 -0.5068559 0.22133805 -0.18254092 -0.24050148
4 -0.064733565 -0.113967106 0.34949642 0.91744566 -0.2726447 -0.15982318 -0.4846979 0.24738084 -0.12048704 -0.171911
3 -0.037010055 -0.10910089 0.37654912 0.8753363 -0.22609286 -0.105733104 -0.4593959 0.27426377 -0.21146306 -0.21155396
