7 10
5 0.21478617 0.32819563 0.04707301 -0.21602692 -0.450474 -0.03547203 -0.0059715896 0.4312923 -0.8307808 0.3727746
6 0.19402687 0.3911647 -0.0006914771 -0.27791643 -0.44354424 -0.04147837 0.022070745 0.43744195 -0.797056 0.37693408
2 0.14509596 0.316489 0.04239625 -0.25158188 -0.4263856 -0.05982615 -0.06844875 0.41928598 -0.82742435 0.32613233
4 0.14027846 0.39628205 0.027380586 -0.19668935 -0.47828355 -0.086398385 -0.008430309 0.39307323 -0.82486296 0.36094546
3 0.21595024 0.36439812 0.07365313 -0.2034046 -0.49485272 -0.052288875 -0.050044544 0.47997373 -0.8039753 0.3381801
1 0.22347762 0.35751542 0.01488361 -0.23772028 -0.45914304 -0.06905252 -0.027333148 0.37844056 -0.7982378 0.33202317
0 0.170667 0.35190147 -0.017698802 -0.25602552 -0.45280808 -0.030644694 -0.034112267 0.4332431 -0.7465121 0.2769633
