7 10
4 0.536425 0.20103712 -0.463083 0.1919996 -0.29327974 0.51717085 -0.32720986 -0.19519222 0.32880148 -0.47673827
3 0.48841995 0.1114688 -0.44378325 0.14303848 -0.32214028 0.5557611 -0.29138356 -0.18050711 0.3692318 -0.45895484
1 0.46089074 0.1602367 -0.4075954 0.17444119 -0.32849762 0.5705992 -0.29001203 -0.19535874 0.3117461 -0.46569586
2 0.47494155 0.18065496 -0.34462056 0.15913248 -0.29327685 0.5599479 -0.3055214 -0.22306417 0.38759595 -0.50348663
6 0.5117655 0.2182823 -0.33640078 0.15102516 -0.27640307 0.5654495 -0.3049281 -0.2528563 0.3874168 -0.54174626
5 0.47322494 0.13162708 -0.36274898 0.13568173 -0.32585913 0.5864677 -0.26100817 -0.16376555 0.3775918 -0.5175793
0 0.48856136 0.16936523 -0.42525646 0.11780651 -0.24611248 0.55497235 -0.3116871 -0.22375256 0.37686458 -0.4832419
