7 10
0 0.30759025 0.7212642 -0.5417174 0.0083634835 0.01189265 0.06762984 0.4714462 0.29012665 0.3914866 0.20666286
3 0.30672264 0.76906717 -0.52433187 -0.0133218765 0.01748138 0.06326833 0.51522756 0.24294065 0.390292 0.17300586
5 0.22850226 0.74209934 -0.5547449 0.042501356 0.004663357 0.121937625 0.43041348 0.2967218 0.37358785 0.15129879
2 0.2603058 0.7277947 -0.5479658 0.02103968 0.0071973302 0.04370918 0.5189184 0.280529 0.36241385 0.16826227
1 0.26765922 0.7531948 -0.5814681 0.030305905 -0.03033713 0.13160585 0.49710461 0.23839153 0.33686554 0.23171455
4 0.2852241 0.709101 -0.5314551 0.07298472 0.00052328606 0.077347815 0.47225156 0.18892482 0.35933122 0.18704703
6 0.22615957 0.7238116 -0.5532016 0.077052005 -0.027338127 0.100279175 0.53561795 0.3125717 0.41921133 0.17132407
