6 10
5 0.013932781 -0.5483554 -0.08470788 0.3866539 0.20874499 0.09187826 0.056583647 0.89857537 0.29859224 0.12370759
2 0.036586843 -0.5217475 -0.05160924 0.35765693 0.19487351 0.08571446 0.09415369 0.8930317 0.29978207 0.083686806
3 0.0028586884 -0.50081605 -0.04791092 0.36348948 0.1544301 0.15485753 0.08740184 0.8582601 0.2943307 0.12921171
0 -0.028965384 -0.5691326 -0.11734766 0.3212395 0.22497441 0.12902261 0.028567176 0.86635554 0.3170757 0.15842313
4 0.07336384 -0.56527746 -0.086689584 0.30230877 0.15411381 0.113823704 0.104181536 0.87630194 0.30304122 0.15689147
1 0.012141423 -0.5674083 -0.06000711 0.3747836 0.16699126 0.13689764 0.028259113 0.8643257 0.2744011 0.099367
