5 10
1 0.058646455 0.22676264 0.5756238 0.74291867 -0.42817694 0.098839 -0.033791807 -0.17041354 -0.30935535 -0.31218812
2 0.036105584 0.20228085 0.51467985 0.75715864 -0.4609099 0.10313788 -0.06955492 -0.23405278 -0.26755694 -0.2911651
4 -0.0046835956 0.18630448 0.57106364 0.74107474 -0.4799404 0.119281106 -0.10809584 -0.198748 -0.2831773 -0.2348213
3 0.056727502 0.12713295 0.55801725 0.727765 -0.42670795 0.06095849 -0.09874551 -0.18757215 -0.24060571 -0.31013903
0 0.011707113 0.13327195 0.5034031 0.6876119 -0.44666862 0.103111066 -0.073236175 -0.21652868 -0.21642412 -0.30537027
