7 10
3 0.30680466 0.3058138 0.6063384 -0.5350822 0.011579533 -0.20757346 -0.534785 0.4704997 0.27960837 0.07264259
4 0.29012564 0.31248894 0.62814355 -0.47881314 0.009022095 -0.15440702 -0.5288806 0.4981567 0.2536935 0.022580277
2 0.2738827 0.266739 0.6656307 -0.5016761 0.0812377 -0.17150058 -0.5290383 0.49924394 0.2711929 0.0006491274
6 0.24054757 0.32736582 0.6339781 -0.51326275 0.03201249 -0.12978487 -0.5110821 0.45599186 0.29622027 0.03688936
5 0.2823862 0.29404706 0.6287343 -0.51932096 0.033709224 -0.19768135 -0.5030119 0.5007353 0.30082822 0.015047806
1 0.29360962 0.29281688 0.65416867 -0.47097474 0.06257872 -0.20559719 -0.5300348 0.4433861 0.23657013 0.072055176
0 0.26679394 0.28143823 0.63718253 -0.4634582 -0.019370513 -0.2151598 -0.43137458 0.5187215 0.28402498 0.01084869
