5 10
4 0.19600937 -0.06782584 0.3798456 -0.7171287 -0.31886002 0.12285273 0.5236415 0.23722862 0.48232308 -0.1802073
1 0.11993179 -0.073251866 0.40097106 -0.6963343 -0.265021 0.12108419 0.54764795 0.21781653 0.4774107 -0.15327683
0 0.17554104 -0.012662128 0.3745128 -0.73925203 -0.36399072 0.08411395 0.53955853 0.29824853 0.48188192 -0.112694964
2 0.19044903 -0.015222387 0.3727576 -0.69713205 -0.33829433 0.05062548 0.520885 0.2420144 0.46078345 -0.14445873
3 0.13822359 -0.10020745 0.3646353 -0.70190984 -0.34692654 0.02861463 0.5075396 0.28617704 0.4131597 -0.17571068
