7 10
0 -0.011710353 0.14627467 0.2068729 -0.20024955 -0.16608937 0.40792832 -0.4082527 -0.5786211 0.13352619 -0.7546592
5 -0.04393596 0.14711055 0.16655415 -0.18096969 -0.199822 0.46126825 -0.37838212 -0.6256251 0.16435544 -0.81732535
2 -0.003710352 0.13815135 0.1576566 -0.13441892 -0.24857973 0.4600474 -0.46843702 -0.5795744 0.11520591 -0.7988676
4 -0.021291379 0.0812134 0.19459966 -0.13021687 -0.26699176 0.39272797 -0.41924652 -0.59442085 0.06475481 -0.7733536
1 0.034804236 0.05852707 0.21721585 -0.14477363 -0.25178957 0.4628875 -0.34108317 -0.560452 0.05821471 -0.80827916
6 -0.030216986 0.106654614 0.20033455 -0.19659974 -0.22738121 0.43174058 -0.39048776 -0.5749244 0.074800625 -0.7183136
3 -0.029932424 0.071839795 0.19310574 -0.1731994 -0.24428861 0.4310729 -0.47210324 -0.6001602 0.14655115 -0.74806505
