7 10
1 -0.46923888 -0.050251614 0.39303514 0.26847282 0.20458014 0.5249073 0.36382604 0.5260167 0.1625144 0.45939142
0 -0.462778 -0.09614656 0.40765604 0.35170814 0.1737577 0.53061223 0.34662852 0.49113366 0.11606306 0.43983632
2 -0.46886274 -0.04808506 0.40585965 0.3677893 0.19035392 0.48761463 0.39301935 0.5354119 0.0858789 0.40265715
4 -0.5324921 -0.11490353 0.38857904 0.31142604 0.21318671 0.4648613 0.36969298 0.4699524 0.08721234 0.49688405
3 -0.49269316 -0.05728056 0.40394625 0.34526363 0.1911756 0.48858935 0.35887417 0.471005 0.11996765 0.45301372
5 -0.48578772 -0.11033751 0.34575403 0.3300313 0.1783523 0.5107594 0.28807065 0.5283606 0.13050468 0.39778292
6 -0.4428692 -0.049493447 0.3685615 0.34232792 0.17758286 0.49941146 0.34136987 0.53383195 0.14529276 0.45352808
