6 10
1 0.14920995 0.25436273 -0.44743162 0.17612177 -0.2876094 0.06646753 0.53944623 -0.10298557 -0.25119555 -0.82823247
2 0.122872606 0.26877436 -0.4533395 0.1552252 -0.23082718 0.08036007 0.47339883 -0.10747214 -0.23528285 -0.8295574
3 0.14638563 0.25202906 -0.47333658 0.14093305 -0.2498405 0.08413748 0.5054602 -0.07574402 -0.22200713 -0.80146444
5 0.10490089 0.25615123 -0.44962093 0.17139393 -0.2278404 0.0301483 0.5257009 -0.096452385 -0.2575271 -0.8455065
4 0.13503522 0.2004808 -0.4582873 0.16969022 -0.26998743 0.021172507 0.46574697 -0.03699842 -0.28318772 -0.7866885
0 0.12937321 0.18864064 -0.4882496 0.14411514 -0.25394854 0.01010948 0.4480815 -0.051540606 -0.2831571 -0.8305496
