7 10
0 -0.40060323 -0.09174111 0.14381161 -0.69327736 0.5294217 0.4494213 -0.18745796 0.28992608 0.33453438 -0.20954943
2 -0.38003194 -0.11504814 0.19054472 -0.6473204 0.5189179 0.49952403 -0.19973072 0.28690714 0.31666666 -0.23570947
4 -0.44974607 -0.17010854 0.18669352 -0.62939525 0.46027067 0.47240245 -0.2831503 0.2993153 0.39271286 -0.26987103
5 -0.35301152 -0.14008021 0.18408725 -0.631484 0.44395187 0.48261058 -0.21306321 0.32083485 0.28930318 -0.17127256
1 -0.38286555 -0.1537249 0.15012199 -0.6073961 0.4681775 0.44025803 -0.23527028 0.31924057 0.3587408 -0.23461463
3 -0.43350592 -0.13008395 0.14895336 -0.65421575 0.4425358 0.49066845 -0.24178554 0.31637263 0.3288052 -0.19752072
6 -0.45905793 -0.112156466 0.1671754 -0.7027098 0.53113776 0.5187063 -0.24842706 0.22838448 0.34150094 -0.2252704
