5 10
4 0.15720873 0.2728949 -0.7681361 0.20028634 0.18263862 0.025725868 0.48774117 0.530379 0.36618084 -0.24406119
3 0.10608589 0.19845736 -0.7201649 0.18217236 0.10200113 0.10722368 0.45567712 0.50526875 0.3324379 -0.2298716
1 0.12597251 0.19685681 -0.71730274 0.21814172 0.13680619 0.05347302 0.5059307 0.5029451 0.3019026 -0.28195566
2 0.11204995 0.23092929 -0.75830644 0.14114 0.16861926 0.106721334 0.51750994 0.4617996 0.28857502 -0.24513395
0 0.12932806 0.15741518 -0.6645809 0.16385318 0.1523007 0.053928826 0.46514693 0.47850987 0.33387145 -0.2191084
