6 10
1 -0.045823745 0.41437182 -0.08518638 0.54515547 -0.10386143 -0.36763474 -0.7901356 -0.318043 -0.23663487 0.32290596
4 -0.039706945 0.43965015 -0.009955077 0.4946641 -0.12835798 -0.298177 -0.7455217 -0.24959937 -0.29324466 0.34782493
3 -0.017013907 0.44735658 -0.03326396 0.4943574 -0.083150916 -0.3095576 -0.7375362 -0.2920347 -0.21166146 0.3582666
5 0.019716028 0.45792645 -0.02117199 0.52881044 -0.11482448 -0.34309566 -0.78285927 -0.21875007 -0.2906432 0.30362833
2 -0.015949897 0.3872355 -0.07476979 0.49408594 -0.13873215 -0.24870308 -0.7513187 -0.25954112 -0.28969958 0.3179588
0 -0.03866564 0.45859808 -0.038624544 0.48182905 -0.05685069 -0.34201354 -0.75053746 -0.24191086 -0.27645743 0.3500605
