7 10
0 0.03644614 0.14112619 0.74537235 -0.3598116 0.06843556 0.38583577 -0.38744077 0.00034457652 0.21039766 0.5926008
1 0.007283664 0.13632582 0.77919483 -0.37977067 0.13404112 0.4701879 -0.32762438 0.0035497998 0.09674079 0.5180984
2 0.10744868 0.19251148 0.7689527 -0.3076924 0.035470277 0.43232065 -0.39831093 0.010326033 0.20803513 0.57516885
5 0.08878898 0.16732058 0.7193065 -0.36222425 0.07702163 0.4191756 -0.37449366 -0.028603306 0.110180795 0.4690181
4 0.03950526 0.18760417 0.7669446 -0.29254493 0.10494374 0.423517 -0.3730764 0.013900306 0.11196085 0.5794868
3 0.07430356 0.12402923 0.8111747 -0.3673607 0.101973385 0.4722116 -0.39550254 -0.020296073 0.17532459 0.5586681
6 0.01713519 0.14080974 0.7291586 -0.26799265 0.10247072 0.46574748 -0.3829343 -0.0058287666 0.20582807 0.48270974
