6 10
2 -0.26226464 0.57924545 -0.2805306 -0.50435036 -0.37634683 -0.40294665 -0.50696397 -0.00038276438 -0.030508257 0.3054971
3 -0.30528086 0.60656697 -0.34415358 -0.48886475 -0.30885965 -0.3815416 -0.43744522 0.04694639 -0.08424428 0.25596938
4 -0.2644533 0.62853473 -0.35490185 -0.48811805 -0.32881966 -0.34517184 -0.4728072 0.031147813 -0.04153195 0.31459305
1 -0.31939796 0.5688343 -0.33086726 -0.49162617 -0.34120566 -0.38789985 -0.49891236 -0.044596776 -0.086416036 0.24102306
5 -0.33636674 0.6253168 -0.3268854 -0.45067638 -0.3345829 -0.35891876 -0.47661173 0.01970528 -0.018555213 0.26704642
0 -0.33802807 0.5570664 -0.32716474 -0.48971006 -0.3670011 -0.37956852 -0.45819503 -0.04067223 -0.08997898 0.28859746
