7 10
3 -0.7562561 0.0048466264 0.18654913 0.40983754 0.030408736 0.39182794 0.06354377 -0.66629213 0.08327222 -0.052326456
4 -0.7164644 -0.059324116 0.22743821 0.40969032 0.075454965 0.35864025 0.020123543 -0.6576806 0.087968886 -0.035652503
5 -0.70820576 0.0043067024 0.15815386 0.42251873 0.016798249 0.43236282 0.083086655 -0.65941375 0.03034859 0.0074131303
6 -0.7645959 -0.04965475 0.15661235 0.4354432 0.039008044 0.42360765 0.07669751 -0.6535184 0.12605155 -0.05315908
2 -0.7291449 -0.06113364 0.19743802 0.41727883 0.092111014 0.40690222 0.07496407 -0.6785616 0.088135526 -0.016454276
0 -0.6976579 0.0033093032 0.16637476 0.40202123 0.09244783 0.43864098 0.020852115 -0.6376258 0.10772133 -0.076455675
1 -0.74659723 -0.062156763 0.23765527 0.40041804 0.078738704 0.4334671 0.08981575 -0.6947027 0.09697687 -0.07400336
