7 10
1 0.14499278 0.7226225 -0.16078576 -0.38367513 -0.54542756 0.02778976 0.42470667 0.3581238 0.28117692 0.1062624
6 0.18305843 0.69462436 -0.20189998 -0.4342957 -0.49570492 0.046217423 0.4200584 0.39586654 0.23435408 0.10001036
5 0.12959473 0.71266544 -0.2491204 -0.4376582 -0.5547165 0.046489056 0.42016998 0.31147555 0.26429507 0.07862679
3 0.20584318 0.7495435 -0.2150562 -0.39907834 -0.5243289 0.031130798 0.36099994 0.34683803 0.2898114 0.06405128
4 0.14964773 0.68523395 -0.22237608 -0.4139014 -0.5381841 -0.022938183 0.41707566 0.38517675 0.3013463 0.121623926
2 0.15092067 0.696454 -0.18736209 -0.4225022 -0.5420645 0.033742804 0.42380446 0.3906298 0.24151643 0.049318213
0 0.17117693 0.70829046 -0.24460973 -0.37045726 -0.5344515 0.005168461 0.43020886 0.35929835 0.31354517 0.1131337
