7 10
4 0.46848342 -0.26764423 -0.036595717 -0.41567054 -0.4653258 -0.37732252 0.6390847 -0.3952497 -0.20584792 -0.012490053
3 0.45992953 -0.24075516 -0.02652398 -0.43203223 -0.47479692 -0.35812816 0.6439794 -0.38071078 -0.18425684 -0.05534035
2 0.5174468 -0.29676136 -0.095774435 -0.32508326 -0.51101744 -0.34411985 0.61842316 -0.3589396 -0.17575349 -0.066046104
5 0.46915394 -0.2613582 -0.07945218 -0.3580102 -0.49407315 -0.39463118 0.6094947 -0.3750986 -0.23839617 0.014695117
0 0.49350676 -0.27915278 -0.022805352 -0.4062188 -0.50621235 -0.34026805 0.6352464 -0.39330012 -0.2620879 0.0027715557
1 0.47507894 -0.24227971 -0.09995652 -0.31587154 -0.47900906 -0.4028643 0.561462 -0.37792447 -0.25466326 -0.08662005
6 0.53702825 -0.25816807 -0.08861489 -0.35693493 -0.50960577 -0.4035664 0.66728854 -0.3485839 -0.22174814 -0.060397707
