6 10
5 -1.2037928 -0.5059732 -0.27543965 -0.8269684 -0.9319463 -0.6932824 0.52132946 -0.700737 -0.1553275 -0.5138377
0 -0.15843458 0.514171 -1.0464293 0.6696948 -0.048541524 -0.1381952 -1.2639083 -0.7834663 -0.9369854 0.29606342
1 -1.0852662 -0.42235774 -0.27079335 -0.71740454 -0.85821474 -0.61101854 0.41933325 -0.66680324 -0.16042028 -0.45343083
4 -0.15446019 0.52713853 -1.1137196 0.68856114 -0.06618595 -0.107243806 -1.3182088 -0.84065753 -1.0390464 0.23292154
3 -0.26251554 0.48115903 -1.0300055 0.6325871 -0.014891837 -0.14100471 -1.1901823 -0.78936005 -0.91679966 0.29141504
2 -1.0525124 -0.4876946 -0.18233907 -0.7009151 -0.833861 -0.6286955 0.38737133 -0.66971743 -0.115825094 -0.47719902
