7 10
0 0.32649875 0.12678704 0.07529152 -0.589364 0.6185013 0.2282621 -0.050758135 0.6304966 0.12918948 0.25720215
1 0.30816087 0.10351752 0.09660563 -0.5863739 0.63691765 0.2516136 -0.0060045472 0.6308444 0.100074925 0.18127845
2 0.41205695 0.037159786 0.11574099 -0.6393624 0.602817 0.18047135 0.021513658 0.6240154 0.15463358 0.25430712
5 0.4044227 0.07264147 0.12576729 -0.62431616 0.5362257 0.27512243 -0.069002695 0.65820026 0.17324732 0.2231579
6 0.39262253 0.080643736 0.11252076 -0.5411659 0.6407106 0.26767635 -0.053017505 0.605237 0.18212312 0.1927904
3 0.35733148 0.048588075 0.110130064 -0.5753756 0.60709375 0.1974512 -0.0021278712 0.6156878 0.13356449 0.22460572
4 0.38353387 0.08760001 0.08056911 -0.5513037 0.6275123 0.23941998 -0.067336366 0.64392614 0.1500884 0.15834999
