7 10
0 -0.11571662 0.6394338 0.11785006 0.515298 0.09980888 -0.23222737 -0.44435152 0.13670766 -0.15135048 0.6621863
5 0.022512883 0.49844775 0.18844324 0.5463496 0.10662976 -0.3677664 -0.54177856 0.059995554 -0.1348385 0.73902774
3 -0.17348406 0.63866067 0.156373 0.5594518 0.011495638 -0.21067251 -0.36258948 0.04813849 -0.18621607 0.6304928
1 -0.12527578 0.6341421 0.14193396 0.5417024 0.06729803 -0.2073811 -0.4015556 0.1214298 -0.251419 0.60155207
2 -0.13740979 0.6858011 0.17181079 0.48127562 0.048789427 -0.2682441 -0.3218616 0.07813728 -0.23206905 0.6219267
4 -0.065730356 0.56532395 0.15456022 0.5064194 0.1227973 -0.30968973 -0.478498 0.10559927 -0.17486683 0.6686915
6 -0.050878897 0.57265425 0.096088275 0.542311 0.05016436 -0.32400283 -0.48485094 0.06544848 -0.15320142 0.6537028
