6 10
2 0.03457048 -0.3005439 -0.34016523 -0.66482544 -0.61966723 -0.00840531 -0.041060876 0.58657056 0.0031703368 -0.1513318
4 0.0824737 -0.3725478 -0.39093646 -0.68822443 -0.57870215 -0.017004527 -0.05478653 0.57626885 0.0555789 -0.1517018
5 0.06586978 -0.38106304 -0.41485816 -0.68788105 -0.5519975 -0.029117685 -0.08002026 0.5295611 0.009758284 -0.19368908
0 0.019560022 -0.28610626 -0.35649496 -0.66413325 -0.5818454 -0.06422595 -0.033532534 0.56008595 -0.025521047 -0.17012504
3 0.09483767 -0.36396405 -0.37247744 -0.6446159 -0.5858437 0.001712523 -0.042659536 0.52208745 0.032122657 -0.14551641
1 0.10667384 -0.30167553 -0.41268474 -0.655106 -0.56632066 -0.011557816 -0.048541684 0.58226776 0.034230296 -0.11443914
