7 10
1 0.71036094 0.09342185 -0.54366004 0.32311252 0.26658106 0.29894885 -0.05145985 -0.24806891 0.54930913 -0.06953557
5 0.6444503 0.0539254 -0.5610311 0.29924062 0.29294744 0.3057059 -0.099277735 -0.24261712 0.5700016 -0.099143654
3 0.7177859 0.08738056 -0.60083246 0.2950174 0.20985736 0.30737934 -0.15180068 -0.27476954 0.49538684 -0.1278133
4 0.66078705 0.0024178652 -0.60260713 0.2357752 0.23415852 0.35015994 -0.11272309 -0.3080077 0.44233614 -0.14350602
2 0.637252 0.08447426 -0.5717278 0.23739365 0.22019751 0.33303702 -0.1481433 -0.28192654 0.5348383 -0.1252079
6 0.6523273 0.078452736 -0.5822072 0.27593222 0.20844895 0.35472208 -0.07436327 -0.24677181 0.5622002 -0.06473414
0 0.69072014 0.014050108 -0.56638557 0.23003739 0.2513458 0.34533527 -0.124644004 -0.28846425 0.4850625 -0.08054913
