7 10
4 0.025403405 0.07820765 0.048500586 0.22826268 0.2564456 -0.27993628 -0.4546044 0.5357628 0.5190163 0.6878874
5 0.11554276 9.326183e-05 -0.001085731 0.29978448 0.31597134 -0.27084172 -0.42664403 0.47374508 0.50887775 0.6697881
0 0.047474444 0.09926619 0.061530773 0.28365484 0.30597842 -0.24209365 -0.4094843 0.52132016 0.5665046 0.6551706
2 0.13020794 0.06314314 0.00890053 0.24331513 0.2366309 -0.255208 -0.44161537 0.5529591 0.5671135 0.6807114
1 0.09199422 0.023165466 0.08995717 0.31500494 0.2716071 -0.31372154 -0.48289707 0.5248418 0.5931953 0.6175027
3 0.040563025 -0.007919308 0.047115006 0.25582695 0.2868955 -0.20966206 -0.4521259 0.5322212 0.51264846 0.6589423
6 0.10672483 0.04219517 0.1098491 0.27633205 0.20213717 -0.25591385 -0.41612673 0.46520266 0.51653 0.60972255
