7 10
2 -0.012819406 0.93873733 0.8570625 -1.6388379 0.32347643 0.14883961 1.0391214 -0.607176 -0.2507678 0.0018427534
4 0.4296647 -1.6278241 -0.5003517 -0.7988419 -1.1926134 0.39054197 1.1282645 -0.95936507 -0.1751043 -0.54678583
5 0.53044754 -1.667082 -0.51657665 -0.8172814 -1.1992007 0.40907192 1.1248122 -0.947339 -0.18016906 -0.50345224
3 0.011740082 0.95264965 0.7707059 -1.4247491 0.33214375 0.13213155 0.85978484 -0.5387164 -0.1841745 0.040436454
1 0.037663575 0.779785 0.7316311 -1.3824831 0.33275267 0.10768455 0.7919791 -0.5471616 -0.21312517 0.08654419
6 1.2296172 -0.9779609 0.5631913 -1.4295707 1.070815 0.7076918 -0.8994519 -0.011270229 0.88904953 0.824402
0 1.2406881 -0.9821854 0.5431028 -1.4533288 1.1689435 0.7556616 -0.99058986 -0.01633782 0.9134107 0.8275947
