7 10
4 -0.22268403 -0.4720037 -0.5043794 0.10879959 0.06146381 -0.08169633 0.4674754 0.062780984 0.14832653 -0.7745787
1 -0.21059342 -0.50845087 -0.51469326 0.05442477 0.052585177 -0.006136837 0.42671043 0.043064848 0.15670669 -0.81197125
3 -0.28060436 -0.50326043 -0.4873875 0.05546024 0.07918323 -0.028770562 0.43904707 0.08519139 0.0863925 -0.80273736
0 -0.26072264 -0.5448948 -0.4204995 0.08831854 0.10382303 -0.10275156 0.4311858 0.10991604 0.1432315 -0.7416958
2 -0.26646197 -0.48565823 -0.47337872 0.0771638 0.060034625 -0.041803837 0.45373788 0.11906485 0.14620174 -0.76983464
5 -0.25612304 -0.51716614 -0.4750834 0.036287572 0.0653581 -0.065439634 0.44477803 0.12481785 0.1302884 -0.7424489
6 -0.26957062 -0.52000904 -0.5016744 0.069159955 0.046539836 0.00077594875 0.36778355 0.07403664 0.089182876 -0.69539243
