7 10
4 0.1410157 -0.18004644 -0.45198873 -0.13086355 -0.18056454 0.48803654 0.5900933 0.08430807 -0.6842738 -0.27183053
2 0.054556556 -0.118500285 -0.35972223 -0.14932056 -0.27630395 0.48030642 0.4663163 0.18439782 -0.70280206 -0.21418014
0 0.11478515 -0.18467036 -0.38445377 -0.07229255 -0.22032483 0.4113852 0.5323138 0.09895409 -0.7235699 -0.28216845
6 0.06959156 -0.1530766 -0.39069334 -0.1279052 -0.28740177 0.39065456 0.57230264 0.14694217 -0.7438069 -0.20095094
5 0.14484721 -0.16892001 -0.45160863 -0.16433707 -0.20750588 0.41025224 0.58196366 0.1113469 -0.7781296 -0.2311464
3 0.09625682 -0.16233684 -0.34298408 -0.09162022 -0.28659564 0.46407112 0.5688836 0.14475864 -0.7388224 -0.23456502
1 0.12430642 -0.19493757 -0.39502013 -0.12852332 -0.23297942 0.41021985 0.5332356 0.15586995 -0.72691107 -0.22308809
