7 10
1 0.23072805 0.366609 -0.10524646 -0.43354678 0.30240694 0.6294856 0.22434846 -0.70262146 0.050270963 0.31198984
2 0.2203981 0.35245672 -0.07046088 -0.46124074 0.27661937 0.6351099 0.1825011 -0.66951114 0.04276003 0.31993887
4 0.28360254 0.3569366 -0.14641276 -0.43101072 0.27839997 0.6230923 0.13908085 -0.6640609 -0.011771223 0.33321512
3 0.29056114 0.32003966 -0.12146326 -0.4419012 0.30492264 0.6104729 0.13872707 -0.66905147 0.025976656 0.33186653
6 0.25745174 0.30483875 -0.07364376 -0.44310483 0.3271132 0.5862311 0.22164546 -0.6774045 0.051611762 0.28129032
5 0.3004105 0.3001272 -0.16048652 -0.43975255 0.26231638 0.67464733 0.24364251 -0.66364855 0.06538834 0.33425552
0 0.28736895 0.35174626 -0.08658104 -0.47717896 0.3088411 0.5856953 0.19532563 -0.63351274 -0.010226427 0.31365693
