7 10
2 -0.093137085 0.273043 0.27607223 -0.4909564 0.6407561 -0.43829882 0.412492 0.15250829 0.27000394 0.22569248
5 -0.039370112 0.19074543 0.29613194 -0.4882326 0.643274 -0.49465716 0.3965099 0.20169209 0.1986728 0.23940934
6 -0.06792424 0.19360162 0.2220909 -0.4731564 0.6226606 -0.4794609 0.41642305 0.19549946 0.24011336 0.2902917
4 -0.06485715 0.27513787 0.30087999 -0.58684176 0.67006123 -0.477444 0.31716618 0.18035392 0.24639967 0.16776831
3 -0.09513524 0.31550843 0.28359124 -0.55318695 0.64101195 -0.46379808 0.33625528 0.20251726 0.26910445 0.2065506
0 -0.0027805758 0.2987289 0.30651623 -0.5467867 0.6226907 -0.4852256 0.29955032 0.14006345 0.29702762 0.19157015
1 -0.047205072 0.19161715 0.29717427 -0.48601505 0.64637387 -0.4933295 0.34985602 0.19629015 0.19762787 0.25663668
