6 10
0 0.17607374 0.57202 -0.21080355 -0.10854884 -0.17215027 0.43793496 -0.5415736 0.53849673 0.24891786 0.043458898
1 0.14086822 0.52125806 -0.19562854 -0.14070815 -0.1746986 0.52025443 -0.566803 0.57127166 0.23714723 0.01654956
4 0.15637843 0.59948397 -0.19165644 -0.110169545 -0.26823148 0.5303556 -0.4917787 0.6415898 0.19673236 0.06796353
2 0.17834526 0.5923161 -0.11432212 -0.14563431 -0.26206276 0.5320736 -0.5384774 0.6237735 0.24015738 -0.01645401
3 0.11082768 0.5890799 -0.11090217 -0.15170527 -0.25233668 0.4679689 -0.4949727 0.63810396 0.23029605 0.06802068
5 0.20085242 0.5770698 -0.16023514 -0.10362007 -0.23129962 0.5092428 -0.5170577 0.62911433 0.1875864 0.03321919
