7 10
6 0.6438811 0.045402303 0.55244714 0.48971412 0.5826142 -0.08891891 -0.06434835 -0.20492895 -0.010238197 -0.025783414
5 0.65805215 -0.0021986577 0.5209931 0.5013426 0.64485115 -0.08788921 -0.09771674 -0.19894563 0.069047555 -0.00037439383
0 0.64969826 0.08671642 0.5266822 0.42302597 0.62493426 -0.04301764 -0.10010352 -0.20338942 0.05702759 0.008956246
3 0.65997314 0.08355814 0.5818632 0.48006958 0.5980322 -0.13641827 -0.10538042 -0.124829225 0.026118496 0.011277845
4 0.7010721 0.031552695 0.561601 0.45916492 0.6192273 -0.115451105 -0.06511522 -0.12743793 0.090593666 -0.0533491
2 0.6218018 0.036000587 0.5381416 0.5241875 0.65443116 -0.10313369 -0.14183295 -0.117213465 0.06980944 -0.008798931
1 0.5851361 0.04970004 0.5703135 0.45631292 0.5785211 -0.09264028 -0.101318166 -0.21371695 0.006111995 0.035206586
