7 10
5 -0.57110065 0.012563237 -0.30686253 0.100033455 0.63016707 0.3972317 0.12403005 -0.19452323 -0.24353707 0.5366271
6 -0.5664637 -0.045006294 -0.359945 0.1668313 0.6245279 0.31732824 0.1521386 -0.20337658 -0.24312021 0.54103124
3 -0.5435747 0.044583708 -0.326701 0.1262336 0.66193223 0.40078 0.09322754 -0.18669166 -0.2709242 0.5399168
1 -0.5462973 0.015328782 -0.38644865 0.112972826 0.6949784 0.40053526 0.17118204 -0.12085036 -0.18782154 0.5279871
0 -0.5696846 -0.022823866 -0.34095237 0.06341579 0.65375507 0.33043706 0.16787201 -0.1726433 -0.24553017 0.5514957
4 -0.49182945 -0.034480833 -0.36668807 0.10339654 0.6764755 0.41112614 0.16856112 -0.15061663 -0.2095757 0.48567763
2 -0.57755256 0.027948756 -0.33139682 0.15314509 0.6018894 0.3961983 0.09984352 -0.12195243 -0.26104409 0.5162397
