6 10
1 -0.029010987 0.27400556 -0.5389621 -0.5365161 -0.4958077 -0.36757287 -0.109968774 0.4730156 -0.3083176 -0.118009284
2 0.053723086 0.2390827 -0.47295895 -0.5533976 -0.5363338 -0.4032411 -0.1873684 0.44354656 -0.25954866 -0.14781393
5 0.06135514 0.27482975 -0.54160166 -0.44547528 -0.55108225 -0.41381457 -0.1672874 0.51933783 -0.2325879 -0.07518385
3 0.055565696 0.23892136 -0.42999187 -0.5634668 -0.5500384 -0.40769124 -0.14259748 0.50300455 -0.2298425 -0.10062256
0 -0.026056116 0.29253703 -0.5160747 -0.51995546 -0.5008917 -0.3911396 -0.15941945 0.4791829 -0.28103256 -0.09873404
4 0.01251952 0.2052341 -0.4676265 -0.5282489 -0.55834365 -0.43132913 -0.11108399 0.5209638 -0.24638681 -0.14009896
