7 10
6 -0.27664885 -0.48421854 0.25241858 0.2772723 0.40811056 0.042417172 0.50619847 0.36096305 -0.24825819 0.5463161
0 -0.2897913 -0.5102917 0.22138052 0.25182214 0.39571315 -0.023563186 0.5517475 0.3517744 -0.2334709 0.5429387
4 -0.26567644 -0.4655509 0.2368863 0.2615517 0.41117427 0.036826875 0.5703108 0.39194658 -0.24737686 0.58192486
3 -0.3099585 -0.43727326 0.22610691 0.3024348 0.41314095 0.014303229 0.5190374 0.4021938 -0.2212716 0.5101474
1 -0.29256564 -0.5003586 0.25788957 0.31176114 0.40674332 -0.03447794 0.5094423 0.3310788 -0.22634448 0.5182529
2 -0.27141875 -0.5183779 0.19453877 0.29876867 0.35918576 0.06254513 0.5583253 0.3290461 -0.2627024 0.57682586
5 -0.23510733 -0.47100857 0.2531504 0.23086901 0.38669845 -0.029396152 0.53940517 0.34769967 -0.27436632 0.53630596
