7 10
2 0.050225068 0.21258509 0.079464264 -0.01533136 0.7025781 -0.15948689 -0.59585065 0.38642183 -0.4676055 0.42009035
5 0.044548612 0.18973073 0.06216926 -0.042883657 0.7107845 -0.231181 -0.6320034 0.29948023 -0.5194356 0.41771138
4 0.0060710907 0.21707523 0.07729551 -0.06462627 0.7023193 -0.257328 -0.6165534 0.39477393 -0.53090596 0.35030016
1 0.0803648 0.19553937 0.02049039 -0.0022796344 0.69551444 -0.1655972 -0.60205543 0.3404875 -0.4560519 0.42472005
6 0.0643507 0.20024627 0.10725144 -0.03685742 0.6386848 -0.24560702 -0.6172709 0.34526533 -0.5216044 0.37114224
3 0.00083192595 0.21258596 0.09474071 -0.019408157 0.5867578 -0.1782911 -0.6074515 0.35311237 -0.50728047 0.4251786
0 0.0006196166 0.16094166 0.036255118 -0.05378147 0.6789128 -0.22510327 -0.5333749 0.27441937 -0.48928705 0.40834153
