7 10
6 -0.3498556 -0.4376864 0.43350208 -0.54689765 -0.26793808 -0.08696335 0.62453043 -0.26691756 0.09073908 0.18008906
2 -0.36753538 -0.5001885 0.38614166 -0.47819367 -0.25881284 -0.09145645 0.6665938 -0.3227299 0.06577175 0.21208312
4 -0.36078593 -0.4402008 0.40801978 -0.48124546 -0.30083096 -0.12402047 0.5819366 -0.26421556 0.009268723 0.18959315
3 -0.30590823 -0.501225 0.3786597 -0.52325386 -0.24840027 -0.13365655 0.6481618 -0.25191575 0.07168404 0.18137404
5 -0.3466481 -0.4617108 0.37992316 -0.46159416 -0.26217487 -0.073617466 0.6071227 -0.31128284 0.06384914 0.2039864
1 -0.31954852 -0.44406813 0.40863812 -0.5239655 -0.22429772 -0.06744304 0.6391871 -0.3219209 0.07646079 0.14240941
0 -0.39958614 -0.49414992 0.41219988 -0.47958696 -0.3065573 -0.08978044 0.663688 -0.2832545 0.03238345 0.20299979
