7 10
6 -0.57795805 0.28750318 -0.22762097 0.22236116 0.6935146 0.014470347 0.074692994 -0.39897034 0.5018645 0.16505866
2 -0.554309 0.24849315 -0.15233082 0.2216867 0.67063826 0.09162758 -0.046079084 -0.3649016 0.5389062 0.13658747
4 -0.57762474 0.25005782 -0.18209442 0.22844245 0.681141 0.029969413 -0.02766478 -0.37535596 0.54166615 0.12381521
3 -0.59312105 0.21765582 -0.24419814 0.27830473 0.6447967 -0.013253095 0.041482396 -0.34516698 0.56489694 0.1043504
0 -0.5268719 0.2469378 -0.23611383 0.24405277 0.6853624 0.014219582 -0.049041543 -0.38769826 0.53612685 0.14451188
1 -0.56427664 0.22327027 -0.26143834 0.21755402 0.6375941 0.009314926 0.08208775 -0.40330768 0.53459054 0.19215631
5 -0.535738 0.2849998 -0.2016865 0.1910818 0.7003335 0.08305446 0.04509164 -0.3572693 0.5258401 0.20326024
