7 10
3 0.16149458 0.31337222 0.24358726 0.13984394 0.7584313 0.42269406 0.4809083 -0.09834215 0.14070392 0.29604703
2 0.14691822 0.27379087 0.27192232 0.15666682 0.7789515 0.46984845 0.5009611 -0.19039232 0.154753 0.38923746
4 0.14371344 0.30398586 0.24900144 0.14223291 0.8012263 0.41137958 0.44674796 -0.17811713 0.13837013 0.36902034
0 0.11201646 0.27437323 0.24799784 0.13652505 0.7892225 0.4673103 0.48918697 -0.19317217 0.06631944 0.33041048
1 0.1363925 0.27127486 0.21453638 0.145958 0.8163712 0.43693402 0.49088928 -0.1783286 0.07828359 0.33876997
5 0.13826534 0.32843584 0.29509485 0.1322789 0.78479695 0.37023878 0.5125838 -0.093295656 0.16361581 0.325136
6 0.09062449 0.34643343 0.24611036 0.12621704 0.82571745 0.4718446 0.43611518 -0.14795083 0.11735344 0.362621
