7 10
1 0.28750828 -0.48025975 0.61136603 -0.1596791 -0.12528588 -0.43019143 -1.6172444 0.46661088 -0.24201444 -0.33019903
5 0.3231992 -0.5066316 0.6428718 -0.16287144 -0.08605502 -0.3798943 -1.6177617 0.5076451 -0.28768557 -0.36867517
6 0.3321937 -0.49628153 0.54744345 -0.103879705 -0.068483315 -0.40416873 -1.5575197 0.4755617 -0.32551846 -0.37061417
2 0.34429407 -0.5383215 0.6275731 -0.18017085 -0.12585537 -0.35070184 -1.581647 0.49442542 -0.26389742 -0.331269
0 0.5781225 0.43225053 -1.4843298 0.88913095 0.77924424 -0.45253548 -0.16198233 0.020059442 -0.7241205 -1.0139465
4 0.59785634 0.48549828 -1.4975631 0.8771169 0.80576676 -0.4309789 -0.16176182 -0.0050999434 -0.69792944 -0.97551495
3 0.57692033 0.52554566 -1.5289363 0.9524405 0.8079227 -0.48768964 -0.16858225 -0.028551906 -0.6897769 -1.0142937
