6 10
1 -0.68030363 0.58382195 0.4371006 0.28538802 -0.11198977 0.2311468 0.024683319 -0.08118325 -0.43104622 -0.41242707
2 -0.65857255 0.54120386 0.39819524 0.25911707 -0.11606335 0.1499835 0.08211158 -0.08194815 -0.39886445 -0.42016044
0 -0.6575995 0.5934802 0.3558195 0.26231623 -0.066622935 0.2370297 0.040898763 -0.15056121 -0.40479928 -0.37602124
5 -0.66378194 0.58807975 0.4296092 0.261638 -0.037248213 0.19976275 0.05834813 -0.081931695 -0.43398455 -0.34158537
3 -0.66581285 0.57410043 0.4122166 0.18478239 -0.08201309 0.1432838 -0.009271545 -0.10976738 -0.39655975 -0.40420753
4 -0.70033157 0.6170107 0.45274478 0.23308724 -0.07969323 0.19495054 0.08026231 -0.15289918 -0.36084595 -0.35435498
