7 10
4 -0.41671938 -0.06313549 0.86874455 -0.2962745 -0.360629 0.36241245 0.2919283 0.31460994 0.13807933 -0.16045265
3 -0.4397441 -0.0674141 0.8025096 -0.37227508 -0.36527482 0.29523987 0.2874998 0.28701046 0.07782847 -0.20794787
6 -0.41164365 -0.0022633187 0.77127373 -0.3445786 -0.3517139 0.35801253 0.2657625 0.2798556 0.09975289 -0.16562828
5 -0.39480615 -0.017236091 0.8393204 -0.39980373 -0.32058585 0.31856188 0.22637258 0.2331378 0.08306835 -0.22493723
1 -0.44608727 -0.04268117 0.8613647 -0.36268267 -0.27514142 0.37956643 0.25616238 0.29126698 0.13249207 -0.14622706
0 -0.41886193 -0.085212804 0.8048177 -0.3678413 -0.29818135 0.36411583 0.24356449 0.28526583 0.13051881 -0.113563895
2 -0.4267707 -0.008707548 0.8351427 -0.34263787 -0.2928518 0.3101016 0.25838712 0.26389915 0.117155686 -0.20335329
