7 10
4 -0.3475352 -0.10271678 0.4053661 -0.031810556 0.0036022866 0.27307335 -0.63279194 -0.1662133 -0.49846554 -0.55168957
0 -0.31455687 -0.06528007 0.50441897 -0.10384524 0.0051316316 0.25827673 -0.6738877 -0.22628021 -0.4633414 -0.5112025
1 -0.32574996 -0.076754354 0.448401 -0.057611402 0.08048298 0.20203167 -0.6109627 -0.2451669 -0.44778955 -0.59696716
2 -0.28679195 -0.06828077 0.455884 -0.13377805 0.066912495 0.27087733 -0.63212264 -0.15851825 -0.4941448 -0.56986713
5 -0.28824997 -0.087925225 0.46107608 -0.099908866 0.0060957745 0.21907304 -0.62912506 -0.21173328 -0.486274 -0.52396584
3 -0.25975317 -0.13256465 0.43507388 -0.123464 0.010623764 0.25285685 -0.62103176 -0.18122095 -0.484102 -0.5518245
6 -0.35097015 -0.07673409 0.4774556 -0.043668177 0.010508419 0.2547337 -0.5990289 -0.24268539 -0.51212204 -0.5041787
