7 10
0 0.6888086 0.73324436 -0.2477316 -0.1325765 -0.43238935 -0.20018522 -0.009921208 0.029071879 -0.1561993 0.015997121
2 0.67597795 0.74592644 -0.22476724 -0.20735517 -0.4227192 -0.1467177 -0.075310454 0.102303185 -0.19031557 -0.067245245
3 0.69334763 0.7700934 -0.14952295 -0.21185528 -0.46304023 -0.16359772 -0.011036035 0.09234942 -0.19437973 -0.047314882
1 0.7479213 0.76623845 -0.18150492 -0.21395534 -0.39222747 -0.11189727 -0.045030918 0.03211199 -0.15689911 -0.05897885
5 0.6877363 0.7558243 -0.1925174 -0.16800651 -0.44401363 -0.13052008 -0.06287639 0.061485898 -0.13134111 0.00095289224
4 0.7215903 0.77463907 -0.17451948 -0.21737128 -0.47971803 -0.20441675 -0.019638417 0.072539896 -0.15533581 0.025856016
6 0.68124264 0.7372528 -0.2155295 -0.14341275 -0.4186109 -0.18249604 -0.07677723 0.05306807 -0.16825485 -0.062331967
