5 10
1 0.26574853 -0.086040616 -0.12643337 0.5526986 0.13935146 0.5068951 0.3708031 0.1573684 0.46137848 -0.5457723
4 0.25375497 -0.19114514 -0.17245895 0.5972081 0.1120811 0.48773292 0.33144298 0.13118826 0.48891425 -0.5435984
0 0.2692891 -0.17304331 -0.19210675 0.57973814 0.06266302 0.4754258 0.34322158 0.21961673 0.5243532 -0.5065404
3 0.30640054 -0.118837126 -0.110287495 0.5665429 0.14165439 0.49853915 0.37190703 0.1927661 0.41917253 -0.51796496
2 0.2609358 -0.12081755 -0.1412881 0.58529735 0.058543667 0.47021013 0.303004 0.17320278 0.4210234 -0.53096616
