7 10
0 -0.073651575 0.12230591 0.12781982 -0.49671304 0.58523506 0.66103864 -0.2562331 0.100513004 -0.23011307 -0.5237478
5 -0.016146196 0.059354946 0.2303894 -0.48021042 0.5391274 0.69581383 -0.26740846 0.1153266 -0.28311616 -0.47348255
2 -0.038272392 0.04743864 0.15608136 -0.49721473 0.5583279 0.5980957 -0.30160204 0.080616735 -0.2317175 -0.50046486
4 -0.08063611 0.1001592 0.14461072 -0.47651446 0.58236074 0.56647897 -0.31991217 0.12974286 -0.2700699 -0.41989216
1 -0.089267775 0.10597623 0.15877639 -0.49380428 0.5915442 0.64529544 -0.3353837 0.056921344 -0.2117136 -0.48367208
3 -0.03519716 0.02628147 0.19276033 -0.50694066 0.5580545 0.62405646 -0.30779508 0.110841215 -0.24090184 -0.48366442
6 -0.06781006 0.117487594 0.15775633 -0.4352738 0.49558932 0.62637424 -0.29479873 0.073427565 -0.27181596 -0.46941692
