6 10
5 0.17236817 0.32197815 0.45381495 0.012036935 -0.7864165 0.6959883 -0.14859807 -0.13713057 -0.14683768 0.09087418
4 0.25630364 0.27356848 0.3969309 0.0021274523 -0.7955612 0.71526015 -0.073140234 -0.181605 -0.14327529 0.02710213
3 0.20714705 0.2351696 0.41978222 0.025776427 -0.7138846 0.6508211 -0.11732515 -0.16731828 -0.10381804 -0.00085890305
1 0.17681687 0.24719137 0.43488538 -0.04308489 -0.7584859 0.63012356 -0.15521966 -0.16565447 -0.08032619 0.014069159
0 0.20892893 0.2691777 0.36854854 0.015703838 -0.66115093 0.58855397 -0.050532226 -0.14027445 -0.047236748 0.004060484
2 0.18984246 0.29322055 0.43086964 -0.023160163 -0.7378808 0.6863528 -0.1491524 -0.19239448 -0.1056543 0.09477946
