7 10
4 -0.35543847 0.23860046 0.0005269057 0.2958498 -0.5746592 -0.18029137 0.36516297 0.55360633 0.286996 -0.45677835
3 -0.3281661 0.2827607 -4.2127154e-05 0.29642248 -0.60785264 -0.14336249 0.3207126 0.5561068 0.29812557 -0.474172
2 -0.38529336 0.23673339 -0.051941164 0.23766273 -0.51620305 -0.16270877 0.35921538 0.5363892 0.23150288 -0.4825263
1 -0.36108208 0.3126445 -0.0007419643 0.25829515 -0.61299276 -0.1969568 0.36045063 0.57890654 0.3040941 -0.4725512
5 -0.38039723 0.21717295 -0.045674667 0.22232054 -0.5807588 -0.1638426 0.365886 0.48915592 0.27668363 -0.45662278
6 -0.33134368 0.25398853 -0.0030716662 0.25616106 -0.5925243 -0.1305036 0.3295807 0.49045885 0.2519774 -0.413396
0 -0.4044808 0.2988471 0.0015280811 0.27905267 -0.61121947 -0.2291539 0.36936805 0.55528826 0.26041803 -0.5028482
