7 10
4 0.22874695 -0.685115 -0.66848373 0.36895457 0.08135765 0.24571267 -0.27449715 0.17993778 0.28847024 -0.083358265
2 0.24488942 -0.6887092 -0.68350774 0.32759818 0.038759712 0.1717367 -0.2611697 0.2094833 0.21267979 -0.18067767
1 0.24578817 -0.69543606 -0.6919349 0.31209335 0.064975016 0.26365307 -0.19841859 0.25055063 0.30141816 -0.13366096
3 0.21638468 -0.68919516 -0.6668815 0.3703268 0.08069626 0.27366656 -0.22092023 0.23489304 0.3154842 -0.13894635
0 0.24374455 -0.694235 -0.6677464 0.35247234 0.10661412 0.2801008 -0.23605694 0.20107394 0.30154508 -0.15823247
5 0.28237933 -0.65171033 -0.6977994 0.33348092 0.11466436 0.27382025 -0.23390666 0.25425947 0.2754668 -0.13189583
6 0.2350122 -0.7535309 -0.69522667 0.31344604 0.038216855 0.19566482 -0.30695584 0.22888651 0.2581115 -0.15695956
