4 10
1 0.22576773 -0.42760518 0.06664668 0.14323288 -0.4275363 -0.7484234 -0.25635642 -0.024344208 0.26360852 -0.0884181
2 0.21718964 -0.43683636 0.076421596 0.16477375 -0.46858892 -0.76299965 -0.22634302 -0.053054057 0.28127727 -0.1333116
0 0.16720298 -0.3427875 0.07091033 0.19269979 -0.44059446 -0.7354815 -0.23509952 -0.012369527 0.20607145 -0.13037694
3 0.23499501 -0.44757965 0.072354056 0.20754233 -0.48776802 -0.7555265 -0.28226346 -0.028347135 0.29483297 -0.14017703
