7 10
1 -0.3022766 0.18251562 0.95211864 -0.24815467 -0.07020339 0.003939749 0.21331714 0.28613904 0.11710752 0.41781902
4 -0.28867006 0.25710055 0.9199471 -0.3093216 -0.04548836 0.032202393 0.1752415 0.33037055 0.08901888 0.43910965
2 -0.32161465 0.21951212 0.91425437 -0.2624058 -0.047044773 0.03263479 0.19505268 0.303691 0.14373884 0.4566921
3 -0.32105938 0.25588626 0.9047338 -0.2735513 0.004971553 0.032175098 0.21229418 0.26911893 0.0901173 0.47896314
0 -0.23884295 0.24029309 0.8792415 -0.3142247 0.016739536 0.011456929 0.10135216 0.36377457 0.109811656 0.4319742
6 -0.32127127 0.26122794 0.93272907 -0.23926602 -0.06436889 0.0017414569 0.11297632 0.35192138 0.11324967 0.4016748
5 -0.25443047 0.24403009 0.9214414 -0.2577256 0.024084797 0.033315983 0.13939163 0.3320775 0.1117633 0.4593509
