7 10
0 -0.18156427 -0.77554935 -0.03156692 -0.35570234 0.13953966 -0.1605228 -0.73737097 0.014200799 -0.012458453 -0.10811474
1 -0.123109125 -0.7881549 -0.13792421 -0.43150207 0.10799086 -0.21864195 -0.7052483 0.016370002 -0.07223654 -0.115115635
2 -0.16857883 -0.7422017 -0.11155619 -0.40613383 0.17745343 -0.18228625 -0.70536953 -0.011595078 -0.030794794 -0.117744945
3 -0.1891118 -0.73355496 -0.07605607 -0.4055925 0.07104656 -0.12162194 -0.7315663 0.051677857 -0.093714066 -0.105060846
5 -0.107790664 -0.80015755 -0.0846407 -0.35700163 0.1708139 -0.20516557 -0.73486316 0.044893276 -0.031370934 -0.098929085
4 -0.17476794 -0.7753413 -0.060357407 -0.39678803 0.06465269 -0.113780715 -0.71567833 0.0672895 -0.083099864 -0.119069174
6 -0.2002263 -0.7531351 -0.062167108 -0.38416043 0.12255898 -0.17854714 -0.74506456 0.04298996 -0.058544327 -0.078679666
