7 10
0 -0.61682373 0.10903854 0.004469981 0.120660886 0.07973727 -0.45743218 -0.22036014 0.5560118 0.6302711 -0.048502572
1 -0.5630381 0.17103995 0.045355618 0.109338425 0.086310685 -0.46921247 -0.28993964 0.6413134 0.60360664 -0.08096355
5 -0.58320314 0.18522221 0.05884224 0.09194286 0.12460474 -0.42458817 -0.25091696 0.58742607 0.5754044 -0.015932469
2 -0.5573927 0.16656512 0.03992235 0.1926804 0.049608283 -0.4707964 -0.24526516 0.6294717 0.6173296 -0.0438043
4 -0.6315526 0.18291767 0.11565648 0.20426244 0.0570413 -0.44503334 -0.23566043 0.6480297 0.62245727 -0.07198663
3 -0.58919764 0.19725676 0.10673532 0.1876911 0.11891118 -0.42898366 -0.27862757 0.631852 0.6120203 -0.026964452
6 -0.60098076 0.15852459 0.008144225 0.1344334 0.11588642 -0.35695952 -0.27151614 0.5473393 0.599896 -0.08881639
