7 10
3 0.33748412 0.03645571 -0.032203216 -0.0194803 0.30354354 -0.18978445 0.25533256 -0.07395277 0.99768263 0.4902069
4 0.32494068 0.04021473 -0.034236796 0.012629555 0.24552214 -0.23333105 0.22292058 -0.07790141 1.0263587 0.44458383
6 0.36295924 0.12122434 -0.017747847 0.009626097 0.2429004 -0.23924616 0.2429026 -0.11631267 0.94942427 0.47148526
1 0.35408214 0.1214068 0.046010002 -0.032259703 0.2805653 -0.18002713 0.22600244 -0.11090611 0.91696876 0.49024642
0 0.3366597 0.085679874 0.036273442 0.031175965 0.22782421 -0.1572521 0.25773078 -0.15467317 0.96974903 0.4874061
5 0.38605246 0.079828486 -0.01518955 -0.0042398525 0.29243526 -0.21507554 0.21475047 -0.1554554 0.94752157 0.42774996
2 0.35202 0.06320517 -0.017338544 0.005803488 0.26542395 -0.15395 0.21894264 -0.0995947 0.95157105 0.45447156
