7 10
3 0.01767379 0.29479513 0.019463293 0.28924498 -0.42569655 -0.090185024 -0.11029659 0.49926358 -0.92523026 0.14470403
4 0.074834265 0.24886957 0.04280996 0.22520402 -0.3563052 -0.060317114 -0.1188242 0.5090519 -0.9482233 0.21677598
6 0.0735064 0.33983913 0.07534048 0.22914183 -0.3406915 -0.08425474 -0.15674795 0.47514236 -0.8903603 0.1644842
0 -0.0033707602 0.33642736 0.07635342 0.3163993 -0.38834372 -0.119528174 -0.1630142 0.46968836 -0.8905899 0.1793341
5 0.041440684 0.29727674 0.08189009 0.29656643 -0.40695518 -0.1422442 -0.14439113 0.41862458 -0.8885091 0.20351452
2 0.04103637 0.26273593 0.041078568 0.25047627 -0.44031978 -0.1265266 -0.12232483 0.42133644 -0.940231 0.18025602
1 -0.012784539 0.34131393 0.016290281 0.30005464 -0.40855464 -0.078109354 -0.07918961 0.4975344 -0.86392903 0.2058629
