6 10
2 0.013127325 0.3139532 0.57874227 0.09264594 0.61350864 -0.19318444 -0.32221815 -0.5942851 -0.19895309 0.12609297
3 0.0026756988 0.32110265 0.5644459 0.031919036 0.64714444 -0.22315687 -0.3196895 -0.5280608 -0.16730753 0.1709379
0 0.011155719 0.30862167 0.6037165 0.026602292 0.60698223 -0.19687542 -0.30704704 -0.5498568 -0.15670928 0.19348851
4 0.047891214 0.32240453 0.5974488 0.022904402 0.6434439 -0.19044341 -0.29677653 -0.63195956 -0.12297067 0.21735108
5 0.07214756 0.30207396 0.6134286 0.02635251 0.65225786 -0.1924237 -0.34862718 -0.5996919 -0.11221341 0.15770796
1 0.008797395 0.32840082 0.59632874 0.08967087 0.5760526 -0.16900133 -0.30133614 -0.537835 -0.1995344 0.10245303
