7 10
1 0.48140484 -0.41029724 -0.52374053 0.03658242 0.7035719 0.21895649 -0.09879451 0.28429005 -0.1553817 0.0657684
0 0.487013 -0.392529 -0.51605874 0.0069311797 0.7740399 0.27294993 -0.13650182 0.3119945 -0.13567293 0.10645226
3 0.45679 -0.41116452 -0.53263503 0.03514555 0.75255406 0.21399847 -0.07331448 0.23515181 -0.18247762 0.08698045
5 0.47523758 -0.3819648 -0.55487853 0.020848595 0.71395546 0.19793543 -0.16737498 0.31800592 -0.17246993 0.08997051
2 0.4645691 -0.3858813 -0.55828524 0.016419923 0.7300415 0.24065451 -0.12634945 0.2906986 -0.17365557 0.04015504
4 0.5000124 -0.34437117 -0.5325308 0.07179819 0.7207437 0.20647913 -0.12404929 0.25018424 -0.13949752 0.060536325
6 0.482434 -0.41794896 -0.5172219 -0.01613914 0.67432535 0.1694703 -0.13184483 0.33518878 -0.15215148 0.07548213
