7 10
5 -0.09811584 0.048661057 0.477324 -0.21420547 0.4463859 -0.07936498 -0.13212585 -0.559431 -0.15596087 0.76897377
2 -0.13837992 -0.018168556 0.4879459 -0.28005233 0.3795243 -0.089666575 -0.1143327 -0.54811454 -0.14794531 0.7862216
1 -0.16792816 0.009625895 0.4371823 -0.25372037 0.36643708 -0.13819961 -0.08734901 -0.60095024 -0.12209749 0.73894936
0 -0.1447093 0.022526432 0.47883666 -0.18210633 0.44037315 -0.04756684 -0.13229202 -0.57298225 -0.12304949 0.7321635
4 -0.08392223 0.036732122 0.5278839 -0.17954695 0.43493488 -0.13250004 -0.14198759 -0.61476344 -0.14929152 0.67202747
3 -0.07887496 0.010411939 0.5020065 -0.20865062 0.43844655 -0.0760741 -0.15177271 -0.5474883 -0.18270525 0.67142975
6 -0.11171603 0.06392477 0.44571427 -0.20915899 0.44829512 -0.10478072 -0.14273895 -0.52662575 -0.14679083 0.70412093
