7 10
3 -0.24087195 -0.5792859 -0.7322715 0.1786134 0.30717546 0.10684561 0.15738897 0.33094734 0.1408023 0.42093158
6 -0.3130537 -0.5862588 -0.63386387 0.21661676 0.34574568 0.071106374 0.13917403 0.33915487 0.11485792 0.42992243
5 -0.2895121 -0.5957336 -0.70743966 0.12558739 0.38016245 0.10978576 0.17426388 0.35176283 0.12039896 0.41561937
4 -0.3163654 -0.56226796 -0.70082766 0.19772719 0.3265429 0.09363059 0.10873064 0.3021805 0.14842914 0.44117022
2 -0.23755233 -0.58889973 -0.70208997 0.15266354 0.37968686 0.08098879 0.13213225 0.33359736 0.09551158 0.36956593
1 -0.3370892 -0.57220286 -0.75756186 0.16485655 0.33436617 0.067794584 0.096865654 0.3108123 0.07676254 0.44608784
0 -0.28053278 -0.58724713 -0.6995414 0.1658482 0.3663658 0.1314578 0.10415436 0.36960566 0.11563246 0.41189528
