6 10
2 -0.07386149 0.013130967 0.06523755 0.6287287 -0.3117161 -0.28747353 -0.22181197 -0.11911011 0.8827712 -0.17124723
1 -0.044270266 -0.019671189 0.0048325397 0.618553 -0.3096758 -0.35665125 -0.21675766 -0.13033232 0.8791632 -0.14585252
5 -0.070769005 -0.01735357 0.035920437 0.5875027 -0.32412404 -0.3731507 -0.17711382 -0.08043346 0.8725462 -0.16246323
4 -0.033106666 -0.02977716 0.023271866 0.6210439 -0.29759297 -0.3277893 -0.2365539 -0.053816605 0.8737558 -0.09243527
3 -0.07944967 -0.044626534 -0.0115433475 0.5776548 -0.31069508 -0.35105875 -0.19573453 -0.13986729 0.8306066 -0.16122496
0 -0.04837185 0.034937475 0.019099928 0.59608555 -0.2598895 -0.30336535 -0.24436384 -0.093798414 0.88335335 -0.12664004
