7 10
5 0.29832742 0.42743477 -0.017868 0.06278142 0.42120898 -0.5912434 0.42191148 -0.46946922 -0.31696698 0.24560566
4 0.24265884 0.49202397 0.0020148822 0.0608093 0.4504248 -0.5880272 0.4412065 -0.5275437 -0.2779111 0.29797518
1 0.24722384 0.5175668 -0.0016390918 -0.0131308725 0.46523967 -0.5849592 0.40330508 -0.47582823 -0.2802531 0.23360617
0 0.291743 0.4538684 -0.06179141 0.0071427952 0.4246272 -0.5467882 0.3922557 -0.53367925 -0.31528264 0.3055164
3 0.31007338 0.47802395 -0.0625422 0.019089133 0.44997904 -0.53766024 0.38208976 -0.5201852 -0.29717696 0.2296466
2 0.31968358 0.44218466 -0.07482615 0.054234672 0.42297265 -0.5673148 0.4491226 -0.50024486 -0.22428776 0.28506204
6 0.2842637 0.47941917 -0.009338626 0.05420585 0.44661492 -0.5321253 0.43997627 -0.5140951 -0.2894328 0.23712291
