7 10
4 -0.34499773 0.3120675 -0.7136183 0.3236953 -0.15561448 -0.4316449 -0.43380073 0.42506507 -0.021554533 0.11836758
6 -0.35331336 0.26704994 -0.72973424 0.2951649 -0.15082733 -0.4321817 -0.44549727 0.32760432 0.0325823 0.13252161
0 -0.25638464 0.25597274 -0.7371513 0.2942505 -0.21700504 -0.42639104 -0.43350285 0.34799853 0.019301087 0.05070323
3 -0.3049013 0.20644303 -0.7208922 0.35650596 -0.19852346 -0.4419857 -0.40810302 0.4196623 0.069200255 0.11668822
1 -0.24458969 0.29350737 -0.7555092 0.21506262 -0.19470918 -0.35263684 -0.4910095 0.42096165 0.020790633 0.0765785
2 -0.2767421 0.24598508 -0.8086888 0.28475225 -0.21734758 -0.34739485 -0.5622515 0.45400524 -0.048116907 0.07541195
5 -0.20859858 0.26343086 -0.8169168 0.2158008 -0.1999866 -0.3364959 -0.53473485 0.39474863 0.028903497 0.086365715
