4 10
3 -0.17347345 0.76810074 0.13109307 0.5875449 -0.24906902 0.056708656 -0.08922471 -0.5195151 -0.21668255 -0.28349492
0 -0.1393661 0.6147812 0.12377643 0.44319615 -0.12665966 -0.003850703 -0.047949187 -0.39618954 -0.10914427 -0.23875278
1 -0.15917908 0.6321599 0.087957285 0.40287405 -0.17880014 -0.022004912 -0.098701686 -0.31922686 -0.17795286 -0.27032584
2 -0.18182662 0.6203696 0.12878305 0.44874585 -0.16774966 0.054233845 -0.10564788 -0.3827463 -0.09853429 -0.25901398
