6 10
1 -0.19617254 0.2779721 -0.75411874 -0.19285971 0.12814324 -0.22238337 0.6963986 -0.37078884 0.31655174 0.028687494
6 -0.22650193 0.27837607 -0.7741171 -0.1856177 0.117220946 -0.2821175 0.687655 -0.32188377 0.26063806 0.00938224
0 -0.2347547 0.2739183 -0.76149935 -0.17615463 0.18092711 -0.2892358 0.6255214 -0.3344601 0.30100614 0.025157452
5 -0.15919347 0.22700424 -0.73692364 -0.17169005 0.13974547 -0.21821192 0.65875286 -0.33254528 0.32534045 0.020908153
2 -0.16059515 0.22505213 -0.7112108 -0.22627193 0.17978626 -0.20356938 0.68911535 -0.36664647 0.32801783 0.063019864
3 -0.1773304 0.254572 -0.7447137 -0.19754435 0.11939899 -0.26470822 0.644009 -0.27986383 0.30345896 -0.017833386
