6 10
0 -0.14556636 -0.25974286 0.070274666 -0.44535133 -0.6815071 -0.05413935 -0.5429153 -0.45473692 0.0824433 0.3338592
3 -0.13520782 -0.26028123 0.04362886 -0.48342976 -0.71682286 0.008198861 -0.4998813 -0.5034257 0.059663687 0.31432024
5 -0.16002552 -0.30379662 0.110823736 -0.38888192 -0.69431436 -0.04710838 -0.51681775 -0.4790608 0.13670847 0.30821422
1 -0.17315263 -0.33062834 0.120955646 -0.39841458 -0.70130414 -0.02135168 -0.5079414 -0.43984136 0.14282946 0.3669382
2 -0.11200253 -0.31867015 0.09148883 -0.3549111 -0.7028398 -0.044719167 -0.5043316 -0.4793593 0.14692724 0.35937583
4 -0.17905556 -0.25297785 0.12499829 -0.44710445 -0.6877528 -0.051261626 -0.5146114 -0.42869112 0.13638137 0.28406364
