7 10
1 -0.06894868 -0.4567643 0.6709582 -0.1424877 0.1665188 0.10540777 0.699189 0.2883963 -0.1495528 0.2667338
2 -0.094607025 -0.3972167 0.6601183 -0.20794897 0.24250135 0.15633042 0.71793455 0.30565113 -0.18993497 0.3372352
4 -0.10791907 -0.36059207 0.6784595 -0.19041434 0.22997022 0.111214496 0.71638685 0.28794655 -0.16166706 0.32184255
0 -0.07512405 -0.4697828 0.6831751 -0.21749024 0.16670524 0.14439537 0.68923736 0.3321165 -0.2156027 0.28111562
3 -0.094809085 -0.35738635 0.67327833 -0.19184864 0.23311877 0.09348472 0.6850122 0.33339402 -0.13038221 0.32531658
6 -0.05712061 -0.47758064 0.64637285 -0.14944936 0.23913321 0.10148802 0.6787544 0.29089668 -0.10660824 0.24131595
5 -0.016304843 -0.47932196 0.6732853 -0.21146522 0.15814644 0.18076856 0.621367 0.30736694 -0.13098119 0.23072933
