7 10
1 -0.08227721 -0.17125073 0.35729328 -0.1096673 -0.27758366 0.35389796 -0.7130247 -0.022865122 0.7256147 0.21175364
4 -0.07316005 -0.18236597 0.38261163 -0.09600563 -0.25004342 0.33335847 -0.70121926 0.02426329 0.7106608 0.27260423
5 -0.1153184 -0.11573516 0.34668335 -0.17096709 -0.2790781 0.36767936 -0.71724385 0.027135074 0.7228113 0.15793326
2 -0.10690598 -0.1040692 0.31744978 -0.13499758 -0.22553699 0.3356107 -0.71931297 0.030687647 0.7360395 0.21660425
0 -0.08506589 -0.13265282 0.38451058 -0.1379274 -0.30713123 0.3222645 -0.6665672 -0.019178014 0.71898925 0.2135268
3 -0.1250755 -0.09461109 0.39211783 -0.14446376 -0.29011518 0.28484878 -0.7308771 -0.040444292 0.71325755 0.19173424
6 -0.11384333 -0.16971737 0.33863205 -0.10149191 -0.30762893 0.28981715 -0.69959104 0.0031161453 0.70290077 0.22473788
