7 10
3 -0.40958107 -0.2510146 -0.24250498 -0.4777816 0.527979 0.36660117 0.39030612 0.07858805 0.030711552 -0.5951308
4 -0.38972774 -0.325048 -0.22168493 -0.44374833 0.52604455 0.32973787 0.41272867 0.1473842 -0.029529748 -0.5883111
6 -0.46347868 -0.2368513 -0.27925104 -0.4818747 0.5286498 0.39196402 0.34809485 0.061190277 -0.024689525 -0.5701484
1 -0.4522619 -0.27470115 -0.2579343 -0.42157954 0.5055153 0.37853855 0.38485613 0.11438392 0.048656523 -0.5688539
2 -0.46126035 -0.33019698 -0.28820327 -0.4707828 0.47429872 0.35430968 0.32560086 0.14594933 0.01612338 -0.5887473
5 -0.46800247 -0.32570732 -0.2622126 -0.4097635 0.5067442 0.3477851 0.39972535 0.08457313 0.0024698211 -0.55384433
0 -0.46760806 -0.31573382 -0.29783875 -0.44261327 0.5083638 0.39973632 0.33752522 0.10423538 0.05563345 -0.51956713
