7 10
4 -0.37978005 0.6497346 -0.23950362 0.4879148 -0.3592431 0.09219609 -0.067822896 0.35768163 -0.51028913 0.24527086
2 -0.3350608 0.6273568 -0.2633058 0.50161153 -0.31501722 0.08351413 -0.112426 0.3940903 -0.56429714 0.30226877
3 -0.33546206 0.6124099 -0.2731245 0.44389564 -0.2811946 0.04567491 -0.08724965 0.39665154 -0.5384271 0.30103332
0 -0.34987327 0.6171211 -0.30381712 0.47354263 -0.3207502 0.07730382 -0.15092638 0.3378641 -0.52897185 0.2594189
6 -0.374693 0.6450708 -0.2803923 0.44935483 -0.32205218 0.12047966 -0.09514212 0.34865543 -0.51574415 0.31583777
5 -0.32823434 0.6322407 -0.2897301 0.46065938 -0.31729484 0.06024702 -0.13857381 0.36453444 -0.5398427 0.21260941
1 -0.3445466 0.63309515 -0.24385937 0.4125843 -0.27873513 0.038596366 -0.089080185 0.3772868 -0.5256156 0.27671534
