7 10
1 -0.12162847 -0.5503857 0.123280175 0.19770321 0.7345077 0.024493966 -0.23163347 0.41320607 0.54635817 0.084577836
4 -0.18130794 -0.5506211 0.14520337 0.218251 0.73538554 -0.0110887345 -0.30314752 0.41313985 0.44973075 0.07274438
3 -0.18468998 -0.54951257 0.17868328 0.18402946 0.7419565 0.04763532 -0.29044634 0.38792065 0.5122931 0.09800722
5 -0.10222129 -0.5434209 0.1913965 0.19094935 0.69280154 0.06574557 -0.25906923 0.3674879 0.5169038 0.08745853
2 -0.14263779 -0.47851455 0.14245796 0.1484798 0.7634124 0.053430762 -0.2840669 0.40340942 0.507961 0.09429587
6 -0.11657437 -0.5196341 0.15470402 0.16726 0.7095523 0.08199753 -0.21880394 0.40819752 0.51069427 0.050708342
0 -0.1363316 -0.5202432 0.16771694 0.19065735 0.75854975 0.014600359 -0.27922294 0.3775909 0.50309765 0.025078924
