7 10
5 0.16462004 0.3556134 0.93525296 0.382233 0.29324284 0.2516431 -0.19262071 -0.13449311 -0.040575 0.17451628
6 0.1474761 0.34087503 0.9157121 0.40117797 0.34917325 0.22598803 -0.20196159 -0.077345595 -0.033256054 0.17035621
1 0.21210581 0.30379093 0.95990264 0.38667563 0.36143884 0.25037044 -0.21402124 -0.11914836 -0.024489272 0.10105308
2 0.13109757 0.36160988 0.9037125 0.37276888 0.28588077 0.28694108 -0.22823557 -0.133273 -0.089959875 0.13199262
3 0.14959903 0.38401464 0.94851893 0.36582318 0.272419 0.3180245 -0.17792279 -0.12768522 -0.08311316 0.13141465
4 0.21603821 0.29685143 0.9284205 0.3648067 0.33407885 0.2825836 -0.23810072 -0.063366994 -0.020556241 0.13111153
0 0.19223185 0.36028308 0.9552829 0.37193912 0.34849748 0.22992547 -0.21638437 -0.05802933 -0.100911126 0.13395387
