7 10
4 0.26656565 -0.7180221 -0.47866142 -0.09805681 0.38636947 -0.49081352 0.0056549083 0.0042102747 0.28213263 -0.19465345
5 0.2517819 -0.7003831 -0.42236793 -0.112653114 0.43416074 -0.57601887 0.030744262 -0.058337707 0.24338746 -0.22389062
1 0.31077692 -0.6698367 -0.4527812 -0.12645918 0.47714105 -0.51875424 0.05973132 -0.030404642 0.26149386 -0.13898468
6 0.28072 -0.78220236 -0.4277259 -0.07768823 0.4233057 -0.6254222 0.09750954 -0.07374624 0.19919023 -0.17260607
0 0.297461 -0.70681137 -0.40759498 -0.14570391 0.473206 -0.4795392 0.04186848 -0.010055843 0.2885309 -0.13413548
2 0.28688422 -0.69372374 -0.44976777 -0.11161916 0.44885626 -0.5966906 0.076417275 -0.033179823 0.27842703 -0.23722766
3 0.26058367 -0.78299487 -0.38106105 -0.17711876 0.43954122 -0.6246312 0.07469828 -0.07505727 0.1546158 -0.23396935
