7 10
5 0.26459047 -0.15165116 0.09725471 0.63426113 0.42247173 -0.08211366 -0.5323498 0.017177328 -0.12988481 0.53833246
2 0.23894058 -0.151267 0.06505329 0.69351906 0.45450684 -0.033936083 -0.55995065 -0.017753465 -0.12275859 0.51640415
3 0.2842739 -0.12863214 0.16313188 0.6841023 0.3888691 -0.10565355 -0.51381135 0.01851623 -0.17921273 0.56976146
4 0.20990936 -0.18180951 0.10507613 0.6642836 0.4291453 -0.028866 -0.5393832 0.018666973 -0.15626356 0.5588881
1 0.22522655 -0.15622555 0.10303477 0.6696342 0.40522692 -0.086917944 -0.53418666 -0.02911162 -0.17330122 0.55902904
6 0.23310281 -0.16018999 0.1305145 0.67573 0.41528207 -0.04114681 -0.5672435 -0.06498738 -0.14647005 0.5173054
0 0.2044519 -0.13343 0.13498773 0.66720057 0.42700502 -0.0215807 -0.54289275 -0.060323145 -0.16156067 0.47029224
