7 10
3 -0.670282 -0.25252524 -0.15810527 -0.33174148 -0.43962413 -0.48680332 -0.05368779 -0.04612681 -0.2938474 -0.56231123
6 -0.6291114 -0.14879018 -0.1359062 -0.32509142 -0.5155024 -0.5267063 -0.07447033 -0.12663344 -0.21234088 -0.51268446
2 -0.68650144 -0.17852955 -0.17865548 -0.30669865 -0.45091254 -0.55352855 -0.07937216 -0.13320276 -0.22220348 -0.53804946
5 -0.6489325 -0.21335341 -0.21392076 -0.24902873 -0.5187626 -0.42724285 -0.04918763 -0.11009508 -0.18540034 -0.4814567
4 -0.59457195 -0.17086838 -0.15037954 -0.29821378 -0.5084134 -0.47125977 -0.03428338 -0.12840666 -0.22221811 -0.5049393
1 -0.687119 -0.19027221 -0.18711823 -0.303155 -0.57212245 -0.48619694 -0.079662055 -0.10171686 -0.18341973 -0.49737635
0 -0.63024807 -0.24036898 -0.2100533 -0.34081647 -0.4516197 -0.52449924 -0.030977339 -0.12993456 -0.25511286 -0.4800271
