7 10
0 -0.25175273 -0.33896592 0.14373118 -0.5374239 0.28187922 -0.8729113 0.23771393 -0.2834476 0.024391968 0.0033401034
1 -0.22724326 -0.2923711 0.24214713 -0.54469764 0.25464848 -0.8643065 0.24638014 -0.2919667 0.05263421 0.018670848
5 -0.2671251 -0.29064554 0.21311586 -0.48986134 0.2934331 -0.85005796 0.22049841 -0.2291309 0.015477268 0.021480488
6 -0.14385071 -0.3293632 0.1579003 -0.5295666 0.26021844 -0.8543811 0.18183032 -0.29877016 0.095211655 0.06343286
3 -0.2093823 -0.3047287 0.22562258 -0.52944386 0.24201015 -0.88543135 0.21125354 -0.27353802 0.06685117 0.08133511
4 -0.19223845 -0.3565566 0.23075797 -0.4742423 0.2737187 -0.8114138 0.18552281 -0.26736495 -0.0032861119 0.0879711
2 -0.2369841 -0.31953523 0.26061302 -0.50050545 0.21829952 -0.9000061 0.2367726 -0.22519904 0.041192524 0.046905756
