6 10
1 -0.36190203 0.22554906 -0.13436894 0.66902256 -0.26254234 -0.30395573 -0.3076855 -0.14274494 0.52415544 -0.44230118
2 -0.3905725 0.22370148 -0.13405426 0.66847694 -0.23469138 -0.4276154 -0.29862392 -0.0717089 0.5064485 -0.42158386
3 -0.3842724 0.22720313 -0.124434374 0.7286131 -0.16416636 -0.42535543 -0.30776843 -0.08758585 0.4754606 -0.3921032
0 -0.32801324 0.15695255 -0.16821855 0.67787564 -0.22746734 -0.390767 -0.3294579 -0.119376145 0.5164071 -0.3409351
5 -0.3617951 0.19850603 -0.14726606 0.6723424 -0.20446822 -0.3747112 -0.31299123 -0.12229266 0.5037074 -0.4250035
4 -0.3103919 0.17902261 -0.1319619 0.6652837 -0.2033085 -0.34180441 -0.23202518 -0.12408444 0.46482363 -0.40543407
