7 10
2 -0.117779754 0.30178595 -0.28062385 0.24720462 0.296446 -0.45868203 -0.925408 0.1393623 -0.17022213 -0.11846284
1 -0.087296836 0.33548844 -0.29632944 0.19997153 0.25379547 -0.44507265 -0.9343483 0.069224425 -0.09362267 -0.10798842
3 -0.10654848 0.31397304 -0.30750865 0.19292736 0.27542025 -0.402921 -0.9041332 0.08703603 -0.16294721 -0.15989845
4 -0.13066633 0.33268428 -0.33200672 0.17788993 0.25701037 -0.3702426 -0.9214654 0.11405205 -0.1426187 -0.12149216
0 -0.05658193 0.24785535 -0.25440127 0.20178269 0.26591024 -0.41489005 -0.9541211 0.11233122 -0.08923206 -0.14927332
5 -0.062074263 0.27680117 -0.29215738 0.17856705 0.2293278 -0.3815728 -0.94749063 0.11271298 -0.17178737 -0.09562597
6 -0.1077595 0.30687642 -0.3275961 0.2218102 0.2926267 -0.3819964 -0.9321363 0.13946895 -0.16065289 -0.1567082
