7 10
3 0.5550128 -0.6296298 -0.39858142 0.4516407 -0.21020874 0.10671182 -0.09214584 0.24306735 0.032598875 0.47396556
4 0.56750184 -0.59806114 -0.36720937 0.46171427 -0.17096414 0.09162516 -0.16991565 0.3166701 0.09391274 0.45044258
1 0.5354631 -0.6036475 -0.37633005 0.4508279 -0.21085781 0.10444926 -0.10069781 0.24982443 0.104289755 0.45071578
0 0.5708124 -0.6102312 -0.3890839 0.43048307 -0.16111676 0.06920085 -0.13360804 0.22087795 0.106584124 0.49295318
2 0.51150376 -0.589956 -0.33275068 0.44946003 -0.21595925 0.115094006 -0.16517606 0.2799955 0.07226611 0.49046466
6 0.53562695 -0.64188284 -0.40041804 0.44785303 -0.22615208 0.037181616 -0.14959614 0.24390467 0.11665552 0.415724
5 0.49639004 -0.6232674 -0.3815886 0.47828105 -0.20257424 0.07365787 -0.09620223 0.2814028 0.11967037 0.44451997
