6 10
5 0.15961885 0.19331236 0.9280795 -0.621693 0.050418273 0.21129872 0.15367104 0.06808985 0.24709384 0.08884564
0 0.14560057 0.16145667 0.9235333 -0.6166158 0.032624964 0.24714437 0.10894454 0.12615058 0.3020165 0.029316591
2 0.106724784 0.2083854 0.9219067 -0.6247721 0.10830192 0.21259874 0.14159507 0.11642903 0.3224861 0.10879934
4 0.08344183 0.1890356 0.8994183 -0.53945714 0.039418224 0.2268074 0.114934355 0.13415854 0.2545851 0.0662907
1 0.1805712 0.20013496 0.89763266 -0.53938043 0.072791025 0.18002947 0.17709702 0.07762088 0.2473429 0.03962252
6 0.14252219 0.11285458 0.87259173 -0.5566794 0.09291791 0.23453669 0.14803755 0.049989197 0.26414573 0.06471958
