7 10
6 -0.16029947 0.3314529 0.8373626 0.04827341 -0.5265396 -0.46528587 0.24317537 0.12622188 -0.26161242 -0.13985369
3 -0.06760315 0.32673758 0.858985 0.08713146 -0.48312965 -0.41525924 0.15944101 0.062279023 -0.3272747 -0.09159983
5 -0.11384193 0.35281613 0.8243798 0.10886754 -0.5038918 -0.42010736 0.22515252 0.03888668 -0.33651334 -0.09002006
4 -0.12865598 0.3318794 0.76799124 0.09884212 -0.50106525 -0.43576556 0.18772908 0.1299545 -0.35489073 -0.09663383
0 -0.09801594 0.3216971 0.84390324 0.10871013 -0.46880782 -0.40552592 0.20712475 0.06497026 -0.36198372 -0.16544434
1 -0.10768072 0.3364471 0.82861084 0.087761536 -0.5135546 -0.42342666 0.24519384 0.06681502 -0.31332114 -0.13853917
2 -0.0972686 0.368212 0.8345493 0.113937154 -0.4997617 -0.40517583 0.19588931 0.099234134 -0.3326744 -0.104552306
