6 10
2 -1.4856402 0.25559682 -0.7407716 -0.5628284 1.0967054 -0.9469709 0.07159179 0.882666 0.051439244 -0.447584
1 -1.4058726 0.24413049 -0.62614924 -0.5244166 0.98465663 -0.90736383 0.030566417 0.8289564 -0.013825186 -0.4560643
3 0.06612395 1.1183091 -0.056204304 1.0168263 -0.80217505 -0.51988626 0.48474222 0.31992817 -0.21200486 -0.26428568
5 0.09889617 1.1250942 -0.049737025 0.94860303 -0.8051107 -0.51266235 0.38332024 0.36116126 -0.21438007 -0.19776736
0 0.08140183 1.1081679 -0.14640778 0.9318762 -0.74956304 -0.48728818 0.45496294 0.297083 -0.21241939 -0.21705304
4 0.07103106 1.1458995 -0.12398905 1.023511 -0.82294667 -0.46621385 0.4325635 0.34318826 -0.16291465 -0.1881477
