7 10
2 -0.5331063 0.17591995 0.06400893 -0.2696663 0.21112038 -0.05969492 -0.48715994 -0.3726709 0.78494966 -0.11458383
1 -0.52834195 0.19794194 0.05672259 -0.19876894 0.23699887 -0.0013307881 -0.39922312 -0.38464162 0.82184404 -0.13344683
5 -0.50687677 0.19220428 0.051605538 -0.24023236 0.2601113 -0.019540248 -0.4637707 -0.36149582 0.77200156 -0.098369144
4 -0.5341329 0.1667707 0.09092598 -0.28161418 0.27472615 -0.07457829 -0.4351801 -0.3037994 0.7819128 -0.16936639
6 -0.47402224 0.18104272 0.12369579 -0.19726244 0.2232182 -0.07569012 -0.46781954 -0.33932003 0.7862986 -0.17650346
3 -0.53047025 0.2020361 0.06112827 -0.26276267 0.23262274 -0.011577108 -0.44684777 -0.31602824 0.7424402 -0.13784498
0 -0.5244307 0.18391271 0.08702882 -0.19945966 0.24047698 -0.016648155 -0.45814037 -0.3850001 0.7736398 -0.09055942
