7 10
2 0.010855507 -0.3242883 0.1649955 -0.27866635 -0.51600844 -0.13222991 -0.07519413 0.5990548 -0.62344766 -0.16415638
3 0.023037368 -0.36871102 0.1825998 -0.26537332 -0.513225 -0.085021555 -0.12622312 0.6025833 -0.6482609 -0.19053318
6 0.059842907 -0.3599222 0.21631448 -0.3045091 -0.5312282 -0.0934324 -0.112197235 0.5924917 -0.64223605 -0.15708648
5 0.0533666 -0.3439703 0.16799504 -0.23905826 -0.5025874 -0.12569775 -0.16602027 0.60312223 -0.62025493 -0.18162005
0 -0.013952772 -0.35615185 0.21640034 -0.3344386 -0.5525293 -0.12782048 -0.16848491 0.68044263 -0.6010142 -0.2212565
4 -0.026648931 -0.3298835 0.18336888 -0.23622108 -0.4907694 -0.13507529 -0.15478134 0.6272737 -0.6554684 -0.19934356
1 -0.031128302 -0.37840334 0.13590644 -0.32267904 -0.45673564 -0.15469344 -0.15126072 0.6359981 -0.5977602 -0.20662393
