6 10
1 0.1463951 0.3244965 -0.58450264 0.56164443 -0.07496919 -0.11393562 -0.38667157 0.17238648 0.11043229 -0.6069991
2 0.1541288 0.23706013 -0.6226197 0.5873068 -0.053995464 -0.04076688 -0.45100248 0.19855532 0.06394386 -0.55138624
4 0.14612271 0.34139657 -0.60867167 0.5470454 -0.025244739 -0.072720945 -0.46069157 0.22288966 0.0734441 -0.6350235
5 0.12907743 0.27644157 -0.5963001 0.5621233 -0.078195944 -0.06413573 -0.4051045 0.20740047 0.07893466 -0.5870683
0 0.14550789 0.2823586 -0.59466434 0.5505356 -0.07799178 -0.023608524 -0.44390574 0.20321155 0.06775836 -0.60557497
3 0.119580455 0.29843614 -0.58999294 0.54714924 -0.06519475 -0.1148779 -0.41562706 0.21427079 0.10526518 -0.60025734
