7 10
1 -0.07741996 0.24531941 0.17203034 -0.6549072 0.0011746216 -0.58329976 -0.40171614 -0.20029461 0.5042266 -0.36203268
2 -0.04018361 0.20746931 0.1921929 -0.6434824 -0.010255438 -0.5830663 -0.42496842 -0.15175676 0.4877701 -0.33575067
5 0.04359136 0.24026515 0.20838462 -0.6106839 0.0578317 -0.5482534 -0.42043817 -0.1937637 0.4752739 -0.36787567
4 0.007387723 0.22301935 0.14650527 -0.65962106 -0.0060211397 -0.57934636 -0.4113203 -0.11901865 0.48881355 -0.35638207
0 0.031467017 0.19743957 0.1664236 -0.6642979 0.023569256 -0.54494387 -0.396434 -0.17850871 0.5241903 -0.37451118
3 0.03268564 0.23996508 0.14013287 -0.62655187 -0.023135284 -0.59893143 -0.38506383 -0.1290665 0.5260241 -0.39500833
6 -0.046911355 0.22315735 0.11300759 -0.6337585 -0.023596443 -0.54671246 -0.39671835 -0.21155372 0.44402152 -0.3800406
