6 10
1 0.0609671 -0.090474464 0.28015932 0.3589235 0.21313843 -0.42128918 0.44414085 0.023221282 0.91563225 0.04061912
2 0.08335619 -0.06380086 0.30342254 0.34392422 0.17554735 -0.46040735 0.3791256 0.08513522 0.92493117 -0.028255245
4 0.11153376 -0.06268598 0.31058878 0.31410164 0.14415047 -0.42751127 0.407192 0.019003995 0.82526094 -0.023557393
3 0.11175195 -0.14943996 0.2841722 0.30200455 0.22639787 -0.3784603 0.42586303 0.070134595 0.92599595 -0.035127506
5 0.019620834 -0.11255991 0.3269687 0.25629693 0.14713918 -0.41289264 0.39091685 0.10124623 0.8832716 0.038298152
0 0.022770295 -0.09477285 0.29928783 0.23284633 0.21284826 -0.43789577 0.31578562 0.100188285 0.8513279 0.036293074
