7 10
6 0.61918986 0.25749096 -0.12844737 -0.15067077 -0.10973646 -0.12893115 0.38862318 0.38668004 -0.12405262 0.7363233
5 0.6788604 0.25357065 -0.14137734 -0.16118096 -0.09062492 -0.21193889 0.33376586 0.3828992 -0.07027154 0.7329232
1 0.6536353 0.24524733 -0.08686871 -0.17294069 -0.048921645 -0.146058 0.37897322 0.39382905 -0.058219053 0.73673815
4 0.6704412 0.2918362 -0.16085635 -0.24620005 -0.06989183 -0.19488317 0.32447776 0.33411154 -0.12802939 0.7380385
2 0.6220988 0.27710274 -0.19521262 -0.26000383 -0.09804719 -0.21500008 0.32463363 0.38931096 -0.04086264 0.69853514
3 0.6655146 0.21175584 -0.118958265 -0.19405319 -0.02725335 -0.20452824 0.3900691 0.40057838 -0.08118048 0.7318604
0 0.64000595 0.30456105 -0.18736146 -0.25029987 -0.06571861 -0.2129348 0.3815966 0.3213021 -0.065165445 0.6853605
