6 10
1 -0.41253707 -0.12910086 -0.28405812 -0.014099764 -0.40891445 0.0021421674 0.11804192 0.74962884 -0.53512067 0.28280833
2 -0.39792183 -0.15283692 -0.29352647 -0.02056154 -0.3730843 0.024616987 0.15499541 0.7220099 -0.49268928 0.17404425
3 -0.3741556 -0.1395686 -0.33124134 -0.04422141 -0.330863 0.056107663 0.11380904 0.75862485 -0.46413845 0.21752627
5 -0.4087075 -0.095324695 -0.3108377 -0.08061172 -0.4156779 0.03367207 0.15202524 0.7595276 -0.43035576 0.25826025
0 -0.40325478 -0.19608723 -0.29451832 -0.08769296 -0.39120436 -0.0076275086 0.09816717 0.7345264 -0.5038499 0.23319314
4 -0.36906284 -0.16904305 -0.25360492 -0.027873464 -0.380626 0.035430893 0.1412777 0.75293386 -0.43367597 0.22621222
