7 10
0 -0.53203994 -0.027737338 -0.04046802 -0.11060683 -0.49190506 0.07605437 -0.55472434 0.31759226 0.52430624 0.31369442
1 -0.49273136 -0.05946134 0.012969067 -0.031551123 -0.49758345 0.23532747 -0.54742134 0.3336299 0.5580003 0.29140583
2 -0.5614796 -0.088565744 -0.07876381 -0.058962557 -0.4991213 0.17980894 -0.49558312 0.32684994 0.5427738 0.31290227
5 -0.5642406 -0.07915072 -0.06637568 -0.065440014 -0.5468973 0.035185255 -0.48926398 0.25803548 0.5291004 0.38903716
4 -0.5779641 -0.1067223 -0.028481534 -0.08835608 -0.49690843 0.1898407 -0.5606046 0.27626705 0.51884496 0.2746352
3 -0.5752752 -0.030841175 -0.03302727 0.010037952 -0.491454 0.22635421 -0.5541698 0.2565986 0.5693825 0.30554885
6 -0.48944288 -0.09664435 -0.088127606 -0.12938555 -0.541876 0.07611943 -0.5105121 0.3276124 0.5822531 0.37934703
