5 10
1 0.1046299 -0.12451774 -0.4123965 0.72275 0.17920968 -0.24361713 0.5946358 0.53583544 -0.24970149 0.06676057
3 0.14820215 -0.08679605 -0.35919517 0.68244785 0.16218382 -0.2025994 0.6116591 0.49926406 -0.22349532 0.04937547
4 0.091198616 -0.037397515 -0.38439322 0.7385089 0.18828632 -0.14991611 0.6041051 0.4785744 -0.22909975 0.027258832
2 0.037561372 -0.029998103 -0.355725 0.69517094 0.21174498 -0.19981652 0.56843984 0.4649938 -0.22002953 -0.016295958
0 0.09623876 -0.10687618 -0.31198132 0.69621605 0.1930413 -0.13143589 0.5694499 0.41391325 -0.19445527 0.039077856
