7 10
2 -0.43745527 0.49432305 0.6062257 -0.39769548 0.116160706 -0.08966658 -0.14547187 -0.3687746 0.09148808 -0.5232346
4 -0.40482837 0.46678293 0.6127463 -0.41678503 0.008346922 -0.14959104 -0.17461945 -0.36549562 0.16275463 -0.49427053
0 -0.45432845 0.51397103 0.53949845 -0.3998137 0.02441906 -0.17429025 -0.111654244 -0.3604225 0.15092848 -0.4870368
1 -0.4109214 0.47806573 0.66260725 -0.40862948 0.1218299 -0.11877309 -0.18580674 -0.34962735 0.16398184 -0.472898
6 -0.474396 0.5124588 0.6310015 -0.343495 0.0916608 -0.15663528 -0.17972365 -0.30214784 0.12696299 -0.52970856
3 -0.46682018 0.46315548 0.5728101 -0.38373917 0.030719941 -0.17888203 -0.14553867 -0.36920252 0.16773401 -0.4769966
5 -0.47155842 0.48540747 0.62052685 -0.34254238 0.044398185 -0.12656493 -0.08728865 -0.33315897 0.0903693 -0.5380588
