6 10
0 0.050576463 -0.19485769 0.11059124 0.6345709 0.32746613 0.34953418 -0.59131265 -0.46208066 -0.3120067 0.34462047
3 0.018764082 -0.14375392 0.053166665 0.6151418 0.32271433 0.41826382 -0.560731 -0.4403934 -0.29553503 0.3574904
1 -0.0405723 -0.21313584 0.07299034 0.6042246 0.33080608 0.42899787 -0.5666727 -0.42005968 -0.37038413 0.3589132
2 -0.041865453 -0.11368427 0.09296828 0.58938324 0.32981735 0.4114465 -0.57557625 -0.4213681 -0.30011016 0.3018937
4 -0.005849805 -0.10461076 0.1141762 0.6500758 0.34260687 0.3436125 -0.5815469 -0.45305 -0.3415571 0.28847033
5 0.026259447 -0.17844072 0.11100114 0.6191854 0.27957928 0.40686733 -0.5473854 -0.38727528 -0.3109436 0.3473142
