7 10
0 -0.33623964 0.3310373 -0.540964 -0.026588982 0.6388536 0.1328037 0.356898 0.41670325 -0.16630805 -0.3350127
1 -0.35026672 0.35317668 -0.60752165 -0.015888311 0.5616559 0.104706086 0.37370497 0.40790045 -0.24308057 -0.3266119
2 -0.30948138 0.38953525 -0.62182665 -0.045115147 0.6165768 0.11514002 0.37530118 0.45548284 -0.25694084 -0.2939826
4 -0.26018614 0.3752091 -0.5747969 -0.0570031 0.62276417 0.03742251 0.35665232 0.41274285 -0.22956873 -0.28887457
3 -0.35321414 0.32091087 -0.54172814 -0.019402599 0.6245888 0.12291552 0.299603 0.44822806 -0.23411624 -0.3574054
5 -0.2752708 0.34851268 -0.6221457 0.0011020433 0.668354 0.0876479 0.30946806 0.4047732 -0.20864858 -0.34571004
6 -0.3579836 0.4132515 -0.55836296 0.018327247 0.6623777 0.05583006 0.3594982 0.47429237 -0.20299287 -0.3718184
