7 10
5 0.07366039 -0.17745651 0.049896732 0.69006413 0.3131611 -0.38057688 -0.20165734 0.028292688 0.7609658 -0.109623104
6 0.0047726743 -0.21287018 -0.021028653 0.64586437 0.3365246 -0.31902692 -0.2521866 0.047809582 0.7903216 -0.04978356
3 0.00061530323 -0.19479956 -0.011657332 0.64783216 0.35056007 -0.3404012 -0.20277718 0.0008946429 0.80951375 -0.053164218
4 0.09312836 -0.18580505 -0.013627858 0.6713918 0.34935185 -0.37609762 -0.22103468 0.019498114 0.74633956 -0.10311715
2 0.001991482 -0.23159358 0.046435334 0.6715937 0.28674662 -0.32274094 -0.25518507 -0.0017394972 0.80538493 -0.09646759
1 0.07485834 -0.17243356 -0.011357002 0.641506 0.33923912 -0.37619415 -0.21589452 0.05711043 0.7800071 -0.09007698
0 0.08219351 -0.17621295 0.037836656 0.66273195 0.32215822 -0.35242692 -0.23702472 -0.007921756 0.7819834 -0.13643776
