7 10
1 0.11739267 0.13404644 0.29089406 -0.13637643 0.54949015 -0.7770476 -0.64975345 0.05966341 -0.12821896 0.12975498
4 0.044893987 0.17430513 0.34081218 -0.07961244 0.48254234 -0.743319 -0.6462845 0.025298964 -0.10401378 0.037637446
3 0.06493998 0.12133032 0.32833973 -0.15374571 0.55720335 -0.7394073 -0.6319273 0.06292707 -0.14802183 0.109019876
0 0.022742165 0.12958805 0.31215513 -0.15780495 0.5281318 -0.73592335 -0.6312306 0.033159077 -0.09179849 0.046756644
5 0.05643352 0.17227171 0.27092034 -0.09578207 0.52232885 -0.7640298 -0.59351504 0.044642676 -0.06767234 0.11421418
2 0.07468155 0.17320137 0.30787557 -0.12486534 0.5353447 -0.7318544 -0.6419162 -0.0037170835 -0.10022347 0.037538145
6 0.060182247 0.13158154 0.29602247 -0.13887891 0.4906262 -0.7738112 -0.58375376 0.06933214 -0.057818726 0.09449888
