7 10
1 -0.26832652 0.35512704 0.60164064 0.5947119 -0.2960457 -0.094758436 0.22206897 0.1491496 -0.57985276 0.008202227
6 -0.2642681 0.3286249 0.6356338 0.62555045 -0.2567374 -0.10952923 0.26544893 0.1020071 -0.55270606 0.018723238
2 -0.23187158 0.40112615 0.6220903 0.5906533 -0.2842559 -0.13872895 0.21772414 0.13227 -0.5200124 0.013922606
5 -0.2712929 0.3109699 0.59639764 0.6206518 -0.2597451 -0.1288011 0.251809 0.14468747 -0.51586455 0.060184672
4 -0.2544162 0.36458105 0.63074535 0.5335877 -0.2879308 -0.09862507 0.19626361 0.09114441 -0.5989492 -0.06581627
0 -0.24470128 0.31481755 0.5888974 0.57402194 -0.3441451 -0.14433393 0.16231236 0.153665 -0.59551215 -0.054078076
3 -0.18476014 0.40564838 0.59125006 0.6139221 -0.3582768 -0.17162284 0.13900357 0.16391204 -0.5646608 -0.07248566
