7 10
6 0.052950524 -0.3078947 0.7208123 0.28993472 -0.084118396 0.100820206 0.29721618 0.16330504 0.745765 -0.0046411846
3 0.045851152 -0.27688137 0.7531729 0.37766173 -0.13295549 0.21771058 0.2367539 0.13660404 0.71127564 -0.00021868403
0 -0.023325147 -0.23255602 0.7174976 0.34852993 -0.1222131 0.11054705 0.23722668 0.1768826 0.733334 0.044097368
5 -0.00064167613 -0.2697789 0.70774794 0.34737134 -0.17244451 0.0727713 0.25568545 0.16298567 0.7176918 -0.019982032
2 -0.010403391 -0.2853466 0.69404644 0.37407318 -0.19611014 0.1917452 0.21649753 0.18558379 0.7223689 0.024727995
4 0.01793793 -0.25880224 0.700382 0.3107071 -0.19061819 0.19704913 0.27169403 0.15586308 0.6951383 0.04955043
1 -0.051403146 -0.26326552 0.7110723 0.3528875 -0.1486005 0.091711074 0.24461211 0.15827228 0.70866174 -0.015015223
