6 10
6 0.07080302 0.41094702 -0.058570553 -0.4262492 -0.09820381 0.090929136 0.5132889 -0.68314606 -0.24361624 -0.47848812
4 0.10209633 0.34966046 -0.15564796 -0.45945314 -0.023676295 0.17092612 0.55402493 -0.6992157 -0.2973423 -0.4924706
5 0.051604766 0.401824 -0.13852319 -0.4573864 -0.11218498 0.16250196 0.46838284 -0.703529 -0.32398838 -0.5145027
1 0.09834514 0.4195229 -0.07315635 -0.40163517 -0.026730472 0.17468582 0.46992028 -0.68724185 -0.28497612 -0.5173735
2 0.10159916 0.3535119 -0.13222012 -0.40487427 -0.008253766 0.09040738 0.49622083 -0.6555339 -0.25844678 -0.440612
3 0.049250863 0.39152065 -0.087984875 -0.40861285 -0.04728004 0.10188515 0.519153 -0.6425493 -0.23234244 -0.4453043
