3 10
1 0.3087458 0.32492474 0.025112629 0.25066015 -0.47213405 -0.22071876 -0.07511397 0.27498305 0.07203969 -0.5595942
3 0.20442088 0.2031612 -0.018751577 0.16150363 -0.39088368 -0.11958894 -0.010983338 0.31562135 0.04424572 -0.46389714
2 0.27176228 0.3023304 -0.035381548 0.19245903 -0.4311614 -0.20563687 0.022687735 0.37069112 0.06727387 -0.5425553
