7 10
6 -0.0808238 0.61068034 0.37700975 -0.3672254 0.16443108 -0.033129506 0.21562468 -0.1518994 -0.80568373 0.19371729
3 -0.12306421 0.6472583 0.44091746 -0.32229313 0.13035613 -0.010320203 0.31948102 -0.07831249 -0.7809013 0.14730424
1 -0.08708944 0.59724516 0.38296226 -0.35579282 0.19500889 -0.05726176 0.19014479 -0.074137375 -0.72344947 0.13525762
5 -0.08296039 0.55188936 0.38267148 -0.29576102 0.20699099 0.017162414 0.28549483 -0.15324837 -0.7342731 0.11675687
4 -0.08467432 0.55665505 0.42770508 -0.37871182 0.22162871 0.017803254 0.2884851 -0.08851198 -0.80085146 0.14872539
2 -0.11607941 0.6485552 0.34250662 -0.31587154 0.20826903 -0.061326332 0.23418261 -0.0773343 -0.81266475 0.09630025
0 -0.11557257 0.6219799 0.38150215 -0.34077507 0.15374212 0.0022773247 0.27213493 -0.14989944 -0.77226526 0.18379445
