7 10
3 -0.33795455 -0.18146744 -0.5328669 0.5812076 -0.35277992 -0.53900045 -0.42856538 0.12613606 -0.1291451 0.08117939
4 -0.35169053 -0.24346702 -0.5576223 0.59783053 -0.3438664 -0.5365523 -0.4835983 0.16737165 -0.16284172 0.04413884
0 -0.3431209 -0.21546154 -0.55851763 0.60211927 -0.2940002 -0.5730172 -0.4336443 0.123729035 -0.15639886 0.05940443
1 -0.31432715 -0.22591764 -0.5153239 0.58483064 -0.36922726 -0.5875291 -0.47729683 0.15692796 -0.080527745 0.10966908
2 -0.35616758 -0.1539585 -0.5203495 0.60976714 -0.34305385 -0.5570947 -0.40017903 0.12053342 -0.113269456 0.04360697
6 -0.33100367 -0.1501194 -0.49370956 0.55393624 -0.2957144 -0.53961176 -0.3977896 0.097023405 -0.07024608 0.063869186
5 -0.2803005 -0.22651364 -0.4646619 0.5871358 -0.3496712 -0.47903192 -0.44150707 0.09694148 -0.14816739 0.064489625
