7 10
2 -0.12739238 -0.503669 0.57261145 -0.57213765 0.21078436 0.042761542 0.52315974 0.34550112 -0.012289412 -0.11134744
1 -0.287927 -0.5123732 0.5274365 -0.6018293 0.22965127 -0.036452174 0.53457594 0.45607394 -0.0572811 -0.016125457
4 -0.34769318 -0.55958664 0.4990008 -0.564938 0.24543189 -0.10900099 0.60229 0.43190023 -0.14151485 -0.05860849
5 -0.21641363 -0.46967176 0.5232187 -0.4937983 0.15383472 -0.019393235 0.49997002 0.4216815 0.0021328758 -0.061569817
6 -0.18917608 -0.49354866 0.51414067 -0.50420314 0.1445735 -0.02349269 0.46808964 0.37830082 -0.02443137 -0.07243602
3 -0.26364765 -0.4909815 0.5074965 -0.53236425 0.23189135 -0.031990387 0.5455761 0.44512033 -0.07679025 -0.028468644
0 -0.33634228 -0.52180016 0.48689523 -0.56723714 0.32306293 -0.05572495 0.6531694 0.4828581 -0.13792512 0.0050153085
