7 10
4 0.39017016 -0.013569556 0.1596068 0.020871654 0.68219143 0.101963036 0.76768786 0.41388562 0.21309593 0.1043009
3 0.3490488 -0.10915594 0.15843742 -0.041634224 0.6481569 0.07176931 0.7472545 0.3928449 0.22770198 0.122045845
2 0.39369214 -0.08016127 0.1536543 -0.02868916 0.67973083 0.13202 0.7149378 0.35993487 0.26642814 0.11660075
0 0.31190863 -0.030332906 0.12481427 -0.051217187 0.66674936 0.07628622 0.7474182 0.38764858 0.21140236 0.163251
1 0.30960009 -0.059076693 0.15601702 0.03176656 0.64780825 0.12888253 0.77512217 0.3745957 0.22720523 0.13878627
6 0.36066476 -0.07910297 0.14972013 0.046049375 0.6259012 0.130651 0.7490096 0.406338 0.24653 0.1479692
5 0.3231806 -0.011000335 0.10052796 0.0029779973 0.66566676 0.12919436 0.7609106 0.38212508 0.23181434 0.122214906
