7 10
3 0.17655359 0.19025393 0.21875393 -0.17892124 0.37707087 0.057404827 -0.046227 0.14307423 1.0500563 0.038313866
1 0.19448052 0.24647039 0.25887036 -0.17517148 0.4003478 0.061516013 -0.073761515 0.185983 1.0019561 0.08861409
2 0.1664277 0.15526542 0.2194285 -0.115699895 0.37851435 0.024910092 -0.117213055 0.17902927 1.0591811 0.05479217
4 0.1986712 0.20290352 0.196018 -0.17853582 0.33627415 0.079220474 -0.05356713 0.14698245 1.0474584 0.05344867
0 0.14164652 0.25313827 0.26235422 -0.12042002 0.39343607 0.10150398 -0.08596371 0.113150984 1.0306438 0.10507962
5 0.1761913 0.13901193 0.23654056 -0.15300018 0.33323598 0.076254144 -0.03589732 0.17853013 0.98825127 0.056506634
6 0.13265094 0.19009177 0.15951167 -0.1269403 0.40465757 0.060403682 -0.06772797 0.12356644 1.0387619 0.06934854
