7 10
0 -0.12255807 0.20657198 0.076422885 0.4676167 -0.05270822 -0.64074117 0.27182943 -0.26106098 0.83602977 -0.05339334
1 -0.089999236 0.1154157 0.084594205 0.34264898 -0.12537725 -0.59256494 0.32085735 -0.3254211 0.80325854 0.025616769
5 -0.100910306 0.15730724 0.09717552 0.40751287 -0.08657881 -0.62014925 0.33389518 -0.27362603 0.81965417 -0.009091123
2 -0.06265101 0.14987797 0.052577768 0.41525552 -0.09034873 -0.58306503 0.3765778 -0.29355502 0.78076 0.008771172
3 -0.09286057 0.18726823 0.07862157 0.4271144 -0.0642176 -0.62283325 0.2752532 -0.20770572 0.8078107 -0.07717693
4 -0.13603218 0.19874007 0.08649659 0.39511177 -0.047368947 -0.54794776 0.35917154 -0.3134974 0.77160287 0.02870609
6 -0.12335898 0.19997413 0.08185455 0.41636539 -0.06784482 -0.592669 0.3090855 -0.2692256 0.76453024 -0.054739263
