7 10
1 -0.18350133 0.27437016 -0.46171907 0.17562175 -0.59508026 0.24465598 0.09215338 0.7435952 -0.20230162 -0.2727676
0 -0.20794503 0.33129367 -0.5232714 0.26755446 -0.49971288 0.25371686 0.06375933 0.7591402 -0.17530116 -0.25831085
4 -0.14716803 0.32689422 -0.51684785 0.22236672 -0.54492885 0.20982306 0.13323042 0.7437315 -0.1526792 -0.29178032
2 -0.22737397 0.2396461 -0.47495267 0.2702273 -0.56905794 0.29028776 0.035262022 0.7226523 -0.11949243 -0.26978126
5 -0.19296068 0.2929078 -0.47156113 0.17925218 -0.56071174 0.2534529 0.100764394 0.7179092 -0.14787018 -0.31756085
3 -0.21895513 0.3039303 -0.467254 0.24125859 -0.55071515 0.20521209 0.06805393 0.7179606 -0.19120242 -0.3034323
6 -0.14898051 0.3133224 -0.4299083 0.2494651 -0.53321326 0.20754261 0.031971097 0.741752 -0.16763003 -0.28688714
