5 10
1 -0.46232736 -0.6125032 0.14380264 0.111252554 0.18774532 -0.0075430227 0.2082019 0.56336445 -0.32427278 0.57998204
3 -0.3591366 -0.57007986 0.21851534 0.16218571 0.17120005 -0.07069598 0.131973 0.59633154 -0.24077152 0.60845953
4 -0.41721997 -0.50959086 0.18787667 0.13789293 0.10154487 -0.07273841 0.18367043 0.6147662 -0.3397062 0.62700737
0 -0.4346547 -0.5853276 0.20781888 0.089629784 0.1902904 -0.01572797 0.16416895 0.56198543 -0.25337267 0.5958854
2 -0.32398126 -0.55739856 0.18672757 0.07121401 0.13577536 -0.05778182 0.19613333 0.56785446 -0.29608327 0.5309034
