7 10
4 -0.095217936 0.27459773 0.25427946 0.21011294 -0.59523684 0.20037757 0.107510224 0.64950436 -0.44650728 0.46175924
5 -0.16551693 0.24794722 0.21373989 0.2367079 -0.6221757 0.23540692 0.026736794 0.62388253 -0.35714766 0.443948
6 -0.16081217 0.22221226 0.24907434 0.27213874 -0.606232 0.14327404 0.1004626 0.66020215 -0.35232383 0.41905522
3 -0.17662063 0.20551102 0.23302501 0.28196236 -0.58994156 0.19030145 0.0858707 0.6678853 -0.3711484 0.43756732
0 -0.13409382 0.25298062 0.28933406 0.23548838 -0.62779903 0.17635034 0.12155881 0.67555296 -0.39684457 0.45631707
1 -0.12927653 0.18939659 0.29024047 0.2710233 -0.6426249 0.1435568 0.0630696 0.6819314 -0.4111826 0.42802867
2 -0.15415305 0.2760221 0.23150028 0.20137648 -0.57867056 0.21965759 0.056425467 0.70522183 -0.34619588 0.42516395
