7 10
1 -0.026019152 0.38662317 -0.9320382 -0.09467669 -0.29060844 -0.1980802 0.56444025 -0.13716157 0.075675815 -0.103818275
2 -0.12855758 0.41574335 -0.91288996 -0.15824604 -0.3327071 -0.17314425 0.5573987 -0.15684456 0.08159362 -0.014723554
3 -0.093759425 0.31138042 -0.92018896 -0.08285703 -0.31418318 -0.23338453 0.49121118 -0.043166526 0.040971868 -0.122043684
0 -0.03896305 0.3687223 -0.8579558 -0.15015383 -0.3111336 -0.15443031 0.51471007 -0.12960985 0.0729398 -0.01463712
4 -0.11350285 0.36164936 -0.9084516 -0.13202251 -0.2773488 -0.20885842 0.5435879 -0.073420644 0.0336366 -0.12710808
5 -0.081376165 0.42384413 -0.88213545 -0.13163719 -0.26611346 -0.18765527 0.5237561 -0.1728931 0.08620348 -0.058056835
6 -0.07682723 0.38934213 -0.85913676 -0.04285066 -0.33458334 -0.20864183 0.54948413 -0.028858101 0.004430196 -0.03268941
