7 10
0 0.48410702 -0.53161985 -0.13367116 -0.4802348 0.100145325 0.041460596 -0.5821498 0.05540065 0.43069506 0.39226907
6 0.48501775 -0.52948815 -0.12091949 -0.5091195 0.06150087 -0.017255357 -0.5952422 0.10502703 0.45534876 0.34619907
5 0.46148685 -0.4947868 -0.063040175 -0.50612354 0.10796361 0.015614603 -0.6078537 0.031042464 0.37811744 0.40841058
4 0.43194902 -0.5305271 -0.058658022 -0.48768932 0.11093275 0.04197609 -0.5888965 0.09321572 0.40152764 0.4235534
3 0.44826192 -0.49847367 -0.105092004 -0.49672428 0.0949271 0.020460954 -0.534683 0.06334647 0.352514 0.40319046
2 0.41448545 -0.53003377 -0.123563536 -0.49738088 0.057468362 0.032251015 -0.54974955 0.11252425 0.41406155 0.40034437
1 0.46109504 -0.5204834 -0.11467418 -0.44787207 0.13930319 0.07127608 -0.6078824 0.032734875 0.35689634 0.39315617
