3 10
0 -0.4525299 -0.12843588 -0.21061635 -0.18582365 0.21099117 -0.21901469 -0.11586374 0.006491472 0.38183478 -0.15774493
4 -0.38992998 -0.19051485 -0.23775978 -0.19914651 0.19357498 -0.21796022 -0.057611458 0.0605107 0.4304718 -0.22065742
2 -0.545869 -0.19592345 -0.24218494 -0.17882144 0.20107345 -0.2511206 -0.1533293 0.026926218 0.4631108 -0.23893306
