6 10
1 -0.6881751 -0.14008653 0.112071164 -0.1685738 -0.39463845 -0.3245277 -0.7442617 0.1806641 0.07516926 0.11281943
2 -0.6525255 -0.15533681 0.0025847314 -0.17179139 -0.36812645 -0.36286715 -0.70446026 0.27112123 0.040070698 0.06306934
5 -0.6394987 -0.1480398 0.05102667 -0.20403676 -0.41719133 -0.37808537 -0.71589494 0.22885352 0.03380871 0.13461047
4 -0.677323 -0.19227606 0.108422756 -0.22227274 -0.3783619 -0.34072626 -0.669143 0.19826412 0.047050413 0.053745177
3 -0.6273321 -0.18681756 0.057316802 -0.18022037 -0.3956793 -0.35258505 -0.6401913 0.18108979 0.054436073 0.09267119
0 -0.6974802 -0.1568063 0.09387423 -0.15929018 -0.3687438 -0.34783247 -0.69861156 0.19859703 0.05266159 0.057364736
