7 10
1 0.2752278 0.15260792 -0.4691481 0.19508865 -0.10499041 -0.64465564 -0.09318145 0.02736162 0.8278733 0.013336556
2 0.24882706 0.11439855 -0.5102171 0.15040578 -0.036293473 -0.57797664 -0.085369095 0.09554713 0.8339109 0.01506356
6 0.27049148 0.18451767 -0.5058249 0.1777916 -0.09913964 -0.5712385 -0.05843464 0.10832984 0.8538337 -0.021905592
5 0.25044373 0.11840309 -0.47249082 0.19158924 -0.089147635 -0.6490059 -0.029419433 0.069438726 0.8405459 -0.058128774
0 0.27123255 0.13239083 -0.42330167 0.20907524 -0.10095947 -0.59580505 -0.09431787 0.030271385 0.8091135 -0.057506718
4 0.24183148 0.13519935 -0.4921263 0.2358575 -0.06610345 -0.5962998 -0.020903198 0.09273428 0.8385655 -0.04293602
3 0.19684877 0.14618824 -0.48481175 0.20197551 -0.06149013 -0.57252485 -0.07822058 0.013070061 0.8351473 -0.027833043
