7 10
5 -0.25232306 -0.4832839 0.14833109 -0.09586859 0.11425709 0.0054741967 0.5431375 0.8679246 0.2576117 0.041157372
6 -0.23421001 -0.3941552 0.124149844 -0.091778725 0.056976125 0.07263193 0.53901005 0.8867673 0.18027787 0.0972169
0 -0.30203918 -0.42166066 0.21852425 -0.07898998 0.07592964 0.018889386 0.57807034 0.8128254 0.1851065 0.05442209
3 -0.28453 -0.42628184 0.13101862 -0.07197007 0.0733523 0.09138938 0.5150234 0.7922707 0.14768535 0.047034986
2 -0.23472118 -0.45857927 0.18485656 -0.15638997 0.022521077 0.08337218 0.50392723 0.83159107 0.26000646 0.041954193
4 -0.2638662 -0.46081087 0.116128944 -0.11478078 0.11933125 0.06865858 0.53863364 0.84261936 0.17080706 0.09463195
1 -0.25020376 -0.36611748 0.18323264 -0.14169037 0.061951667 0.08863987 0.50860196 0.8315133 0.22973043 0.05692827
