7 10
6 -0.33185118 -0.5118893 -0.4457156 -0.3868582 0.5375091 -0.4348187 -0.25528985 -0.31972823 -0.0641529 -0.14517647
5 -0.3400828 -0.51588684 -0.44235078 -0.38483474 0.57497245 -0.43569568 -0.309062 -0.25745943 -0.08813156 -0.13563815
4 -0.34645876 -0.4800844 -0.48908848 -0.3867313 0.5489413 -0.37072518 -0.33749267 -0.28793812 -0.011214806 -0.20985481
2 -0.34315944 -0.48206195 -0.48166406 -0.35113716 0.55695015 -0.44947618 -0.32215953 -0.31563094 -0.09916075 -0.188343
1 -0.2761114 -0.4985493 -0.47403005 -0.40045822 0.56098306 -0.44382197 -0.34162304 -0.28499287 -0.010909195 -0.18777467
3 -0.303491 -0.45420033 -0.47282487 -0.39336902 0.55491096 -0.40329924 -0.31062797 -0.29769683 -0.07244168 -0.19492161
0 -0.26953095 -0.51682353 -0.38267612 -0.31282187 0.557667 -0.42590013 -0.28723395 -0.22758712 -0.07724637 -0.1846788
