7 10
5 0.4265727 0.43089256 -0.27639198 0.35753477 0.4933693 -0.24715862 0.021597048 0.1367164 0.2524792 -0.65225637
3 0.43246752 0.4463047 -0.22985667 0.31779635 0.48890957 -0.31793353 -0.018592931 0.15889984 0.27424836 -0.63933134
6 0.42320162 0.3518649 -0.2580934 0.36240312 0.488674 -0.28109628 -0.0061802035 0.16474178 0.29816723 -0.638726
4 0.41991305 0.42911026 -0.31111252 0.35843924 0.48183045 -0.23251109 0.0042231726 0.15751599 0.24548371 -0.68974555
0 0.44258755 0.37739727 -0.27208322 0.37383568 0.47437635 -0.2980163 0.014360996 0.15262304 0.28588763 -0.6913895
1 0.42854628 0.45072716 -0.2788259 0.2867164 0.48322845 -0.22325143 0.036728937 0.13281028 0.25943136 -0.65752864
2 0.4262894 0.46889547 -0.26948193 0.3561636 0.4641985 -0.21426567 -0.028104872 0.13812056 0.29241756 -0.6606642
