6 10
2 -0.7342409 -0.11198811 0.22850238 0.30099407 0.44021818 -0.36685452 0.46162713 -0.3088453 -0.021010261 -0.08070392
3 -0.79774415 -0.1360714 0.25276014 0.2614427 0.40972003 -0.35217726 0.49417365 -0.26559997 -0.04181125 -0.107855916
6 -0.80138254 -0.19521248 0.15588744 0.31534272 0.37979874 -0.3681904 0.4787734 -0.25313136 -0.045161728 -0.059711937
5 -0.81658494 -0.20974693 0.16307853 0.26835796 0.4665917 -0.31631577 0.41700763 -0.3105284 -0.06569335 -0.050796337
4 -0.81022567 -0.16797215 0.21768235 0.26189226 0.41655838 -0.38175625 0.4380534 -0.2556236 -0.041746605 -0.076674946
1 -0.7272362 -0.18725653 0.21023862 0.26405504 0.4382971 -0.29588953 0.41973022 -0.28679994 -0.05321678 -0.052382763
