7 10
4 0.13033393 0.35140643 0.4146779 -0.21524577 0.33092955 -0.91505253 0.4371732 -0.12629393 0.020513913 -0.024584116
3 0.14706384 0.34704345 0.3759975 -0.15131003 0.3914638 -0.91301405 0.4728785 -0.17025559 0.026503835 -0.013958442
2 0.14573474 0.32183474 0.31569433 -0.16459846 0.3448274 -0.94460064 0.4461224 -0.17527556 -0.022813017 0.044070303
1 0.19626166 0.2479872 0.39415082 -0.23357916 0.25908124 -0.9059669 0.45961007 -0.14500764 0.022260707 -0.04604652
0 0.18099134 0.27036887 0.3988606 -0.17235677 0.30947685 -0.9520244 0.4281985 -0.12840176 -0.016662927 0.02105775
5 0.14685133 0.32402503 0.381226 -0.14200704 0.2969638 -0.87952703 0.46037325 -0.13282773 0.06879688 0.013579031
6 0.11881806 0.29325476 0.3349153 -0.19907998 0.34104258 -0.87474906 0.46390957 -0.19269833 0.048728958 -0.0032230855
