4 10
2 -0.11757557 -0.09727468 0.62165505 0.41426307 0.310748 -0.5373105 -0.065710574 0.23313056 0.11852899 0.33538562
0 -0.049963284 -0.13201432 0.63279676 0.4370991 0.3126111 -0.568191 -0.118446365 0.26484933 0.08612294 0.36749268
1 -0.1315696 -0.08385332 0.6573274 0.35642922 0.2802405 -0.5774993 -0.112163365 0.25440213 0.10133212 0.3314571
3 -0.043810237 -0.047265556 0.6333521 0.37999043 0.24665824 -0.553273 -0.10112278 0.2822996 0.029979864 0.3579669
