6 10
1 -0.5004643 -0.013619511 0.033241693 -0.29237977 -0.16638069 0.095170066 0.35770738 -0.27124584 0.3572426 -0.8648128
2 -0.48192355 -0.020377187 0.05865446 -0.35468137 -0.15435193 0.10191216 0.3100923 -0.30952987 0.3291917 -0.8076251
3 -0.42802152 0.034003552 0.030252133 -0.3308236 -0.22149795 0.12120388 0.32750064 -0.31263816 0.33395183 -0.81947255
5 -0.48528278 0.05685786 0.05621564 -0.37638637 -0.23779927 0.1567549 0.2726608 -0.29966325 0.29918095 -0.8455408
4 -0.4095396 0.006615194 -0.008667939 -0.33372816 -0.2355935 0.1330559 0.3315726 -0.3005152 0.31234014 -0.80360574
0 -0.46333507 0.07551862 0.07855863 -0.3557878 -0.16726281 0.10378288 0.2548267 -0.26642162 0.33180588 -0.84301937
