7 10
5 -0.21397172 -0.64777297 -0.22656113 0.16630492 0.58143806 -0.15353574 -0.12193535 -0.1433198 0.4623002 0.47968927
3 -0.20377629 -0.6445155 -0.28299987 0.14594227 0.6236268 -0.10581684 -0.05482494 -0.1620055 0.42832407 0.5288668
4 -0.24094397 -0.5734633 -0.30038643 0.09518004 0.60457784 -0.100023724 -0.07653259 -0.16858916 0.44751742 0.51450723
1 -0.1874337 -0.6548244 -0.3169139 0.1704158 0.60937124 -0.1764513 -0.052567694 -0.24341764 0.49169517 0.4925582
2 -0.21685638 -0.6603161 -0.29720268 0.13492502 0.6186964 -0.1522537 -0.061187137 -0.2321117 0.42137775 0.4818296
0 -0.21739495 -0.62277776 -0.23901881 0.14481528 0.60078704 -0.12456787 -0.10660094 -0.1641233 0.459323 0.4946485
6 -0.26738247 -0.5923961 -0.25066963 0.090974495 0.62659496 -0.11619878 -0.05429021 -0.1582807 0.47613385 0.4386464
