7 10
0 0.08578812 0.44449368 0.29931465 0.3900655 0.53258646 0.51229334 -0.2819318 -0.440487 -0.1889849 -0.32587144
1 0.03173902 0.42009172 0.39991793 0.4045808 0.53319734 0.48020577 -0.26651403 -0.43112278 -0.15008871 -0.36789426
2 -0.011296607 0.47107068 0.37527543 0.33288142 0.5289705 0.43436152 -0.21725057 -0.42679042 -0.17836805 -0.3657818
3 0.04870527 0.46547085 0.37865767 0.38117436 0.4863748 0.522806 -0.19014351 -0.43143588 -0.22235331 -0.34522697
6 0.052932594 0.40274438 0.38500497 0.42691985 0.45966277 0.5625159 -0.29408553 -0.43132198 -0.25350735 -0.4067895
5 0.041093618 0.45934516 0.32035258 0.32909432 0.5301028 0.49978587 -0.2126134 -0.45646557 -0.16944417 -0.33770713
4 0.10630037 0.36759984 0.39888358 0.37415662 0.48157486 0.57106733 -0.31367147 -0.4001715 -0.1763682 -0.3905355
