7 10
2 0.09423539 0.3479139 0.118433945 -0.5231484 0.05716463 0.07146722 0.4603865 -0.4961487 -0.630278 0.33544287
1 0.03875684 0.3923277 0.060386423 -0.49462673 0.07155478 0.112585574 0.47435066 -0.49161494 -0.619399 0.34127954
4 0.008328419 0.4232087 0.07021042 -0.4444991 0.13964786 0.027204558 0.4837294 -0.5046506 -0.6229859 0.35071903
3 0.1162225 0.3822806 0.11883492 -0.52661836 0.11343729 0.03733095 0.44048995 -0.49844322 -0.6342775 0.29144585
0 0.09421437 0.40129164 0.07275209 -0.45708558 0.13817912 0.020591348 0.4857043 -0.50022286 -0.6022086 0.29277453
6 0.04875357 0.37042004 0.1400799 -0.52571476 0.021029487 0.12905566 0.4254924 -0.54329 -0.5969135 0.3281979
5 0.024784619 0.43637234 0.055234186 -0.5442706 0.051785294 0.08654113 0.48129144 -0.5046059 -0.5699808 0.25432077
