7 10
5 0.08407305 -0.40795106 -0.33037558 -0.7467258 -0.076585904 0.6446301 0.09720036 -0.20029086 -0.19349754 -0.1550058
2 0.10792096 -0.3949374 -0.30473578 -0.7216479 -0.037989385 0.6262042 0.089618295 -0.1770032 -0.23862961 -0.15700656
0 0.122985505 -0.414954 -0.2841272 -0.76736605 -0.115202196 0.6344296 0.082488224 -0.2030014 -0.2625546 -0.1740712
3 0.11365643 -0.43291065 -0.35698012 -0.75869983 -0.071937025 0.5756602 0.10299176 -0.22672354 -0.2304112 -0.088551514
1 0.13703844 -0.35814202 -0.32842308 -0.73419887 -0.055119034 0.6491669 0.08985254 -0.14138378 -0.2152368 -0.16669516
6 0.13675362 -0.36503017 -0.28582695 -0.75495815 -0.09971992 0.6417529 0.13458347 -0.14027737 -0.24850631 -0.15776156
4 0.05612349 -0.38068172 -0.33409253 -0.7295828 -0.08419343 0.6264442 0.10011474 -0.1415837 -0.26314503 -0.10913479
