7 10
0 -0.87096757 -0.09621074 -0.11318164 0.52676994 -0.36001295 -0.36172578 0.23379864 0.29713395 -0.042167556 0.05100547
2 -0.86329114 -0.0782142 -0.14718457 0.53041583 -0.34143013 -0.38116738 0.20271412 0.29845425 -0.132727 0.13799201
5 -0.8578483 -0.043969493 -0.12545249 0.5489002 -0.35717323 -0.306065 0.22025536 0.21087494 -0.07306757 0.102805994
6 -0.8640188 -0.03038156 -0.19185387 0.5756102 -0.36445668 -0.38122275 0.17677526 0.23893005 -0.112243965 0.19735853
4 -0.8101484 -0.12263578 -0.09135848 0.54022735 -0.3587946 -0.3854073 0.17895316 0.26399145 -0.09447423 0.077863485
1 -0.8666869 -0.11729655 -0.14738318 0.5479016 -0.35847405 -0.38356665 0.24554424 0.2462146 -0.06182704 0.067931734
3 -0.86500525 -0.09334934 -0.17331816 0.5579294 -0.2790371 -0.3263605 0.21006604 0.28929728 -0.09780119 0.17109442
