7 10
4 0.041549776 -0.16152085 -0.1430762 0.409251 -0.38586566 -0.21479364 0.49715942 -0.20919922 0.589046 0.57924855
0 -0.03876742 -0.088837445 -0.123570435 0.40870553 -0.32014334 -0.22465403 0.51581496 -0.2657891 0.58657 0.5645351
3 0.026841238 -0.15494238 -0.12410728 0.36062387 -0.36427 -0.26690674 0.5489196 -0.24992017 0.61298066 0.6006673
2 -0.019019192 -0.14433588 -0.077218205 0.43500432 -0.37981543 -0.23708118 0.56098354 -0.27402622 0.52771616 0.55903274
6 -0.019128479 -0.1175952 -0.16727683 0.41507366 -0.3751176 -0.23118389 0.53322184 -0.20502351 0.639394 0.55074036
5 -0.0029645362 -0.15506926 -0.083432786 0.41440958 -0.35421973 -0.24749555 0.5237444 -0.26274446 0.5592476 0.57736224
1 -0.041877896 -0.19453938 -0.156114 0.3634674 -0.3737548 -0.21653028 0.5924926 -0.21753316 0.5527827 0.61123765
