3 10
2 -0.12297556 0.2517271 -0.08278646 0.07849752 0.5791561 -0.31044313 0.28555176 -0.020133428 0.056801405 0.14517127
1 -0.01151887 0.16657077 0.0074041937 0.08702947 0.36462957 -0.19304124 0.14582786 -0.035334602 0.0844988 0.0423145
3 -0.079581656 0.18194975 0.017330874 0.017957354 0.37377283 -0.1242734 0.12353425 -0.020861084 0.0408661 0.0996536
