7 10
0 0.2242424 -0.015454729 0.30898184 -0.04901474 -0.69200516 0.32842043 0.52304894 -0.13483675 -0.61662084 -0.13348906
2 0.21806411 -0.060010366 0.32822153 -0.021787247 -0.70036334 0.30706313 0.46716952 -0.15588094 -0.62234974 -0.15434375
1 0.16631491 -0.08131851 0.264855 0.017716723 -0.69315785 0.3054563 0.5137899 -0.14954956 -0.62566096 -0.16348533
4 0.2522174 -0.090301044 0.23439154 0.0290222 -0.65735066 0.30420378 0.5173744 -0.12583588 -0.6379251 -0.1824048
6 0.23147914 -0.035868462 0.29202962 -0.043734327 -0.6868177 0.34362897 0.52632654 -0.18304753 -0.58361846 -0.1593675
5 0.21697907 -0.052363567 0.30102572 -0.025157874 -0.66934305 0.34012434 0.4736712 -0.16931586 -0.62309587 -0.16520756
3 0.23230726 0.0015205464 0.24526528 -0.002211053 -0.6745445 0.3381433 0.5154966 -0.18435332 -0.6481239 -0.20719191
