7 10
2 -0.0022474339 -0.92742026 -0.15271643 0.3839847 0.4321275 -0.277547 0.11331177 -0.06775586 -0.07660067 -0.27867335
0 0.051598374 -0.8955704 -0.14646415 0.38751373 0.3529067 -0.29574403 0.093812436 -0.109194145 -0.06824331 -0.2841301
4 0.008071258 -0.93187517 -0.085913196 0.440102 0.4005289 -0.2474859 0.05713329 -0.08052057 -0.13001426 -0.26636574
3 0.020656096 -0.9016808 -0.08915138 0.3837818 0.43582538 -0.2281396 0.11956782 -0.05216163 -0.08290785 -0.24046429
1 0.09140838 -0.9346151 -0.11550621 0.39688316 0.3571538 -0.29530498 0.078585275 -0.073484264 -0.13360521 -0.323397
5 0.06714521 -0.90864897 -0.09467554 0.35814157 0.42148224 -0.27921125 0.11977361 -0.029469902 -0.1532039 -0.2698954
6 0.07594709 -0.9356319 -0.16637886 0.42803815 0.378773 -0.3175118 0.08606265 -0.10538559 -0.15302676 -0.2563977
