6 10
5 0.5519833 0.03989279 0.06631332 0.11494676 -0.13440585 -0.46611533 0.13252226 0.63864654 0.40045214 -0.5329625
2 0.50902796 0.080000736 0.13059568 0.04405469 -0.09270145 -0.4893449 0.100433685 0.6459758 0.41365144 -0.47054806
3 0.49646127 0.024652636 0.052513167 0.06853726 -0.12571153 -0.42960268 0.15163095 0.6315335 0.42650115 -0.47091588
0 0.53723097 0.046342004 0.11132163 0.06802061 -0.15375347 -0.4660284 0.119906016 0.6677157 0.38901466 -0.4678007
4 0.51232797 0.0093750805 0.08297161 0.028995896 -0.092534326 -0.45768735 0.1334259 0.6320185 0.44729546 -0.4961282
1 0.5279684 0.10241303 0.14971079 0.09092328 -0.13020255 -0.4888431 0.090097554 0.6268863 0.42642826 -0.43590462
