5 10
1 -0.62724304 0.09789126 -0.23024708 -0.06720316 0.14638478 0.78052723 0.23047082 0.3907267 0.029063286 -0.3002286
3 -0.63466644 0.07742065 -0.16762993 -0.03072987 0.107496925 0.742365 0.2515491 0.44021204 -0.0196052 -0.26689136
4 -0.5993956 0.10082712 -0.21322 -0.023247572 0.14812407 0.79299176 0.2418064 0.4347113 -0.013944702 -0.28284594
2 -0.6391814 0.149866 -0.24320446 0.00460871 0.084842496 0.7352384 0.22342952 0.44255853 -0.009949883 -0.2028268
0 -0.6124527 0.104509436 -0.1440519 0.013347395 0.094109684 0.6996202 0.23367341 0.40655565 -0.005490796 -0.25735807
