7 10
0 -0.5737922 0.26772898 -0.43746203 -0.22397745 0.18189408 -0.48742843 0.058228657 0.11142451 0.7361243 0.05660854
1 -0.52179027 0.26130766 -0.48377058 -0.21124941 0.11302875 -0.39044368 0.0021115153 0.1132157 0.7048595 0.040443063
3 -0.5569451 0.35027337 -0.47655573 -0.15381296 0.11120368 -0.47336423 -0.013521371 0.10981726 0.71937686 0.0856452
2 -0.5234284 0.3388061 -0.49452227 -0.11468174 0.1340257 -0.41098455 -0.011578061 0.11486122 0.72942924 0.030374497
4 -0.51723695 0.31374383 -0.50162077 -0.13566203 0.15433899 -0.46422273 0.0062252902 0.07316893 0.72204566 0.093970686
6 -0.45634484 0.3229283 -0.4703176 -0.20798908 0.09765042 -0.4176656 -0.024114048 0.123804875 0.67422557 0.026821349
5 -0.51757413 0.32535923 -0.40891287 -0.17763558 0.1371816 -0.43567377 -0.0089959055 0.14127454 0.7012638 0.050594807
