7 10
4 -0.11228542 0.053611465 0.32959333 0.13671458 -0.5416907 0.03652817 0.8229202 0.22513935 0.44507635 0.15509348
5 -0.1346845 0.08945533 0.28609928 0.03519877 -0.5977587 0.045189336 0.7518343 0.23624387 0.44254002 0.21308222
1 -0.09918305 0.029544828 0.3429592 0.14881858 -0.59942657 0.051789038 0.8519995 0.25905478 0.4207348 0.14329785
0 -0.18525928 0.05454141 0.28984666 0.06724543 -0.61230105 0.017402137 0.7748985 0.24786745 0.38647094 0.180279
2 -0.18080635 0.036560666 0.3023354 0.079872936 -0.5967324 -0.04083243 0.81171376 0.19606878 0.4074255 0.22883676
3 -0.09832198 0.086219415 0.30155173 0.11456003 -0.5744977 -0.033549402 0.8341098 0.24917859 0.41147456 0.16801852
6 -0.16346188 0.06938492 0.23450235 0.093030326 -0.60089165 -0.008142783 0.8085451 0.18381813 0.45125318 0.1826353
