7 10
1 0.2012839 0.32592595 -0.46881068 0.48956108 -0.22954376 -0.12495367 0.07410787 0.70389515 -0.2840952 0.461729
4 0.21439874 0.28855935 -0.44639018 0.5143589 -0.32583922 -0.18618919 0.08818981 0.66967607 -0.24497499 0.46764302
3 0.24559103 0.3454093 -0.416197 0.46788454 -0.29231402 -0.123293795 0.07344823 0.6091449 -0.30268553 0.48537156
6 0.25034198 0.30605042 -0.4137615 0.57277375 -0.27274388 -0.12249258 0.065409854 0.7134945 -0.27379027 0.39918312
0 0.16410601 0.28273144 -0.44016388 0.44223112 -0.30657625 -0.16619432 0.07648046 0.6530482 -0.30510658 0.40427876
5 0.21890162 0.32334843 -0.42877463 0.38199687 -0.24127251 -0.14188749 0.1151945 0.6591206 -0.29303542 0.45402545
2 0.1916632 0.29799098 -0.48486632 0.48177052 -0.3132412 -0.081112474 0.13525304 0.75573933 -0.26709 0.505701
