6 10
1 0.47671393 0.19532159 -0.9553495 -0.06383992 0.877546 0.40521628 0.31963953 0.7637256 1.0809255 0.16243622
4 -1.2194675 -0.12514238 -0.023701 0.06660931 0.7434447 1.091227 1.2397789 -1.2177149 -0.14518616 -0.6375847
5 -1.238456 -0.1414714 -0.04118969 -0.019460736 0.6811108 1.0953152 1.2318509 -1.2418457 -0.21445403 -0.6967929
3 0.45420477 0.23133308 -0.915476 -0.10828232 0.82986456 0.40082496 0.29659736 0.70077384 1.0213087 0.071147606
2 0.38707054 0.2059692 -0.9591761 -0.097504765 0.852905 0.39721313 0.31009546 0.7220307 1.0385456 0.07150573
0 0.3546466 0.21028101 -0.7720675 -0.024247913 0.7461472 0.3430452 0.25846484 0.6354396 0.86853904 0.109698705
