7 10
2 -0.15494119 0.25806326 0.1005359 0.7464174 0.0941249 -0.4420869 0.16300496 -0.34949952 0.28245154 -0.6065816
5 -0.09141222 0.275915 0.016544374 0.7273668 0.091249414 -0.4828324 0.16312036 -0.37409824 0.2512399 -0.57810307
6 -0.14600039 0.1963724 0.063529044 0.7576258 0.13738452 -0.46267587 0.14256723 -0.27700332 0.21330559 -0.58139324
1 -0.10476119 0.24524112 0.11313797 0.78518903 0.10233181 -0.41560408 0.10851116 -0.33511078 0.28634423 -0.601429
0 -0.14363119 0.23685578 0.042349312 0.7320061 0.080072805 -0.44402775 0.15512873 -0.31390187 0.2818791 -0.5849188
4 -0.15251121 0.2550249 0.041697834 0.7882419 0.09448869 -0.41659877 0.09152876 -0.35175326 0.300936 -0.5936001
3 -0.08131878 0.20179458 0.022791686 0.75465304 0.1048322 -0.46565866 0.1240978 -0.37169853 0.27685857 -0.55632895
