7 10
1 0.3517427 0.56502205 -0.32899377 0.47480357 -0.64647895 -0.3866684 0.2018901 -0.34425095 -0.04031916 0.04664696
0 0.32397655 0.5601478 -0.31320342 0.37161732 -0.61296195 -0.42372555 0.3085618 -0.28599483 0.020462288 0.015207603
4 0.37493005 0.5379232 -0.22629565 0.43571487 -0.60713816 -0.42418984 0.24076886 -0.21714449 -0.023915717 0.032373358
3 0.33689573 0.5231547 -0.26318243 0.36279196 -0.63276505 -0.4391962 0.28196988 -0.20146003 0.017005436 0.09000863
5 0.4075365 0.52232444 -0.33730528 0.43067858 -0.63678384 -0.41314006 0.29032695 -0.36659145 0.015315456 0.09191773
2 0.30240357 0.50241154 -0.26405233 0.444414 -0.63061047 -0.3715789 0.26602277 -0.33396235 -0.005719086 0.10362222
6 0.37394953 0.44322056 -0.26930368 0.44760293 -0.6305878 -0.34624195 0.22033815 -0.2446115 -0.0032564737 0.008143052
