7 10
2 -0.37815192 -0.040340804 0.043139894 0.34908208 -0.74628115 0.046970848 -0.55851775 0.22717477 -0.49212506 -0.10271072
5 -0.40691736 -0.04138238 0.016791115 0.3023717 -0.7779714 -0.0044696364 -0.5421472 0.29351628 -0.43589655 -0.04207875
3 -0.3976137 -0.04130574 0.04527509 0.32126522 -0.7339152 -0.013030914 -0.537584 0.22465648 -0.48874247 -0.09915858
6 -0.41223386 -0.09986498 0.081858926 0.35601768 -0.7850674 0.02832017 -0.4992921 0.16632551 -0.48992583 -0.07014031
1 -0.34187013 -0.074778855 -0.04266532 0.35556892 -0.7543862 0.09664192 -0.4906279 0.27905416 -0.5046467 -0.053980265
4 -0.35282865 -0.02008248 0.022437384 0.27684587 -0.7866078 0.06816245 -0.53814715 0.2805594 -0.44136435 -0.0076191365
0 -0.40995267 -0.06311687 0.004299461 0.30863026 -0.7498482 0.07649876 -0.5061393 0.30379277 -0.46400437 -0.037569035
