7 10
0 -0.49835503 -0.07526655 0.36111847 0.011514066 0.0061297165 0.4210027 -0.8210915 -0.13238345 0.15738906 -0.35256076
2 -0.48464328 -0.049103398 0.32736832 -0.064141706 0.02476651 0.472081 -0.817056 -0.09821082 0.1708358 -0.39404404
1 -0.48470053 -0.01587597 0.36395684 0.01864899 0.01905742 0.4312745 -0.8180394 -0.11382145 0.16848952 -0.3782657
6 -0.42106012 0.0017311547 0.33064142 -0.035338424 0.03547475 0.4622384 -0.8151378 -0.08334547 0.14034006 -0.4078354
5 -0.45194855 0.013971927 0.38312125 -0.011957062 -0.011297171 0.46698758 -0.8142706 -0.1338038 0.23310532 -0.33052778
3 -0.46078485 -0.06580975 0.3638337 -0.04071882 -0.0009496261 0.4885046 -0.84788233 -0.08096167 0.21001807 -0.34945396
4 -0.47727248 -0.036899734 0.3559836 -0.032633048 -0.003844842 0.40829685 -0.7897726 -0.11854792 0.2294534 -0.4017379
