6 10
2 -0.5242699 0.095329575 -0.034506176 0.4806599 -0.6203789 0.13640185 -0.037544794 -0.6240443 0.03869073 0.1931781
4 -0.46003973 0.09761707 -0.048965145 0.47782537 -0.6526147 0.05010433 -0.06579669 -0.60147077 0.010993412 0.2060519
5 -0.5158366 0.050000936 -0.030345047 0.39795086 -0.6479869 0.12247738 0.019815989 -0.60800564 0.081301965 0.20000526
3 -0.47818848 0.020683197 0.0023355708 0.47508097 -0.64386106 0.12763445 -0.014898518 -0.597188 0.02861699 0.15151526
1 -0.5225782 0.09154875 -0.08344811 0.48506406 -0.6734092 0.0618801 -0.06253748 -0.6173585 0.071994916 0.24037814
0 -0.51903015 0.031385295 -0.045074914 0.52170753 -0.67662024 0.12753521 -0.026548455 -0.6664417 0.094824515 0.19222333
