7 10
0 -0.01542901 0.21987718 -0.2515067 -0.11121906 0.21851937 -0.75598925 -0.18219854 0.36686605 0.65993744 0.287955
4 0.011942666 0.26898596 -0.24558869 -0.07570837 0.17352894 -0.70070827 -0.272749 0.36000228 0.6489539 0.35655582
3 0.0023590554 0.24068926 -0.27865496 -0.09623827 0.19014163 -0.7229259 -0.23689727 0.36397722 0.62852854 0.2785546
5 -0.012354464 0.19769266 -0.23369917 -0.07243484 0.1666901 -0.7467611 -0.17296228 0.39954403 0.60254484 0.34360877
6 -0.029077321 0.26446992 -0.21794102 -0.03966914 0.14987364 -0.7318297 -0.18562332 0.3428519 0.6071729 0.29637948
2 -0.012146417 0.2499012 -0.26090226 -0.017549405 0.13381118 -0.76721436 -0.2519333 0.2576419 0.6719866 0.335514
1 0.00859135 0.22928011 -0.2232827 -0.034625016 0.2041206 -0.7450805 -0.26773334 0.27778512 0.6502346 0.3479056
