7 10
1 0.37767664 0.012943665 0.5322801 -0.36354548 -0.5673852 0.38153335 0.5438034 -0.040846784 -0.06708152 0.10947769
2 0.32315576 0.09160015 0.5506754 -0.3855605 -0.53335327 0.35554186 0.5692631 -0.09031493 -0.1207417 0.13421004
0 0.33611092 0.003464923 0.46472135 -0.3549358 -0.601901 0.4235031 0.5680476 -0.0708926 -0.13955657 0.11100711
3 0.3251501 0.024271445 0.53337693 -0.40007526 -0.6254704 0.39976498 0.5170303 0.007581736 -0.093006045 0.19790676
4 0.40108204 0.050590605 0.5005715 -0.40755072 -0.60160184 0.37026024 0.54451567 -0.020653764 -0.13946794 0.17076659
5 0.34114623 0.08259393 0.5570206 -0.32118306 -0.55035716 0.40231577 0.55445564 -0.03259096 -0.050048966 0.19512725
6 0.39308178 -0.01587649 0.5173912 -0.37640223 -0.61591697 0.3466373 0.56181616 -0.024854466 -0.058335137 0.116178565
