7 10
1 0.5468174 -0.6197867 -0.044219524 0.15499803 -0.6561068 -0.39729154 0.15625486 -0.06867329 -0.21417639 -0.33310914
4 0.54586685 -0.5373116 0.031954322 0.13303618 -0.5891871 -0.40728387 0.20019427 -0.08163002 -0.219565 -0.34374762
3 0.6011821 -0.57118464 -0.010342623 0.19253947 -0.5698749 -0.3680059 0.18686967 -0.021320349 -0.24525505 -0.39117366
0 0.5564953 -0.51955557 -0.02362319 0.15846919 -0.6212428 -0.3363104 0.19970655 -0.11120211 -0.15860778 -0.3670557
2 0.56855536 -0.5421678 0.06500788 0.17396776 -0.5514672 -0.30643022 0.15721923 -0.040212806 -0.22692241 -0.41262907
5 0.57565534 -0.578842 0.026439978 0.21006827 -0.6098646 -0.39358544 0.16739462 -0.039196618 -0.20529105 -0.39258358
6 0.65244174 -0.54928064 0.07774317 0.13144408 -0.6638166 -0.4144121 0.13180637 -0.07188714 -0.27365738 -0.40933272
