6 10
2 -0.2297689 0.39263195 -0.6247575 -0.197456 -0.25364158 0.22622442 0.28379363 -0.32436946 0.2871719 -0.60409087
5 -0.2699907 0.44042477 -0.61957127 -0.16103344 -0.20831254 0.27851892 0.21712957 -0.33644333 0.21278888 -0.5859106
6 -0.230895 0.39355576 -0.5939326 -0.09740307 -0.23323621 0.3007054 0.21386714 -0.2852116 0.23928957 -0.6598804
1 -0.22863181 0.45625818 -0.6718033 -0.13202086 -0.25095275 0.25456947 0.3053028 -0.3079344 0.2850648 -0.6154215
3 -0.22824964 0.4448449 -0.6303864 -0.18637979 -0.21387273 0.24022196 0.295777 -0.25624657 0.25677028 -0.62337214
4 -0.27823743 0.39688542 -0.61660314 -0.14330333 -0.22985072 0.22307424 0.24698359 -0.3343931 0.29045358 -0.67329955
