6 10
5 -0.24314436 -0.35573608 0.18212567 -0.62709475 0.23059016 -0.32049093 -0.08338305 -0.3882157 -0.5239278 0.4390574
4 -0.19938798 -0.4773742 0.21341124 -0.6349562 0.19299509 -0.4116339 -0.09221753 -0.28789142 -0.44014332 0.44799715
1 -0.2655867 -0.44695508 0.11332239 -0.5781204 0.23483662 -0.3913096 -0.012568147 -0.3910245 -0.48712122 0.4248985
0 -0.26049307 -0.4352618 0.15468062 -0.6290857 0.2561978 -0.38742945 -0.05066186 -0.40181175 -0.49047 0.36651665
2 -0.2811244 -0.42488015 0.17344885 -0.6075603 0.20632109 -0.302224 -0.023517415 -0.38267407 -0.43520838 0.3958343
3 -0.25875333 -0.39257425 0.13178487 -0.539926 0.15511222 -0.30605185 -0.07643761 -0.37462568 -0.4658752 0.42361775
