7 10
3 -0.060963918 -0.10804193 -0.24258092 0.08427863 -0.5863037 -0.49525857 0.32743785 0.34888306 -0.028701691 -0.6932767
6 -0.094131395 -0.07738089 -0.21120898 0.11420658 -0.64240545 -0.55250764 0.36711726 0.30922493 -0.015703944 -0.6269764
0 -0.0749352 -0.08240616 -0.2720434 0.1005211 -0.6107711 -0.506783 0.365434 0.31222245 -0.0028899172 -0.6477047
1 -0.10072782 -0.09182034 -0.293569 0.13447154 -0.6333983 -0.51719683 0.28186932 0.32324708 -0.02646872 -0.6926203
4 -0.10535861 -0.08168525 -0.21623872 0.055401906 -0.6295471 -0.558828 0.35456613 0.27911225 -0.07082218 -0.66721416
2 -0.06531187 -0.042337034 -0.2826368 0.083675586 -0.6100238 -0.5616782 0.30297497 0.24065855 -0.08394148 -0.6427778
5 -0.14479795 -0.040955827 -0.29155943 0.05623126 -0.5794834 -0.55856824 0.32570395 0.30452457 -0.024894822 -0.6856249
