7 10
6 0.20961785 0.5356589 0.12372029 -0.22793195 -0.25732997 -0.024274413 -0.41053492 -0.6604141 -0.34181365 0.5394361
4 0.15553553 0.51156026 0.06473715 -0.21914503 -0.20679028 0.0046819407 -0.39563984 -0.65981597 -0.3394305 0.5502868
5 0.21925956 0.51210445 0.14958678 -0.19373006 -0.28165102 -0.09800228 -0.3494316 -0.6807068 -0.2885343 0.5855978
3 0.15337352 0.5372204 0.16309966 -0.15167217 -0.26389983 -0.116622545 -0.32758975 -0.7067639 -0.26091382 0.5239778
0 0.13081476 0.5096319 0.078494705 -0.19243494 -0.20165019 -0.0077115935 -0.3698635 -0.69738793 -0.30398324 0.5616372
2 0.19172738 0.49713662 0.09075331 -0.22408319 -0.2032724 -0.083400436 -0.40931743 -0.6962988 -0.3375307 0.5244023
1 0.14102039 0.49372205 0.11405007 -0.2371796 -0.2995785 -0.09963504 -0.35482338 -0.63241315 -0.35117763 0.57824147
