7 10
4 0.27815264 0.46739724 0.3303342 -0.24671425 -0.09798436 0.03136289 0.6097173 -0.3631623 -0.12754996 0.61321044
0 0.33941025 0.44636253 0.36100274 -0.14047875 -0.18794276 0.027120294 0.64195704 -0.31188384 -0.12140124 0.6142578
3 0.3210573 0.47934756 0.34142044 -0.15988398 -0.14166461 0.049689233 0.6117238 -0.26174536 -0.13163827 0.5817325
1 0.31109455 0.48356894 0.3351408 -0.13491356 -0.19522585 0.04857957 0.61507964 -0.3267471 -0.0932407 0.61700195
2 0.3391903 0.4334407 0.2772995 -0.2202788 -0.17692445 0.048645902 0.6268245 -0.343626 -0.105340555 0.6022351
5 0.29060084 0.4877672 0.30964887 -0.20441516 -0.16436012 0.0149901705 0.63893855 -0.30631393 -0.12300618 0.5891976
6 0.27701283 0.4932161 0.26980385 -0.21316266 -0.18620323 0.048342194 0.5785456 -0.3474753 -0.11637284 0.5527206
