7 10
2 -0.12804432 0.25598752 0.009191974 -0.10288121 -0.006151656 0.64652437 0.64076555 0.2567772 -0.53914434 -0.034620613
3 -0.11716683 0.23394564 -0.020587754 -0.11420697 -0.013507765 0.64210325 0.63686895 0.30454874 -0.5715345 0.030360196
1 -0.052307732 0.24330112 -0.012674056 -0.033781156 -0.03510627 0.6618101 0.61493504 0.29246485 -0.55096 0.030862529
4 -0.119639955 0.21053791 0.06237085 -0.10450693 0.03438465 0.726065 0.6911721 0.31735408 -0.5648816 -0.026396606
6 -0.12007238 0.23957255 0.014957025 -0.083091244 -0.05158683 0.6935503 0.65779907 0.30484208 -0.5363349 0.053572703
5 -0.1516505 0.20056279 0.057461757 -0.08508049 0.039368384 0.73815805 0.62282 0.24026144 -0.61708164 0.022177052
0 -0.08241082 0.30232805 -0.038227428 -0.1325745 -0.037880782 0.7563657 0.63051486 0.27638453 -0.6128012 0.06744141
