7 10
0 0.2634546 0.19268589 0.44681305 -0.7224802 0.20095377 -0.2758089 -0.52837443 -0.12157285 -0.38373503 0.2778128
5 0.29422283 0.15370882 0.5019667 -0.681387 0.18546954 -0.23786962 -0.4803149 -0.14511944 -0.36587888 0.23920655
6 0.29440862 0.12268215 0.48567012 -0.6636472 0.1926066 -0.2353506 -0.50831664 -0.1730947 -0.31469068 0.28832954
4 0.28679514 0.20521538 0.51267034 -0.629416 0.15316442 -0.29095313 -0.54541045 -0.16225164 -0.33849669 0.3119208
1 0.24686544 0.1937329 0.4861933 -0.6573419 0.16219668 -0.18849899 -0.52023965 -0.17172538 -0.30462337 0.29590136
3 0.29700124 0.15398219 0.45124966 -0.6639927 0.18347938 -0.25657007 -0.51776594 -0.18068768 -0.3470726 0.20144233
2 0.24625586 0.14626986 0.49413955 -0.710992 0.18582003 -0.2078193 -0.5680883 -0.119194455 -0.30577627 0.27002475
