6 10
2 0.4148295 0.20403779 -0.28142372 0.17004056 -0.5684296 0.18864533 0.0038815204 -0.19088826 -0.51971936 -0.6296421
3 0.42502803 0.23572208 -0.2702512 0.19136399 -0.50486183 0.15926138 -0.026204847 -0.24169058 -0.54085577 -0.64816505
1 0.38985208 0.14114997 -0.31374517 0.17375098 -0.5575227 0.18436462 -0.0038780738 -0.19594255 -0.5120608 -0.6005415
5 0.44432634 0.16303226 -0.29151547 0.13733247 -0.55513734 0.219446 -0.012930189 -0.16590397 -0.45127848 -0.6109241
4 0.41615498 0.22089492 -0.26248926 0.21737945 -0.55831647 0.23353465 0.0172554 -0.23215982 -0.47402835 -0.6118026
0 0.37705445 0.17716515 -0.32474396 0.13962679 -0.5499047 0.16881604 -0.05350524 -0.22639821 -0.504054 -0.6005584
