7 10
2 -0.18126206 0.6911987 -0.08006181 -0.068089016 -0.5648757 -0.054201953 -0.28124583 0.5238616 0.37303182 0.04554727
3 -0.16655105 0.7073747 -0.024352422 -0.12623309 -0.59493756 -0.035617974 -0.2607539 0.5838882 0.38871837 0.0067086862
4 -0.19783394 0.7120511 -0.09143421 -0.15188056 -0.54769737 -0.020786997 -0.2907866 0.5651444 0.31934473 -0.037870057
1 -0.22730501 0.7475601 -0.015055663 -0.17515361 -0.59878534 -0.018567726 -0.21550095 0.5431824 0.3226801 -0.0045667975
5 -0.15659802 0.70126367 -0.070359565 -0.12828532 -0.58270913 -0.06921569 -0.20813237 0.5931349 0.35268855 0.0066488967
6 -0.20746543 0.658903 -0.0340467 -0.122645244 -0.58041763 -0.05181072 -0.26709226 0.5767477 0.3449637 -0.020655021
0 -0.18473975 0.72417456 -0.04575947 -0.15628728 -0.58445984 -0.069213696 -0.23412883 0.5650399 0.39412862 -0.028630901
