7 10
1 -0.13174626 0.48997062 0.0055068275 -0.090204954 0.03583662 0.7264171 -0.06181197 -0.4444362 -0.00863436 0.6045667
0 -0.11216735 0.489997 -0.0015132461 -0.081481926 0.13752736 0.7752329 -0.082572475 -0.44927523 -0.09536716 0.5959358
3 -0.109819226 0.49742854 0.028603215 -0.11150171 0.042986672 0.7716949 -0.017431322 -0.46005046 -0.029808823 0.6214938
2 -0.071515605 0.43861052 -0.0007674829 -0.07434521 0.112024195 0.7890293 -0.08261848 -0.39085728 -0.084036805 0.6391637
4 -0.14330916 0.43770638 0.024023546 -0.1324224 0.09880903 0.76388395 -0.05184436 -0.36880934 -0.0820519 0.5934691
5 -0.13709794 0.5017283 -0.02296407 -0.1186139 0.057067152 0.72612035 -0.05293845 -0.41171303 -0.025109373 0.61457384
6 -0.0906944 0.49238196 -0.05435284 -0.06670994 0.13113073 0.7205636 -0.052453693 -0.44114476 -0.07760393 0.6423373
