7 10
2 -0.03617582 0.122746356 -0.24903972 -0.34315568 -0.7783357 -0.2516498 0.0020191916 0.5305579 -0.13062368 0.5232701
0 -0.08721171 0.08760956 -0.18856834 -0.3872188 -0.74873984 -0.20252217 0.046857618 0.51047057 -0.1777512 0.5102004
1 -0.1048212 0.15911171 -0.2856715 -0.40713075 -0.76622385 -0.17307353 0.0067783515 0.53172374 -0.1898423 0.4433047
4 -0.049809992 0.15512124 -0.25012672 -0.3049045 -0.75151944 -0.25310707 0.038175877 0.55831784 -0.17474593 0.5071676
3 -0.07467191 0.11184535 -0.28466022 -0.38503247 -0.7243977 -0.16707882 0.07608152 0.57156104 -0.13077646 0.45147148
5 -0.07844714 0.0669671 -0.25834566 -0.3774923 -0.71476835 -0.21847925 -0.0013981615 0.5467993 -0.15663029 0.529529
6 -0.08777631 0.15328947 -0.22621724 -0.31051615 -0.74793357 -0.26038584 0.025425654 0.51989543 -0.16313401 0.51009864
