6 10
5 0.27199635 0.4268557 0.47608814 0.56808895 -0.2342415 -0.18820302 0.6698215 -0.032416437 0.35279056 0.03991988
1 0.33731037 0.40591025 0.53054094 0.59432954 -0.20735934 -0.13986929 0.58277583 -0.09957105 0.2637018 0.09638132
2 0.3362741 0.31833085 0.49734196 0.54728824 -0.16811427 -0.20089518 0.5962799 -0.07911158 0.32081053 -0.015292448
3 0.36085352 0.35828358 0.46687132 0.57353145 -0.21431628 -0.20999427 0.59410715 -0.03893998 0.307293 0.039208
0 0.3040808 0.40720093 0.5301663 0.5435905 -0.17261472 -0.13976169 0.6304154 -0.015888073 0.2720452 -0.0025623061
4 0.36506498 0.37876433 0.45731178 0.5748758 -0.26891994 -0.1956101 0.6876461 -0.02348427 0.27812764 0.019233981
