7 10
5 0.30976504 0.012158171 -0.38265935 -0.82183725 0.08392145 -0.3422039 0.45866716 -0.108842775 -0.34885052 -0.028276645
4 0.3464746 -0.070045196 -0.3715939 -0.8202921 0.054854985 -0.33566248 0.43834937 -0.09556288 -0.3521715 -0.009694835
1 0.333816 -0.009850768 -0.38487923 -0.81112725 0.06918341 -0.29666892 0.3779188 -0.07500054 -0.34513703 -0.07902941
3 0.30480158 -0.019986069 -0.3733291 -0.85517424 0.040799886 -0.2928534 0.47277075 -0.055535767 -0.33363277 -0.0929499
0 0.34222907 -0.030035594 -0.36569706 -0.8168982 0.09226888 -0.3281488 0.46667165 -0.13046631 -0.33702955 -0.077243306
2 0.30734736 -0.054435022 -0.31097248 -0.8061439 0.09063322 -0.3276603 0.44557613 -0.047678087 -0.34061146 -0.037869707
6 0.36783978 -0.022556774 -0.31127533 -0.81197995 0.039608195 -0.28799573 0.47878584 -0.086789005 -0.3667996 -0.023601796
