5 10
1 -0.67959315 0.57668066 0.1036401 -0.114957154 0.17239644 0.009902549 0.12365757 -0.33776236 -0.35713866 0.5965371
3 -0.638097 0.59400636 0.09442195 -0.09920421 0.11104286 0.03701174 0.13650173 -0.34193012 -0.311308 0.57292515
4 -0.68328035 0.580101 0.08234296 -0.08082776 0.14228204 -0.00493969 0.19352423 -0.38006216 -0.31881952 0.54284996
0 -0.62395644 0.53182817 0.112746954 -0.06382962 0.15967207 -0.03954941 0.19829601 -0.39140946 -0.31257135 0.61180896
2 -0.59181535 0.50671846 0.05324013 -0.046710815 0.1013942 0.051902965 0.12435579 -0.37736318 -0.3431964 0.5559685
