6 10
4 0.2544125 -0.40272117 0.6769635 -0.20456357 0.32552448 0.34679914 -0.014346095 0.60895354 -0.08117058 0.12057759
3 0.22943544 -0.39172247 0.68400526 -0.28123838 0.33052245 0.41597262 -0.06154285 0.56259125 -0.1686935 0.1142679
1 0.24183176 -0.33926672 0.68943036 -0.19981866 0.38086647 0.37338564 -0.08298687 0.61581755 -0.092954785 0.15097071
0 0.24466696 -0.40122628 0.6435182 -0.2605342 0.3661125 0.39845964 -0.029876303 0.5793356 -0.15507235 0.15600929
2 0.26930436 -0.4026303 0.68391734 -0.24497014 0.34421268 0.36224246 -0.029515067 0.6078978 -0.09898045 0.1400524
5 0.19696502 -0.38754147 0.61839306 -0.27079093 0.36189583 0.32166812 -0.0028306334 0.58698285 -0.14328787 0.097769044
