6 10
5 -0.2739907 0.35331622 0.32530805 -0.8032749 0.02362526 -0.25922084 -0.021324465 -0.07384899 -0.18204924 -0.5829632
4 -0.22463438 0.33229524 0.3396891 -0.85687375 -0.04018257 -0.2425244 -0.04214251 -0.22649497 -0.15582652 -0.5000839
1 -0.16795047 0.37728277 0.35711676 -0.833233 0.034126997 -0.25790444 -0.08084538 -0.16353421 -0.14200646 -0.53681135
0 -0.21125415 0.37488797 0.29928392 -0.86886394 -0.030997455 -0.15939574 -0.08504387 -0.1405575 -0.2130286 -0.55448073
2 -0.20867594 0.3841862 0.29354128 -0.8417889 -0.06370991 -0.17042032 -0.020705273 -0.10496314 -0.13256414 -0.4922005
3 -0.24756688 0.34292397 0.29491726 -0.7436878 -0.029632814 -0.18677025 -0.012208918 -0.13272826 -0.18243851 -0.53025675
