7 10
1 0.44818246 -0.37782872 -0.29354948 0.019483075 -0.21958941 0.72617775 0.3414119 0.15344624 -0.10372376 -0.42309073
0 0.44748873 -0.36949092 -0.3278629 -0.0076280124 -0.21797404 0.7046813 0.34179434 0.19822326 -0.06798084 -0.49716115
5 0.4849883 -0.33972394 -0.26450136 -0.05400209 -0.2392775 0.76519495 0.28731167 0.20616932 -0.13511993 -0.4113347
4 0.45776743 -0.39536798 -0.3110706 -0.028770017 -0.2610182 0.7699144 0.32017472 0.16098058 -0.08119662 -0.44488356
2 0.47032085 -0.3635526 -0.3069388 -0.007370265 -0.20789303 0.7497111 0.26569447 0.12663813 -0.100323476 -0.4537761
3 0.46515113 -0.34540638 -0.31987774 -0.06031289 -0.2045644 0.7740654 0.31788895 0.2049779 -0.0935415 -0.44512403
6 0.42682418 -0.35848418 -0.31030077 -0.06629524 -0.1948437 0.71539253 0.3208896 0.15295084 -0.14233346 -0.45081297
