7 10
5 -0.27474332 0.21974738 0.5561014 0.3419992 -0.33160424 0.30310163 -0.08514594 -0.7906934 -0.11999438 0.1916399
2 -0.21444136 0.21735542 0.5502519 0.29532453 -0.31535608 0.26920724 -0.011281882 -0.80798644 -0.15514293 0.11883688
1 -0.18818082 0.25304028 0.5712347 0.36134169 -0.32192296 0.21605563 -0.00820781 -0.80809176 -0.12716469 0.20864153
4 -0.19702125 0.20218533 0.5367024 0.3304724 -0.3766051 0.28314838 -0.059410978 -0.8136314 -0.11653956 0.19032204
0 -0.20928921 0.15308103 0.4729711 0.35086876 -0.33944893 0.31166846 -0.12092025 -0.8099806 -0.070960335 0.14846413
3 -0.25722453 0.20023456 0.5660332 0.3049077 -0.34104338 0.25266695 -0.04138065 -0.80528384 -0.07584774 0.13582534
6 -0.28493518 0.2438437 0.48762023 0.32126755 -0.3589986 0.24459086 -0.040795702 -0.82277864 -0.1622493 0.135942
