7 10
3 -0.23904143 0.18242688 -0.6131362 -0.42951712 0.026028184 -0.29571718 -0.6965046 -0.38081285 0.04554906 0.19807251
4 -0.17328756 0.25471777 -0.6811109 -0.41439575 -0.06657241 -0.33096424 -0.6550146 -0.33793405 0.055150546 0.20501404
1 -0.21487337 0.20263553 -0.63711166 -0.39420533 0.002316916 -0.2354239 -0.69402957 -0.393452 0.02810063 0.19180109
0 -0.2564076 0.21254438 -0.6687731 -0.38389128 -0.02743785 -0.3120841 -0.7024861 -0.35638145 0.030299962 0.13820218
2 -0.24802685 0.2676495 -0.6627112 -0.4012191 0.007625301 -0.26513556 -0.6715319 -0.339465 0.058819573 0.1917206
6 -0.19432388 0.2130348 -0.6045867 -0.43389028 -0.016289933 -0.29872254 -0.69737697 -0.34107766 0.036587343 0.23608382
5 -0.17257659 0.25712132 -0.64163035 -0.434095 -0.024541296 -0.27430105 -0.6911935 -0.34552357 0.021828862 0.19078137
