7 10
4 -0.2627413 -0.012574188 0.6709479 -0.21891281 0.30845523 -0.16481234 0.5751117 0.14580481 0.01356973 0.63489103
2 -0.19312929 -0.03700966 0.6716597 -0.13486552 0.3443181 -0.09242481 0.6365905 0.15248868 -0.018450864 0.57040864
0 -0.27490926 -0.042823754 0.6444348 -0.17977144 0.32090554 -0.14740351 0.58032686 0.19082044 -0.06260477 0.643149
5 -0.24176656 -0.056455296 0.657332 -0.16808069 0.3732795 -0.060850162 0.58743966 0.1734216 -0.038951863 0.5716819
6 -0.23184186 0.0042287204 0.6429776 -0.19742611 0.3989603 -0.09458529 0.65019476 0.21810421 0.0025527806 0.6205849
1 -0.16113807 -0.0773848 0.63268036 -0.1397904 0.38929236 -0.12500006 0.6341704 0.13257387 -0.051141214 0.6171968
3 -0.22417551 -0.09038141 0.6603979 -0.22380148 0.3082632 -0.1164352 0.559978 0.20041248 -0.045263305 0.6514511
