7 10
6 0.55979836 -0.4250794 0.06936506 -0.44658384 0.3980143 -0.39733556 -0.23739758 -0.37236005 0.3781198 -0.33611324
5 0.573313 -0.39314124 0.115545526 -0.4280498 0.43246868 -0.33551627 -0.2394449 -0.30425948 0.3346992 -0.35685235
1 0.5784434 -0.3804379 0.025438556 -0.39950743 0.435222 -0.34228173 -0.15764187 -0.35904738 0.37205195 -0.2907188
2 0.59631497 -0.34744248 0.059311025 -0.40598992 0.398639 -0.30798203 -0.23714899 -0.37018287 0.38913074 -0.3231852
3 0.5728266 -0.40947673 0.082330205 -0.39281604 0.42685515 -0.35668373 -0.21768296 -0.3525814 0.32761762 -0.313063
4 0.6431126 -0.38086975 0.1294658 -0.41827923 0.37216222 -0.32591063 -0.17153884 -0.41560304 0.42340082 -0.36130738
0 0.65058887 -0.44820392 0.059393305 -0.38459563 0.45117134 -0.40122464 -0.17582111 -0.37913325 0.38141522 -0.29665998
