7 10
3 -0.40131155 -0.1283901 0.097388126 -0.2026793 -0.3331566 -0.022934137 -1.0012501 -0.2767599 -0.20344236 0.18333372
4 -0.37489977 -0.14348271 0.16304235 -0.20544824 -0.37852496 0.06428888 -0.9698621 -0.18752033 -0.17884235 0.20994484
1 -0.34239644 -0.12401542 0.12467095 -0.15821241 -0.29851574 0.05606362 -1.0360982 -0.21671852 -0.1291649 0.17220096
5 -0.38941744 -0.16694407 0.06570163 -0.13678749 -0.38861185 0.02982862 -0.9559406 -0.24805446 -0.18944125 0.24303032
6 -0.34113568 -0.09342369 0.09862661 -0.13702773 -0.2891716 0.05131284 -1.0178245 -0.19364649 -0.12129886 0.14712332
2 -0.37677708 -0.060596555 0.12766585 -0.16172367 -0.34101832 0.007580012 -0.98225176 -0.17819956 -0.16948502 0.22310549
0 -0.34145218 -0.07704307 0.12728456 -0.1474772 -0.3674494 0.051807877 -0.9247398 -0.24844028 -0.19724108 0.20013475
