7 10
5 0.43539077 -0.13218139 0.3101715 -0.15274115 -0.6969101 -0.033344794 0.4830969 0.5822827 0.11383025 -0.304286
1 0.39024216 -0.18382159 0.2768929 -0.098183416 -0.7677211 -0.05262995 0.3848183 0.5656314 0.13197692 -0.25085932
3 0.42942244 -0.16557184 0.22916941 -0.07455137 -0.7414916 -0.13893513 0.400649 0.6026991 0.11083347 -0.2687146
4 0.4306327 -0.15307008 0.28424728 -0.14478606 -0.71977895 -0.112530924 0.44854978 0.5829822 0.05032749 -0.26330808
2 0.3836833 -0.14564478 0.2717065 -0.11444977 -0.7053283 -0.055131465 0.45809266 0.5422577 0.13427022 -0.27215052
0 0.36616707 -0.16304035 0.2986191 -0.11867367 -0.73040766 -0.0644211 0.42492828 0.5572879 0.1199412 -0.3120656
6 0.41692123 -0.1899384 0.2318448 -0.09602793 -0.75542337 -0.105428025 0.44396648 0.55807376 0.06059949 -0.31224188
