7 10
2 -0.7451756 -0.56553197 0.22039728 -0.057586342 -0.35520777 -0.44496056 -0.27884576 -0.29968187 0.23922947 -0.10370225
4 -0.70275426 -0.5458138 0.15314528 -0.09059508 -0.39983916 -0.42196596 -0.3246413 -0.3052354 0.20867208 -0.11722356
0 -0.7375578 -0.5197895 0.20808886 -0.08813903 -0.3313218 -0.3807365 -0.3436712 -0.27756768 0.2133012 -0.13384405
5 -0.67250514 -0.55686647 0.21516709 -0.009899164 -0.38614988 -0.40038565 -0.30110383 -0.2534705 0.18432325 -0.031399563
1 -0.7233776 -0.48663703 0.21000752 -0.10555419 -0.40124246 -0.40354118 -0.2540111 -0.23586519 0.22485754 -0.09593884
6 -0.7343438 -0.49380127 0.20278828 -0.065884195 -0.37418368 -0.35131732 -0.31696066 -0.27053016 0.2494296 -0.033103097
3 -0.70868826 -0.57602036 0.19585602 -0.022631692 -0.37621817 -0.3875038 -0.3441384 -0.24782592 0.29158476 -0.12389183
