7 10
5 -0.5378075 0.08375558 -0.09425897 -0.13640027 0.31563753 -0.22065835 0.45699942 0.07105115 -0.24455488 0.79142207
6 -0.5492649 0.11817819 -0.047397245 -0.15664475 0.3211121 -0.22486223 0.48877597 0.006498409 -0.24042876 0.7956096
2 -0.58497345 0.16340142 -0.025544863 -0.17742899 0.29859316 -0.21564871 0.45588115 0.036519423 -0.22847253 0.8513318
3 -0.5804419 0.14653677 -0.06786565 -0.13486812 0.31651384 -0.16160806 0.48218367 0.080967955 -0.1891877 0.7990848
4 -0.5091211 0.19637388 -0.06914482 -0.13823876 0.36224672 -0.25655022 0.5275072 0.08249293 -0.18774417 0.8264331
1 -0.5311675 0.15658143 -0.07438476 -0.14733578 0.28531092 -0.21969442 0.46907517 0.05936297 -0.2360047 0.84310186
0 -0.48630574 0.1653338 -0.07621021 -0.18039966 0.3470816 -0.17228319 0.4795962 0.04608269 -0.24375017 0.8021869
