7 10
0 0.12297345 -0.07585668 -0.24664007 0.4892067 0.7846807 0.20965272 0.54170007 -0.10507637 -0.21541569 0.272516
3 0.13954456 -0.040755488 -0.26919273 0.4490925 0.7915274 0.18631522 0.62365174 -0.12927482 -0.18589818 0.19083393
4 0.08750405 -0.085560754 -0.26911095 0.46470383 0.8077671 0.253698 0.5349114 -0.07504964 -0.16771771 0.19739532
1 0.08990075 -0.11371538 -0.24279098 0.45335525 0.7177128 0.26127645 0.57723415 -0.15010417 -0.1602616 0.29232523
5 0.08436533 -0.10405051 -0.21267696 0.45207462 0.75634354 0.20808017 0.5902175 -0.12046881 -0.17002462 0.2867664
6 0.1000192 -0.0958901 -0.2520252 0.44974652 0.7610114 0.22599714 0.5695854 -0.1314088 -0.15568882 0.20854187
2 0.12762322 -0.097053386 -0.27069405 0.47553912 0.78767395 0.16695645 0.57494056 -0.078623556 -0.20221417 0.22094244
