6 10
3 -0.6098823 -0.0446119 0.068873465 -0.2588156 0.2364616 -0.112407394 -0.55880696 -0.29127955 0.023603301 0.7583503
0 -0.5519756 -0.029399851 0.09946046 -0.19730246 0.2748876 -0.04546501 -0.6072094 -0.21626022 -0.04476209 0.7294805
1 -0.50548327 0.0015772223 0.04631971 -0.1745756 0.21750242 -0.02818271 -0.55274206 -0.19186741 -0.05096696 0.6466306
5 -0.5548748 -0.062006596 0.07042329 -0.21650355 0.2070217 -0.08697755 -0.5088036 -0.26791772 -0.046528243 0.7487435
4 -0.59439707 -0.08022897 0.04289975 -0.24284278 0.19916932 -0.041013274 -0.57015896 -0.28643864 0.03389083 0.77240646
2 -0.57636 -0.03769542 0.09985442 -0.21572618 0.28778863 -0.10336321 -0.5603336 -0.21686777 -0.03755441 0.69490993
