7 10
2 0.103530034 0.051323045 0.069220066 0.33653772 -0.62214506 -0.41646954 0.26250333 -0.76495314 0.09958587 -0.31536573
3 0.033582393 0.03826326 0.056243137 0.3444464 -0.60756385 -0.40902215 0.25017676 -0.7879443 -0.0035461758 -0.27379438
4 0.022463016 0.104473576 0.033329457 0.30573902 -0.546273 -0.4089753 0.19826487 -0.75514644 -0.012909623 -0.32614446
1 -0.0007140184 0.05065987 0.07790919 0.31444588 -0.5387898 -0.42545822 0.21276383 -0.72012144 0.0082002105 -0.337137
5 0.03801737 0.015114506 0.04904991 0.303873 -0.59015864 -0.43971524 0.16222513 -0.71568614 0.051891983 -0.34813145
0 0.08418102 0.11044757 0.04516018 0.26373038 -0.50985295 -0.46723837 0.14561458 -0.7549679 0.04441638 -0.32858652
6 0.08308381 0.08981521 0.06564852 0.25780204 -0.5893239 -0.42358193 0.19658454 -0.7203011 0.05950376 -0.32085854
