7 10
4 -0.25471175 0.395063 -0.26432353 0.54429513 -0.33066112 0.19397928 0.3384941 -0.23760809 -0.4656564 0.55467665
1 -0.33769011 0.31885663 -0.22906591 0.59718865 -0.2947307 0.1120345 0.32526174 -0.2943647 -0.51840967 0.56102943
2 -0.30051407 0.38088563 -0.2373313 0.5182466 -0.27431408 0.13423693 0.30219233 -0.19112821 -0.42883223 0.55360687
6 -0.32911855 0.38179275 -0.2020605 0.47468674 -0.2980513 0.19175269 0.36887023 -0.27769122 -0.49483103 0.5274265
3 -0.31750754 0.29820123 -0.18439078 0.5508263 -0.34888572 0.12290908 0.34799358 -0.23654084 -0.47379586 0.569001
0 -0.31692487 0.36801514 -0.1651113 0.46800292 -0.32349184 0.20175707 0.36454055 -0.2547366 -0.4609718 0.5128484
5 -0.33581945 0.3340177 -0.18048793 0.5475527 -0.26753232 0.20597339 0.37150362 -0.26476192 -0.39458203 0.5226681
