6 10
3 -0.8692652 0.3448679 0.37148795 0.36904725 0.18037437 0.013812093 -0.020659836 0.25027147 0.34363356 0.14041598
1 -0.8399699 0.3303927 0.41678378 0.3515995 0.1887029 0.02375766 -0.012604587 0.24225868 0.3915699 0.13891761
4 -0.84227467 0.35794616 0.38162315 0.36787787 0.25904608 0.02332902 0.01734504 0.2112971 0.32428047 0.0799079
2 -0.8820852 0.33109608 0.35778904 0.35071802 0.25963733 0.07122496 0.011370119 0.22013077 0.39239854 0.118961476
0 -0.87275845 0.27327007 0.4262051 0.39699772 0.2504682 0.014844166 -0.016760804 0.16483091 0.40504444 0.072616875
5 -0.8987187 0.2974084 0.39388338 0.33362895 0.26282337 0.0595237 0.06401363 0.1546262 0.3587086 0.07711551
