7 10
6 -0.79248524 0.004524854 0.33722067 -0.23293048 0.03833137 -0.5556919 0.038270403 -0.40498444 -0.10899987 -0.2917787
0 -0.8191256 -0.022428706 0.3371401 -0.28315187 -0.03394086 -0.48897654 0.0013083618 -0.4031028 -0.047280263 -0.27420074
5 -0.80014104 0.04605926 0.3418486 -0.27052706 0.020707622 -0.5592357 0.0044508963 -0.34410176 -0.04238859 -0.2965042
1 -0.8051566 -0.03675214 0.29789978 -0.2883699 0.029521212 -0.5962613 0.00056242576 -0.37027958 -0.06836503 -0.2705633
4 -0.87850887 0.018177638 0.3372873 -0.22356555 0.051842973 -0.61042684 0.03833835 -0.3612646 -0.024110228 -0.22913562
3 -0.83148944 -0.0137627795 0.3028346 -0.23261096 0.04639895 -0.57659477 -0.0030048164 -0.37335142 -0.0022227783 -0.28056622
2 -0.8402755 -0.034245186 0.3001118 -0.2499109 -0.0104194945 -0.5580504 -0.032156203 -0.42127034 -0.10201201 -0.25582245
