7 10
6 0.013208264 -1.3278269 -0.043853376 -1.0923452 0.87185436 -0.059415646 1.5423326 0.643003 0.8088723 -0.44138995
5 0.094129555 -1.2373031 -0.087931454 -1.0574292 0.8735938 0.0059608934 1.4369801 0.6970109 0.8049264 -0.48863125
4 0.7721833 -1.0481074 0.3605159 0.62597203 0.098430544 -0.1255938 -0.09396675 -0.79307014 -0.7772309 -0.40242633
1 0.7145443 -1.1370376 0.39229572 0.56450576 0.1832246 -0.11874753 -0.103878975 -0.8002807 -0.86892503 -0.39781383
3 0.78849095 -1.111857 0.39936116 0.54852885 0.13307272 -0.057138506 -0.098218516 -0.80903244 -0.8159557 -0.37390488
0 0.7490751 -1.0746745 0.35955116 0.4656465 0.1074249 -0.08703454 -0.07585573 -0.7604899 -0.7917348 -0.35334367
2 0.73118585 -0.9991823 0.34283966 0.5449615 0.10036923 -0.124483794 -0.03306342 -0.75991577 -0.7299275 -0.40101328
