7 10
4 -0.023466192 0.37413678 -0.5487448 0.16862711 0.21770816 0.13313586 -0.86804503 -0.058585744 0.3000356 0.15061301
3 0.019127114 0.32467306 -0.5424047 0.11249533 0.2310986 0.10140594 -0.86191255 -0.06779339 0.31363648 0.10724467
1 0.025571449 0.3307886 -0.4930791 0.07256162 0.23591413 0.05821665 -0.9225541 -0.13906145 0.2359665 0.113361135
0 0.04155267 0.3532865 -0.5352744 0.16033669 0.1649751 0.14268908 -0.8707179 -0.12621891 0.3080477 0.14789538
2 0.020114593 0.38309872 -0.55900216 0.14366622 0.17508617 0.069231234 -0.9117408 -0.09181181 0.27181992 0.11640974
6 -0.03911176 0.35098633 -0.5653142 0.12247451 0.22289544 0.1533637 -0.8875565 -0.112088725 0.21966276 0.09601628
5 -0.002220097 0.38892606 -0.55435836 0.12421473 0.22002347 0.12181503 -0.8468309 -0.034198586 0.2496093 0.12672326
