7 10
1 0.3462418 -0.19549374 0.1954489 0.3548466 0.5456359 0.036991745 0.34194216 -0.19562855 0.69012886 -0.40645498
4 0.31446946 -0.20392163 0.15569903 0.4024234 0.5154069 0.0082557 0.35765404 -0.20275803 0.71705973 -0.33566123
3 0.32861987 -0.2356048 0.23111454 0.31722626 0.5201042 0.03666119 0.32356957 -0.18472353 0.698105 -0.4180851
2 0.3034058 -0.23485148 0.19994041 0.38282037 0.579931 0.02757178 0.2939021 -0.20338742 0.67472583 -0.35292187
0 0.29639313 -0.1901133 0.17886166 0.39749995 0.5596538 0.0155467875 0.30152014 -0.18693267 0.728405 -0.4381333
6 0.36470246 -0.24235095 0.19134009 0.36257496 0.58686984 -0.03543124 0.35989067 -0.16023944 0.6896309 -0.41942134
5 0.32974312 -0.238177 0.1372488 0.34591445 0.50096554 0.057890777 0.27744216 -0.22374676 0.6634735 -0.3858601
