6 10
4 0.32549 -0.30088624 0.2639724 -0.3913935 -0.3777056 -0.263479 0.47549447 -0.2046033 -0.6489884 -0.087170035
5 0.2766119 -0.3280249 0.27267691 -0.4850305 -0.39633217 -0.27543637 0.48209816 -0.2201404 -0.68684286 -0.064504445
3 0.3151726 -0.23509009 0.18713865 -0.4885656 -0.4018804 -0.21839307 0.42182946 -0.1726529 -0.6836146 -0.05641433
2 0.27792728 -0.31755674 0.1819117 -0.46614614 -0.3359587 -0.2545019 0.45865583 -0.1770797 -0.6355427 -0.06329355
1 0.2674131 -0.24159089 0.25802517 -0.4508551 -0.4019905 -0.2222828 0.49009427 -0.14937733 -0.7091408 -0.096492685
0 0.2903794 -0.3369235 0.1841994 -0.4542088 -0.3816649 -0.2288995 0.497833 -0.15944932 -0.6983101 -0.09752116
