6 10
1 -0.68544763 -0.089504585 0.48668745 -0.043222174 0.48873878 -0.35653332 0.073624566 0.1521529 -0.29713956 0.55934286
4 -0.6433894 -0.08480496 0.41189894 -0.10620122 0.4843652 -0.34024414 0.055352457 0.1719784 -0.24964696 0.57104295
3 -0.6412033 -0.10405739 0.44902724 -0.071597 0.47128388 -0.3509012 0.037982974 0.09817784 -0.23511708 0.5635773
5 -0.67120105 -0.12445474 0.39601675 -0.10266952 0.47178584 -0.35285136 0.056382257 0.16202804 -0.30424872 0.59636724
2 -0.572969 -0.15178078 0.4223797 -0.08465146 0.45709142 -0.31819713 0.08486104 0.14477736 -0.29019114 0.5742215
0 -0.66131717 -0.10500069 0.4486138 -0.10621191 0.40642056 -0.3557942 0.08773314 0.15362976 -0.272508 0.5699478
