7 10
4 0.35764238 0.6551504 -0.12999864 0.02387047 -0.08590023 -0.12836707 -0.084157325 0.3251565 -0.79363054 0.22769906
3 0.32775056 0.6592224 -0.060458552 0.024478436 -0.13054511 -0.033737537 -0.09107319 0.364376 -0.75778073 0.3270119
1 0.32652664 0.67343765 -0.10941014 -0.017289586 -0.14104645 -0.11844477 -0.0777028 0.31471705 -0.7430504 0.3288778
0 0.29185635 0.5951787 -0.11243777 0.009733868 -0.11561902 -0.053379897 -0.102063596 0.38342947 -0.7733706 0.28762567
2 0.32483676 0.7036812 -0.113337815 -0.030751977 -0.1434959 -0.052864347 -0.12547381 0.36860454 -0.7166997 0.32152954
6 0.287253 0.6218085 -0.059027195 0.054398626 -0.06100311 -0.13499066 -0.13883263 0.3734119 -0.76081806 0.24868533
5 0.34031105 0.6103159 -0.070218265 0.0063413926 -0.14275199 -0.07395261 -0.08391518 0.34130743 -0.71869963 0.28363165
