6 10
1 -0.4752176 -0.021974137 0.19217034 0.17731442 0.6481109 -0.46129724 -0.21509126 0.110350266 0.60981613 0.37820038
0 -0.44194072 -0.09707315 0.12112861 0.17722966 0.7119983 -0.39876738 -0.21874739 0.15842634 0.54478925 0.37640998
6 -0.42627087 -0.048369713 0.19418964 0.10506053 0.68924946 -0.44947836 -0.17996313 0.18839599 0.59500057 0.32863852
5 -0.50579613 -0.098835126 0.11740188 0.17908542 0.6679718 -0.3729229 -0.17785338 0.12380676 0.590267 0.36419955
3 -0.4360241 -0.08062827 0.17910372 0.15117738 0.70640737 -0.43418953 -0.17807761 0.16217178 0.6012212 0.3363847
2 -0.47029218 -0.050520435 0.17738372 0.08819393 0.6675665 -0.36914986 -0.21095975 0.17922741 0.569015 0.37055996
