7 10
6 0.052185144 0.5166551 0.1574946 0.13815236 0.934274 0.23107323 0.12685858 0.16875748 -0.1961327 -0.037109
2 0.016235063 0.5070302 0.13303265 0.08463428 0.8914261 0.31636965 0.12654726 0.19013089 -0.23911265 -0.020071533
5 0.01734939 0.5440256 0.16689397 0.1498859 0.89348245 0.20952167 0.1421187 0.1290201 -0.25539255 0.0076990025
1 0.06727582 0.58035105 0.16470587 0.13084301 0.91482776 0.27087766 0.12201701 0.19099227 -0.187744 0.0052714325
3 -0.046718474 0.58223456 0.18370901 0.120087504 0.93929756 0.33318198 0.18993875 0.22318684 -0.28383568 -0.043368433
4 -0.017017188 0.63080305 0.19605318 0.15809187 0.9671325 0.31485048 0.11283953 0.17563386 -0.34569687 -0.0458526
0 0.049271155 0.49668908 0.15545116 0.07035153 0.8234155 0.2829905 0.11377388 0.15462522 -0.19902259 -0.0009195419
