7 10
1 -0.53563017 -0.44815478 -0.35153052 0.19850533 -0.4663039 -0.4613033 0.37268382 -0.28072047 -0.3741691 -0.07468439
3 -0.4595889 -0.35464022 -0.40326202 0.22454514 -0.46787947 -0.47714645 0.3537894 -0.24566264 -0.34975412 0.022876762
4 -0.5356735 -0.42569086 -0.407896 0.1474404 -0.497628 -0.49183276 0.3245917 -0.23635714 -0.31540897 -0.011034826
5 -0.48729905 -0.41577095 -0.41046554 0.1861368 -0.5043366 -0.51908606 0.3785446 -0.29256552 -0.31111532 0.009829917
2 -0.4988626 -0.39415523 -0.37928155 0.23231322 -0.4608247 -0.44550756 0.36937693 -0.31228995 -0.3846293 -0.043974046
0 -0.52656823 -0.44970635 -0.4179538 0.15413526 -0.40618825 -0.47921714 0.39579487 -0.20861278 -0.36095873 -0.050129816
6 -0.48333538 -0.4548521 -0.41484153 0.17652656 -0.41329443 -0.51861864 0.30294752 -0.26461405 -0.38785487 -0.050463658
