7 10
6 -0.0930155 -0.6898162 -0.216087 0.33775443 -0.16714771 0.694958 -0.22468337 -0.39467523 0.2994407 -0.13885765
0 -0.12253231 -0.68109137 -0.23198952 0.31649458 -0.12724082 0.65567446 -0.24971846 -0.3064184 0.3657751 -0.19994006
1 -0.07986125 -0.6839326 -0.20448829 0.36700034 -0.15189499 0.67159927 -0.20808429 -0.30439168 0.35151374 -0.1445475
3 -0.019283129 -0.6600413 -0.2088691 0.34854567 -0.16786261 0.64799154 -0.18792288 -0.36558452 0.34955212 -0.15799926
2 -0.0949572 -0.67271835 -0.15254295 0.36560556 -0.1484809 0.6599871 -0.21493746 -0.36113685 0.33774066 -0.12865753
4 -0.09087147 -0.6881459 -0.26027435 0.32575804 -0.15300593 0.59147483 -0.20330374 -0.37128857 0.29642743 -0.13920113
5 -0.027175771 -0.6672936 -0.24885525 0.38103092 -0.12965229 0.648439 -0.23737313 -0.3920161 0.34626085 -0.13193315
