7 10
1 0.2766489 0.11493587 -0.21902029 -0.31579882 -1.0323156 -0.1991442 -0.18412611 -0.106432244 -0.21108186 0.14728293
2 0.28019658 0.17900388 -0.199749 -0.35531524 -1.0041522 -0.17090337 -0.16728742 -0.033828378 -0.16619425 0.069221295
5 0.20168795 0.16396904 -0.24613902 -0.29239324 -1.0256494 -0.14780082 -0.1515964 -0.12461952 -0.2179597 0.1475094
4 0.25325888 0.10364507 -0.19221143 -0.32764217 -1.0202427 -0.16996387 -0.17934643 -0.10666364 -0.20648885 0.11833235
3 0.29224232 0.13669938 -0.16110606 -0.28910273 -1.0563474 -0.12924428 -0.124894865 -0.03612411 -0.1987732 0.1705279
0 0.20970163 0.15973395 -0.2224913 -0.33881995 -1.0484209 -0.12823333 -0.18489303 -0.049037803 -0.2124666 0.07310505
6 0.24469995 0.1368078 -0.23203911 -0.35506883 -1.0061233 -0.16215175 -0.10726991 -0.03475131 -0.15935881 0.13549839
