6 10
3 -0.44550416 0.27411592 -0.34777924 0.16944928 -0.20288101 0.17290314 0.7273447 0.19117229 0.020651853 0.65153414
2 -0.4219931 0.26325965 -0.38285872 0.2261521 -0.26223686 0.10491295 0.6508258 0.19706506 -0.06629547 0.58554125
0 -0.43162793 0.3292976 -0.36893654 0.16537337 -0.30241838 0.11249703 0.67500657 0.20246978 -0.03552563 0.6212058
4 -0.38247994 0.3053643 -0.3561675 0.20928103 -0.2154348 0.113096796 0.70828867 0.16788687 -0.040435664 0.6214166
1 -0.43394113 0.25653943 -0.35311112 0.14705649 -0.22255702 0.15485251 0.7251066 0.22172375 -0.06719354 0.58848333
5 -0.3865206 0.24975748 -0.32691285 0.20931509 -0.25159782 0.11897985 0.65866923 0.15569797 -0.001405571 0.6054639
