7 10
0 -0.17183453 0.23964942 0.15150653 -0.49189448 -0.112069 0.034869783 -0.26902798 0.24253109 0.6466619 -0.65008
1 -0.1736267 0.17317562 0.124603994 -0.5452026 -0.11670511 0.015394538 -0.25945428 0.2629325 0.6434835 -0.6707606
4 -0.18252121 0.14346868 0.08915778 -0.47403434 -0.1340753 0.08088317 -0.3044243 0.24955155 0.6350796 -0.6373266
5 -0.24526805 0.2031297 0.06693413 -0.54885423 -0.17851084 -0.017536085 -0.26312268 0.22431016 0.66772485 -0.65549004
2 -0.23445429 0.2037823 0.1550392 -0.5538665 -0.17532817 0.033480708 -0.28322437 0.20240095 0.61954826 -0.6475972
3 -0.15029547 0.22539762 0.10940352 -0.55421644 -0.08363811 0.010505093 -0.3183035 0.18502614 0.6646754 -0.6540652
6 -0.18688603 0.24069904 0.09402508 -0.53388375 -0.112392604 0.049263254 -0.2680764 0.25772187 0.645323 -0.6494614
