6 10
0 0.34628534 -0.15858291 -0.71379024 0.23912722 -0.44629678 0.09284811 -0.1358836 0.04962488 0.4924027 -0.33203354
3 0.38377887 -0.1440894 -0.784265 0.24915418 -0.443458 0.02365269 -0.189874 0.100693844 0.4848902 -0.34898558
6 0.3935723 -0.2093656 -0.6945703 0.29153633 -0.4611482 0.07153668 -0.18988124 0.025902137 0.51054794 -0.36287123
5 0.3639373 -0.19687076 -0.7242092 0.29171592 -0.4782453 0.037881933 -0.18048899 0.09986955 0.516944 -0.32362327
2 0.3000336 -0.2061149 -0.74073285 0.20730764 -0.45040944 0.09417967 -0.183929 0.06244571 0.4816393 -0.35264084
4 0.34681478 -0.120323494 -0.6543841 0.27546823 -0.44220993 0.082425065 -0.19680217 0.11507045 0.44376433 -0.38008025
