7 10
2 0.082127266 0.3241112 -0.3656483 -0.8430103 0.28559312 0.2523888 0.09253559 0.48104417 0.41822085 0.1890624
3 0.10153361 0.37873408 -0.31332386 -0.75144494 0.28338903 0.18244745 0.0930194 0.48761252 0.44285342 0.16688134
5 0.04825862 0.3264777 -0.36287633 -0.7540065 0.25775275 0.17883453 0.045668364 0.45225054 0.44517922 0.16851775
0 0.026816403 0.33923703 -0.34434962 -0.7559056 0.20375022 0.23428403 0.05801057 0.48429602 0.35019085 0.2504982
4 0.028494654 0.36274862 -0.31917036 -0.71136904 0.20884784 0.19966735 0.037049986 0.5096884 0.44124904 0.2310024
1 0.081880085 0.29280826 -0.30882522 -0.7693069 0.26579377 0.19162075 0.103945516 0.46915254 0.3865283 0.19134778
6 0.11384538 0.35309216 -0.37426382 -0.80708367 0.27533248 0.16337992 0.012844907 0.40604836 0.3850439 0.24937259
