6 10
4 0.3466134 -0.592777 0.13535017 0.032800555 -0.07789374 -0.19666642 -0.26952088 -0.059517577 0.3413908 -0.81084955
1 0.35748821 -0.55690247 0.11851325 0.053809006 -0.06764323 -0.16926657 -0.26822835 -0.10735132 0.28992033 -0.85638887
2 0.32560906 -0.5664208 0.06680908 0.06928742 -0.015668618 -0.16228059 -0.19460176 -0.021255469 0.27599275 -0.8492894
0 0.32097375 -0.5469963 0.1300136 0.043921515 -0.08027015 -0.21961562 -0.28303385 -0.07104737 0.2861116 -0.8466662
3 0.3484758 -0.5922531 0.12162619 0.038580306 -0.0430197 -0.17672348 -0.19769903 -0.089506045 0.30920577 -0.8289839
5 0.26536003 -0.56289166 0.059491284 0.0324633 -0.0583422 -0.21396548 -0.20410487 -0.061075 0.3214754 -0.8225529
