7 10
5 -0.3986813 -0.49930552 -0.26010257 -0.07302577 0.35318506 -0.42512086 0.099925816 0.3966361 -0.37618822 -0.50909925
6 -0.41135582 -0.4589029 -0.27669907 -0.09605424 0.39308926 -0.39858294 0.14189018 0.38944227 -0.37156403 -0.5492892
1 -0.42239365 -0.44653907 -0.28818962 -0.116680905 0.35233113 -0.39831382 0.16710694 0.33809614 -0.41853827 -0.5031231
3 -0.37047774 -0.45743307 -0.29149976 -0.03616847 0.41718748 -0.4151845 0.122052275 0.35879475 -0.37337357 -0.53900886
2 -0.4669554 -0.4577511 -0.23880783 -0.114632 0.45089343 -0.38256073 0.12345278 0.37890896 -0.39997867 -0.48389167
4 -0.42787802 -0.47354662 -0.20415017 -0.06539451 0.40067595 -0.42456836 0.10270891 0.37206456 -0.41352794 -0.4880731
0 -0.44219464 -0.43056616 -0.28542283 -0.06968054 0.42077228 -0.4302186 0.17067261 0.33703664 -0.37025043 -0.57039905
