4 10
4 0.73724395 -0.158836 -0.31417578 0.056645624 0.06446655 0.01654013 0.24985532 -0.80077523 0.079394706 0.06976262
5 0.656294 -0.12853359 -0.31454507 0.09521253 0.05593878 -0.031196102 0.21672891 -0.72339606 0.01323111 0.022272503
3 0.6291957 -0.19262923 -0.30319795 0.07494865 0.004636828 -0.017079445 0.15856929 -0.6924045 0.048005328 0.104727
0 0.5770752 -0.15881322 -0.26710704 0.051033188 0.09184436 -0.03327173 0.1904991 -0.65786386 0.02873986 0.09242105
