7 10
5 -0.83623296 -0.12309138 0.23500873 -0.4066475 0.11319585 -0.58030134 -0.26118085 0.29013136 0.11884397 0.10193274
2 -0.82628596 -0.12353845 0.15030727 -0.3927076 0.009798762 -0.60334796 -0.24980384 0.2661799 0.040082417 0.104253285
3 -0.846348 -0.055210847 0.17005932 -0.35137442 0.07220696 -0.55148894 -0.2444361 0.27033693 0.07557814 0.0431329
1 -0.83807266 -0.07632754 0.20167945 -0.41785848 0.06773736 -0.5738323 -0.2976362 0.22038132 0.024115836 0.049933102
0 -0.8203303 -0.024598267 0.1910784 -0.41890103 0.038551334 -0.5535181 -0.24368739 0.22452673 0.08053162 0.0513286
6 -0.8543723 -0.020851817 0.13552976 -0.36550453 0.040155396 -0.5804332 -0.305786 0.24443908 0.028849542 0.0424035
4 -0.8524927 -0.08812007 0.21735774 -0.41109267 0.044626176 -0.5571339 -0.29526332 0.21197532 0.08775224 0.070908755
