7 10
0 0.47278777 0.27502012 -0.66348445 0.10506284 -0.4472764 0.11208616 0.37049952 -0.32037798 -0.32214835 0.38645044
4 0.5014027 0.20096739 -0.66406155 0.15943824 -0.44709873 0.06219875 0.35774142 -0.24602868 -0.29143852 0.3683993
5 0.49438438 0.29519603 -0.66827613 0.07512194 -0.40159956 0.13981125 0.34219807 -0.25944656 -0.2388228 0.40662408
3 0.4673405 0.30289435 -0.7273387 0.06591063 -0.43540806 0.08358721 0.30419806 -0.3095889 -0.283739 0.35213667
6 0.46385753 0.26284382 -0.687025 0.12830448 -0.4834294 0.116845176 0.29079786 -0.30483338 -0.30929697 0.34785378
1 0.4444284 0.23681211 -0.6299097 0.123867214 -0.46125808 0.06528205 0.29503685 -0.31220388 -0.29800302 0.4041872
2 0.4780279 0.24010879 -0.6391771 0.07937886 -0.4675286 0.15204741 0.33988467 -0.31631956 -0.2970951 0.38018203
