6 10
2 0.5605967 0.24641964 0.3323053 0.5162648 -0.0497199 -0.31217015 0.32282683 0.635202 -0.067213096 -0.20065376
4 0.62354964 0.19656791 0.39624497 0.41805437 -0.09786111 -0.3835001 0.32815403 0.6200159 -0.040353026 -0.26082206
5 0.60328543 0.24599543 0.36053938 0.47217068 -0.072729364 -0.36210784 0.25151294 0.63978225 -0.033626888 -0.19276395
0 0.5947042 0.13845046 0.37319195 0.4729464 -0.027302748 -0.34196 0.22852103 0.61679155 -0.091466144 -0.21472727
3 0.5931556 0.20206729 0.3631625 0.47771785 -0.051990595 -0.29262558 0.29088187 0.60033363 -0.06776594 -0.21059586
1 0.6088977 0.23400982 0.3156437 0.45735493 -0.080117516 -0.3334692 0.29465887 0.62206805 -0.08566547 -0.19265759
