7 10
4 0.27793947 -0.07645307 0.24026974 0.5694364 0.21059002 0.28222987 0.6346433 -0.4645553 -0.18506348 0.40698996
1 0.33438137 -0.052403178 0.14469223 0.5507811 0.16988097 0.36646017 0.64525974 -0.450763 -0.2734372 0.33369616
3 0.25921565 -0.021517685 0.19018348 0.5735223 0.22360533 0.37836036 0.6433112 -0.4176199 -0.21383026 0.3494373
0 0.28363547 -0.0010734774 0.21074453 0.56467545 0.21714775 0.35309464 0.6391867 -0.46976507 -0.23389827 0.39364287
2 0.3322851 -0.0701974 0.13176061 0.574172 0.21202035 0.3841409 0.5580532 -0.41512445 -0.21212184 0.33950976
5 0.24407312 -0.03227697 0.15940206 0.54097646 0.24957679 0.3393323 0.64973193 -0.48106182 -0.27584144 0.3426798
6 0.29028812 -0.028025253 0.2477627 0.55106306 0.21181996 0.35642442 0.5923319 -0.36771896 -0.20764954 0.40494925
