4 10
2 -0.21972372 0.08460471 0.042667557 -0.2807821 -0.6494143 0.32118273 -0.9331717 0.22984445 -0.5709104 -0.48535407
3 -0.16341461 0.042366557 0.060714576 -0.26657984 -0.657556 0.36577007 -0.97189 0.22115627 -0.56808263 -0.5356055
1 -0.43717387 0.69070274 -1.3048837 -0.5814403 0.16979364 0.20406814 0.52317584 -0.2645886 0.016839713 0.3638707
0 -0.35014606 0.613604 -1.2242541 -0.48853034 0.22458537 0.17799935 0.5740505 -0.28956863 0.045431226 0.3301015
