7 10
5 -0.4590712 -0.11563736 0.019207565 -0.4692333 0.1915253 0.529621 0.20003839 -0.5734578 0.29919645 -0.4188126
2 -0.46517646 -0.10259553 0.022645071 -0.4492738 0.27161124 0.53273934 0.15129094 -0.5495051 0.33677953 -0.40914422
0 -0.44876176 -0.17565018 -0.011383465 -0.43465984 0.21523327 0.53575176 0.17112376 -0.5339336 0.33997664 -0.410921
1 -0.4990318 -0.10647333 0.05254857 -0.4392973 0.22609207 0.5233795 0.13613583 -0.572127 0.2913762 -0.3914334
3 -0.54494864 -0.16448268 0.05350995 -0.46934268 0.24029915 0.5211588 0.20436701 -0.548981 0.29130876 -0.39870328
4 -0.46324104 -0.14643288 0.046571307 -0.43481183 0.2582987 0.5449225 0.15210807 -0.5397418 0.32411486 -0.43224782
6 -0.48568246 -0.13091806 -0.022243807 -0.4351603 0.26729733 0.56342024 0.17111723 -0.5258579 0.34277064 -0.40543413
