7 10
1 -0.16139248 0.2030205 -0.46389896 0.64218956 -0.24770562 -0.11830354 -0.3228303 0.5084094 -0.51471657 0.06466852
3 -0.09586355 0.14850353 -0.5559183 0.65657884 -0.21994366 -0.13857214 -0.34870186 0.48785326 -0.5048012 0.01459431
4 -0.10724408 0.1370673 -0.51395357 0.64539045 -0.24792214 -0.10115334 -0.37647593 0.4231717 -0.5290941 0.0018462605
2 -0.16119014 0.1640754 -0.4866899 0.61936045 -0.22762412 -0.1407911 -0.37011003 0.5011999 -0.47720402 0.008850315
0 -0.07122311 0.1406425 -0.51091015 0.6352846 -0.20659217 -0.16360193 -0.37675926 0.47668964 -0.50567716 0.013357479
6 -0.07928627 0.13628401 -0.5590867 0.6325425 -0.17143963 -0.20575888 -0.3201619 0.51471287 -0.5375634 0.06541042
5 -0.07033099 0.16674876 -0.5350673 0.6323785 -0.15593615 -0.1833574 -0.38954407 0.4215968 -0.5271476 -0.018492946
