6 10
0 -0.6932998 0.16848893 0.02351329 -0.6290882 -0.35731703 -0.029647328 -0.46198723 0.35041136 -0.05464616 -0.19211346
3 -0.8237014 0.1578025 0.07065953 -0.5590288 -0.3968182 -0.041842747 -0.44890225 0.28548822 0.053162254 -0.1343037
5 -0.84520155 0.24024592 0.13450411 -0.513915 -0.42866197 -0.041523647 -0.41224965 0.31332234 0.04917654 -0.08616321
4 -0.8210386 0.16962041 0.051301178 -0.60512346 -0.38986948 0.031108897 -0.3735243 0.311765 -0.041222654 -0.10480958
2 -0.66161364 0.21526834 0.078631975 -0.5732215 -0.34787893 -0.022305943 -0.41908234 0.31023777 -0.0058939266 -0.10688787
1 -0.6676789 0.23247126 0.09575595 -0.61375386 -0.3493396 0.018303087 -0.4286617 0.3578645 -0.034139916 -0.16023229
