7 10
0 -0.65410423 0.027480906 0.05128214 -0.54595035 -0.17474227 0.17384627 0.6329256 -0.11521697 -0.46400833 -0.06668267
4 -0.5906211 0.108472556 0.023942394 -0.5740785 -0.15378805 0.21968107 0.5873928 -0.16260873 -0.46670812 -0.046575855
5 -0.5667088 0.10514413 -0.00946486 -0.5584278 -0.20311165 0.24017398 0.61490184 -0.14509858 -0.48059922 -0.111403756
3 -0.6341642 0.105841294 0.00053564826 -0.5262918 -0.11362751 0.23393315 0.6502923 -0.13474567 -0.44638827 -0.11336211
6 -0.6367996 0.03382371 0.039580353 -0.5779143 -0.20114116 0.21132074 0.60028875 -0.19442232 -0.45792088 -0.13600795
2 -0.63031876 0.0340979 0.044622447 -0.559911 -0.1756616 0.17787819 0.62208724 -0.16291475 -0.46828297 -0.056048606
1 -0.6383874 0.08644092 0.06038384 -0.53031063 -0.12369785 0.19780692 0.6464272 -0.10363783 -0.4234598 -0.14590697
