7 10
1 0.075667806 -0.9540967 0.04631503 -0.11426197 0.079687275 -0.25023454 -0.5873331 0.11890284 0.27354872 0.27791125
0 0.0844255 -0.98936087 0.05076392 -0.15433677 0.08551155 -0.20321395 -0.5773723 0.0832983 0.20050406 0.32244018
5 0.004898233 -0.97676736 0.0031497057 -0.12288795 0.09090339 -0.18147202 -0.59392864 0.0922821 0.23787902 0.2885344
3 0.0034951572 -0.93700475 0.033143416 -0.20374182 0.08979244 -0.1881959 -0.53219473 0.12180188 0.22228841 0.21000874
2 0.012856511 -0.93792325 -0.041455034 -0.18136731 0.065012306 -0.23518898 -0.49619904 0.14624144 0.26196176 0.3058388
6 0.08419075 -0.93211424 -0.04219923 -0.20417695 0.059734523 -0.24499652 -0.52782184 0.15960272 0.21220906 0.24868773
4 0.07705494 -0.9611068 -0.0005379993 -0.16808069 0.03507809 -0.20023642 -0.5602788 0.17119783 0.2188797 0.25163358
