6 10
0 0.15178452 -0.07525062 -0.44789413 0.02874967 -0.54116076 -0.46367973 -0.3832019 -0.53545415 0.26877275 -0.3653953
1 0.17424253 -0.076214045 -0.46676305 0.044898476 -0.5562236 -0.38502017 -0.33570233 -0.5714914 0.3413601 -0.3747535
2 0.16815825 -0.06203291 -0.39705244 0.068161525 -0.55253476 -0.433217 -0.37858808 -0.5053281 0.33936417 -0.37256604
3 0.10315324 -0.11256604 -0.45190927 -0.024224965 -0.55744004 -0.43367496 -0.37044746 -0.5423409 0.296236 -0.3436322
5 0.10269994 -0.08834427 -0.48393896 -0.008282277 -0.5500047 -0.41955513 -0.35606107 -0.5622524 0.32018483 -0.3272956
4 0.19351411 -0.14176923 -0.44761005 0.05596443 -0.5875092 -0.47455424 -0.31759498 -0.49855855 0.31623703 -0.38668567
