7 10
4 -0.4496727 0.06512145 -0.6737633 0.14348158 0.0837848 0.20325008 -0.14029568 -0.47866362 0.45254487 0.4678095
3 -0.46112096 0.05972914 -0.70478773 0.085203275 0.146858 0.24539047 -0.19297394 -0.5040086 0.42285657 0.4297711
0 -0.49370268 0.09151101 -0.67158675 0.07668474 0.09074029 0.22514282 -0.20126072 -0.42334598 0.39119723 0.4959496
1 -0.52165586 0.1058079 -0.5942503 0.13884656 0.08356831 0.24316755 -0.2044403 -0.4916823 0.3949794 0.4506143
2 -0.49891704 0.043017935 -0.579666 0.14715014 0.11912323 0.19413991 -0.2460068 -0.47658846 0.376188 0.4677365
6 -0.56212467 0.06732106 -0.71729517 0.1118109 0.1358983 0.2734113 -0.17526107 -0.46080264 0.48906264 0.45234844
5 -0.48914245 0.076203935 -0.66908324 0.14808041 0.09474714 0.25997037 -0.20331419 -0.46618575 0.45206758 0.48726186
