7 10
2 0.042540208 0.045925293 -0.4707593 0.53479046 0.110693 -0.78780395 -0.26039225 -0.11349215 0.36970872 0.26349753
0 0.029260999 0.05856965 -0.505772 0.49480608 0.042303815 -0.8121294 -0.2703267 -0.10000996 0.3607692 0.29252812
5 0.06323026 0.049258403 -0.49043983 0.48616534 0.09334279 -0.7814468 -0.28227293 -0.09411889 0.3714223 0.291953
3 0.11199308 0.07536603 -0.46861675 0.48008108 0.05052824 -0.8267403 -0.24530207 -0.110003285 0.31313336 0.18533912
6 0.12940294 0.020475041 -0.43004712 0.49005523 0.06621197 -0.8458701 -0.2238886 -0.047665738 0.41217732 0.2009991
4 0.08300531 0.04614528 -0.4880897 0.5215617 0.043619778 -0.805322 -0.218359 -0.074423075 0.38467902 0.23961595
1 0.10055449 -0.012295714 -0.48842683 0.50764614 0.06690553 -0.70876646 -0.2647737 -0.112860784 0.37597272 0.24148917
