7 10
6 0.2051811 -0.21659729 -0.47489053 -0.30369073 -0.1675837 -0.6469428 -0.31639987 0.63460064 -0.14803457 0.19837677
1 0.1486048 -0.16033326 -0.50059456 -0.2950915 -0.1387328 -0.6658418 -0.29094526 0.7263234 -0.16563751 0.09314105
0 0.15375637 -0.15027459 -0.52177906 -0.23864327 -0.17934424 -0.6471003 -0.32840416 0.68008363 -0.094728574 0.1007418
3 0.13760945 -0.19037515 -0.5113379 -0.29452556 -0.14536409 -0.64998925 -0.27989566 0.6454279 -0.14641708 0.13897811
4 0.18247339 -0.18528238 -0.5455996 -0.27791527 -0.10544523 -0.6393026 -0.33135396 0.6711614 -0.108662345 0.15955114
5 0.18656299 -0.2224796 -0.44387814 -0.24327415 -0.12685628 -0.6607794 -0.29944214 0.66996855 -0.19342232 0.15476172
2 0.18050095 -0.20411447 -0.49358696 -0.23060623 -0.086585514 -0.65580535 -0.31779063 0.6902344 -0.12967445 0.1493988
