7 10
5 -0.47413847 0.35626265 0.21469033 0.2272914 0.25751767 -0.21165815 0.30851674 -0.29336733 -0.86516535 -0.32820088
2 -0.48708886 0.40938765 0.23809175 0.19141856 0.2530349 -0.18081966 0.1935434 -0.32580066 -0.83476907 -0.23275562
3 -0.42484537 0.4200176 0.2646656 0.17318879 0.27991822 -0.25490627 0.14345832 -0.24680626 -0.82019085 -0.19641903
6 -0.42405167 0.38867274 0.27042177 0.17447571 0.19085735 -0.12831032 0.28688604 -0.2628953 -0.86930466 -0.33775088
1 -0.4161392 0.3586391 0.18307488 0.1272656 0.26974335 -0.1372869 0.24646498 -0.30545354 -0.80374914 -0.27353567
4 -0.38431248 0.31295043 0.2165814 0.24081665 0.25945663 -0.22795843 0.28879315 -0.2293693 -0.8589137 -0.24856739
0 -0.46078598 0.38931665 0.27455208 0.19197936 0.22526774 -0.22120674 0.2394316 -0.23424798 -0.8346842 -0.30340716
