7 10
1 -0.6691272 -0.6150214 0.19608088 -0.27871427 -0.46125743 -0.21628766 -0.090650775 -0.0054247975 0.28885463 -0.38107622
2 -0.71993923 -0.5704025 0.14155735 -0.29711205 -0.51108146 -0.21720158 -0.097629204 0.05364371 0.21509035 -0.37017804
4 -0.62748367 -0.61786795 0.2100154 -0.27191538 -0.5055173 -0.21075895 -0.18641697 0.043035563 0.28802064 -0.31944305
3 -0.7374436 -0.5541411 0.12942646 -0.23179251 -0.5231295 -0.14055221 -0.10786862 0.07356026 0.21318962 -0.3297766
0 -0.64227617 -0.59219 0.20705482 -0.2502005 -0.52414405 -0.1811155 -0.11302334 0.08113939 0.20733413 -0.37205276
5 -0.68672514 -0.53901434 0.13412865 -0.3101134 -0.44303566 -0.20481706 -0.105157584 0.0690101 0.27951524 -0.37560526
6 -0.67330766 -0.5476698 0.21091317 -0.24307592 -0.49951246 -0.16431902 -0.16923052 0.042629067 0.27305162 -0.3474831
