6 10
3 -0.34253561 0.59131134 0.3168997 -0.5820955 -0.16877154 0.5502727 -0.20441031 -0.1503681 -0.36770457 -0.09038558
0 -0.32970938 0.57748985 0.3321644 -0.5768547 -0.18608676 0.5387312 -0.16921324 -0.21606858 -0.35844338 -0.11801657
5 -0.25664672 0.5767006 0.26129216 -0.63713926 -0.15798397 0.54330754 -0.17706223 -0.14475 -0.39557603 -0.11093064
1 -0.27803507 0.5541735 0.3130963 -0.60675746 -0.17653225 0.4698099 -0.10951727 -0.19927722 -0.3603025 -0.064451106
2 -0.33374053 0.6234935 0.27999696 -0.6124244 -0.22095534 0.5426872 -0.1350001 -0.21303092 -0.31266823 -0.034170628
4 -0.3196904 0.5745872 0.33126304 -0.6160527 -0.14816192 0.5237439 -0.16402726 -0.15417264 -0.3530014 -0.059858795
