7 10
2 0.37363854 -0.4182543 -0.0335057 0.42240828 -0.4571762 -0.29025304 0.4606023 -0.48097658 0.3926946 0.21966174
4 0.37447667 -0.4620153 -0.03313301 0.37771362 -0.41887385 -0.34434396 0.47749746 -0.4355833 0.44536546 0.18968202
0 0.37621906 -0.40817502 0.02205483 0.38022304 -0.4349154 -0.37527448 0.4493097 -0.4897728 0.43574625 0.20209259
3 0.32184875 -0.43538842 0.036424994 0.40486762 -0.4564966 -0.3818189 0.47694653 -0.4746501 0.3693358 0.26844382
1 0.3495644 -0.44545147 -0.008388625 0.405163 -0.4483736 -0.37409547 0.3888078 -0.4656841 0.42256495 0.2555585
5 0.31600323 -0.40127328 -0.045143683 0.38039786 -0.422826 -0.29698005 0.44524783 -0.43572545 0.41993994 0.17616038
6 0.36964998 -0.44192293 -0.017500762 0.39357316 -0.48578447 -0.36000657 0.41149342 -0.42951715 0.41803217 0.21542282
