7 10
1 0.48816606 -0.31088927 0.2270008 0.3356074 0.27768338 0.2856643 -0.26425233 0.5960255 -0.4298677 0.350395
3 0.5106442 -0.28089195 0.18741557 0.36691692 0.26293442 0.25259313 -0.28970695 0.6146287 -0.42069468 0.34192485
2 0.4730986 -0.3620635 0.2454894 0.30001384 0.24779153 0.28406876 -0.27838385 0.5967187 -0.45308426 0.3703868
5 0.44390926 -0.33578196 0.20040649 0.36510488 0.20948134 0.25461197 -0.29927662 0.60064495 -0.4840008 0.35055345
6 0.52107424 -0.35459006 0.26599565 0.31745312 0.2687619 0.3191858 -0.2795141 0.5753009 -0.49687245 0.2953384
4 0.5008716 -0.36847323 0.259946 0.3652701 0.28144473 0.30683383 -0.25221246 0.5918799 -0.4213985 0.28556755
0 0.46571082 -0.3126821 0.23386428 0.35598674 0.29842842 0.28384447 -0.307238 0.52755696 -0.4853462 0.3366715
