7 10
1 0.19177268 -0.15614344 0.51514035 0.18421532 0.40309566 -0.46672183 -0.32563898 0.10554263 0.34932214 0.6083675
5 0.20802298 -0.21768978 0.5088778 0.22677349 0.41804737 -0.49225348 -0.32101685 0.04743618 0.4012309 0.6301912
0 0.27903622 -0.162993 0.52320206 0.24460469 0.40328774 -0.45982245 -0.27389714 0.11325368 0.3393812 0.6252897
4 0.2797946 -0.18009125 0.52013427 0.25398475 0.39517257 -0.5020405 -0.28616044 0.039541207 0.36869958 0.63993615
3 0.27602318 -0.2047905 0.507856 0.15674447 0.30530593 -0.49198598 -0.29996014 0.10049855 0.36270738 0.58940697
2 0.2667131 -0.13971016 0.51262313 0.2488353 0.35090104 -0.463701 -0.31813323 0.09968295 0.29469994 0.61366856
6 0.26054576 -0.11223352 0.5459883 0.18012916 0.38624313 -0.53294677 -0.28550565 0.10421518 0.31463295 0.6272349
