7 10
4 -0.29324016 -0.34090587 -0.4230926 -0.20570904 -0.34722075 0.5351579 0.016550122 0.09426069 -0.08180055 0.8052599
2 -0.22032608 -0.35306907 -0.35607085 -0.18884881 -0.37203932 0.4976704 0.03987687 0.06359326 -0.10862146 0.7856234
5 -0.2853658 -0.3230899 -0.3521343 -0.16258791 -0.39956415 0.53543454 0.030574996 0.060882017 -0.11828076 0.7494536
3 -0.29330772 -0.32248792 -0.38868368 -0.177007 -0.38870186 0.46917558 -0.035021674 0.080911025 -0.04674811 0.7363305
6 -0.29237032 -0.35977966 -0.41508585 -0.19010556 -0.34605175 0.52553946 -0.015224663 0.035551663 -0.13305628 0.7179403
0 -0.273344 -0.29846108 -0.36938095 -0.1524039 -0.4161752 0.5337366 -0.013098943 0.097959526 -0.10234455 0.8302628
1 -0.25627512 -0.29031435 -0.38313824 -0.16038203 -0.3995272 0.47754097 -0.030447962 0.042476133 -0.11615985 0.8294842
