7 10
5 -0.4453707 -0.5306347 0.05310782 -0.5081148 0.15928353 0.21898834 -0.10734951 0.52522147 -0.48205346 0.18867968
4 -0.5078976 -0.5545961 0.062148962 -0.5627763 0.16171655 0.21342239 -0.118009195 0.4665547 -0.4317631 0.23707756
1 -0.5119485 -0.47504488 0.04040506 -0.5131972 0.14607741 0.1951419 -0.13824275 0.52666414 -0.425359 0.24015369
0 -0.5186362 -0.45295423 -0.009484369 -0.5429515 0.09808017 0.18127783 -0.1690978 0.5429983 -0.40797073 0.24551083
2 -0.51963717 -0.5289834 0.036062166 -0.5872316 0.17588155 0.22110294 -0.09704384 0.50966203 -0.46601516 0.15657772
3 -0.46850634 -0.48568025 0.066728674 -0.53048587 0.15320815 0.2027946 -0.11615756 0.558271 -0.48165986 0.190058
6 -0.54297537 -0.5310466 -0.001328666 -0.50720066 0.15096688 0.25084206 -0.11006401 0.46795398 -0.4614884 0.24365395
