7 10
0 -0.71787184 -0.4750851 0.56835604 -0.065422155 0.28012934 0.3703917 -0.06614002 0.054828204 0.12124219 0.20782147
5 -0.7700901 -0.5238005 0.5672708 -0.038032986 0.31792095 0.43898267 0.011812229 0.07849755 0.14155884 0.21514274
1 -0.75074613 -0.50850046 0.53151494 -0.06466424 0.27882773 0.3990859 0.0023061838 0.061630912 0.14357519 0.19117714
2 -0.72596705 -0.5119929 0.54350287 -1.7802544e-05 0.29373807 0.42820907 -0.061899826 0.025592905 0.18159743 0.25447166
3 -0.70059735 -0.5447469 0.5025895 -0.0024928644 0.34297222 0.337595 0.017542634 0.10422043 0.1066321 0.20292534
4 -0.71342206 -0.50934374 0.53521824 -0.023810402 0.33240134 0.38969636 -0.065253355 0.025151473 0.10099397 0.15746906
6 -0.7026933 -0.50101227 0.5490018 -0.008156141 0.34318516 0.33065552 -0.009341988 0.056224443 0.14958097 0.23449221
