7 10
4 0.56364226 -0.4637198 0.106874526 -0.6389471 -0.16622894 -0.37356627 0.17626521 -0.17564385 -0.5169601 0.03070515
1 0.6009553 -0.4848971 0.06039867 -0.6497569 -0.13247728 -0.4143492 0.09122831 -0.16107619 -0.45167878 0.077462666
3 0.5979018 -0.4951134 0.054124985 -0.6578173 -0.15616506 -0.43660927 0.11587409 -0.18273962 -0.4800003 0.06576373
0 0.5897643 -0.40830365 0.019214604 -0.63398373 -0.16372141 -0.34691724 0.16909094 -0.22923316 -0.5304988 0.102372274
2 0.61002094 -0.46597388 0.044258773 -0.55771095 -0.09057104 -0.36191025 0.10227406 -0.22091846 -0.5099096 0.034086034
5 0.5558517 -0.44718888 0.058464497 -0.6076323 -0.117370166 -0.38902628 0.15335426 -0.15972993 -0.4882797 0.0132494895
6 0.57534105 -0.45081815 0.041513383 -0.59444636 -0.15875366 -0.3908382 0.07054705 -0.22534741 -0.48494172 0.09372887
