7 10
3 -0.50381833 0.13713284 -0.40742388 -0.05414983 0.3211519 -0.57899904 -0.49998084 0.29475173 -0.5353424 0.07225142
2 -0.47778717 0.20484018 -0.41950956 0.014638134 0.27538997 -0.5747093 -0.4846741 0.3246923 -0.5002723 0.09830048
5 -0.463942 0.19765723 -0.37266183 -0.015391242 0.34255883 -0.59494174 -0.47358674 0.2378178 -0.5703074 0.04832784
0 -0.4439501 0.20883845 -0.37353286 -0.030738113 0.3398033 -0.56680304 -0.45721287 0.3077825 -0.46334672 0.110404365
4 -0.46982405 0.20929942 -0.43718436 -0.042945422 0.2625748 -0.53871346 -0.46401793 0.26092163 -0.481496 0.06364087
1 -0.4562822 0.15500794 -0.38338065 0.03080766 0.33239377 -0.57385427 -0.42919153 0.27746564 -0.5231374 0.11484229
6 -0.43061137 0.14473559 -0.414329 -0.0018552113 0.28373167 -0.52900124 -0.47761804 0.3058575 -0.5054928 0.03440767
