6 10
0 0.09027738 -0.32613638 0.41914913 -0.13319547 0.522578 -0.12936994 -0.324123 0.04217516 -0.28535947 0.7918818
1 0.12264072 -0.3366159 0.39917988 -0.15992405 0.58025885 -0.056843717 -0.27354002 -0.011144537 -0.28089035 0.8126008
5 0.13607177 -0.32561094 0.45892018 -0.1768146 0.55051094 -0.061852824 -0.29351023 -0.06508214 -0.21570937 0.7845341
2 0.14716002 -0.27562624 0.4032528 -0.16424409 0.5130455 -0.08992653 -0.295899 -0.0015925814 -0.29152706 0.8289656
3 0.095698774 -0.2727971 0.44034377 -0.1784087 0.55068237 -0.10205667 -0.2617378 -0.026545202 -0.2961272 0.820834
4 0.15215726 -0.32814214 0.4694373 -0.15589197 0.5169626 -0.092287645 -0.22608398 -0.072275 -0.24746434 0.7822216
