7 10
2 0.26175103 0.22799252 0.20053786 -0.12085297 0.37388343 0.435606 0.70622325 -0.5323076 0.20252214 -0.25049698
1 0.21160433 0.34790242 0.3877989 -0.17785339 0.38618398 0.42814946 0.6142581 -0.43529385 0.18016922 -0.22383113
4 0.25301224 0.32336923 0.28405157 -0.21262549 0.33596277 0.43920848 0.7175896 -0.43837866 0.2223607 -0.19963229
3 0.15953904 0.38403875 0.3970156 -0.20382681 0.44161856 0.44171172 0.56487274 -0.45093727 0.21957828 -0.24474224
0 0.22482249 0.32597435 0.3533211 -0.17624329 0.42461374 0.4493599 0.5522349 -0.46604136 0.1744244 -0.1695417
6 0.24661452 0.25026435 0.23066145 -0.086574815 0.4016733 0.38275826 0.6909227 -0.51261824 0.24405624 -0.22827224
5 0.26468003 0.28913713 0.2432958 -0.18000163 0.37023646 0.4278513 0.7365033 -0.5006148 0.2666371 -0.23491822
