7 10
6 0.014843936 0.09769673 -0.14436097 0.25286472 0.5988203 -0.1578234 -0.35521448 -0.1890095 0.2113518 0.8385049
4 0.07023808 0.06656875 -0.10627291 0.24540292 0.6084671 -0.18926151 -0.3410536 -0.17397822 0.2329451 0.83806276
5 0.049391005 0.035865106 -0.0500579 0.23156077 0.6331105 -0.15760972 -0.3120397 -0.21832965 0.3041263 0.8569171
0 0.040404722 0.01401327 -0.13955455 0.17913625 0.5750364 -0.21965426 -0.34004313 -0.19799373 0.25490913 0.844837
2 -0.024580222 0.014058966 -0.13435297 0.19111153 0.62362456 -0.1834 -0.2537084 -0.10939601 0.24767755 0.84758663
1 -0.010472164 0.096124195 -0.06536017 0.24854092 0.62533575 -0.1708326 -0.31943446 -0.16112542 0.29900372 0.79812944
3 0.012584954 0.08434692 -0.072945625 0.24797153 0.65140396 -0.21084012 -0.30805904 -0.1611047 0.2526409 0.8102048
