7 10
2 0.08046733 0.25308463 -0.70134836 0.5886176 0.1344961 0.36508116 0.3067818 -0.21740766 -0.032994047 0.5288495
5 0.06561438 0.27899736 -0.73851585 0.5387309 0.08431627 0.382196 0.25283232 -0.19020817 -0.0021146266 0.5007942
1 0.12116007 0.23944728 -0.69359374 0.5851316 0.121111624 0.30001092 0.22675496 -0.20310749 -0.062584594 0.53685117
6 0.16240942 0.28317142 -0.69163716 0.5996831 0.16783255 0.38677844 0.30273136 -0.14877677 -0.041534603 0.54753417
0 0.06456332 0.2425947 -0.6775062 0.5671868 0.15243407 0.31544438 0.24508694 -0.1874764 -0.026578989 0.5379123
3 0.15725158 0.30372563 -0.6550871 0.5793083 0.105657294 0.36115798 0.3037116 -0.14252597 -0.06954537 0.50511867
4 0.16154721 0.2681991 -0.6859993 0.5163531 0.09744564 0.39712816 0.305797 -0.23785235 -0.024953408 0.5023004
