7 10
2 -0.18289313 0.4992186 -0.34657776 0.25736833 -0.79617524 0.28028402 -0.45558998 -0.05054067 0.025437169 -0.31470537
1 -0.2345803 0.45942912 -0.31696823 0.26901367 -0.8172924 0.24930356 -0.45158556 -0.012064629 -0.031044297 -0.26323336
3 -0.19910467 0.46440914 -0.3220429 0.20262769 -0.74602926 0.26726505 -0.40947017 0.029387211 -0.00640213 -0.22254556
0 -0.27048275 0.42439052 -0.30366597 0.25484 -0.783693 0.30721548 -0.36011496 0.023598034 -0.044192217 -0.31785995
5 -0.27717963 0.44290242 -0.27298072 0.19033517 -0.81338537 0.29423055 -0.41985124 -0.04851885 0.020795133 -0.3222413
6 -0.27232146 0.48710066 -0.29173687 0.20444603 -0.77163696 0.2775379 -0.39341596 -0.057375614 -0.027920559 -0.33682162
4 -0.26169524 0.49450552 -0.3572311 0.2346217 -0.77695364 0.2934399 -0.4084671 -0.031433374 -0.01652364 -0.32171857
