7 10
1 -0.43667346 0.23220815 -0.31219998 -0.44865674 -0.49146545 -0.030837212 -0.3966505 -0.025498543 -0.6660496 -0.23898266
6 -0.48452437 0.12411714 -0.29847652 -0.4246199 -0.34524593 -0.08966534 -0.28395033 -0.016959175 -0.70402396 -0.2716873
2 -0.5104903 0.19452411 -0.23885056 -0.37388322 -0.49866766 -0.05132809 -0.34427124 0.0053893616 -0.709203 -0.2233595
0 -0.4701393 0.20001227 -0.291127 -0.40084943 -0.5314877 -0.05088484 -0.41291592 -0.08037851 -0.6201414 -0.3003395
3 -0.44384342 0.22941479 -0.3268182 -0.42032203 -0.51812 0.009883751 -0.38172108 -0.09055702 -0.6246623 -0.23253073
4 -0.4425316 0.2202959 -0.27204186 -0.42057863 -0.5058685 -0.015580224 -0.3612694 -0.07987861 -0.6540333 -0.3158391
5 -0.4356316 0.19921283 -0.22914612 -0.38307375 -0.3767763 -0.12906975 -0.36486354 0.0398133 -0.7258337 -0.29060248
