7 10
0 -0.33425492 -0.17220365 0.17813884 -0.6690801 -0.32498053 0.4852023 0.25073683 0.55031455 -0.28332454 -0.0059903907
4 -0.2624758 -0.1973123 0.19937855 -0.675248 -0.39058688 0.50510806 0.25763425 0.5215058 -0.30628452 -0.12073569
6 -0.34513342 -0.1067212 0.20267574 -0.6214983 -0.33591765 0.504355 0.23513426 0.54924154 -0.27609625 0.013669088
3 -0.34802774 -0.09593247 0.21177547 -0.6446839 -0.35330215 0.4918543 0.2559635 0.53172165 -0.23222436 0.053962667
2 -0.3115502 -0.16332114 0.15734114 -0.6458699 -0.3209621 0.47310522 0.27428874 0.5356184 -0.26633817 -0.09010449
5 -0.32176507 -0.14490755 0.15121752 -0.68027383 -0.38153815 0.45520133 0.2544996 0.5484183 -0.26023313 -0.09064029
1 -0.30513635 -0.09889799 0.20859611 -0.61543727 -0.33749518 0.484298 0.26434514 0.55117095 -0.2929138 -0.064849675
