7 10
0 -0.38620844 0.6262689 0.47849545 -0.01304334 -0.37692097 0.016662333 -0.3770645 -0.070016764 0.5619139 0.13728848
3 -0.42674083 0.5779186 0.4426408 0.05567214 -0.3711991 -0.0048375092 -0.38938925 -0.06839223 0.54550093 0.025302142
1 -0.37320507 0.65521955 0.38926846 0.039168898 -0.3866084 0.03372273 -0.3964486 -0.052199814 0.561377 0.0675807
4 -0.46503168 0.6182421 0.5038719 0.035420638 -0.4030102 0.06445021 -0.30614328 -0.07186429 0.44462228 0.119486436
6 -0.43826273 0.63894475 0.43562487 0.06373338 -0.33697823 0.057525817 -0.3973568 -0.03301418 0.56583405 0.031495504
2 -0.42284083 0.6327778 0.44050372 0.06246374 -0.29613873 -0.042643137 -0.3800826 -0.10094865 0.59142095 0.10876085
5 -0.44254655 0.5723176 0.5819462 -0.06097222 -0.47435072 0.051950097 -0.32715344 0.018748332 0.47495446 0.17255278
