7 10
4 -0.26493582 0.16364858 -0.25238615 0.14071901 -0.05410787 -0.0244301 -0.08732316 -0.9673289 0.45094624 0.20817223
3 -0.2165368 0.115236156 -0.2877131 0.09391264 0.027053783 -0.10413879 -0.13812852 -1.0235314 0.5016919 0.139027
1 -0.19318049 0.1468118 -0.23782058 0.1346965 -0.042886987 -0.069552936 -0.11564096 -1.0065197 0.43851957 0.18782566
2 -0.26799083 0.15420525 -0.18044895 0.08573302 0.015978375 -0.109199375 -0.15781985 -0.9962918 0.46033224 0.19741197
5 -0.20164281 0.18273856 -0.26286495 0.14753878 0.010074403 -0.014475223 -0.11789259 -0.99562275 0.48578614 0.15631348
0 -0.2554254 0.11918296 -0.30265075 0.17645214 0.012870673 -0.084671006 -0.13608368 -1.0183421 0.45559776 0.18661313
6 -0.25115216 0.1092587 -0.28162023 0.14506957 -0.025175393 -0.087845765 -0.11265185 -0.94632894 0.39646843 0.17137234
