7 10
6 -0.45797652 -0.51176435 -0.089997046 0.13275792 0.22556433 0.63694465 -0.024777377 0.3420794 -0.4839088 0.2731731
5 -0.42725474 -0.54846764 -0.08284336 0.14970857 0.20825548 0.6664409 -0.02868308 0.27936977 -0.41667944 0.34201127
1 -0.42668998 -0.48887822 -0.07654223 0.11570609 0.24095064 0.6627855 -0.09786634 0.35360488 -0.49209133 0.27351895
0 -0.45902252 -0.52774143 -0.07356308 0.13527584 0.26301196 0.6411225 -0.0544353 0.27681535 -0.49217737 0.29383534
3 -0.45504504 -0.53023916 -0.0526293 0.14206164 0.19535485 0.62956965 -0.089978665 0.35134432 -0.48827094 0.33039087
4 -0.48465392 -0.49519217 -0.08815471 0.13671225 0.24912922 0.6510944 -0.06521805 0.32712713 -0.43455383 0.31664312
2 -0.45362055 -0.48562577 -0.07860416 0.121756025 0.25715628 0.63824695 -0.10215103 0.32014036 -0.45485514 0.2744933
