7 10
0 0.19143555 -0.12221794 -0.47665706 -0.32423124 0.32418025 -0.73351455 0.061199795 -0.25167444 -0.46664047 -0.37097648
5 0.23436947 -0.08680201 -0.48181412 -0.26407948 0.27829096 -0.73840606 0.08817523 -0.27652723 -0.49387407 -0.34518546
6 0.26239544 -0.101054415 -0.50604904 -0.3295722 0.23188037 -0.7042175 0.12554343 -0.27526617 -0.46136835 -0.3873642
4 0.26003543 -0.09642237 -0.49666238 -0.32881403 0.30110016 -0.71016496 0.03185696 -0.20200808 -0.48222044 -0.39809698
2 0.21138027 -0.15032075 -0.5103492 -0.2849431 0.31800526 -0.7737969 0.07858375 -0.24179631 -0.42802355 -0.41198578
3 0.25282434 -0.12530395 -0.50376695 -0.34837142 0.25180787 -0.7371969 0.107272394 -0.22263911 -0.51084787 -0.3679376
1 0.19851193 -0.14016438 -0.43011987 -0.29392895 0.28971782 -0.75679696 0.070351295 -0.23706089 -0.4812865 -0.39963123
