7 10
5 0.15204057 0.2368315 0.32698 -0.09329321 0.6713662 0.39920777 -0.086931825 0.55676126 -0.37965292 -0.4440278
3 0.24448264 0.19780958 0.29937357 -0.019681925 0.6660574 0.35724935 -0.07780327 0.5670816 -0.40251052 -0.45485276
4 0.2093105 0.17665716 0.28906003 -0.018396651 0.58695745 0.4074238 -0.09056516 0.5523323 -0.3773514 -0.42044228
1 0.19524483 0.18147351 0.28638586 -0.10649546 0.6849235 0.4405405 -0.10695126 0.5655924 -0.37396997 -0.36013028
2 0.17623268 0.21505718 0.32179478 -0.073318005 0.62600243 0.43456066 -0.10348141 0.56979245 -0.33691686 -0.41410327
6 0.20087485 0.24103513 0.31297284 -0.09878262 0.6536139 0.38873956 -0.06947215 0.5229333 -0.3090254 -0.41417453
0 0.20294224 0.15597562 0.2880461 -0.059031148 0.69138247 0.43693057 -0.06945866 0.5974868 -0.33366174 -0.42453426
