6 10
1 -0.3389186 0.44208276 -0.33382812 0.017274372 -0.2423717 0.11239639 -0.43484095 0.20280804 -0.20428044 0.8832302
4 -0.35116708 0.46527395 -0.27000317 0.031507786 -0.2934212 0.09158521 -0.45693007 0.2730532 -0.11424285 0.80120134
3 -0.28429565 0.42416248 -0.26919493 0.00079134403 -0.2602447 0.15367797 -0.44350886 0.27954647 -0.20251776 0.8048894
5 -0.33107337 0.44871208 -0.3272858 -0.055939138 -0.28811187 0.1515154 -0.3704387 0.2690468 -0.15037002 0.7451034
0 -0.34107897 0.44698107 -0.29714382 0.01839432 -0.2836919 0.09260068 -0.36809298 0.22741419 -0.13881423 0.80656356
2 -0.32376072 0.39078164 -0.323436 -0.0071920413 -0.23531847 0.14090088 -0.432073 0.22953868 -0.22148786 0.7553578
