6 10
1 0.43818343 0.98525625 0.3065777 -0.65884095 -0.10646222 0.3359897 -1.1463437 -1.4605074 0.12450534 0.6429763
3 0.42613405 1.0465055 0.1886273 -0.6634829 -0.010046116 0.3714493 -1.124919 -1.5031587 0.11069308 0.69902843
5 1.4481045 -0.21049333 0.7184238 -0.92916435 -0.0011888053 -0.03690354 0.87219214 -0.30488 -1.133159 -1.2730911
6 1.4474292 -0.13482074 0.7356412 -0.9031005 -0.038612206 0.036098763 0.8779871 -0.27292073 -1.1525025 -1.2675658
4 -0.15534586 -1.3198086 0.6080898 -0.60804164 -0.16264625 0.7227655 -1.2593722 -0.54647845 0.37500492 -1.3765246
0 -0.12952931 -1.2435492 0.57021844 -0.5591172 -0.17061822 0.74980134 -1.1717074 -0.5382085 0.30052638 -1.3209856
