7 10
4 -0.042540472 -0.41944912 0.53782225 0.56381637 0.064911164 -0.42653498 0.100474834 -0.17134275 -0.105205014 -0.66226244
1 -0.043513056 -0.36844906 0.47255167 0.5629022 0.017175611 -0.43028685 0.054254413 -0.100722425 -0.10683167 -0.6818113
2 -0.08834139 -0.35848895 0.52061063 0.50543976 0.051535677 -0.40144175 0.020598441 -0.10950143 -0.08203657 -0.6156199
3 -0.035941493 -0.45741293 0.52733326 0.5899693 0.042362973 -0.40401596 0.09657844 -0.09360789 -0.11425064 -0.61966145
0 -0.0917597 -0.43673965 0.5052346 0.5354702 0.02053434 -0.37542865 0.0041828514 -0.14823183 -0.07244581 -0.6247555
5 -0.12507819 -0.41023394 0.50750154 0.5251356 0.10547722 -0.3881527 0.07830111 -0.15966976 -0.101837605 -0.68531483
6 -0.08167501 -0.44979435 0.52067363 0.4994936 -0.0005601444 -0.43909445 0.05930286 -0.08086143 -0.08109449 -0.65546864
