6 10
0 0.47283423 0.72070056 0.118838295 0.31290454 -0.18161859 -0.08916497 0.4891647 -0.043193534 0.12293475 0.5155088
1 0.4614719 0.70634544 0.105487145 0.3661997 -0.19183034 -0.11351343 0.46400252 -0.024183972 0.048918497 0.486012
2 0.47528112 0.69652486 0.0832244 0.37777212 -0.15893663 -0.10230084 0.45267507 0.023293193 0.13130192 0.5709028
5 0.4302199 0.68589723 0.13502002 0.29316625 -0.16569155 -0.16003679 0.49737984 -0.040766142 0.0372287 0.5369394
3 0.42749807 0.67218643 0.13125665 0.34687176 -0.16982432 -0.09873865 0.45884636 0.026222104 0.04045924 0.53455615
4 0.44293496 0.6627597 0.14267339 0.3059322 -0.1545181 -0.12472166 0.45412266 -0.010502217 0.08547053 0.51313
