6 10
1 -1.0019931 -1.13733 1.0699898 -0.30855253 -0.23632866 -0.25235403 0.647476 0.018558819 0.24215107 1.185862
2 -1.0101917 -1.1476274 1.071297 -0.3342175 -0.22268008 -0.3314664 0.6247248 0.09427565 0.3067927 1.2178001
0 0.49982262 -1.1856873 -1.2204164 0.08625042 0.7547628 -0.46376333 -0.039975252 0.11711935 0.20283616 0.11612899
5 0.4957447 -1.208324 -1.1765556 0.08386936 0.7061844 -0.38767475 0.04014373 0.06327442 0.21065012 0.105662115
4 0.4672474 -1.1782042 -1.1572311 0.08858777 0.74096787 -0.46560982 -0.046032112 0.08828866 0.22754718 0.09590611
3 0.47583818 -1.057728 -1.0991107 0.06366371 0.66023505 -0.39036897 0.033401407 0.08791653 0.19828707 0.03713284
