7 10
2 0.29758528 -0.36476806 0.05848588 0.34236658 -0.2784766 -0.26816455 0.3820958 0.59484196 -0.550339 -0.14953597
0 0.29308954 -0.39382598 -0.03704498 0.41739896 -0.4349572 -0.23241587 0.41688582 0.5804297 -0.7033563 -0.074703075
5 0.30203494 -0.28206772 0.12056935 0.37844872 -0.2792279 -0.2975258 0.40571147 0.5569844 -0.5590554 -0.18983047
1 0.2969068 -0.34803736 0.02311403 0.43348768 -0.37653202 -0.2464743 0.36660272 0.5465458 -0.56660897 -0.079678796
6 0.29481015 -0.30675405 0.12154964 0.37210324 -0.21293426 -0.2938008 0.3767814 0.5800708 -0.53126967 -0.10256325
4 0.31281397 -0.41238996 -0.007014193 0.44864148 -0.41624558 -0.13139544 0.38529932 0.49322498 -0.630236 -0.04789643
3 0.31842792 -0.4254968 -0.022140691 0.46212414 -0.34997702 -0.18373536 0.33939108 0.5453127 -0.6393673 -0.005047894
