7 10
2 0.41498986 0.012225331 0.5165833 -0.17418922 -0.22879802 0.3754567 0.002152243 -0.7572251 0.38255364 0.12009245
3 0.43384203 0.07125816 0.47881493 -0.20782411 -0.2658727 0.32866558 0.021121489 -0.84239584 0.37538904 0.06492311
5 0.38152698 -0.009307894 0.46268013 -0.18745075 -0.22603832 0.3880274 0.05148682 -0.7977933 0.37771848 0.05004348
0 0.41381082 0.05980004 0.47138104 -0.19901362 -0.21271351 0.33988357 -0.01070012 -0.7406552 0.3881886 0.05442225
4 0.46118075 0.005167466 0.5100538 -0.22183242 -0.25245023 0.3282091 0.02048371 -0.7234835 0.34094822 0.0784428
1 0.38087493 1.8774335e-06 0.5175224 -0.21380357 -0.2138973 0.30812407 -0.003828525 -0.7918933 0.3710314 0.09932699
6 0.36534387 0.068340056 0.4638795 -0.2365434 -0.27443567 0.30314946 -0.016966607 -0.7011903 0.38374338 0.1251733
