7 10
0 0.03830171 -0.46898022 0.23806225 -0.33879235 0.0256287 -0.23989603 0.558933 0.5630116 -0.39538437 -0.40085185
5 0.059874624 -0.40964574 0.2873501 -0.32779837 0.0013101758 -0.16867888 0.5771685 0.5936424 -0.36068448 -0.47662678
6 0.04360349 -0.44731334 0.30222446 -0.33253554 0.026922649 -0.21470653 0.5243605 0.54695797 -0.41093874 -0.42669407
4 0.07149634 -0.44362602 0.25573823 -0.35443678 0.07096608 -0.1627636 0.57537794 0.5234903 -0.3962938 -0.44434828
1 0.1017091 -0.39784002 0.23596618 -0.32741034 -0.018534232 -0.16987015 0.5611753 0.5595456 -0.42188522 -0.47495344
3 0.031080136 -0.4718881 0.24291822 -0.35814875 0.035321765 -0.23536591 0.5103551 0.5824625 -0.33180997 -0.44132078
2 0.07166542 -0.44908088 0.2481418 -0.28437757 0.06487352 -0.21097206 0.52926767 0.541954 -0.4219627 -0.4462025
