7 10
3 0.26046357 0.34384814 -0.12294296 0.08128344 0.03903612 -0.23338419 -0.14246029 0.50354314 -0.7808052 -0.5355513
1 0.2717942 0.27925903 -0.11079866 0.041473877 -0.01442128 -0.25149688 -0.08682502 0.48465002 -0.7866045 -0.50916517
2 0.26393458 0.30193275 -0.123598896 0.051052272 -0.04975052 -0.24884696 -0.08871344 0.48676747 -0.7485672 -0.5114239
6 0.27831694 0.2887778 -0.06451731 0.045648802 0.002597693 -0.17751762 -0.12900345 0.5034035 -0.823052 -0.5289025
0 0.23702297 0.3390239 -0.056865547 0.118242465 -0.016310124 -0.22586149 -0.10105383 0.51642007 -0.8082699 -0.52609915
4 0.25841978 0.32148895 -0.053032752 0.09659355 -0.0025837123 -0.19929044 -0.06473178 0.507245 -0.7968827 -0.5053072
5 0.29397428 0.2877142 -0.03130444 0.11950775 0.015287401 -0.19260041 -0.13252401 0.48269022 -0.7666327 -0.5172491
