7 10
1 0.8014987 0.43658972 0.4439601 0.4387944 -0.24637656 -0.07275437 0.15940265 -0.05919651 0.04129044 -0.14542463
0 0.8521036 0.4724812 0.5067462 0.44130853 -0.15258758 -0.109205894 0.1349449 -0.06866191 0.0727735 -0.13757446
2 0.8257957 0.4748285 0.48321253 0.45619953 -0.2495133 -0.13027234 0.12036046 -0.03153145 -0.008138861 -0.18991195
6 0.82103753 0.44604927 0.4548653 0.45298365 -0.2613117 -0.07507415 0.1643978 -0.03614981 -0.0049671778 -0.18133019
5 0.86753494 0.4971711 0.49894512 0.43773386 -0.16711892 -0.0559136 0.08192192 -0.02597354 0.026408222 -0.14808619
3 0.82004565 0.44711688 0.43698543 0.45178154 -0.23305067 -0.099680535 0.1097362 -0.032286886 0.037397314 -0.21792054
4 0.8579855 0.38865396 0.5025027 0.41535705 -0.14957029 -0.07603486 0.12846349 -0.09762574 0.03076498 -0.14336488
