3 10
1 -0.46516782 0.45306015 0.23096998 0.3345422 0.08845752 -0.023413805 0.40470198 -0.021338413 0.3966557 -0.042819165
3 -0.3818876 0.3839649 0.13556278 0.2987073 0.124712385 0.043057255 0.39132798 0.0033587017 0.31010997 0.015935106
2 -0.46765056 0.4407828 0.2559097 0.28529248 0.14024231 0.055125896 0.43826652 -0.06141852 0.40777493 0.047995433
