7 10
0 -0.22915204 -0.5965593 0.5665712 -0.19922663 -0.22605309 -0.5774408 0.21207917 -0.085206814 0.34589118 -0.36725977
4 -0.29058278 -0.6357245 0.6135353 -0.18606283 -0.20505603 -0.51788026 0.19808288 -0.11364118 0.2994354 -0.31157243
1 -0.30703267 -0.65289026 0.5982172 -0.19497328 -0.20421176 -0.4854791 0.2927268 -0.18664943 0.28811735 -0.33127388
5 -0.23013534 -0.6150306 0.5380644 -0.19357891 -0.25915182 -0.5267698 0.2744136 -0.15020262 0.35656318 -0.3155117
2 -0.21803986 -0.6407682 0.5330267 -0.20830925 -0.17200705 -0.52020586 0.23931919 -0.06810752 0.33338875 -0.32743877
3 -0.27130917 -0.63108504 0.58269125 -0.2061016 -0.24311444 -0.5230376 0.21619023 -0.15607955 0.34326488 -0.2782845
6 -0.26757616 -0.58848304 0.5731559 -0.21883965 -0.2431902 -0.5118637 0.2712899 -0.11663699 0.3164198 -0.28994825
