7 10
3 -0.59203714 -0.09837713 0.10188436 0.26340884 -0.72104055 -0.020588096 -0.4487696 -0.0106853815 0.45790452 -0.062858276
0 -0.67334557 -0.1360936 0.029002758 0.23412599 -0.7429212 -0.046506613 -0.406166 -0.1068173 0.36624363 -0.04827601
1 -0.6238045 -0.051153973 0.111301884 0.18047002 -0.702247 -0.04411622 -0.46740887 -0.08830151 0.42388666 -0.09084567
2 -0.6546222 -0.12655981 0.0395136 0.26809254 -0.70541066 -0.020424861 -0.46988112 -0.025290295 0.4143287 -0.014649935
5 -0.6278719 -0.15508285 0.030627543 0.22052215 -0.7059229 -0.06375399 -0.4664876 -0.10324709 0.4357234 -0.10655304
6 -0.66272014 -0.16692626 0.035783935 0.19955495 -0.66349167 -0.047554795 -0.48098955 -0.07801341 0.4527767 -0.091687456
4 -0.6634979 -0.12966818 0.054937318 0.2401507 -0.7283442 -0.06007339 -0.4165502 -0.02206477 0.36636367 -0.09305022
