7 10
2 0.10299516 0.6083937 -0.58454645 0.24399205 0.33135936 -0.035565224 0.004883115 -0.5998381 0.39048293 0.03321401
3 0.09323263 0.61646855 -0.5952214 0.17867866 0.30252758 -0.01673575 0.019567296 -0.5261778 0.5006968 0.04754926
0 0.03720057 0.5892428 -0.6204796 0.18429539 0.37732774 0.002670902 0.013061161 -0.5651718 0.4977551 0.02119539
4 0.013552546 0.63163805 -0.60522777 0.23532285 0.33140692 0.013430752 -0.0036553226 -0.5735862 0.49485287 0.015071473
1 0.086344 0.5411382 -0.64115375 0.1443324 0.29419786 0.032956716 -0.038330052 -0.5613483 0.4402147 0.068779655
5 0.03870544 0.5900085 -0.6581194 0.17912379 0.33162594 -0.051989064 0.023892488 -0.61890024 0.48986778 -0.015693272
6 0.040736243 0.57698774 -0.53509915 0.19740815 0.34879267 -0.044252295 -0.031905882 -0.5382444 0.42084992 0.019541888
