5 10
1 -0.044319045 -0.059626948 0.35283184 -0.730345 -0.73410237 -0.14874783 -0.08794997 0.17984767 0.004396987 0.29207376
2 -0.1009138 -0.13515003 0.38125983 -0.68887657 -0.7289722 -0.16137473 -0.011969708 0.18664265 -0.047986303 0.2805582
4 -0.06612102 -0.08789571 0.38772282 -0.6959479 -0.72366405 -0.1934178 -0.07681145 0.21792448 -0.050881848 0.2849047
3 -0.11436001 -0.0625044 0.3470332 -0.70482135 -0.7033441 -0.12412723 -0.048399147 0.13991103 -0.050196037 0.2713724
0 -0.1066244 -0.1234321 0.2860242 -0.63005114 -0.7153119 -0.16296488 -0.022431232 0.2010489 0.017588183 0.25730836
