5 10
0 -0.1519148 0.15231125 0.05440766 0.15995131 -0.61776847 0.28215283 0.16977914 -0.12860876 -0.87017244 -0.0044837086
4 -0.21630788 0.10458103 0.04206689 0.14860274 -0.63911676 0.3182066 0.20333578 -0.20088543 -0.86410016 -0.01269096
2 -0.17572688 0.056878977 0.11987015 0.120403595 -0.6243324 0.2343504 0.119890444 -0.14730401 -0.84668154 -0.024473758
5 -0.19810581 0.10092679 0.080737524 0.18773814 -0.5951834 0.24235943 0.17166668 -0.102521926 -0.8070674 -0.034210954
6 -0.15788499 0.11696921 0.060784895 0.22776435 -0.5519301 0.34119824 0.13117658 -0.1949492 -0.8192167 0.0388903
