7 10
1 0.17709313 0.64310753 0.30295673 0.041728336 1.1921244 -1.0455081 -0.055797853 0.40113047 -0.44785252 0.4709785
5 -1.3549236 0.24671732 -1.6718149 1.2719799 -0.12889437 -0.80110097 -0.55706614 0.28580737 0.29616424 -0.6295629
6 -1.3414023 0.23223872 -1.6918217 1.2705593 -0.06455896 -0.85517865 -0.47155365 0.23485538 0.22542584 -0.5819927
3 0.16124892 0.6406059 0.21789828 0.0058407406 1.1329212 -0.9826462 -0.0671118 0.37035316 -0.4042737 0.39804757
4 0.15578884 0.63574564 0.26209348 0.02791535 1.171996 -1.0227658 -0.12197848 0.3856974 -0.34995466 0.39270377
0 0.112575 0.5991787 0.26513517 0.05799717 1.1129771 -0.98467094 -0.06956523 0.37750965 -0.4212131 0.40371993
2 0.19265209 0.5682743 0.1756596 0.034467235 1.0121305 -0.8850302 -0.060583513 0.2915814 -0.33829588 0.3520027
