5 10
1 -0.6644874 0.20149677 0.48675692 0.2785196 0.37833655 0.19513111 0.19078366 0.20518722 -0.5927768 -0.2268283
3 -0.59898186 0.12079391 0.5471711 0.24414173 0.30662182 0.22111522 0.22896068 0.24823582 -0.5598073 -0.23495802
4 -0.6356219 0.1931032 0.5337821 0.3149458 0.32314262 0.1864431 0.18954016 0.23760419 -0.5650712 -0.19972752
0 -0.63849586 0.11546323 0.4670324 0.30419973 0.3521384 0.2077733 0.1957527 0.24635316 -0.5699041 -0.24978459
2 -0.6412145 0.10608654 0.43930116 0.3203395 0.3582043 0.17822789 0.12990244 0.20675516 -0.4914593 -0.17348276
