7 10
0 0.16688204 -0.60688484 -0.55851823 -0.284657 -0.076598 0.15375282 -0.03624971 -0.21062946 -0.3744612 0.5486552
5 0.07822387 -0.6766119 -0.5823602 -0.25879675 -0.107933044 0.123436704 -0.08736091 -0.27634332 -0.39111975 0.5878464
2 0.090809576 -0.6490173 -0.5267882 -0.27628157 -0.07050482 0.1965521 -0.025349628 -0.25943708 -0.33616203 0.5861561
1 0.12622248 -0.6495195 -0.55930877 -0.32741323 -0.11853488 0.17698294 -0.0694986 -0.20630193 -0.3277338 0.5712987
6 0.15886793 -0.6281288 -0.5758757 -0.31830353 -0.096240096 0.18717127 -0.056950044 -0.2131593 -0.35130692 0.59580535
4 0.10733255 -0.64418 -0.5461062 -0.32635954 -0.027088933 0.18505603 -0.0028287014 -0.2737204 -0.33943343 0.6090662
3 0.13309045 -0.6620556 -0.54947823 -0.32441923 -0.0966324 0.12240388 -0.03951776 -0.27363628 -0.36731866 0.59451294
