7 10
4 -0.2801626 0.24328905 -0.44000253 0.15692754 -0.13697593 0.4371283 0.09248884 -0.07646269 -0.7183677 0.5421408
3 -0.3059347 0.2872631 -0.4977394 0.16338034 -0.12706532 0.41327697 0.1109977 -0.06804722 -0.75236785 0.51072335
6 -0.32675102 0.20863877 -0.5088383 0.08736322 -0.1542446 0.4668477 0.062051944 -0.10758929 -0.74081105 0.54273677
5 -0.24997987 0.30026233 -0.4248964 0.15376234 -0.11562444 0.43688056 0.08270921 -0.08210362 -0.7385534 0.5150163
0 -0.27478063 0.22203735 -0.49063763 0.11359624 -0.15287693 0.37768486 0.118588515 -0.077269875 -0.7370427 0.5265139
2 -0.31216323 0.27227515 -0.42199603 0.15723462 -0.16034754 0.40366876 0.041674197 -0.023030601 -0.7184329 0.52005154
1 -0.25245327 0.32127145 -0.46697292 0.10983409 -0.19643979 0.37848 0.13003881 -0.06260925 -0.73058265 0.54164976
