7 10
4 -0.119380146 0.36680877 -0.7455129 -0.011860013 -0.64297616 -0.25296485 0.4735108 0.2848021 0.17802387 0.23839678
3 -0.07318916 0.39583686 -0.73474354 0.04883442 -0.62515944 -0.22049958 0.3641921 0.31180397 0.2060894 0.18912664
2 -0.11547992 0.3995692 -0.69829345 0.006811473 -0.54333186 -0.23740785 0.41845214 0.2932901 0.19825393 0.17735387
1 -0.067845106 0.4089048 -0.69997466 0.06422846 -0.58879966 -0.19960178 0.41036755 0.22679788 0.19159952 0.18674779
0 -0.13227941 0.41363662 -0.6980201 0.034496818 -0.62451524 -0.27228218 0.37032747 0.2786995 0.18707822 0.21177144
6 -0.14365718 0.3958617 -0.6886964 -0.020127572 -0.5156347 -0.2053198 0.41820112 0.21828276 0.15591395 0.19474044
5 -0.0846504 0.40133813 -0.68153524 0.01071388 -0.5942682 -0.25503775 0.41714057 0.24333775 0.21034122 0.17221108
