7 10
1 -0.27755526 -0.39558822 0.060376473 -0.06147134 0.3095277 -0.2944668 -0.7503847 0.18029048 -0.13784811 0.5267118
2 -0.28223807 -0.41480264 -0.0022397991 -0.0444091 0.26506975 -0.25486255 -0.7968452 0.21313877 -0.098145485 0.49577123
5 -0.2727996 -0.47005004 -0.030711029 -0.084003344 0.29711348 -0.30213076 -0.84727067 0.22407192 -0.16466905 0.5010568
0 -0.28868064 -0.4240972 0.015211152 -0.05415927 0.25503594 -0.31117296 -0.7837028 0.13243179 -0.12302141 0.5727908
3 -0.31230378 -0.3614167 -0.047485534 -0.08698365 0.29123 -0.25258112 -0.753814 0.12536366 -0.098822184 0.41835582
4 -0.29644963 -0.44237244 -0.008499503 -0.07188183 0.23527025 -0.28109983 -0.7952837 0.21012701 -0.10411206 0.5075317
6 -0.32618833 -0.46324098 -0.002199152 -0.095677994 0.24285671 -0.23230585 -0.7667578 0.1627337 -0.16590992 0.5405942
