7 10
3 0.4853989 0.44187126 0.016897304 0.19783908 -0.25430554 0.034171242 -0.24198732 -0.3427957 -0.056888588 -0.82395405
2 0.51923364 0.4292382 0.030770598 0.120622456 -0.3236067 -0.008672714 -0.2747735 -0.3743525 -0.028377013 -0.8144538
4 0.4440103 0.43638158 0.008177212 0.17092529 -0.26247245 -0.007819439 -0.2849047 -0.35642436 -0.0040910114 -0.83653945
1 0.4409895 0.40563276 0.052101698 0.13313216 -0.3052573 0.024290998 -0.20437512 -0.30512545 -0.067608185 -0.81985676
5 0.4758655 0.37625736 -0.019491114 0.15328549 -0.33347714 0.019940563 -0.20491561 -0.37225032 -0.03777513 -0.8389558
6 0.47734433 0.3580849 0.011852976 0.0945933 -0.31174782 0.056184843 -0.2453059 -0.3221954 -0.025929864 -0.7515758
0 0.5047077 0.41037247 -0.019734807 0.14881495 -0.28905755 0.049001046 -0.2320532 -0.33683127 -0.05620997 -0.7634842
