7 10
0 -0.7028002 -0.19453736 -0.059826817 0.59781003 -0.3358798 -0.17306681 0.53007174 -0.1905994 0.14946547 0.15363067
4 -0.7122407 -0.13862017 -0.106887706 0.59651273 -0.28199026 -0.19239512 0.5405875 -0.2502953 0.21032888 0.23741087
2 -0.6870318 -0.12936859 -0.10658517 0.61679643 -0.32332182 -0.1896805 0.548117 -0.17704661 0.12049828 0.204382
1 -0.6465682 -0.20721105 -0.10638572 0.62376606 -0.3021868 -0.11913266 0.51118195 -0.1721377 0.13151205 0.23427105
3 -0.6581308 -0.17741445 -0.0755005 0.6020778 -0.30158278 -0.12212499 0.53977257 -0.2617721 0.1507879 0.20351084
6 -0.7002454 -0.16399917 -0.10958732 0.643652 -0.30203435 -0.16551034 0.4923961 -0.2259807 0.18521062 0.25913537
5 -0.6296925 -0.20808977 -0.0939697 0.61047363 -0.3435686 -0.116336316 0.5471226 -0.22473171 0.19163823 0.22843434
