7 10
5 0.253592 -0.50084996 -0.15791373 -0.33493367 -0.24361895 -0.3807822 -0.10483081 0.038398348 0.61454624 0.5808939
0 0.21210515 -0.39568102 -0.17392124 -0.33690336 -0.26818055 -0.4057098 -0.1528022 -0.030964797 0.67952615 0.52956426
2 0.18523219 -0.48555616 -0.18828626 -0.29562688 -0.20783204 -0.378888 -0.09899558 3.059565e-05 0.705443 0.5821032
1 0.26116115 -0.42237654 -0.19022465 -0.28138357 -0.27495134 -0.4111741 -0.07748815 -0.043866854 0.6892036 0.55110174
3 0.2233878 -0.50545686 -0.1913164 -0.30737528 -0.27662322 -0.42825437 -0.13758957 -0.031740222 0.6746038 0.5239855
6 0.22276543 -0.4671183 -0.15177555 -0.34957242 -0.24183756 -0.3643122 -0.15451455 0.0077270917 0.6963568 0.5362676
4 0.20672028 -0.48354265 -0.120560825 -0.3458627 -0.23201008 -0.35799763 -0.1094347 0.0043344693 0.65148306 0.5510959
