7 10
4 -0.10054482 -0.29859006 0.13269468 0.25819433 -0.32604054 0.5319806 -0.2102484 0.809031 -0.0950918 0.306498
1 -0.074954085 -0.3405423 0.14662355 0.21804363 -0.39255252 0.4334865 -0.2321075 0.80522 -0.10927606 0.37783372
2 -0.06689351 -0.37345293 0.10490063 0.20380966 -0.405068 0.5437654 -0.15735486 0.80720466 -0.025926651 0.31606534
5 -0.08143842 -0.41706955 0.09221234 0.27710047 -0.30688345 0.53662354 -0.16844927 0.79680914 -0.08648167 0.3393905
3 -0.1149339 -0.3354148 0.18242349 0.16686071 -0.43360165 0.4346447 -0.24782023 0.81080216 -0.11538837 0.34176934
0 -0.08477435 -0.3655078 0.10750718 0.19817644 -0.25967374 0.51429814 -0.1349049 0.8087118 -0.026044467 0.33287308
6 -0.1125138 -0.393837 0.063843034 0.22426483 -0.30746317 0.5297918 -0.18341629 0.7794333 -0.032935362 0.2645043
