7 10
4 0.02770743 0.085654005 0.13678038 -0.6661461 -0.15790017 -0.41187307 -0.5663056 0.24399877 -0.36013559 0.44948193
3 0.04570533 0.042711392 0.058501963 -0.64038587 -0.16353934 -0.34326643 -0.6084609 0.21048965 -0.38024977 0.50034505
5 0.06331966 0.038796216 0.11063867 -0.6786394 -0.18609104 -0.4222387 -0.55773467 0.23311616 -0.3444792 0.42818362
0 0.1009913 0.090365805 0.09593345 -0.66777813 -0.117376395 -0.39510533 -0.5684798 0.17286818 -0.41057605 0.4775946
1 0.060179222 0.10101534 0.092063986 -0.7099007 -0.12694602 -0.43789944 -0.5507794 0.1687328 -0.32602653 0.49016598
6 0.052595966 0.061176363 0.09791883 -0.6761796 -0.114296384 -0.36062977 -0.57728845 0.19499046 -0.38339752 0.5037625
2 0.053641606 0.050612327 0.14465928 -0.67136127 -0.1682856 -0.40562236 -0.5836772 0.17788719 -0.35498074 0.47496098
