7 10
1 -0.047754485 -0.9100079 0.3593857 -0.16394158 -0.042858854 -0.10436094 0.5293398 0.17860545 0.42016575 -0.11688815
4 -0.070232324 -0.83690935 0.3579431 -0.12340769 -0.04218137 -0.02232071 0.49544507 0.14688241 0.43640378 -0.12918986
3 -0.056906004 -0.868274 0.30904427 -0.1787405 -0.037054952 -0.043135405 0.45586234 0.19695088 0.4266795 -0.15337642
0 -0.035550307 -0.8460588 0.34835333 -0.12714468 0.0038572852 -0.06749702 0.45808175 0.13653424 0.46248567 -0.11492419
6 -0.076767944 -0.88879114 0.37640676 -0.1658532 0.008755204 -0.06950245 0.52217215 0.14717086 0.54458886 -0.07538356
2 -0.07696501 -0.8354183 0.35124072 -0.16936377 -0.0554108 -0.03881257 0.49198017 0.1486252 0.36148846 -0.12008819
5 -0.115820915 -0.85579765 0.3332452 -0.113216065 0.061321106 -0.1215799 0.55499357 0.20916188 0.43091258 -0.12373056
