6 10
4 -1.1741856 0.6997738 -0.05624472 -0.7933769 -0.19127926 0.98106605 0.32596493 -0.04648548 -0.81913215 0.88340074
5 -1.1956859 0.7265785 -0.016092548 -0.7643422 -0.1994417 1.0131763 0.34473687 -0.147644 -0.8031164 0.8890054
0 0.60289526 -0.81741756 -0.90401036 -0.5620009 -0.7181809 0.06431785 -0.91916215 0.35188714 -0.5715202 0.22426862
3 0.5641407 -0.854907 -0.91799587 -0.5470523 -0.7452914 0.062039483 -0.9258763 0.2706039 -0.5517626 0.26121077
2 0.4989899 -0.7082509 -0.84161866 -0.49471658 -0.69360197 0.04175228 -0.85644776 0.28573287 -0.5517184 0.19929837
1 0.5391559 -0.7625524 -0.8961202 -0.5429284 -0.666617 -0.00268735 -0.89876133 0.2784083 -0.5913176 0.29625192
