7 10
4 -0.41509828 -0.36405432 -0.5274583 -0.4149705 0.61933297 -0.017101739 -0.08394793 -0.34396088 0.21909298 0.2960673
2 -0.4691024 -0.3118786 -0.5513316 -0.35192072 0.5872248 -0.010354659 -0.06208728 -0.4183923 0.20934612 0.3167718
1 -0.35703143 -0.33038357 -0.56292516 -0.3447281 0.57257265 0.020423286 -0.06421307 -0.42998987 0.20939162 0.31249726
6 -0.43669662 -0.26345715 -0.5822445 -0.36399028 0.58290905 0.0015418462 -0.016698718 -0.38817954 0.229368 0.30526423
3 -0.41623417 -0.30911356 -0.53098106 -0.3946262 0.63623893 0.013878709 -0.041393157 -0.36616582 0.16797614 0.33634147
5 -0.44294834 -0.33578113 -0.5199609 -0.367808 0.54062694 0.05590363 -0.013755716 -0.45642093 0.2134988 0.25586113
0 -0.39123476 -0.3634922 -0.5552138 -0.40379208 0.5583246 0.013296123 -0.031762715 -0.40814015 0.22805837 0.26988262
