7 10
6 -0.24612255 0.61970055 -0.53854334 0.114827834 0.060738232 0.011036245 -0.084910266 -0.4852578 -0.6301659 0.02829994
5 -0.1884309 0.5972965 -0.53085256 0.08123876 0.034040198 -0.07961133 -0.046682883 -0.5079069 -0.66681737 -0.0070627485
1 -0.1928563 0.64674234 -0.49007604 0.09641843 0.005712338 -0.07940134 -0.03799303 -0.47539678 -0.6376887 0.07246102
4 -0.21406683 0.6725649 -0.54794776 0.09971771 0.07054496 -0.053083234 -0.005941472 -0.43542692 -0.6396042 0.032332715
0 -0.24127443 0.6412536 -0.51152664 0.11892302 0.022130147 -0.03284994 -0.03801582 -0.52282655 -0.6560262 0.025920946
3 -0.23601368 0.666441 -0.44052288 0.09047745 0.059067085 -0.045838524 -0.004141093 -0.5118866 -0.6427966 0.09094033
2 -0.21812358 0.656316 -0.4629813 0.14873159 0.046639416 -0.0042925254 -0.034230232 -0.48048759 -0.64602417 0.08740264
