7 10
5 -0.052414022 0.03025254 0.3908749 0.1003077 -0.03126989 -0.4535944 -0.21517336 0.36904952 0.4651029 -0.78713596
3 0.015009368 0.0122228395 0.41596633 0.14588152 0.022581004 -0.46426153 -0.16422209 0.41975746 0.42182684 -0.79264015
1 -0.0067618187 -0.009366373 0.41351318 0.091731295 -0.027957868 -0.50171214 -0.24978486 0.39345515 0.4968478 -0.7602054
4 -0.010848181 -0.039515376 0.40124774 0.14631087 0.011827727 -0.49652377 -0.17255007 0.39133364 0.4586685 -0.7647739
0 0.042996 -0.048608024 0.39774367 0.1346167 -0.010882963 -0.55616415 -0.2640957 0.34444258 0.5272864 -0.81735986
2 0.058066137 -0.066387914 0.40913308 0.09149605 0.031508014 -0.42840502 -0.19617623 0.38133216 0.470046 -0.7102555
6 0.064122394 -0.019396283 0.37091443 0.13163581 0.015163354 -0.5295399 -0.26291746 0.33305144 0.48911682 -0.7672733
