7 10
0 0.76940745 -0.10662539 0.14555076 0.08449862 0.664286 0.11512314 0.3563178 0.29732 0.20490861 -0.23642345
6 0.7395441 -0.07605095 0.22623898 0.1542012 0.66405624 0.10132851 0.40526074 0.29621404 0.2044965 -0.17963059
4 0.7733288 -0.094508536 0.19200206 0.13708389 0.62015253 0.123511314 0.3469681 0.23470993 0.24961333 -0.23516044
5 0.7375729 -0.06677859 0.22319329 0.090003416 0.6571329 0.16271405 0.36540958 0.26222497 0.17627436 -0.18946768
2 0.7815739 -0.14077336 0.1822803 0.07460201 0.6768002 0.0957039 0.42029363 0.2860782 0.21876489 -0.16733864
3 0.7315434 -0.099275984 0.16404068 0.16500992 0.6802706 0.13421676 0.3536422 0.24173671 0.22993457 -0.2525411
1 0.7360774 -0.09726134 0.22500642 0.15532899 0.6736812 0.14948717 0.3633247 0.26281646 0.23220092 -0.23413773
