7 10
4 0.13139398 0.2700636 0.34845546 -0.018744033 0.49137944 0.12364842 -0.2652041 -0.08522169 0.21884647 0.82626534
3 0.15722515 0.34228277 0.39017472 -0.002121432 0.4872336 0.099745505 -0.29560432 -0.061220635 0.18781775 0.86501074
1 0.16420534 0.35274583 0.352003 -0.04352037 0.4887854 0.08420797 -0.20614055 -0.010995833 0.22118977 0.8327519
0 0.16113275 0.3716561 0.35683653 -0.06648132 0.50760704 0.0765985 -0.21865298 -0.059551448 0.25552845 0.8740107
2 0.08050979 0.37380984 0.32320064 0.010639893 0.51425743 0.07449365 -0.26827702 -0.010978207 0.17156972 0.836205
6 0.10995698 0.32054374 0.37219295 -0.059169687 0.5252235 0.037773002 -0.28229368 -0.05886745 0.15636623 0.8756325
5 0.16200426 0.32569453 0.35324124 -0.06285563 0.48595396 0.11404793 -0.21451536 -0.058432724 0.19587952 0.8437628
