7 10
0 0.3097673 -0.12690094 -0.49726862 -0.23437922 -0.5807041 0.4610587 0.52568084 -0.17525099 0.06164603 -0.40829834
3 0.3337044 -0.12653726 -0.5058039 -0.18713883 -0.57641536 0.41571143 0.50854766 -0.23950917 0.0865352 -0.3774856
5 0.34904575 -0.09641127 -0.41307276 -0.21063852 -0.58918804 0.4609458 0.5166606 -0.2423419 0.10561033 -0.43219116
1 0.3537511 -0.11575506 -0.4689881 -0.1749456 -0.59280384 0.43464875 0.4854467 -0.22754627 0.038226914 -0.38289547
4 0.29239947 -0.06992586 -0.46918985 -0.19934182 -0.64300114 0.5088098 0.50308233 -0.22227886 0.09310412 -0.37601253
2 0.35322362 -0.08483188 -0.4425545 -0.17986155 -0.62066036 0.3982191 0.51073176 -0.24748161 0.06166263 -0.45130202
6 0.2939471 -0.10775317 -0.48519018 -0.20332657 -0.5620899 0.43714613 0.4625089 -0.23215865 0.08891645 -0.40794915
