5 10
2 -0.20832333 -0.6942983 -0.46883547 -0.075146765 -0.3750419 -0.24314174 -0.17943676 -0.08559248 -0.19727786 -0.59671867
5 -0.12580435 -0.71324575 -0.49478084 -0.04965338 -0.44133905 -0.293622 -0.19580413 -0.09844056 -0.19022754 -0.6059244
1 -0.17171635 -0.6356423 -0.4402266 -0.044451084 -0.39090165 -0.31154388 -0.13140914 -0.063925244 -0.22151205 -0.600939
0 -0.18633148 -0.6646508 -0.45813793 -0.059486978 -0.36576313 -0.2876622 -0.10016665 -0.119536705 -0.17649437 -0.58188903
4 -0.18645945 -0.61193395 -0.38908496 -0.111394465 -0.4118815 -0.27179652 -0.1301785 -0.06639332 -0.13161641 -0.5372367
