7 10
0 0.21365978 -0.0844888 -0.30884153 0.15462974 0.0074581522 0.21243867 0.550376 0.33496267 -0.79655325 -0.43995366
1 0.15919198 -0.08417984 -0.3032111 0.14589863 0.03220063 0.15519045 0.5537775 0.37723553 -0.83719337 -0.4345692
2 0.15081626 0.024010578 -0.27332547 0.12688226 0.025976557 0.14670065 0.50695413 0.3184394 -0.7985992 -0.44749895
3 0.10111158 0.036982216 -0.25335565 0.05917205 0.028104547 0.21808913 0.55864793 0.29604757 -0.8591995 -0.35309297
4 0.106273316 0.020992536 -0.29187313 0.06675147 0.040619746 0.18493709 0.5546461 0.32849848 -0.84690833 -0.33577695
5 0.12571612 -0.016399646 -0.2429495 0.05703818 0.070034385 0.17931077 0.5746125 0.36757895 -0.8336526 -0.38638714
6 0.20191526 -0.048073832 -0.25224423 0.08878715 0.0490349 0.21480164 0.54540235 0.3286507 -0.87979996 -0.3664116
