7 10
6 0.37514234 -0.037905052 0.12727144 -0.26886404 -0.28322986 -0.32264864 -0.058167834 0.9033951 0.34436202 -0.07791589
0 0.3578716 -0.074496314 0.07478923 -0.31585795 -0.2370364 -0.28779092 -0.08696789 0.94237375 0.37528294 -0.1152631
3 0.32340166 -0.0013526351 0.0437891 -0.31619188 -0.20578468 -0.24808142 -0.08257829 0.96466446 0.3862131 -0.15286998
1 0.4023489 -0.053430274 0.04370026 -0.3258852 -0.22159946 -0.28351843 -0.08104002 0.97176605 0.33381355 -0.10616416
2 0.3788527 -0.08425235 0.06488741 -0.30813396 -0.25837332 -0.29801717 -0.085827515 0.9591359 0.3472974 -0.11658725
5 0.39554423 -0.022630002 0.1154562 -0.27544764 -0.21735813 -0.2414039 -0.08111875 0.9510373 0.38349992 -0.119274035
4 0.3722205 0.017866373 0.046068974 -0.29829255 -0.20189893 -0.22221929 -0.045129098 0.94555473 0.34715703 -0.13399301
