6 10
3 0.3781856 0.56375 -0.055039316 0.30500457 0.00020965873 -0.111039706 -0.008681002 -0.8038842 0.18206696 -0.3231151
2 0.3697514 0.5808076 -0.100762725 0.3662137 -0.011580165 -0.014745088 -0.10049006 -0.8363063 0.19900641 -0.33672303
0 0.3224556 0.61200476 -0.04051226 0.37015113 -0.01157528 -0.064452045 -0.08988166 -0.8277591 0.11926706 -0.28039336
1 0.38044766 0.5436273 -0.12009128 0.39057595 0.032610733 -0.041601457 -0.054111563 -0.82278216 0.13409558 -0.284443
5 0.38268444 0.547128 -0.029905098 0.3802762 -0.045967888 -0.06998982 -0.04085862 -0.7578697 0.15225624 -0.24320559
4 0.32938382 0.5916182 -0.11637647 0.36179292 -0.060621608 -0.10197743 -0.018281877 -0.783384 0.199314 -0.3059103
