6 10
2 0.3291617 -0.37556827 -0.45604628 -0.16838561 0.1549346 0.1363902 0.5262282 -0.78942686 -0.14537406 -0.07036827
5 0.3326888 -0.42874724 -0.36570767 -0.06383203 0.19197245 0.101712056 0.5523544 -0.75599754 -0.235529 -0.014708918
4 0.24490707 -0.42512667 -0.38564333 -0.12475298 0.1374125 0.067676924 0.49109578 -0.72814286 -0.19119994 -0.05596868
3 0.25927782 -0.4064661 -0.3759267 -0.08777526 0.2245778 0.10126935 0.558285 -0.7647728 -0.16906987 0.034169096
0 0.3120401 -0.44059142 -0.40623596 -0.124594145 0.14961512 0.09626568 0.46264717 -0.7663339 -0.17876117 0.010898268
6 0.30385014 -0.4370574 -0.4282285 -0.10345144 0.21302478 0.045550637 0.5366561 -0.7490549 -0.11254059 0.016146906
