7 10
6 0.47086728 0.56304103 0.4344183 0.12438073 0.41579762 0.25475553 0.59175897 -0.25221226 -0.03176727 0.18251598
5 0.4264316 0.50418556 0.38893312 0.048688162 0.44295546 0.34652132 0.588399 -0.24208091 -0.104668446 0.19781172
1 0.4768395 0.51847875 0.45421568 0.14560974 0.44744292 0.27365065 0.55928314 -0.21467288 -0.060799636 0.100678876
2 0.43499315 0.5229171 0.4020296 0.058594894 0.43582663 0.3532805 0.6129748 -0.29249412 -0.04584504 0.11286153
0 0.39403865 0.5151054 0.36306518 0.0735805 0.44491696 0.33530948 0.609594 -0.30188227 -0.12813793 0.14224574
3 0.44213858 0.51305014 0.43596536 0.057210185 0.45001274 0.33002892 0.61624646 -0.32948834 -0.09119581 0.11822628
4 0.35483822 0.55352867 0.34763303 0.13850771 0.4243061 0.30436367 0.61390525 -0.32656425 -0.10579422 0.19441433
