7 10
0 0.27551988 -0.18358387 0.6690631 0.6291215 -0.3349725 0.16891806 0.24878259 -0.39277545 -0.18327546 0.22332554
5 0.28771204 -0.25831744 0.635531 0.6095313 -0.29233295 0.12617719 0.23908037 -0.45150596 -0.09590875 0.20331293
4 0.25247142 -0.17787644 0.6620228 0.6375923 -0.34442514 0.09170934 0.22056939 -0.41230056 -0.18572329 0.22283566
6 0.30952108 -0.27161512 0.6823919 0.58322096 -0.31012103 0.12236737 0.26558515 -0.46702603 -0.08976946 0.23084499
3 0.27087426 -0.2670898 0.6641168 0.6322752 -0.3345729 0.1795166 0.27011618 -0.41588065 -0.15706928 0.19403799
1 0.25937766 -0.27722093 0.6298577 0.6599375 -0.28742743 0.16076045 0.26604196 -0.46782193 -0.134355 0.17114575
2 0.30053636 -0.23643903 0.65876335 0.6330346 -0.33555338 0.16573326 0.22545902 -0.44512376 -0.17008147 0.16858861
