7 10
3 -0.32121834 -0.22187273 0.3252562 -0.54649353 0.25390956 0.12559547 0.77723694 -0.26561317 0.23724796 0.2401642
2 -0.3440597 -0.19796117 0.40197253 -0.5468577 0.2807837 0.13893689 0.78198934 -0.28819573 0.19752638 0.20459826
5 -0.34356013 -0.156266 0.25665113 -0.45139596 0.29284552 0.18547188 0.75302917 -0.29101357 0.21296546 0.20475733
6 -0.34702232 -0.16231853 0.35227707 -0.45261618 0.28398985 0.21151805 0.7534763 -0.23279381 0.20146127 0.20430146
1 -0.403951 -0.22219057 0.37206158 -0.46937284 0.29825485 0.19627763 0.79128844 -0.23282683 0.19458842 0.19989891
4 -0.38317323 -0.21322703 0.30915347 -0.4593619 0.29340357 0.20755903 0.7525154 -0.22428429 0.23115335 0.12779126
0 -0.41728976 -0.20623837 0.32356048 -0.5480307 0.22642682 0.1803433 0.79565895 -0.2864215 0.15998945 0.1416482
