7 10
4 0.19364755 -0.4005608 -0.40982246 0.3299637 0.39532003 -0.01671517 0.4447643 -0.60205 0.09827892 0.5711659
5 0.20841661 -0.34612453 -0.38023 0.30168805 0.36683136 -0.04501336 0.4169073 -0.54935265 0.09794585 0.60284704
0 0.229991 -0.33588812 -0.3781057 0.3833857 0.31201503 -0.0041673025 0.38859943 -0.5558124 0.088949 0.58857375
2 0.23252371 -0.37077025 -0.33863512 0.3807595 0.35761762 -0.030846372 0.42423037 -0.563069 0.16394198 0.6012832
1 0.22135696 -0.32068256 -0.3549309 0.39857844 0.3231935 -0.03471977 0.45241755 -0.534681 0.15925345 0.5868918
3 0.21953185 -0.34575987 -0.29880452 0.3798308 0.2618199 0.017599786 0.44808587 -0.55633706 0.13364631 0.5979942
6 0.15019369 -0.3536501 -0.3894646 0.31500795 0.3628107 0.041686602 0.44153532 -0.53547555 0.05605014 0.5800038
