7 10
3 -0.5170346 0.60793245 1.3375756 0.27520996 -0.28697792 0.6796575 0.4113977 -0.28241542 -0.57126474 -0.707869
6 -0.44423103 0.62010837 1.3017033 0.21693052 -0.25063142 0.68508786 0.41270614 -0.31374493 -0.5273893 -0.6442742
2 -0.43896845 0.6459103 1.275706 0.29288414 -0.2416478 0.68366426 0.35111967 -0.32733122 -0.61550903 -0.6520094
5 -0.50521386 0.60963666 1.2792392 0.28720692 -0.27975214 0.668348 0.44022453 -0.28222525 -0.5584804 -0.68467
0 0.75002337 0.5615684 0.09843035 0.4415521 -0.56430686 -0.8075143 1.1988615 -1.0204504 1.1563501 0.3063979
4 0.83526117 0.61967915 0.079677634 0.42943725 -0.5806074 -0.848347 1.1002901 -1.0967892 1.1565727 0.24871545
1 0.7612514 0.59510976 0.1819724 0.4220474 -0.59133613 -0.78572875 1.0902102 -1.0429903 1.1226153 0.224904
