3 10
0 -0.09101566 -0.11106717 0.09887537 0.26822224 -0.2762873 0.13457005 -0.041247435 0.13715717 -0.03601862 0.38282177
1 -0.009140019 -0.06709884 0.112283155 0.17819907 -0.16038008 0.1390716 0.0326588 0.061701212 0.02674935 0.2585924
2 -0.060470957 -0.02953389 0.045251783 0.12969324 -0.22318895 0.0784634 0.0022677702 0.09249527 -0.01658428 0.30034706
