7 10
4 -0.40929848 0.17115188 0.19425827 0.23697618 0.67371583 -0.05326891 -0.28724828 -0.44801116 0.32656825 0.4876994
3 -0.39140743 0.18204767 0.14526516 0.29482457 0.6999825 -0.08470183 -0.27325237 -0.48148045 0.3169935 0.438952
5 -0.39365315 0.25067833 0.1340047 0.22628762 0.6803968 -0.017676163 -0.26800272 -0.46103987 0.2773729 0.48711592
1 -0.41720352 0.23287301 0.15732406 0.24462341 0.71919966 -0.011403897 -0.3000562 -0.44336575 0.29320994 0.42210716
2 -0.38065338 0.23852085 0.16029172 0.23714724 0.68304807 -0.047187693 -0.3307265 -0.43933612 0.34030947 0.44197986
0 -0.37926304 0.1168679 0.085588016 0.2927066 0.7003243 -0.11176173 -0.32186076 -0.43470332 0.3522287 0.41613516
6 -0.3537168 0.2809319 0.14108254 0.2339748 0.7192328 0.039479263 -0.3359955 -0.42916736 0.30255064 0.505861
