7 10
1 0.6892804 0.2734126 0.15788628 0.3442016 0.21211176 -0.15048672 -0.15221116 0.5742828 -0.5945133 0.11380877
2 0.711015 0.19778547 0.111571826 0.36204123 0.18147929 -0.0955356 -0.13417403 0.5330573 -0.6071959 0.12501341
5 0.69731516 0.2604229 0.13523419 0.29286212 0.15575172 -0.1442749 -0.19838116 0.53210855 -0.5745999 0.066816755
4 0.74423647 0.24940872 0.16733697 0.26776695 0.1625325 -0.13154484 -0.21828224 0.5075155 -0.6172128 0.0914108
3 0.6964076 0.24047169 0.1747934 0.31689748 0.22370477 -0.13058719 -0.16280809 0.5885054 -0.57748264 0.1349389
6 0.6932164 0.27058566 0.18572223 0.29035544 0.13002501 -0.11935036 -0.1787639 0.57208854 -0.52426964 0.124065675
0 0.7110186 0.22844036 0.13016832 0.37542093 0.20721933 -0.14783643 -0.15683392 0.55464864 -0.5571478 0.1499371
