7 10
1 -0.09517001 0.30552205 -0.44999334 0.3648611 -0.18966277 0.39322895 0.57257754 0.61109114 0.19237569 -0.01378081
4 -0.08479061 0.34642288 -0.4460422 0.29947218 -0.18943492 0.3512938 0.58045524 0.63929063 0.15022914 -0.062783435
3 -0.007797207 0.3633257 -0.45119688 0.3283945 -0.16733366 0.42274868 0.57890177 0.6010375 0.24214365 -0.0993023
6 0.007538228 0.35213158 -0.40522265 0.35356703 -0.1910194 0.38920504 0.49898598 0.65007216 0.21041724 -0.08835472
0 -0.04348474 0.3135009 -0.4367577 0.3477195 -0.14720236 0.3994173 0.5152919 0.6722454 0.21274003 -0.016448203
5 -0.033519242 0.33100873 -0.3731556 0.37586984 -0.16217454 0.35434654 0.609436 0.6600387 0.13834843 -0.04032935
2 -0.041397043 0.3213857 -0.3823975 0.36468327 -0.17296755 0.35749957 0.568365 0.6378036 0.18009733 -0.026890911
