6 10
5 -0.5709634 0.26422322 0.029327665 -0.5401818 0.2758717 0.3849793 -0.57461643 0.09421382 0.24938075 -0.21418324
0 -0.6164503 0.16562124 0.013960128 -0.6009986 0.28959954 0.3886714 -0.5807733 0.19073704 0.22079358 -0.17335169
3 -0.61307096 0.25499797 0.054595977 -0.6030394 0.2851532 0.381368 -0.5030035 0.104140684 0.18034728 -0.14491381
1 -0.60234016 0.18868396 0.06414426 -0.58724076 0.27198845 0.41395932 -0.55990386 0.10582874 0.2393649 -0.21985555
2 -0.6441076 0.25651988 0.051640905 -0.54410446 0.224153 0.3432727 -0.5333923 0.19541238 0.17600496 -0.19842778
4 -0.58164 0.17250569 0.07915072 -0.6004699 0.28316596 0.39390996 -0.5533635 0.16779193 0.21275923 -0.1373823
