7 10
1 -0.013954215 0.68598545 -0.5234972 -0.6268085 0.008322964 0.16618858 0.21448737 0.00078425463 -0.30944708 0.3227102
5 0.004430086 0.6923338 -0.5016602 -0.5617146 0.099411085 0.2184165 0.25782344 -0.057657782 -0.3059039 0.36057144
4 0.024640143 0.70206445 -0.4732328 -0.62740314 0.02456104 0.2330964 0.26795813 -0.05287883 -0.26066202 0.37402022
3 -0.022619573 0.64835864 -0.5319404 -0.6111078 0.0959524 0.2005143 0.22645316 -0.08996766 -0.3315954 0.34451756
0 -0.018289575 0.6217344 -0.50575835 -0.6353108 0.08541901 0.21573386 0.21639243 -0.052019667 -0.3294593 0.28340784
2 -0.052480694 0.682068 -0.47913814 -0.605597 0.025490673 0.14837994 0.2281245 -0.008159038 -0.29524466 0.31912476
6 0.03354201 0.69084483 -0.48333266 -0.60276324 0.04764816 0.13816777 0.25706297 -0.07031599 -0.30438107 0.34873372
