7 10
6 0.2836131 -0.042324416 -0.30052498 0.6844422 0.17410073 -0.33737874 -0.07106477 -0.57039666 0.5944852 0.091646545
2 0.14688908 -0.097082496 -0.37059924 0.70205104 0.14890814 -0.25091782 -0.09004035 -0.5950346 0.5580871 0.044775456
1 0.24287766 -0.10955971 -0.35116094 0.67588377 0.16040672 -0.262978 -0.13805453 -0.53981054 0.5614671 0.08297427
4 0.21788606 -0.109594524 -0.2481023 0.67696244 0.20355892 -0.29769728 -0.156323 -0.5574631 0.5816555 0.07102758
5 0.21854696 -0.11041611 -0.3234479 0.7410541 0.1689728 -0.22235522 -0.14551817 -0.50924635 0.589763 0.010462314
0 0.21568544 -0.09999533 -0.3062977 0.6649721 0.1514739 -0.29639068 -0.12968062 -0.5140609 0.5725618 0.09265288
3 0.22433642 -0.074944675 -0.33062494 0.6696735 0.18243322 -0.27166665 -0.13904227 -0.5936377 0.5371725 0.059741568
