6 10
1 -0.5470165 0.13833135 0.01691295 -0.49519032 -0.1198836 -0.18981881 -0.37992978 0.596701 -0.45729584 0.20589934
2 -0.5422495 0.10253435 0.007954625 -0.5417285 -0.112279795 -0.18100798 -0.42081806 0.6346107 -0.4244943 0.26151985
0 -0.5325344 0.13074486 0.023100048 -0.5062635 -0.070058525 -0.14337744 -0.42538756 0.6177759 -0.47273746 0.24715613
4 -0.5181001 0.09447469 -0.0033746639 -0.5389437 -0.026158085 -0.20454715 -0.436318 0.62616146 -0.46785402 0.17324567
3 -0.5415601 0.16889031 0.07643763 -0.5098917 -0.067593805 -0.20987341 -0.39331284 0.5788935 -0.45178533 0.24346896
5 -0.5037522 0.13257955 0.036592964 -0.48027596 -0.06778395 -0.14005606 -0.3901288 0.52458566 -0.39162603 0.19036779
