6 10
0 -0.26207638 -0.04881492 0.12584217 0.7361625 0.3018763 0.4232513 0.0098305335 -0.3246897 -0.25478047 0.58105755
1 -0.17866823 -0.018751172 0.13862005 0.75507194 0.38992974 0.4733806 0.055006374 -0.38526762 -0.21847376 0.52793556
5 -0.25982714 -0.08312146 0.15806676 0.7044886 0.31283358 0.44644937 0.011246013 -0.34818134 -0.2573777 0.5833448
2 -0.23762481 -0.08976281 0.16612807 0.7175804 0.36188975 0.39805126 0.03952197 -0.34260064 -0.27448708 0.57308674
3 -0.19038062 -0.089938395 0.10658392 0.7532895 0.3607855 0.4772456 0.011527469 -0.35738143 -0.25683665 0.52770245
4 -0.18170542 -0.06611133 0.11414275 0.73513407 0.32794765 0.47344133 -0.037614975 -0.3255396 -0.22802547 0.5476939
