7 10
2 -0.12071775 0.7491478 1.2868094 -0.06356457 0.5568256 -0.33004662 -0.0739206 0.35559502 0.2798642 -0.68803126
3 -0.43673262 -0.18164149 1.0248654 -0.51009005 -0.050121356 -0.47795352 -1.6468172 -0.94774187 0.31773663 1.7930464
4 -0.35256848 -0.19636537 1.0906725 -0.42213795 -0.06682867 -0.47716877 -1.588448 -0.91743547 0.2790288 1.7403666
6 -0.03531717 0.75910157 1.2398238 -0.17501186 0.57944286 -0.40552145 -0.09322424 0.38882262 0.28929988 -0.6866868
5 -0.09837544 0.68857205 1.2182819 -0.11798824 0.49012923 -0.36328802 -0.13457088 0.38769478 0.187941 -0.62582743
1 -0.07194785 0.7771946 1.2268957 -0.10218348 0.5543405 -0.35578543 -0.057107598 0.45165107 0.28968576 -0.8016612
0 -0.053789396 0.7106223 1.1365399 -0.07874792 0.51181144 -0.32971206 -0.1135086 0.36824292 0.1656668 -0.7112338
