7 10
6 0.20779756 0.30908713 0.40739912 0.06673647 0.0010121316 -1.004336 -0.1605743 -0.12261742 -0.38993758 -0.16659056
5 0.22007363 0.3245301 0.37076437 0.04064609 -0.06266468 -1.0103586 -0.12307534 -0.13348751 -0.34107307 -0.18806793
1 0.21700732 0.27603924 0.40245387 0.113855645 -0.09099353 -0.97340673 -0.17560416 -0.13021666 -0.3431171 -0.13517879
0 0.16024846 0.31963897 0.31320092 0.049352344 -0.07973606 -0.96428454 -0.19026414 -0.085250944 -0.354311 -0.18026927
2 0.24881604 0.28357145 0.33350566 0.06191416 -0.088453434 -0.99562 -0.112783045 -0.08238117 -0.30118048 -0.11586145
3 0.15718186 0.30929282 0.40706378 0.1277546 -0.029281266 -1.0110304 -0.13314301 -0.15069686 -0.32437712 -0.15670301
4 0.15934321 0.2916395 0.36817893 0.11145405 -0.028485851 -0.9333903 -0.19455911 -0.08049162 -0.36317155 -0.1317386
