4 10
2 -0.5821126 -0.09274727 0.31366244 -0.3224736 -0.14399533 -0.03792284 0.935991 0.021973342 0.07835028 -0.34726274
6 -0.43558237 -0.051120516 0.2648389 -0.32239872 -0.08475104 -0.085231505 0.842799 0.06713883 0.13930055 -0.35184422
5 -0.520107 -0.14143108 0.24167795 -0.26110053 -0.13454035 -0.039790135 0.8718063 0.07374507 0.10728919 -0.3021776
1 -0.41606694 -0.099862546 0.17464969 -0.23316334 -0.06163664 0.00856765 0.7365922 0.021163054 0.12306793 -0.30297333
