7 10
2 -0.33584663 -0.38269037 0.19665234 1.4325308 -1.4322929 -0.45511213 0.35005963 0.30858544 0.5153955 -0.65217996
5 -1.0823369 -0.25513998 0.065843396 -0.34126946 0.15698327 1.3488305 0.9493706 1.11743 -0.62540257 -0.002399107
6 -1.0228475 -0.17981088 0.099914305 -0.34231225 0.0909654 1.2409667 0.8632122 1.026948 -0.53416765 -0.085440405
3 -0.23055457 -0.39117607 0.13608521 1.3297938 -1.3616693 -0.4059091 0.34688094 0.29585484 0.49241728 -0.6232533
1 -0.2617881 -0.36691058 0.17289986 1.260454 -1.2712681 -0.39451134 0.32099086 0.24420594 0.49697414 -0.61151946
4 -0.9617116 -0.27216715 0.05029891 -0.34513864 0.09513019 1.1671584 0.86330837 1.0070599 -0.52625114 -0.06808413
0 -0.9818202 -0.22573875 0.051365755 -0.3524551 0.1040978 1.1403054 0.80696094 1.0563557 -0.535605 -0.1083091
