7 10
1 -0.112564065 -0.06702781 -0.2287588 -0.2677341 -0.2920575 -0.8393051 0.25124663 0.35427564 -0.47434857 -0.25599846
6 -0.11813808 0.0007748513 -0.2678428 -0.30311763 -0.21900661 -0.80150247 0.3026086 0.3346385 -0.46666375 -0.27180386
3 -0.1160515 -0.06415399 -0.28314406 -0.31651852 -0.21156764 -0.8063217 0.30012617 0.4172769 -0.42602018 -0.31990793
5 -0.110429555 -0.042257957 -0.21752259 -0.2525768 -0.25336894 -0.8185945 0.32225454 0.4335124 -0.42192402 -0.31134528
0 -0.08018091 -0.0008071501 -0.29777688 -0.26797622 -0.29101345 -0.7583261 0.24574389 0.36853158 -0.49955425 -0.3165799
4 -0.06025203 -0.055895146 -0.28054363 -0.3004166 -0.19780044 -0.83576095 0.24788037 0.4115306 -0.45567173 -0.27141395
2 -0.13912958 -0.04068557 -0.24465674 -0.2408603 -0.19102976 -0.8057052 0.22765195 0.39721286 -0.40688646 -0.29763824
