7 10
5 0.73567575 -0.3659362 0.39989746 -0.40272835 -0.6252259 1.0917372 -1.2506263 1.7533216 0.45094195 -0.948007
6 0.6935013 -0.37889707 0.3069034 -0.427075 -0.6496546 1.0167713 -1.2282481 1.7475281 0.42555353 -0.91430855
2 -0.54167956 0.8359529 0.6848454 -0.16639183 0.1538007 -0.5065703 -0.60817987 0.002584281 1.0146601 0.39219835
4 -0.5598471 0.83807313 0.6626211 -0.13325775 0.20983468 -0.58985883 -0.64798105 0.054445527 1.0044634 0.4391716
1 -0.4549897 0.7821733 0.69768107 -0.18561721 0.16638045 -0.48728848 -0.57686174 0.0036299187 0.9640123 0.40720108
0 -0.51820475 0.8163557 0.72138715 -0.17198199 0.15426826 -0.5464753 -0.62179357 -0.020694911 1.0533694 0.41505903
3 -0.44737023 0.7369242 0.70069474 -0.17327781 0.16829227 -0.5318797 -0.5945806 0.050967835 1.0252155 0.37769818
