7 10
2 -0.039860513 0.0015799939 0.49888432 -0.024893336 -0.43979904 -0.6679207 0.12332574 -0.40416577 0.4523891 0.15049611
4 -0.041837163 0.076481804 0.46580654 -0.047561135 -0.47796974 -0.6679695 0.15978764 -0.4587697 0.46540293 0.12687448
5 -0.055611923 0.07392561 0.49264306 -0.0660216 -0.4732664 -0.682322 0.13429663 -0.4334067 0.47165352 0.19342071
3 -0.09429784 0.0012225168 0.53159297 -0.054691005 -0.42593065 -0.708231 0.14854039 -0.46286306 0.47209218 0.15606976
1 -0.0907393 0.102677435 0.4474987 -0.12749419 -0.48785535 -0.6243513 0.17421988 -0.4461184 0.47631174 0.15739828
0 -0.07227004 0.05608745 0.5220456 -0.073315345 -0.43607607 -0.6888061 0.20893845 -0.4009794 0.47171545 0.11714724
6 -0.114085466 0.059990875 0.47346058 -0.10983988 -0.45289156 -0.6212862 0.15914944 -0.43129444 0.43710572 0.14930318
