6 10
2 0.21650761 0.2479255 0.33690324 -0.14328694 0.4414745 -0.34298116 0.7552205 0.3708342 -0.4793353 0.0050705033
6 0.23812346 0.29401916 0.4053188 -0.1307467 0.35189006 -0.29888624 0.7135912 0.3891445 -0.45187 -0.0060569434
0 0.17677632 0.2341029 0.41233504 -0.13945378 0.41260645 -0.37730873 0.6914892 0.3611924 -0.50610244 0.064359754
5 0.21227117 0.24810293 0.39962408 -0.07872363 0.34618226 -0.34602156 0.7156355 0.35291505 -0.42807958 0.019802906
1 0.18398212 0.23881246 0.39126182 -0.15832439 0.38620013 -0.27661312 0.70174193 0.34716025 -0.4612117 0.00415503
4 0.24966228 0.2536217 0.33736962 -0.17177956 0.38958254 -0.32342795 0.6927286 0.37170357 -0.45905042 0.0397389
