6 10
2 0.15499598 -0.17563738 0.8414084 -0.10731926 0.14472422 0.2737799 0.5329293 0.11088909 -0.23853523 -0.45770794
3 0.21242003 -0.19723937 0.81867224 -0.11503136 0.118142314 0.28095293 0.45128256 0.19735539 -0.28718278 -0.43505275
0 0.14609796 -0.1062387 0.87006533 -0.100109175 0.09566496 0.32082283 0.5165787 0.09809815 -0.3114272 -0.436822
5 0.22797555 -0.10895884 0.8177592 -0.12262028 0.13774265 0.23627762 0.5336154 0.14605404 -0.29480872 -0.40815943
4 0.20508364 -0.11722277 0.8046291 -0.117435835 0.10731286 0.29204887 0.47839823 0.10821657 -0.28099608 -0.37959388
1 0.18741477 -0.20858462 0.79452014 -0.053972483 0.10310028 0.3156863 0.43719888 0.19973256 -0.24131405 -0.38506964
