6 10
5 0.57090354 -0.3206826 -0.3696168 -0.02610759 0.69747204 0.18210967 -0.5089043 -0.10279358 -0.01674504 0.21499158
2 0.5669394 -0.3177562 -0.32029358 0.02551686 0.73517424 0.26749644 -0.45148876 -0.05994235 -0.037325483 0.2482688
1 0.5585619 -0.24221727 -0.38927606 -0.024287786 0.7383267 0.26275906 -0.50581366 -0.12914559 -0.026993245 0.22565971
3 0.5070356 -0.29809552 -0.37977144 0.05658182 0.7133092 0.27915925 -0.46969113 -0.10360525 0.0013819942 0.2757742
6 0.5187119 -0.3183616 -0.31655556 0.059650645 0.71025264 0.22308311 -0.5188188 -0.077646814 -0.045227703 0.23556525
4 0.52932686 -0.25835145 -0.34690335 0.0033635776 0.7086079 0.2507962 -0.4797695 -0.10203968 0.0006559909 0.26138654
