7 10
1 0.61626375 0.33787578 0.19588774 0.08590296 0.06702976 0.052720577 0.019921023 0.31565884 0.68180716 0.60042787
0 0.5691383 0.4159231 0.15654781 0.06880204 -0.021039661 0.026106758 0.035493195 0.33282533 0.71109575 0.60654444
4 0.616017 0.41141853 0.15460213 0.091681525 -0.028188203 0.0534797 -0.008145113 0.3108626 0.6882339 0.6160255
3 0.61662036 0.37774584 0.10002863 0.049096152 0.020878587 0.03994317 0.049313676 0.29448178 0.67345107 0.5372933
6 0.67511576 0.39358568 0.14152773 0.10647409 0.06314314 0.055103958 0.049911264 0.3685615 0.6932717 0.60227853
5 0.5744884 0.35473937 0.12747355 0.06880143 -0.015792884 -0.01284907 0.041898202 0.21709053 0.645838 0.5648882
2 0.609622 0.39355838 0.20891766 0.02353014 0.030718531 -0.019260298 0.06961721 0.2601841 0.66915447 0.66372615
