7 10
1 -0.95879275 0.16953424 0.25026983 0.16927624 0.30767417 0.025935825 -0.5654632 -0.18894507 0.041383885 -0.105544746
2 -0.897258 0.07605311 0.15933263 0.12965702 0.32385454 0.038042266 -0.56715083 -0.18954171 0.12527816 -0.16052409
3 -0.8857042 0.117857926 0.20074129 0.06840879 0.29559094 0.06818298 -0.54895633 -0.17746566 0.1274997 -0.2052588
0 -0.92635757 0.1605035 0.21612683 0.08387517 0.3149824 0.07650888 -0.51923376 -0.23612554 0.041969106 -0.1007101
5 -0.9297116 0.11065135 0.23267666 0.10340124 0.3113471 0.024506493 -0.5330899 -0.18380003 0.11130259 -0.17560656
4 -0.87637174 0.17387836 0.17002654 0.12023038 0.33694506 0.08340443 -0.5205919 -0.23143144 0.055624466 -0.13410003
6 -0.92162156 0.121787876 0.15426414 0.07219698 0.3019471 0.06461468 -0.51260304 -0.14964409 0.11713752 -0.18273284
