7 10
4 0.39530334 -0.80132425 -0.12031555 0.14130904 0.77503794 -0.76853204 -0.013892764 0.93624085 0.31822065 0.5198048
5 -0.9184447 0.5120365 -0.6716636 1.4820138 -1.0152758 -1.7895577 -0.18684739 0.099048294 0.18651593 -0.29603997
6 -0.9664408 0.48037493 -0.6750065 1.4740125 -0.97400963 -1.7076457 -0.21816817 0.11091909 0.21491338 -0.23727405
2 0.3977662 -0.88365895 -0.15759112 0.14987296 0.81162715 -0.73770535 0.04204982 0.9104965 0.2355461 0.6209754
1 0.42223695 -0.8483741 -0.09600048 0.10687515 0.7139121 -0.7240325 -0.029934846 0.9131899 0.2701521 0.5297333
3 0.44404915 -0.90656424 -0.09178814 0.13128148 0.82163435 -0.72041154 0.029634286 0.87873095 0.3142848 0.57179266
0 0.3542094 -0.8203538 -0.17930217 0.15912125 0.7392836 -0.7078898 -0.032813795 0.88894886 0.2737192 0.56336665
