7 10
6 0.22074576 -0.34999946 0.049656115 0.33561862 -0.17659202 0.44338322 -0.66351044 -0.17752059 -0.24392553 -0.54095024
4 0.17741838 -0.28841686 0.07096455 0.37398192 -0.1251298 0.4405262 -0.6602849 -0.21360761 -0.22026345 -0.67578524
5 0.17410715 -0.28168118 0.05293966 0.33111626 -0.19653174 0.47308865 -0.70546937 -0.20312645 -0.18347909 -0.61862904
3 0.16565454 -0.34913525 0.0868623 0.34738863 -0.14695963 0.42314917 -0.64030176 -0.17932095 -0.2409408 -0.63862306
0 0.16397674 -0.3414402 0.11152898 0.296631 -0.13360079 0.4133816 -0.620861 -0.22896764 -0.27330887 -0.661627
2 0.16850874 -0.34836453 0.06258002 0.36079544 -0.17632896 0.41563037 -0.69535035 -0.17919828 -0.1978811 -0.6401521
1 0.17426936 -0.3502869 0.025916487 0.30660528 -0.11458592 0.46359807 -0.64396405 -0.21549474 -0.20857936 -0.6259019
