7 10
5 0.238809 -0.10950692 -0.29058594 -0.18840317 0.87354535 -0.021366304 -0.12592016 0.25722158 -0.5965302 0.15378967
6 0.18167175 -0.19814864 -0.21309288 -0.1474043 0.85801905 0.042528633 -0.17659155 0.18357426 -0.6360863 0.25841844
1 0.15129443 -0.17868495 -0.24512123 -0.2310051 0.88275397 0.022628717 -0.16236332 0.17788866 -0.5968863 0.21731052
4 0.22106723 -0.19443354 -0.24851178 -0.19661842 0.8560862 0.029597841 -0.18236685 0.22931153 -0.5384585 0.24786188
3 0.19075257 -0.10253084 -0.23432614 -0.20162413 0.84761494 -0.044048663 -0.15886113 0.2338575 -0.60944676 0.1828024
2 0.20237495 -0.1372004 -0.29142892 -0.19954014 0.84275156 -0.042408213 -0.17472339 0.25686133 -0.59324294 0.1817375
0 0.26188755 -0.13865057 -0.26918435 -0.2107407 0.88595515 -0.025191668 -0.15396439 0.21647666 -0.54789174 0.1711579
