6 10
1 -0.24071816 0.08022196 -0.0004600107 -1.9122412 -0.1636177 0.75083774 0.3046831 -0.15894231 0.6454187 1.0538354
2 -0.2824351 0.03989775 -0.05718489 -1.8389125 -0.09217613 0.66909885 0.34648216 -0.1997471 0.66607326 1.0233978
4 1.0330346 -0.75397885 -0.36382726 0.007623551 -0.28354183 0.3949577 0.04064868 -1.4080479 -0.027413154 -0.5835786
5 1.0102879 -0.80778587 -0.29147598 0.0179932 -0.2462186 0.43877545 0.08410518 -1.3741065 -0.03551074 -0.47901058
3 0.9727507 -0.7455156 -0.3050978 0.008626664 -0.26381195 0.39515027 0.06829232 -1.2465812 -0.0009054683 -0.4992818
0 0.94825965 -0.6864953 -0.25877815 0.026997944 -0.2978785 0.44133258 0.10255425 -1.19042 0.029040797 -0.43745133
