7 10
5 0.2535316 0.32483098 -0.15068395 -0.24957567 0.63554704 -0.50874937 -0.05443462 0.049091715 -0.5890686 0.16843891
2 0.23783597 0.34970745 -0.22579204 -0.3666292 0.60741216 -0.52649444 -0.08924423 0.07487722 -0.6914454 0.11930241
0 0.2509903 0.27093866 -0.18584463 -0.30350852 0.5878409 -0.5492284 -0.0024178915 0.0177907 -0.6378353 0.180528
3 0.1884504 0.3712267 -0.17287698 -0.33066002 0.65415865 -0.47255793 -0.06260619 0.06775704 -0.6567698 0.17531154
6 0.22134534 0.2948921 -0.1252239 -0.31739938 0.62844515 -0.49725485 0.029905187 0.014017431 -0.62946916 0.120312825
4 0.17995039 0.27780488 -0.11199666 -0.34631798 0.6704296 -0.5549927 -0.030038657 0.04945958 -0.6267018 0.1044602
1 0.1879486 0.36706913 -0.19289699 -0.31018066 0.60512865 -0.5290297 -0.054676235 0.028061794 -0.6174837 0.14844096
