7 10
1 0.33653384 0.5757991 -0.07854705 -0.5914769 -0.18155293 -0.5057279 -0.5343101 0.17198725 -0.046518102 0.1984297
0 0.37670377 0.5487103 -0.14389749 -0.5601762 -0.19555692 -0.48269218 -0.5795682 0.18140274 -0.110410735 0.16824315
2 0.39185914 0.5369444 -0.12654695 -0.5518859 -0.25698504 -0.48178738 -0.5426832 0.18263684 -0.041417386 0.20631973
3 0.39859262 0.53256005 -0.07873179 -0.54178816 -0.16844362 -0.47987106 -0.5680218 0.20476755 -0.10723645 0.15165588
5 0.37098846 0.5364232 -0.15392561 -0.5245083 -0.23942249 -0.4866029 -0.5474419 0.18401256 -0.0554006 0.21072401
4 0.3830279 0.54832953 -0.096730866 -0.52975774 -0.20480181 -0.4369409 -0.54425544 0.23281808 -0.010713276 0.15368749
6 0.38509685 0.47540778 -0.11879744 -0.5041766 -0.22967662 -0.49526778 -0.5495431 0.1804036 -0.0576664 0.18768132
