7 10
1 -0.23413672 -0.57012254 0.20864831 0.031644166 -0.49649954 0.29519597 0.5879088 -0.56390166 -0.121473 0.040742334
3 -0.25497207 -0.5602099 0.14612316 -0.009757714 -0.57744545 0.20713283 0.55831265 -0.54761326 -0.113271676 0.039148133
5 -0.24550068 -0.5513495 0.19727117 0.031334795 -0.54926026 0.24867369 0.55612683 -0.53335255 -0.1503786 0.024181021
4 -0.18992034 -0.569221 0.19974801 0.05647512 -0.563743 0.2976027 0.5318988 -0.5320534 -0.13031167 -0.021115664
2 -0.2541571 -0.5946097 0.16983499 0.03854105 -0.55116236 0.2904101 0.5127088 -0.5249348 -0.13178343 0.015153602
0 -0.17896482 -0.5770928 0.18504547 0.08203661 -0.5562512 0.26171196 0.5607183 -0.5429589 -0.1630996 -0.0064279344
6 -0.26638082 -0.60621774 0.16147527 0.034600064 -0.5440752 0.20548075 0.57581806 -0.49925622 -0.14753464 -0.024511607
