7 10
4 0.20547882 0.1305433 -0.065736994 -0.4073513 0.66365194 0.23789662 0.08407108 0.56919223 0.5180128 -0.2331758
3 0.1513241 0.15920572 -0.1030937 -0.41883653 0.6303521 0.19983764 0.14038286 0.58863205 0.5147203 -0.18926051
0 0.2124316 0.14440423 -0.115561284 -0.48670015 0.62208396 0.25227815 0.13132365 0.62396413 0.51707286 -0.23287085
1 0.21122828 0.14330018 -0.09529012 -0.43666825 0.6186832 0.26934335 0.15534393 0.577539 0.45926094 -0.22589435
2 0.17836255 0.09674709 -0.0587981 -0.43930277 0.6332419 0.2634412 0.13526985 0.5881966 0.51224315 -0.14488317
5 0.21458961 0.1633153 -0.029012946 -0.46866396 0.6564412 0.23946595 0.0965283 0.6075942 0.45989916 -0.15399599
6 0.15332904 0.110637 -0.08236136 -0.54556906 0.70590025 0.31204385 0.09774675 0.6559718 0.50683 -0.16770741
