7 10
1 -0.28694603 0.41880947 -0.42178562 0.07595198 -0.4977095 0.16184567 -0.39443567 0.23742983 0.21069218 -0.63697106
0 -0.23933351 0.46322036 -0.39106172 0.055801004 -0.5390338 0.06606406 -0.41297638 0.19712454 0.16881 -0.6724447
4 -0.31702656 0.42156902 -0.40195453 0.05798065 -0.50655293 0.063694805 -0.4144441 0.18616793 0.18200423 -0.61712605
3 -0.3240726 0.41667536 -0.3859609 0.035597812 -0.529215 0.06864124 -0.39925325 0.20678897 0.1654021 -0.6476953
6 -0.24792896 0.43783844 -0.3932471 0.023837402 -0.5088742 0.077988304 -0.40460232 0.16108286 0.21257369 -0.6770271
5 -0.24506582 0.3790685 -0.43518415 0.09400772 -0.5053757 0.14578407 -0.3734813 0.16581792 0.15593834 -0.6967409
2 -0.3562456 0.3798217 -0.43394926 0.008550058 -0.46880803 0.18004256 -0.38750213 0.23377344 0.2448348 -0.72581637
