7 10
1 0.5047685 0.14204651 -0.48320237 0.17551287 0.007599144 -0.54158545 -0.08027329 -0.10331873 -0.6757671 -0.33551753
4 0.63579273 0.18570757 -0.4490748 0.2453517 0.04221668 -0.5014436 -0.22359833 -0.1931488 -0.638403 -0.315224
0 0.4964288 0.10463373 -0.4784333 0.1611982 0.025145695 -0.5246557 -0.11342695 -0.18610421 -0.6566886 -0.32483944
2 0.50751007 0.08681403 -0.501094 0.23004986 0.0107262265 -0.49120292 -0.15647648 -0.17011462 -0.6700928 -0.2539463
3 0.47300395 0.11912324 -0.51949054 0.21095523 -0.027754081 -0.5515237 -0.08242391 -0.1553003 -0.6608189 -0.3047195
6 0.5153868 0.14730166 -0.45275727 0.16299406 0.04685965 -0.49979186 -0.10198966 -0.09115954 -0.6622434 -0.25727496
5 0.61110693 0.19051456 -0.51040745 0.25578073 0.019078309 -0.538264 -0.21937221 -0.11857035 -0.6160299 -0.30958998
