6 10
4 0.24678276 -0.27132514 0.093593694 0.7578377 -0.040304247 0.50529796 0.18683812 0.33979395 -0.026092244 0.6321479
2 0.26113322 -0.19824766 0.1208633 0.69823605 -0.045914114 0.47293976 0.19595313 0.3035637 -0.004241166 0.58065164
5 0.2411424 -0.2690362 0.08575833 0.7878812 0.005484099 0.43762127 0.20217806 0.32971776 -0.005691204 0.57958806
1 0.28437844 -0.23595214 0.080675155 0.7055033 -0.06636421 0.4745845 0.21387051 0.34650165 -0.06191869 0.594799
0 0.30276543 -0.2658706 0.1251344 0.74000907 -0.0827135 0.4354755 0.20450808 0.29357308 -0.029166657 0.61826915
3 0.2542626 -0.19245665 0.028906288 0.71614206 -0.008554434 0.4791767 0.15403414 0.3453153 -0.06495854 0.57084996
