7 10
4 -0.51115215 -0.24597421 0.025365315 0.18337603 0.16570438 0.51090014 -0.48989362 0.57034594 0.38637155 -0.13965315
1 -0.49271697 -0.2379483 0.038022015 0.17602855 0.12830552 0.53956383 -0.46601635 0.57052165 0.3708439 -0.19651572
2 -0.460458 -0.21259484 0.08297006 0.17435145 0.11350936 0.48116347 -0.45701626 0.53112966 0.3544577 -0.13979086
0 -0.4990261 -0.2156624 0.04179689 0.20947158 0.18390132 0.4933134 -0.4952232 0.57255095 0.31351942 -0.16255437
3 -0.4257821 -0.16287418 0.0032493868 0.15231924 0.17525485 0.5376344 -0.47946465 0.5690167 0.36935905 -0.2037128
6 -0.58254844 -0.15651569 -0.00014771461 0.215196 0.08304658 0.57276165 -0.5616467 0.6747023 0.32596204 -0.14223981
5 -0.6030014 -0.15960227 -0.034514874 0.15699042 0.07663668 0.5497346 -0.60929745 0.7222613 0.30114803 -0.13336028
