4 10
0 -0.030324832 -0.34578007 -0.3445786 -0.28116775 0.016909333 -0.25785965 0.19034095 0.12951623 0.6863302 0.5874675
4 -0.015285258 -0.31721205 -0.3403876 -0.29693165 -0.025395438 -0.2061951 0.20330052 0.060110793 0.560025 0.4877592
1 -0.11099025 -0.2738986 -0.3324657 -0.2901834 -0.05636091 -0.27956963 0.2403469 0.097406276 0.6197341 0.5682609
3 -0.09194655 -0.33786067 -0.38065803 -0.30972952 -0.061979406 -0.29158032 0.2734085 0.14203204 0.66100806 0.63581073
