6 10
5 0.21332476 -1.0727762 -0.9550231 -0.060890086 -0.66535854 -0.7284278 -0.58927107 -1.4640801 -0.65231717 0.17651339
6 0.13372101 -1.0633518 -0.9777931 0.03791312 -0.62465036 -0.6799564 -0.5566706 -1.4943163 -0.62210304 0.20896548
1 -0.09171464 0.526659 -0.26636586 0.58190733 1.0199622 0.5631172 0.18544197 -1.1282804 0.7973112 -0.33833066
0 -0.15747035 0.5040568 -0.31210026 0.5697536 1.0371398 0.4686898 0.12969467 -1.0764686 0.77323097 -0.35700572
3 -0.100624874 0.46187532 -0.28369153 0.5158991 0.9681719 0.5304097 0.1840005 -1.0891645 0.7484172 -0.26911113
4 -0.103741 0.47064105 -0.25922176 0.54678625 0.87590355 0.4944885 0.1375793 -1.082242 0.6886644 -0.32918212
