7 10
1 0.096788295 -0.16669019 0.35229012 -0.45307422 0.89888585 -0.29181755 -0.051203586 -0.20480509 0.13365665 -0.333709
4 0.16933918 -0.18934795 0.3584721 -0.41459888 0.8283117 -0.24438561 0.022295881 -0.26679304 0.15403078 -0.33069658
3 0.14565825 -0.18541068 0.37732944 -0.3946285 0.875662 -0.30254835 -0.042421773 -0.28241196 0.11444916 -0.27976376
0 0.22339307 -0.14996263 0.34502438 -0.40783426 0.91155845 -0.3242093 0.04941081 -0.29005834 0.19662455 -0.31969506
5 0.063502 -0.15759112 0.35563865 -0.3976601 0.88733 -0.27212855 -0.041475087 -0.17453058 0.14549813 -0.27663475
6 0.11214171 -0.15885282 0.354288 -0.4200875 0.8357777 -0.21105032 -0.064018704 -0.2348233 0.09051687 -0.3052786
2 0.21967468 -0.15604354 0.3538273 -0.43548912 0.90997446 -0.2706025 0.041785315 -0.3125049 0.13821976 -0.3544652
