7 10
0 -0.1071012 0.031490494 0.4555253 0.5130149 0.15494514 -0.7007848 -0.24678072 -0.53769314 0.066593334 -0.1295445
3 -0.06565063 0.029616844 0.46970406 0.5622637 0.11824275 -0.66578853 -0.21216422 -0.551527 0.001507614 -0.07554585
4 -0.15676251 0.03896174 0.45236912 0.5982913 0.09571916 -0.6761282 -0.22933725 -0.5563268 0.021724263 -0.11606091
2 -0.08125178 -0.0044577327 0.47396976 0.5804816 0.1872298 -0.6745355 -0.20927991 -0.5185563 0.008565172 -0.10662938
5 -0.14548637 0.00031657238 0.39450923 0.56821895 0.08309074 -0.7077387 -0.23237115 -0.52543676 0.033870433 -0.14463302
1 -0.1257114 -0.020920994 0.47574908 0.5835781 0.104296446 -0.7364889 -0.1908377 -0.5050581 0.022592777 -0.13238467
6 -0.09985935 0.014531926 0.4748436 0.54404825 0.14942297 -0.7397301 -0.18145832 -0.51367784 0.08129294 -0.09356669
