7 10
6 0.19230717 0.19667327 0.8171345 -0.18157999 0.1457671 -0.6594406 -0.006564559 -0.30704752 0.36687285 0.055257864
4 0.1378821 0.19503915 0.83408844 -0.16156822 0.13140135 -0.68396837 -0.01540366 -0.25336277 0.31193694 0.07282378
5 0.22175069 0.2342372 0.7790333 -0.21679388 0.18400678 -0.659771 -0.087624684 -0.28173593 0.297174 0.08979915
2 0.15643819 0.21547715 0.81251025 -0.16528966 0.22165725 -0.5807716 -0.030761398 -0.22054975 0.37409797 0.113235414
1 0.16392288 0.19865116 0.8061829 -0.22592819 0.21438698 -0.6304828 -0.03988094 -0.26642957 0.31875893 0.07176712
3 0.23456445 0.24671537 0.7918231 -0.2336619 0.17716669 -0.59589595 -0.06877134 -0.30665857 0.3306813 0.038921356
0 0.22236416 0.21079995 0.7832636 -0.23547801 0.20299615 -0.67386746 -0.06868673 -0.24375592 0.25456083 0.12341198
