7 10
4 -0.29930514 0.6851068 -0.4033596 0.10169565 -0.29223663 0.3169077 -0.64697015 0.16407356 -0.27961552 -0.13474175
5 -0.21291128 0.7613939 -0.36773467 0.20324504 -0.21809576 0.25291783 -0.57835835 0.11981122 -0.27568585 -0.073971376
1 -0.22712933 0.7637555 -0.3702945 0.1342891 -0.31615 0.29122493 -0.6207355 0.1253896 -0.1893539 -0.06477402
0 -0.27476367 0.7084654 -0.34614488 0.1794989 -0.30543667 0.32010692 -0.6092109 0.19103596 -0.18103313 -0.08990415
3 -0.20912391 0.72888505 -0.3155689 0.10175149 -0.29817736 0.23115034 -0.6240731 0.16717501 -0.18109275 -0.069008976
2 -0.30480698 0.7521738 -0.33507377 0.16219255 -0.25041538 0.31858477 -0.5832721 0.20955026 -0.21513014 -0.12619275
6 -0.23736367 0.67543983 -0.3223061 0.17809434 -0.21007232 0.31978744 -0.59136367 0.18903038 -0.26257038 -0.14144537
