7 10
5 -0.6705765 -0.21123323 -0.4430254 0.5918336 0.15669423 0.49502072 0.31734267 0.15421154 0.13784342 0.23887606
6 -0.63349694 -0.15187263 -0.48816016 0.54830384 0.12568708 0.46460107 0.21409813 0.0679684 0.11547627 0.13816115
1 -0.59996176 -0.22786197 -0.4991819 0.5043713 0.14642897 0.5015277 0.25927293 0.113322794 0.083855785 0.19602308
2 -0.5969528 -0.2234754 -0.5121372 0.50656974 0.12294251 0.47420514 0.2630567 0.1188987 0.1288032 0.16810878
0 -0.6316983 -0.1704291 -0.5182252 0.532506 0.136059 0.47533622 0.28247857 0.057085603 0.08194126 0.19822098
3 -0.6378411 -0.23326692 -0.5214564 0.5663773 0.14582282 0.49502593 0.23626149 0.07922679 0.1444306 0.20110904
4 -0.65601695 -0.15249386 -0.48305774 0.5489014 0.19275135 0.52085185 0.21313423 0.07727188 0.113002755 0.11758223
