6 10
0 0.1252512 -0.31488335 0.53558815 -0.24055007 -0.27782145 0.39067638 0.81247604 0.056745112 0.13328919 -0.24128494
3 -0.022667311 -0.40937242 0.41026387 -0.39939833 -0.33951828 0.36223015 0.7777729 0.04284496 0.25040278 -0.047491364
1 0.16539808 -0.34697247 0.56687355 -0.17755598 -0.21071593 0.36085644 0.7855873 0.051805172 0.17565313 -0.32221437
2 0.17044191 -0.34258315 0.5626198 -0.23880473 -0.21946532 0.35372674 0.7641005 0.016731782 0.20078269 -0.29184636
4 0.033426564 -0.4241083 0.3473354 -0.39348507 -0.3736152 0.2785072 0.79175967 0.07926621 0.25159663 -0.07234695
5 0.013534784 -0.39209238 0.45265025 -0.42250103 -0.3320391 0.38037792 0.8265276 0.042691797 0.23643544 -0.04161587
