7 10
0 -0.21933149 0.18514667 0.29857227 -0.4992812 0.22272 -0.7192823 -0.33345446 0.33392224 0.04756135 -0.45158908
2 0.0858382 0.1956762 0.13840574 -0.46373844 0.17027806 -0.7831689 -0.4030657 0.23613437 0.1936926 -0.34816745
3 0.25133902 0.30637154 -0.059279293 -0.4853037 0.18476583 -0.8535628 -0.55015224 0.20240031 0.24886437 -0.29525748
1 -0.13962954 0.16416493 0.19934827 -0.549016 0.13699976 -0.7798527 -0.28839847 0.31709924 0.013090212 -0.38967624
4 -0.1645126 0.13658658 0.21330185 -0.53598434 0.13181403 -0.7629182 -0.32428142 0.32433692 0.023268191 -0.41964158
5 -0.15317474 0.15297225 0.22306103 -0.5000521 0.1925036 -0.74821466 -0.3246931 0.29132205 0.030239454 -0.40630028
6 0.2053223 0.33157718 -0.024692496 -0.51940024 0.20566405 -0.8663171 -0.5523525 0.30212778 0.17073943 -0.2713006
