6 10
1 -0.27241647 -0.3136386 0.45809248 -0.557695 0.15002525 0.27355546 0.45628133 -0.15463494 -0.24758632 0.51723564
2 -0.20815189 -0.24492455 0.4564658 -0.5584015 0.22668642 0.32349527 0.49035403 -0.14921479 -0.30783537 0.53623945
5 -0.26564896 -0.32945243 0.456711 -0.51155907 0.19048771 0.22955932 0.47753197 -0.16037337 -0.30087328 0.46706402
3 -0.26669496 -0.32387105 0.4834715 -0.55889165 0.22167715 0.23403054 0.47980407 -0.1348829 -0.26709884 0.41207865
4 -0.23425226 -0.2792441 0.4924949 -0.4845744 0.15662873 0.26218846 0.5121118 -0.15016238 -0.21448511 0.51142085
0 -0.25460112 -0.30984074 0.4751174 -0.5310381 0.23515989 0.2732641 0.4505543 -0.12897292 -0.2806642 0.5035378
