7 10
2 0.27922893 0.33938488 -0.14178143 -0.38259533 0.40258855 0.34258568 0.23351654 -0.7134368 -0.30510762 0.3928134
4 0.33132923 0.34651887 -0.1336664 -0.34968626 0.42185414 0.2903186 0.18149969 -0.71853375 -0.36092594 0.36990863
3 0.32344323 0.32425898 -0.12462856 -0.3832125 0.40207314 0.2836445 0.22191367 -0.63853866 -0.35870948 0.38123003
1 0.31820714 0.3068927 -0.16331877 -0.37760884 0.42256457 0.29303426 0.17355242 -0.67645323 -0.35694996 0.34725747
0 0.33983615 0.3357459 -0.1279027 -0.40761384 0.4102416 0.358231 0.24683395 -0.7244987 -0.31406808 0.3356866
6 0.27640575 0.2980335 -0.11214243 -0.3180156 0.44916847 0.35286972 0.13302295 -0.7188615 -0.33592743 0.36121684
5 0.32686263 0.33356568 -0.10563071 -0.34342676 0.43095812 0.26351494 0.14465758 -0.7013225 -0.3166861 0.3582247
