6 10
1 0.55561733 -0.12207838 -0.24409904 -0.29710987 0.3815497 0.73902595 -0.24936081 0.030999409 0.37430826 0.22865285
2 0.5904803 -0.13203406 -0.24290536 -0.29981133 0.3458209 0.74091494 -0.18482111 0.07038801 0.4070241 0.23903076
5 0.5690463 -0.04952904 -0.28313076 -0.27205977 0.36443546 0.7158805 -0.17969169 0.07060213 0.34317902 0.26815644
4 0.55355066 -0.10088502 -0.2705258 -0.3122742 0.4000231 0.73206365 -0.14907283 0.03521955 0.31823564 0.23561247
0 0.5324478 -0.053326618 -0.20291586 -0.26063398 0.36192477 0.7615106 -0.22872967 0.03985093 0.36185053 0.21919794
3 0.5012033 -0.11450883 -0.28216454 -0.28046697 0.30626976 0.75764155 -0.20167479 0.097961515 0.3306967 0.19830884
