7 10
0 -0.24597073 0.07892244 -0.3081906 -0.11698243 0.70318264 0.17230546 -0.2703094 0.2041272 0.79242206 0.16372223
3 -0.21785273 0.024504557 -0.32350686 -0.052968364 0.71455425 0.1651204 -0.23824292 0.25797123 0.76419336 0.21449842
2 -0.20339116 0.10139404 -0.3477477 -0.07870035 0.68296415 0.13365507 -0.2932196 0.27409795 0.7712322 0.14137964
6 -0.24117179 0.057804476 -0.28363425 -0.08222516 0.694762 0.088174045 -0.31847265 0.22072515 0.7862178 0.15932493
4 -0.17624821 0.06009421 -0.34336126 -0.09025614 0.62881505 0.06800883 -0.2669891 0.22582303 0.7943603 0.21056631
1 -0.17752795 0.072083145 -0.25655237 -0.12615752 0.6819821 0.13386732 -0.31108895 0.23073581 0.76357245 0.17266549
5 -0.14620486 0.03897946 -0.2938893 -0.06743271 0.7065178 0.131249 -0.26808947 0.23501283 0.75786257 0.103395306
