7 10
6 -0.47794643 -0.15995409 0.11571991 0.21454366 -0.0372039 -0.28525037 -0.2827081 -0.8639586 0.021389235 -0.40724733
2 -0.49859738 -0.10953085 0.14465004 0.20413542 -0.03948678 -0.21545422 -0.25646913 -0.92722654 0.049424496 -0.4220402
1 -0.4987023 -0.11331167 0.117024265 0.16368148 -0.075540155 -0.25188968 -0.315631 -0.88031965 0.024130916 -0.42064562
3 -0.44508967 -0.13676271 0.0735251 0.15615046 -0.07387916 -0.31451777 -0.26270986 -0.9484879 0.0327077 -0.40898028
5 -0.47420794 -0.18315937 0.16151503 0.20245938 -0.093539596 -0.27947995 -0.2812784 -0.8441732 0.059413157 -0.4195637
4 -0.46232274 -0.16759183 0.15212946 0.19487555 -0.044776525 -0.23695625 -0.27408352 -0.8884248 -0.011238696 -0.40035635
0 -0.39851043 -0.19671494 0.11741613 0.12630893 -0.120253645 -0.26028097 -0.3240052 -0.8991336 0.015680099 -0.41961825
