7 10
1 0.572908 -0.31766495 0.100434616 -0.3160214 -0.11857442 0.16970724 0.61567515 -0.4901865 0.46982187 0.0021882858
2 0.56020206 -0.3724055 0.0655458 -0.2422681 -0.088048 0.118111424 0.646254 -0.5253631 0.46447316 0.022388918
4 0.6176889 -0.41072673 0.08734269 -0.32252795 -0.043949906 0.10574319 0.5879551 -0.5133381 0.4635782 -0.013964224
3 0.5214763 -0.33813587 0.1125814 -0.2787611 -0.09404812 0.18006642 0.62492317 -0.45600942 0.42547518 -0.03362104
0 0.57082 -0.37078577 0.08527913 -0.2467153 -0.12688881 0.10863301 0.6138766 -0.4573159 0.40091068 0.025510369
6 0.5348065 -0.334055 0.033234607 -0.29392517 -0.08402993 0.16390154 0.6102506 -0.4826017 0.38947216 0.026674207
5 0.57382476 -0.35459772 0.08273513 -0.2517843 -0.053750478 0.12022216 0.6421298 -0.43395656 0.42683828 0.04944496
