7 10
5 0.5550469 0.28551403 0.28845403 0.36329922 0.7327535 0.40415013 -0.34750113 0.017864676 0.028506547 0.1304089
2 0.5799717 0.2578216 0.2931214 0.31998378 0.7102666 0.39720127 -0.3419685 0.07640971 0.013514247 0.12052458
4 0.58567333 0.31187037 0.33024037 0.3577488 0.71750003 0.3239779 -0.33104375 0.015989091 0.008920242 0.059248485
0 0.61838627 0.2947883 0.28850552 0.34741557 0.71326613 0.33769554 -0.2709995 0.08814258 0.05888284 0.16005512
1 0.56609565 0.23108256 0.3046433 0.28687286 0.7050585 0.38347936 -0.31991294 0.08013381 0.06618542 0.13294947
3 0.61673146 0.3137879 0.27767885 0.34977955 0.7754844 0.3398474 -0.2830271 0.06487688 0.06851431 0.14635786
6 0.55334544 0.32451636 0.29443088 0.36348027 0.7212252 0.39413148 -0.28877547 0.09003804 0.0723889 0.07225851
