7 10
6 -0.17614433 0.8807621 0.29103127 -0.095790915 -0.33648223 0.49365228 -0.027382078 0.2251197 0.10299779 -0.40069166
5 -0.11157749 0.8867939 0.27902356 -0.090717316 -0.3524624 0.46527845 -0.05662592 0.21453477 0.035374448 -0.34850383
0 -0.13064937 0.87520653 0.29821005 -0.06238671 -0.34358427 0.46371046 -0.09278118 0.23415223 0.046461985 -0.3555786
4 -0.15063085 0.8605768 0.31490636 -0.016710982 -0.31042093 0.47242317 -0.048195228 0.24968314 0.0944027 -0.32367867
1 -0.11308708 0.9126698 0.32631713 -0.039114356 -0.3085283 0.43809223 -0.038247515 0.1675029 0.035872653 -0.40544218
2 -0.10629679 0.88714516 0.29894298 -0.08905219 -0.26000434 0.46644774 -0.020054162 0.23413563 0.09456016 -0.3919516
3 -0.13485953 0.9323679 0.3381033 -0.02367732 -0.33193466 0.42116484 -0.10600856 0.17732783 0.03416568 -0.3233238
