7 10
1 0.17683516 -0.0204817 -0.30610445 -0.48439807 0.19665036 0.50136364 -0.52976096 -0.66089535 0.41694012 0.0103967115
2 0.22268777 0.005519604 -0.31876266 -0.4197571 0.20645511 0.48711103 -0.49639297 -0.6595098 0.41573983 0.028601667
0 0.1347977 -0.011107484 -0.26265243 -0.47550887 0.17820296 0.43360254 -0.5105576 -0.62483454 0.4137482 0.014044864
5 0.16906485 -0.02250937 -0.26069707 -0.45086583 0.19559339 0.4769196 -0.505167 -0.66059196 0.35821998 -0.042873066
6 0.1786119 0.037273902 -0.32445467 -0.50377744 0.14162308 0.5221093 -0.5505121 -0.6292458 0.38663098 0.06474572
3 0.20909503 -0.021826368 -0.3038618 -0.3908604 0.19652948 0.48268175 -0.4735824 -0.6467548 0.39233837 0.0032905436
4 0.17751504 -0.0136322295 -0.23183276 -0.5098264 0.2187773 0.51601946 -0.4640563 -0.5805846 0.32906368 -0.0071383715
