7 10
1 -0.07518541 0.54229 -0.5672734 0.4232555 -0.07728907 0.47702125 0.49455902 0.1796523 0.14375035 -0.18033013
5 -0.11869414 0.5899817 -0.56688446 0.40395948 -0.112033434 0.46404877 0.506781 0.2093508 0.16808778 -0.22487748
2 -0.08075603 0.58389896 -0.558626 0.41539934 -0.13048668 0.50369614 0.46053654 0.24255453 0.16132392 -0.17460197
4 -0.05823619 0.58451945 -0.5677056 0.34563255 -0.08552307 0.517835 0.5215034 0.20981051 0.08533039 -0.1785316
0 -0.15509656 0.590766 -0.5506137 0.43905708 -0.0782516 0.52658814 0.5164469 0.2199169 0.105295196 -0.17749938
3 -0.09297527 0.5585238 -0.53076994 0.44078597 -0.1575686 0.49183065 0.5339887 0.257566 0.09976116 -0.15518916
6 -0.14870526 0.5401799 -0.55104786 0.43590567 -0.05243819 0.54782826 0.53223944 0.23434582 0.10276241 -0.22635517
