7 10
2 -0.02622696 1.0926207 -0.22600622 -1.0988793 -0.1621567 0.05583613 0.78545994 0.11023262 -1.228768 0.5886718
0 -0.716545 -1.5740772 -0.41396815 0.45427004 -0.33343476 0.1027252 0.93766093 -0.9139065 -1.1833485 -0.6025964
5 -0.095183946 0.86004096 -0.2522689 -0.95021284 -0.15007491 0.1005567 0.6804702 0.1006225 -0.9909728 0.52015877
6 -0.11436141 0.90205073 -0.26396307 -0.94403744 -0.06954442 0.03619331 0.65405566 0.097326666 -1.052547 0.5895376
3 -0.67455727 -1.522954 -0.33541277 0.4015912 -0.3869995 0.106566265 0.8160311 -0.8982328 -1.0868245 -0.52109826
4 -0.5711245 -1.4325848 -0.3615974 0.40683144 -0.3722347 0.13430563 0.84478724 -0.8660448 -1.0120151 -0.51677793
1 -0.11349717 0.8234249 -0.2256325 -0.8348203 -0.110380195 0.06751583 0.6285004 0.087451324 -0.99099493 0.5254361
