7 10
5 0.74261963 0.6165661 -0.1383538 -0.01022499 0.21456863 0.3452152 0.2961232 -0.32077944 0.031110901 0.16128868
4 0.77525383 0.60891986 -0.17006901 -0.064635865 0.17339578 0.37401244 0.3107345 -0.3514397 0.05576273 0.15467484
6 0.7703245 0.6391722 -0.12708129 0.02902413 0.2531327 0.3207981 0.28418362 -0.31688222 0.0856878 0.23343354
2 0.7821861 0.6248202 -0.14770113 -0.045498062 0.22471909 0.34201026 0.27131712 -0.283808 0.06827297 0.2055019
1 0.75087535 0.59263813 -0.1286269 -0.0019772514 0.17808752 0.39788318 0.30856314 -0.31910104 0.07460921 0.2328107
3 0.74341416 0.6509964 -0.104150884 -0.03182774 0.18557109 0.41437864 0.24681671 -0.33656603 0.03030732 0.1599913
0 0.78213006 0.6271686 -0.18958388 -0.07658104 0.18432972 0.38202238 0.34372643 -0.32848185 0.030818647 0.22467683
