4 10
4 -0.95768464 0.30141744 0.06508428 -0.8511255 -0.31983468 0.3766789 0.48534736 -0.32634944 0.47607085 0.41202477
5 -0.96156085 0.33775336 0.1624619 -0.88578355 -0.31287384 0.36227298 0.5833752 -0.3498437 0.46561727 0.45194563
6 0.034065664 0.52390367 -0.28620148 0.28124455 0.529459 -0.254724 -1.2745905 -0.049138844 1.0576463 0.35379404
0 0.07941122 0.49537477 -0.18802214 0.23088041 0.49943548 -0.32176757 -1.1879045 -0.03522869 0.9292393 0.25379795
