4 10
1 0.035756435 -0.2739586 0.09083391 -0.27431896 0.1505293 -0.17003605 -0.96809953 -0.3449034 -0.100060925 0.31576025
5 0.05784212 -0.34016794 0.13273059 -0.19632237 0.11548819 -0.21418743 -0.8594312 -0.3636316 -0.04674149 0.25674525
6 0.09132262 -0.31367022 0.14829744 -0.30159098 0.11906958 -0.2103035 -0.8451745 -0.36031464 -0.056704678 0.21877566
2 0.09103704 -0.28137076 0.052085914 -0.25474104 0.05128885 -0.18867454 -0.8465685 -0.3038959 -0.07182448 0.27786487
