7 10
4 0.56671274 -0.5638236 0.22539626 0.001744008 0.15464418 0.47274137 0.38941637 -0.55817777 0.17292643 -0.12881413
6 0.53565013 -0.53279763 0.31325608 -0.04254748 0.10159659 0.45291495 0.341616 -0.57042116 0.18585819 -0.06446424
0 0.47471425 -0.54782516 0.26156953 0.012714487 0.13934684 0.43323636 0.38832456 -0.5883467 0.20567247 -0.094252765
2 0.49457863 -0.5613515 0.30303425 -0.016829582 0.14986439 0.47338018 0.3330349 -0.58581275 0.1882922 -0.07228177
3 0.5128669 -0.50545144 0.27468354 0.037987556 0.0975893 0.49057382 0.36738124 -0.60642576 0.19732383 -0.11473295
5 0.53673255 -0.54849964 0.2987299 0.016939703 0.13683085 0.4779661 0.37640053 -0.5583979 0.19328849 -0.13116367
1 0.5151117 -0.51135504 0.2432837 0.002455684 0.12289267 0.5013946 0.32260066 -0.6193687 0.17055094 -0.11313071
