7 10
2 0.67033046 0.3960203 0.25760907 0.2881985 -0.33282524 0.20865649 -0.64163214 -0.2781795 0.076133594 0.051844433
1 0.67319906 0.3106499 0.22151104 0.21099189 -0.35638434 0.23220396 -0.6879662 -0.30760953 0.09111629 0.04787175
5 0.63117933 0.3568894 0.23444617 0.30857527 -0.27345523 0.23467934 -0.7186352 -0.32454452 0.082628034 0.0072900127
3 0.6291648 0.27653167 0.29228857 0.27944085 -0.28730512 0.25634617 -0.6711542 -0.28012362 0.029812923 0.052041132
0 0.6202638 0.36981148 0.2846386 0.2104619 -0.30156457 0.22493929 -0.7048069 -0.31472847 0.07191587 0.05659074
4 0.6175222 0.38884738 0.27681592 0.3227343 -0.3184021 0.29318696 -0.72103447 -0.3594147 0.08206481 0.073245496
6 0.6551102 0.39554092 0.2551357 0.24724261 -0.33115014 0.24820651 -0.7016756 -0.27627045 0.012267474 0.08353315
