5 10
3 0.2726443 -0.6714887 0.040483326 0.020561723 0.5447885 0.21024166 -0.5724461 -0.417208 0.022931166 0.25504875
4 0.29243046 -0.66356474 -0.005277439 -0.05145778 0.541782 0.11294988 -0.5241363 -0.3676848 -0.026167754 0.27112785
5 0.24213478 -0.7181917 0.09702603 0.010629249 0.52976745 0.18528053 -0.5319682 -0.45334736 0.0013301454 0.25676438
2 0.22001158 -0.6719036 0.07806117 -0.03495425 0.48981696 0.19942759 -0.5572935 -0.37525037 0.033567633 0.24357593
1 0.23707913 -0.6603217 0.033285875 0.03430168 0.49647036 0.12727374 -0.5203253 -0.34982908 -0.010974314 0.24464175
