7 10
3 0.44891056 -0.7284962 0.23966692 -0.4647728 0.19714428 0.29455352 -0.17989133 0.47487763 0.090506844 0.08970696
6 0.4129992 -0.78777236 0.22173582 -0.45131487 0.21940717 0.27428642 -0.23899703 0.44893405 0.06498088 0.1257044
5 0.47027984 -0.6855095 0.24371555 -0.47397935 0.17943184 0.28975767 -0.21440528 0.47667462 0.060549255 0.103397205
4 0.42120346 -0.75653523 0.28998026 -0.42384818 0.23777153 0.29809874 -0.23196949 0.48054448 0.094901554 0.045182955
2 0.486676 -0.73705935 0.23653944 -0.43559605 0.14799616 0.2439062 -0.17354198 0.49000284 0.055409215 0.0953719
1 0.4799083 -0.72723436 0.23846674 -0.464988 0.21344139 0.23705061 -0.20892738 0.47377267 0.06557274 0.08838553
0 0.4512292 -0.7831668 0.25160834 -0.42420602 0.22473733 0.29237145 -0.2328132 0.46307683 0.037391692 0.051019866
