6 10
2 -0.09166955 0.23520364 0.13547036 -0.70616615 0.8218755 -0.22772829 0.15184194 0.111965336 -0.08181022 0.17594452
1 -0.11430766 0.1547096 0.1760491 -0.68186855 0.8202321 -0.26629493 0.09651683 0.031499542 -0.023741348 0.18746515
3 -0.06828249 0.18989216 0.14379162 -0.6618022 0.7973711 -0.18784805 0.15499565 0.05437536 -0.07631151 0.23524018
4 -0.12041588 0.16836299 0.19903532 -0.66532874 0.8461446 -0.29642785 0.13526219 0.070267454 -0.03784352 0.17759484
6 -0.1568366 0.26489645 0.1610143 -0.7309072 0.8534348 -0.30064094 0.11546728 0.075200625 0.0005614952 0.28100967
0 -0.06411961 0.21829103 0.15138496 -0.7286629 0.8167395 -0.22538184 0.09797909 0.115264155 -0.04380714 0.2662314
