7 10
1 -0.20603916 -0.39186966 0.2885967 -0.013478583 0.43508384 0.30095926 -0.076853685 -0.82778114 0.252527 -0.26383054
4 -0.1880806 -0.3921955 0.24591205 -2.6842272e-05 0.44537967 0.20665812 -0.08328366 -0.78841025 0.23138326 -0.20831561
3 -0.21264131 -0.446549 0.33054045 0.015105072 0.42496583 0.23681705 -0.10177555 -0.85713196 0.33546767 -0.25299177
5 -0.16748571 -0.43873507 0.26728413 -0.05984132 0.43011785 0.25144598 -0.020634161 -0.7854869 0.20815343 -0.23153871
2 -0.16022533 -0.44809526 0.328692 -0.053788826 0.36998254 0.3031423 -0.038530298 -0.809695 0.324808 -0.18416749
6 -0.26596844 -0.42929772 0.33405688 0.044108883 0.40132365 0.28287303 -0.049117178 -0.8767523 0.3755917 -0.20147926
0 -0.22777297 -0.37391552 0.33631065 0.003319868 0.38669008 0.24862355 -0.08503793 -0.793029 0.23745486 -0.2611742
