7 10
2 -0.12334079 -0.50060976 0.2869902 0.17907235 -0.49158105 0.019208102 0.09687658 0.28153497 0.77651215 -0.26803568
1 -0.07519588 -0.5357571 0.25186822 0.1690474 -0.41538137 -0.08442592 0.061253585 0.3185347 0.8002651 -0.2957744
3 -0.12156636 -0.5491401 0.2897103 0.18140729 -0.50278914 0.008297167 0.032655433 0.33283105 0.75175214 -0.30269918
4 -0.11939891 -0.51972175 0.23015997 0.101100564 -0.49294385 -0.05451843 0.08354558 0.32811576 0.79494554 -0.3195695
0 -0.14835273 -0.5107926 0.28620785 0.100460894 -0.45654765 -0.030578023 0.021066848 0.3152279 0.8091093 -0.25205547
5 -0.07834826 -0.50277984 0.22284003 0.09791666 -0.49518403 -0.012762869 0.10163463 0.3466343 0.77675444 -0.32366467
6 -0.044903748 -0.5106753 0.20517243 0.14234799 -0.48230687 0.01197096 0.118253924 0.27828857 0.7914971 -0.32376057
