7 10
6 0.4281663 0.12548478 0.044717632 0.6508113 0.054346755 0.025823494 -0.0027349298 0.27368912 -0.5052752 -0.6397665
3 0.47664887 0.12480661 0.025156079 0.6935677 0.0062621166 0.007896052 -0.05242232 0.22167507 -0.4244409 -0.682153
4 0.46304432 0.03537445 0.021463867 0.650098 -0.011185997 0.044587497 -0.038474623 0.2709379 -0.50081056 -0.68154365
0 0.45294783 0.08272366 0.09624678 0.66722256 0.044747222 0.11965661 -0.033272274 0.21775568 -0.45275107 -0.67630714
2 0.44291204 0.11220939 0.016069384 0.6729738 0.050841544 0.04885453 -0.010226192 0.19374326 -0.51662123 -0.6751409
1 0.49577686 0.05664081 0.12629889 0.62012154 0.014863491 0.11170051 -0.00097277516 0.17633453 -0.48662934 -0.66401285
5 0.43089998 0.023578806 0.09991543 0.64254856 0.017278595 0.07073034 0.024733828 0.2527516 -0.45496255 -0.6405384
