7 10
1 -0.088662446 -0.4314528 0.120150335 0.30821002 -0.5151777 0.072272934 -0.096012585 0.03817 0.80867976 0.48950762
2 -0.1814078 -0.38080317 0.12776542 0.22639641 -0.60331124 0.01153677 -0.117718205 0.07307465 0.7776205 0.5003568
0 -0.14178205 -0.425716 0.07995467 0.31693506 -0.44452825 0.07306906 -0.100353085 0.043759454 0.7968716 0.47025722
3 -0.11806853 -0.38235044 0.059794623 0.29827848 -0.490006 0.040884215 -0.03368629 0.056659795 0.78363895 0.4543526
4 -0.13143656 -0.33719182 0.13348992 0.28602326 -0.5048274 0.09730445 -0.07114662 0.057621207 0.8102904 0.4207339
6 -0.18870424 -0.37589473 0.12273156 0.25767216 -0.5862308 0.04891029 -0.12318795 0.03275103 0.7757994 0.4568193
5 -0.11809569 -0.36836338 0.14750129 0.28524414 -0.5245813 0.039985675 -0.112934686 0.021459036 0.74999964 0.46728373
