7 10
6 0.45854688 -0.6821357 0.27848577 0.30817735 -0.57070637 -0.010916215 0.056522634 -0.20734929 0.16307113 -0.4462988
0 0.43433195 -0.64398146 0.27622843 0.31187126 -0.5097305 -0.058048718 0.12138841 -0.13069709 0.173031 -0.53738624
3 0.4356648 -0.6739621 0.32750052 0.27484074 -0.533239 -0.0619915 0.05905181 -0.18249814 0.14891896 -0.5310515
5 0.43546313 -0.6555538 0.25828266 0.3650277 -0.49740455 -0.079758845 0.11018425 -0.15847376 0.086143374 -0.47600242
1 0.42349893 -0.61316955 0.31872812 0.39223444 -0.57168067 0.0077316067 0.09191119 -0.10955928 0.13043728 -0.5069836
2 0.41042766 -0.65863097 0.22962023 0.31631777 -0.5581271 -0.09269136 0.07780327 -0.19936182 0.07536533 -0.52516115
4 0.3959321 -0.6312038 0.32579303 0.3611933 -0.56814945 -0.04907482 0.12095446 -0.20141357 0.09011714 -0.46856254
