7 10
6 0.024319712 -0.5826056 -0.1714964 0.5569056 0.006787572 0.35533237 0.09884263 -0.2372089 -0.73262537 -0.18107933
4 0.016169487 -0.53847146 -0.17113803 0.52366334 0.057295233 0.39536607 0.17295317 -0.22727507 -0.72257215 -0.17064503
0 -0.00705464 -0.54971826 -0.12142188 0.5201863 -0.04908347 0.36487743 0.12661156 -0.158616 -0.76589745 -0.096530065
3 -0.026204545 -0.5257028 -0.12725918 0.5414717 0.008578309 0.36571288 0.120433606 -0.18591638 -0.7334633 -0.13019826
5 0.018922029 -0.60299563 -0.0916071 0.54479516 -0.022840418 0.38810077 0.11730309 -0.19162424 -0.7657445 -0.1004561
2 -0.050516054 -0.5442696 -0.1082935 0.55434686 0.009048218 0.37159115 0.15746786 -0.14193898 -0.7088082 -0.15938358
1 0.022012552 -0.4962453 -0.11848244 0.5545423 0.03267802 0.38663658 0.13457441 -0.16332422 -0.7581146 -0.14427048
