6 10
0 0.10333866 -0.35732764 1.052386 -0.24599047 1.0193158 0.6794944 0.9421445 -0.48164052 -0.42605454 0.92720443
2 0.10370754 -0.03299165 0.84633934 0.29035372 0.97443455 -1.1143936 -0.50067157 -0.26814505 0.16347694 -0.9948597
6 0.16967387 0.0034170677 0.89791006 0.3028505 1.0093105 -1.2128508 -0.5658229 -0.25339457 0.15475917 -1.0302272
5 0.14181943 -0.045474857 0.871205 0.24203879 0.99979675 -1.1979189 -0.55115205 -0.2924108 0.1945746 -1.0789802
3 0.10458151 -0.30356535 0.9987683 -0.15522225 0.94523954 0.67797273 0.90047073 -0.44420162 -0.33960733 0.87892276
4 0.14087108 -0.2899986 1.0078638 -0.19947283 0.9584017 0.6909254 0.8887756 -0.46901017 -0.34599152 0.9337064
