7 10
0 -0.31308326 -0.0018961653 0.03309322 -0.09409545 -0.57353866 -0.5633402 -0.03957673 0.64132506 -0.48781893 0.16313037
5 -0.20779604 -0.0044985935 0.12810938 -0.14828761 -0.6021844 -0.5134258 0.03445202 0.6060002 -0.44248703 0.12196153
3 -0.28155845 0.025556976 0.037349407 -0.091566294 -0.53953266 -0.5482115 0.03553631 0.66430795 -0.4637751 0.14656273
4 -0.2600794 0.080631875 0.082346044 -0.19551514 -0.5810882 -0.5166494 -0.0632407 0.6684128 -0.48453966 0.16016689
1 -0.19172984 0.02744629 0.08249339 -0.16255201 -0.5744472 -0.5220478 -0.025173217 0.65371346 -0.43899748 0.07511779
2 -0.27233037 0.02002403 0.11010821 -0.06612885 -0.53601676 -0.5512278 -0.005785846 0.672236 -0.5002434 0.13338391
6 -0.28444043 0.06862884 0.046998918 -0.15409204 -0.57349306 -0.510987 0.06393763 0.62943476 -0.41916126 0.13577087
