6 10
0 -0.113848366 0.11025738 0.46037015 -0.38608322 -0.8018714 -0.22608317 -0.31626812 -0.383764 -0.29814973 -0.20663252
4 -0.07451861 0.10724621 0.380737 -0.38706157 -0.6753728 -0.282203 -0.34895393 -0.45083657 -0.30086407 -0.23078679
1 -0.027857052 0.15203786 0.36854064 -0.4140509 -0.76098865 -0.24850236 -0.36534756 -0.44584927 -0.30189326 -0.23199062
2 -0.13664602 0.17779389 0.42845792 -0.3271828 -0.7390537 -0.26208436 -0.33409008 -0.40511414 -0.19880234 -0.20026504
3 -0.09415642 0.1914968 0.44196552 -0.3151192 -0.7603233 -0.30290467 -0.3482476 -0.41926074 -0.29312256 -0.21406807
5 -0.13189138 0.14502539 0.42038032 -0.39736292 -0.76245666 -0.28949565 -0.28072208 -0.43784815 -0.22851396 -0.15573837
