7 10
3 -0.14259133 0.20938386 -0.62991697 -0.030803967 0.20158967 0.08453072 -0.13758965 -0.6388556 0.0760115 -0.72768587
2 -0.0625565 0.19352919 -0.6479834 0.04143343 0.20655511 0.07583553 -0.15027395 -0.6349617 0.03794858 -0.67750335
0 -0.16175528 0.12686147 -0.63088685 -0.012554974 0.18824774 0.09610016 -0.16080582 -0.61648685 0.012087749 -0.6938475
4 -0.12229522 0.17132154 -0.6229457 0.02711903 0.17096515 0.12933847 -0.10708352 -0.5965454 0.0035370025 -0.6662909
5 -0.10944193 0.16027114 -0.61150986 -0.024362693 0.18518607 0.12052125 -0.20311563 -0.629288 0.019863354 -0.6957768
1 -0.1648972 0.13972013 -0.62964046 -0.043171562 0.1053989 0.10554554 -0.1932688 -0.6150306 0.036371738 -0.6635363
6 -0.09554806 0.13163024 -0.59625137 -0.050567374 0.11982409 0.08065376 -0.19829103 -0.59556156 0.051082246 -0.6853695
