7 10
0 0.31564364 -0.61951804 0.08988509 0.38674825 -0.30114207 -0.18516353 -0.09238081 0.58573836 -0.013399196 -0.5032492
4 0.38377717 -0.63837045 0.04222645 0.45346022 -0.31250355 -0.18904866 -0.13975526 0.5910937 -0.051797826 -0.4817908
2 0.39165226 -0.6617665 0.07780444 0.4319003 -0.2190206 -0.22622825 -0.09961286 0.56969583 0.015291835 -0.48971766
3 0.3750291 -0.644391 0.07069836 0.4538389 -0.23866008 -0.16624041 -0.05740262 0.56808984 -0.057200477 -0.50161576
1 0.33609766 -0.6656394 0.057054095 0.42831743 -0.24345875 -0.17178434 -0.09559393 0.5611948 -0.016655503 -0.503557
6 0.37980804 -0.6449948 0.090911426 0.3414584 -0.27584693 -0.15501274 -0.05838189 0.5526799 -0.018633151 -0.49728972
5 0.36393857 -0.6018907 0.08233912 0.44432253 -0.3001948 -0.24074194 -0.11900964 0.58624846 -0.0299555 -0.52643853
