7 10
5 0.089718126 0.73537785 -0.24578363 0.12985593 0.13758916 0.7224036 -0.34529108 0.18493716 -0.19404638 -0.20193829
1 0.16289972 0.7224039 -0.2831351 0.093723476 0.10369537 0.74347323 -0.3478377 0.18919645 -0.18324406 -0.16789612
2 0.1088667 0.73882884 -0.23127815 0.15264055 0.08801158 0.7154575 -0.35438606 0.1496107 -0.15538646 -0.23866934
3 0.11674856 0.7346426 -0.29385525 0.098518796 0.07173577 0.70695007 -0.3554486 0.16684896 -0.21272413 -0.24594748
0 0.16370095 0.71425325 -0.1807984 0.10300991 0.10914686 0.71048635 -0.32145527 0.20810474 -0.24626091 -0.20333752
4 0.1827996 0.7456433 -0.24612315 0.082125545 0.052127253 0.72494686 -0.28254652 0.13672294 -0.25734514 -0.1830646
6 0.096741274 0.69789565 -0.25664958 0.13087888 0.1087334 0.74816304 -0.25868776 0.19204657 -0.24028333 -0.22893266
