7 10
1 0.5158532 -0.44080234 -0.40110898 -0.6113782 -0.049864013 0.43397593 -0.61309904 -0.013819009 -0.021338403 -0.018188378
0 0.5211898 -0.498369 -0.32624924 -0.57867503 -0.023089066 0.34677476 -0.6206582 0.012897291 -0.12188208 -0.07457325
5 0.5626978 -0.44808266 -0.37888402 -0.507022 -0.032333605 0.31747872 -0.59846264 -0.00420917 -0.11302243 -0.03818422
2 0.59861034 -0.4291452 -0.3495942 -0.5697195 -0.11601927 0.3945486 -0.59270126 0.03815235 -0.12834533 0.012337836
4 0.5404115 -0.4345906 -0.34638506 -0.58220875 -0.09762802 0.39673018 -0.5689817 -0.015107525 -0.078518584 -0.053927448
3 0.52306783 -0.4809059 -0.39776406 -0.5671889 -0.03675532 0.39516735 -0.61273915 0.00946018 -0.04026722 -0.052830514
6 0.5320394 -0.44521242 -0.3884638 -0.5365523 -0.057147045 0.39013836 -0.4779556 0.039804805 -0.07522449 -0.014546845
