7 10
2 -0.20696692 -0.53008807 -0.5430118 -0.14769758 0.15757139 -0.46438104 0.5819725 0.113287136 -0.5396942 0.09520205
4 -0.1621689 -0.5209841 -0.54467434 -0.115474656 0.18868335 -0.4677851 0.5363482 0.10085718 -0.5210681 0.038351644
5 -0.15657455 -0.5365543 -0.48935398 -0.19740184 0.107619256 -0.4489446 0.5699003 0.11455743 -0.53160816 0.014232369
1 -0.100125894 -0.50996244 -0.51279867 -0.16753058 0.19851804 -0.44140214 0.4928274 0.14331868 -0.5898795 0.069846675
3 -0.13858841 -0.4642997 -0.46783426 -0.17218953 0.13825616 -0.46873504 0.544227 0.10783466 -0.5539541 0.073448
0 -0.167083 -0.4962578 -0.4993106 -0.14514883 0.13032927 -0.50896645 0.55531293 0.09525304 -0.57763064 -0.007914221
6 -0.17244948 -0.4226374 -0.47389838 -0.09596131 0.17729528 -0.46633244 0.5520853 0.10700439 -0.57218075 -0.003550916
