6 10
1 -0.27798262 0.74758416 1.2204078 -0.7560244 0.28974682 0.03801335 0.84392995 -0.26641995 -0.6054891 0.5122264
3 -0.31661484 0.7071801 1.2356976 -0.70071137 0.27433035 0.069975376 0.9217179 -0.23471715 -0.656582 0.4460546
2 -0.30115741 0.6651042 1.2853341 -0.74817705 0.2023578 0.011481188 0.97619087 -0.2762714 -0.6513448 0.49438232
0 0.4426281 0.35644418 1.033262 -0.029857311 0.19344464 0.43884513 -1.4704587 0.6190046 -0.22366488 -0.26479924
5 0.5082864 0.44032946 1.0457948 -0.05062167 0.21615253 0.45888904 -1.4600478 0.6717767 -0.2110839 -0.24301767
4 0.55157626 0.45034248 1.0178891 -0.07068668 0.26812232 0.414602 -1.4762472 0.63589 -0.12239162 -0.20051251
