7 10
3 0.5095122 0.339725 -0.15765981 -1.1453487 -0.03971979 0.9094269 -0.48949203 -0.0724538 0.097260974 0.46468356
2 0.47830614 0.372426 -0.161667 -1.1268202 -0.025086248 0.83404195 -0.50087255 -0.119770974 0.14497212 0.4841751
1 0.5120388 0.3283779 -0.09155951 -1.1249604 -0.11797562 0.91544807 -0.46249795 -0.10180092 0.11498543 0.4817735
5 0.57032824 -1.6300609 0.13186029 -0.060416672 -0.0066733677 -0.8961956 -0.64002925 -1.2470804 0.10353418 1.4018147
6 0.57572114 -1.5740424 0.060809776 -0.07717379 0.012246907 -0.8340582 -0.630253 -1.2576039 0.06734343 1.42304
4 0.42630228 0.44997424 -0.085692056 -1.176822 -0.026719281 0.8943064 -0.45004684 -0.02280567 0.0620162 0.4769313
0 0.50133353 0.2975812 -0.0885048 -1.1023273 -0.12934199 0.85922045 -0.52773046 -0.07491676 0.06804453 0.5061899
