6 10
0 0.30575162 0.47381455 0.17788608 -0.0342802 -0.28636503 -0.48289904 0.030023236 -0.6299865 0.11978046 -0.54318
1 0.28777882 0.5709839 0.26445556 -0.050258763 -0.24948722 -0.41143858 0.0048689386 -0.641328 0.12289988 -0.54618174
3 0.28958693 0.5383524 0.21947469 -0.023779565 -0.22929534 -0.43666336 0.09247176 -0.6391266 0.09000115 -0.5322452
4 0.2677622 0.54401976 0.2014826 0.0077969567 -0.27335364 -0.47436234 0.012336115 -0.6036528 0.060968284 -0.5324614
2 0.2786483 0.5683494 0.23336248 -0.022607207 -0.26786852 -0.50154567 0.06119611 -0.6321062 0.054397147 -0.56691223
5 0.27778125 0.5763694 0.27946347 -0.046109505 -0.23060015 -0.48155725 0.002404985 -0.6786208 0.0981597 -0.6061021
