6 10
3 0.4534396 -0.09635843 0.37035477 0.6442588 -0.26533642 -0.6607386 -0.09114179 -0.16251813 0.07094558 0.2342042
2 0.5010493 -0.08187123 0.41409817 0.5831995 -0.27693522 -0.5741362 -0.04596156 -0.2252712 0.053559016 0.18401782
1 0.4784312 -0.1776416 0.471318 0.6677306 -0.18648408 -0.67405105 -0.06294976 -0.1584466 0.111547954 0.15030727
4 0.46272334 -0.1523736 0.42266715 0.61620986 -0.25868484 -0.68698907 -0.121635936 -0.14590348 0.05065259 0.20912743
0 0.4812484 -0.26613045 0.45459026 0.68166345 -0.24217813 -0.6865713 -0.08717177 -0.072114065 0.0904476 0.14803644
5 0.41671035 -0.22120105 0.42564324 0.6929125 -0.20479688 -0.6684233 -0.15928149 -0.13164009 0.0431865 0.22000042
