7 10
1 0.44665444 0.257244 0.41933712 0.33709604 -0.20780152 -0.11789412 -0.68393975 0.03705192 0.46851474 -0.24800451
4 0.48584104 0.24037883 0.4828759 0.29024518 -0.16897076 -0.17224775 -0.6708592 0.09053266 0.4334822 -0.28391454
0 0.46848938 0.29579273 0.50115967 0.3061049 -0.16982202 -0.12813057 -0.64113235 0.059951946 0.45817357 -0.24573001
2 0.41375858 0.2746923 0.48418504 0.32380483 -0.1554352 -0.086636126 -0.65626603 0.047740337 0.4665513 -0.21739556
3 0.477877 0.26697147 0.51406056 0.33638602 -0.19833459 -0.11878414 -0.6775641 0.047984555 0.48347223 -0.191726
5 0.44831073 0.30988082 0.5069411 0.33813584 -0.22920644 -0.14946908 -0.65224874 0.04369637 0.49897325 -0.24982
6 0.4385247 0.25338128 0.5295434 0.28714767 -0.17436098 -0.18065827 -0.64429885 0.07301211 0.42253408 -0.27158618
