7 10
4 0.29597074 -0.080500074 -0.09679196 -0.21883366 -0.23891106 0.6889216 -0.51214194 -0.1963348 -0.37571028 -0.55756086
3 0.38089913 -0.095851354 -0.05500513 -0.28607976 -0.16175139 0.71746475 -0.46220866 -0.25169548 -0.33535978 -0.44648373
0 0.34974548 -0.10548681 -0.075040594 -0.2736593 -0.19368456 0.63717014 -0.41737774 -0.25489146 -0.37835503 -0.52075005
1 0.34958997 -0.055273376 -0.013010788 -0.21314622 -0.19452204 0.6848039 -0.48046455 -0.23798662 -0.33948523 -0.5240127
2 0.36231014 -0.012594864 -0.031765837 -0.2936793 -0.25418773 0.68857515 -0.46735814 -0.1625893 -0.38543758 -0.48633477
6 0.32227796 -0.11953306 -0.111934386 -0.24213243 -0.22550113 0.6918643 -0.44387704 -0.27254996 -0.39472252 -0.55050343
5 0.3280743 -0.10485569 -0.093850546 -0.29601732 -0.17287248 0.70523006 -0.4884296 -0.21581121 -0.32843304 -0.5029571
