7 10
1 0.4275811 -0.36197206 -0.26010212 0.21629035 0.2919613 0.00971203 -0.08895503 0.28098756 -0.82037604 -0.33690828
0 0.483442 -0.36766073 -0.26772115 0.19741718 0.32751706 -0.01809764 -0.10140076 0.27783242 -0.8222647 -0.33130282
4 0.41694343 -0.28414991 -0.2013982 0.17192823 0.30096456 0.010555979 -0.14269379 0.3390608 -0.84767544 -0.36174044
3 0.45265275 -0.3601029 -0.19958545 0.19478391 0.33280292 -0.03736759 -0.14212231 0.2497283 -0.774294 -0.27115574
2 0.36723316 -0.32132214 -0.25868523 0.26475748 0.28687236 0.018172093 -0.077258565 0.31967777 -0.8678421 -0.40062955
6 0.436231 -0.36401144 -0.25996304 0.20739332 0.33941284 0.0073677916 -0.1032459 0.25599718 -0.7486045 -0.3512987
5 0.39414796 -0.30775562 -0.25241062 0.1919822 0.2579486 0.027018435 -0.12697431 0.29730406 -0.80362815 -0.36171213
