6 10
2 0.22381374 0.2666806 0.12393616 -0.52492994 -0.41037807 0.07095435 -0.37988713 0.7657547 0.33491927 -0.17626517
4 0.1298751 0.18451881 0.061754342 -0.5455559 -0.4017092 0.005942973 -0.41694814 0.7739788 0.35749516 -0.17843917
5 0.22442949 0.26170385 0.05868451 -0.53677344 -0.39063567 0.007868237 -0.33876875 0.804616 0.33217064 -0.14351979
3 0.16183707 0.20044757 0.09917931 -0.5091823 -0.38851017 0.08402288 -0.35712537 0.7412523 0.31293494 -0.17853542
1 0.23174147 0.23201567 0.15744212 -0.48784798 -0.3430322 0.10082548 -0.40683404 0.8494741 0.27416202 -0.11009263
0 0.15033068 0.26128915 0.077263854 -0.46008363 -0.42371958 0.1123738 -0.37558934 0.7484544 0.23922782 -0.15335557
