6 10
2 0.51577896 0.09117801 0.4755464 -0.20573527 -0.38808656 0.20010243 -0.16476107 -0.0261074 0.7780036 -0.15122448
3 0.5272457 0.09667546 0.45871496 -0.17924374 -0.3767745 0.26400617 -0.1899879 -0.03321718 0.7338146 -0.07559892
4 0.5168564 0.04342187 0.45406535 -0.24657606 -0.3847899 0.23018458 -0.15832481 -0.08405324 0.76998085 -0.13531573
1 0.5397372 0.09623271 0.42194468 -0.2055616 -0.33993378 0.2795917 -0.19916627 -0.09091493 0.76862806 -0.07191661
5 0.535233 0.06381583 0.45975122 -0.2394629 -0.31293628 0.24440765 -0.14567833 -0.09294127 0.76815534 -0.11641074
0 0.5396462 0.12521937 0.48327562 -0.2620786 -0.33471262 0.28221226 -0.10401065 -0.09881077 0.7252134 -0.115850285
