7 10
1 0.38283277 -0.26118788 0.29721078 -0.43845528 -0.38510448 0.14943267 -0.19257145 0.7809829 0.3250855 0.24891537
4 0.39793107 -0.29206336 0.2393785 -0.42853507 -0.40628207 0.1129565 -0.15744574 0.7724442 0.26374 0.22034056
3 0.29813585 -0.23968235 0.2884448 -0.36225787 -0.334528 0.13033013 -0.20557453 0.801151 0.29041278 0.25532463
0 0.3511261 -0.22586435 0.25850162 -0.41825905 -0.33477974 0.15432066 -0.18811338 0.7981677 0.31704202 0.20593071
2 0.36942187 -0.23435277 0.2302784 -0.4158432 -0.42113727 0.19356377 -0.14197569 0.8275069 0.26066115 0.21622856
6 0.33380342 -0.25529793 0.26186404 -0.39806306 -0.39077708 0.13175377 -0.14827086 0.7668457 0.2591179 0.25191703
5 0.312141 -0.2583134 0.26813266 -0.3824552 -0.3496345 0.10127313 -0.1358037 0.78009397 0.2652722 0.22406714
