7 10
5 -0.7944115 0.022395292 -0.12954682 -0.16300397 0.19933178 -0.31787837 0.4727265 -0.23849781 0.47275755 0.22977881
1 -0.76004 -0.022267858 -0.1506755 -0.22357741 0.20786145 -0.31843078 0.5055078 -0.21465197 0.4606602 0.2531307
2 -0.7913376 0.016747419 -0.15006022 -0.15377505 0.16712455 -0.3815579 0.5091405 -0.24767135 0.4341272 0.32332858
3 -0.8080151 -0.015466068 -0.17224589 -0.20674348 0.11296161 -0.29259446 0.44910184 -0.26308534 0.44688606 0.24747565
6 -0.7545654 -0.02698417 -0.14237502 -0.22239389 0.17638941 -0.33820623 0.5320467 -0.27635965 0.41426066 0.31903794
4 -0.7786652 0.023664484 -0.10243242 -0.18917312 0.13257225 -0.3643208 0.5121697 -0.20591457 0.42700365 0.28604484
0 -0.8217683 0.0039339056 -0.09155691 -0.17416269 0.15037696 -0.3456487 0.4410519 -0.21507446 0.44156456 0.27902275
