7 10
2 -0.38021776 -0.05313093 -0.6065816 -0.33916995 -0.4233217 -0.25415793 0.2266667 0.4128858 -0.3052064 -0.42453924
4 -0.42526463 0.114885725 -0.676061 -0.47460693 -0.3610203 -0.23522711 0.24944302 0.36361897 -0.22148374 -0.325232
5 -0.3579978 0.09119975 -0.5977245 -0.46087867 -0.368589 -0.2730778 0.23559466 0.38957423 -0.27986905 -0.36513144
3 -0.4260017 0.091570035 -0.65500945 -0.50372064 -0.33979732 -0.2033764 0.25786668 0.41176257 -0.28887445 -0.32227597
6 -0.33153474 -0.12851775 -0.60995334 -0.31311113 -0.40529615 -0.2892935 0.26945215 0.41563836 -0.38520312 -0.48737535
1 -0.30920565 -0.013377665 -0.5956536 -0.42145002 -0.39026773 -0.24951464 0.25759143 0.33186206 -0.3388425 -0.4008367
0 -0.34462076 -0.09798898 -0.58121693 -0.39137605 -0.3975491 -0.26904178 0.23326236 0.3353692 -0.37752992 -0.43830875
