6 10
3 -0.44708902 -0.87389296 -0.99880195 1.0095838 0.42705584 -0.5050444 0.106896594 -0.6478875 -0.61194587 0.83175105
0 -0.66583246 0.659896 0.01833709 0.51263386 -1.3312893 -0.81077385 0.45924756 0.26593798 0.6840297 0.2439004
1 -0.37334892 -0.8566823 -0.97906625 0.9787938 0.36580598 -0.46253234 0.07995623 -0.5413071 -0.6047469 0.8045519
5 -0.40745738 -0.7725789 -0.95731425 0.9651765 0.37081772 -0.47592142 0.111898944 -0.57194287 -0.5343656 0.72278214
2 -0.5877846 0.6094276 -0.035377294 0.42001542 -1.2979654 -0.79664004 0.4114881 0.31223902 0.71007276 0.2474721
4 -0.5904561 0.56452525 -0.08313237 0.4173837 -1.1911795 -0.71780694 0.3805565 0.25592747 0.6037054 0.2530322
