7 10
6 -0.26750696 0.4241597 -0.29301625 0.29702783 0.25600904 -0.6752609 0.05204409 0.43733546 -0.10665488 -0.52072877
3 -0.29799962 0.4193175 -0.20777942 0.3599483 0.19178234 -0.6435511 0.101494096 0.38136795 -0.020394146 -0.5884097
4 -0.33128035 0.41615084 -0.263961 0.29280442 0.24769217 -0.66656953 0.046157755 0.43048877 -0.059453 -0.5409848
5 -0.29064918 0.45116457 -0.28218699 0.3050128 0.25039947 -0.61274314 0.055253524 0.420195 -0.103375636 -0.5573765
0 -0.27487063 0.41786376 -0.2320821 0.33644912 0.21454169 -0.6579182 0.06510092 0.35557202 -0.04115286 -0.5922168
2 -0.25504905 0.43040073 -0.2710989 0.38895482 0.21480113 -0.6610901 0.06264055 0.3932235 -0.11451844 -0.53593946
1 -0.30584762 0.37330145 -0.27345547 0.3316593 0.2666881 -0.6429945 0.10754793 0.36181352 -0.056642596 -0.546025
