6 10
3 -0.37287164 0.031676725 0.37799677 -0.34090677 0.7026396 -0.25899452 0.4139534 -0.052056137 0.23612416 0.41712663
4 -0.46790326 -0.03146276 0.3532709 -0.37569255 0.7238834 -0.27288777 0.40481022 -0.038627032 0.2770022 0.38363683
0 -0.4473653 0.038513847 0.39499953 -0.32840335 0.7173483 -0.21930107 0.42120704 -0.020914085 0.1929225 0.40985212
2 -0.43078023 -0.0023074823 0.33291695 -0.2829521 0.6605351 -0.2727998 0.37708637 -0.07202023 0.2618208 0.4114596
6 -0.4224773 0.03144422 0.3581312 -0.30501813 0.6723069 -0.2684802 0.3865682 0.0011651157 0.21211518 0.35142156
5 -0.45386958 0.032624573 0.3668642 -0.31025296 0.67218196 -0.29490343 0.34875944 -0.043846346 0.21862167 0.41136828
