7 10
4 -0.7534808 -0.230689 -0.3068215 -0.27229214 0.45308483 0.417782 0.266285 0.39009818 -0.008449691 0.10439379
2 -0.7026239 -0.21806648 -0.2813888 -0.25953075 0.4447555 0.46380863 0.23490821 0.33921212 0.013393279 0.12298947
1 -0.73040706 -0.24545673 -0.3327625 -0.28308946 0.43098098 0.41026503 0.18038946 0.30518502 -0.04284767 0.15328535
3 -0.7661443 -0.22253378 -0.28171295 -0.2503533 0.38620067 0.47148818 0.2685232 0.4005292 -0.013759832 0.1318335
0 -0.75114214 -0.17182529 -0.30454996 -0.2818742 0.41843942 0.5156927 0.22422892 0.33063248 -0.032455653 0.1312049
5 -0.74567527 -0.2820309 -0.32802922 -0.22567324 0.38920474 0.5415484 0.2951812 0.34638283 -0.028443873 0.18877296
6 -0.7038516 -0.15629712 -0.2797203 -0.30258664 0.42041442 0.43155637 0.2074072 0.36159506 -0.02077029 0.14236715
