6 10
0 -0.17496479 0.16991414 -0.2961884 0.10514615 -0.19331001 0.4811346 -0.117122844 -0.44965753 -0.8124654 0.2835969
2 -0.1744285 0.15078469 -0.38214302 0.16395135 -0.14102063 0.4425936 -0.07804477 -0.4823456 -0.8420954 0.30333072
1 -0.2271302 0.18071677 -0.33539858 0.170143 -0.16156618 0.4984875 -0.06815273 -0.44598934 -0.8130974 0.29125986
5 -0.18530563 0.22081283 -0.3926667 0.08343076 -0.20259653 0.49934682 -0.08807758 -0.4252339 -0.8065443 0.3307933
4 -0.15141249 0.18560304 -0.30861154 0.12531714 -0.16460007 0.44565794 -0.031417206 -0.44395092 -0.8336307 0.2410896
3 -0.22673951 0.12448698 -0.369168 0.1061255 -0.16341218 0.48971432 -0.09584354 -0.41529742 -0.8022097 0.2910246
