7 10
6 0.0339138 -0.09071783 0.09126632 0.4059826 -0.4040709 -0.30892113 -0.6133716 -0.53836924 -0.40727592 0.2483866
5 -0.032537155 -0.09738766 0.11980424 0.3696453 -0.3256481 -0.34693557 -0.62539047 -0.582257 -0.5305476 0.17350107
3 0.012242556 -0.049731497 0.029946174 0.40585795 -0.3936144 -0.27772152 -0.6291328 -0.5942035 -0.48336062 0.19974735
1 -0.0060406383 4.6129873e-05 0.08482725 0.38519025 -0.33432028 -0.3687338 -0.5773533 -0.5487176 -0.54472196 0.23820591
2 0.048038617 -0.042182777 0.09841455 0.39235654 -0.34350646 -0.27385512 -0.5917856 -0.61111236 -0.5082531 0.17733248
0 0.06439628 -0.064480744 0.050986324 0.36430037 -0.35426062 -0.37039417 -0.6267171 -0.58052224 -0.48071826 0.18661149
4 0.016720952 -0.013597556 0.103639126 0.3416692 -0.41365722 -0.3793967 -0.6089623 -0.5552874 -0.5276841 0.1752239
