7 10
5 0.12647235 -0.24196672 -0.2363413 0.47315153 -0.1345162 0.7291156 -0.39227548 -0.47766882 -0.43225902 0.08636438
6 0.08597864 -0.23383597 -0.25829068 0.4754946 -0.120740525 0.71224976 -0.33893222 -0.46772638 -0.475033 0.0013502795
2 0.16500416 -0.20127375 -0.22106983 0.46543494 -0.08446433 0.71354675 -0.36746117 -0.43388748 -0.49644977 0.048573688
4 0.18482065 -0.20054536 -0.2001977 0.504102 -0.087120146 0.6795206 -0.38293433 -0.41441092 -0.49796823 0.01294047
3 0.09387834 -0.22984502 -0.2062098 0.40973556 -0.12440032 0.7032379 -0.39485198 -0.47538027 -0.46818045 0.033834603
0 0.13722076 -0.14710708 -0.2684589 0.44452748 -0.08457107 0.71563673 -0.37163424 -0.4015243 -0.50459313 0.05214187
1 0.12956136 -0.1980063 -0.20448668 0.44976676 -0.11608096 0.6622998 -0.37756294 -0.44639596 -0.48452324 0.03985373
