6 10
3 0.4254193 0.79099226 0.21307577 0.032437142 -0.06435086 0.20208812 0.13946977 -0.4748693 -0.4304093 0.20156695
4 0.39036763 0.7495993 0.2780432 0.11761298 -0.05793736 0.1325634 0.12595457 -0.5351286 -0.4415072 0.11548567
0 0.47820944 0.78059566 0.22584537 0.08130273 -0.053430177 0.17385985 0.17329638 -0.552429 -0.40580845 0.13469781
1 0.42126685 0.7815288 0.24442926 0.10094881 -0.018756049 0.23550302 0.10245564 -0.4636865 -0.3964704 0.13735825
2 0.35218933 0.7471908 0.2830685 0.046342004 -0.020858102 0.20993301 0.116153695 -0.52132094 -0.3994506 0.0860579
5 0.46398318 0.7801454 0.2633021 0.05990128 -0.114918 0.18722159 0.20972212 -0.4912796 -0.3740479 0.18561186
