7 10
6 0.09000564 -0.29905537 0.7398824 -0.09406119 0.4158566 0.15389267 0.012599036 -0.14885071 0.5094064 0.5570974
5 0.05273948 -0.3332123 0.76890427 -0.17208444 0.44520164 0.1363115 -0.040865816 -0.08963004 0.5250524 0.48394656
4 0.039878715 -0.30849957 0.7228742 -0.17740358 0.42246565 0.11658031 -0.062029064 -0.09306315 0.5305072 0.5557246
1 0.10486413 -0.29773945 0.70578927 -0.16309609 0.4094061 0.15539545 0.0109977545 -0.06122486 0.5034029 0.5018984
0 0.10977364 -0.32262316 0.6763451 -0.18056203 0.4508803 0.112011254 -0.037892073 -0.1005266 0.47968712 0.5080793
2 0.0551567 -0.3188069 0.7286457 -0.10777393 0.451328 0.15142283 -0.018547894 -0.12342463 0.46492177 0.55082494
3 0.12668113 -0.3154915 0.7076568 -0.11956208 0.42218998 0.18953489 -0.0050974125 -0.11268921 0.5476149 0.5615237
