6 10
5 -0.27553818 -0.6251233 0.98844177 1.123538 0.00017207835 -0.0016352322 -0.37552744 -0.9373792 0.45551246 1.1349801
6 -0.2528657 -0.69625807 1.0020223 1.165662 -0.07052741 0.031329837 -0.45178878 -0.9200693 0.4721159 1.1461178
0 -0.8348072 0.36716247 0.41225645 -1.2962612 -0.000550184 -0.26645145 0.30317754 -1.0913862 -0.0878554 -0.05256434
4 -0.8470633 0.39094383 0.45719635 -1.304367 0.00984134 -0.179596 0.29959095 -1.0759107 -0.094017245 -0.034354873
3 -0.7483217 0.29946253 0.41878143 -1.1948528 -0.059104204 -0.22748448 0.25013638 -0.9711515 -0.00950217 -0.031783566
1 -0.7904948 0.2924301 0.42785165 -1.2473285 0.0012008229 -0.2064408 0.24692406 -1.0499253 -0.021405173 -0.048017554
