7 10
2 -0.007770652 0.14464994 -0.42998785 -0.6007678 -0.08189427 -0.14388622 -0.58230716 0.3931274 0.5523673 0.13777651
5 0.027794229 0.07098466 -0.35141236 -0.64250135 -0.0782891 -0.16786575 -0.57348025 0.418638 0.5017298 0.20569842
1 0.06129385 0.14190117 -0.39431286 -0.55333287 -0.013435714 -0.09855816 -0.6046721 0.33760807 0.56797945 0.19468093
4 0.057207428 0.0717366 -0.42074785 -0.6219198 -0.019733625 -0.15820928 -0.608404 0.39796624 0.54759276 0.18213531
3 0.07100312 0.0845133 -0.35140538 -0.63570344 -0.0038855716 -0.163096 -0.60611916 0.3459654 0.5999707 0.13569522
0 0.00017520029 0.13154694 -0.39646938 -0.59618396 -0.01969565 -0.105498016 -0.58114266 0.40580693 0.571249 0.13819699
6 0.0048189564 0.11180031 -0.39058918 -0.61084706 -0.059107754 -0.16807781 -0.5632176 0.40902314 0.54957235 0.13343695
