5 10
5 0.4221713 0.12109582 0.080236405 -0.014871516 -0.49751204 0.41456053 0.1683048 0.4308644 0.4215517 -0.66840297
2 0.4741153 0.10507961 0.08792827 0.019259866 -0.5281701 0.3941499 0.16216682 0.42260522 0.44668007 -0.6667088
0 0.42720526 0.13007556 0.13727431 -0.053082928 -0.52790284 0.37187368 0.1427811 0.44340906 0.4197464 -0.5811771
1 0.4431801 0.11868836 0.07003175 -0.050521933 -0.46282455 0.30583158 0.1868527 0.41392532 0.3968592 -0.6172399
4 0.39510944 0.044997677 0.120467976 -0.045123443 -0.42224273 0.36253905 0.17367584 0.3983344 0.40887186 -0.5737153
