7 10
2 0.018305685 0.17832027 -0.61962277 0.7994522 0.2759677 -0.35760483 -0.23929583 0.10740154 -0.22313341 -0.19962323
4 0.0105689 0.3547426 -0.7360146 0.77658993 0.26109153 -0.23520613 -0.32002786 0.15265487 -0.13427162 -0.077676974
1 0.010746229 0.23411041 -0.68274415 0.7378741 0.27399558 -0.32735988 -0.28062692 0.1743796 -0.18661618 -0.09807155
3 -0.011915494 0.358725 -0.658848 0.7640914 0.21757784 -0.32799187 -0.2493026 0.10376638 -0.17033733 -0.16169846
5 -0.067260526 0.20224328 -0.54914427 0.80499655 0.3350372 -0.387589 -0.25499642 0.118727624 -0.17320521 -0.22434153
6 -0.07587151 0.24350306 -0.5563907 0.7835428 0.3070687 -0.40620825 -0.22611824 0.07025221 -0.11405707 -0.2047264
0 0.06361731 0.368439 -0.70925564 0.75427264 0.23917116 -0.23850603 -0.3243218 0.15557054 -0.150115 -0.09823693
