7 10
0 -0.39401725 -0.0076795146 0.4282925 0.5527643 0.68571794 0.0036497158 0.20045848 -0.5403094 0.19867459 -0.018379107
3 -0.37569776 0.0074696485 0.38339975 0.5465335 0.6532762 -0.038449023 0.12935893 -0.52162987 0.2954231 0.047250412
4 -0.4221753 -0.036465593 0.38209394 0.56231165 0.6065482 0.008055016 0.17051467 -0.50375944 0.25825718 0.062354002
6 -0.4225402 -0.009869652 0.40074477 0.53953606 0.6009427 -0.0007724235 0.08201675 -0.48077914 0.26537117 0.039755736
5 -0.40558162 0.032504797 0.3714955 0.5215549 0.60216975 0.013975888 0.09919781 -0.4811178 0.3124436 0.043948054
2 -0.43710408 0.025941785 0.4052576 0.55358607 0.65384704 -0.052139428 0.19337143 -0.4865138 0.29602176 -0.020069882
1 -0.40491217 -0.0099900365 0.38705316 0.57826823 0.68869436 -0.03704602 0.10618336 -0.4973172 0.26761594 -0.0045205485
