7 10
1 -0.6507778 -0.33048078 0.008788589 -0.21796794 0.5286906 -0.45611537 -0.37023458 0.39798647 -0.08967411 0.22875927
2 -0.6278881 -0.33720204 0.04349296 -0.20733768 0.50778687 -0.40053028 -0.46099266 0.46583185 -0.1355126 0.21987407
5 -0.5512734 -0.34887472 0.0140569685 -0.24045578 0.5031919 -0.41946945 -0.40237617 0.4403025 -0.15619224 0.28866017
4 -0.6001054 -0.32326615 0.097283654 -0.23740804 0.5272783 -0.42106444 -0.44904116 0.40226802 -0.1320585 0.2883442
3 -0.64296407 -0.3353811 0.05857211 -0.2164139 0.50411355 -0.39027596 -0.42592373 0.40944338 -0.12805036 0.23098817
0 -0.6190494 -0.28285575 0.07507187 -0.23918054 0.4866902 -0.41886187 -0.4112086 0.42252135 -0.1596147 0.27204055
6 -0.673342 -0.30210012 0.078763396 -0.18126154 0.47312352 -0.4328524 -0.42855507 0.39701238 -0.14585976 0.30848318
