7 10
2 0.64291614 0.22359078 0.32075328 -0.47627744 0.56750727 -0.08129701 -0.28052643 0.5401684 -0.12442102 0.01991156
5 0.6227107 0.1696711 0.30640447 -0.49257052 0.5591794 -0.025741877 -0.2573477 0.52065927 -0.1160889 -0.055048946
6 0.59992 0.24113409 0.3517335 -0.44222122 0.5677844 -0.08256989 -0.22421521 0.5438815 -0.123875074 -0.036512405
0 0.5752103 0.17396037 0.36230162 -0.4814276 0.50255406 0.009143252 -0.23118003 0.4985256 -0.06469198 -0.058153577
4 0.6098194 0.19274944 0.37411532 -0.49566722 0.5170271 -0.047710173 -0.26901376 0.54982054 -0.03883791 -0.031418245
1 0.6135007 0.24984637 0.37777337 -0.4543818 0.50051856 -0.005222704 -0.29687852 0.5170199 -0.074689604 -0.059654318
3 0.62153804 0.22201042 0.34103128 -0.467694 0.55405235 -0.03851134 -0.23207988 0.51845497 -0.04035675 0.020548912
