7 10
1 0.34043106 0.03832303 0.6340872 -0.0715648 -0.27819175 -0.33305863 -0.6232867 0.15449479 -0.3668892 -0.37064067
2 0.31155628 0.024453154 0.69661164 0.0032713204 -0.2709091 -0.3442149 -0.66058624 0.23464103 -0.35421166 -0.3237876
4 0.37126297 -0.015723342 0.673855 -0.044021025 -0.25028235 -0.26592827 -0.6093416 0.20523866 -0.36500633 -0.34720868
6 0.34822854 -0.069273695 0.6111729 -0.077782094 -0.2693216 -0.279811 -0.659064 0.15163754 -0.3984455 -0.29985264
5 0.3358939 -0.062282793 0.6308067 -0.044312183 -0.29822654 -0.28395078 -0.5569537 0.21110845 -0.34626374 -0.29177076
3 0.37100518 -0.085189715 0.6044592 -0.047324784 -0.2594419 -0.27540845 -0.6610515 0.21705845 -0.38432506 -0.33490992
0 0.35357255 -0.07021668 0.61832345 -0.06538395 -0.3038706 -0.24232194 -0.5917191 0.19267687 -0.36699337 -0.3251536
