6 10
2 -0.28285006 0.2900661 0.30123442 -0.0853394 -0.64143413 0.40932897 1.2404923 -1.3222862 0.44989094 0.057745676
6 -0.2223697 0.30166 0.29296353 -0.03665179 -0.6518455 0.39332017 1.240348 -1.3287777 0.49936873 -0.039833635
5 -0.16143344 0.26586977 0.23234425 0.00060041656 -0.692723 0.47773945 1.2798882 -1.3605752 0.5089442 0.017352644
0 -0.85618913 -0.6870341 0.48731798 -1.1798174 -0.88691837 -0.4296577 -0.0013871992 0.6547256 0.58122325 0.018937375
4 -0.9211878 -0.70511115 0.42908728 -1.2206678 -0.9043573 -0.43888953 -0.02981478 0.5800964 0.6040578 0.041945755
3 -0.8745599 -0.69165903 0.48983696 -1.1717137 -0.8882172 -0.447621 -0.049102113 0.5990207 0.61198676 0.028909951
