7 10
0 -0.0053353813 -0.72258806 0.034102503 0.01105603 -0.34150794 -0.68691367 -0.13229749 -0.46388498 0.4106062 -0.18876065
2 0.00967 -0.6930607 0.016705543 -0.070327915 -0.29213536 -0.6973337 -0.14723 -0.42792666 0.38131735 -0.14779982
1 0.036883157 -0.72008216 -0.044838913 -0.08188057 -0.29491326 -0.63659936 -0.097945295 -0.4106818 0.36030164 -0.13261747
3 0.02233058 -0.73638755 0.0037074091 -0.029358748 -0.27563992 -0.69295824 -0.16436009 -0.41477358 0.39948708 -0.14929353
5 0.060208723 -0.67196274 0.0573863 -0.07122496 -0.30882978 -0.63524044 -0.17515647 -0.43236127 0.4024583 -0.15038058
4 -0.007055041 -0.6724408 -0.037954006 -0.038865127 -0.32966846 -0.6769637 -0.17610557 -0.379208 0.39217758 -0.19844338
6 -0.001866427 -0.61550266 -0.024439998 -0.044541605 -0.3145059 -0.6756363 -0.14475703 -0.4027677 0.320241 -0.11212334
