7 10
0 -0.44642735 -0.4830274 -0.41424927 -0.04743757 0.21202278 -0.33350033 -0.098621756 0.43953875 0.67460304 0.14082003
6 -0.38314825 -0.48210195 -0.42412814 -0.069823705 0.16732362 -0.32856473 -0.10622089 0.45258996 0.6849496 0.15143545
5 -0.37958178 -0.5176911 -0.42261076 -0.10420598 0.14999202 -0.28700992 -0.029469598 0.4565905 0.68719614 0.108732074
4 -0.4617467 -0.50317293 -0.34671322 -0.036134023 0.13312246 -0.29188174 -0.11166189 0.45102736 0.71356374 0.1838878
3 -0.44348052 -0.50544477 -0.3908532 -0.030006528 0.21922301 -0.25126642 -0.066862956 0.45747438 0.6878 0.16373356
2 -0.44454533 -0.5056637 -0.40783775 -0.030594368 0.19946113 -0.28389814 -0.086423345 0.43962923 0.6847797 0.09738118
1 -0.4456404 -0.48334238 -0.37241805 -0.09240935 0.19282311 -0.3056909 -0.08288445 0.40539923 0.628326 0.13251454
