7 10
2 0.5690778 0.02363218 -0.1173591 -0.34795737 -0.09986471 -0.036166962 -0.23897003 -0.1733033 -0.5558303 0.7479076
1 0.5494418 0.03562497 -0.129023 -0.37879485 -0.04875203 -0.025608497 -0.29884267 -0.099847056 -0.5025477 0.74657243
4 0.528306 0.031021485 -0.14361209 -0.36927065 -0.032288525 -0.079033196 -0.31710365 -0.18022457 -0.5408748 0.72222984
3 0.4669624 0.03102086 -0.14302036 -0.38066304 -0.010540231 -0.05241521 -0.26384532 -0.17733173 -0.49614468 0.76037246
0 0.48557508 0.004621764 -0.08947369 -0.3553776 -0.030929904 -0.055050172 -0.29107106 -0.101575695 -0.46566546 0.7908686
6 0.5643968 0.01259674 -0.10184898 -0.3790893 -0.09671495 -0.009851009 -0.23332417 -0.1522246 -0.48327342 0.73227394
5 0.4944515 0.05581375 -0.12472062 -0.38594663 -0.08407318 -0.06323358 -0.2255751 -0.08950025 -0.5003498 0.73565835
