7 10
5 -0.42634743 0.04556322 -0.014255149 0.6205626 0.52897674 0.117894046 -0.37961647 -0.17093031 -0.5680451 -0.17265499
6 -0.40481675 0.10261884 -0.06954439 0.6414104 0.5340118 0.104927815 -0.3377534 -0.09172384 -0.5049889 -0.19862458
4 -0.41508394 0.0878448 -0.087398954 0.6711181 0.5763111 0.06854401 -0.31608313 -0.14588389 -0.51994306 -0.13415717
1 -0.4434346 0.13983652 -0.05911068 0.59334105 0.573381 0.08949545 -0.35156214 -0.19403239 -0.50561416 -0.15552497
2 -0.4528524 0.07183441 -0.049886994 0.66756594 0.54480624 0.11665657 -0.34973943 -0.10313387 -0.5488494 -0.1803983
3 -0.4049477 0.0978885 -0.036057297 0.68913877 0.54963857 0.10951673 -0.40513638 -0.14320709 -0.58438474 -0.15330054
0 -0.37876147 0.087439135 -0.04824448 0.66996783 0.5212751 0.09866453 -0.38675654 -0.16879933 -0.54116404 -0.10644435
