7 10
6 -0.5955444 -0.26700294 -0.534935 -0.4020378 0.09696661 -0.2162943 0.5111343 0.269542 0.12118971 0.40172604
1 -0.5683678 -0.34148473 -0.48233876 -0.41037825 0.039377406 -0.16276716 0.5349613 0.25861618 0.17124847 0.40029666
5 -0.5588227 -0.29143855 -0.54507357 -0.3620745 0.123767056 -0.15287961 0.53629297 0.31373945 0.14638199 0.41012272
3 -0.5301578 -0.33537057 -0.5642586 -0.40686014 0.112262025 -0.21231017 0.4991905 0.2972779 0.18460383 0.3718594
4 -0.618988 -0.26914653 -0.52033347 -0.38096848 0.11003564 -0.16328147 0.5076866 0.23714544 0.16126083 0.3945644
2 -0.5674573 -0.31304234 -0.5377912 -0.3846947 0.06962771 -0.18147905 0.51974344 0.25850224 0.12416236 0.39007422
0 -0.5855081 -0.2452071 -0.5475604 -0.34449765 0.063690715 -0.122154295 0.5041513 0.31515703 0.1601678 0.43367383
