6 10
4 0.071908936 -0.60209274 -0.013820354 -0.5626177 0.40574783 0.6399595 0.052911524 0.115515575 0.37350205 0.028238622
1 0.08212418 -0.55856127 -0.06156803 -0.5417174 0.3802983 0.57532924 0.069273405 0.15400058 0.3764267 0.07465162
0 0.10007126 -0.58063185 -0.112131484 -0.52191323 0.3844868 0.61640704 0.022797368 0.11764151 0.37987667 0.099064626
5 0.0192214 -0.6402 -0.075325735 -0.51806796 0.4265716 0.6027906 0.06045319 0.14169548 0.35548785 0.09050907
3 0.002956294 -0.5663475 -0.024923308 -0.5660602 0.43773133 0.64362454 0.09076614 0.1860246 0.41140547 0.06586879
2 0.028433254 -0.5857219 -0.058055688 -0.5731055 0.37864673 0.6556218 0.09828853 0.10661993 0.3619882 0.042977083
