6 10
1 -0.04125395 -0.67097807 0.7087558 -0.13656136 -0.19969445 -0.33358583 0.0555942 -0.5463841 0.21110371 -0.18879597
2 -0.026015218 -0.6125854 0.72729516 -0.1263175 -0.2589057 -0.34640068 0.0144475205 -0.53985864 0.16534853 -0.18983655
4 -0.018697323 -0.59290344 0.73041564 -0.07279879 -0.2180632 -0.35164046 -0.026849149 -0.45898908 0.17471318 -0.17868929
0 0.03245906 -0.60606027 0.75173414 -0.06088291 -0.22167347 -0.26508147 0.020426868 -0.5522046 0.11433874 -0.22014791
5 0.03012288 -0.60549647 0.77089876 -0.048882395 -0.22647823 -0.27194026 0.010215911 -0.52025956 0.16564243 -0.14211816
3 0.024413886 -0.60930336 0.7096565 -0.0404125 -0.25035733 -0.33226374 -0.0010988628 -0.46037203 0.15035126 -0.15546674
