7 10
6 0.4299011 0.25195917 -0.38187504 0.10563751 0.42593986 -0.5676749 0.4411168 -0.30360517 -0.37641078 -0.015901957
4 0.40061393 0.26222056 -0.43290907 0.17490894 0.46427813 -0.54393107 0.4848992 -0.34076792 -0.3538737 0.05634673
5 0.41678017 0.25056568 -0.42595086 0.16758016 0.46556246 -0.4759206 0.50141436 -0.3727882 -0.40446562 -0.002965478
2 0.45031905 0.2767579 -0.39368197 0.109165505 0.43540716 -0.5582718 0.4593755 -0.35788783 -0.31154096 -0.034000542
1 0.41752467 0.24799524 -0.36333936 0.09279395 0.4556098 -0.55464005 0.4484952 -0.2812995 -0.3590149 0.016248554
3 0.42490944 0.26406685 -0.3897076 0.07519808 0.43860233 -0.5245716 0.44165063 -0.3561532 -0.39527908 -0.03936607
0 0.4053059 0.2232355 -0.4592001 0.114075966 0.4467719 -0.54411966 0.41722655 -0.40259334 -0.4018544 0.032023422
