7 10
1 -0.29120636 0.24247102 0.1016402 0.121974364 -0.25429025 -0.533663 -0.5222818 0.3237153 0.4294607 -0.5159611
2 -0.29804975 0.23252079 0.08915496 0.054800343 -0.28851724 -0.5604393 -0.5466454 0.317963 0.4380555 -0.48475435
0 -0.3317044 0.25798216 0.07912382 0.13445507 -0.29275906 -0.5383775 -0.48829004 0.29702553 0.41917935 -0.5275052
4 -0.2694399 0.23322214 0.1270095 0.034748502 -0.29099387 -0.59714437 -0.57046884 0.3686422 0.42539567 -0.52695084
5 -0.33750573 0.19534135 0.08025105 0.042899895 -0.23339301 -0.57671183 -0.56278884 0.36282903 0.4230235 -0.493679
3 -0.30710074 0.18180497 0.03388747 0.10475623 -0.224505 -0.5781425 -0.5208046 0.31340006 0.37961486 -0.5261012
6 -0.33337492 0.24039294 0.14023411 0.1311734 -0.32164752 -0.56384873 -0.5534275 0.36787805 0.39216775 -0.53390515
