7 10
0 0.27183038 0.12078665 -0.15717328 -0.20094275 0.44672823 0.25798547 0.70614433 0.537112 -0.13434494 -0.3234279
2 0.24068044 0.111319184 -0.1524273 -0.21262582 0.51350814 0.2714658 0.76134366 0.4984338 -0.1579252 -0.32005993
5 0.25037637 0.018454308 -0.13565993 -0.20362075 0.4891023 0.21409805 0.7948472 0.5702329 -0.13974915 -0.34473222
4 0.25185877 0.050703898 -0.14861411 -0.1750351 0.5151921 0.24758986 0.77966994 0.51143205 -0.19436137 -0.3203861
1 0.2304012 0.07925968 -0.17972507 -0.12765577 0.5203019 0.22291782 0.7566056 0.51049304 -0.17949049 -0.33945462
3 0.21603175 0.07359718 -0.12899458 -0.12142118 0.44534686 0.23828156 0.7696891 0.5303994 -0.13696706 -0.33792818
6 0.2517079 0.10453376 -0.18950114 -0.14854792 0.4761411 0.2042991 0.7556593 0.48285127 -0.10049867 -0.2902403
