7 10
2 -0.7115351 -0.15234773 0.078869574 -0.25512823 0.4137046 -0.26031524 -0.63166004 0.15993051 -0.23800594 0.36398932
5 -0.7277787 -0.10429737 0.109593146 -0.19459671 0.3687271 -0.33451033 -0.64517164 0.14068247 -0.2227982 0.28470483
6 -0.6628044 -0.15743116 0.08236758 -0.20758821 0.41677964 -0.33287364 -0.6189206 0.15071382 -0.2617057 0.3738886
0 -0.7043968 -0.13452275 0.0473719 -0.1836631 0.4109843 -0.30924273 -0.6745203 0.11192865 -0.21039608 0.34091333
4 -0.6743922 -0.09571505 0.050605647 -0.18029095 0.3605226 -0.3352225 -0.6402931 0.19307612 -0.2555709 0.30172977
1 -0.7093555 -0.112043045 0.03134976 -0.16777489 0.37440076 -0.32720706 -0.6232012 0.17030025 -0.23087476 0.29295003
3 -0.6974342 -0.13288918 0.12300815 -0.24247757 0.33552432 -0.33695054 -0.6288617 0.08647862 -0.22761402 0.26854318
