7 10
1 -0.036413897 0.35924947 -0.110523805 -0.5787548 -0.34387597 0.7009588 -0.23746811 0.008964992 0.48832917 0.35470104
0 0.027783686 0.30971512 -0.055225786 -0.5727351 -0.3557618 0.6403556 -0.19086619 0.0045713973 0.4868478 0.3283428
4 -0.0026008035 0.27315533 -0.06337668 -0.5990854 -0.3422321 0.6248686 -0.26848242 0.06924486 0.52452636 0.25174892
2 -0.05234642 0.29408848 -0.019710729 -0.59067124 -0.4024337 0.63686424 -0.26475185 -0.012293227 0.47133958 0.26136088
3 -0.0726418 0.2567572 -0.115472384 -0.53193307 -0.42570323 0.6771846 -0.20854445 0.050415877 0.49454236 0.33447748
5 -0.030062936 0.28241938 -0.04587373 -0.50596297 -0.39020267 0.6311356 -0.17446037 0.07686446 0.4898452 0.31911978
6 0.023447389 0.29923108 -0.073235124 -0.5561794 -0.30737385 0.65870965 -0.19644062 0.06468446 0.45587155 0.27984446
