7 10
1 0.18352446 -0.16580828 0.46864328 -0.47566667 0.39514998 0.565192 0.5023028 0.26069477 0.46389082 -0.08046006
4 0.13507932 -0.18106464 0.40204656 -0.49609616 0.339427 0.5508464 0.44341204 0.2698331 0.4904632 -0.08081822
0 0.14802037 -0.27235174 0.5443846 -0.455525 0.3895139 0.53989357 0.4976666 0.19296947 0.45110667 -0.14175943
5 0.1906619 -0.21207696 0.46860886 -0.4473356 0.3522479 0.5095685 0.5118787 0.25667953 0.44050092 -0.05796388
6 0.22371346 -0.26789048 0.39972556 -0.47850826 0.29040253 0.4920688 0.43203267 0.24661817 0.482868 -0.048307735
3 0.22014962 -0.16886634 0.5010877 -0.42321676 0.29640028 0.5477381 0.4840124 0.24308132 0.45644298 -0.09670551
2 0.1807531 -0.1947146 0.49080443 -0.45669845 0.3365705 0.4800084 0.5041259 0.23643044 0.40789932 -0.13957709
