6 10
1 -0.2876014 -0.15472427 0.66690975 0.29089165 0.010128872 -0.05062437 0.058375325 -0.66250426 0.39276972 0.41022763
2 -0.27776504 -0.22754043 0.6424252 0.28503895 0.043704297 -0.034514535 0.1316401 -0.6543626 0.40439078 0.43025285
4 -0.2795885 -0.20277816 0.6188671 0.32494095 0.026862536 -0.01080209 0.11571753 -0.6579468 0.39735368 0.37300578
0 -0.25759897 -0.16176216 0.6571523 0.3615889 0.08216876 -0.12160678 0.06688286 -0.7329886 0.38957065 0.2589388
3 -0.23961605 -0.18003477 0.6501948 0.28465095 0.031630807 -0.08648965 0.15132825 -0.6970524 0.37531617 0.41134658
5 -0.28165206 -0.18303563 0.6378481 0.37654468 0.0085271895 -0.09551288 0.08080106 -0.7516964 0.43332073 0.25895172
