6 10
1 0.21986033 0.7810848 -0.2826769 -0.15827043 0.466831 0.12480359 0.60150135 0.2813627 -0.043609943 -0.16756739
0 0.16355026 0.737558 -0.27621907 -0.13313162 0.45918366 0.0842542 0.6612369 0.3017674 -0.047152214 -0.16787842
2 0.18948041 0.7276404 -0.27481297 -0.109312356 0.42060652 0.1386038 0.64648134 0.25661263 -0.08636746 -0.14169939
5 0.22718038 0.71263236 -0.32584846 -0.13085791 0.49848607 0.07468347 0.5579642 0.3102274 -0.017974602 -0.20070611
4 0.23850864 0.7309671 -0.21856739 -0.0444273 0.47676152 0.09625781 0.6407951 0.29015163 -0.14404014 -0.20925242
3 0.25664485 0.68480945 -0.32114327 -0.09091659 0.51924545 0.039452743 0.6522334 0.33344832 -0.12305751 -0.17850295
