4 10
0 -0.43970743 0.21014102 0.11702137 -0.3234286 -0.58879495 -0.01950084 -0.009088611 0.3448499 -0.621486 0.065514036
1 -0.2823 0.14301549 0.07483998 -0.27456358 -0.46115214 -0.08358114 -0.034349486 0.27358204 -0.52288026 0.023189917
6 -0.3384186 0.17791408 0.008571876 -0.27584076 -0.4008682 -0.06266062 0.010822721 0.2240352 -0.4968046 0.0008679795
5 -0.3040851 0.10481535 0.030436235 -0.25092825 -0.43285114 -0.020191967 0.032182105 0.18283384 -0.44065168 -0.001361531
