6 10
1 -0.22942944 -0.02349529 -0.06475785 -0.06848979 -0.9072136 -0.14242549 0.622515 -0.0016353284 -0.3611166 -0.2664022
2 -0.15457955 0.052287333 -0.09532335 -0.03262867 -0.90579623 -0.11903284 0.6026348 0.038750373 -0.37708685 -0.27255356
4 -0.20659642 -0.016911315 -0.10066349 -0.10758994 -0.83564746 -0.05764789 0.6147304 -0.036076546 -0.3860347 -0.20179626
0 -0.20413586 0.018091295 -0.026929993 -0.0731303 -0.87463605 -0.10648292 0.62060773 0.035501 -0.41230205 -0.18753529
5 -0.18090451 0.056992542 -0.10139953 -0.0322034 -0.88340056 -0.10915799 0.5969717 -0.025192535 -0.38041246 -0.24113554
3 -0.1313888 0.030056294 -0.030158846 -0.0906609 -0.87577635 -0.050066024 0.55527747 0.053676527 -0.39227927 -0.21619393
