7 10
0 0.10537815 0.57307625 0.18753536 -0.008143989 0.46375236 -0.5206988 -0.44982377 0.52814454 0.02839808 0.14829755
2 0.09024118 0.5766969 0.18371326 -0.031744275 0.49179384 -0.53982764 -0.4032583 0.56609505 -0.023568375 0.24308096
5 0.12833883 0.5800353 0.1614026 -0.08746677 0.5035486 -0.5599817 -0.3670261 0.5580815 0.022419384 0.2496207
3 0.0725431 0.6226949 0.13049279 -0.0820271 0.51116675 -0.4968072 -0.45196927 0.5127164 -0.014510173 0.18823223
4 0.15605393 0.58424896 0.17765647 -0.014315816 0.44234574 -0.5124648 -0.4128436 0.5728402 0.05917294 0.19959761
1 0.13759218 0.5369375 0.11835941 -0.07519925 0.4783103 -0.5084499 -0.418612 0.5260485 0.060706917 0.22348885
6 0.13154313 0.6113905 0.17428215 -0.06914266 0.4595061 -0.5318898 -0.39063948 0.54214483 0.020132521 0.22258845
