7 10
2 -0.7504293 0.35599515 0.1971227 0.19366266 -0.6928769 -0.26427212 0.02411641 0.38978654 0.064156786 0.17521313
0 -0.7790599 0.3710912 0.19881816 0.21621926 -0.6294959 -0.29345846 0.06413016 0.31228247 0.019652897 0.19461751
4 -0.7294844 0.39102137 0.23578027 0.21806207 -0.63664913 -0.30542317 0.035268456 0.34746245 0.0054280097 0.09982775
3 -0.70321625 0.3256774 0.24739148 0.23142907 -0.6429164 -0.32471418 0.018826302 0.35717276 0.03232889 0.15297835
5 -0.7550809 0.3057658 0.19375359 0.22498973 -0.6394811 -0.32755026 0.0280515 0.31397322 0.0040563378 0.17210987
6 -0.7255337 0.3568051 0.24235931 0.16708866 -0.64871836 -0.3272258 0.0037003618 0.32935753 -0.0019836272 0.12041881
1 -0.7221396 0.30739298 0.22561441 0.2257378 -0.5781921 -0.2808563 -0.031541996 0.37364975 0.055563577 0.13145497
