7 10
0 -0.5673006 0.20606896 -0.023877015 0.14737806 -0.18026264 0.705997 0.47580352 0.35171583 0.4359422 0.034666706
2 -0.55929434 0.15818182 -0.06364042 0.11470845 -0.16918753 0.7213744 0.4767967 0.33684337 0.47254092 0.0021193272
5 -0.52926207 0.19968018 -0.008397339 0.08217416 -0.14697944 0.6898679 0.49630862 0.3079015 0.5002305 2.9937884e-05
6 -0.5484403 0.20838512 -0.02572254 0.15193763 -0.11887856 0.65252507 0.47628203 0.36071005 0.41756156 0.048173524
4 -0.5223055 0.22634599 0.018451832 0.13789801 -0.1363726 0.73822045 0.43270066 0.31847292 0.5116999 0.067203626
1 -0.5117869 0.14531495 -0.066056736 0.16150223 -0.17398883 0.6560433 0.49190015 0.35915294 0.48092553 0.04812652
3 -0.53980476 0.13559751 -0.0014420149 0.0798752 -0.19956255 0.6651888 0.43875 0.36689213 0.431919 0.0024453276
