7 10
4 0.7457591 -0.5357984 -0.4598543 0.3394983 0.04116804 -0.20306556 0.033132415 -0.29255712 -0.02691238 0.2804484
1 0.7890937 -0.5655541 -0.4420956 0.2711764 0.05560192 -0.20935917 0.051441573 -0.25016552 0.040736668 0.29422417
5 0.7542114 -0.52694243 -0.41139966 0.36497873 0.058949154 -0.114467815 0.08610977 -0.2877288 0.008630172 0.2766425
2 0.7543142 -0.4976052 -0.47546723 0.29094967 -0.015329768 -0.25709513 0.10529934 -0.28595358 0.045517072 0.3154485
0 0.7284619 -0.5605412 -0.47812864 0.26932102 -0.03375141 -0.18424536 0.06653069 -0.32378048 0.041389782 0.2954722
6 0.73371214 -0.48962802 -0.47240365 0.3794001 -0.033486187 -0.15298818 -0.012894948 -0.3493719 -0.03639501 0.26609516
3 0.8159267 -0.5224734 -0.5180572 0.2589693 0.010963607 -0.26989144 0.043705378 -0.2701773 0.009728468 0.26418227
