7 10
1 -0.5851901 0.15542722 -0.08607742 0.15268339 0.24454999 0.31243336 0.41913083 -0.40989953 0.36019778 0.66162735
0 -0.5502472 0.11010694 -0.10028111 0.1617353 0.26546845 0.2747896 0.40202606 -0.45330435 0.35075784 0.6601846
2 -0.5647336 0.10311202 -0.1552937 0.16387841 0.24293967 0.34448144 0.41600192 -0.4420319 0.31978068 0.6366075
3 -0.55741817 0.17500666 -0.16280906 0.08709514 0.29885197 0.32205746 0.37874585 -0.46704525 0.27202135 0.60634625
4 -0.4821921 0.13253084 -0.16208524 0.11251423 0.24321592 0.29893497 0.3981207 -0.4205371 0.3497781 0.67376226
6 -0.557084 0.1886987 -0.13589267 0.16276798 0.2666123 0.29694498 0.40629405 -0.46684867 0.3396216 0.6071045
5 -0.5287659 0.09622336 -0.10825657 0.13887282 0.3120455 0.31971335 0.41328454 -0.46474394 0.32533878 0.58718413
