6 10
1 -0.15779752 0.7886014 -0.47540504 0.13638091 0.14054604 -0.42038086 -0.14071321 -0.14680524 0.4168469 0.40076673
0 -0.06138935 0.79768914 -0.4217559 0.12734534 0.16045539 -0.47315776 -0.091887645 -0.14653467 0.40147138 0.40534452
2 -0.15996109 0.75755167 -0.40048158 0.08855304 0.17269443 -0.45940146 -0.119149216 -0.12926143 0.44028726 0.3546681
5 -0.11211673 0.74710745 -0.42952034 0.1420689 0.13143507 -0.4602065 -0.07008687 -0.187544 0.4527178 0.3569972
4 -0.113710836 0.76779616 -0.49166924 0.18321785 0.07588481 -0.45087224 -0.11463765 -0.17146057 0.39949638 0.3737583
3 -0.056267653 0.7741557 -0.48543474 0.11000039 0.16307107 -0.5085233 -0.099003926 -0.16798356 0.38232216 0.41644186
