7 10
5 -0.6546707 0.46302506 0.2273585 0.15404744 -0.6841399 0.21958105 0.19275516 0.12157704 0.31031275 0.10775019
6 -0.6571877 0.52804047 0.21137667 0.14172715 -0.66013676 0.2088599 0.21915166 0.13947259 0.22221147 0.1487662
4 -0.6668465 0.43720245 0.17090248 0.21306634 -0.6750662 0.23768477 0.19628072 0.15223086 0.23492569 0.10799824
1 -0.61577827 0.48606646 0.19940445 0.15544675 -0.6578677 0.23196863 0.24658917 0.12726988 0.27342865 0.05291019
3 -0.6495599 0.4970726 0.16585329 0.20970161 -0.65682036 0.28148934 0.22839065 0.0808082 0.25500694 0.15077683
2 -0.6339687 0.48585835 0.21834427 0.18058065 -0.6363968 0.25636873 0.24621922 0.080648065 0.23805067 0.15615119
0 -0.66501004 0.5254295 0.17530155 0.19023016 -0.63264406 0.26411846 0.26389033 0.12005414 0.32122996 0.09727533
