7 10
2 0.0484578 -0.095626384 0.06650408 -0.27650636 0.59702617 0.22304569 -0.50680494 0.67765856 0.30731326 0.16933884
6 0.01764638 -0.06796579 0.038069908 -0.3313681 0.5555589 0.22861506 -0.5144619 0.7101979 0.3112861 0.25681356
0 0.044587146 -0.15331815 0.06205243 -0.31102076 0.587457 0.14120285 -0.44890925 0.6827555 0.25995535 0.2543319
4 0.07862953 -0.11077148 0.08410877 -0.2672816 0.60165954 0.18334869 -0.42362973 0.6511286 0.3225581 0.21091633
5 0.005187926 -0.14162706 0.0033317802 -0.26218435 0.64186 0.17888948 -0.5341085 0.7147776 0.36962044 0.19257726
3 0.054540902 -0.070292 0.10462922 -0.34218463 0.6021206 0.17050387 -0.4566789 0.6964343 0.34398943 0.18590625
1 0.02564139 -0.16240562 0.07614844 -0.34631076 0.59915173 0.23320954 -0.5421662 0.7411187 0.36628473 0.2702752
