7 10
6 0.109134085 -0.2577908 0.64899087 -0.16429374 -0.1948323 0.70616996 0.41891152 0.08503888 0.32646754 0.3040492
5 0.10729493 -0.20832969 0.65625864 -0.078054585 -0.25727078 0.7151441 0.3880919 0.16003598 0.27668303 0.28222075
4 0.12171097 -0.25207338 0.58670527 -0.12319847 -0.27541503 0.7163399 0.32854584 0.12984826 0.3465368 0.2606065
2 0.10654423 -0.23005264 0.61953807 -0.09543477 -0.2597004 0.69041985 0.41480097 0.17885268 0.36105973 0.30777225
1 0.14502604 -0.18694258 0.6525941 -0.1555683 -0.28611404 0.66253173 0.41602924 0.12394391 0.3060807 0.26773223
3 0.06555086 -0.2550173 0.5956009 -0.1319406 -0.23643006 0.69560343 0.3557665 0.17468137 0.33240202 0.22176336
0 0.06685869 -0.20457885 0.6019893 -0.104961656 -0.26962054 0.7075624 0.3662915 0.13485505 0.27848294 0.30817816
