7 10
6 -0.2869082 -0.38014936 -0.3720027 0.10516653 -0.22782719 0.76362497 -0.16266981 -0.20059672 0.0121586 0.46586597
4 -0.28634733 -0.44702253 -0.33376378 0.1066218 -0.2897039 0.85898906 -0.20840968 -0.14351955 0.035206206 0.4867546
5 -0.24656829 -0.3810838 -0.36372468 0.09385491 -0.24816339 0.82330686 -0.15580977 -0.15020141 0.016371163 0.49842024
2 -0.24754058 -0.42272282 -0.41229615 0.16758047 -0.23320323 0.8336264 -0.14802705 -0.18305518 0.04085788 0.48185912
1 -0.30956635 -0.3654715 -0.36223912 0.06568797 -0.21575752 0.81784046 -0.15334153 -0.13956574 0.026370797 0.47544846
3 -0.3062253 -0.3976236 -0.36788145 0.14359674 -0.271679 0.82748985 -0.1549797 -0.18291722 -0.0058948384 0.4548047
0 -0.24298659 -0.4150066 -0.33143055 0.09225183 -0.19015028 0.8018159 -0.13720062 -0.18142797 0.059228912 0.46583575
