5 10
2 0.060039394 0.15995632 -0.5031614 -0.44096488 0.064312994 -0.13676983 0.13738479 0.1472672 -0.6456583 0.6381554
0 0.034009285 0.20774235 -0.5478704 -0.4225676 0.07583802 -0.14412338 0.107324526 0.17770843 -0.6301102 0.6339764
1 -0.0061831116 0.19073597 -0.5546581 -0.41846177 0.10520116 -0.164709 0.07029446 0.19918847 -0.62748665 0.66680175
4 -0.007020591 0.2244838 -0.5266715 -0.39567947 0.09823493 -0.1969583 0.12662227 0.18933758 -0.60249364 0.6315432
3 -0.012841526 0.17028208 -0.56603825 -0.41189077 0.1018009 -0.13796024 0.09182799 0.16437684 -0.65036744 0.64561695
