5 10
2 0.82390034 -0.5164289 0.6202302 0.22005792 0.03839913 0.1033333 0.020981278 0.068820365 -0.02414393 -0.25123668
1 0.7714693 -0.5189667 0.57681495 0.25003988 -0.04595463 0.074593104 0.11591266 0.1409696 0.025469808 -0.29721403
0 0.76833296 -0.5339751 0.59798753 0.21718575 -0.05986065 0.03410758 0.11414307 0.046478745 0.06984383 -0.2902178
4 0.77722985 -0.4962168 0.5776619 0.22654733 -0.008489394 0.09328579 0.046700414 0.13070767 0.039872974 -0.3063074
3 0.7681652 -0.5380782 0.55622184 0.23271345 -0.01964375 0.09767872 0.04163618 0.10829267 0.046874195 -0.24340661
