5 10
2 0.14756823 0.44438067 -0.22115187 0.03756916 -0.6368672 -0.18497416 -0.7934404 -0.024067892 -0.09054923 -0.26931205
1 0.10946163 0.47274914 -0.30678537 -0.04801771 -0.6001132 -0.1528854 -0.7959583 0.020462668 -0.022523819 -0.22698757
0 0.161372 0.45296875 -0.24921252 -0.0025759386 -0.59313416 -0.13307327 -0.74762666 0.008495842 -0.039094087 -0.24383831
3 0.16071431 0.4982904 -0.23189054 -0.018501226 -0.58365333 -0.15679696 -0.75369394 -0.042982362 -0.07656915 -0.20069602
5 0.17128597 0.41267085 -0.29661477 0.011682775 -0.6392489 -0.11594651 -0.7191929 0.02045229 -0.018395813 -0.2719379
