7 10
6 0.4706967 0.0032610735 -0.7749338 -0.055579454 -0.7967537 0.22632554 -0.6163315 -1.1305772 -0.3525389 -0.33581737
4 1.1802373 1.5047919 -0.14020132 -0.03686103 0.37025297 -1.4896133 -0.70739925 0.08125018 0.3991847 0.82855964
5 1.1916393 1.5197656 -0.13550405 0.05849795 0.43603665 -1.5218102 -0.7178467 0.05205574 0.4383083 0.86569655
2 0.4586463 -0.018279402 -0.71674365 -0.13300376 -0.8019021 0.26209924 -0.6848774 -1.1423863 -0.40755588 -0.33375472
1 0.43450704 0.010616982 -0.7468948 -0.08801126 -0.747883 0.2606536 -0.6413832 -1.0940219 -0.3474047 -0.36029825
3 0.43144733 0.031866357 -0.7311436 -0.07649398 -0.7378879 0.17077395 -0.64528304 -1.034685 -0.3454175 -0.30345586
0 0.44722372 0.015381782 -0.70985085 -0.07051463 -0.74740744 0.25732228 -0.6260069 -1.0393693 -0.3302414 -0.29205576
