7 10
5 -0.48326302 -0.25932214 -0.5433666 0.53853846 0.45484668 0.55731213 0.08358827 -0.053494755 -0.005973725 -0.043343097
4 -0.45080322 -0.32956487 -0.5462275 0.62325394 0.3914377 0.48169032 0.06814316 -0.05730674 -0.037405282 -0.053809095
6 -0.46651176 -0.34182978 -0.51699233 0.6071243 0.414109 0.5059053 0.08318887 -0.092739664 0.0035107904 -0.03303148
0 -0.51276284 -0.28307188 -0.5231139 0.61099863 0.42260477 0.44629395 0.053241882 -0.11906037 -0.085223906 -0.043726373
1 -0.4452954 -0.33601227 -0.5369958 0.5775882 0.36905745 0.5335719 0.11722944 -0.1247602 -0.06101485 -0.099412955
3 -0.5098313 -0.32871556 -0.502243 0.62261534 0.43517113 0.5335511 0.10316715 -0.04816631 -0.062162943 -0.08956013
2 -0.5030098 -0.2542246 -0.54216135 0.55754715 0.42660853 0.50665754 0.041406915 -0.12652695 -0.05149364 -0.06946037
