7 10
2 0.6359669 -0.10955413 0.26278162 0.6988113 0.56528986 0.13767724 0.056092728 0.37587863 -0.3150182 -0.13137658
3 0.62503797 -0.11096841 0.23907286 0.6052656 0.5602636 0.08348578 0.056196988 0.31124654 -0.23959161 -0.14281704
4 0.5669499 -0.14809744 0.29161116 0.6911366 0.4726863 0.119750015 0.0358508 0.27273658 -0.2770571 -0.1993383
5 0.5932776 -0.16359478 0.23505661 0.6792665 0.5801555 0.13887474 0.040978327 0.2766402 -0.23660307 -0.16389497
1 0.6126837 -0.1336814 0.32188144 0.6505839 0.51405436 0.12987852 0.0073298262 0.3055291 -0.3444088 -0.11665855
6 0.5963837 -0.14368206 0.26044357 0.6498122 0.5354998 0.1628849 0.026493032 0.3545283 -0.29908127 -0.20404248
0 0.5863852 -0.05783135 0.29839858 0.6355693 0.53511286 0.15090401 0.024124706 0.33208206 -0.25539538 -0.17433429
