7 10
4 1.4119546 -0.550597 -0.06973206 0.7947964 1.3171161 0.8469511 0.76709306 0.52761173 -0.14345421 0.3478674
6 1.4028304 -0.50774413 -0.031492762 0.80824536 1.292721 0.8603802 0.6793544 0.50668466 -0.17855433 0.3977675
2 -0.6606156 0.7246705 0.61517346 0.40137565 0.48256174 0.5768666 -0.71548843 0.6208009 -0.60769963 -0.62126696
1 -0.60350555 0.69720775 0.5445551 0.34327886 0.5142996 0.5496607 -0.6378919 0.6374244 -0.60311145 -0.6197211
3 -0.6378215 0.67932963 0.49695975 0.43289804 0.5244404 0.50804245 -0.5864585 0.6577959 -0.6029087 -0.5889775
0 -0.66593075 0.7154619 0.5377765 0.41545582 0.49964473 0.55342275 -0.6534592 0.650403 -0.5476315 -0.6148589
5 -0.6261005 0.70156276 0.5233284 0.42666838 0.4560142 0.51286316 -0.6163352 0.61778456 -0.5856651 -0.58090115
