6 10
2 1.0730133 0.8181791 1.0414534 -0.47351053 -0.8388525 -0.10121621 0.4687587 -0.8536427 0.007252711 0.8464866
0 0.8210806 -0.043464843 -0.56383896 0.3443052 0.6432383 1.2983936 0.47913125 -0.069838576 1.3550649 -0.2683582
6 0.98346466 0.7527164 0.85011035 -0.4074189 -0.68580604 -0.06615787 0.4406704 -0.7078299 0.017136632 0.6902251
5 0.98686206 0.7379699 0.8780812 -0.40556037 -0.685081 -0.060596086 0.45249656 -0.7559025 0.06420562 0.73224753
3 0.73194736 -0.0039005629 -0.5014297 0.36827746 0.5536138 1.2225282 0.46655336 -0.053343486 1.265698 -0.26240486
4 0.7151362 0.03466755 -0.46256548 0.33092988 0.6016344 1.1007365 0.34516543 -0.09300302 1.1554921 -0.26799348
