7 10
1 -0.06269384 -0.26301053 0.3701212 0.08426224 -0.15657523 0.61153024 -0.20272118 0.19232272 -0.10644953 0.81985205
6 -0.09993642 -0.23916215 0.27888203 0.17912836 -0.102379695 0.47762695 -0.045934435 0.33987552 -0.30683935 0.88765585
3 -0.022008793 -0.1996358 0.37452906 0.15099835 -0.12906009 0.56467915 -0.12879351 0.31423727 -0.18923694 0.83557105
4 0.005305522 -0.3178547 0.43649706 0.061154004 -0.100609556 0.6256648 -0.26496854 0.18198673 -0.031444665 0.845378
2 -0.06533988 -0.2821124 0.3215457 0.17585766 -0.12368944 0.5458552 -0.12828316 0.34234536 -0.22446111 0.84451705
5 -0.0377711 -0.32230628 0.45026967 0.11147752 -0.07763692 0.5773142 -0.20499563 0.20783891 -0.006599365 0.81116086
0 0.009850186 -0.2899411 0.36686313 0.1366833 -0.09440455 0.60422635 -0.21639465 0.25152764 -0.047480237 0.7834589
