7 10
0 -0.1482664 0.5157224 0.0819283 -0.43269366 0.26014802 -0.3716033 0.57774955 -0.5082986 0.11088578 0.32170668
5 -0.22163425 0.5189989 0.0450099 -0.48049626 0.28023887 -0.32841948 0.50945157 -0.54632765 0.124975495 0.28158534
2 -0.2102468 0.46673182 0.034598663 -0.3932241 0.23989595 -0.35438824 0.55003285 -0.55771226 0.120656684 0.26741436
1 -0.22670613 0.49422884 0.03656887 -0.4250027 0.25029126 -0.38260806 0.54330605 -0.54020387 0.18032011 0.2788794
4 -0.2081825 0.49098635 0.037052765 -0.4865769 0.29521164 -0.3215508 0.5029135 -0.5869156 0.19927382 0.31950918
3 -0.13229778 0.51744735 0.100508 -0.4769886 0.21633205 -0.3516495 0.5253735 -0.5745472 0.1701661 0.2746235
6 -0.13180879 0.46230862 0.009354498 -0.43946314 0.29134282 -0.36790317 0.541606 -0.54977036 0.16599604 0.30483046
