7 10
6 -0.4809032 0.3425183 0.4016761 -0.06076124 0.18236078 0.41491765 0.74179983 -0.14339669 0.121877596 -0.23363361
5 -0.51840466 0.35275918 0.42658946 -0.03594273 0.13222316 0.4663256 0.77385294 -0.1153711 0.09517394 -0.22121303
4 -0.447923 0.40253308 0.40609816 -0.04049446 0.16419972 0.5060132 0.72362334 -0.10911437 0.15597314 -0.27351987
3 -0.46574122 0.42260966 0.37107664 0.024941182 0.1619878 0.51282865 0.7160245 -0.09151029 0.06728812 -0.25908148
0 -0.49423686 0.41948208 0.31046557 0.021542292 0.17636034 0.5139345 0.67237663 -0.09513357 0.117489606 -0.27491614
2 -0.47363707 0.39504847 0.36757934 -0.0031661172 0.21838482 0.50583905 0.75272864 -0.10589644 0.13376614 -0.2246489
1 -0.4531481 0.39211848 0.34400082 0.039001673 0.16731852 0.48865443 0.67271274 -0.1361862 0.09546612 -0.28673026
