7 10
3 -0.91765743 0.20043029 0.32678172 0.23064823 0.12682505 -0.39448202 -0.34298745 -0.11929214 -0.00014944896 -0.30929822
6 -0.9144205 0.16850361 0.36811176 0.17381905 0.14848517 -0.33590302 -0.38112003 -0.044968925 0.025620934 -0.33440876
4 -0.9297124 0.21402112 0.31436238 0.21827374 0.16636468 -0.3258076 -0.3245633 -0.0920137 -0.047691178 -0.3471622
5 -0.88017017 0.11109243 0.35720605 0.13399048 0.1590676 -0.36747327 -0.36310413 -0.10037332 0.05780633 -0.3353782
1 -0.9114091 0.16769752 0.37434497 0.16240562 0.10312648 -0.40324396 -0.31193435 -0.13800524 0.005289902 -0.28593406
2 -0.833699 0.17325729 0.32709646 0.21992995 0.106831595 -0.35643843 -0.35309848 -0.13330501 -0.06195168 -0.3099923
0 -0.87965906 0.19250186 0.40593362 0.14152664 0.1574023 -0.35781902 -0.3664572 -0.05254395 -0.013308223 -0.2765775
