7 10
0 0.63336366 0.42744026 0.14757052 -0.080439895 0.18977775 0.66790825 -0.46009493 -0.07473961 0.3250712 0.2737019
5 0.64820844 0.41330597 0.08258634 -0.010638098 0.19874007 0.6383986 -0.46658427 -0.018714596 0.38236517 0.21585643
1 0.643345 0.35133752 0.15235445 -0.09533689 0.14084612 0.654491 -0.40779042 -0.01067193 0.3818345 0.20154536
2 0.6166887 0.39887127 0.1506923 -0.004775611 0.15511115 0.6421513 -0.37878624 -0.017284788 0.3441856 0.2585818
4 0.5989122 0.42926311 0.11431305 0.01700298 0.14610893 0.59162736 -0.44045344 -0.06365242 0.3769486 0.26746377
3 0.66928655 0.40438497 0.153736 -0.06548601 0.16459201 0.62356675 -0.4719756 -0.11610823 0.41331705 0.23270431
6 0.6665938 0.36115417 0.13366327 -0.049276244 0.16844672 0.6010487 -0.41297323 -0.08422127 0.32278034 0.2891438
