7 10
5 0.41902316 0.68201107 0.32946366 -0.5350598 -0.29149377 -0.3770658 0.25328952 -0.11212044 -0.23580265 0.38936546
6 0.4957208 0.6555553 0.33690166 -0.51352644 -0.2341166 -0.32579914 0.21253343 -0.10587291 -0.22001112 0.41252795
4 0.37424502 0.6296125 0.356581 -0.501446 -0.29026744 -0.37449646 0.25395894 -0.13196376 -0.13490441 0.4104774
3 0.446241 0.56211704 0.34308338 -0.49691656 -0.23345707 -0.3325308 0.16443962 -0.041937515 -0.2273373 0.40885806
1 0.45796034 0.6569935 0.328041 -0.43795538 -0.23262045 -0.3570574 0.20066503 -0.07610765 -0.21606949 0.4244036
2 0.43920645 0.60831827 0.3136815 -0.46963522 -0.28494143 -0.351808 0.26333684 -0.14105593 -0.16014643 0.3590033
0 0.46293882 0.65077734 0.349689 -0.50933856 -0.20131919 -0.31349844 0.18624446 -0.119286396 -0.20668563 0.40419787
