4 10
1 -0.09034852 -0.2755661 -0.27789393 -0.5698044 0.42523065 0.4342672 0.052470103 -0.19011807 0.45340243 -0.36867997
4 -0.026441362 -0.2797951 -0.32406685 -0.5109529 0.5022817 0.4184976 0.14252403 -0.1983774 0.40313366 -0.32282612
2 -0.08860918 -0.31451312 -0.30757308 -0.5556361 0.52184176 0.4052493 0.13234791 -0.21163763 0.4054882 -0.33382675
5 -0.058889713 -0.30160937 -0.28660798 -0.5168919 0.47591895 0.39143 0.08921711 -0.23286533 0.43170503 -0.35460615
