7 10
0 0.71516323 0.5813151 0.1210259 0.077020966 -0.59432817 0.32357115 0.21073677 -0.014007644 0.07321944 -0.043402616
2 0.7260251 0.6456081 0.050892342 0.09204086 -0.6008759 0.29588622 0.24498986 -0.07705855 0.08636383 -0.030674765
3 0.66770506 0.5946026 0.050601307 0.09445751 -0.579729 0.3038774 0.27109888 -0.08702442 0.12475453 -0.10724922
4 0.6705102 0.56999695 0.0943646 0.030664332 -0.5874432 0.28639504 0.28221133 0.0024409583 0.09442775 -0.09466344
1 0.71002305 0.590976 0.07311806 0.023590049 -0.5661315 0.32676068 0.2712033 -0.039438695 0.046239216 -0.04202231
5 0.6904558 0.55243677 0.053764507 0.0288911 -0.6077804 0.36260515 0.298233 -0.04624862 0.07658333 -0.09520698
6 0.6756641 0.60828054 0.05777885 0.0428547 -0.5706995 0.39000428 0.23814048 -0.050087433 0.15706593 -0.056926444
