7 10
2 -0.25644594 0.4253459 0.17993744 -0.123451844 -0.35895267 0.8171443 -0.38379723 -0.46081057 -0.05732714 -0.011183715
1 -0.27245077 0.42310852 0.1826171 -0.16771702 -0.361312 0.7854599 -0.4207452 -0.45027536 -0.015281981 0.07738591
3 -0.28392047 0.37032032 0.16901095 -0.07739069 -0.34825274 0.79811186 -0.41347525 -0.47553018 -0.05119202 -0.0010139539
0 -0.26800188 0.39599967 0.20056 -0.09971653 -0.32808477 0.7740216 -0.36969155 -0.4835576 -0.105275266 0.05220592
5 -0.23888573 0.4168455 0.12974557 -0.10713528 -0.32413456 0.747941 -0.45151642 -0.5179781 -0.06878826 0.056478754
4 -0.27085912 0.40126538 0.11373543 -0.13024943 -0.36359772 0.7571806 -0.41867852 -0.50963706 -0.0903051 0.028505852
6 -0.29837614 0.39678624 0.12334987 -0.13037258 -0.36924443 0.71468747 -0.41098204 -0.50469005 -0.04902003 0.027389728
