7 10
3 0.8838765 0.34255415 0.2366421 -0.16706236 -0.14986734 -0.08773434 -0.2479426 -0.59605885 -0.0639137 0.12617733
4 0.8140333 0.34706792 0.2247363 -0.15941855 -0.07045493 -0.07866958 -0.23837619 -0.5545948 -0.10021039 0.14824581
6 0.84021676 0.2973689 0.26787344 -0.2127574 -0.13789572 -0.101491 -0.26635906 -0.60884595 -0.07471407 0.15345915
5 0.82809544 0.28590652 0.28110784 -0.23835275 -0.1238777 -0.06449615 -0.25243035 -0.62804496 -0.12827148 0.14451125
1 0.83259386 0.34946993 0.19370784 -0.21593288 -0.09157126 -0.042035315 -0.24527892 -0.6059707 -0.1034022 0.13380897
2 0.875171 0.3713637 0.19274503 -0.1714544 -0.12437931 -0.13164914 -0.30237406 -0.6174973 -0.1065505 0.12235767
0 0.8932785 0.33497316 0.29684567 -0.24927503 -0.07604842 -0.044850405 -0.24653967 -0.5483623 -0.13812704 0.1795177
