6 10
0 0.4572454 0.12081481 -0.16801688 0.4106148 0.15376538 0.3468465 0.6231528 -0.08074596 0.5474038 0.14335367
1 0.49663153 0.09488578 -0.196401 0.401924 0.101435855 0.33270618 0.66949904 -0.15380424 0.5137151 0.19053935
4 0.50754946 0.09287801 -0.18288676 0.4005633 0.108394325 0.3357025 0.6804298 -0.18818238 0.5870907 0.23136875
2 0.51882505 0.10950011 -0.17628308 0.4233705 0.14930104 0.30471644 0.6877432 -0.12509662 0.5995346 0.2069179
3 0.47305602 0.06375535 -0.19597659 0.39664719 0.1321941 0.36186418 0.64967144 -0.17723845 0.5762353 0.16143006
5 0.52820235 0.12119558 -0.1546955 0.44768405 0.1055208 0.32777286 0.6436769 -0.1643858 0.5584764 0.16794197
