5 10
1 -0.36063594 -0.17496519 0.7976845 0.015838465 -0.94576764 0.4852779 -0.06237186 0.1549424 -0.054298744 1.5473241
4 0.5163294 -0.04214171 0.47666338 0.53836316 -1.185354 -0.7802389 0.5139887 -1.0470332 -0.10564121 -0.7260028
3 0.5027129 -0.095552854 0.3468298 0.5220969 -1.0523093 -0.731111 0.49507448 -0.9469057 -0.16030392 -0.643918
2 -0.3934929 -0.119864956 0.66746664 0.0047286497 -0.7952324 0.4082444 0.009811622 0.112188496 -0.061251532 1.391623
0 -0.3241449 -0.11946353 0.5978528 0.008428617 -0.77463484 0.36912164 0.0009961822 0.09265663 -0.03557564 1.2981012
