7 10
0 -0.43748894 0.3242618 0.1658308 -0.2790437 0.42082283 -0.29396793 0.28428364 0.15965061 0.69394827 -0.41411138
1 -0.39175126 0.37589473 0.10889183 -0.2964012 0.3872246 -0.30742848 0.25445133 0.1652747 0.6609231 -0.35161212
3 -0.4166356 0.41683483 0.102138706 -0.34476954 0.38156188 -0.25797394 0.27474165 0.17991422 0.64490384 -0.3967805
2 -0.40935466 0.36937696 0.10829115 -0.34332308 0.3588679 -0.28516835 0.3081852 0.23401919 0.6843675 -0.4084699
5 -0.46408892 0.41327035 0.08665402 -0.26571855 0.36459872 -0.26190582 0.31461096 0.1692221 0.67838955 -0.4421219
4 -0.4584734 0.42910746 0.0806753 -0.34881306 0.38388985 -0.26755753 0.28538927 0.16836935 0.64774984 -0.35109568
6 -0.45591113 0.39415014 0.15840466 -0.29036504 0.39545718 -0.28797233 0.2780455 0.20309207 0.6897793 -0.3750737
