7 10
2 0.3900681 0.11013453 0.944234 -0.14753135 0.09264667 -0.17242882 -0.37008923 0.17793773 0.11121403 0.2915631
1 0.42544797 0.123508155 0.9106434 -0.19714278 0.15311307 -0.13469762 -0.42794642 0.16535538 0.06905014 0.28273958
3 0.4774644 0.06861656 0.9190244 -0.19466616 0.10441159 -0.103785835 -0.3141802 0.12840025 0.15304485 0.19795221
4 0.47312027 0.13070509 0.89850974 -0.15757827 0.13807413 -0.120565444 -0.35843256 0.12882668 0.0708258 0.19837964
0 0.43159193 0.09076275 0.9319075 -0.16785927 0.11121644 -0.12836061 -0.4105873 0.13805297 0.1369289 0.2816897
5 0.45215362 0.059287008 0.93199456 -0.12613502 0.07337264 -0.09755844 -0.33847633 0.1870452 0.14344741 0.27444947
6 0.47270295 0.07865926 0.97645307 -0.12383676 0.17546083 -0.16711648 -0.4735228 0.14926271 0.08576193 0.31053212
