6 10
3 -0.14306378 -0.37518978 0.39996722 -0.29030752 0.90585774 0.11031794 0.10672385 -0.2809328 0.3170431 -0.25250846
0 -0.22425659 -0.3483898 0.3513926 -0.27949303 0.8661627 0.09001473 0.10335511 -0.33696643 0.31128082 -0.2802636
1 -0.23420334 -0.3303567 0.2911286 -0.29520845 0.8417878 0.09976456 0.1247014 -0.29376855 0.30622295 -0.32868358
2 -0.18669297 -0.26760164 0.34520188 -0.23523125 0.7964732 0.048929904 0.0692957 -0.2716944 0.30463904 -0.3313252
5 -0.18696962 -0.26179925 0.36701265 -0.24111456 0.85867757 0.08818783 0.1598089 -0.32698652 0.29254827 -0.33367723
4 -0.16623257 -0.24647494 0.27380827 -0.29963428 0.84808695 0.079868436 0.13491334 -0.27022272 0.23837137 -0.33522764
