7 10
4 -0.23206556 -0.49298432 -0.40076962 0.68365085 0.2695828 0.025156232 -0.6265922 -0.23993637 0.053649984 0.07239868
3 -0.19771692 -0.46643966 -0.35428172 0.68632585 0.21246946 -0.008057962 -0.65724134 -0.2483426 0.03650822 0.092511036
0 -0.2293612 -0.46087795 -0.36164483 0.627058 0.27144584 -0.04659556 -0.63796127 -0.3083984 0.07600676 0.054727506
1 -0.14417194 -0.509324 -0.3430668 0.654851 0.25705126 0.013035665 -0.63089436 -0.28479037 0.07365992 0.04442076
2 -0.16193153 -0.45792088 -0.40465444 0.67579484 0.22618867 -0.03264903 -0.6061099 -0.27748653 0.094121605 0.037661087
5 -0.18875307 -0.46334627 -0.39760804 0.66964483 0.26928592 0.04529103 -0.59636086 -0.2050018 0.08276459 0.07805861
6 -0.1766417 -0.47058916 -0.36166912 0.65097 0.22986034 0.04766488 -0.65040505 -0.2667799 0.11293342 0.09883632
