7 10
1 0.54582024 0.12623812 -0.5600938 -0.55632156 0.1518583 0.29351377 0.1809486 0.02765986 -0.37719536 -0.4061072
4 0.54169065 0.08673232 -0.5721378 -0.6032766 0.08699214 0.26074457 0.1539542 -0.03704768 -0.3820866 -0.42409626
3 0.489555 0.036658738 -0.53566694 -0.58670634 0.12331386 0.33587843 0.20226246 -0.023276167 -0.39434046 -0.4381139
6 0.56015056 0.10390286 -0.5216797 -0.5812186 0.12138619 0.30873802 0.110254265 -0.038721897 -0.31656572 -0.450855
0 0.57333475 0.05353186 -0.5505268 -0.5640201 0.1118845 0.22790317 0.18762407 -0.013304636 -0.3274055 -0.47953415
5 0.56166583 0.08812523 -0.5420509 -0.5472947 0.1274567 0.22414465 0.16492091 0.0034036904 -0.3633675 -0.40923125
2 0.5175562 0.08601525 -0.59885097 -0.5712126 0.07075863 0.2955686 0.14427066 -0.03182974 -0.34240013 -0.4571686
