7 10
0 0.45111087 0.02678561 0.39243588 -0.50581795 -0.2789206 -0.2507598 0.5439429 -0.5319418 0.103522755 -0.29244265
5 0.43661892 -0.042737875 0.35505545 -0.44142285 -0.19340236 -0.2697864 0.6273748 -0.5434578 0.110612586 -0.2818702
2 0.38699144 0.042000536 0.40661442 -0.46323502 -0.17259131 -0.27572554 0.5711055 -0.52108884 0.14828661 -0.3343841
3 0.37714565 0.014432582 0.42139408 -0.4341602 -0.112180516 -0.27362752 0.6450005 -0.5344035 0.13120458 -0.34148002
6 0.42574722 -0.055633876 0.38455486 -0.45161718 -0.18237016 -0.31319866 0.57272303 -0.51505333 0.11154399 -0.3014114
4 0.42253402 0.023924112 0.4168987 -0.46301064 -0.34739247 -0.30634737 0.47050297 -0.52827257 0.04259217 -0.2969031
1 0.43510383 0.08003235 0.36354247 -0.5150803 -0.3262025 -0.31119412 0.44734734 -0.4817164 0.093664564 -0.33910558
