7 10
0 0.18927132 0.10614437 0.45239958 -0.6598399 0.299382 -0.08005003 0.45253703 -0.23655647 0.2842513 0.48144737
2 0.15583248 0.012870666 0.44246316 -0.69650304 0.3375827 -0.101021536 0.44242916 -0.18239957 0.2891566 0.45458555
4 0.18895714 0.05646357 0.43267962 -0.7169168 0.34209755 -0.08229743 0.42623955 -0.19748542 0.27316633 0.48784027
6 0.20247248 0.022934312 0.46898964 -0.6565886 0.2513072 -0.16290073 0.40165263 -0.24318363 0.3123705 0.4102284
5 0.23239046 0.111143515 0.49045193 -0.6536526 0.27487233 -0.15091082 0.44769332 -0.24822058 0.29520378 0.44623166
1 0.24070111 0.011898033 0.5006656 -0.7111849 0.26767612 -0.15629151 0.4935355 -0.216942 0.25034696 0.42920732
3 0.2462738 0.110557236 0.45867965 -0.6895256 0.3257426 -0.16223118 0.47715095 -0.28212523 0.3049259 0.48887458
