7 10
6 -0.0018303863 0.49931476 0.37797222 -0.5769527 -0.24144037 -0.26556084 0.2537944 -0.3692212 0.0034613793 -0.5705687
0 -0.013096281 0.49531475 0.39353117 -0.61947 -0.24150895 -0.2835193 0.30265367 -0.33778906 0.007482365 -0.5639603
3 -0.0048008296 0.49684477 0.3595187 -0.6039551 -0.27249283 -0.29107848 0.2809291 -0.40542397 0.00860089 -0.58657527
1 -0.008337029 0.49659482 0.39378628 -0.57755405 -0.1981541 -0.22334778 0.2549113 -0.39071476 -0.075916015 -0.57669276
4 0.04158353 0.44525284 0.4153849 -0.61876637 -0.25980988 -0.29010352 0.26333603 -0.39880705 -0.055509336 -0.57020855
2 -0.03632439 0.4997355 0.389372 -0.5725145 -0.2785888 -0.22116295 0.19818139 -0.3693821 -0.07899895 -0.5818055
5 -0.012598446 0.48320937 0.3509962 -0.62287766 -0.24146113 -0.22463705 0.28275344 -0.38993028 -0.09230634 -0.5225057
