6 10
2 -0.15142314 -0.26144993 -0.09669334 -0.629647 -0.025458567 -0.037450038 0.42364347 0.7567491 -0.3398627 0.14655462
0 -0.21191292 -0.25256953 -0.0935709 -0.6256377 -0.05355769 -0.05037545 0.42905453 0.7410466 -0.3410502 0.12345885
1 -0.1618799 -0.2684037 -0.08983823 -0.6088049 0.016862364 -0.03426512 0.43348652 0.7177249 -0.31198677 0.15012832
3 -0.20330845 -0.2623162 -0.065201715 -0.5927229 -0.104445204 -0.02409002 0.4202146 0.7959289 -0.28997213 0.14856924
4 -0.16650444 -0.30169815 -0.091627136 -0.61883944 -0.09673541 0.02060905 0.4223795 0.7720075 -0.36185235 0.10999399
5 -0.19559379 -0.28387684 -0.05810112 -0.59329367 -0.05861155 -0.04870809 0.42771608 0.69770324 -0.3045883 0.122775204
