7 10
0 0.051931273 0.18394221 0.27696213 -0.084934756 0.48583272 -0.3449891 -0.09465528 0.8629435 0.08766995 0.5070446
3 0.01905303 0.19172212 0.2958328 -0.15346074 0.41173884 -0.30653435 -0.0059337593 0.83740926 0.06265673 0.516448
1 0.07781541 0.17511176 0.21663335 -0.08860735 0.47762054 -0.33335832 -0.035939094 0.8306764 0.08813434 0.5061925
2 0.010464606 0.15281235 0.2271593 -0.10704416 0.4590371 -0.29409477 -0.09539643 0.8505442 0.096333615 0.505356
4 0.048859652 0.18079937 0.21983424 -0.113275655 0.49684456 -0.29551852 -0.03970836 0.85781014 0.08023713 0.4681426
5 0.091238976 0.17104763 0.22416082 -0.13711505 0.47628942 -0.34299833 -0.050313693 0.8299092 0.10143644 0.52321017
6 0.032768607 0.15685044 0.2639464 -0.10975074 0.48163635 -0.29817745 -0.02575392 0.8574131 0.12988451 0.5212915
