7 10
0 0.20623241 0.58380675 -0.8533075 0.47965175 0.16704424 0.020741515 -0.14468014 -0.063441806 -0.012410498 0.036126334
5 0.15997337 0.5495416 -0.8579271 0.4920046 0.21894425 0.027335234 -0.09474628 0.0026377926 0.06990338 0.09546271
4 0.18126106 0.6067568 -0.8334471 0.52395415 0.23164746 -0.01672599 -0.14712337 -0.008268403 0.02172888 0.097622566
3 0.1810205 0.5997989 -0.86715233 0.47601402 0.18923467 0.017394518 -0.15700471 -0.08155864 0.04171995 0.05800228
2 0.14758375 0.49946988 -0.8252391 0.5037454 0.14679477 -0.0517018 -0.04973711 -0.07851967 0.059969313 0.117583536
1 0.109112374 0.5375213 -0.84040743 0.49605387 0.18779616 -0.049037773 -0.09841961 -0.032766685 0.056817044 0.104051754
6 0.208015 0.5921893 -0.86926585 0.4651804 0.24732946 -0.05374349 -0.12239484 -0.029009499 0.0125070615 0.038150422
