7 10
4 0.21633472 -0.55032456 -0.6372245 -0.6332282 -0.36952606 0.08843719 -0.09594268 -0.03837253 0.12155563 -0.34999976
5 0.23955478 -0.58107686 -0.5329257 -0.6562351 -0.3237587 0.14454825 -0.14182223 -0.039948914 0.025459278 -0.34207755
6 0.18675001 -0.6097409 -0.5882398 -0.64671457 -0.33481884 0.09692946 -0.082588516 -0.02274005 0.092404395 -0.3761194
3 0.2623448 -0.57473385 -0.57677567 -0.6168164 -0.32028306 0.08315094 -0.13939802 -0.001251731 0.10530169 -0.35847387
2 0.1893399 -0.5979768 -0.6048122 -0.60756266 -0.28546414 0.10733927 -0.110595316 -0.054956462 0.046835147 -0.314832
1 0.22206426 -0.6095796 -0.5914868 -0.673514 -0.32395655 0.14045429 -0.080379084 -0.08236891 0.07653182 -0.32283658
0 0.24079888 -0.5855386 -0.57062644 -0.6306834 -0.3317554 0.04905547 -0.13230817 -0.04061283 0.030561348 -0.36503002
