6 10
3 0.19147618 0.029078402 0.17827508 -0.5885419 -0.11377379 0.12004722 -0.4576889 -0.11557815 -0.41835615 -0.70388967
1 0.2122765 0.06921239 0.16192572 -0.604995 -0.09398906 0.09098341 -0.45125636 -0.13015206 -0.3896846 -0.6498348
2 0.14246146 0.00819152 0.16068855 -0.589288 -0.157814 0.022851104 -0.4357929 -0.15135695 -0.41919857 -0.6624652
0 0.33463874 0.18887939 0.14664257 -0.6646265 -0.22988197 0.10131196 -0.3519272 0.054293677 -0.48978734 -0.75563085
4 0.2421461 0.13770331 0.21532229 -0.65733725 -0.12376331 0.0938107 -0.36539766 -0.030621147 -0.4534767 -0.7664018
5 0.3366137 0.19003285 0.16929938 -0.6388584 -0.22685733 0.078508824 -0.40418163 -0.0011771716 -0.4052222 -0.77096903
