7 10
0 -0.98893833 -0.34998846 0.5720473 -0.8312239 -0.9656604 -0.26723367 0.29085693 0.57210696 -0.5793191 -0.39087978
5 -0.36746588 -1.1541289 -0.5536 0.6696953 1.0165076 -0.92145175 -0.8089862 0.9561364 -1.0575112 0.76198995
6 -0.31157205 -1.0500487 -0.57435155 0.61125004 0.941062 -0.9030007 -0.84130204 0.9044563 -1.0335033 0.69077235
1 -0.97814256 -0.37974125 0.6253442 -0.84797525 -0.9649983 -0.20555896 0.28245068 0.59210926 -0.60481626 -0.34521744
4 -0.90007 -0.30433783 0.46215558 -0.7700871 -0.84832674 -0.17832708 0.21285868 0.5596594 -0.5148634 -0.31165868
3 -0.8546356 -0.332475 0.52232176 -0.7857946 -0.8752778 -0.19424702 0.23460846 0.5546976 -0.44990984 -0.37122175
2 -0.8896212 -0.34003276 0.5555259 -0.75402164 -0.8453237 -0.19292167 0.2315246 0.5893474 -0.51655954 -0.3015052
