7 10
0 0.3758187 -0.11079739 0.2922971 -0.3950985 0.22412077 -1.017904 0.457461 1.0941769 1.1562 -1.6023599
3 0.23112366 -0.42510843 0.03122284 0.3194613 -0.27111918 0.7104147 0.16898699 1.6135981 -0.9771677 0.08475813
6 0.296206 -0.45204684 0.11078359 0.3067354 -0.22457173 0.6834144 0.1419809 1.5512669 -0.8842307 0.13325167
2 0.27202877 -0.43893838 0.120551854 0.32172567 -0.2449574 0.71540105 0.18141331 1.60303 -0.97694045 0.14570713
5 0.28731418 -0.48335302 0.12845281 0.2787073 -0.27174488 0.7231966 0.13050486 1.5562841 -0.92362845 0.14275134
1 0.2229828 -0.15228981 0.29152855 -0.2967866 0.27902845 -0.87882787 0.47354594 0.92880183 0.954277 -1.3838868
4 0.27097797 -0.16007021 0.2270152 -0.24932854 0.25416175 -0.85187876 0.45145273 0.91169214 0.98934376 -1.3797712
