5 10
3 -0.24447383 0.22667862 -0.21344686 0.52678686 0.63576055 0.15219466 -0.2500465 0.00015886215 0.6105054 -0.3950056
2 -0.25072664 0.18130414 -0.21770622 0.5376983 0.6520402 0.07333649 -0.26587695 0.03041706 0.5068348 -0.35954592
1 -0.26271138 0.14014524 -0.26064974 0.52684176 0.6029995 0.106585786 -0.2831117 0.0019688858 0.590259 -0.3363158
4 -0.18946907 0.23764083 -0.19576824 0.524037 0.6659191 0.16376421 -0.26925692 0.009787297 0.5615643 -0.3282439
0 -0.15891255 0.16263425 -0.20645636 0.5041599 0.6439722 0.11600729 -0.2184619 0.051703285 0.47070387 -0.33772865
