7 10
4 0.18312442 0.8476053 -0.3273147 0.121685654 0.3493493 0.08539476 0.19126123 0.5697459 0.1677281 -0.13519365
2 0.27460715 0.83314824 -0.29764488 0.0417483 0.34609914 0.12739193 0.19974773 0.5664941 0.20281374 -0.20639648
5 0.2238885 0.86578435 -0.26682442 0.089927025 0.35179138 0.06528475 0.21570754 0.51928794 0.2213866 -0.20952372
3 0.2472903 0.83986706 -0.29462653 0.101178855 0.31535754 0.043723106 0.13334884 0.5086842 0.1871643 -0.17800058
1 0.2246813 0.8290059 -0.2665255 0.11762279 0.38555613 0.13667817 0.1698889 0.5546687 0.22552411 -0.14827064
0 0.24925679 0.8086075 -0.32653138 0.08446197 0.36278775 0.11745226 0.20317382 0.53436035 0.22863276 -0.20896776
6 0.25366852 0.8017613 -0.3202321 0.048223972 0.34689978 0.11240763 0.17150596 0.56939703 0.18273441 -0.11599201
