7 10
6 0.03551363 0.6448496 0.6918486 0.010829324 -0.4782095 -0.023937503 -0.13203375 -0.1906061 -0.11544143 0.44106278
2 -0.043548953 0.67972 0.6969951 -0.0063473084 -0.47241274 0.075254336 -0.079106174 -0.14448112 -0.10440632 0.5055616
4 -0.030731244 0.6712477 0.65158534 0.050691437 -0.47803494 0.084591396 -0.11661537 -0.22919565 -0.057073858 0.46876305
5 0.13384186 0.6001183 0.7564823 0.0052172393 -0.39747494 -0.06608557 -0.19893885 -0.24026035 -0.14376196 0.28302118
1 0.12255752 0.65217006 0.71493816 -0.0040016915 -0.43853578 -0.07136437 -0.15689684 -0.25739476 -0.1648841 0.33001053
3 0.0038486149 0.68072194 0.6378428 0.016971672 -0.48395425 0.15341204 0.006712428 -0.19701505 0.020798681 0.4686469
0 0.10407505 0.6383542 0.7788719 -0.03508473 -0.42362365 -0.051820297 -0.19519788 -0.24180388 -0.17611824 0.3101541
