7 10
6 0.40947902 0.2663626 0.79209167 0.4152409 -0.4687418 -0.18616535 -0.09951395 0.1412485 -0.121582 0.1548318
4 0.3745998 0.19721226 0.86021215 0.44203487 -0.4624257 -0.17350036 -0.13318779 0.102208585 -0.08523835 0.1623162
3 0.38310948 0.21325454 0.82815206 0.4396846 -0.4803452 -0.1864291 -0.07601684 0.08456893 -0.05485115 0.14242843
5 0.42396355 0.21540026 0.8230144 0.44498906 -0.39265406 -0.1943109 -0.1509502 0.12703082 -0.03725084 0.20694432
2 0.44377604 0.2588977 0.84442896 0.44118053 -0.4328049 -0.107269205 -0.08022456 0.076781645 -0.12674414 0.18201052
0 0.43821266 0.23291284 0.83016044 0.44600236 -0.40727305 -0.11373945 -0.10332741 0.116167784 -0.15209575 0.18157509
1 0.40169233 0.24266559 0.82494086 0.43261665 -0.45080554 -0.17523636 -0.14974287 0.056765016 -0.08165003 0.2094957
