7 10
6 0.478066 0.36664593 -0.4652757 -0.25967863 -0.08520096 0.27254176 0.09713965 0.6954255 0.47596556 0.084091365
3 0.43116522 0.34375083 -0.43730822 -0.24703795 -0.16411583 0.2743249 0.05312752 0.66543454 0.5211683 0.092177816
0 0.46006534 0.3646025 -0.43561816 -0.31153187 -0.18116477 0.25310072 0.10519552 0.66560704 0.4189609 0.13603342
1 0.4297369 0.36372232 -0.4692841 -0.32666063 -0.16986862 0.2550713 0.05729151 0.6331786 0.48073024 0.115961954
4 0.5059191 0.38950142 -0.42176527 -0.30060115 -0.15447383 0.30891633 0.03668085 0.6799397 0.44485733 0.15893774
2 0.44950306 0.3763728 -0.44599122 -0.32032293 -0.15089625 0.26721796 0.015891237 0.7048898 0.44305983 0.085063614
5 0.41480803 0.3592077 -0.436367 -0.28542566 -0.13327067 0.21881971 0.07587542 0.67592126 0.44835716 0.16004853
