7 10
5 -0.54577637 0.6030853 -0.223806 0.40226305 -0.2928576 -0.2722252 0.3536268 -0.103521705 0.43360066 -0.26467955
6 -0.48237613 0.5608449 -0.21012692 0.43079504 -0.32556245 -0.30409762 0.3472551 -0.13332264 0.47379798 -0.24866879
4 -0.5040749 0.5950107 -0.18435673 0.44334966 -0.30605543 -0.32638928 0.3161705 -0.06387593 0.48389596 -0.18220966
1 -0.4914236 0.63269687 -0.1701917 0.47110325 -0.27911705 -0.2686733 0.34135392 -0.12852539 0.472813 -0.1774856
2 -0.50066483 0.5743378 -0.20258506 0.47762522 -0.28429225 -0.30578804 0.31083593 -0.10254308 0.46197888 -0.19678345
0 -0.48242086 0.5642396 -0.14040168 0.40682772 -0.35601506 -0.25889957 0.367286 -0.11093391 0.47035626 -0.24411562
3 -0.500926 0.61216486 -0.20424666 0.45412317 -0.33594546 -0.27452737 0.2797684 -0.13219105 0.44586518 -0.23853795
