5 10
2 0.11062181 0.41949064 0.86706734 -0.14793569 0.058089286 -0.26905364 -0.020183826 0.1668665 0.52654207 -0.15134123
0 0.17340283 0.43913162 0.892832 -0.18033817 -0.04621532 -0.27609685 -0.003228282 0.06639023 0.48081905 -0.17486577
1 0.12397106 0.46818572 0.86488545 -0.13901748 -0.020786911 -0.35185286 0.045773044 0.09091528 0.5326675 -0.17978798
4 0.15337668 0.47646925 0.81916344 -0.11304487 0.054642834 -0.34482798 0.042012777 0.15769115 0.49146512 -0.15630382
3 0.15074652 0.49200475 0.85348254 -0.16943681 -0.0023930715 -0.3341829 0.051710617 0.13755809 0.5003359 -0.10699398
