7 10
0 -0.14777195 0.061175033 0.75430095 0.27797982 -0.16916482 0.006121754 0.47905603 -0.06092658 0.6754074 0.06461734
1 -0.17003188 0.031221021 0.7128221 0.31470776 -0.1797017 0.008151742 0.5138727 -0.082102515 0.71389776 0.062038522
2 -0.11680857 0.043276884 0.7052468 0.29249656 -0.1597473 -0.002799674 0.4834541 -0.07674748 0.6995829 0.034428496
3 -0.09652904 0.09196292 0.6685596 0.26942474 -0.20900038 -0.0028908683 0.48589057 -0.06243463 0.706344 0.11107094
4 -0.17143643 0.07745294 0.69903326 0.25992483 -0.18744837 0.020593079 0.50342244 -0.07438351 0.7078779 0.120036006
5 -0.16191372 0.035112184 0.73520267 0.29232714 -0.16969956 0.016052684 0.46864173 -0.054989554 0.6738249 0.028038625
6 -0.1628135 0.07668935 0.7204439 0.21951951 -0.14326687 -0.04570562 0.48882544 -0.05036036 0.6658393 0.09349008
