7 10
2 -0.6889213 -0.43216923 -0.31670028 0.3283923 -0.5377632 0.0052334154 0.14355455 -0.14355195 -0.3848384 -0.00909983
4 -0.7184488 -0.36180374 -0.29229683 0.33150995 -0.5043296 0.0907359 0.11085482 -0.06036454 -0.4431057 0.0051025203
6 -0.708946 -0.45648786 -0.32698518 0.27158532 -0.5630449 0.014532794 0.07279801 -0.11974779 -0.45433715 -0.034597326
1 -0.70912004 -0.46099538 -0.31044137 0.3321751 -0.5059216 -0.0066363313 0.11646031 -0.0825269 -0.43232253 -0.08184601
5 -0.6940888 -0.44703943 -0.2491484 0.2864353 -0.5366104 0.044892307 0.10650247 -0.14923431 -0.46809098 -0.0675487
3 -0.6513611 -0.4462975 -0.35074612 0.37103254 -0.5350224 0.0046561197 0.11443687 -0.07663915 -0.4704525 0.020049777
0 -0.6307213 -0.4621909 -0.33069623 0.30758145 -0.5309236 0.04886587 0.16002329 -0.12745889 -0.4440078 -0.020546716
