7 10
5 -0.39548147 0.36441743 -0.36481342 -0.44270745 0.7108082 0.07889273 0.14809449 0.29041967 0.07248966 0.42358103
6 -0.40854082 0.36391464 -0.32396528 -0.43053284 0.70408183 0.14417353 0.14056931 0.34666568 0.13150465 0.403916
4 -0.43947363 0.33226395 -0.36753154 -0.46413767 0.6454011 0.09838996 0.048980933 0.33045405 0.085620016 0.3723755
2 -0.3999591 0.39843288 -0.3879484 -0.4631723 0.6793486 0.1345909 0.11927788 0.34720713 0.06641789 0.35007617
3 -0.41070503 0.34997398 -0.3311204 -0.40717492 0.71865773 0.061996847 0.119995385 0.3136352 0.13330302 0.4549455
1 -0.45242846 0.36720425 -0.31191996 -0.48105258 0.72474915 0.1346066 0.0990051 0.28307024 0.07980949 0.3738221
0 -0.44319725 0.37525344 -0.34072757 -0.46921077 0.6756639 0.093582615 0.055221137 0.3034501 0.14955112 0.40008786
