7 10
6 -0.5296338 0.24650408 -0.09747343 -0.23487547 0.40130323 -0.6548513 0.25778344 -0.35683468 0.35065132 -0.26367664
4 -0.5784475 0.2689921 -0.1576371 -0.27974126 0.44951195 -0.62915677 0.23212306 -0.28752622 0.34740075 -0.2805404
5 -0.5572282 0.22745791 -0.13544305 -0.24812497 0.36442605 -0.6473092 0.29965833 -0.30133605 0.34790355 -0.29827422
1 -0.5639588 0.21575326 -0.08862798 -0.18501148 0.42599544 -0.6752236 0.2672878 -0.2669098 0.34786978 -0.30781242
2 -0.55035716 0.22745422 -0.13724592 -0.23466097 0.39948466 -0.6740389 0.24825296 -0.32720765 0.3300144 -0.31987554
3 -0.5813688 0.19459671 -0.09897216 -0.18717922 0.39276418 -0.6545371 0.26783556 -0.34416837 0.36139855 -0.35483098
0 -0.550816 0.18101989 -0.07525178 -0.2306369 0.40259364 -0.6526888 0.22209725 -0.3560607 0.3297384 -0.31329766
