5 10
3 -0.38181663 -0.07568681 0.8251017 0.01481135 -0.2689739 -0.38177058 0.249997 -0.23311052 0.23482376 -0.36744127
4 -0.40614918 -0.112432905 0.84538406 -0.0037313977 -0.20410103 -0.34458554 0.2031696 -0.2864035 0.20080823 -0.34662214
5 -0.3849423 -0.024205828 0.8450862 -0.02231036 -0.2395331 -0.37724617 0.25974876 -0.28381318 0.24496847 -0.29678923
2 -0.3649154 -0.030251872 0.7781091 -0.02805739 -0.2382103 -0.368966 0.26035443 -0.22285496 0.15580115 -0.30204275
0 -0.37863845 -0.10714942 0.75762683 -0.013998978 -0.22925468 -0.36584547 0.2073545 -0.23074399 0.18767966 -0.33792084
