7 10
5 0.38931218 -0.6944618 0.14797345 0.100808784 0.10446912 0.22145952 0.52352965 0.3550033 -0.45908192 0.17730117
6 0.3516862 -0.7360197 0.18270545 0.062707774 0.03346905 0.14803427 0.5427162 0.3863432 -0.39611164 0.23126693
4 0.38629755 -0.6908289 0.18567836 0.08119627 0.032291904 0.1853761 0.47236627 0.40270436 -0.44267377 0.20512946
3 0.36913794 -0.73847485 0.20422548 0.13518658 0.08822799 0.11255476 0.57963157 0.3559468 -0.44847682 0.15810677
2 0.39056566 -0.69021946 0.10390205 0.13374111 0.11491136 0.15990546 0.539416 0.40994498 -0.4517088 0.11569906
1 0.34238404 -0.7268822 0.19615828 0.07531565 0.13115999 0.2037542 0.5428558 0.39980695 -0.4061693 0.19686176
0 0.34767506 -0.728765 0.09089027 0.09795021 0.08145805 0.1913205 0.5577772 0.4227866 -0.39360142 0.12176971
