7 10
2 -0.078724906 0.3069069 -0.3278047 0.31333873 0.04885715 -0.37843698 0.7746119 -0.2435053 0.5797131 -0.045870908
1 -0.15171355 0.37733233 -0.26877764 0.26916218 -0.04472616 -0.45262098 0.7501561 -0.24440242 0.5046288 -0.1215226
3 -0.08345284 0.41674858 -0.3086851 0.32815403 0.038348984 -0.4808779 0.7791574 -0.21134867 0.557085 -0.15883441
4 -0.09913387 0.3680635 -0.30544034 0.23006682 0.038136344 -0.37804717 0.7799887 -0.28083512 0.5221927 -0.09042661
0 -0.06684926 0.36192057 -0.27757144 0.24918237 -0.01590169 -0.36483404 0.7330103 -0.25787202 0.5059069 -0.122213714
6 -0.09902785 0.37350973 -0.2487543 0.31495738 -0.0007928564 -0.43219543 0.77483755 -0.244178 0.49133807 -0.047828425
5 -0.091860786 0.3441031 -0.3010479 0.23508972 -0.03922113 -0.45218882 0.78045607 -0.21071516 0.53328764 -0.115129046
