6 10
2 0.55866 0.1294636 0.6581754 0.15768526 -0.26993272 0.5388529 -0.041538756 -0.008962863 0.30383545 -0.388355
4 0.5979846 0.1013792 0.65133727 0.16577233 -0.25770676 0.57463473 -0.05298755 -0.07398082 0.22777197 -0.39365733
0 0.51416636 0.09283677 0.6587608 0.12307164 -0.3251221 0.5554595 0.01868023 0.026547376 0.2328401 -0.39003965
3 0.54519695 0.06951216 0.6996546 0.12744056 -0.33324024 0.5444765 -0.073445 -0.031355523 0.29743588 -0.36683866
5 0.56452364 0.14123085 0.6621977 0.072296984 -0.29829434 0.5352088 0.0012967272 -0.045220546 0.25734162 -0.351636
6 0.5541457 0.11074536 0.6521275 0.13146578 -0.32323113 0.51674837 -0.04946318 -0.06817266 0.27161482 -0.3805619
