6 10
0 -0.24774227 -0.050561164 0.29184112 0.42767727 0.64731115 0.5070364 -0.16335414 0.44433537 0.21349803 -0.13131508
3 -0.25490707 -0.038591664 0.3301595 0.4260202 0.6743163 0.5052101 -0.15995054 0.5197816 0.28227448 -0.19927098
2 -0.3133464 -0.0907876 0.28166533 0.40013695 0.6809452 0.5132435 -0.18719754 0.53051984 0.25720444 -0.13349524
1 -0.2537824 -0.0061489674 0.2828997 0.40839872 0.64141893 0.50549895 -0.17281301 0.44386187 0.24902408 -0.20428339
4 -0.26032093 -0.093759194 0.34476924 0.4418185 0.68975705 0.46804374 -0.2338585 0.45022112 0.22501744 -0.23666234
5 -0.2870134 -0.016984962 0.32502303 0.36954218 0.6384454 0.54850847 -0.19635731 0.47664595 0.29714715 -0.2237333
