7 10
5 -0.846421 -0.37970424 0.017456962 0.6676524 -0.16333912 -0.038988277 -0.034116153 0.048363466 -0.14893931 -0.04270864
1 -0.856558 -0.48946464 -0.05680252 0.6812651 -0.10261392 -0.09591411 -0.017920254 0.05261163 -0.083837904 -0.010203454
2 -0.8048566 -0.4494601 -0.03366578 0.651574 -0.088429354 -0.04950809 0.047027532 0.005791425 -0.10631656 -0.01842636
3 -0.85463035 -0.49992493 -0.008204238 0.6603981 -0.13848361 -0.13249616 0.047401983 -0.023896279 -0.1439 -0.042508133
4 -0.8865284 -0.4356611 0.025752543 0.66344565 -0.12232734 -0.075638875 -0.003845898 0.01348795 -0.08735625 -0.040372483
0 -0.82153744 -0.41415557 0.051145956 0.6804328 -0.07103829 -0.11707332 -0.029484376 -0.011248511 -0.16881077 -0.08407429
6 -0.8456871 -0.41987908 -0.0517597 0.6479625 -0.13352257 -0.09273675 0.046494234 0.050078664 -0.09583306 -0.04786161
