7 10
1 0.19919074 0.6832024 -0.23813455 -0.2913687 0.24890357 -0.17671861 -0.10994931 0.7432111 0.1908524 0.12718949
0 0.18981242 0.73058194 -0.25669432 -0.17426445 0.2952531 -0.18393815 -0.06806805 0.7896188 0.25830802 0.0976419
2 0.22674258 0.6921351 -0.18685038 -0.26765883 0.2935963 -0.21808665 -0.12396699 0.76718247 0.20583038 0.12859426
5 0.16408898 0.6648109 -0.17724435 -0.3311538 0.30298322 -0.18533741 -0.06927775 0.77687263 0.19593447 0.016555285
3 0.20081787 0.6760425 -0.23968183 -0.24158789 0.28605485 -0.19338177 -0.075570926 0.7408758 0.20448594 0.020948501
6 0.17028624 0.6479559 -0.227452 -0.15252972 0.275711 -0.1952678 -0.10956427 0.77110434 0.17940608 0.1664927
4 0.23526655 0.6596448 -0.1707611 -0.15621263 0.27900103 -0.22970843 -0.10014284 0.77268547 0.25524735 0.12683682
