6 10
2 0.029590815 -0.1809869 -0.5947104 0.24554653 -0.16107942 -0.1546848 0.55768853 -0.39442423 -0.72186965 -0.14591563
1 -0.009887045 -0.2142812 -0.5698696 0.23700662 -0.043025576 -0.13529803 0.5635308 -0.3053511 -0.6707961 -0.1270445
5 -0.05572887 -0.13558114 -0.64539576 0.23889527 -0.20164038 -0.14407352 0.5881769 -0.34967843 -0.75740415 -0.11288788
3 -0.05974239 -0.19135624 -0.583922 0.19189182 -0.107213214 -0.078295425 0.57159734 -0.38061476 -0.6509906 -0.18364182
6 0.0038162232 -0.2230143 -0.5473872 0.2566062 -0.13296846 -0.16927645 0.52443373 -0.40990958 -0.7221334 -0.13994254
4 -0.012131399 -0.1395211 -0.56529194 0.2587333 -0.088951275 -0.13197023 0.552009 -0.33612514 -0.5916817 -0.19297178
