7 10
1 -0.23442121 -0.19466266 -0.7119814 -0.17868343 -0.27903202 0.09989087 0.4065272 -0.6842947 -0.2244646 0.020205103
4 -0.26514998 -0.20333472 -0.74138576 -0.120867275 -0.2261564 0.06000178 0.42841294 -0.7333464 -0.20760006 0.008157179
3 -0.25964594 -0.18231788 -0.70868933 -0.15383187 -0.2855837 0.07639186 0.4034755 -0.672332 -0.26424494 0.029980116
0 -0.24330904 -0.14654036 -0.69193184 -0.14079915 -0.29364854 0.09733696 0.39145735 -0.6901617 -0.19343698 0.031250928
2 -0.27160335 -0.21747008 -0.6718398 -0.16315323 -0.2530558 0.03112516 0.3708692 -0.692044 -0.24481843 0.01887663
5 -0.24892464 -0.20180379 -0.70306265 -0.096225165 -0.26527727 0.03890704 0.3940018 -0.68765354 -0.2560121 0.0071046366
6 -0.27866536 -0.23172003 -0.6636746 -0.112554915 -0.2798643 0.03331579 0.40056804 -0.6496258 -0.255327 -0.034394458
