7 10
5 0.27939734 -0.022116968 0.848121 -0.3182528 0.6232165 0.0481264 0.21958163 0.19899209 -0.14355177 -0.14270781
4 0.2398208 -0.031858522 0.8914263 -0.28606835 0.5908311 0.08738262 0.2213442 0.18488139 -0.13855119 -0.19107029
0 0.2870435 -0.02455182 0.81424534 -0.3426687 0.5622259 0.09470992 0.23173675 0.21665223 -0.0659785 -0.22900678
2 0.29008713 -0.08752807 0.857385 -0.2664707 0.58545554 0.12617756 0.25063768 0.15863119 -0.09154684 -0.20127228
1 0.31017154 -0.06319653 0.8478969 -0.30968976 0.5695157 0.07996756 0.24745247 0.17872007 -0.16712151 -0.21395954
3 0.21554115 -0.0825196 0.84787416 -0.31114495 0.5784304 0.103251256 0.18065394 0.18845467 -0.13999829 -0.19002886
6 0.2847184 -0.05733129 0.8717815 -0.35059625 0.54643315 0.106176496 0.26729566 0.20570308 -0.11667978 -0.19106685
