7 10
0 -0.1694963 -0.65235406 -0.7662808 -0.23563637 -1.1230719 1.319209 -0.3746405 0.7481013 -1.2094951 0.6393413
2 -0.0042110644 -0.8103048 -0.20569426 1.154922 0.44394216 -0.018613841 0.010238946 -1.1681479 -0.27600724 0.5795658
5 -0.041716784 -0.8364998 -0.1778317 1.1875149 0.42379895 0.012062458 0.056613 -1.1690735 -0.24258932 0.61581224
6 0.04125242 -0.85052216 -0.15023595 1.2458714 0.44451565 0.038079932 0.074045144 -1.1890755 -0.27382168 0.55152357
3 0.030825837 -0.86549354 -0.20082219 1.2410347 0.4058884 -0.01704159 -0.0071985656 -1.2559073 -0.267196 0.63261014
1 -0.06718146 -0.5552643 -0.5956626 -0.19079271 -0.9660628 1.1752133 -0.38671967 0.62190974 -1.08681 0.5937196
4 -0.10333855 -0.62446207 -0.72225875 -0.1810351 -1.0178285 1.2353402 -0.39079112 0.6404979 -1.1291982 0.564311
