7 10
5 0.42449385 -0.29702866 0.20448025 -0.36509055 -0.15054387 -0.7014291 -0.10724714 0.08826258 0.21108814 -0.57676476
2 0.40510878 -0.3267593 0.18810156 -0.38513458 -0.17264159 -0.70975995 -0.03047809 0.09366614 0.28560856 -0.5472941
3 0.42482364 -0.30056736 0.22978935 -0.3412898 -0.143627 -0.7109106 -0.07378464 0.12146189 0.209052 -0.5796765
1 0.39353552 -0.30235514 0.21692133 -0.39482877 -0.13775295 -0.6891876 -0.098658554 0.1321753 0.28982514 -0.5460375
0 0.38791853 -0.3154705 0.24524663 -0.35628733 -0.08753699 -0.72026885 -0.107396655 0.16135432 0.2801845 -0.5807556
4 0.37347293 -0.30909184 0.1956355 -0.3408478 -0.17181958 -0.73906356 -0.1325056 0.124706395 0.23831259 -0.6096065
6 0.39656526 -0.28119543 0.23467468 -0.3749383 -0.13549882 -0.702174 -0.053392783 0.11395318 0.25452074 -0.5667142
