6 10
5 -0.5102402 0.42011473 0.048560657 -0.09934725 0.5610782 0.14789669 0.057248294 0.24501184 -0.7464853 0.21706685
4 -0.46812716 0.46814254 0.096000396 -0.12967077 0.52852976 0.1295163 0.024868863 0.26758158 -0.7724066 0.19219972
1 -0.50037134 0.38307974 0.083595954 -0.14436482 0.55188406 0.14572795 0.04398091 0.26533663 -0.67548835 0.19074504
3 -0.45394006 0.42923784 0.053380486 -0.06534392 0.52350914 0.1851358 0.02710026 0.25272247 -0.6869102 0.18284139
0 -0.47011822 0.45061812 0.061841905 -0.082046546 0.5084045 0.15005028 0.026637694 0.29698515 -0.71301484 0.17608094
2 -0.48905078 0.43213832 0.11287772 -0.13050555 0.53322756 0.19861802 0.029609008 0.2423585 -0.6652159 0.1821796
