7 10
1 -0.24933459 -0.4485542 0.22837554 -0.27395555 0.060502257 0.74062353 -0.26832607 0.49599844 -0.37583384 -0.13715772
0 -0.21165335 -0.38992915 0.31489488 -0.16967884 0.21861227 0.66350806 -0.22405227 0.5632442 -0.50629455 0.015446288
3 -0.23955846 -0.42931223 0.19499384 -0.26024944 0.13660385 0.7177696 -0.24360603 0.51424885 -0.375477 -0.04466654
4 -0.29561627 -0.36260244 0.23791946 -0.25530046 0.081848055 0.73012596 -0.23646092 0.5101916 -0.35989 -0.09750866
2 -0.28222966 -0.37662137 0.19963583 -0.30529448 0.12853709 0.81516695 -0.26888144 0.4738775 -0.3547764 -0.07269543
6 -0.24024081 -0.41632456 0.24707337 -0.20823142 0.19823352 0.7085106 -0.25566196 0.5385709 -0.4683651 -0.0681359
5 -0.2162475 -0.43785807 0.2270358 -0.17728968 0.17299336 0.6812849 -0.18870139 0.53875417 -0.40019307 -0.025015185
