7 10
0 0.5259056 -0.08054243 0.16680335 -0.18104324 0.53292966 -0.24310732 0.20886765 0.4970951 0.57389295 0.26304784
3 0.5048616 -0.15103698 0.19297524 -0.22677498 0.5477149 -0.3260039 0.23471937 0.47860676 0.5340584 0.24751769
2 0.5461386 -0.075506255 0.15961096 -0.23198144 0.5406194 -0.2611278 0.13814893 0.47032493 0.58113074 0.27564687
4 0.47715995 -0.14472444 0.23648939 -0.24515511 0.52095777 -0.29147163 0.20399623 0.47565642 0.5680726 0.27375457
5 0.46309748 -0.14627142 0.18206747 -0.2592216 0.5602072 -0.30380836 0.24168067 0.4742267 0.55313194 0.22864193
1 0.48131502 -0.140554 0.22493349 -0.22747985 0.49271357 -0.3388029 0.14936158 0.5357364 0.51103115 0.2410138
6 0.52568454 -0.114811175 0.12662722 -0.22949395 0.51727545 -0.29192403 0.15555511 0.44201168 0.5639193 0.24517104
