7 10
1 -0.077847406 -0.07973573 -0.36697286 0.024298381 -0.021099623 -0.35688344 0.30364904 -1.0020963 0.21480386 0.256329
0 -0.064131364 -0.061237376 -0.3056252 0.033684444 -0.045170765 -0.44006637 0.3009278 -0.9496978 0.22805415 0.20868412
3 -0.039304245 -0.12888747 -0.3601458 -0.0054130265 0.039930325 -0.412193 0.27517098 -0.9350071 0.22660974 0.23450306
2 -0.025015527 -0.106554955 -0.3211414 0.0035793413 0.033443157 -0.40602466 0.28387523 -0.97366536 0.17102708 0.274733
4 -0.0032651587 -0.14896922 -0.35129118 0.020021629 -0.006799462 -0.42454427 0.259148 -0.9449548 0.23407218 0.19524534
5 -0.07483417 -0.11339898 -0.38230786 0.04631457 0.042308476 -0.37987012 0.27310774 -0.96109945 0.19118771 0.24793391
6 -0.09000032 -0.15078536 -0.32711616 -0.03819752 0.018990261 -0.41554 0.29174387 -0.90826535 0.22672684 0.2537649
