7 10
2 1.0695896 -0.24979973 -0.39072058 -1.3136169 0.77109593 -0.5867575 -0.07483814 -0.18219243 0.68973976 -0.41899654
1 1.1163802 -0.25300166 -0.46334937 -1.295223 0.8037668 -0.5236415 -0.039516278 -0.13876809 0.6925686 -0.37609008
4 0.039362594 -0.9658275 1.098931 0.531212 0.5473474 0.79845756 0.27462757 -0.6234257 0.5234181 -1.358221
6 0.08947307 -0.9101169 0.99130404 0.46803543 0.5146158 0.74472326 0.258658 -0.5265808 0.4554661 -1.3355402
5 0.14445767 -0.92606074 1.0991043 0.514813 0.49109912 0.73414046 0.17695983 -0.6175118 0.48045343 -1.3798913
3 1.0844522 -0.19068724 -0.424669 -1.2507694 0.6698136 -0.49970916 -0.037919145 -0.0855524 0.6570273 -0.29989475
0 0.9879232 -0.2335124 -0.4396753 -1.1119522 0.69775504 -0.48922417 0.01195813 -0.12454093 0.6325749 -0.26051906
