7 10
0 0.71722156 0.13727461 -0.5985406 0.27672717 0.2571848 0.54412025 0.059828006 -0.2920674 0.120496504 -0.12749246
5 0.7490587 0.0824398 -0.5726527 0.3494478 0.26678005 0.45619765 -0.07286587 -0.23281722 0.20071171 -0.15112272
2 0.67792726 0.14474192 -0.5698497 0.31636208 0.301038 0.48492157 -0.010631 -0.3003386 0.15578526 -0.1638766
6 0.7100548 0.10984279 -0.5738652 0.27798414 0.3065907 0.4920065 -0.028817026 -0.26149306 0.14250052 -0.20704438
3 0.70033044 0.0682819 -0.54445595 0.2920664 0.25307614 0.4855304 -0.07890937 -0.26118392 0.18823804 -0.15604578
4 0.68779105 0.1819122 -0.5240475 0.19270077 0.3161712 0.5608451 0.062227476 -0.24886172 0.18306144 -0.15330814
1 0.6519649 0.10823524 -0.6108171 0.27143818 0.3101134 0.5864889 0.07120619 -0.25399768 0.21609092 -0.15705785
