7 10
1 0.11147425 -0.13592066 0.066681735 0.06765744 0.19346401 -0.7232269 -0.7521941 0.0011340848 0.33619055 0.19368835
0 0.18948735 -0.06701729 0.050893866 0.059820425 0.2597666 -0.73152274 -0.79292995 0.0072105853 0.3428969 0.19382372
3 0.114872485 -0.15539889 0.026699234 0.054558996 0.21847954 -0.75164425 -0.8245374 -0.0007129002 0.34133223 0.15936072
2 0.20143124 -0.08972663 0.06878 0.09016338 0.19419007 -0.72530687 -0.79205817 -0.026071342 0.26463675 0.14855748
4 0.15915298 -0.11572805 0.027036482 0.06925012 0.28904566 -0.690877 -0.8156256 -0.016037231 0.28300428 0.16259949
6 0.1292255 -0.086888246 0.037255187 0.022539668 0.2759499 -0.7401352 -0.7886417 -0.053817157 0.32956344 0.14854763
5 0.18235362 -0.1528788 0.091494806 0.05786163 0.23104508 -0.7093641 -0.71858275 0.016070789 0.35048896 0.18720365
