6 10
4 -0.10762339 0.47575983 0.13386421 0.9449784 -0.19725153 0.22075923 0.27756745 0.0979186 -0.24992928 -0.24980612
0 -0.09519595 0.44471702 0.14401783 0.92028075 -0.15408713 0.21277732 0.22867736 0.15701666 -0.2089954 -0.29657844
2 -0.09463491 0.40696597 0.18776943 0.8871805 -0.13789555 0.25877175 0.3128283 0.08307155 -0.2693845 -0.34126872
1 -0.0618198 0.4463462 0.22571217 0.8723445 -0.14393337 0.19770685 0.311402 0.16924824 -0.23122995 -0.3508132
3 -0.033983737 0.4678344 0.112894006 0.93275523 -0.21546698 0.22699285 0.28612885 0.11654585 -0.24517591 -0.32228613
5 -0.025818273 0.42118505 0.20532411 0.8593737 -0.16941261 0.2627188 0.22087519 0.15353099 -0.22408973 -0.2526673
