7 10
6 -0.08329368 0.18980667 0.045528416 -0.6533222 -0.0072449115 -0.07257327 0.12911844 -0.2306825 0.84654135 0.26100728
4 -0.12096461 0.15947783 0.058524575 -0.6948493 -0.08942761 0.029184414 0.18849337 -0.22219859 0.8425067 0.24011609
5 -0.028166467 0.1408631 0.07536509 -0.6517891 -0.015031347 -0.063199624 0.21276726 -0.26845038 0.829991 0.2388207
3 -0.090720735 0.174542 0.011097263 -0.6402456 0.002811057 -0.060394935 0.1840231 -0.1815656 0.8920694 0.27464637
0 -0.078161374 0.1932381 0.042520337 -0.6735025 -0.08373283 -0.014000983 0.20320894 -0.2454347 0.8807431 0.25540596
1 -0.008086311 0.19982316 0.0780636 -0.6348624 -0.034254037 -0.008317199 0.1670166 -0.24647355 0.91510224 0.19154106
2 0.005878474 0.14719078 0.086885124 -0.71292907 -0.022496803 -0.03321373 0.12507781 -0.22831973 0.9117242 0.18940192
