7 10
6 0.33690277 -0.27383536 -0.6173294 -0.31084448 0.50128925 0.33920544 0.13674161 0.012412412 -0.45302385 -0.38955498
5 0.2628163 -0.26858816 -0.6521836 -0.30637378 0.5127859 0.32135925 0.069714405 -0.07042224 -0.4008761 -0.42697322
3 0.29873922 -0.24592385 -0.64644784 -0.36066577 0.51608926 0.35435522 0.14108405 0.021095831 -0.37898982 -0.39619997
1 0.33744067 -0.2353805 -0.68923366 -0.3120929 0.4620895 0.34298676 0.14135127 -0.090022966 -0.36463508 -0.45762986
0 0.3062359 -0.21401274 -0.6384533 -0.3555251 0.540957 0.3056135 0.10452877 -0.078115515 -0.40338984 -0.40645158
4 0.3422233 -0.27934065 -0.60745686 -0.34389785 0.5163347 0.29989815 0.08075352 0.020462612 -0.4442149 -0.424059
2 0.33604813 -0.23393813 -0.6555785 -0.35698515 0.51675135 0.34539497 0.120085515 -0.023191312 -0.38830236 -0.40321675
