7 10
5 1.1758517 0.22802271 -0.63513803 0.045495786 -0.9777284 -1.0906152 -0.78423303 -1.0006192 -0.3491382 1.3899127
6 1.2048087 0.252206 -0.61145467 0.07606626 -0.93954825 -1.0894362 -0.8397507 -1.0362436 -0.3492363 1.3727002
3 0.43638328 0.49314812 0.11236436 1.0273986 -0.24444656 0.32335722 0.07079634 1.1238123 -0.88225126 0.037606794
1 0.49996164 0.50632626 0.07020913 0.9714289 -0.26379284 0.32091993 0.040042624 1.0979176 -0.85388553 0.0012813226
4 0.48701978 0.47246322 0.13284545 1.0006346 -0.23371904 0.27580658 0.049958937 1.0145315 -0.868399 0.015654538
2 0.4647137 0.4095396 0.054457434 0.972732 -0.2152023 0.24967821 -0.021323426 0.98860663 -0.80766034 0.042605292
0 0.5168495 0.47078204 0.11198102 1.015951 -0.24263638 0.33665916 -0.019842172 1.0609736 -0.7681129 0.036398854
