7 10
5 0.52258724 -0.05310675 -0.1498814 0.1184107 -0.25441322 0.41520575 0.22625805 -0.5510173 -0.344412 -0.6339318
2 0.5102597 0.0039086356 -0.08269199 0.16877997 -0.3276349 0.39505798 0.2556794 -0.622285 -0.35536897 -0.58354867
3 0.45692584 0.049900357 -0.12776217 0.17600156 -0.30792454 0.35664916 0.25524828 -0.5786088 -0.33308187 -0.5997621
1 0.52340966 0.007037377 -0.15624425 0.1577741 -0.32185465 0.42287788 0.2540515 -0.57002485 -0.3734166 -0.56587714
6 0.5255909 0.0151351625 -0.117604606 0.1315481 -0.3173102 0.4357735 0.17193982 -0.58238924 -0.29867184 -0.6255699
0 0.55657935 -0.052118234 -0.092285536 0.10321112 -0.31553823 0.39408228 0.1761936 -0.5462835 -0.3205415 -0.65953434
4 0.4734687 -0.0026076168 -0.14093426 0.14625435 -0.2808102 0.3934597 0.2177475 -0.5656484 -0.28899676 -0.5697391
