5 10
0 -0.10159612 -0.008486285 0.09081921 0.028852778 0.61204726 -0.5860599 -0.33676416 -0.3267522 -0.36531216 -0.50971025
2 -0.056463473 -0.078422606 0.16869193 0.049012583 0.5806307 -0.6088585 -0.39265522 -0.40690404 -0.3746147 -0.49266398
1 -0.045889016 -0.006229699 0.12412747 0.0711195 0.58981735 -0.588254 -0.38699225 -0.35368222 -0.38392437 -0.46313652
4 -0.11129104 -0.008750648 0.06595658 0.011008691 0.61327493 -0.5175122 -0.39052233 -0.37116888 -0.34870893 -0.5044931
3 -0.102408975 -0.051290903 0.07533564 0.09816027 0.6171816 -0.6012668 -0.34238502 -0.36473364 -0.4086314 -0.5096617
