7 10
3 -0.44091934 -0.4631066 -0.13981983 0.41522032 -0.0877803 0.43247625 0.055047706 -0.7240083 -0.23612471 -0.065187335
0 -0.39221025 -0.4605667 -0.14560772 0.45434082 -0.16367768 0.41514212 0.1476511 -0.72796637 -0.3210226 -0.0010871029
5 -0.37642214 -0.4874083 -0.06270837 0.4568894 -0.08699321 0.43203124 0.1341375 -0.7060922 -0.25110614 -0.07251124
1 -0.45063755 -0.4352744 -0.06416265 0.47073376 -0.08854785 0.3975027 0.11502635 -0.6732738 -0.309305 -0.065955855
2 -0.40337962 -0.4441374 -0.0916039 0.45983535 -0.15157805 0.38386768 0.105863765 -0.7180837 -0.25270194 -0.01613464
4 -0.41324368 -0.48356718 -0.06281982 0.47396222 -0.102763906 0.4290391 0.15967241 -0.7431783 -0.317679 -0.07622525
6 -0.412548 -0.40893027 -0.13350548 0.41347125 -0.15944423 0.35492536 0.16407362 -0.7150363 -0.25327173 -0.04634039
