7 10
2 0.32632107 -0.11045094 0.9421543 -0.4097494 -0.3544288 0.10375825 -0.19262096 -0.19328728 -0.09838824 -0.06691606
4 0.3718496 0.012255359 0.969329 -0.3520984 -0.24282858 0.16986756 -0.10316241 -0.13183433 0.004644496 -0.2385415
1 0.39570302 0.0517622 0.9818029 -0.4083869 -0.21188347 0.18476905 0.012849346 -0.09527848 -0.016622933 -0.26223388
3 0.42593947 0.07988085 0.99702936 -0.38932556 -0.12893818 0.19138204 0.025401931 -0.039840527 0.0029663066 -0.3144458
6 0.3618779 -0.041039113 0.9146897 -0.40153885 -0.38472483 0.09310666 -0.17332529 -0.10489211 -0.0489964 -0.17698546
5 0.3495396 0.017054126 0.9041748 -0.37830624 -0.32508293 0.13427971 -0.18451259 -0.06712291 -0.014168999 -0.12979464
0 0.42330334 0.057367213 1.0525854 -0.45402965 -0.13546334 0.1168645 -0.0077662617 -0.10789603 -0.06826743 -0.3421744
