7 10
4 -0.17474127 -0.14151622 -0.3961165 0.03648645 -0.50266755 0.5977466 -0.588613 0.3488391 0.12104032 0.31969327
3 -0.18003297 -0.115725055 -0.36474285 0.040999074 -0.48590693 0.5900069 -0.60437834 0.35536072 0.08300063 0.31360647
2 -0.17679928 -0.11022565 -0.4036109 0.05445352 -0.45735255 0.54481506 -0.64726615 0.431239 0.08505446 0.30001804
0 -0.21047738 -0.16016336 -0.3701857 0.008449062 -0.529621 0.5750851 -0.5899796 0.38512227 0.037864998 0.2599126
6 -0.1443349 -0.12756717 -0.345654 0.09279619 -0.47936362 0.5718248 -0.58309036 0.38262662 0.105296515 0.30665937
1 -0.24185865 -0.07076228 -0.33189648 0.06457715 -0.5017974 0.60708195 -0.56058335 0.44231465 0.03727221 0.30009305
5 -0.23113291 -0.113797225 -0.35660258 0.056758072 -0.52092755 0.57439846 -0.56896377 0.41163358 0.068541825 0.27443776
