7 10
1 0.17596127 -0.22527532 -0.1181359 -0.42643514 0.33590347 -0.03144282 0.32976758 -0.55324453 -0.7466828 -0.38003868
2 0.22409399 -0.2255647 -0.22176306 -0.5167114 0.22827308 -0.11846487 0.22475173 -0.45096913 -0.7243925 -0.2900579
4 0.21837328 -0.23740554 -0.16552325 -0.41972518 0.34700355 0.037486486 0.38707045 -0.49745554 -0.6590056 -0.37442482
5 0.12422037 -0.28814182 -0.20220302 -0.46173832 0.2676876 -0.10679404 0.2504462 -0.43300262 -0.79494196 -0.21749876
6 0.14097074 -0.27381718 -0.12749146 -0.42307553 0.2741078 -0.1531341 0.22274779 -0.49417022 -0.7992214 -0.21559776
0 0.20183963 -0.22166108 -0.19402368 -0.4376691 0.343978 0.070313394 0.3645656 -0.5518088 -0.70703346 -0.34860933
3 0.20310797 -0.2757999 -0.11741155 -0.40879896 0.32747233 -0.045288846 0.30994496 -0.47853988 -0.73238486 -0.22830838
