7 10
4 -0.06632581 -0.38260046 0.9347645 0.0367527 -0.08472589 -0.31592727 -0.12939753 -0.33398938 -0.03596158 -0.42983353
5 -0.02082147 -0.44806874 0.8924991 0.030081468 -0.048310712 -0.33414263 -0.08412671 -0.3631377 0.015310708 -0.41673115
6 -0.024099069 -0.44203427 0.9273618 -0.02794846 -0.12746257 -0.32156208 -0.07446565 -0.3295177 -0.053182248 -0.39454657
3 0.0021870967 -0.413891 0.82635576 0.028880224 -0.053544678 -0.35484964 -0.12677538 -0.38636926 -0.0032430992 -0.45992348
1 -0.008099556 -0.34814277 0.8699669 0.02348432 -0.12628077 -0.3418761 -0.08546258 -0.36598873 -0.0010232195 -0.42815822
2 -0.08358081 -0.45164332 0.85048515 -0.04542314 -0.055851314 -0.27306974 -0.044795576 -0.35063487 -0.06829895 -0.45028606
0 0.006097953 -0.44759116 0.88558745 -0.03196 -0.038546693 -0.34331042 -0.11350386 -0.35272846 0.03200644 -0.4326923
