7 10
3 0.839608 -0.049965348 -0.06354994 -0.07319078 -0.5009536 0.12532221 0.22710918 0.11472503 0.16699521 -0.5682292
4 0.8873679 -0.07045344 -0.015980775 -0.071380325 -0.4665027 0.17222638 0.21475181 0.1378817 0.16428158 -0.57517534
5 0.86692894 -0.07556326 -0.0025078126 -0.036212273 -0.48905167 0.0901382 0.18033004 0.054091413 0.20225576 -0.571638
6 0.85838944 -0.0066965446 -0.045662887 -0.09514565 -0.49042046 0.12834649 0.26570243 0.10339511 0.10081863 -0.5561031
2 0.8735155 -0.073562734 0.008843185 -0.113098346 -0.46232548 0.14269036 0.25646362 0.116407506 0.15292203 -0.5229833
1 0.85636675 -0.07737857 -0.026617678 -0.052919284 -0.4592204 0.07831238 0.24521683 0.11281844 0.18145065 -0.5403645
0 0.8985225 -0.04171314 -0.026131045 -0.021746848 -0.4625951 0.17323156 0.24092433 0.063585505 0.14950147 -0.5163557
