7 10
1 -0.5277921 0.5452908 0.14430745 -0.33562183 -0.23033598 -0.36352387 -0.17686096 0.36106098 0.24256074 -0.5814775
3 -0.5309126 0.5257446 0.13675644 -0.2635487 -0.23354255 -0.3679225 -0.22332452 0.2932407 0.25771886 -0.5673467
5 -0.5036582 0.55582285 0.19120865 -0.3254093 -0.24659894 -0.32441214 -0.20210463 0.32576886 0.29052484 -0.5387865
4 -0.5540473 0.5390322 0.18208484 -0.3497922 -0.1803448 -0.31442216 -0.16207129 0.38015997 0.23826186 -0.49998716
0 -0.49991232 0.55436254 0.13901512 -0.3520825 -0.19806774 -0.3445045 -0.17967816 0.3575139 0.2838288 -0.5394195
6 -0.49381527 0.5213235 0.115351 -0.3329412 -0.24868836 -0.31254873 -0.22208688 0.36396408 0.30732864 -0.5990351
2 -0.5415218 0.5421119 0.1574799 -0.26102486 -0.16111423 -0.36571535 -0.17388694 0.3364217 0.2330849 -0.5817461
