7 10
1 -0.2900629 -0.29556552 0.34522194 -0.23236239 -0.1193215 -0.64130527 -0.3952738 -0.21381907 0.51559484 0.2646243
0 -0.2952996 -0.36978385 0.3786961 -0.16265023 -0.12545498 -0.671701 -0.38059923 -0.18383151 0.47420833 0.33561206
2 -0.22862722 -0.35818264 0.36961 -0.23962317 -0.13218236 -0.6587305 -0.39423785 -0.2800517 0.47857815 0.31935912
4 -0.29003483 -0.3233279 0.36540717 -0.25954592 -0.14160223 -0.66636294 -0.3902858 -0.28088513 0.52580214 0.2914882
5 -0.26953855 -0.35473534 0.3246548 -0.23091127 -0.14829728 -0.65393806 -0.41432798 -0.25655478 0.56150997 0.25221345
6 -0.27164388 -0.35975918 0.3854639 -0.21997425 -0.14457373 -0.6326818 -0.40570295 -0.24946468 0.50588423 0.3024595
3 -0.26196873 -0.34410602 0.3726428 -0.18303213 -0.09721376 -0.6773761 -0.36160123 -0.26724017 0.5006953 0.3005861
