7 10
2 -0.39661536 0.3104759 0.19245891 0.4496541 0.34708056 0.6481931 -0.14725764 0.39634094 0.3697738 -0.08576554
5 -0.40859595 0.30714905 0.23426606 0.49108988 0.36528665 0.6614918 -0.15396066 0.4175192 0.3231756 -0.11398792
1 -0.43077722 0.25817582 0.19215795 0.50291765 0.260216 0.6883852 -0.10125767 0.36242163 0.3512834 -0.19138592
4 -0.4067079 0.32171378 0.1761875 0.4688995 0.28401375 0.641136 -0.16456951 0.40084192 0.35311177 -0.16407824
0 -0.38917086 0.27371487 0.25398776 0.44202518 0.32201964 0.726306 -0.10888484 0.3730414 0.3675312 -0.19871408
3 -0.41308433 0.34050983 0.19324087 0.47039515 0.36407644 0.6363065 -0.13477367 0.36000243 0.37114698 -0.100903116
6 -0.3840189 0.25267747 0.23878175 0.51592577 0.33716092 0.6947925 -0.10023138 0.39936423 0.33423448 -0.19893332
