7 10
6 0.22233875 0.58571535 0.38188192 -0.17703539 -0.3718606 -0.32038763 0.55943525 -0.4934697 -0.20214482 -0.22621043
2 0.20192668 0.66010296 0.37857768 -0.109470196 -0.39137113 -0.33172384 0.5017112 -0.5124255 -0.12438505 -0.16905037
0 0.20184459 0.65319127 0.360064 -0.121189006 -0.36550495 -0.34301692 0.5563712 -0.4249362 -0.19973013 -0.19720823
1 0.26754433 0.64027625 0.3234235 -0.15866481 -0.29871413 -0.34799448 0.5261733 -0.4516883 -0.10023033 -0.2490583
3 0.2458467 0.6440607 0.3419427 -0.1477772 -0.27552488 -0.35347232 0.56785876 -0.43520698 -0.19472829 -0.20713124
4 0.20793222 0.61499345 0.35068345 -0.12489193 -0.3989859 -0.3129991 0.5523428 -0.4808622 -0.12867205 -0.22813746
5 0.2329787 0.616781 0.36129153 -0.17287774 -0.30674812 -0.26734555 0.5408974 -0.48637483 -0.15751617 -0.24352379
