4 10
0 -0.023115933 -0.27231944 -0.4040871 0.58992726 -0.4345559 0.046081875 -0.38129273 -0.01560219 -0.62368345 0.37550518
4 -0.05724988 -0.1924311 -0.36873865 0.44377103 -0.40665534 0.08062171 -0.33691147 -0.015601576 -0.5202771 0.35384667
5 -0.10472719 -0.2799644 -0.37431073 0.6071611 -0.38069308 0.04342025 -0.3908631 -0.030052006 -0.6613089 0.3405625
3 -0.043198545 -0.1648145 -0.2812416 0.46929753 -0.41456822 0.050192747 -0.326334 -0.02801059 -0.5445505 0.3561266
