7 10
0 -0.28429332 -0.057787605 0.22727045 0.18364695 0.073097564 0.021565422 -0.2694092 0.38400277 0.6426029 0.70506114
3 -0.30760857 -0.057215445 0.25721067 0.15515496 0.09370835 0.02862226 -0.18076693 0.39309585 0.6207298 0.70361936
2 -0.31905094 -0.079874046 0.2630757 0.124934316 0.03221269 0.056070864 -0.20400834 0.36645705 0.6635765 0.6867748
1 -0.2888532 0.004190773 0.29610765 0.114902325 0.09524498 0.025809336 -0.19972114 0.34337837 0.6761423 0.6627434
4 -0.18010135 -0.0557475 0.20662297 0.34087166 0.001324863 0.26391602 -0.34404403 0.4691137 0.65262324 0.78683376
5 -0.21682538 -0.10433786 0.24210356 0.23836969 -0.0196748 0.14178073 -0.27461886 0.43736887 0.66251075 0.7650903
6 -0.13703758 -0.11206039 0.2356949 0.35235134 -0.0648444 0.25210798 -0.31024343 0.51546824 0.616757 0.8058741
