7 10
4 -0.6487812 0.6159952 -0.18310234 -0.29277635 -0.2848058 -0.21959777 0.39870775 0.033955477 0.33259472 0.11218006
1 -0.6111834 0.6477326 -0.08953017 -0.3115304 -0.31970713 -0.18214738 0.4117312 0.124191895 0.3310088 0.1078548
3 -0.63683325 0.6447668 -0.13406466 -0.25781074 -0.31707433 -0.18773234 0.3805399 0.054568123 0.35361353 0.15895386
0 -0.6095543 0.6552666 -0.08722849 -0.3037657 -0.2913202 -0.1541134 0.413203 0.11906231 0.32849476 0.17668423
2 -0.6728672 0.6113276 -0.14632353 -0.2843043 -0.35835096 -0.23698281 0.3650828 0.099071674 0.36924857 0.19695073
6 -0.63114536 0.6435345 -0.14563128 -0.2939724 -0.25970903 -0.14771506 0.32593486 0.07326549 0.34347844 0.15905268
5 -0.69310266 0.6290986 -0.16780236 -0.29622972 -0.352845 -0.17691542 0.34380996 0.10858626 0.30737907 0.103974156
