7 10
0 0.093984455 0.25135764 0.614189 -0.4368567 -0.25533852 -0.27741185 0.015790254 0.091761075 -0.49258006 0.5605337
1 0.09798603 0.31619033 0.6027142 -0.45690462 -0.3326635 -0.32061735 0.038258173 0.081635505 -0.50039965 0.5518227
2 0.039997295 0.27892563 0.6060232 -0.41878292 -0.28791142 -0.2750029 -0.041216552 0.054419585 -0.50232595 0.5503895
3 0.1307278 0.2808829 0.61509025 -0.3872578 -0.33921376 -0.274915 -0.014543292 0.13583662 -0.46917197 0.5832796
4 0.104226194 0.27263117 0.5972467 -0.4308289 -0.324628 -0.20128664 0.0048189 0.09264136 -0.5152107 0.5323346
5 0.11975293 0.27979687 0.5845094 -0.44778755 -0.25309756 -0.22478372 -0.022852054 0.04546527 -0.5065522 0.61646444
6 0.0713405 0.26639378 0.60225725 -0.42277652 -0.33102408 -0.30363026 -0.055786606 0.12545592 -0.5019332 0.62362176
