6 10
1 0.39363036 -0.1776733 -0.18258916 0.40796304 0.3237735 0.41351065 -0.32003146 -0.2321361 -0.19989723 0.7186334
5 0.42087495 -0.11879227 -0.13931324 0.5100933 0.29705516 0.45501944 -0.24611835 -0.21124756 -0.1602272 0.7250182
4 0.4078586 -0.1858705 -0.12068086 0.44512913 0.29655176 0.4635869 -0.29229358 -0.17699812 -0.13033795 0.7166161
2 0.37009624 -0.09882667 -0.16362472 0.4964608 0.3550422 0.4744598 -0.33839753 -0.21770334 -0.09753306 0.6609414
3 0.40349868 -0.14634047 -0.10317657 0.5035685 0.36873788 0.38653123 -0.31089398 -0.16901976 -0.13527559 0.7209251
0 0.35884196 -0.15243313 -0.14996855 0.51313525 0.35346416 0.45919555 -0.25315222 -0.14206502 -0.19774777 0.6575375
