6 10
5 -0.2906753 0.42084432 0.74342525 -0.15429378 0.15423042 -0.059101336 0.18108357 -0.01710357 0.56703734 0.37003607
1 -0.33694363 0.43115127 0.72420675 -0.12804234 0.24258447 -0.044536013 0.12642856 -0.11650442 0.58077395 0.41506207
4 -0.36980245 0.44614252 0.6958069 -0.16448003 0.20026073 0.046560623 0.20220196 -0.06732038 0.49691528 0.35809997
2 -0.37493774 0.48001787 0.7265824 -0.09829024 0.18185546 0.030404998 0.22232045 -0.012942058 0.57759285 0.4149791
3 -0.37534207 0.5140085 0.73375803 -0.09489928 0.13852692 -0.0063955146 0.1777104 -0.08062682 0.57944983 0.43141118
0 -0.3332217 0.4368902 0.70091915 -0.11795421 0.19329366 0.01141873 0.18487795 -0.12437524 0.44414997 0.38325787
