7 10
3 -0.34004584 0.49792653 -0.36156434 -0.13265516 0.42722914 0.7012051 -0.3976891 -0.20459053 0.031967662 0.078019835
1 -0.31146067 0.433555 -0.40489247 -0.12612438 0.46407387 0.7011479 -0.41300386 -0.17294623 0.04047412 0.052361164
2 -0.32304174 0.46655688 -0.411514 -0.12644637 0.44342196 0.67495173 -0.441655 -0.21392599 0.026077721 0.017298909
4 -0.3103651 0.47650704 -0.30571115 -0.08793035 0.45787966 0.6944334 -0.39536333 -0.14368021 0.06809795 0.064283766
0 -0.3114175 0.5106332 -0.40743604 -0.08079452 0.47036657 0.672864 -0.3978847 -0.1542953 0.013832371 0.01320824
6 -0.30448127 0.47292143 -0.4082642 -0.15111625 0.45495543 0.6717853 -0.43898168 -0.20530456 0.079318725 0.110500544
5 -0.2880825 0.49973336 -0.4058983 -0.061430354 0.39570576 0.73858994 -0.46968025 -0.2112202 0.10096104 0.10686722
