7 10
3 0.60963976 -0.0030546808 -0.3194659 -0.42807338 -0.2824528 -0.24045691 -0.11187559 0.52326554 -0.5241819 0.3768923
4 0.5789216 -0.02396115 -0.36571193 -0.38737756 -0.24222831 -0.1790091 -0.059375547 0.49557608 -0.4628023 0.41891578
6 0.59798473 0.035732638 -0.36799976 -0.4037493 -0.2246426 -0.14567421 -0.072999224 0.51001555 -0.52201325 0.4466286
0 0.59769064 -0.012755942 -0.2959486 -0.43163502 -0.24772084 -0.23928332 -0.041298766 0.5369774 -0.50114834 0.38397574
1 0.5723197 -0.025112666 -0.33099616 -0.35780478 -0.21307221 -0.22344777 -0.07326763 0.49797225 -0.5047643 0.44190833
2 0.615114 0.028706362 -0.32451224 -0.43016404 -0.24421811 -0.1799728 -0.051313702 0.42813462 -0.5173199 0.44095102
5 0.5500814 0.05384059 -0.39770982 -0.3837012 -0.2683596 -0.19594873 -0.068668276 0.4630549 -0.5093159 0.43867958
