7 10
6 -0.44080812 0.04810162 0.20640996 0.56036973 -0.092338644 0.8584128 0.049116857 -0.21510148 0.255454 -0.0077163856
2 -0.44193956 0.06258784 0.27035898 0.53019017 -0.07549824 0.85345775 0.040320594 -0.2807976 0.22307375 -0.07513148
4 -0.3851974 0.062622316 0.28270274 0.53318334 -0.12024714 0.81705326 0.07648398 -0.2444965 0.28648925 0.015768167
3 -0.4752433 0.07801391 0.22929238 0.52258074 -0.07396217 0.8259364 0.12668784 -0.25360492 0.31106278 -0.040779136
5 -0.45720583 0.11051045 0.2828989 0.5162172 -0.058671042 0.8429986 0.06071253 -0.225786 0.26526126 -0.032757167
1 -0.44338405 0.099601954 0.25234953 0.5355747 -0.028391859 0.8345649 0.12125851 -0.22503513 0.2610536 -0.033989154
0 -0.4503634 0.06412426 0.25740743 0.4770769 -0.058296002 0.812923 0.10862342 -0.23464423 0.2834448 -0.065812126
