7 10
1 -0.2975481 -0.37187222 0.26982018 -0.47733605 0.63690025 0.31964186 -0.43486655 0.120868474 0.06746239 0.55177563
3 -0.28289983 -0.3750574 0.26958278 -0.46702617 0.60230774 0.2804879 -0.4755388 0.123727635 0.101929925 0.5054605
4 -0.2531322 -0.36470494 0.24539116 -0.4474535 0.6131177 0.2403275 -0.4133934 0.12367368 0.04099076 0.52559125
0 -0.20265849 -0.34267 0.26572752 -0.42955405 0.5776192 0.3127101 -0.44565976 0.11979011 0.046589993 0.5023248
5 -0.28354013 -0.34223142 0.20844135 -0.41224724 0.615862 0.26346526 -0.44490656 0.06686226 0.10892719 0.53328973
2 -0.21826577 -0.32318965 0.24275964 -0.47999668 0.61649984 0.3048167 -0.41225913 0.059562765 0.1243275 0.5188833
6 -0.2152778 -0.37531534 0.29839677 -0.40809497 0.5920984 0.2799579 -0.46335772 0.0500947 0.044613756 0.49969718
