7 10
3 -0.5761158 0.17039174 0.32869887 0.0728774 0.14061846 -0.2945552 0.1092405 0.606396 0.19913991 -0.66330606
4 -0.5759425 0.20213759 0.3445969 0.026487146 0.17468023 -0.2167895 0.06821637 0.64495665 0.17248192 -0.57292736
0 -0.5400891 0.1796613 0.27390566 0.070706055 0.20152415 -0.28542474 0.15820788 0.64019173 0.19802116 -0.66303474
6 -0.5337139 0.22535907 0.36515483 0.05861602 0.15612881 -0.2995002 0.1207943 0.643128 0.22460715 -0.58645
1 -0.54324055 0.24374025 0.29574504 0.08155328 0.14244294 -0.29135534 0.102534264 0.57649606 0.19757421 -0.6233683
2 -0.49836335 0.19115019 0.32325834 0.09559313 0.14904752 -0.26684242 0.16223216 0.6201308 0.17260475 -0.62430567
5 -0.5308197 0.25393814 0.3532877 0.038760345 0.16838492 -0.2644311 0.13827491 0.6318079 0.23949063 -0.6094428
