7 10
1 -0.12066253 0.16574724 0.43150428 0.55150974 -0.47504285 -0.0009774156 0.01265458 -0.7650287 0.27847892 -0.11889842
0 -0.077837944 0.14813596 0.4333255 0.5373338 -0.45647842 -0.06572254 0.05542112 -0.7644214 0.27515438 -0.077023014
2 -0.04640746 0.21786076 0.37200963 0.55841535 -0.4602721 -0.07691319 0.009849134 -0.7684918 0.29669952 -0.034203343
3 -0.08031896 0.21805859 0.37815872 0.5406638 -0.47378254 0.015226736 0.010661174 -0.7888409 0.30435815 -0.08559258
4 -0.1225064 0.18520233 0.4171556 0.52843946 -0.47706828 -0.007640164 0.07141511 -0.7713841 0.31080413 -0.0925735
6 -0.096895 0.16628386 0.3567444 0.51031727 -0.47326803 -0.03290955 0.08623651 -0.76261526 0.27572432 -0.059400562
5 -0.043077547 0.19393198 0.4258959 0.5824957 -0.41326895 -0.045291144 0.08698235 -0.7632149 0.2507983 -0.03673264
