6 10
5 -0.6971967 -0.17266363 0.13114649 -0.2555233 -0.34477124 0.5207496 -0.350112 -0.019536344 -0.44535416 0.2107095
0 -0.76660264 -0.17587103 0.06103156 -0.29055673 -0.34614834 0.5434913 -0.32950947 -0.03243093 -0.42114663 0.21176319
3 -0.74664944 -0.16981164 0.14393245 -0.21355678 -0.33195284 0.4780171 -0.37157646 -0.061027262 -0.40501985 0.22055206
1 -0.7410697 -0.21822424 0.07235075 -0.20397389 -0.28788722 0.5578261 -0.32440948 -0.07311702 -0.4742062 0.2200722
2 -0.69937414 -0.15866925 0.15159681 -0.24851719 -0.3022466 0.55068004 -0.32388148 -0.08314355 -0.4462648 0.1727756
4 -0.7448759 -0.22654983 0.13838868 -0.25752398 -0.3162261 0.53775865 -0.31069514 -0.08803001 -0.3801558 0.19333719
