7 10
4 0.43178856 -0.046948854 0.10821357 0.5108944 0.6641671 -0.05163112 0.3999836 -0.40194833 -0.21130106 0.29677764
2 0.44192138 -0.022658696 0.117979795 0.50625783 0.6921192 -0.10188076 0.42881846 -0.44428477 -0.14932841 0.2845906
3 0.37720907 0.023251686 0.13261786 0.51756835 0.65628225 -0.14527936 0.42702642 -0.41316476 -0.18077399 0.22047466
0 0.43176576 0.041081566 0.11800722 0.48930106 0.67247784 -0.16897252 0.39329684 -0.4656456 -0.15726818 0.22771126
1 0.45033446 -0.051239945 0.105057955 0.5571145 0.6398289 -0.14217733 0.36584148 -0.4416568 -0.12747008 0.28376898
5 0.4628387 -0.02675684 0.11192888 0.5834893 0.676883 -0.10985685 0.405404 -0.48055583 -0.17881651 0.2719307
6 0.36456028 -0.05272771 0.14804621 0.53742355 0.67777777 -0.13789277 0.34877694 -0.42750013 -0.21984942 0.22689255
