7 10
6 0.6272853 0.62202364 0.07149966 0.49091473 -0.12964636 -0.34023353 0.44946203 -0.027468052 -0.45531756 0.010880944
2 0.60671026 0.6037684 0.07456855 0.48369136 -0.18600543 -0.3231844 0.4015432 -0.017663866 -0.45592177 -0.07578235
1 0.61950105 0.5881161 0.03018869 0.49579227 -0.2102135 -0.3501514 0.3728739 -0.051116932 -0.38785335 -0.0675778
3 0.6062336 0.5760521 0.01816335 0.49888283 -0.20437843 -0.37397417 0.42190877 -0.012092388 -0.4407596 0.022471594
0 0.56542736 0.5915206 0.09437647 0.5214331 -0.18431933 -0.36951122 0.44050077 -0.06931423 -0.44078982 -0.006113863
5 0.6140677 0.5964591 0.105079636 0.45660293 -0.18062386 -0.35965055 0.36211026 0.011478403 -0.38086492 -0.04096265
4 0.5772255 0.5741782 0.091736734 0.4869803 -0.19586945 -0.31592068 0.3893483 -0.0013186097 -0.4384616 -0.05125757
