7 10
6 0.18482485 0.9355836 0.29503953 -0.23351702 -0.37721464 -0.031872455 -0.33415422 0.46924454 0.011308649 -0.1617185
1 0.18042846 0.8586756 0.31156084 -0.27595332 -0.3721266 0.02683894 -0.27199507 0.38143632 0.12959237 -0.12730712
2 0.2232448 0.86328363 0.25894895 -0.28133637 -0.31559274 -0.011093978 -0.34200218 0.39909604 0.061824214 -0.15410525
3 0.16037184 0.8797346 0.30499348 -0.26711226 -0.35966527 -0.05431969 -0.35369983 0.4323766 0.03581137 -0.20161797
4 0.22308227 0.8662359 0.29628715 -0.23795958 -0.31739673 0.028542878 -0.27102187 0.44059104 0.111273006 -0.09500939
5 0.25689957 0.79341704 0.35682064 -0.30950034 -0.40146908 0.020855606 -0.2965932 0.45200896 0.09017128 -0.14500886
0 0.23758645 0.82414025 0.32859367 -0.2947649 -0.3536475 -0.033326745 -0.28234693 0.44542542 0.07846235 -0.1609921
