7 10
0 0.43214822 -0.63091457 0.32418913 -0.090434305 0.220548 0.016371947 -0.302818 -0.6001899 -0.3560191 -0.1751045
4 0.49255037 -0.5881601 0.41772217 -0.03552523 0.19923835 0.057048246 -0.1998291 -0.6011149 -0.4180728 -0.16940482
3 0.41043496 -0.64516556 0.36078337 -0.11466382 0.21610124 -0.076578796 -0.36667234 -0.5974547 -0.35143504 -0.06661261
2 0.4343114 -0.61555296 0.3386431 -0.11201851 0.24149196 0.030945217 -0.35130113 -0.62003905 -0.3481867 -0.18541719
5 0.39265102 -0.5715461 0.3903249 -0.16240618 0.2055049 -0.043455973 -0.32952797 -0.62922025 -0.38324073 -0.19775388
6 0.3761493 -0.6726371 0.27504364 -0.16756725 0.15012665 -0.023216298 -0.41374177 -0.60214317 -0.34799448 -0.13929847
1 0.42301422 -0.5617487 0.38226593 -0.06610503 0.21746184 -0.018164214 -0.18681818 -0.6084137 -0.3853216 -0.22961745
