5 10
3 -0.82773066 0.018154534 -0.076106004 0.3545061 0.13632871 -0.42919338 0.071438886 -0.30304667 -0.45352268 -0.12471898
1 -0.79848117 0.11299178 -0.08415299 0.28695363 0.13004029 -0.36029258 0.074797764 -0.37567535 -0.44850895 -0.12859197
2 -0.7964981 0.0948432 -0.0820401 0.30737272 0.09071858 -0.4115493 0.09222577 -0.38890898 -0.42058545 -0.07867318
4 -0.8437002 0.032011572 -0.07138975 0.30258593 0.1480143 -0.44691917 0.0065136277 -0.31807652 -0.4965232 -0.16850923
0 -0.8534262 -0.032686587 -0.05304216 0.38348877 0.15099984 -0.4311715 0.024722956 -0.3354339 -0.47585562 -0.13816603
