6 10
3 0.37330377 0.1565242 0.2109173 0.05956334 0.6663034 0.001308251 -0.49122858 0.17211248 0.25720447 -0.62892026
0 0.35576838 0.13461687 0.22161454 0.13111179 0.716149 0.035394732 -0.5028229 0.12733595 0.18989582 -0.62358564
2 0.32255238 0.19217911 0.18735065 0.1332301 0.69972277 -0.020247525 -0.4583896 0.21161622 0.22537242 -0.6135966
4 0.3076389 0.15684712 0.19382876 0.14042284 0.67271733 0.02719102 -0.51648694 0.22533259 0.20830704 -0.6297032
1 0.37472245 0.15102974 0.22946075 0.047717642 0.6894656 0.05425065 -0.5237209 0.12768711 0.21720834 -0.6039383
5 0.29531533 0.18814261 0.18463944 0.051406562 0.71914965 0.018315889 -0.4357265 0.2119278 0.21109919 -0.6059235
