7 10
6 0.81004995 -0.48861498 0.017559068 -0.19541115 0.17769086 -0.064965405 0.23515049 0.3426866 -0.035534546 -0.4767188
4 0.7943103 -0.5122442 -0.0030417969 -0.21830796 0.15326686 -0.058957566 0.27906635 0.39997643 -0.021593064 -0.47749668
5 0.8107819 -0.5292 0.06256532 -0.22237682 0.08196943 0.012183308 0.30843312 0.32357526 -0.06229667 -0.49856502
3 0.8035435 -0.49793467 0.07150133 -0.14745255 0.13568392 -0.0637272 0.2677151 0.32629701 -0.026248708 -0.49556634
1 0.8191921 -0.5167981 0.07177929 -0.18023881 0.11033457 -0.047876302 0.21413656 0.38567367 -0.0063378946 -0.48130527
0 0.7784344 -0.4792624 0.043573134 -0.23581547 0.13324088 0.022845617 0.26698753 0.3280036 -0.07570879 -0.50409275
2 0.7944895 -0.50422746 0.059928663 -0.19345868 0.10937698 -0.079566255 0.2937964 0.34867108 -0.091474466 -0.49705806
