7 10
0 -0.36510408 0.24068977 -0.09276997 -0.6181855 -0.58596265 -0.47332788 0.06582217 0.113249145 0.42153785 -0.01069235
3 -0.41914526 0.23135355 -0.19221579 -0.6011038 -0.6033094 -0.5068943 0.07779277 0.07049528 0.37758774 -0.04197442
5 -0.4321968 0.29176563 -0.16428232 -0.6264227 -0.5678536 -0.45700142 0.03366793 0.068278834 0.46575248 -0.0029198893
1 -0.41090965 0.17529854 -0.17611398 -0.62384105 -0.5529159 -0.47958532 0.013944809 0.14388478 0.44644135 0.008026891
2 -0.4142994 0.24268495 -0.13426268 -0.60591215 -0.5674512 -0.48412272 0.03176445 0.12923595 0.40126932 -0.024681551
4 -0.43527615 0.22476125 -0.09487518 -0.60582024 -0.5784775 -0.41215336 -0.003263781 0.068254374 0.41469455 0.008587819
6 -0.43584615 0.18286218 -0.16577937 -0.5805393 -0.58526134 -0.48766914 0.016503666 0.051458526 0.41038314 0.0019636129
