5 10
1 -0.14009868 -0.31943262 0.2227372 0.19588888 -0.39430514 -0.44457316 0.3934656 -0.66522944 -0.22834323 -0.3438769
2 -0.16334409 -0.3460876 0.20600669 0.1836885 -0.43255925 -0.5115184 0.37326103 -0.6251352 -0.18838306 -0.39920732
4 -0.109574765 -0.3107635 0.17553844 0.21556668 -0.35971847 -0.4866508 0.35667095 -0.7028837 -0.22268605 -0.38371053
3 -0.1076458 -0.26199818 0.2614981 0.2431597 -0.42999583 -0.49313658 0.38598144 -0.6149605 -0.15906239 -0.39991292
0 -0.09891159 -0.2799454 0.2380497 0.20752513 -0.38694015 -0.46220994 0.35015348 -0.63109183 -0.21982582 -0.3408966
