7 10
2 0.10195028 -0.52746457 0.60571843 -0.00097248144 -0.2216695 0.6477559 -0.10796314 0.43815774 -0.27437958 -0.12583813
4 0.0684608 -0.4799425 0.6009004 -0.028607205 -0.24647908 0.6308279 -0.09064668 0.43024907 -0.2729714 -0.18773724
3 0.11119526 -0.49848497 0.6357517 -0.08128892 -0.27086458 0.6394424 -0.15574165 0.38771614 -0.25393692 -0.17416519
5 0.1583003 -0.4567974 0.642009 -0.059833758 -0.18237647 0.6398104 -0.08700757 0.4708329 -0.18778703 -0.10973964
0 0.13026614 -0.43286955 0.6394523 -0.023087282 -0.17790966 0.6381401 -0.14364712 0.418356 -0.19267935 -0.19268392
1 0.15522459 -0.48407727 0.6499539 -0.096275665 -0.28717268 0.6152444 -0.13599634 0.42907572 -0.21481705 -0.13160872
6 0.14912896 -0.5260881 0.5959 -0.03523951 -0.21204528 0.63522065 -0.14073467 0.47980744 -0.2432107 -0.20001353
