6 10
5 0.27582648 -0.2597343 -0.1272059 -0.48285937 0.6128247 -0.36045334 0.35813838 0.025908446 0.5397062 -0.34348658
3 0.23426326 -0.187027 -0.11276811 -0.41353586 0.6031648 -0.42238453 0.3226559 0.01324972 0.54371387 -0.29575723
4 0.21323192 -0.28677237 -0.15495116 -0.44782776 0.64238894 -0.41796926 0.3497339 0.11209039 0.46954817 -0.27092183
1 0.23069225 -0.23632076 -0.097572155 -0.4657309 0.644775 -0.41402557 0.36060444 0.09654735 0.5411955 -0.2855708
0 0.17701991 -0.29449043 -0.13985747 -0.4381652 0.61144567 -0.3863188 0.31706464 0.10037561 0.5098849 -0.33424616
2 0.21878573 -0.27686018 -0.07654895 -0.47835365 0.63626325 -0.354473 0.29507217 0.027961379 0.52562904 -0.30856392
