7 10
2 -0.2062276 -0.7921893 0.06211356 -0.25769913 -0.10519661 -0.3619523 0.29671812 -0.6537176 -0.186185 0.22063261
0 -0.19114378 -0.78720224 0.053529494 -0.20545867 -0.109840274 -0.38988522 0.26188815 -0.67429703 -0.25071532 0.16918142
5 -0.21963856 -0.7567299 0.00034390634 -0.25140426 -0.14601119 -0.29125178 0.22936252 -0.66063786 -0.18923697 0.2332544
4 -0.215037 -0.7890388 0.030959576 -0.18971854 -0.12406333 -0.38648278 0.2743373 -0.5983042 -0.16291331 0.20481503
6 -0.22803 -0.7687229 -0.023678018 -0.2675422 -0.12012542 -0.32263744 0.18707488 -0.6300109 -0.24491443 0.24789353
3 -0.18072823 -0.7174209 -0.024317613 -0.2375975 -0.15466742 -0.3393202 0.22284721 -0.59691924 -0.21304546 0.16033036
1 -0.2011669 -0.7635228 0.013108053 -0.2270319 -0.14306633 -0.32348832 0.22078943 -0.6415313 -0.22476771 0.21791184
