7 10
0 -0.0920131 0.21084288 -0.4044821 0.52203584 0.05079356 0.39805034 0.29843777 -0.42631274 -0.115773976 0.6844194
5 -0.05777599 0.22000748 -0.3238835 0.5169129 -0.014411915 0.43932572 0.32662717 -0.45071346 -0.1746658 0.67241067
3 -0.0680328 0.20921576 -0.3484989 0.54423213 0.009041307 0.44837257 0.32767043 -0.42929584 -0.16171157 0.62125075
1 -0.14037141 0.13743222 -0.40453017 0.5394509 -0.008686398 0.4213238 0.34375957 -0.4172929 -0.097378895 0.7033735
2 -0.13804404 0.20792747 -0.3671005 0.4908345 0.0079471655 0.42583564 0.33092684 -0.41540092 -0.167594 0.68369305
4 -0.093256526 0.15522978 -0.35344577 0.5290742 -0.030819334 0.37638253 0.35733706 -0.37311932 -0.1318199 0.67756593
6 -0.10730801 0.163961 -0.34854454 0.48695916 0.031392418 0.39680701 0.28434774 -0.4333802 -0.0946622 0.6695707
