7 10
1 -0.47865188 -0.5595813 -0.100924164 0.6077546 -0.2627307 0.11097236 0.188824 0.4700334 0.21570316 0.40292192
0 -0.48089033 -0.5450552 -0.18940999 0.6471643 -0.24542567 0.06535708 0.22361302 0.46139836 0.16341591 0.4016117
3 -0.4542698 -0.50727636 -0.19610554 0.59780914 -0.29053956 0.09415919 0.2203969 0.38729343 0.14213389 0.4570757
4 -0.38838917 -0.49898744 -0.11149642 0.5972167 -0.3124109 0.09930141 0.21945606 0.44954973 0.20326488 0.39089978
5 -0.4221225 -0.4992151 -0.11237065 0.5963421 -0.2822902 0.033879954 0.2359745 0.41647613 0.16380653 0.36008644
6 -0.39121434 -0.5018423 -0.12967473 0.59514916 -0.29886624 0.062298376 0.16822435 0.3739794 0.2204081 0.41126636
2 -0.40380502 -0.48143613 -0.15656547 0.59957814 -0.30549243 0.11523709 0.17524996 0.42786837 0.21018182 0.35561147
