7 10
0 0.037922718 -0.053951055 0.46409714 -0.46603128 -0.069283575 -0.72605884 -0.39945972 -0.06138813 -0.28610986 -0.5513992
4 0.09902946 -0.020349346 0.5545501 -0.37390128 0.0052245953 -0.7327774 -0.33825263 -0.12310793 -0.28873673 -0.54432356
1 0.012893824 -0.057397693 0.48188287 -0.44486448 -0.063252576 -0.6785593 -0.38330567 -0.04821121 -0.3172457 -0.5459334
3 0.05662176 -0.09567298 0.49122527 -0.43577656 -0.089609005 -0.6597257 -0.38002285 -0.06853503 -0.32226256 -0.5367665
2 0.070738144 -0.028223593 0.46679336 -0.36171544 -0.01983641 -0.69930816 -0.38183543 -0.02134372 -0.27430952 -0.5447765
5 0.0032522227 -0.010136933 0.51129377 -0.46109888 -0.09479046 -0.64248323 -0.3516811 -0.08291435 -0.29565454 -0.4948581
6 -0.011872503 -0.048361342 0.4688585 -0.44175807 -0.043499913 -0.6956227 -0.3214452 -0.05978358 -0.26704395 -0.45871294
