7 10
1 -0.23934996 -0.5813723 -0.037714973 -0.44689378 0.11104848 0.3694838 0.1324647 0.6092312 -0.51871455 0.19554266
3 -0.2686915 -0.5840563 -0.055230565 -0.38477194 0.13907881 0.35437095 0.19945787 0.5760265 -0.5111909 0.2831881
2 -0.28948244 -0.5165885 -0.060192667 -0.37429252 0.07582113 0.3750651 0.19965746 0.6156033 -0.46539214 0.26563746
5 -0.33801544 -0.5802628 -0.09568502 -0.34242412 0.07124559 0.39762682 0.23266765 0.566277 -0.43700784 0.2083812
4 -0.31558448 -0.509603 -0.110747695 -0.4015358 0.103650644 0.39768305 0.22213942 0.52387816 -0.46180362 0.26839983
0 -0.33943143 -0.53189516 -0.07118406 -0.43833068 0.14223969 0.33461335 0.1468115 0.6190634 -0.509 0.2596181
6 -0.31957713 -0.55788195 -0.082743555 -0.37575078 0.10612366 0.40866536 0.17922184 0.55068636 -0.50208944 0.25654957
