7 10
0 -0.42266184 0.30161893 -1.0040226 -0.03976605 -0.19736741 -0.19553863 -0.30697048 0.15707578 -0.054812588 0.07291709
1 -0.38470575 0.22487225 -0.93593997 -0.07104436 -0.19192207 -0.13518952 -0.37534592 0.1455454 -0.01744042 0.025275769
5 -0.3949044 0.28063044 -0.9521745 -0.06254302 -0.11666524 -0.157377 -0.31847736 0.054099552 0.004192297 0.042560115
2 -0.38707098 0.33509952 -1.0127975 -0.06256139 -0.19014417 -0.08532561 -0.40977415 0.030935528 -0.07835752 0.10288367
4 -0.46174848 0.30000657 -1.0253527 -0.048336864 -0.10725672 -0.18000506 -0.3518374 0.059797205 -0.008161982 0.047414523
3 -0.47370264 0.27791843 -1.0471326 -0.028284457 -0.1096552 -0.13123035 -0.31541908 0.105908 0.011342189 0.031398226
6 -0.40082252 0.27296463 -0.9009322 -0.10616361 -0.17447838 -0.11633317 -0.36900553 0.15242201 0.023585292 -0.008598561
