7 10
0 0.08650927 0.4423121 0.047951583 -0.06464087 -0.1276064 -0.65600204 -0.18122591 0.3391327 0.6206698 -0.52967405
4 0.11107609 0.41621825 0.12325242 -0.06267532 -0.13659742 -0.6044671 -0.20545366 0.38085717 0.6343346 -0.43145207
2 0.15712196 0.44718656 0.099450245 -0.07784461 -0.10151652 -0.63857037 -0.23167966 0.40240362 0.5799856 -0.4709345
3 0.1172836 0.3790245 0.12909372 -0.045486543 -0.10495798 -0.6141001 -0.21056074 0.41356313 0.6393408 -0.48146343
1 0.13301928 0.3907171 0.04365051 -0.097839005 -0.12948848 -0.5779758 -0.17309576 0.36844724 0.645941 -0.507042
6 0.060185175 0.4127575 0.04082314 -0.08350897 -0.09377458 -0.6356541 -0.22246656 0.3923233 0.6535829 -0.45919707
5 0.12851833 0.38527966 0.13015434 -0.06388921 -0.12211271 -0.6255781 -0.20924383 0.37148365 0.62486213 -0.44866964
