7 10
4 -0.42471522 0.23146272 0.16917212 0.27744034 0.3902412 -0.7850061 0.30830702 0.43518126 0.009437926 0.15827234
0 -0.43067023 0.24126439 0.19090821 0.2780991 0.39291686 -0.84233946 0.3256212 0.47644866 0.010660194 0.19511233
3 -0.38205007 0.14128618 0.21504429 0.2873057 0.39200416 -0.79146403 0.24750362 0.39445406 -0.05101432 0.15504573
1 -0.437694 0.18935685 0.2623402 0.22312418 0.31841528 -0.83811396 0.25999513 0.4610848 -0.010350169 0.10947735
2 -0.43481147 0.19033255 0.24978322 0.20472501 0.36559242 -0.7978515 0.30304164 0.39445153 -0.049401805 0.10400088
6 -0.38694298 0.16133109 0.24199554 0.25743642 0.40098554 -0.7616054 0.29260576 0.43024224 -0.02291367 0.17203063
5 -0.34666237 0.15916978 0.24528316 0.2965311 0.37273306 -0.7716088 0.23036085 0.39626113 -0.057238728 0.09889649
