7 10
3 0.3369026 -0.024631865 -0.013748813 0.4304733 -0.4726204 -0.6533757 0.14900929 -0.101443976 0.5469734 0.38390598
4 0.28261128 -0.06336252 0.006695054 0.39710262 -0.57801193 -0.6112316 0.15241937 -0.06604186 0.5214908 0.40571675
6 0.35141316 -0.02003375 -0.014186371 0.41047895 -0.5247655 -0.6180182 0.13840546 -0.09986348 0.5120059 0.40382323
0 0.2901944 -0.04829438 -0.033234894 0.3597319 -0.49914873 -0.63084054 0.11725534 -0.034732062 0.53987795 0.4093193
5 0.324441 -0.06637593 0.033140358 0.4066777 -0.561181 -0.58894044 0.11799066 -0.03562566 0.54987794 0.4162452
1 0.3391364 -0.07458844 -0.017970992 0.39727744 -0.55409575 -0.6071932 0.094770156 -0.113598935 0.5573311 0.3475118
2 0.30994055 -0.05250663 0.038974892 0.40177125 -0.55745673 -0.6061338 0.10009631 -0.10935517 0.5666767 0.34177828
