6 10
1 0.35262045 0.1212644 -0.16919267 -0.3281631 0.082527354 -0.03288398 0.95970166 -0.28526482 -0.18754314 0.20338173
5 0.33943048 0.07952258 -0.18748581 -0.340534 0.03968449 -0.046587244 0.98264724 -0.21334969 -0.24661312 0.23143247
0 0.3475785 0.058367755 -0.18527687 -0.39002421 0.062633805 -0.026707532 0.97594655 -0.26279685 -0.1571451 0.16600755
2 0.39828515 0.124703586 -0.20857601 -0.34585816 0.023654824 0.016289694 0.9492768 -0.18113525 -0.18709603 0.15198164
3 0.38194674 0.045174792 -0.18381922 -0.34477088 0.103071764 0.032055866 0.97199243 -0.24783242 -0.24941666 0.23573534
4 0.3929235 0.10878724 -0.20266443 -0.3344369 -0.002238194 0.04957863 0.93492895 -0.24336615 -0.18121707 0.12303694
