5 10
3 -0.2500002 -0.58094007 -0.34443402 -0.013292065 0.6131375 -0.27512243 0.49581832 -0.40674677 0.12014858 0.14742029
4 -0.33853155 -0.63883746 -0.3032518 -0.027777024 0.6764921 -0.3648698 0.5305305 -0.42684406 0.09910272 0.11138581
1 -0.24738513 -0.50348896 -0.2677132 0.022485616 0.5520604 -0.26215866 0.40672046 -0.33801836 0.06509285 0.13050713
2 -0.206205 -0.48309693 -0.29135525 -0.073660515 0.57100767 -0.2633772 0.43727046 -0.3843534 0.07631737 0.13811813
0 -0.30466682 -0.5695184 -0.3375217 -0.08420018 0.5767004 -0.2824148 0.5092333 -0.44047126 0.0503509 0.11170552
