7 10
1 -0.14098005 0.47249997 -0.16012073 0.00056990737 -0.81182027 -0.0077394783 0.48841003 0.0023127382 -0.23638977 0.40981004
5 -0.13087448 0.4773308 -0.1933389 0.029057942 -0.80929106 0.04305371 0.51262647 -0.068400756 -0.1615759 0.37109903
4 -0.061560374 0.47505307 -0.20436673 -0.009473462 -0.8344652 -0.027308807 0.48840994 0.0127251 -0.1882663 0.41453323
3 -0.08874918 0.4838274 -0.13912024 0.0056705885 -0.80972826 0.008530439 0.51767284 -0.043194696 -0.20468366 0.39959157
6 -0.064200535 0.41503385 -0.19163795 -0.018102342 -0.8490447 0.0048617455 0.5241217 -0.040470216 -0.20453137 0.3835187
0 -0.117952146 0.4264851 -0.23425215 -0.06997076 -0.83566356 -5.235603e-05 0.46622095 -0.08063832 -0.23576793 0.4229737
2 -0.10679924 0.4701632 -0.19078349 0.011867979 -0.8132763 -0.053821772 0.49560276 0.010005392 -0.24328342 0.34369802
