7 10
1 -0.0054772403 -0.10110101 0.22702399 0.10357994 -0.1251769 0.29548445 -0.54115194 -0.882484 0.34924033 -0.39392588
0 -0.069091596 -0.10746109 0.17341474 0.11266415 -0.059404075 0.22562474 -0.5084376 -0.8729991 0.33520076 -0.3130642
6 0.012964902 -0.06196115 0.22710207 0.045935698 -0.11675056 0.29294986 -0.5268085 -0.8799212 0.25123078 -0.35310078
5 -0.07864069 -0.053966902 0.16066995 0.11979886 -0.049484394 0.3185951 -0.5151334 -0.8916008 0.32377434 -0.36784095
2 -0.0604821 -0.006027705 0.19519462 0.05149863 -0.12509938 0.27378306 -0.5617334 -0.88154525 0.30752963 -0.3248695
3 -0.034414873 -0.018393861 0.22460452 0.12111624 -0.06777965 0.31508708 -0.4879215 -0.90661705 0.2609953 -0.33837765
4 -0.005166415 -0.041774143 0.18985689 0.12131872 -0.13526005 0.3058674 -0.4871704 -0.82074904 0.2179287 -0.37539867
