7 10
4 0.66563374 -0.26690316 -0.20744567 -0.15149327 0.10482498 -0.4532471 -0.23343334 0.65406895 0.3093434 0.10364752
3 0.64984435 -0.35263544 -0.1662226 -0.14610885 0.12005215 -0.40052137 -0.18120126 0.5921222 0.39746666 0.0842735
1 0.62800306 -0.35637802 -0.18570429 -0.072027534 0.17229722 -0.39179763 -0.27477717 0.585679 0.4505089 0.086752266
2 0.6763533 -0.35814613 -0.117367834 -0.077645764 0.093938105 -0.36788204 -0.2854874 0.5754465 0.43907747 0.10249693
5 0.67244244 -0.30813354 -0.16754058 -0.09430634 0.120841734 -0.4195502 -0.27854872 0.6398169 0.4204398 0.081451885
0 0.5989058 -0.31866354 -0.17889501 -0.09580281 0.16788569 -0.48231667 -0.2986371 0.6828328 0.3243811 0.03458046
6 0.69939345 -0.3471528 -0.09226623 -0.13462597 0.13983485 -0.3467241 -0.20670329 0.6280797 0.4696476 0.10532879
