7 10
1 -0.04542078 0.071504764 0.16246293 -0.07295895 -0.21348563 0.57144445 -0.6234763 -0.47510695 -0.5512387 0.23389348
2 -0.05279336 0.07662608 0.19922037 0.026653208 -0.20256533 0.5893854 -0.6507701 -0.5111196 -0.5435057 0.2194185
3 -0.03914149 0.083958834 0.19618475 -0.03910407 -0.1837208 0.57852006 -0.60494924 -0.49480885 -0.5326214 0.21083869
4 -0.06805641 0.049878478 0.16266027 0.012059151 -0.1742259 0.57923687 -0.6416768 -0.539774 -0.5570406 0.18725263
5 -0.06552256 0.032628722 0.17599905 -0.0069626626 -0.16910084 0.6020725 -0.62681365 -0.46234876 -0.52872604 0.17425714
6 -0.020693963 0.11082847 0.12954476 0.001821717 -0.19351232 0.5611441 -0.654132 -0.546804 -0.483016 0.16094117
0 -0.03717339 0.012951459 0.1414911 -0.038435828 -0.13617732 0.58588177 -0.62400764 -0.49848452 -0.46575958 0.19324154
