7 10
0 -0.058433544 -0.35572648 0.10328091 0.2412677 0.41141334 -0.013868487 -0.19013582 0.3607005 0.8943162 0.11751826
5 -0.042139642 -0.3735601 0.12581682 0.2886328 0.4046621 0.05706616 -0.2581236 0.2808085 0.9132354 0.11900087
3 -0.117831066 -0.29141086 0.13162358 0.29773802 0.41843882 -0.01041381 -0.20810612 0.3727614 0.9120635 0.10370434
2 -0.091424525 -0.36258963 0.111336105 0.24576886 0.44105896 0.061396237 -0.16434132 0.35686523 0.9041704 0.061213907
1 -0.11759309 -0.34123194 0.045056146 0.27950388 0.4498303 0.03479617 -0.21925497 0.307536 0.8829685 0.09848322
4 -0.030970767 -0.38280046 0.0838946 0.3040842 0.45002386 0.03554722 -0.16826724 0.31041327 0.86905116 0.11217521
6 -0.10878806 -0.34089103 0.03476685 0.2726211 0.4054022 0.039638538 -0.2341133 0.30134028 0.9182924 0.1258471
