7 10
4 0.20544651 -0.19404544 -0.018066498 -0.15068652 0.26586318 -0.27711895 -0.3043165 0.44337755 -0.8462723 -0.27978337
1 0.25662538 -0.22036842 0.049978137 -0.07311934 0.31132174 -0.32207033 -0.24391694 0.4507893 -0.86512995 -0.19668785
3 0.2610322 -0.22622761 0.016108384 -0.13278675 0.30750653 -0.32520103 -0.32826746 0.4264946 -0.8322999 -0.19370666
2 0.20560856 -0.22519703 0.009876608 -0.06573236 0.29491323 -0.3252101 -0.29653892 0.454574 -0.8168436 -0.23790099
0 0.23258159 -0.21307893 0.026012516 -0.14275452 0.2987573 -0.27601886 -0.33488378 0.4245416 -0.8319466 -0.2686977
5 0.24042231 -0.27047914 0.01313892 -0.11119352 0.24561688 -0.3729005 -0.30509713 0.43673113 -0.8076328 -0.20406717
6 0.2703083 -0.25217843 0.04720295 -0.14004882 0.25253615 -0.3747827 -0.2978598 0.4948109 -0.83973175 -0.24011213
