7 10
0 -0.50172144 -0.40359893 0.054512214 0.6670714 -0.5740173 0.012145158 0.10071176 0.21731037 0.0258971 0.4322343
4 -0.53280985 -0.4623697 0.07912307 0.62687224 -0.5854242 0.06562559 0.12972687 0.23192734 -0.0702301 0.4137584
1 -0.4548689 -0.47092742 0.004447952 0.6533065 -0.5458017 -0.01150125 0.086786665 0.1684799 0.013795328 0.33787742
5 -0.5096234 -0.46907595 0.05223849 0.6500174 -0.5036949 0.0031190384 0.15010062 0.14903347 -0.024946721 0.39580786
6 -0.538317 -0.45155126 0.06549802 0.66467696 -0.56078327 0.05995751 0.0896097 0.24264921 -0.052247133 0.4082144
3 -0.5265369 -0.4946283 0.11214679 0.65107954 -0.5980791 0.053423412 0.08922859 0.15982392 -0.047727834 0.42891818
2 -0.4803581 -0.4650755 0.11868376 0.62207794 -0.56859857 0.037921228 0.045139343 0.2460908 -0.014726305 0.42667064
