7 10
6 -0.10270548 -0.37146 -0.37979946 0.20734121 -0.6263146 0.35164413 0.20396456 -0.30530837 0.18717052 -0.5965936
5 -0.10112679 -0.40360835 -0.3909592 0.20417008 -0.6457367 0.39057365 0.22734185 -0.3222481 0.14926694 -0.5424236
4 -0.08546821 -0.3859606 -0.39368463 0.13033272 -0.62148666 0.3634789 0.19807343 -0.31098592 0.13167001 -0.587376
3 -0.070552334 -0.39573857 -0.36397773 0.18856727 -0.6268763 0.3871866 0.23166734 -0.35502145 0.20394017 -0.6050787
1 -0.10538176 -0.41467184 -0.33433408 0.1316663 -0.6852341 0.4040465 0.2383139 -0.2699827 0.20563397 -0.58120227
2 -0.05133925 -0.342587 -0.36550492 0.11722676 -0.6212833 0.4204312 0.23722772 -0.32753417 0.15340982 -0.5848775
0 -0.08508615 -0.33667773 -0.33083317 0.20202023 -0.64816326 0.43100616 0.27268392 -0.33177048 0.15675838 -0.5535754
