7 10
1 -0.22342484 -0.34155217 -0.47982502 0.09912822 0.44342327 0.28499237 0.21011284 -0.6966087 -0.29691327 0.43009615
4 -0.16987254 -0.27030066 -0.51048094 0.0833333 0.4060476 0.31605217 0.23749629 -0.7187336 -0.30549526 0.53600067
3 -0.18545523 -0.32398862 -0.45137426 0.033273213 0.39603317 0.2982661 0.17838943 -0.69640976 -0.20132464 0.4855009
5 -0.14277372 -0.3240959 -0.4828036 0.086875595 0.37399542 0.2519678 0.18447493 -0.6802706 -0.2873572 0.4996703
6 -0.13446286 -0.2789393 -0.42472795 0.10972559 0.39799586 0.3246174 0.19470471 -0.7520821 -0.21991102 0.47886276
2 -0.18484877 -0.28990173 -0.40593427 0.037391428 0.40023527 0.23871371 0.14985831 -0.70658755 -0.2998047 0.45942107
0 -0.1933917 -0.32010898 -0.46845558 0.013683354 0.4098438 0.3081017 0.17829818 -0.7001471 -0.25335413 0.5032728
