7 10
1 -0.26776174 -0.7473118 0.38609055 0.27663156 -0.50723267 -0.06161548 -0.17377464 0.30646226 0.46133098 -0.009382085
4 -0.18713397 -0.7713634 0.38126877 0.3140985 -0.40879378 0.0181252 -0.08303243 0.22809203 0.44668865 0.052224126
3 -0.16794102 -0.8317591 0.36073864 0.30171534 -0.44956407 0.03978165 -0.10926258 0.28959742 0.41444713 0.07437112
5 -0.25836402 -0.73949885 0.31049478 0.3722944 -0.47337154 -0.03799084 -0.116973236 0.3151703 0.4671816 -0.01905144
2 -0.24568465 -0.7873628 0.33497262 0.37967345 -0.4887079 -0.013084505 -0.14987266 0.25252607 0.47817314 0.059796166
0 -0.2298977 -0.74123716 0.32652402 0.34764576 -0.4732924 -0.015089126 -0.10640005 0.2492554 0.4494757 -0.0077575417
6 -0.16567045 -0.7288067 0.39102507 0.36591697 -0.39628685 0.0014374502 -0.15321116 0.2661917 0.4891917 -0.012513666
