6 10
2 -0.3690595 0.05614517 0.17841615 -0.43179888 0.25133708 -0.40589038 0.44038057 -0.6084791 0.25813168 0.38733932
1 -0.35465664 -0.016448695 0.22411385 -0.43433446 0.30626532 -0.3983898 0.506466 -0.6131998 0.3327939 0.38741845
5 -0.323513 0.07717676 0.14288245 -0.39946088 0.2680091 -0.373571 0.45882142 -0.6224496 0.39308947 0.40496647
3 -0.2887653 0.036429737 0.22140546 -0.35796154 0.2970934 -0.3176784 0.46704865 -0.59670055 0.34228945 0.36694035
4 -0.3251528 0.028264955 0.13313253 -0.3991202 0.22357053 -0.408767 0.4720002 -0.6183466 0.2924684 0.31977946
6 -0.3663531 0.11002615 0.122416325 -0.371939 0.30299348 -0.36152363 0.41678563 -0.585047 0.37250826 0.42156735
