7 10
3 -0.36872053 0.23649792 -0.041393112 0.039385267 -0.046487596 -0.5954385 0.17838502 0.61858314 0.48553973 0.4460134
5 -0.4026111 0.2090615 -0.031679694 0.08471945 -0.02633887 -0.6094814 0.17010243 0.53169215 0.5332392 0.40810513
1 -0.43484563 0.19792238 -0.080496766 0.09825169 -0.08246788 -0.55268276 0.0967545 0.6061234 0.5449261 0.43271515
0 -0.35950214 0.25075868 -0.019300181 0.061466787 -0.060337827 -0.6170357 0.1879922 0.5884443 0.5306218 0.42492667
2 -0.39421755 0.2454377 -0.03750432 0.044583365 -0.004502951 -0.611 0.19182391 0.565473 0.50506765 0.4155884
4 -0.35110745 0.27373636 -0.041579906 0.07673436 -0.048781704 -0.58732384 0.15347542 0.59507775 0.46329147 0.39251217
6 -0.4119111 0.23700821 -0.026920473 0.032035366 -0.05064521 -0.63230616 0.11160477 0.5810348 0.50785977 0.45078227
