7 10
6 -0.44910303 0.31051996 0.31811312 0.18225332 -0.22137915 0.238711 -0.5014485 0.6827629 -0.3679042 -0.18643886
1 -0.44752946 0.30761728 0.3541753 0.13494141 -0.16685191 0.22633703 -0.5406197 0.6741701 -0.30841902 -0.15789507
2 -0.45211676 0.29740247 0.35160887 0.1435903 -0.15610006 0.26032773 -0.52652854 0.6642863 -0.36081332 -0.23461893
5 -0.45705822 0.282646 0.30925977 0.1534142 -0.18701845 0.27211434 -0.50047326 0.646771 -0.3369287 -0.22455336
4 -0.47417292 0.31856322 0.36992383 0.18768208 -0.20910648 0.2799648 -0.511792 0.64908063 -0.33232722 -0.1556388
0 -0.4810086 0.29485163 0.36796412 0.0953825 -0.1881522 0.28270352 -0.5044135 0.62164843 -0.35443765 -0.23947471
3 -0.46298048 0.27007693 0.33639202 0.10964501 -0.16097178 0.28636402 -0.51503134 0.6685649 -0.2930798 -0.21556522
