7 10
0 -0.1545025 -0.007283567 0.18463151 -0.010205761 -0.18209045 0.86318296 -0.106196366 -0.15120195 0.33153984 0.62415785
4 -0.12208559 0.06356199 0.15392551 -0.054879606 -0.15603441 0.8320929 -0.109922744 -0.14411287 0.39306715 0.6181823
3 -0.094698176 -0.0015799266 0.14282614 -0.051262055 -0.20324948 0.8450737 -0.10883213 -0.124748014 0.40605778 0.65423286
5 -0.092049755 -0.005275617 0.10980495 -0.018856738 -0.15074684 0.83438265 -0.056951277 -0.16734724 0.397923 0.6448405
2 -0.099900916 0.040912587 0.10769175 -0.021765826 -0.14928031 0.84362304 -0.11911891 -0.17637919 0.4020349 0.65857
1 -0.07568512 0.050042942 0.09809256 -0.02100238 -0.13376781 0.83450425 -0.09056748 -0.14418654 0.35588646 0.6872797
6 -0.15427245 -0.035401743 0.15368898 -0.00979524 -0.22089683 0.8719334 -0.1189018 -0.078459404 0.3943805 0.67609334
