7 10
5 -0.113765635 0.14193612 0.40457457 -0.13649093 -0.19748202 -0.86312157 0.19899438 -0.13201411 0.42546782 0.5114336
2 -0.09228033 0.18491061 0.3733395 -0.149219 -0.15388514 -0.83850634 0.18906473 -0.18970731 0.4157883 0.43946892
1 -0.10571811 0.20581745 0.32752082 -0.17116238 -0.18837726 -0.84461844 0.1760877 -0.14756456 0.39586985 0.46200374
0 -0.14828417 0.1733727 0.35808444 -0.1640584 -0.14065059 -0.86374766 0.09345248 -0.09919773 0.38008642 0.4944821
3 -0.15732174 0.20710607 0.37696946 -0.18080366 -0.13855243 -0.8543686 0.17977147 -0.16139308 0.35433632 0.4618219
6 -0.10904281 0.121827155 0.36951226 -0.10158997 -0.117482096 -0.8699515 0.14795531 -0.13992831 0.40056452 0.46478358
4 -0.087358914 0.17706981 0.31419942 -0.18973139 -0.17991161 -0.8379029 0.13329893 -0.18328136 0.38276166 0.43076447
