2 10
2 -0.016412858 -0.021034358 0.08958831 -0.011247875 -0.07544188 0.06901812 -0.05370088 0.0529342 -0.055401992 -0.007163737
3 -0.07212851 0.04386627 0.12161582 -0.0049377573 -0.09982751 0.031766135 -0.062055595 0.08726506 0.008323674 -0.006432556
